################################################################################
# Neural network connection values (weights and biases).
################################################################################
# Col  Name       Description
################################################################################
# 1    connection Neural network connection value.
# 2    t          Connection type (a = weight, b = bias).
# 3    index      Index enumerating weights.
# 4    l_s        Starting point layer (end point layer for biases).
# 5    n_s        Starting point neuron in starting layer (end point neuron for biases).
# 6    l_e        End point layer.
# 7    n_e        End point neuron in end layer.
################################################################################
#                      1 2         3     4     5     6     7
#             connection t     index   l_s   n_s   l_e   n_e
############################################################
  3.6830947394905517E-01 a         1     0     1     1     1
 -4.1447924774832312E-01 a         2     0     1     1     2
  1.4835313350301901E-01 a         3     0     1     1     3
 -3.6024697728014421E-02 a         4     0     1     1     4
  1.8678348228021957E-01 a         5     0     1     1     5
 -1.2093396358313384E-01 a         6     0     1     1     6
 -9.1309159983087237E-03 a         7     0     1     1     7
 -1.9302736559680991E-01 a         8     0     1     1     8
  1.9693917519798726E-01 a         9     0     1     1     9
  2.0544540990537244E-01 a        10     0     1     1    10
 -3.8665935412467345E-01 a        11     0     1     1    11
  1.8986032706859651E-01 a        12     0     1     1    12
  1.4722383896434157E-01 a        13     0     1     1    13
  1.3356659287402167E-01 a        14     0     1     1    14
 -4.4798560865653475E-01 a        15     0     1     1    15
 -7.0785420028596960E-02 a        16     0     1     1    16
  3.1307486710297827E-01 a        17     0     1     1    17
  4.3324321650668057E-01 a        18     0     1     1    18
 -5.1491143585522814E-02 a        19     0     1     1    19
 -2.8843611426118793E-01 a        20     0     1     1    20
 -5.2571962350720834E-02 a        21     0     2     1     1
  2.4198626350985730E-01 a        22     0     2     1     2
 -8.9576173008880086E-02 a        23     0     2     1     3
  2.1313332863718348E-01 a        24     0     2     1     4
  5.4534086008333579E-02 a        25     0     2     1     5
  1.3110288579122231E-01 a        26     0     2     1     6
  2.0765800473180961E-02 a        27     0     2     1     7
 -1.7828969944378684E-01 a        28     0     2     1     8
 -1.7554038294961785E-01 a        29     0     2     1     9
 -9.6177952654111828E-03 a        30     0     2     1    10
 -1.0726792656667264E-01 a        31     0     2     1    11
 -3.9854761070331313E-01 a        32     0     2     1    12
  1.1241250831309736E-01 a        33     0     2     1    13
 -1.0593056018103686E-01 a        34     0     2     1    14
  5.2621420756586941E-02 a        35     0     2     1    15
  8.3615936325797488E-02 a        36     0     2     1    16
  1.2794926082743775E-02 a        37     0     2     1    17
  2.0916235488016616E-01 a        38     0     2     1    18
 -2.8973639485934549E-01 a        39     0     2     1    19
 -5.7447754375810914E-02 a        40     0     2     1    20
  3.7577826583812701E-01 a        41     0     3     1     1
 -1.6831363456811621E-01 a        42     0     3     1     2
  3.4065726869112195E-01 a        43     0     3     1     3
  1.5589783734977677E-01 a        44     0     3     1     4
 -7.6005266174309805E-02 a        45     0     3     1     5
 -2.3120650365162500E-03 a        46     0     3     1     6
  3.3605528855211626E-02 a        47     0     3     1     7
 -2.2287905371779590E-01 a        48     0     3     1     8
 -1.0679720701743996E-01 a        49     0     3     1     9
  4.2286274929168749E-01 a        50     0     3     1    10
 -1.0828329507254106E-01 a        51     0     3     1    11
 -1.0039922621984647E-01 a        52     0     3     1    12
 -6.1507242545799749E-02 a        53     0     3     1    13
  9.9116797847085547E-02 a        54     0     3     1    14
  5.9249069463391188E-02 a        55     0     3     1    15
  2.4402538952874536E-01 a        56     0     3     1    16
 -2.2804094072397751E-01 a        57     0     3     1    17
 -9.7607119415455509E-02 a        58     0     3     1    18
  1.8889322453788585E-01 a        59     0     3     1    19
  2.0435867193633404E-02 a        60     0     3     1    20
 -1.4578447521002738E-01 a        61     0     4     1     1
 -1.0619071189436950E-02 a        62     0     4     1     2
  9.0847841499821591E-01 a        63     0     4     1     3
 -1.8555897400039709E-01 a        64     0     4     1     4
 -1.5678193759396200E-01 a        65     0     4     1     5
 -9.3326063863202524E-02 a        66     0     4     1     6
 -2.3448562410477444E-01 a        67     0     4     1     7
  4.0205562441461418E-01 a        68     0     4     1     8
  7.2159113969280220E-01 a        69     0     4     1     9
 -2.4076517272861614E-01 a        70     0     4     1    10
  5.1687873896007974E-01 a        71     0     4     1    11
 -2.8857415313393037E-01 a        72     0     4     1    12
 -1.2918920940037770E+00 a        73     0     4     1    13
  4.7375193753572953E-01 a        74     0     4     1    14
  8.8639502638516391E-03 a        75     0     4     1    15
  3.9553573609812431E-02 a        76     0     4     1    16
 -6.2623522402534540E-03 a        77     0     4     1    17
 -6.0435564840463130E-01 a        78     0     4     1    18
 -1.0393853563559665E+00 a        79     0     4     1    19
  1.3872852017309409E-01 a        80     0     4     1    20
  1.8511510988296326E-01 a        81     0     5     1     1
 -7.9449224016797604E-01 a        82     0     5     1     2
  2.4661557770817258E-01 a        83     0     5     1     3
 -1.9126650950797602E-01 a        84     0     5     1     4
 -3.0681832221599498E-02 a        85     0     5     1     5
 -3.5852479444122770E-01 a        86     0     5     1     6
  4.6956535705760305E-02 a        87     0     5     1     7
  2.5857444635231908E-01 a        88     0     5     1     8
  7.8149144772640233E-02 a        89     0     5     1     9
  2.9268117772373392E-01 a        90     0     5     1    10
  1.9187974171954832E-02 a        91     0     5     1    11
  6.7775858465332395E-01 a        92     0     5     1    12
 -1.8878881174744142E-01 a        93     0     5     1    13
  4.9237502855854726E-01 a        94     0     5     1    14
 -3.0827601590148388E-02 a        95     0     5     1    15
  2.2291511621717240E-02 a        96     0     5     1    16
 -6.0007640577501506E-02 a        97     0     5     1    17
 -2.6484823187229745E-01 a        98     0     5     1    18
  5.4656746955039692E-01 a        99     0     5     1    19
  1.1127111266772274E-01 a       100     0     5     1    20
 -9.3360361901647138E-01 a       101     0     6     1     1
  3.3896450041028858E-01 a       102     0     6     1     2
 -3.0738045380911383E-01 a       103     0     6     1     3
 -1.6673039321723182E-01 a       104     0     6     1     4
  5.5257569539665666E-02 a       105     0     6     1     5
 -5.1052572547042763E-01 a       106     0     6     1     6
  1.3583107524529289E-02 a       107     0     6     1     7
  2.8500117524981211E-01 a       108     0     6     1     8
  8.9473578568298717E-01 a       109     0     6     1     9
 -1.9259715560452717E-01 a       110     0     6     1    10
  9.9347309374908141E-02 a       111     0     6     1    11
  4.3776470591365690E-01 a       112     0     6     1    12
 -1.7400022057661507E-01 a       113     0     6     1    13
  3.0634454168415326E-01 a       114     0     6     1    14
 -9.1014021840699766E-01 a       115     0     6     1    15
 -1.4085896559627481E-01 a       116     0     6     1    16
  2.8717777012210471E-01 a       117     0     6     1    17
 -3.0546506493365318E-02 a       118     0     6     1    18
 -6.7525427721397191E-01 a       119     0     6     1    19
  1.2774430958487829E-01 a       120     0     6     1    20
 -1.0630129143016903E-01 a       121     0     7     1     1
 -1.0862066799070719E-01 a       122     0     7     1     2
  1.6604321020422366E-01 a       123     0     7     1     3
  2.3973323666492624E-01 a       124     0     7     1     4
 -6.7475579228192792E-02 a       125     0     7     1     5
  3.0828008488282675E-02 a       126     0     7     1     6
 -1.9376528043841601E-02 a       127     0     7     1     7
  1.4037699495945252E-01 a       128     0     7     1     8
  3.2796930983512906E-01 a       129     0     7     1     9
 -3.8137520404138529E-02 a       130     0     7     1    10
 -1.5204779111593783E-01 a       131     0     7     1    11
  1.2763472389672353E-01 a       132     0     7     1    12
  2.0288818674729589E-01 a       133     0     7     1    13
  6.1487319413887388E-02 a       134     0     7     1    14
  2.4485514194719238E-01 a       135     0     7     1    15
 -1.0436546016271044E-01 a       136     0     7     1    16
  2.8186925091466919E-01 a       137     0     7     1    17
  4.1625896433491083E-01 a       138     0     7     1    18
 -9.8246697158234558E-02 a       139     0     7     1    19
  5.2541725770857320E-02 a       140     0     7     1    20
  4.5546390810548421E-01 a       141     0     8     1     1
  2.3260587824693268E-02 a       142     0     8     1     2
  2.3290503008375310E-01 a       143     0     8     1     3
 -9.1296807216699014E-02 a       144     0     8     1     4
 -3.5723341237962988E-02 a       145     0     8     1     5
 -9.8829487125503032E-02 a       146     0     8     1     6
  2.1257952953949180E-01 a       147     0     8     1     7
  1.8287142850000029E-01 a       148     0     8     1     8
 -7.1876279045146513E-02 a       149     0     8     1     9
  1.9412498034590393E-02 a       150     0     8     1    10
  2.2480298173852714E-01 a       151     0     8     1    11
 -5.2454356674744775E-02 a       152     0     8     1    12
 -7.4784311852759633E-02 a       153     0     8     1    13
 -6.0775225112137166E-01 a       154     0     8     1    14
  8.3262143740417918E-02 a       155     0     8     1    15
 -6.8507847735385444E-02 a       156     0     8     1    16
 -2.4989969138579202E-01 a       157     0     8     1    17
  2.2633617069076888E-02 a       158     0     8     1    18
  1.7341884387661752E-02 a       159     0     8     1    19
  2.3401518677823491E-01 a       160     0     8     1    20
  4.9876681693469642E-02 a       161     0     9     1     1
  4.9870745509255282E-01 a       162     0     9     1     2
  1.6666113821498965E-01 a       163     0     9     1     3
  2.1160549661851091E-01 a       164     0     9     1     4
 -2.6038997640529293E-01 a       165     0     9     1     5
  1.9695449997117254E-01 a       166     0     9     1     6
  6.6717192578595907E-01 a       167     0     9     1     7
 -2.3954371046751244E-01 a       168     0     9     1     8
  1.8868384404362043E-01 a       169     0     9     1     9
  1.1525433651664270E-01 a       170     0     9     1    10
 -2.7795073346863369E-01 a       171     0     9     1    11
  4.8027623901848046E-02 a       172     0     9     1    12
 -3.5235017690049547E-01 a       173     0     9     1    13
 -3.1450822394760874E-01 a       174     0     9     1    14
 -2.7000364314264347E-01 a       175     0     9     1    15
  3.9489047281524525E-02 a       176     0     9     1    16
 -3.5706959548669329E-02 a       177     0     9     1    17
  1.3016239134552177E-01 a       178     0     9     1    18
  3.0166702632049297E-01 a       179     0     9     1    19
  6.7231271415965987E-01 a       180     0     9     1    20
  9.4093012548662786E-02 a       181     0    10     1     1
 -2.2802587545985592E-01 a       182     0    10     1     2
  4.1181899869452587E-01 a       183     0    10     1     3
 -4.1878326005884946E-02 a       184     0    10     1     4
  5.7570698257236638E-02 a       185     0    10     1     5
 -7.4311830592923761E-02 a       186     0    10     1     6
  1.6755819110231573E-01 a       187     0    10     1     7
  1.8677361908029019E-01 a       188     0    10     1     8
  2.6206087197113159E-01 a       189     0    10     1     9
 -1.9487920938761441E-01 a       190     0    10     1    10
  1.8357391831522615E-01 a       191     0    10     1    11
  4.3142720763244428E-02 a       192     0    10     1    12
 -6.5900667690761405E-01 a       193     0    10     1    13
  1.2957009946015680E-01 a       194     0    10     1    14
  1.9372410069680549E-02 a       195     0    10     1    15
 -1.4062528034778787E-01 a       196     0    10     1    16
  1.8664577700910875E-01 a       197     0    10     1    17
 -5.3204007702439902E-02 a       198     0    10     1    18
 -3.8530638227540220E-01 a       199     0    10     1    19
  3.9935326282678096E-02 a       200     0    10     1    20
 -1.4385071769504743E-01 a       201     0    11     1     1
  1.0007749584024819E+00 a       202     0    11     1     2
 -5.5141930025292518E-01 a       203     0    11     1     3
 -1.3397518568761149E-01 a       204     0    11     1     4
  3.2938409940186701E-02 a       205     0    11     1     5
  5.4281865136457674E-01 a       206     0    11     1     6
  4.3404685987170077E-01 a       207     0    11     1     7
  8.7760402013573630E-02 a       208     0    11     1     8
 -2.6542940813569815E-01 a       209     0    11     1     9
  4.2587139943646407E-02 a       210     0    11     1    10
 -5.1797292403324875E-02 a       211     0    11     1    11
 -3.7167097566350810E-01 a       212     0    11     1    12
  4.9174609309513534E-01 a       213     0    11     1    13
 -9.9988844223375895E-02 a       214     0    11     1    14
  3.2647993916669676E-01 a       215     0    11     1    15
  2.2767230386379786E-01 a       216     0    11     1    16
  4.6527098726455257E-01 a       217     0    11     1    17
  3.1533490993263946E-01 a       218     0    11     1    18
 -6.4658116455142456E-01 a       219     0    11     1    19
 -3.8701289296479258E-01 a       220     0    11     1    20
 -1.8785987478756871E-01 a       221     0    12     1     1
 -6.1444656221642868E-01 a       222     0    12     1     2
  1.5497338525550775E-01 a       223     0    12     1     3
  2.7720952611654227E-02 a       224     0    12     1     4
  3.7088774859538343E-01 a       225     0    12     1     5
 -5.9112113922979348E-01 a       226     0    12     1     6
  5.7827346424505333E-01 a       227     0    12     1     7
 -4.0595656724665580E-01 a       228     0    12     1     8
  1.0830172100149760E-01 a       229     0    12     1     9
 -1.2515697376097079E-01 a       230     0    12     1    10
  1.1284235029727827E-01 a       231     0    12     1    11
  3.5160878615305719E-03 a       232     0    12     1    12
  3.0993240217299645E-01 a       233     0    12     1    13
  1.6337696335586890E-01 a       234     0    12     1    14
  1.2781582779875117E-01 a       235     0    12     1    15
 -2.4260634272623156E-02 a       236     0    12     1    16
 -1.4953877851662509E-01 a       237     0    12     1    17
  4.2398237978177505E-01 a       238     0    12     1    18
 -8.2415099507631984E-02 a       239     0    12     1    19
  1.0429698649939141E-01 a       240     0    12     1    20
 -2.2775472494732998E-01 a       241     0    13     1     1
  7.8209167920118991E-02 a       242     0    13     1     2
  1.8742043389061874E-01 a       243     0    13     1     3
  3.4098006417698479E-01 a       244     0    13     1     4
 -2.0695072506740453E-01 a       245     0    13     1     5
  1.3557668958984551E-01 a       246     0    13     1     6
 -2.4334381357743382E-01 a       247     0    13     1     7
  2.8502830313728339E-01 a       248     0    13     1     8
  2.2873639698541107E-01 a       249     0    13     1     9
 -5.1717113988792002E-02 a       250     0    13     1    10
 -4.0824791187274383E-02 a       251     0    13     1    11
  5.5139196867887236E-02 a       252     0    13     1    12
  2.1296085075056453E-02 a       253     0    13     1    13
 -2.8724967241826049E-03 a       254     0    13     1    14
  9.5361996763747250E-02 a       255     0    13     1    15
 -5.1881893440881101E-02 a       256     0    13     1    16
  1.6448159197721579E-01 a       257     0    13     1    17
  1.4492086564814927E-01 a       258     0    13     1    18
 -7.6905558649354305E-02 a       259     0    13     1    19
 -5.6368415217597653E-02 a       260     0    13     1    20
 -4.7854528855644712E-01 a       261     0    14     1     1
 -7.9581229271725273E-01 a       262     0    14     1     2
  4.9914678950669467E-01 a       263     0    14     1     3
 -1.2740754564323525E-01 a       264     0    14     1     4
 -1.9314840363756708E-01 a       265     0    14     1     5
 -2.7851426179795308E-01 a       266     0    14     1     6
 -2.5626294355541346E-01 a       267     0    14     1     7
 -1.7562801667574343E-01 a       268     0    14     1     8
 -8.0539903056441042E-02 a       269     0    14     1     9
  5.5473835956640731E-02 a       270     0    14     1    10
  7.1465774568872750E-02 a       271     0    14     1    11
  6.1987578602367033E-01 a       272     0    14     1    12
 -3.6071715183359243E-01 a       273     0    14     1    13
  1.9846380738313829E-01 a       274     0    14     1    14
 -1.0036700811640947E-01 a       275     0    14     1    15
  3.2405526021350828E-01 a       276     0    14     1    16
 -1.1036195593780356E+00 a       277     0    14     1    17
 -1.9318142029776317E-01 a       278     0    14     1    18
 -2.1311306065119570E-01 a       279     0    14     1    19
  2.0120957355722230E-01 a       280     0    14     1    20
 -4.6992189211466234E-01 a       281     0    15     1     1
  4.6530984107850637E-01 a       282     0    15     1     2
 -2.7176722469473596E-01 a       283     0    15     1     3
  7.1093521560010392E-02 a       284     0    15     1     4
 -3.7978051196092955E-01 a       285     0    15     1     5
 -8.0804143963231170E-02 a       286     0    15     1     6
  6.7207453710926693E-02 a       287     0    15     1     7
  6.6624764363938827E-01 a       288     0    15     1     8
  2.3176621918554777E-01 a       289     0    15     1     9
 -1.9214582556958487E-01 a       290     0    15     1    10
 -2.2060531589218474E-01 a       291     0    15     1    11
 -7.1882122882451271E-02 a       292     0    15     1    12
 -1.2041350158301208E-01 a       293     0    15     1    13
 -1.4175709080622489E-02 a       294     0    15     1    14
 -2.8874342519047236E-01 a       295     0    15     1    15
 -2.9132178972777101E-01 a       296     0    15     1    16
 -7.5460882437662191E-02 a       297     0    15     1    17
  1.1933376027347967E-01 a       298     0    15     1    18
  9.4221025368859859E-02 a       299     0    15     1    19
  5.3954907592816725E-01 a       300     0    15     1    20
  9.0926182107514367E-02 a       301     0    16     1     1
 -1.0069744744097719E-01 a       302     0    16     1     2
  7.0917742422305224E-02 a       303     0    16     1     3
 -6.6532036828066310E-01 a       304     0    16     1     4
  1.6844321698511114E-01 a       305     0    16     1     5
 -1.8341905608837195E-01 a       306     0    16     1     6
  3.8541611333448267E-01 a       307     0    16     1     7
  1.2726207225814656E-01 a       308     0    16     1     8
 -8.7489153487348634E-03 a       309     0    16     1     9
 -1.3199053840251143E-01 a       310     0    16     1    10
  8.7625827947343138E-02 a       311     0    16     1    11
  3.7454170916470116E-03 a       312     0    16     1    12
 -3.3437473787662730E-01 a       313     0    16     1    13
  1.8527777864335640E-01 a       314     0    16     1    14
 -1.9237311264701762E-01 a       315     0    16     1    15
 -2.1553375751159734E-01 a       316     0    16     1    16
 -2.3499237554150298E-01 a       317     0    16     1    17
  1.7069877533680037E-03 a       318     0    16     1    18
 -2.6278515053749968E-01 a       319     0    16     1    19
  6.1442656783509991E-02 a       320     0    16     1    20
  8.8083067508015889E-01 a       321     0    17     1     1
  5.9247302444693684E-01 a       322     0    17     1     2
 -4.8806437065548136E-01 a       323     0    17     1     3
  1.2201223020874839E-01 a       324     0    17     1     4
 -2.2850880051960359E-01 a       325     0    17     1     5
  2.1876806114195096E-01 a       326     0    17     1     6
  2.6644352511379327E-01 a       327     0    17     1     7
  4.2031186673950303E-02 a       328     0    17     1     8
  1.3091105428424876E-02 a       329     0    17     1     9
  2.0065271463876735E-01 a       330     0    17     1    10
  2.0416729610195844E-01 a       331     0    17     1    11
  1.1297023803876251E-01 a       332     0    17     1    12
  3.9968662200232841E-01 a       333     0    17     1    13
 -4.4798014134776332E-01 a       334     0    17     1    14
  3.3883767943937559E-01 a       335     0    17     1    15
  3.6884341909943047E-01 a       336     0    17     1    16
  2.8964459108979917E-01 a       337     0    17     1    17
  1.7585536315785735E-01 a       338     0    17     1    18
 -1.2616030593816696E-01 a       339     0    17     1    19
 -2.0661170847540607E-02 a       340     0    17     1    20
 -1.5637488849992520E-01 a       341     0    18     1     1
 -8.6577439569827955E-02 a       342     0    18     1     2
 -1.8805743831195154E-01 a       343     0    18     1     3
  3.6618002240252123E-01 a       344     0    18     1     4
  1.3229201162946583E-01 a       345     0    18     1     5
 -7.4679820319146786E-02 a       346     0    18     1     6
 -6.1674710346171342E-02 a       347     0    18     1     7
 -3.4545249152367569E-01 a       348     0    18     1     8
 -1.3960551917195356E-02 a       349     0    18     1     9
  1.9921402484448772E-01 a       350     0    18     1    10
  2.0793840776603820E-01 a       351     0    18     1    11
 -1.4501554651370344E-01 a       352     0    18     1    12
 -5.1449274304314518E-01 a       353     0    18     1    13
 -9.1160299301465186E-02 a       354     0    18     1    14
 -2.0418469249012738E-01 a       355     0    18     1    15
 -2.1980267874196602E-01 a       356     0    18     1    16
  3.3024846973417205E-01 a       357     0    18     1    17
  7.4269132782388184E-02 a       358     0    18     1    18
 -2.8021448678981931E-01 a       359     0    18     1    19
 -2.1204957346149109E-01 a       360     0    18     1    20
 -1.2313795402834078E-01 a       361     0    19     1     1
  1.2689091344818809E-01 a       362     0    19     1     2
  3.1990167644319924E-02 a       363     0    19     1     3
  5.1628593007029544E-02 a       364     0    19     1     4
 -2.3151442656697610E-01 a       365     0    19     1     5
  6.3128523354264193E-02 a       366     0    19     1     6
  2.8990680593708514E-02 a       367     0    19     1     7
  1.5668492566054851E-01 a       368     0    19     1     8
  9.3220584788009000E-02 a       369     0    19     1     9
  2.9232080848498931E-02 a       370     0    19     1    10
  2.2716229033650677E-02 a       371     0    19     1    11
  3.8514901038873223E-01 a       372     0    19     1    12
 -1.7262552860291841E-01 a       373     0    19     1    13
  9.3632082726060717E-02 a       374     0    19     1    14
  4.3753791975922073E-02 a       375     0    19     1    15
 -9.1580358535102834E-03 a       376     0    19     1    16
  1.0746543405184092E-01 a       377     0    19     1    17
  6.2396709494896403E-02 a       378     0    19     1    18
  1.1123486069784967E-01 a       379     0    19     1    19
 -2.1296684483074559E-02 a       380     0    19     1    20
 -4.2697737975695277E-01 a       381     0    20     1     1
  2.9723300628818794E-01 a       382     0    20     1     2
 -6.1161486718849564E-02 a       383     0    20     1     3
  2.5763521887960711E-01 a       384     0    20     1     4
 -1.7864827384185206E-01 a       385     0    20     1     5
 -5.7589482762842731E-02 a       386     0    20     1     6
 -4.9522217828879839E-01 a       387     0    20     1     7
 -2.7061676418566738E-01 a       388     0    20     1     8
  1.9885514227533510E-01 a       389     0    20     1     9
  1.8291059526389482E-02 a       390     0    20     1    10
  3.4373024962449317E-01 a       391     0    20     1    11
 -2.6031209465006977E-01 a       392     0    20     1    12
 -1.7126094866942854E-01 a       393     0    20     1    13
 -3.6338056193542967E-02 a       394     0    20     1    14
  9.2915262186860248E-02 a       395     0    20     1    15
  6.9074063151618986E-02 a       396     0    20     1    16
  1.0295325005134352E-02 a       397     0    20     1    17
 -3.3935634549211585E-01 a       398     0    20     1    18
 -2.4329067646774422E-01 a       399     0    20     1    19
 -2.9739341684185433E-01 a       400     0    20     1    20
 -3.3308133632341358E-01 a       401     0    21     1     1
  3.3764703062424972E-01 a       402     0    21     1     2
  2.6395975427381757E-01 a       403     0    21     1     3
 -6.6885285789777704E-01 a       404     0    21     1     4
 -4.7720950080334285E-01 a       405     0    21     1     5
 -2.0887394144769922E-01 a       406     0    21     1     6
  3.3031181320888711E-02 a       407     0    21     1     7
  4.3446107164182907E-01 a       408     0    21     1     8
  1.5486950249984069E-01 a       409     0    21     1     9
 -2.5882864494849112E-01 a       410     0    21     1    10
 -3.4571418951699523E-01 a       411     0    21     1    11
  4.8633233117859087E-01 a       412     0    21     1    12
 -2.0837011228118160E-01 a       413     0    21     1    13
  5.0073436741508137E-01 a       414     0    21     1    14
  1.1961145423590337E-01 a       415     0    21     1    15
  5.1909610207068711E-02 a       416     0    21     1    16
 -3.8344968065026674E-01 a       417     0    21     1    17
  3.7997330467126604E-02 a       418     0    21     1    18
 -4.8118390531820092E-02 a       419     0    21     1    19
  3.6393805323919631E-01 a       420     0    21     1    20
  4.5559002818130724E-02 a       421     0    22     1     1
  1.3414123702596281E-01 a       422     0    22     1     2
  7.2225950578711645E-02 a       423     0    22     1     3
 -3.7274011387015560E-01 a       424     0    22     1     4
  1.4957562766128873E-01 a       425     0    22     1     5
 -5.2945537707127871E-02 a       426     0    22     1     6
 -1.4623638440068273E-01 a       427     0    22     1     7
 -1.0109400053662078E-02 a       428     0    22     1     8
  7.6452288754154926E-02 a       429     0    22     1     9
  5.7925365829406723E-02 a       430     0    22     1    10
  2.0304406103365150E-01 a       431     0    22     1    11
 -2.4273632882708265E-01 a       432     0    22     1    12
 -1.1880083195374028E-01 a       433     0    22     1    13
  1.7607258699579179E-01 a       434     0    22     1    14
 -8.8747155116669738E-02 a       435     0    22     1    15
 -8.3884006494058944E-02 a       436     0    22     1    16
 -1.3944966776177034E-01 a       437     0    22     1    17
 -2.5524624735854745E-01 a       438     0    22     1    18
 -2.5900551011795020E-01 a       439     0    22     1    19
 -3.8611971756042879E-03 a       440     0    22     1    20
  5.1657649803902439E-01 a       441     0    23     1     1
 -3.2829397585961978E-01 a       442     0    23     1     2
  5.4085962043517755E-01 a       443     0    23     1     3
  3.6206239108908977E-01 a       444     0    23     1     4
  2.2039008848662101E-01 a       445     0    23     1     5
  2.7716290733955001E-01 a       446     0    23     1     6
  1.3445026163228041E-01 a       447     0    23     1     7
  4.8875855118095723E-01 a       448     0    23     1     8
 -1.7558528710577320E-01 a       449     0    23     1     9
 -1.0727736126956539E-01 a       450     0    23     1    10
 -3.4350149694496895E-01 a       451     0    23     1    11
  1.6268863952527290E-01 a       452     0    23     1    12
  4.1565634083675196E-01 a       453     0    23     1    13
 -7.2441247447554924E-02 a       454     0    23     1    14
  3.1573043761266899E-02 a       455     0    23     1    15
  3.5820135639296230E-01 a       456     0    23     1    16
  6.2242578830656019E-03 a       457     0    23     1    17
  2.1939409949922756E-01 a       458     0    23     1    18
  1.7274154488798538E-01 a       459     0    23     1    19
 -3.7529758120816464E-02 a       460     0    23     1    20
 -4.9893615689960084E-02 a       461     0    24     1     1
 -3.7840007862102606E-02 a       462     0    24     1     2
 -6.8015826013064462E-01 a       463     0    24     1     3
 -2.5088525618834390E-01 a       464     0    24     1     4
  1.8905107314757916E-01 a       465     0    24     1     5
  1.1917708169842981E-02 a       466     0    24     1     6
  5.7198486325109410E-01 a       467     0    24     1     7
 -5.9126394242867995E-02 a       468     0    24     1     8
  2.2681823108344837E-02 a       469     0    24     1     9
  2.6576571828219192E-01 a       470     0    24     1    10
  5.0890200557745668E-01 a       471     0    24     1    11
  4.1190624561874174E-02 a       472     0    24     1    12
 -4.5864603174035079E-01 a       473     0    24     1    13
 -2.4692985715092886E-01 a       474     0    24     1    14
 -3.0019565199443060E-01 a       475     0    24     1    15
 -5.9738352430308850E-01 a       476     0    24     1    16
  2.0499891316458396E-01 a       477     0    24     1    17
 -3.3373264242491402E-01 a       478     0    24     1    18
 -1.1709848912661118E-01 a       479     0    24     1    19
 -8.8958902403711265E-02 a       480     0    24     1    20
  1.5648697957322936E-02 a       481     0    25     1     1
  5.6248879760663589E-02 a       482     0    25     1     2
  8.3446477692512872E-02 a       483     0    25     1     3
 -1.1995690837668972E-01 a       484     0    25     1     4
 -9.7930037926777819E-02 a       485     0    25     1     5
  4.6530819791107896E-02 a       486     0    25     1     6
  9.3017366026000969E-02 a       487     0    25     1     7
 -4.0981902883735405E-02 a       488     0    25     1     8
  5.6676557652052047E-02 a       489     0    25     1     9
 -3.5126107555715769E-02 a       490     0    25     1    10
 -5.5090325516968131E-02 a       491     0    25     1    11
  2.7867208964139523E-01 a       492     0    25     1    12
 -8.2430485479324855E-02 a       493     0    25     1    13
  4.5632718050864836E-02 a       494     0    25     1    14
 -1.7879959999464810E-03 a       495     0    25     1    15
 -4.6572917902619221E-02 a       496     0    25     1    16
  7.8132130644273740E-02 a       497     0    25     1    17
  7.8516313500239646E-02 a       498     0    25     1    18
  1.2208586843524329E-01 a       499     0    25     1    19
 -7.3541909704840758E-02 a       500     0    25     1    20
 -1.0263008242381816E-01 a       501     0    26     1     1
  2.1832155722908464E-01 a       502     0    26     1     2
 -3.2823857879752472E-01 a       503     0    26     1     3
  1.0724061712816492E-02 a       504     0    26     1     4
 -3.4031771680914041E-01 a       505     0    26     1     5
 -3.0633183350384130E-01 a       506     0    26     1     6
 -2.6890242943199177E-01 a       507     0    26     1     7
 -4.3372019487542918E-01 a       508     0    26     1     8
  9.7648675630903722E-02 a       509     0    26     1     9
  2.9762683314005389E-01 a       510     0    26     1    10
  1.7976181673177760E-01 a       511     0    26     1    11
 -5.0852586040094094E-01 a       512     0    26     1    12
 -1.9260561390477934E-01 a       513     0    26     1    13
  1.0176169687938771E-01 a       514     0    26     1    14
 -3.1217346415778262E-02 a       515     0    26     1    15
 -1.4522405288234024E-02 a       516     0    26     1    16
 -3.9666976213360662E-02 a       517     0    26     1    17
 -1.1864161024584578E-01 a       518     0    26     1    18
 -3.6884088947852633E-01 a       519     0    26     1    19
 -1.2712967717642459E-01 a       520     0    26     1    20
  5.2010514163922737E-02 a       521     0    27     1     1
  8.5531985897072796E-02 a       522     0    27     1     2
  5.1148492048512040E-01 a       523     0    27     1     3
  8.2190263520489817E-02 a       524     0    27     1     4
 -2.4644205449191986E-01 a       525     0    27     1     5
 -1.0807853287768820E-01 a       526     0    27     1     6
 -6.7710989273017397E-01 a       527     0    27     1     7
  2.4819351649604063E-01 a       528     0    27     1     8
  1.6839071953260763E-02 a       529     0    27     1     9
 -1.8587762478070760E-01 a       530     0    27     1    10
 -3.0222457227820354E-01 a       531     0    27     1    11
 -1.3288121099624384E-01 a       532     0    27     1    12
 -9.4321855176644195E-02 a       533     0    27     1    13
  1.0048805819419684E-01 a       534     0    27     1    14
  9.8329717237503195E-02 a       535     0    27     1    15
  4.1276954680712311E-02 a       536     0    27     1    16
  1.4055185162333880E-01 a       537     0    27     1    17
  7.4914809898041154E-02 a       538     0    27     1    18
  1.3495711806052102E-01 a       539     0    27     1    19
 -1.9750316629681763E-01 a       540     0    27     1    20
  2.5762308473011480E-01 a       541     0    28     1     1
  9.7230474070511316E-02 a       542     0    28     1     2
  2.5217516908256349E-01 a       543     0    28     1     3
 -1.0918653211090271E-01 a       544     0    28     1     4
 -3.5343742283856651E-02 a       545     0    28     1     5
 -8.5426932154461940E-02 a       546     0    28     1     6
 -1.1847295037232732E-01 a       547     0    28     1     7
  2.1873595487887865E-02 a       548     0    28     1     8
  4.3982028312197372E-02 a       549     0    28     1     9
  2.9124146141886148E-01 a       550     0    28     1    10
  9.7192224228682553E-02 a       551     0    28     1    11
 -1.2326065645550253E-01 a       552     0    28     1    12
 -1.1464226425589440E-01 a       553     0    28     1    13
  2.4582195948533397E-01 a       554     0    28     1    14
 -4.6194183460995457E-02 a       555     0    28     1    15
  1.5671377024255603E-01 a       556     0    28     1    16
 -1.9090380619288586E-02 a       557     0    28     1    17
 -1.6729110465585223E-01 a       558     0    28     1    18
 -1.5842378329308313E-01 a       559     0    28     1    19
 -1.6094355654788653E-01 a       560     0    28     1    20
  3.3124659359222369E-01 a       561     0    29     1     1
 -2.6891857433489364E-02 a       562     0    29     1     2
  4.0303013806122051E-01 a       563     0    29     1     3
  2.0781416746279416E-01 a       564     0    29     1     4
  1.5953519132037355E-01 a       565     0    29     1     5
  7.2315825233569164E-02 a       566     0    29     1     6
  7.7420852429996301E-02 a       567     0    29     1     7
  4.0723109818941400E-01 a       568     0    29     1     8
 -2.6682617438423362E-02 a       569     0    29     1     9
  7.2614729832018665E-02 a       570     0    29     1    10
 -3.0790712754109273E-02 a       571     0    29     1    11
  2.5725247221084913E-01 a       572     0    29     1    12
  1.4333286255023153E-01 a       573     0    29     1    13
  2.3821618334040014E-02 a       574     0    29     1    14
  4.5984991343280893E-02 a       575     0    29     1    15
  2.3902478250920467E-01 a       576     0    29     1    16
  1.4629085246720097E-01 a       577     0    29     1    17
 -9.9923252273979413E-02 a       578     0    29     1    18
  4.0115964351066186E-01 a       579     0    29     1    19
 -1.5488204594714211E-01 a       580     0    29     1    20
  3.6198512418107176E-01 a       581     0    30     1     1
  2.1716464478410023E-03 a       582     0    30     1     2
  7.6185243360475080E-02 a       583     0    30     1     3
 -1.5080265204789517E-01 a       584     0    30     1     4
  1.0029431592059967E-01 a       585     0    30     1     5
 -1.1118365312162366E-01 a       586     0    30     1     6
  1.8222214623578969E-01 a       587     0    30     1     7
 -4.4878281297338180E-01 a       588     0    30     1     8
 -1.2577353541982665E-02 a       589     0    30     1     9
  3.0419575617414835E-01 a       590     0    30     1    10
  2.1579890658695980E-01 a       591     0    30     1    11
 -2.6151002341244017E-01 a       592     0    30     1    12
  3.3513496090003614E-01 a       593     0    30     1    13
  3.3123880768868452E-01 a       594     0    30     1    14
  2.7130292815420898E-02 a       595     0    30     1    15
  3.3516428045147362E-01 a       596     0    30     1    16
 -4.9981583839137189E-01 a       597     0    30     1    17
 -2.6100748852474692E-01 a       598     0    30     1    18
 -1.8130744318754929E-01 a       599     0    30     1    19
 -7.8395798698602914E-02 a       600     0    30     1    20
 -3.1879271720916880E-01 a       601     0    31     1     1
  2.5514316224096706E-01 a       602     0    31     1     2
 -3.7000996025253052E-01 a       603     0    31     1     3
  1.3067253109834268E-01 a       604     0    31     1     4
 -1.6930932597309228E-01 a       605     0    31     1     5
 -7.5948906306674543E-02 a       606     0    31     1     6
 -6.2257421635104955E-02 a       607     0    31     1     7
 -5.4032408719444432E-02 a       608     0    31     1     8
 -4.6148209438489535E-01 a       609     0    31     1     9
  9.8351821065905676E-02 a       610     0    31     1    10
 -2.5940060677938587E-01 a       611     0    31     1    11
  1.6234253854685193E-01 a       612     0    31     1    12
  2.0851615669368881E-01 a       613     0    31     1    13
  6.9484728669030021E-02 a       614     0    31     1    14
 -1.2773287198690592E-01 a       615     0    31     1    15
  9.5865269315970475E-02 a       616     0    31     1    16
 -4.7118476159555206E-01 a       617     0    31     1    17
 -3.7437789400680627E-01 a       618     0    31     1    18
  3.4536927100565956E-01 a       619     0    31     1    19
  2.9351409758701746E-01 a       620     0    31     1    20
 -2.0685740070985631E-01 a       621     0    32     1     1
 -1.5621680007113350E-01 a       622     0    32     1     2
 -9.9002728935191353E-02 a       623     0    32     1     3
  6.8538514408304108E-02 a       624     0    32     1     4
  1.3628261498278088E-01 a       625     0    32     1     5
 -3.8988917850958253E-02 a       626     0    32     1     6
 -1.0492281346796632E-01 a       627     0    32     1     7
 -2.1183418387314936E-02 a       628     0    32     1     8
  2.8529882616600999E-01 a       629     0    32     1     9
  1.1607333153151278E-01 a       630     0    32     1    10
  3.6850006598918898E-02 a       631     0    32     1    11
 -3.1480105539307285E-01 a       632     0    32     1    12
 -2.5789246612903619E-02 a       633     0    32     1    13
 -4.9183353962016847E-02 a       634     0    32     1    14
  6.0588819813794458E-02 a       635     0    32     1    15
  1.1255804608396495E-01 a       636     0    32     1    16
  4.2990745242204598E-01 a       637     0    32     1    17
  1.8535110226532082E-02 a       638     0    32     1    18
 -3.5540438695434523E-02 a       639     0    32     1    19
 -5.1819881870817863E-01 a       640     0    32     1    20
  9.6017939016460899E-02 a       641     0    33     1     1
  2.4363641284367274E-01 a       642     0    33     1     2
  3.6449131652557783E-03 a       643     0    33     1     3
  1.4940667786233525E-01 a       644     0    33     1     4
 -1.1629872505692319E-01 a       645     0    33     1     5
  6.8207872351358528E-02 a       646     0    33     1     6
  2.9647084842932636E-01 a       647     0    33     1     7
 -3.5152737627204561E-01 a       648     0    33     1     8
 -1.3778200208686261E-01 a       649     0    33     1     9
  1.6749710777220539E-01 a       650     0    33     1    10
 -5.0944416850987034E-03 a       651     0    33     1    11
  7.3426097295991047E-02 a       652     0    33     1    12
  1.2560623612620547E-01 a       653     0    33     1    13
 -8.0289052718963153E-02 a       654     0    33     1    14
  6.0995409081589298E-02 a       655     0    33     1    15
  2.4555081076497387E-01 a       656     0    33     1    16
 -1.2394838384061636E-01 a       657     0    33     1    17
  5.6113190667373546E-02 a       658     0    33     1    18
  1.4907485504929446E-01 a       659     0    33     1    19
 -1.6889994926729067E-02 a       660     0    33     1    20
  8.8524717319299306E-01 a       661     0    34     1     1
  1.9747191167348538E-01 a       662     0    34     1     2
  9.6924220360222538E-02 a       663     0    34     1     3
  2.5747260901849495E-01 a       664     0    34     1     4
 -1.7151516584249640E-01 a       665     0    34     1     5
 -1.4700517220954909E-01 a       666     0    34     1     6
  9.1244742797349287E-02 a       667     0    34     1     7
  2.5063212001291824E-01 a       668     0    34     1     8
 -2.3140428454597481E-01 a       669     0    34     1     9
 -2.5414711104462595E-01 a       670     0    34     1    10
 -4.3010804754322285E-01 a       671     0    34     1    11
  4.1147216003130738E-01 a       672     0    34     1    12
  5.7587732110066139E-02 a       673     0    34     1    13
 -4.4043008567129788E-01 a       674     0    34     1    14
  9.0421119042217765E-02 a       675     0    34     1    15
 -6.1542921117555793E-01 a       676     0    34     1    16
  1.1077770081168399E-01 a       677     0    34     1    17
  1.1092091465101679E-01 a       678     0    34     1    18
  3.1135652939085401E-01 a       679     0    34     1    19
 -2.6841729707975107E-02 a       680     0    34     1    20
 -1.7525585806383165E-01 a       681     0    35     1     1
  1.1943198215353830E+00 a       682     0    35     1     2
 -1.7919581584292046E-01 a       683     0    35     1     3
  1.1656314978519786E-01 a       684     0    35     1     4
  8.9479724782089945E-02 a       685     0    35     1     5
  9.0562384471727986E-02 a       686     0    35     1     6
 -4.3263385602612325E-01 a       687     0    35     1     7
  5.7626534214193989E-02 a       688     0    35     1     8
  7.2253118514810288E-01 a       689     0    35     1     9
 -6.7632795706107718E-01 a       690     0    35     1    10
  7.2999311130283828E-01 a       691     0    35     1    11
  6.6605352765622905E-01 a       692     0    35     1    12
 -6.1187747287779537E-02 a       693     0    35     1    13
  3.1235736424827781E-01 a       694     0    35     1    14
  6.9938037748896531E-01 a       695     0    35     1    15
 -6.1833044962822359E-01 a       696     0    35     1    16
  1.3467436783322506E-01 a       697     0    35     1    17
 -9.4675103989843079E-01 a       698     0    35     1    18
 -9.8221880544103288E-02 a       699     0    35     1    19
 -4.4821096472781280E-01 a       700     0    35     1    20
 -1.7283557506822489E-01 a       701     0    36     1     1
 -8.6097529445592180E-01 a       702     0    36     1     2
 -7.6930144961956226E-01 a       703     0    36     1     3
  1.5460393608129530E-02 a       704     0    36     1     4
 -6.9122664394445055E-01 a       705     0    36     1     5
  1.1476593211691884E-01 a       706     0    36     1     6
 -7.1006933139333661E-01 a       707     0    36     1     7
  9.9413435435192921E-01 a       708     0    36     1     8
 -3.1063059245029812E-01 a       709     0    36     1     9
 -4.5747094983326814E-01 a       710     0    36     1    10
 -1.2322796752505601E-01 a       711     0    36     1    11
  4.1202126089475932E-01 a       712     0    36     1    12
 -2.1461821525446737E-02 a       713     0    36     1    13
 -3.0605881944178853E-01 a       714     0    36     1    14
  2.0042788984345347E-01 a       715     0    36     1    15
 -7.4558476033092691E-01 a       716     0    36     1    16
 -9.0303753930023975E-02 a       717     0    36     1    17
 -2.4827797339538962E-01 a       718     0    36     1    18
  1.2636403133282040E-01 a       719     0    36     1    19
  2.8744861722845327E-01 a       720     0    36     1    20
 -1.9808848832090437E-01 a       721     0    37     1     1
 -4.0542345487336401E-02 a       722     0    37     1     2
  6.3907047524255300E-02 a       723     0    37     1     3
 -1.4434018735145487E-01 a       724     0    37     1     4
  1.7582681932754299E-01 a       725     0    37     1     5
  2.3201141183686289E-01 a       726     0    37     1     6
  1.1655114101550537E-01 a       727     0    37     1     7
 -1.1638333098363625E-01 a       728     0    37     1     8
 -5.1586111491279153E-02 a       729     0    37     1     9
 -9.0739582581545464E-02 a       730     0    37     1    10
 -2.6362242248125139E-01 a       731     0    37     1    11
 -1.8193595026658776E-01 a       732     0    37     1    12
  1.7418429571362484E-01 a       733     0    37     1    13
 -1.0714660907083932E-01 a       734     0    37     1    14
 -4.3537555099529157E-01 a       735     0    37     1    15
  2.4332835089837440E-01 a       736     0    37     1    16
 -1.9177356753589431E-01 a       737     0    37     1    17
  2.6601443032416477E-01 a       738     0    37     1    18
  2.0207999349628089E-01 a       739     0    37     1    19
 -4.3400173075377985E-01 a       740     0    37     1    20
  9.2417210804716965E-01 a       741     0    38     1     1
  4.2757968048356709E-01 a       742     0    38     1     2
  1.5520296847195342E-01 a       743     0    38     1     3
  2.9880362054210293E-02 a       744     0    38     1     4
 -2.0331191789521964E-02 a       745     0    38     1     5
 -1.9853575758104164E-01 a       746     0    38     1     6
 -1.0531014725348618E-01 a       747     0    38     1     7
 -5.8549255593358140E-01 a       748     0    38     1     8
 -3.2574047006700989E-02 a       749     0    38     1     9
  2.4465502674111361E-02 a       750     0    38     1    10
  3.6143888100610627E-01 a       751     0    38     1    11
 -2.7520476205961965E-02 a       752     0    38     1    12
  1.3488631878504284E-01 a       753     0    38     1    13
  4.5072721516470121E-01 a       754     0    38     1    14
 -2.1954787401372808E-01 a       755     0    38     1    15
 -3.6922624597089787E-01 a       756     0    38     1    16
 -7.5523370697431841E-02 a       757     0    38     1    17
 -2.2967726495626087E-01 a       758     0    38     1    18
 -1.0503076771919728E-01 a       759     0    38     1    19
  6.9801846459040950E-01 a       760     0    38     1    20
 -3.2682606144105092E-01 a       761     0    39     1     1
 -1.0195156026981464E-01 a       762     0    39     1     2
 -2.8562249073417378E-01 a       763     0    39     1     3
 -3.9571624596851657E-01 a       764     0    39     1     4
  5.4557209723456344E-03 a       765     0    39     1     5
  5.9794941012258213E-02 a       766     0    39     1     6
 -1.5405979576810142E-01 a       767     0    39     1     7
  3.8232999310713234E-01 a       768     0    39     1     8
 -9.9995137636926260E-02 a       769     0    39     1     9
 -8.8338864120439856E-02 a       770     0    39     1    10
 -2.5414718829883770E-01 a       771     0    39     1    11
  2.0230035736846158E-01 a       772     0    39     1    12
 -1.2792217766564401E-01 a       773     0    39     1    13
  2.5379006180713280E-02 a       774     0    39     1    14
 -4.6470987118676005E-01 a       775     0    39     1    15
 -1.3342924295631073E-01 a       776     0    39     1    16
 -1.9328144924879762E-01 a       777     0    39     1    17
  1.4850577713413474E-01 a       778     0    39     1    18
 -5.4381871596860094E-02 a       779     0    39     1    19
  3.2461463367949674E-02 a       780     0    39     1    20
 -9.4903078112636141E-01 a       781     0    40     1     1
 -9.0244929010918018E-01 a       782     0    40     1     2
  1.1129883951055256E-02 a       783     0    40     1     3
 -4.5950886353001780E-01 a       784     0    40     1     4
  2.5393952838060846E-01 a       785     0    40     1     5
  1.5890201488417466E-01 a       786     0    40     1     6
 -8.8322578460547210E-02 a       787     0    40     1     7
  5.2335217286251623E-02 a       788     0    40     1     8
  1.4525772068476031E-01 a       789     0    40     1     9
  3.1888518421713191E-01 a       790     0    40     1    10
  1.3452858101043297E-01 a       791     0    40     1    11
 -1.4172344613059146E-01 a       792     0    40     1    12
 -6.7234170385230296E-01 a       793     0    40     1    13
  7.2501514856256655E-01 a       794     0    40     1    14
 -3.7955599948383228E-01 a       795     0    40     1    15
  7.2031117813475931E-01 a       796     0    40     1    16
  1.5221583869917793E-01 a       797     0    40     1    17
 -2.4910669043894923E-01 a       798     0    40     1    18
  4.5294074829850134E-01 a       799     0    40     1    19
  3.1348073126699982E-01 a       800     0    40     1    20
  5.3910736128786607E-01 a       801     0    41     1     1
 -9.3963477581242472E-01 a       802     0    41     1     2
 -7.0628085389093195E-02 a       803     0    41     1     3
 -7.3433415474514901E-02 a       804     0    41     1     4
  4.1720786171844056E-02 a       805     0    41     1     5
  7.3139108419290499E-01 a       806     0    41     1     6
  4.9947458124677602E-01 a       807     0    41     1     7
 -9.3292018643903102E-02 a       808     0    41     1     8
 -5.6761957790783683E-02 a       809     0    41     1     9
  1.0425448394643100E-01 a       810     0    41     1    10
  9.6320822147444951E-01 a       811     0    41     1    11
 -3.3551631010656874E-01 a       812     0    41     1    12
 -6.3212597946671903E-02 a       813     0    41     1    13
 -4.1427071618149663E-01 a       814     0    41     1    14
 -4.8225634283420249E-01 a       815     0    41     1    15
  1.2009260885889206E+00 a       816     0    41     1    16
  6.9426552105022510E-01 a       817     0    41     1    17
 -3.3912327046092774E-02 a       818     0    41     1    18
 -5.8609105375990633E-01 a       819     0    41     1    19
  6.5863729596429305E-02 a       820     0    41     1    20
  1.2308141210095640E-02 a       821     0    42     1     1
  1.2852365032859858E-01 a       822     0    42     1     2
  5.7387105921417136E-01 a       823     0    42     1     3
 -1.1642104427453952E+00 a       824     0    42     1     4
  3.9514574479529979E-01 a       825     0    42     1     5
 -3.3048560952327127E-01 a       826     0    42     1     6
  5.5246893070757830E-01 a       827     0    42     1     7
 -7.4040685627460756E-01 a       828     0    42     1     8
 -1.8923129889180396E-01 a       829     0    42     1     9
  5.7323892795480480E-01 a       830     0    42     1    10
 -2.9162574251969103E-01 a       831     0    42     1    11
  3.0270375655064008E-01 a       832     0    42     1    12
 -5.6113198183173563E-01 a       833     0    42     1    13
  4.9818365183546814E-01 a       834     0    42     1    14
 -9.4877392021847556E-02 a       835     0    42     1    15
  5.0965326227920460E-01 a       836     0    42     1    16
 -2.9202971208596595E-01 a       837     0    42     1    17
  1.6436851129554458E-01 a       838     0    42     1    18
 -3.0829717952579505E-01 a       839     0    42     1    19
  8.0736400058799701E-02 a       840     0    42     1    20
  1.2444771669052510E-02 a       841     0    43     1     1
 -1.1252932940114155E-01 a       842     0    43     1     2
 -1.8207991039962812E-01 a       843     0    43     1     3
  1.0347721943928968E-01 a       844     0    43     1     4
 -1.0783697684420593E-01 a       845     0    43     1     5
 -1.3266534831860553E-02 a       846     0    43     1     6
  2.0129732958601593E-01 a       847     0    43     1     7
 -9.9732812247264983E-03 a       848     0    43     1     8
 -1.0986073143933738E-01 a       849     0    43     1     9
 -3.2135394629471382E-03 a       850     0    43     1    10
  1.0020111014378945E-01 a       851     0    43     1    11
  1.5284142409728943E-01 a       852     0    43     1    12
 -1.5368589277182490E-01 a       853     0    43     1    13
 -2.4405863678395720E-01 a       854     0    43     1    14
  2.9458521729320741E-01 a       855     0    43     1    15
  4.2676064176074627E-02 a       856     0    43     1    16
  4.5330854713781954E-02 a       857     0    43     1    17
  3.4432715211250048E-02 a       858     0    43     1    18
  1.0410023233447349E-01 a       859     0    43     1    19
  3.3940273020769650E-02 a       860     0    43     1    20
 -2.7960176540699232E-02 a       861     0    44     1     1
  8.3822452678534276E-02 a       862     0    44     1     2
 -4.1701047399608726E-02 a       863     0    44     1     3
  3.5874910065073007E-01 a       864     0    44     1     4
  2.0462069636572658E-01 a       865     0    44     1     5
 -6.7888572686291712E-02 a       866     0    44     1     6
  5.8037943720956116E-02 a       867     0    44     1     7
 -1.4977943450319356E-01 a       868     0    44     1     8
  4.9870479603595440E-02 a       869     0    44     1     9
 -2.0650236937789712E-01 a       870     0    44     1    10
 -1.2529274445902411E-01 a       871     0    44     1    11
  7.7983614022231487E-02 a       872     0    44     1    12
  1.6265589599108485E-01 a       873     0    44     1    13
  6.6867455246431076E-02 a       874     0    44     1    14
 -1.1331861476138172E-01 a       875     0    44     1    15
 -2.7346885675114596E-01 a       876     0    44     1    16
  1.5717536415527131E-01 a       877     0    44     1    17
  5.3061335976797831E-02 a       878     0    44     1    18
  3.1631629251926785E-01 a       879     0    44     1    19
  1.8783596495851321E-01 a       880     0    44     1    20
 -3.5779229059915978E-02 a       881     0    45     1     1
 -1.1093189430695445E-01 a       882     0    45     1     2
 -3.4502855527151910E-01 a       883     0    45     1     3
 -4.6468486019322536E-01 a       884     0    45     1     4
 -1.4944669307680827E-01 a       885     0    45     1     5
  1.3256933639904496E-04 a       886     0    45     1     6
 -3.0968959205203678E-01 a       887     0    45     1     7
  2.3768689034949991E-01 a       888     0    45     1     8
 -1.0516563934399789E-01 a       889     0    45     1     9
  1.0066172275241956E-02 a       890     0    45     1    10
  1.0880264668338245E-01 a       891     0    45     1    11
 -1.2081662712453833E-01 a       892     0    45     1    12
 -1.0985520472250210E-01 a       893     0    45     1    13
 -1.0868117013270100E-01 a       894     0    45     1    14
  1.5682541390898707E-02 a       895     0    45     1    15
  2.7083321929514903E-02 a       896     0    45     1    16
 -2.1588713734511861E-01 a       897     0    45     1    17
 -7.1045518041561770E-02 a       898     0    45     1    18
 -3.8679203141012486E-01 a       899     0    45     1    19
  1.6346564645200298E-01 a       900     0    45     1    20
 -8.2326158852751838E-02 a       901     0    46     1     1
  1.2963286061975687E-01 a       902     0    46     1     2
  1.3154160866407258E-01 a       903     0    46     1     3
 -6.3599021899052166E-01 a       904     0    46     1     4
 -1.6543382343812532E-01 a       905     0    46     1     5
  1.2769868335070200E-01 a       906     0    46     1     6
 -1.1489314735785257E-01 a       907     0    46     1     7
 -3.5913177166101096E-01 a       908     0    46     1     8
  9.4706456478079667E-03 a       909     0    46     1     9
  7.4506759064287387E-02 a       910     0    46     1    10
 -1.5246213781137069E-01 a       911     0    46     1    11
 -3.2316196938695285E-01 a       912     0    46     1    12
  1.1029634930984863E-01 a       913     0    46     1    13
  1.2241772369736090E-01 a       914     0    46     1    14
 -1.4697736749551979E-01 a       915     0    46     1    15
  3.2033481297197414E-01 a       916     0    46     1    16
 -5.4658903280284987E-01 a       917     0    46     1    17
  1.3094225395973019E-01 a       918     0    46     1    18
 -4.6664037251673401E-01 a       919     0    46     1    19
 -1.2476690789015618E-01 a       920     0    46     1    20
 -9.0585044480784915E-01 a       921     0    47     1     1
  2.4732248271356977E-01 a       922     0    47     1     2
 -5.6966520174680924E-01 a       923     0    47     1     3
  5.0501672296116396E-01 a       924     0    47     1     4
  3.0326253724898183E-01 a       925     0    47     1     5
 -7.9385765172636340E-03 a       926     0    47     1     6
  1.5548545180583001E-01 a       927     0    47     1     7
 -8.8636856390319402E-02 a       928     0    47     1     8
 -1.7941502033289713E-02 a       929     0    47     1     9
  5.4667047238667388E-02 a       930     0    47     1    10
 -1.6693871701961218E-03 a       931     0    47     1    11
 -4.3638064422738199E-01 a       932     0    47     1    12
  4.4258833957111648E-01 a       933     0    47     1    13
 -3.7918409725057306E-01 a       934     0    47     1    14
 -2.4147402139301211E-01 a       935     0    47     1    15
  2.6744037157233203E-01 a       936     0    47     1    16
 -3.9442965281289488E-02 a       937     0    47     1    17
  2.1651980475086281E-02 a       938     0    47     1    18
  3.0166455334912790E-01 a       939     0    47     1    19
  1.8143209017062562E-01 a       940     0    47     1    20
  6.4726541326436501E-02 a       941     0    48     1     1
  1.9821424022517004E-01 a       942     0    48     1     2
 -6.5732863954355597E-02 a       943     0    48     1     3
  3.0350324963715855E-02 a       944     0    48     1     4
  3.6403204392369282E-01 a       945     0    48     1     5
  1.8915058359996317E-01 a       946     0    48     1     6
  3.9020136500152053E-01 a       947     0    48     1     7
  2.5041479655182580E-01 a       948     0    48     1     8
  1.0389085179791681E-01 a       949     0    48     1     9
  1.5301024014730627E-01 a       950     0    48     1    10
  1.2346992043876735E-01 a       951     0    48     1    11
 -2.7976748406990304E-01 a       952     0    48     1    12
 -5.1952842647098807E-01 a       953     0    48     1    13
 -4.2598381103320326E-01 a       954     0    48     1    14
 -1.5520018417137538E-01 a       955     0    48     1    15
 -6.2135921298713405E-02 a       956     0    48     1    16
  7.4151771281884704E-01 a       957     0    48     1    17
  8.8283123842465408E-02 a       958     0    48     1    18
 -1.3595467051396723E-01 a       959     0    48     1    19
  4.3226025389973249E-01 a       960     0    48     1    20
 -7.6732807553499024E-02 a       961     0    49     1     1
  8.6662624770853749E-02 a       962     0    49     1     2
 -2.8303063080579116E-01 a       963     0    49     1     3
 -4.6971703175525077E-02 a       964     0    49     1     4
  9.1557596307777961E-02 a       965     0    49     1     5
 -1.5489753524324995E-01 a       966     0    49     1     6
  1.2579207468481087E-02 a       967     0    49     1     7
  5.7019447255153267E-02 a       968     0    49     1     8
  5.3585666389687377E-02 a       969     0    49     1     9
  8.3421202850389092E-02 a       970     0    49     1    10
 -6.0482891779345169E-02 a       971     0    49     1    11
 -4.0470110353561559E-02 a       972     0    49     1    12
 -1.1503422174857138E-01 a       973     0    49     1    13
 -7.0304940590481632E-02 a       974     0    49     1    14
  7.3387482153989395E-02 a       975     0    49     1    15
 -1.8642210623072775E-01 a       976     0    49     1    16
  2.2426103551112411E-01 a       977     0    49     1    17
 -1.4418405609348595E-01 a       978     0    49     1    18
  2.2201606899281617E-02 a       979     0    49     1    19
  2.4200269175810030E-01 a       980     0    49     1    20
 -4.8431436708764314E-01 a       981     0    50     1     1
 -3.4294958546072762E-01 a       982     0    50     1     2
 -1.9024209726613203E-01 a       983     0    50     1     3
  2.7123197591978804E-01 a       984     0    50     1     4
 -5.3117539892530354E-02 a       985     0    50     1     5
  3.2637541688599747E-01 a       986     0    50     1     6
 -1.2700275305597100E-01 a       987     0    50     1     7
  3.3381845722033965E-01 a       988     0    50     1     8
 -3.5923274667281052E-01 a       989     0    50     1     9
  3.8816630636963383E-02 a       990     0    50     1    10
  6.8952873023815711E-02 a       991     0    50     1    11
 -6.5034597325980770E-02 a       992     0    50     1    12
  3.1081824620769671E-01 a       993     0    50     1    13
 -1.8777354958369616E-01 a       994     0    50     1    14
  5.3262193388291279E-01 a       995     0    50     1    15
  3.0559573257814782E-01 a       996     0    50     1    16
 -4.7709016390356768E-02 a       997     0    50     1    17
  4.3968593824936189E-02 a       998     0    50     1    18
  2.7791115874388977E-01 a       999     0    50     1    19
 -3.6154064242860789E-01 a      1000     0    50     1    20
  2.8992358049845030E-01 a      1001     0    51     1     1
  1.2134016970972453E-01 a      1002     0    51     1     2
  1.9229548018699374E-01 a      1003     0    51     1     3
 -1.6318102174520457E-01 a      1004     0    51     1     4
  5.0829986405471032E-02 a      1005     0    51     1     5
 -4.0555958631626698E-02 a      1006     0    51     1     6
  5.3075750836406359E-02 a      1007     0    51     1     7
 -1.8489081022366374E-01 a      1008     0    51     1     8
  1.2487124390208482E-01 a      1009     0    51     1     9
  1.4713812678396932E-02 a      1010     0    51     1    10
  2.6459018103241949E-01 a      1011     0    51     1    11
 -2.4944518673388951E-02 a      1012     0    51     1    12
  1.5378994156982143E-01 a      1013     0    51     1    13
  1.1969434666232731E-01 a      1014     0    51     1    14
  1.7698048470845046E-01 a      1015     0    51     1    15
  1.0943667476200121E-01 a      1016     0    51     1    16
  1.5867987507299529E-02 a      1017     0    51     1    17
 -2.0194884023650905E-01 a      1018     0    51     1    18
  9.7829300711265929E-02 a      1019     0    51     1    19
 -1.3514463146984101E-01 a      1020     0    51     1    20
  3.7999154722059375E-01 a      1021     0    52     1     1
  4.3694514628289671E-01 a      1022     0    52     1     2
  3.3735919276157511E-01 a      1023     0    52     1     3
  3.8992957633726339E-03 a      1024     0    52     1     4
  9.3628401369913739E-02 a      1025     0    52     1     5
 -2.3353095570335819E-01 a      1026     0    52     1     6
 -5.0997425371314034E-02 a      1027     0    52     1     7
  6.9237348780575969E-02 a      1028     0    52     1     8
 -1.1021739862461442E-01 a      1029     0    52     1     9
  9.4694772699252319E-02 a      1030     0    52     1    10
 -3.2746290928082572E-01 a      1031     0    52     1    11
 -3.7900927164513837E-01 a      1032     0    52     1    12
  5.7202213763906384E-01 a      1033     0    52     1    13
 -2.4710351271312778E-01 a      1034     0    52     1    14
 -1.6482286791352241E-01 a      1035     0    52     1    15
 -1.9628506050069511E-01 a      1036     0    52     1    16
 -3.5224052876913026E-01 a      1037     0    52     1    17
  3.2735629659297438E-01 a      1038     0    52     1    18
 -4.0253441064722995E-01 a      1039     0    52     1    19
 -2.8107956066091760E-01 a      1040     0    52     1    20
 -4.3571441423175611E-01 a      1041     0    53     1     1
  1.9414583915250705E-01 a      1042     0    53     1     2
  7.8102622148409099E-03 a      1043     0    53     1     3
  1.6146095728564924E-01 a      1044     0    53     1     4
  2.1854713995377587E-02 a      1045     0    53     1     5
  1.1693532729581466E-02 a      1046     0    53     1     6
 -2.5706801874285506E-01 a      1047     0    53     1     7
  1.0898724195075327E-01 a      1048     0    53     1     8
 -5.4398331071550077E-01 a      1049     0    53     1     9
  1.2652368261464855E-01 a      1050     0    53     1    10
 -9.6812040182845371E-01 a      1051     0    53     1    11
 -4.3288877840246293E-01 a      1052     0    53     1    12
  6.9837020414067297E-01 a      1053     0    53     1    13
 -3.7271962462959518E-01 a      1054     0    53     1    14
  1.5319222187209274E+00 a      1055     0    53     1    15
 -5.7676384302715755E-01 a      1056     0    53     1    16
 -3.3943432910926896E-01 a      1057     0    53     1    17
 -5.2659692380312248E-02 a      1058     0    53     1    18
  3.5392637702910429E-01 a      1059     0    53     1    19
 -4.2357229863507878E-01 a      1060     0    53     1    20
  2.3629403074416463E-01 a      1061     0    54     1     1
  1.7650274510864655E-01 a      1062     0    54     1     2
 -1.2126268297915388E-01 a      1063     0    54     1     3
 -4.3045550369121284E-02 a      1064     0    54     1     4
 -3.4375679891411537E-01 a      1065     0    54     1     5
 -2.0787342011698823E-02 a      1066     0    54     1     6
 -7.3206377517810409E-02 a      1067     0    54     1     7
 -5.0393671415568810E-02 a      1068     0    54     1     8
  7.4026140896220435E-02 a      1069     0    54     1     9
  7.0890950339812997E-03 a      1070     0    54     1    10
  3.3392116514677700E-01 a      1071     0    54     1    11
 -1.2924240018793959E-01 a      1072     0    54     1    12
 -1.0248028617058356E-01 a      1073     0    54     1    13
  3.5393735182993213E-01 a      1074     0    54     1    14
 -2.0530283387371126E-01 a      1075     0    54     1    15
 -4.3152955598544460E-03 a      1076     0    54     1    16
  1.8500077879880422E-02 a      1077     0    54     1    17
  3.3942388540017465E-01 a      1078     0    54     1    18
  1.8768303036064635E-01 a      1079     0    54     1    19
 -1.4564369334483843E-01 a      1080     0    54     1    20
  5.9328025420962383E-01 b      1081     1     1
 -9.2921791170488988E-02 b      1082     1     2
  7.7496405253885803E-01 b      1083     1     3
 -1.2593764600297377E+00 b      1084     1     4
 -6.7432553833080744E-01 b      1085     1     5
 -2.9696441248921041E-01 b      1086     1     6
  4.4086209940127719E-01 b      1087     1     7
  1.4335039585432716E+00 b      1088     1     8
 -1.3612250284986496E-01 b      1089     1     9
 -2.7431299976564633E-01 b      1090     1    10
 -9.4483469483305715E-01 b      1091     1    11
 -7.0973485249952173E-01 b      1092     1    12
  2.5478990514589317E-01 b      1093     1    13
 -1.1274363388593801E-01 b      1094     1    14
 -9.5798031650883808E-01 b      1095     1    15
 -2.6233311353754935E-01 b      1096     1    16
 -2.5104080439520787E-01 b      1097     1    17
 -2.0702236083736514E-01 b      1098     1    18
  6.9116416135332648E-01 b      1099     1    19
 -6.1369539176987664E-01 b      1100     1    20
 -8.3340063274303780E-02 a      1101     1     1     2     1
  2.8683390900623790E-01 a      1102     1     1     2     2
  4.3851034798679472E-01 a      1103     1     1     2     3
  3.8145998389037189E-01 a      1104     1     1     2     4
 -8.1024635989876016E-03 a      1105     1     1     2     5
  5.1524573335472923E-01 a      1106     1     1     2     6
 -2.9306927812163530E-01 a      1107     1     1     2     7
  6.5928061319243711E-02 a      1108     1     1     2     8
  6.8270215343566065E-01 a      1109     1     1     2     9
 -2.0169010774287316E-01 a      1110     1     1     2    10
 -5.4986207323727609E-01 a      1111     1     1     2    11
  1.7605615571894931E-01 a      1112     1     1     2    12
 -7.9447586730816477E-01 a      1113     1     1     2    13
  8.3505379174611094E-01 a      1114     1     1     2    14
 -3.6411543111053574E-01 a      1115     1     1     2    15
  2.1461829645416988E-01 a      1116     1     1     2    16
 -2.4504262853192116E-01 a      1117     1     1     2    17
 -1.2477371129487302E-02 a      1118     1     1     2    18
  2.1029843166598186E-01 a      1119     1     1     2    19
 -8.7326301805888504E-02 a      1120     1     1     2    20
  3.0234560650621839E-01 a      1121     1     2     2     1
  4.8340174988069230E-02 a      1122     1     2     2     2
 -1.2458374512616097E-01 a      1123     1     2     2     3
  1.9369633450094456E-01 a      1124     1     2     2     4
  8.6528543313127193E-01 a      1125     1     2     2     5
 -1.3153131322831854E-01 a      1126     1     2     2     6
 -2.6874444057645622E-02 a      1127     1     2     2     7
 -5.4412434516708541E-01 a      1128     1     2     2     8
  2.0589473967704963E-01 a      1129     1     2     2     9
 -6.9636731339255520E-01 a      1130     1     2     2    10
  6.8606996580376367E-01 a      1131     1     2     2    11
  3.5843867868257688E-03 a      1132     1     2     2    12
  9.2447418377860080E-02 a      1133     1     2     2    13
 -5.4388562990996991E-01 a      1134     1     2     2    14
  6.4882063343913887E-02 a      1135     1     2     2    15
  7.1824247267811114E-01 a      1136     1     2     2    16
 -3.5618706520222371E-01 a      1137     1     2     2    17
 -7.3082660696689883E-01 a      1138     1     2     2    18
 -4.7865210415986298E-01 a      1139     1     2     2    19
 -1.3859226667302010E-01 a      1140     1     2     2    20
 -2.4094861340046866E-01 a      1141     1     3     2     1
 -2.9023014592060292E-01 a      1142     1     3     2     2
 -1.6509842257990059E-01 a      1143     1     3     2     3
 -1.2313194506478015E-01 a      1144     1     3     2     4
 -8.3711648233266267E-02 a      1145     1     3     2     5
  5.4861805044114600E-02 a      1146     1     3     2     6
  1.3953292230143943E-01 a      1147     1     3     2     7
 -1.0882794928655744E-01 a      1148     1     3     2     8
 -2.5435434968813003E-01 a      1149     1     3     2     9
  5.6098103111065445E-01 a      1150     1     3     2    10
 -5.2089666585349104E-01 a      1151     1     3     2    11
 -4.0344198660610731E-02 a      1152     1     3     2    12
 -9.8561244673983039E-01 a      1153     1     3     2    13
  5.9443514923505159E-01 a      1154     1     3     2    14
  1.2398619187350562E-01 a      1155     1     3     2    15
 -1.0859604886530212E+00 a      1156     1     3     2    16
  2.4409018783739630E-02 a      1157     1     3     2    17
  2.0675656209674714E-01 a      1158     1     3     2    18
  8.2623473321455310E-01 a      1159     1     3     2    19
 -6.5423507233533162E-01 a      1160     1     3     2    20
  9.4100227670492281E-02 a      1161     1     4     2     1
 -2.8589087442758915E-01 a      1162     1     4     2     2
  1.5953409728911050E-01 a      1163     1     4     2     3
 -3.7759547592622195E-01 a      1164     1     4     2     4
  1.7363733284090843E-01 a      1165     1     4     2     5
 -1.3085380550189180E-01 a      1166     1     4     2     6
 -1.1624755129719551E-01 a      1167     1     4     2     7
 -2.9561478431884841E-01 a      1168     1     4     2     8
  3.5099200246400236E-01 a      1169     1     4     2     9
 -3.3807811080236183E-01 a      1170     1     4     2    10
 -2.7023253953629883E-01 a      1171     1     4     2    11
  4.2118447032339573E-01 a      1172     1     4     2    12
 -4.1141898803685927E-02 a      1173     1     4     2    13
  5.1022543899532513E-01 a      1174     1     4     2    14
  1.1497489109663940E-01 a      1175     1     4     2    15
 -4.3331502422371304E-01 a      1176     1     4     2    16
  2.3644422529129702E-01 a      1177     1     4     2    17
  2.4135652111715308E-01 a      1178     1     4     2    18
 -3.6832061481966827E-01 a      1179     1     4     2    19
  1.7554332632462530E-01 a      1180     1     4     2    20
 -6.6378863441297697E-01 a      1181     1     5     2     1
 -5.7344192275930506E-01 a      1182     1     5     2     2
 -6.1720729850358313E-01 a      1183     1     5     2     3
  5.6497381754458875E-01 a      1184     1     5     2     4
  6.2917735905915262E-01 a      1185     1     5     2     5
  3.0407447811620880E-01 a      1186     1     5     2     6
 -3.6450353764350824E-01 a      1187     1     5     2     7
 -2.3628023425604183E-01 a      1188     1     5     2     8
  5.6685963355973223E-01 a      1189     1     5     2     9
  5.1375895918610903E-01 a      1190     1     5     2    10
 -4.0094041104652439E-01 a      1191     1     5     2    11
  4.8131401585602994E-02 a      1192     1     5     2    12
 -1.0937840160424530E+00 a      1193     1     5     2    13
  7.3146351648434893E-01 a      1194     1     5     2    14
  3.9370417222528215E-01 a      1195     1     5     2    15
  4.8198139456101147E-01 a      1196     1     5     2    16
 -2.6730110281555353E-01 a      1197     1     5     2    17
 -6.7548757656558198E-02 a      1198     1     5     2    18
  8.2698366946175425E-02 a      1199     1     5     2    19
  7.3323447724334967E-02 a      1200     1     5     2    20
  1.6403940548411805E-01 a      1201     1     6     2     1
  5.0270947560981982E-01 a      1202     1     6     2     2
  5.6841996767992342E-01 a      1203     1     6     2     3
 -3.9111304730574664E-01 a      1204     1     6     2     4
 -2.6184075487906872E-01 a      1205     1     6     2     5
  3.3954910242645603E-01 a      1206     1     6     2     6
 -7.3996225836627377E-02 a      1207     1     6     2     7
  5.3068007838853626E-01 a      1208     1     6     2     8
 -6.1345759745932236E-03 a      1209     1     6     2     9
  5.9766227623021839E-01 a      1210     1     6     2    10
 -2.1488943089747062E-01 a      1211     1     6     2    11
 -8.9314808025278331E-02 a      1212     1     6     2    12
  2.7531015744575688E-01 a      1213     1     6     2    13
  4.0581919078885015E-01 a      1214     1     6     2    14
  4.8975879011554702E-01 a      1215     1     6     2    15
  6.5399900339400963E-01 a      1216     1     6     2    16
  1.4575531337805794E-01 a      1217     1     6     2    17
 -5.1663534617085061E-01 a      1218     1     6     2    18
 -2.5279738383070577E-01 a      1219     1     6     2    19
  5.4432411689358792E-02 a      1220     1     6     2    20
  4.5211428935922388E-01 a      1221     1     7     2     1
 -9.8678479374192135E-02 a      1222     1     7     2     2
 -2.6148181557343875E-01 a      1223     1     7     2     3
 -3.6700223050937558E-01 a      1224     1     7     2     4
  2.8364929174710735E-01 a      1225     1     7     2     5
  3.5366606400102335E-01 a      1226     1     7     2     6
  1.7056234533326872E-01 a      1227     1     7     2     7
  9.7478799246802320E-02 a      1228     1     7     2     8
 -4.2259533028780227E-01 a      1229     1     7     2     9
 -3.4498154235736361E-01 a      1230     1     7     2    10
  8.2513729740850927E-01 a      1231     1     7     2    11
 -5.7894318224516694E-01 a      1232     1     7     2    12
  1.2931718852195123E-01 a      1233     1     7     2    13
  7.5656526378280620E-01 a      1234     1     7     2    14
  5.6804281688415936E-01 a      1235     1     7     2    15
  6.2145666929532661E-01 a      1236     1     7     2    16
 -4.6143530443700997E-01 a      1237     1     7     2    17
 -2.3681426651125848E-01 a      1238     1     7     2    18
 -8.3383139671180395E-01 a      1239     1     7     2    19
 -1.6728500264169516E-01 a      1240     1     7     2    20
 -6.0007893372758991E-01 a      1241     1     8     2     1
 -2.4448934605307077E-01 a      1242     1     8     2     2
 -4.0189843751889165E-02 a      1243     1     8     2     3
  4.9878098284933514E-01 a      1244     1     8     2     4
 -3.2957451676073846E-01 a      1245     1     8     2     5
 -1.9845204181735573E-01 a      1246     1     8     2     6
 -1.0221845073163469E+00 a      1247     1     8     2     7
 -2.1139807440489336E-01 a      1248     1     8     2     8
  9.0531417650891552E-02 a      1249     1     8     2     9
 -3.0704535620341744E-01 a      1250     1     8     2    10
  1.9125468151376673E-01 a      1251     1     8     2    11
  3.4739258959649888E-01 a      1252     1     8     2    12
 -5.3070033322936816E-01 a      1253     1     8     2    13
  1.3175797888241958E-01 a      1254     1     8     2    14
 -5.0975940045647894E-01 a      1255     1     8     2    15
 -2.5749822374924308E-01 a      1256     1     8     2    16
  2.8313112847509336E-01 a      1257     1     8     2    17
 -6.8177258202682145E-01 a      1258     1     8     2    18
  3.5309697926928479E-01 a      1259     1     8     2    19
 -2.4483010498495170E-01 a      1260     1     8     2    20
  1.8049506842075613E-01 a      1261     1     9     2     1
 -4.4928085583764882E-01 a      1262     1     9     2     2
  1.9568543208541184E-01 a      1263     1     9     2     3
  3.6661721483176084E-02 a      1264     1     9     2     4
 -4.9040392072647898E-01 a      1265     1     9     2     5
  4.7254796079321849E-02 a      1266     1     9     2     6
  1.3121701655732487E-01 a      1267     1     9     2     7
 -2.8452001132222354E-01 a      1268     1     9     2     8
 -1.6865143001944094E-01 a      1269     1     9     2     9
  9.8585410507806712E-02 a      1270     1     9     2    10
  2.3771351382256878E-01 a      1271     1     9     2    11
 -2.6467229238181822E-01 a      1272     1     9     2    12
  7.5762978524449920E-01 a      1273     1     9     2    13
 -4.2676372038717342E-01 a      1274     1     9     2    14
 -5.1893389125791156E-01 a      1275     1     9     2    15
 -6.8102661208609735E-02 a      1276     1     9     2    16
  3.3014217606470234E-02 a      1277     1     9     2    17
  8.1317085211772688E-01 a      1278     1     9     2    18
 -4.2685122068870207E-01 a      1279     1     9     2    19
  2.2888196480136207E-03 a      1280     1     9     2    20
  9.9624682631801915E-03 a      1281     1    10     2     1
  2.9156414356288185E-01 a      1282     1    10     2     2
  6.4226340492362921E-01 a      1283     1    10     2     3
 -5.7204354400077317E-01 a      1284     1    10     2     4
  4.8068939356045476E-01 a      1285     1    10     2     5
 -2.9023891754017739E-01 a      1286     1    10     2     6
 -4.4916523909333617E-01 a      1287     1    10     2     7
 -3.9961822999016683E-01 a      1288     1    10     2     8
  1.4878270416538283E-01 a      1289     1    10     2     9
  6.3699219484760761E-01 a      1290     1    10     2    10
 -9.9743289333611884E-01 a      1291     1    10     2    11
 -2.4870069003355902E-01 a      1292     1    10     2    12
  2.7542434411977490E-01 a      1293     1    10     2    13
  1.4474693844900660E-01 a      1294     1    10     2    14
  1.5942959835967901E-01 a      1295     1    10     2    15
 -2.7375141083815363E-01 a      1296     1    10     2    16
  3.7711141694246431E-01 a      1297     1    10     2    17
 -1.7834431908531173E-01 a      1298     1    10     2    18
 -2.6635445203290903E-01 a      1299     1    10     2    19
  3.9305722387203645E-01 a      1300     1    10     2    20
 -5.2259891684494764E-01 a      1301     1    11     2     1
 -5.4882666532511837E-01 a      1302     1    11     2     2
 -3.1942783759407671E-02 a      1303     1    11     2     3
 -6.2775565594429528E-01 a      1304     1    11     2     4
  5.4515315296985709E-02 a      1305     1    11     2     5
 -3.4946618913230565E-01 a      1306     1    11     2     6
  3.0517846670511301E-01 a      1307     1    11     2     7
  1.4641875511136446E-02 a      1308     1    11     2     8
 -5.3120975211107724E-01 a      1309     1    11     2     9
 -6.1628298620043431E-01 a      1310     1    11     2    10
  2.3557382879998784E-01 a      1311     1    11     2    11
  6.0577588722107079E-01 a      1312     1    11     2    12
  8.5002943553571741E-02 a      1313     1    11     2    13
  4.6784966549235620E-02 a      1314     1    11     2    14
  6.2571545743290413E-01 a      1315     1    11     2    15
 -2.7516537656870310E-01 a      1316     1    11     2    16
  2.7043730241461128E-01 a      1317     1    11     2    17
  1.7089890512643169E-01 a      1318     1    11     2    18
  6.2894879697771588E-01 a      1319     1    11     2    19
 -9.3009418152322377E-03 a      1320     1    11     2    20
 -7.1447511722680468E-01 a      1321     1    12     2     1
  1.0841279320514875E-01 a      1322     1    12     2     2
  2.5655423149328638E-01 a      1323     1    12     2     3
  1.5745706209878418E-01 a      1324     1    12     2     4
  7.6106981267451232E-02 a      1325     1    12     2     5
 -7.6294353182972197E-01 a      1326     1    12     2     6
 -5.4013011851293091E-01 a      1327     1    12     2     7
 -2.1681484445851598E-01 a      1328     1    12     2     8
  6.1651251980971478E-01 a      1329     1    12     2     9
 -2.0716326023161422E-01 a      1330     1    12     2    10
 -7.4279491673112985E-01 a      1331     1    12     2    11
 -3.7530560904212923E-01 a      1332     1    12     2    12
  5.8082135926659817E-01 a      1333     1    12     2    13
  3.9173220776922879E-01 a      1334     1    12     2    14
 -2.6219743048568672E-01 a      1335     1    12     2    15
 -4.5919089720804779E-01 a      1336     1    12     2    16
 -1.6767581893059383E-01 a      1337     1    12     2    17
 -2.2357645626798003E-01 a      1338     1    12     2    18
  6.5471457740013317E-01 a      1339     1    12     2    19
  4.1606506730947418E-01 a      1340     1    12     2    20
  6.4530389397530963E-01 a      1341     1    13     2     1
  3.5394483190619691E-01 a      1342     1    13     2     2
 -2.4880769006556172E-01 a      1343     1    13     2     3
 -2.3015164483936651E-01 a      1344     1    13     2     4
  5.9526091447029150E-01 a      1345     1    13     2     5
 -7.7681552958954048E-01 a      1346     1    13     2     6
 -4.6798082387006912E-01 a      1347     1    13     2     7
 -1.3185045944536847E-02 a      1348     1    13     2     8
 -2.0513357671282273E-01 a      1349     1    13     2     9
  2.5659566714191173E-01 a      1350     1    13     2    10
  2.4017181289491113E-01 a      1351     1    13     2    11
 -2.3282405232469078E-01 a      1352     1    13     2    12
  2.4539840763740983E-01 a      1353     1    13     2    13
  6.7812133463652147E-01 a      1354     1    13     2    14
 -5.3801771897250994E-01 a      1355     1    13     2    15
  1.4916902276038238E-01 a      1356     1    13     2    16
  1.9778592280893900E-01 a      1357     1    13     2    17
  2.8703403244204612E-01 a      1358     1    13     2    18
 -4.8080202463297145E-01 a      1359     1    13     2    19
  5.4225210388906109E-01 a      1360     1    13     2    20
  3.5162133488542180E-01 a      1361     1    14     2     1
  3.8526368573694882E-02 a      1362     1    14     2     2
 -3.3765383722339620E-01 a      1363     1    14     2     3
 -2.2018448831565382E-01 a      1364     1    14     2     4
  4.8228411104812241E-01 a      1365     1    14     2     5
 -1.1777284584499170E-02 a      1366     1    14     2     6
 -5.0849031144448435E-02 a      1367     1    14     2     7
 -1.8742741361696533E-01 a      1368     1    14     2     8
  3.7715455035168816E-01 a      1369     1    14     2     9
  1.3339842931572435E-01 a      1370     1    14     2    10
  1.0744967003307386E+00 a      1371     1    14     2    11
  1.1917847951809635E-01 a      1372     1    14     2    12
  4.5472554024615125E-01 a      1373     1    14     2    13
 -2.4436780503622657E-01 a      1374     1    14     2    14
  4.9145118381494579E-01 a      1375     1    14     2    15
  9.9137666964034776E-01 a      1376     1    14     2    16
  1.3222937499899243E-01 a      1377     1    14     2    17
 -3.9799016676870996E-01 a      1378     1    14     2    18
 -4.3112428355790078E-01 a      1379     1    14     2    19
  1.6717839379086114E-01 a      1380     1    14     2    20
  3.6745645271476779E-01 a      1381     1    15     2     1
  4.7906811619964912E-01 a      1382     1    15     2     2
  3.0372018379938021E-01 a      1383     1    15     2     3
  6.5486000661100019E-01 a      1384     1    15     2     4
  8.7771570025024906E-02 a      1385     1    15     2     5
 -4.9835156665801482E-02 a      1386     1    15     2     6
 -1.3365889461294225E-01 a      1387     1    15     2     7
 -3.9619377468010120E-01 a      1388     1    15     2     8
  3.1610369528890447E-01 a      1389     1    15     2     9
  4.4773109725727522E-01 a      1390     1    15     2    10
  5.1160175314613954E-01 a      1391     1    15     2    11
 -8.3584409539868149E-02 a      1392     1    15     2    12
  3.2867021704170862E-01 a      1393     1    15     2    13
  4.3079560909810877E-01 a      1394     1    15     2    14
 -7.0989104978978979E-01 a      1395     1    15     2    15
  1.0724251793053865E+00 a      1396     1    15     2    16
  5.2087345449717570E-01 a      1397     1    15     2    17
  1.1253779287795257E-01 a      1398     1    15     2    18
 -6.7026521251991866E-01 a      1399     1    15     2    19
 -1.8946887073199506E-01 a      1400     1    15     2    20
 -5.7253181847182455E-01 a      1401     1    16     2     1
 -2.2016136783043619E-01 a      1402     1    16     2     2
  1.8229885317676042E-01 a      1403     1    16     2     3
  6.2690807318896680E-01 a      1404     1    16     2     4
 -9.1636922903863094E-01 a      1405     1    16     2     5
 -9.4327875373378695E-02 a      1406     1    16     2     6
  6.9854897746220321E-02 a      1407     1    16     2     7
  1.0015679323532796E+00 a      1408     1    16     2     8
 -2.7949594144026429E-01 a      1409     1    16     2     9
  6.5255247025731211E-01 a      1410     1    16     2    10
 -1.8284094765972914E-01 a      1411     1    16     2    11
  1.8064882459360279E-01 a      1412     1    16     2    12
 -6.7610916428653278E-01 a      1413     1    16     2    13
 -9.4843815116457830E-01 a      1414     1    16     2    14
  2.9095576200020073E-01 a      1415     1    16     2    15
 -2.6892386332328250E-01 a      1416     1    16     2    16
 -1.9966017805999514E-01 a      1417     1    16     2    17
 -3.3270644156173278E-02 a      1418     1    16     2    18
  7.9512286473187344E-01 a      1419     1    16     2    19
 -5.7093755721197370E-01 a      1420     1    16     2    20
 -1.0003428800867305E-01 a      1421     1    17     2     1
  4.4038150036544704E-01 a      1422     1    17     2     2
 -3.1435699146763446E-01 a      1423     1    17     2     3
  7.2102272291284061E-02 a      1424     1    17     2     4
  8.9903589357188257E-02 a      1425     1    17     2     5
 -5.1336986704963583E-01 a      1426     1    17     2     6
 -7.5951119684661852E-02 a      1427     1    17     2     7
  4.2264174110009506E-01 a      1428     1    17     2     8
 -3.8437081111168003E-01 a      1429     1    17     2     9
  7.1537697124901145E-01 a      1430     1    17     2    10
  2.8345681976023446E-01 a      1431     1    17     2    11
 -3.9090252112271467E-01 a      1432     1    17     2    12
 -9.4090751580707399E-01 a      1433     1    17     2    13
  1.9812037454659864E-01 a      1434     1    17     2    14
  1.9719927897884656E-01 a      1435     1    17     2    15
  5.9417597661806841E-02 a      1436     1    17     2    16
  4.0453864906497397E-02 a      1437     1    17     2    17
 -3.8749054859290860E-01 a      1438     1    17     2    18
  6.3941547404691856E-01 a      1439     1    17     2    19
  2.9227461711474922E-01 a      1440     1    17     2    20
 -2.0201077378213103E-01 a      1441     1    18     2     1
 -1.4110975388861879E-01 a      1442     1    18     2     2
  4.3543186540722978E-02 a      1443     1    18     2     3
  3.3628561544151703E-01 a      1444     1    18     2     4
 -9.8152561702486790E-02 a      1445     1    18     2     5
 -4.4216797114379430E-01 a      1446     1    18     2     6
 -1.3407849526635629E-01 a      1447     1    18     2     7
 -5.4857643070579376E-01 a      1448     1    18     2     8
 -2.6526336333710282E-01 a      1449     1    18     2     9
 -6.5864594244056052E-01 a      1450     1    18     2    10
  3.6034219429314490E-01 a      1451     1    18     2    11
  7.0701173891180624E-01 a      1452     1    18     2    12
 -1.3705555704789929E-01 a      1453     1    18     2    13
 -4.2502768286434051E-01 a      1454     1    18     2    14
 -7.2762021027303581E-01 a      1455     1    18     2    15
 -1.4816044982072490E-01 a      1456     1    18     2    16
  3.1532024322523378E-01 a      1457     1    18     2    17
  2.3082455211380259E-01 a      1458     1    18     2    18
  6.7172998085365321E-01 a      1459     1    18     2    19
  1.8456595435209115E-02 a      1460     1    18     2    20
 -1.0467693246965751E-01 a      1461     1    19     2     1
 -1.5664220058906345E-01 a      1462     1    19     2     2
  3.7544918488744128E-01 a      1463     1    19     2     3
  1.8470289348819324E-01 a      1464     1    19     2     4
  2.4246326174446295E-01 a      1465     1    19     2     5
  9.5921268637062809E-02 a      1466     1    19     2     6
  3.6332896528509850E-01 a      1467     1    19     2     7
  6.9713916617206728E-01 a      1468     1    19     2     8
 -6.1997711361479184E-02 a      1469     1    19     2     9
  3.9273035747577512E-01 a      1470     1    19     2    10
 -4.6694506928331481E-01 a      1471     1    19     2    11
  4.6424600088579342E-02 a      1472     1    19     2    12
  8.2103205783353328E-01 a      1473     1    19     2    13
 -8.8685791834893172E-03 a      1474     1    19     2    14
  3.6657242859058375E-01 a      1475     1    19     2    15
 -7.3097279090091682E-01 a      1476     1    19     2    16
 -2.8187850519359053E-01 a      1477     1    19     2    17
 -4.5962258352130786E-01 a      1478     1    19     2    18
 -3.1369313664663123E-01 a      1479     1    19     2    19
 -4.7269942295549827E-01 a      1480     1    19     2    20
  4.2470229654145225E-01 a      1481     1    20     2     1
  2.0881422789655976E-02 a      1482     1    20     2     2
  3.2440283997605174E-01 a      1483     1    20     2     3
  2.7357129966168275E-01 a      1484     1    20     2     4
  3.4121277627515201E-01 a      1485     1    20     2     5
 -5.8843323139770753E-02 a      1486     1    20     2     6
  1.1918663202680717E-01 a      1487     1    20     2     7
  4.1091603974749075E-01 a      1488     1    20     2     8
  1.0270598891180645E-01 a      1489     1    20     2     9
 -7.5131725187973986E-01 a      1490     1    20     2    10
  5.4980864411385078E-01 a      1491     1    20     2    11
  1.8008462611511344E-01 a      1492     1    20     2    12
  3.2119973429878512E-01 a      1493     1    20     2    13
 -5.4765922969826124E-02 a      1494     1    20     2    14
 -8.6241155115296164E-01 a      1495     1    20     2    15
  2.3320569781095740E-01 a      1496     1    20     2    16
  4.0740755379164972E-01 a      1497     1    20     2    17
  3.4665132789276737E-01 a      1498     1    20     2    18
 -1.8724877967577930E-01 a      1499     1    20     2    19
 -1.9675302185441879E-01 a      1500     1    20     2    20
  3.9697044873351289E-01 b      1501     2     1
 -1.0840517890524202E+00 b      1502     2     2
  7.0168916557437555E-01 b      1503     2     3
  4.7932340427025344E-01 b      1504     2     4
 -1.3944138057105364E+00 b      1505     2     5
  7.9335529661536230E-01 b      1506     2     6
 -1.3313993915086568E+00 b      1507     2     7
 -1.5124039408628516E+00 b      1508     2     8
 -8.6685571063560674E-01 b      1509     2     9
  6.7369352230348356E-01 b      1510     2    10
 -5.2921544018496802E-01 b      1511     2    11
 -6.4757539466865288E-01 b      1512     2    12
  1.4580848457701050E+00 b      1513     2    13
  5.2670946238204985E-01 b      1514     2    14
 -1.2411839117359608E-01 b      1515     2    15
  1.3300664722235001E-01 b      1516     2    16
 -1.8923531289138580E+00 b      1517     2    17
  4.4062723969643580E-01 b      1518     2    18
 -1.2427159232729481E+00 b      1519     2    19
  1.3804323633697089E+00 b      1520     2    20
 -5.5012999386676809E-01 a      1521     2     1     3     1
  1.8293444577057738E+00 a      1522     2     2     3     1
 -5.5327087283358634E-01 a      1523     2     3     3     1
 -1.4198430533236264E+00 a      1524     2     4     3     1
  1.6984968939066860E+00 a      1525     2     5     3     1
 -2.1209921955125393E+00 a      1526     2     6     3     1
  1.8196786965258398E+00 a      1527     2     7     3     1
  5.4049951331372525E-01 a      1528     2     8     3     1
  6.1773793701885427E-01 a      1529     2     9     3     1
 -2.5207108627186109E-01 a      1530     2    10     3     1
 -4.0372560434005034E-01 a      1531     2    11     3     1
  1.9232427894724777E-01 a      1532     2    12     3     1
  4.0567688337484378E-02 a      1533     2    13     3     1
 -4.0999240935667966E-02 a      1534     2    14     3     1
 -4.0785399711675457E-01 a      1535     2    15     3     1
  4.5570770073950645E-01 a      1536     2    16     3     1
  2.4369831259633608E+00 a      1537     2    17     3     1
 -3.2350739184791942E-02 a      1538     2    18     3     1
 -2.3815258124366173E-01 a      1539     2    19     3     1
 -1.0534958559683092E+00 a      1540     2    20     3     1
 -2.6968934134914839E+00 b      1541     3     1
