################################################################################
# Neural network connection values (weights and biases).
################################################################################
# Col  Name       Description
################################################################################
# 1    connection Neural network connection value.
# 2    t          Connection type (a = weight, b = bias).
# 3    index      Index enumerating weights.
# 4    l_s        Starting point layer (end point layer for biases).
# 5    n_s        Starting point neuron in starting layer (end point neuron for biases).
# 6    l_e        End point layer.
# 7    n_e        End point neuron in end layer.
################################################################################
#                      1 2         3     4     5     6     7
#             connection t     index   l_s   n_s   l_e   n_e
############################################################
  3.0905916251629098E-02 a         1     0     1     1     1
 -3.3457597850265208E-01 a         2     0     1     1     2
 -1.2595652812436955E-01 a         3     0     1     1     3
  1.7728852690592822E-02 a         4     0     1     1     4
  2.6408079105609480E-02 a         5     0     1     1     5
 -7.8675640662577664E-02 a         6     0     1     1     6
  6.1871251272754869E-02 a         7     0     1     1     7
 -3.6826370897286259E-01 a         8     0     1     1     8
  2.1979459984858607E-01 a         9     0     1     1     9
  2.9132340883884361E-01 a        10     0     1     1    10
  9.0660556341967480E-01 a        11     0     1     1    11
  3.1145394912874713E-01 a        12     0     1     1    12
 -5.2982312006455846E-02 a        13     0     1     1    13
  7.1595442309485974E-02 a        14     0     1     1    14
 -2.3554349357506274E-01 a        15     0     1     1    15
  1.3116620447409287E-02 a        16     0     1     1    16
 -3.1875182924160872E-01 a        17     0     1     1    17
 -9.7363452608556750E-02 a        18     0     1     1    18
 -6.2661136927396122E-01 a        19     0     1     1    19
 -3.8388210943826058E-02 a        20     0     1     1    20
  4.8514822914251174E-03 a        21     0     2     1     1
  7.3026016262173810E-02 a        22     0     2     1     2
  1.4924206855699998E-01 a        23     0     2     1     3
  1.1151334954099051E-01 a        24     0     2     1     4
 -2.6594658805713384E-01 a        25     0     2     1     5
 -2.0588046999833312E-01 a        26     0     2     1     6
  9.8832542770008414E-02 a        27     0     2     1     7
  1.2178633193710633E-01 a        28     0     2     1     8
  4.9262228759861293E-01 a        29     0     2     1     9
 -5.6845431468119663E-02 a        30     0     2     1    10
  7.3450116644452154E-02 a        31     0     2     1    11
  3.7591410326643848E-01 a        32     0     2     1    12
  5.0938379821497837E-01 a        33     0     2     1    13
  2.1010786888293417E-01 a        34     0     2     1    14
 -3.5221321024051320E-03 a        35     0     2     1    15
 -3.4295236314420122E-02 a        36     0     2     1    16
  4.0879262023204532E-01 a        37     0     2     1    17
  2.1258067775276016E-01 a        38     0     2     1    18
  1.3285497778586380E-01 a        39     0     2     1    19
 -2.8920205353131573E-01 a        40     0     2     1    20
 -1.3768850434758159E-01 a        41     0     3     1     1
 -3.3888105315235645E-02 a        42     0     3     1     2
  1.8100141274877213E-01 a        43     0     3     1     3
 -1.8942355157740437E-01 a        44     0     3     1     4
  7.8909960607542087E-02 a        45     0     3     1     5
  3.1519570750873110E-01 a        46     0     3     1     6
 -9.6062718296431815E-02 a        47     0     3     1     7
 -1.0607299262682243E-01 a        48     0     3     1     8
 -1.9945814794599404E-01 a        49     0     3     1     9
 -2.3005875205602733E-01 a        50     0     3     1    10
 -1.4245101481757255E-01 a        51     0     3     1    11
 -1.1949530882941588E-01 a        52     0     3     1    12
  1.2845663121571455E-01 a        53     0     3     1    13
  1.1026643478162267E-01 a        54     0     3     1    14
  3.3798002320103437E-02 a        55     0     3     1    15
  4.5314564150758657E-02 a        56     0     3     1    16
 -9.7777637150066044E-02 a        57     0     3     1    17
 -3.2713411795979375E-01 a        58     0     3     1    18
 -1.9392677587110533E-03 a        59     0     3     1    19
  2.6455018549012954E-01 a        60     0     3     1    20
  6.5300188544284732E-01 a        61     0     4     1     1
  1.1263475013006176E-01 a        62     0     4     1     2
 -1.4431002275416327E-01 a        63     0     4     1     3
  2.5204240998770666E-01 a        64     0     4     1     4
 -2.9521468758554131E-02 a        65     0     4     1     5
  5.1943733117705748E-01 a        66     0     4     1     6
  1.9320558604648780E-01 a        67     0     4     1     7
  2.0697393640466097E-01 a        68     0     4     1     8
  2.4465508166555152E-02 a        69     0     4     1     9
  2.4943782085958038E-01 a        70     0     4     1    10
 -6.4208525477581468E-01 a        71     0     4     1    11
  3.4663101736615898E-01 a        72     0     4     1    12
 -1.1449972252288419E-02 a        73     0     4     1    13
 -3.3406115034795275E-01 a        74     0     4     1    14
  5.5579814626975765E-01 a        75     0     4     1    15
  4.1326215165413405E-01 a        76     0     4     1    16
  3.5003098635843255E-01 a        77     0     4     1    17
  9.0195453813807280E-02 a        78     0     4     1    18
 -3.1398796064225476E-01 a        79     0     4     1    19
  6.1303202497019746E-02 a        80     0     4     1    20
  3.1439176018344495E-01 a        81     0     5     1     1
 -1.2839537558936440E-01 a        82     0     5     1     2
  4.0798372383320258E-01 a        83     0     5     1     3
 -3.3118301218081636E-01 a        84     0     5     1     4
  1.2545283703539793E+00 a        85     0     5     1     5
  7.7551806032015239E-02 a        86     0     5     1     6
 -1.0385440181917320E-01 a        87     0     5     1     7
 -1.4286257720817133E-01 a        88     0     5     1     8
 -6.5152986342671781E-01 a        89     0     5     1     9
  3.6064248327960388E-02 a        90     0     5     1    10
 -1.5313817599763965E-01 a        91     0     5     1    11
 -1.2536226510862769E-01 a        92     0     5     1    12
 -4.9730351457184147E-01 a        93     0     5     1    13
  7.8496250717384558E-02 a        94     0     5     1    14
  1.4276741422688691E-01 a        95     0     5     1    15
 -2.2212532116602765E-01 a        96     0     5     1    16
 -6.1996485374377519E-01 a        97     0     5     1    17
 -4.3132388646897855E-02 a        98     0     5     1    18
 -1.0506642642151459E-01 a        99     0     5     1    19
 -5.5373095085215193E-02 a       100     0     5     1    20
  1.2062340440518672E-01 a       101     0     6     1     1
 -1.4117573331907951E-01 a       102     0     6     1     2
 -1.0854086401020483E-02 a       103     0     6     1     3
  1.1370703412927362E-02 a       104     0     6     1     4
 -1.3877658790558281E-01 a       105     0     6     1     5
 -1.0160071070541158E-02 a       106     0     6     1     6
  6.3731424547592119E-02 a       107     0     6     1     7
  3.1730462382084312E-01 a       108     0     6     1     8
  1.6597583539899577E-01 a       109     0     6     1     9
 -1.1281456078281098E-01 a       110     0     6     1    10
  1.2283635755609174E-01 a       111     0     6     1    11
 -1.5868953652505602E-01 a       112     0     6     1    12
 -1.1056944139930316E-01 a       113     0     6     1    13
 -1.3140970363594384E-01 a       114     0     6     1    14
  3.1184498983894748E-01 a       115     0     6     1    15
 -9.3727099357032537E-02 a       116     0     6     1    16
 -1.3708008626550411E-03 a       117     0     6     1    17
 -5.6488494104948387E-03 a       118     0     6     1    18
  1.3391172996603184E-01 a       119     0     6     1    19
  9.8321208619779929E-02 a       120     0     6     1    20
 -4.5915270959388532E-01 a       121     0     7     1     1
 -1.1146871771659519E-01 a       122     0     7     1     2
  1.3785573220198138E-01 a       123     0     7     1     3
  5.5988429232684288E-02 a       124     0     7     1     4
 -7.0205643060323686E-01 a       125     0     7     1     5
  2.7172775446476349E-01 a       126     0     7     1     6
 -9.3061278707257770E-03 a       127     0     7     1     7
 -5.7769046063188556E-01 a       128     0     7     1     8
 -3.2571279927000280E-01 a       129     0     7     1     9
 -4.0728378836125201E-01 a       130     0     7     1    10
  1.1121049279360383E-01 a       131     0     7     1    11
 -7.4260521413529823E-01 a       132     0     7     1    12
  3.7234374693386901E-01 a       133     0     7     1    13
  2.8584458944515129E-01 a       134     0     7     1    14
 -8.9357818469424893E-02 a       135     0     7     1    15
 -4.4488093292586917E-01 a       136     0     7     1    16
 -1.3788984519199531E-02 a       137     0     7     1    17
 -7.7542454752605655E-02 a       138     0     7     1    18
  7.5343147091411555E-01 a       139     0     7     1    19
 -6.8290184112186833E-02 a       140     0     7     1    20
 -4.6876473547146795E-02 a       141     0     8     1     1
  2.5319994797928308E-01 a       142     0     8     1     2
 -3.8968178117808616E-02 a       143     0     8     1     3
  1.8130239356354655E-01 a       144     0     8     1     4
 -1.5427320853193455E-01 a       145     0     8     1     5
 -2.1363908386806221E-01 a       146     0     8     1     6
 -8.9678310073608034E-02 a       147     0     8     1     7
  5.4845184973115010E-02 a       148     0     8     1     8
  5.2589526990773705E-01 a       149     0     8     1     9
 -1.4822152821758786E-01 a       150     0     8     1    10
  2.2645383703286151E-01 a       151     0     8     1    11
  2.6357028105926683E-01 a       152     0     8     1    12
  3.1304204121628354E-01 a       153     0     8     1    13
  3.5311381283465709E-01 a       154     0     8     1    14
 -2.9972072381942664E-02 a       155     0     8     1    15
  1.4818369760451236E-01 a       156     0     8     1    16
 -1.3139647725912400E-02 a       157     0     8     1    17
  2.1572759853946979E-01 a       158     0     8     1    18
 -9.9457711707297725E-02 a       159     0     8     1    19
 -4.7005766865322068E-01 a       160     0     8     1    20
  2.3122014473072372E-01 a       161     0     9     1     1
  9.8060483463976097E-02 a       162     0     9     1     2
 -3.6399437550231045E-01 a       163     0     9     1     3
 -7.5318759708644337E-02 a       164     0     9     1     4
  1.5227905401247688E-02 a       165     0     9     1     5
  1.7637011271002442E-01 a       166     0     9     1     6
  4.4708814960668516E-02 a       167     0     9     1     7
 -2.5749187630910786E-01 a       168     0     9     1     8
  3.8452850597487936E-01 a       169     0     9     1     9
 -1.8092680306068018E-01 a       170     0     9     1    10
 -1.7224523678318823E-01 a       171     0     9     1    11
  2.2341851640376408E-03 a       172     0     9     1    12
  1.0935792336298182E-01 a       173     0     9     1    13
  1.0662045654031839E-01 a       174     0     9     1    14
  2.3685023801248654E-02 a       175     0     9     1    15
  3.9016841606313674E-01 a       176     0     9     1    16
 -4.3576769839048041E-02 a       177     0     9     1    17
  4.1650607218688296E-01 a       178     0     9     1    18
 -2.3126748914083797E-02 a       179     0     9     1    19
  1.8904500208119887E-01 a       180     0     9     1    20
  5.2297809227491576E-01 a       181     0    10     1     1
 -3.3817545226764206E-01 a       182     0    10     1     2
  1.0971487452384118E-01 a       183     0    10     1     3
  9.9565556273208788E-02 a       184     0    10     1     4
  2.9436772575750564E-01 a       185     0    10     1     5
  1.8102606588674738E-01 a       186     0    10     1     6
 -1.5808990794576899E-02 a       187     0    10     1     7
  9.4513716548079454E-02 a       188     0    10     1     8
  4.6443296780644472E-01 a       189     0    10     1     9
  1.5067745473954414E-01 a       190     0    10     1    10
  4.4052315059627999E-02 a       191     0    10     1    11
  5.4202389101510706E-01 a       192     0    10     1    12
 -3.1155380651654652E-01 a       193     0    10     1    13
 -3.2288676407713390E-01 a       194     0    10     1    14
  1.6083199259143013E-01 a       195     0    10     1    15
 -2.1117706854521021E-01 a       196     0    10     1    16
 -1.8176238674311911E-04 a       197     0    10     1    17
  5.8266686299307514E-02 a       198     0    10     1    18
 -8.0317297214658523E-01 a       199     0    10     1    19
 -1.0460800002104605E-01 a       200     0    10     1    20
  2.2761766080440748E-01 a       201     0    11     1     1
  1.3770828163501889E-01 a       202     0    11     1     2
  1.5094439001522944E-01 a       203     0    11     1     3
  2.5791319125246365E-01 a       204     0    11     1     4
 -1.6118705918003677E-02 a       205     0    11     1     5
 -1.3564061324174891E-02 a       206     0    11     1     6
  3.8274843182328953E-02 a       207     0    11     1     7
 -3.3919511972711275E-01 a       208     0    11     1     8
 -1.8962495965383203E-01 a       209     0    11     1     9
 -1.4219131894865641E-02 a       210     0    11     1    10
  1.4696589278362138E-01 a       211     0    11     1    11
  6.7374235583760919E-02 a       212     0    11     1    12
 -2.1845826111109093E-01 a       213     0    11     1    13
 -1.0815338744608992E-02 a       214     0    11     1    14
 -2.9220733255311646E-02 a       215     0    11     1    15
 -2.4843141325649734E-01 a       216     0    11     1    16
 -2.6354728614580636E-01 a       217     0    11     1    17
 -3.6954883276453387E-01 a       218     0    11     1    18
  5.6041654128528379E-02 a       219     0    11     1    19
 -1.2849268632814986E-01 a       220     0    11     1    20
 -3.2862643990547759E-02 a       221     0    12     1     1
 -1.9616657967879880E-01 a       222     0    12     1     2
  1.2599449370292967E-01 a       223     0    12     1     3
 -3.6747308325321498E-01 a       224     0    12     1     4
  1.1900082119943299E-01 a       225     0    12     1     5
 -1.5950935869208857E-02 a       226     0    12     1     6
  1.1087455216900950E-01 a       227     0    12     1     7
 -3.6669192388430216E-01 a       228     0    12     1     8
 -1.1785825687446019E-01 a       229     0    12     1     9
 -1.7407018956207077E-01 a       230     0    12     1    10
  1.5489214939690121E-01 a       231     0    12     1    11
  1.4792237133137676E-01 a       232     0    12     1    12
  1.7327903897734950E-01 a       233     0    12     1    13
  1.2368039891558331E-01 a       234     0    12     1    14
  2.3388956995976279E-01 a       235     0    12     1    15
  1.6311333305221783E-02 a       236     0    12     1    16
  2.3301566924585981E-01 a       237     0    12     1    17
  8.1006268959684671E-02 a       238     0    12     1    18
 -4.6062063830980229E-02 a       239     0    12     1    19
  3.7429924951845141E-02 a       240     0    12     1    20
 -3.6362930005227190E-01 a       241     0    13     1     1
 -4.8008328882651531E-02 a       242     0    13     1     2
 -1.9957680261125915E-01 a       243     0    13     1     3
  2.9993506983709912E-02 a       244     0    13     1     4
 -4.3610096447199326E-01 a       245     0    13     1     5
  2.4450413528472642E-01 a       246     0    13     1     6
  3.6358029677858748E-02 a       247     0    13     1     7
 -2.0168582062998114E-01 a       248     0    13     1     8
 -1.7440615563027578E-01 a       249     0    13     1     9
  5.2141172954639536E-01 a       250     0    13     1    10
 -1.1136124896750675E-01 a       251     0    13     1    11
 -2.6388383165542739E-01 a       252     0    13     1    12
  3.3389945322592191E-01 a       253     0    13     1    13
 -1.0937551126641440E-01 a       254     0    13     1    14
  1.8174515101020117E-01 a       255     0    13     1    15
  3.1485996502929120E-01 a       256     0    13     1    16
  2.6255726002308238E-01 a       257     0    13     1    17
  5.7401562494454585E-02 a       258     0    13     1    18
  6.9320199367344265E-02 a       259     0    13     1    19
  5.2274963615745289E-02 a       260     0    13     1    20
  1.6048874838834340E-01 a       261     0    14     1     1
  7.1548720544063915E-02 a       262     0    14     1     2
  4.7718836551225934E-02 a       263     0    14     1     3
  2.4821070939725808E-02 a       264     0    14     1     4
  2.6490672061476916E-01 a       265     0    14     1     5
 -2.8955192397613627E-02 a       266     0    14     1     6
 -1.1338744315712404E-01 a       267     0    14     1     7
 -3.2544765898975904E-02 a       268     0    14     1     8
  1.3164968552374159E-02 a       269     0    14     1     9
 -1.7077440315184039E-01 a       270     0    14     1    10
  2.1557368018891998E-01 a       271     0    14     1    11
  2.7940896864008513E-01 a       272     0    14     1    12
  4.4460938164720951E-02 a       273     0    14     1    13
  4.5950282316508856E-01 a       274     0    14     1    14
  2.8893453035076233E-01 a       275     0    14     1    15
  1.8023517833904615E-01 a       276     0    14     1    16
  2.6351216799662441E-02 a       277     0    14     1    17
  3.3544677069906204E-01 a       278     0    14     1    18
 -1.5886660669698302E-01 a       279     0    14     1    19
 -3.4626331888825507E-01 a       280     0    14     1    20
  6.5624542400285840E-02 a       281     0    15     1     1
 -1.0150525538252078E-01 a       282     0    15     1     2
 -1.1191180334388273E-01 a       283     0    15     1     3
 -5.1888161636888079E-02 a       284     0    15     1     4
 -1.2479769672154138E-02 a       285     0    15     1     5
  1.2043582048749771E-01 a       286     0    15     1     6
 -2.4169597917231997E-01 a       287     0    15     1     7
  7.1708872852943403E-02 a       288     0    15     1     8
  1.2159178616962028E-01 a       289     0    15     1     9
  8.1458715107963667E-02 a       290     0    15     1    10
 -2.2397518834409119E-01 a       291     0    15     1    11
 -9.6703254900632904E-02 a       292     0    15     1    12
 -4.6170151897264540E-02 a       293     0    15     1    13
 -2.0615469899470835E-02 a       294     0    15     1    14
  3.4103575656308588E-01 a       295     0    15     1    15
 -2.5722676741234834E-01 a       296     0    15     1    16
 -5.5073622359908786E-02 a       297     0    15     1    17
  1.1252765437913873E-01 a       298     0    15     1    18
  1.9079660210316859E-02 a       299     0    15     1    19
  2.6162671343150373E-01 a       300     0    15     1    20
 -9.8997922432428970E-02 a       301     0    16     1     1
 -3.6715954807779519E-02 a       302     0    16     1     2
  1.6120159194046210E-01 a       303     0    16     1     3
 -1.1156235291159045E-01 a       304     0    16     1     4
  2.1628497277647701E-01 a       305     0    16     1     5
  3.0829103223126441E-02 a       306     0    16     1     6
 -9.5028203039497633E-02 a       307     0    16     1     7
  2.7736026372469358E-01 a       308     0    16     1     8
 -1.0903683962000400E-03 a       309     0    16     1     9
 -7.6843956570081667E-02 a       310     0    16     1    10
  1.4314138924794836E-01 a       311     0    16     1    11
  9.0198614213969630E-02 a       312     0    16     1    12
 -1.9075461969877802E-01 a       313     0    16     1    13
 -2.2875986569280010E-01 a       314     0    16     1    14
  2.8863608030484347E-02 a       315     0    16     1    15
 -2.8506572421081511E-01 a       316     0    16     1    16
 -1.3580223614746126E-01 a       317     0    16     1    17
 -2.4929234960553306E-01 a       318     0    16     1    18
  1.3843855755342602E-01 a       319     0    16     1    19
  3.8956078113371567E-02 a       320     0    16     1    20
  2.5377882879883529E-01 a       321     0    17     1     1
  6.4768167259766682E-02 a       322     0    17     1     2
  6.3240830223368516E-02 a       323     0    17     1     3
  1.2042193052187258E-01 a       324     0    17     1     4
 -1.1088955594913222E-01 a       325     0    17     1     5
 -2.3908648989806446E-02 a       326     0    17     1     6
  7.1964026294743799E-02 a       327     0    17     1     7
 -2.8273485344239196E-01 a       328     0    17     1     8
  1.5522980401429878E-01 a       329     0    17     1     9
 -1.4456154161091184E-01 a       330     0    17     1    10
  6.8681948771302417E-02 a       331     0    17     1    11
 -1.4404948667948150E-01 a       332     0    17     1    12
  2.7676822596952883E-02 a       333     0    17     1    13
  1.5028877124836248E-01 a       334     0    17     1    14
 -2.1020021279614724E-02 a       335     0    17     1    15
  1.4326639579800504E-01 a       336     0    17     1    16
 -2.7490269040172749E-01 a       337     0    17     1    17
  2.4454338224952746E-01 a       338     0    17     1    18
  2.6868714333533744E-01 a       339     0    17     1    19
 -2.4518526314860220E-01 a       340     0    17     1    20
 -1.9388406733120214E-01 a       341     0    18     1     1
  7.0467135647688209E-02 a       342     0    18     1     2
 -1.3401035229380398E-01 a       343     0    18     1     3
 -4.0725232492470557E-02 a       344     0    18     1     4
 -2.4881692063800174E-02 a       345     0    18     1     5
  1.7192899456403085E-01 a       346     0    18     1     6
  3.6547547007123073E-02 a       347     0    18     1     7
  1.7623010079265831E-02 a       348     0    18     1     8
  9.4189869061541184E-02 a       349     0    18     1     9
 -1.8401210671364079E-01 a       350     0    18     1    10
  1.9325706201474016E-02 a       351     0    18     1    11
  9.8657586996633351E-02 a       352     0    18     1    12
 -3.2345620558285187E-02 a       353     0    18     1    13
 -8.0188227430639483E-02 a       354     0    18     1    14
 -2.3156801573740532E-01 a       355     0    18     1    15
 -2.7264301392250967E-01 a       356     0    18     1    16
  2.2171523902919743E-01 a       357     0    18     1    17
 -2.7475611496080188E-01 a       358     0    18     1    18
  6.3665773368950296E-02 a       359     0    18     1    19
  2.1827629338494997E-01 a       360     0    18     1    20
 -1.0480651890514144E-01 a       361     0    19     1     1
 -7.4104146585345768E-02 a       362     0    19     1     2
 -1.8837571301882539E-01 a       363     0    19     1     3
  1.9128498229775948E-01 a       364     0    19     1     4
 -1.9889797028138834E-01 a       365     0    19     1     5
  3.7952489160689973E-01 a       366     0    19     1     6
  1.2701469028688264E-01 a       367     0    19     1     7
 -4.3900079666091836E-02 a       368     0    19     1     8
  3.4797828022871354E-02 a       369     0    19     1     9
  2.5782495211369461E-01 a       370     0    19     1    10
 -8.4537515009975112E-02 a       371     0    19     1    11
 -3.6358498010107820E-02 a       372     0    19     1    12
  1.8275879750455934E-01 a       373     0    19     1    13
 -1.6836412330015524E-01 a       374     0    19     1    14
  9.9524071553565116E-02 a       375     0    19     1    15
  2.8820674763369355E-02 a       376     0    19     1    16
  3.1729182703022035E-01 a       377     0    19     1    17
 -1.0779907725121173E-01 a       378     0    19     1    18
 -3.4939453103352214E-01 a       379     0    19     1    19
 -4.3732107122350226E-02 a       380     0    19     1    20
  1.1305074273193380E-01 a       381     0    20     1     1
  1.4825285010963327E-01 a       382     0    20     1     2
  1.0334278514566343E-01 a       383     0    20     1     3
 -7.2270093924083536E-03 a       384     0    20     1     4
 -1.9816768197141326E-02 a       385     0    20     1     5
 -2.8315636566367897E-01 a       386     0    20     1     6
  2.2670235208141720E-02 a       387     0    20     1     7
 -3.1108432543788197E-02 a       388     0    20     1     8
  6.1854014960884170E-02 a       389     0    20     1     9
 -2.6194542116211944E-01 a       390     0    20     1    10
  6.1490193411487974E-02 a       391     0    20     1    11
  6.5748442815089264E-02 a       392     0    20     1    12
 -5.3022934381037987E-02 a       393     0    20     1    13
  3.2208378375507563E-01 a       394     0    20     1    14
 -1.8427919063543555E-01 a       395     0    20     1    15
 -1.0873638871967252E-01 a       396     0    20     1    16
 -4.7548732931817897E-02 a       397     0    20     1    17
 -2.1832460339524330E-02 a       398     0    20     1    18
 -1.8970567721568832E-01 a       399     0    20     1    19
 -3.9133443521357135E-02 a       400     0    20     1    20
  3.9329831008055850E-02 a       401     0    21     1     1
  1.1841820044455166E-01 a       402     0    21     1     2
  4.7060507116367313E-02 a       403     0    21     1     3
  4.7583358233121514E-02 a       404     0    21     1     4
  9.5868598594101864E-02 a       405     0    21     1     5
  1.1968745962323747E-01 a       406     0    21     1     6
  1.1522627501194432E-01 a       407     0    21     1     7
  7.6694300506566004E-02 a       408     0    21     1     8
 -1.6410921236213238E-01 a       409     0    21     1     9
  2.9938501529150330E-01 a       410     0    21     1    10
  3.2866533629158173E-02 a       411     0    21     1    11
 -6.3370815728370630E-03 a       412     0    21     1    12
  7.1913987887570363E-02 a       413     0    21     1    13
 -9.8322319502073957E-02 a       414     0    21     1    14
 -3.5374625543082300E-01 a       415     0    21     1    15
 -3.4766658589452000E-02 a       416     0    21     1    16
 -4.6540646786399048E-02 a       417     0    21     1    17
  1.4917228775830985E-01 a       418     0    21     1    18
 -6.9096585863646559E-02 a       419     0    21     1    19
 -3.8872300846486421E-02 a       420     0    21     1    20
  7.8743277210016671E-02 a       421     0    22     1     1
 -1.6555613636709470E-02 a       422     0    22     1     2
  7.4393541951529182E-02 a       423     0    22     1     3
  3.4617151389189013E-02 a       424     0    22     1     4
  7.7045372485952099E-02 a       425     0    22     1     5
  1.3319302815748169E-01 a       426     0    22     1     6
  2.5088729996634265E-02 a       427     0    22     1     7
 -1.1022383544861380E-04 a       428     0    22     1     8
 -2.3193842682742086E-01 a       429     0    22     1     9
  1.9351314886920806E-01 a       430     0    22     1    10
  1.0477034839993225E-01 a       431     0    22     1    11
  3.1698574797146273E-02 a       432     0    22     1    12
 -3.0363816460005567E-02 a       433     0    22     1    13
 -2.1050394026355146E-01 a       434     0    22     1    14
 -3.7769699261858809E-02 a       435     0    22     1    15
 -7.1382212548531956E-02 a       436     0    22     1    16
 -6.0716967355554839E-02 a       437     0    22     1    17
 -2.2355827109859082E-02 a       438     0    22     1    18
  3.8352534452040377E-01 a       439     0    22     1    19
  3.4063168014963783E-03 a       440     0    22     1    20
  1.6517353890714626E-01 a       441     0    23     1     1
  6.0120758290649629E-03 a       442     0    23     1     2
 -2.2963814033064116E-02 a       443     0    23     1     3
 -1.1674050902538760E-01 a       444     0    23     1     4
  7.2114260632849675E-02 a       445     0    23     1     5
 -2.3927549199561740E-01 a       446     0    23     1     6
 -5.0596811530530895E-02 a       447     0    23     1     7
 -1.7706524912492869E-01 a       448     0    23     1     8
  1.0074324349659904E-01 a       449     0    23     1     9
 -1.2146058114097126E-01 a       450     0    23     1    10
 -8.1109744856699487E-02 a       451     0    23     1    11
 -4.5236866919420110E-02 a       452     0    23     1    12
  3.9808315514761657E-03 a       453     0    23     1    13
  1.8247413154899075E-01 a       454     0    23     1    14
  2.1325081437390425E-01 a       455     0    23     1    15
  1.5578249440855402E-01 a       456     0    23     1    16
 -1.9558488362372131E-01 a       457     0    23     1    17
  3.5594056171071542E-01 a       458     0    23     1    18
  1.9338177335396955E-01 a       459     0    23     1    19
  2.0839925582034602E-03 a       460     0    23     1    20
 -1.2745866758119045E-01 a       461     0    24     1     1
  2.2300502427500441E-02 a       462     0    24     1     2
 -1.2784945216850852E-01 a       463     0    24     1     3
  6.3216387139730266E-03 a       464     0    24     1     4
 -1.7444301823554345E-02 a       465     0    24     1     5
 -5.8721564146570891E-02 a       466     0    24     1     6
 -8.0717046168804374E-02 a       467     0    24     1     7
 -3.4289097557970208E-03 a       468     0    24     1     8
  1.3761777388945209E-01 a       469     0    24     1     9
  1.0391067544450015E-01 a       470     0    24     1    10
  2.8228420048755185E-02 a       471     0    24     1    11
 -1.9214467900656566E-02 a       472     0    24     1    12
 -3.7025130207775608E-03 a       473     0    24     1    13
 -1.6097076310324529E-01 a       474     0    24     1    14
 -1.1806463320040349E-01 a       475     0    24     1    15
 -5.0059930768530068E-02 a       476     0    24     1    16
  1.9951753312764442E-01 a       477     0    24     1    17
  1.6952216781269368E-03 a       478     0    24     1    18
  7.6980718982694429E-02 a       479     0    24     1    19
  3.5088360252840456E-01 a       480     0    24     1    20
 -3.8296519602141275E-02 a       481     0    25     1     1
  1.0835811789670106E-03 a       482     0    25     1     2
 -1.0769647799013318E-02 a       483     0    25     1     3
  1.1037549766692115E-01 a       484     0    25     1     4
  9.2498376045901855E-03 a       485     0    25     1     5
  1.1884182583435034E-01 a       486     0    25     1     6
  2.1790749739054344E-02 a       487     0    25     1     7
  5.5748502846425985E-04 a       488     0    25     1     8
  1.4337424135443538E-01 a       489     0    25     1     9
  5.6882166512855985E-02 a       490     0    25     1    10
 -3.2138479626932039E-02 a       491     0    25     1    11
 -6.6180378770114318E-02 a       492     0    25     1    12
  6.3822022175116400E-02 a       493     0    25     1    13
 -5.9332146871926963E-02 a       494     0    25     1    14
 -2.9635613416490666E-03 a       495     0    25     1    15
 -1.5634824642338124E-01 a       496     0    25     1    16
  1.5868863393191454E-01 a       497     0    25     1    17
  7.6861640079035898E-02 a       498     0    25     1    18
 -2.2130084509538905E-01 a       499     0    25     1    19
 -8.0804444457462599E-02 a       500     0    25     1    20
 -1.6130150843675564E-01 a       501     0    26     1     1
  1.1251815674640529E-01 a       502     0    26     1     2
 -3.3926673019893570E-02 a       503     0    26     1     3
 -3.3923085604766534E-02 a       504     0    26     1     4
 -1.8144993605071158E-02 a       505     0    26     1     5
 -2.4956935056386823E-01 a       506     0    26     1     6
  2.0023853487726777E-02 a       507     0    26     1     7
  2.1077257837973232E-01 a       508     0    26     1     8
 -9.0833512428073665E-02 a       509     0    26     1     9
 -1.8679538711091223E-01 a       510     0    26     1    10
 -5.9788148038319121E-04 a       511     0    26     1    11
  4.4591276160663863E-02 a       512     0    26     1    12
 -4.6695045753354772E-02 a       513     0    26     1    13
  7.4271640095104646E-02 a       514     0    26     1    14
 -3.8696469320884425E-01 a       515     0    26     1    15
 -8.1853810913548153E-02 a       516     0    26     1    16
 -4.0908626752851666E-02 a       517     0    26     1    17
 -1.5615184577397942E-01 a       518     0    26     1    18
 -1.5660860436864057E-01 a       519     0    26     1    19
  8.5928605309640152E-02 a       520     0    26     1    20
 -4.9627971894344106E-03 a       521     0    27     1     1
  1.5836783359952959E-03 a       522     0    27     1     2
  4.0097236673549294E-02 a       523     0    27     1     3
 -7.0269939624014469E-02 a       524     0    27     1     4
  7.1796457689934187E-02 a       525     0    27     1     5
  3.8114551954361454E-02 a       526     0    27     1     6
  7.8639432434337742E-02 a       527     0    27     1     7
  4.3813296915946369E-02 a       528     0    27     1     8
 -1.2443579177414535E-01 a       529     0    27     1     9
  1.6086326836453840E-01 a       530     0    27     1    10
  1.3906662428655072E-02 a       531     0    27     1    11
  6.1484879036011859E-02 a       532     0    27     1    12
 -2.4600000304169943E-02 a       533     0    27     1    13
  5.7937399165675380E-03 a       534     0    27     1    14
  7.2869360373615730E-03 a       535     0    27     1    15
  1.8916985193284194E-01 a       536     0    27     1    16
  9.5905646299218790E-04 a       537     0    27     1    17
 -5.8423102404734899E-03 a       538     0    27     1    18
  4.0311186354371829E-02 a       539     0    27     1    19
 -1.3325556899877367E-01 a       540     0    27     1    20
 -4.8785784538587416E-02 a       541     0    28     1     1
 -4.2269572496719567E-02 a       542     0    28     1     2
  1.4524917585745012E-02 a       543     0    28     1     3
 -1.6519274069782244E-03 a       544     0    28     1     4
 -1.1218561013270586E-03 a       545     0    28     1     5
  6.3933390286728231E-02 a       546     0    28     1     6
 -3.1913388345369539E-02 a       547     0    28     1     7
  4.6179455842012017E-02 a       548     0    28     1     8
 -1.1596374608790090E-01 a       549     0    28     1     9
 -3.8744481918661616E-02 a       550     0    28     1    10
 -1.1475497319865365E-02 a       551     0    28     1    11
  5.3194384699713415E-03 a       552     0    28     1    12
 -6.9738118900057712E-03 a       553     0    28     1    13
 -4.4519195140807065E-02 a       554     0    28     1    14
 -2.2354232611322376E-02 a       555     0    28     1    15
  2.2884727010755522E-02 a       556     0    28     1    16
  3.3632983160835021E-03 a       557     0    28     1    17
 -1.0466530960846164E-01 a       558     0    28     1    18
  5.9811354242221004E-02 a       559     0    28     1    19
  1.5705758597251977E-02 a       560     0    28     1    20
  1.4356802706387445E-01 a       561     0    29     1     1
  9.4395386869815957E-03 a       562     0    29     1     2
 -6.1921022342521524E-02 a       563     0    29     1     3
 -8.9090814559655299E-02 a       564     0    29     1     4
  1.7637902996226407E-02 a       565     0    29     1     5
 -2.5536629222656970E-01 a       566     0    29     1     6
  2.0490595972094267E-02 a       567     0    29     1     7
 -1.9305109187442321E-01 a       568     0    29     1     8
  2.1416105575348163E-01 a       569     0    29     1     9
  7.2250021232092107E-02 a       570     0    29     1    10
 -8.0826023184310154E-03 a       571     0    29     1    11
  8.3251871153721055E-02 a       572     0    29     1    12
 -6.5767913064506564E-02 a       573     0    29     1    13
  8.8535764121515731E-02 a       574     0    29     1    14
  2.4454364580025928E-01 a       575     0    29     1    15
  8.5904470951218892E-02 a       576     0    29     1    16
  2.6336053299755063E-02 a       577     0    29     1    17
  1.7724485643086829E-01 a       578     0    29     1    18
  8.5735053171173040E-02 a       579     0    29     1    19
  3.9484249609021083E-02 a       580     0    29     1    20
  1.1942469525199857E-02 a       581     0    30     1     1
 -8.0498257967234005E-02 a       582     0    30     1     2
  1.0037875752994950E-03 a       583     0    30     1     3
  1.8749486766790341E-01 a       584     0    30     1     4
 -1.2778915658598221E-02 a       585     0    30     1     5
  2.7446930324054680E-01 a       586     0    30     1     6
  2.4493134995539595E-02 a       587     0    30     1     7
 -2.4828013867393219E-02 a       588     0    30     1     8
 -1.3667684962749968E-01 a       589     0    30     1     9
  6.9180370999867180E-02 a       590     0    30     1    10
 -2.2014663068674269E-03 a       591     0    30     1    11
 -7.0245105434228350E-02 a       592     0    30     1    12
  1.0154286319726426E-01 a       593     0    30     1    13
 -1.7366711411660413E-01 a       594     0    30     1    14
  2.1508686958321738E-01 a       595     0    30     1    15
 -2.3248853891487017E-01 a       596     0    30     1    16
  1.2234197338319742E-01 a       597     0    30     1    17
 -8.7171972009914347E-02 a       598     0    30     1    18
 -9.3887759755306097E-03 a       599     0    30     1    19
  7.8122086193699536E-02 a       600     0    30     1    20
 -1.2792293962986834E-01 a       601     0    31     1     1
 -2.5752312590038662E-01 a       602     0    31     1     2
 -5.8349055879582745E-01 a       603     0    31     1     3
 -1.6960898168696714E-01 a       604     0    31     1     4
  2.4967296407779890E-01 a       605     0    31     1     5
 -1.8420626740833762E-01 a       606     0    31     1     6
  2.2303222484093971E-01 a       607     0    31     1     7
  3.2947414220228816E-01 a       608     0    31     1     8
  1.6619027658026672E-01 a       609     0    31     1     9
 -4.9496598364974935E-02 a       610     0    31     1    10
  1.0256242051084818E-01 a       611     0    31     1    11
  9.0574937981030459E-02 a       612     0    31     1    12
 -1.8557122491571770E-01 a       613     0    31     1    13
 -1.2024895075053865E-01 a       614     0    31     1    14
  4.4530521961640163E-01 a       615     0    31     1    15
 -5.8272115302720007E-01 a       616     0    31     1    16
  1.4003522024928677E-01 a       617     0    31     1    17
  2.4688144462133568E-01 a       618     0    31     1    18
  2.0373524168328588E-01 a       619     0    31     1    19
  5.5061645488768601E-02 a       620     0    31     1    20
  2.4074895257217888E-01 a       621     0    32     1     1
  8.0183416888642345E-01 a       622     0    32     1     2
  1.2743879211959450E+00 a       623     0    32     1     3
 -1.7258656239962075E-01 a       624     0    32     1     4
  7.6293313024824461E-01 a       625     0    32     1     5
 -1.0560026921128972E-01 a       626     0    32     1     6
 -2.6441428032829123E-01 a       627     0    32     1     7
  5.7870536974505928E-02 a       628     0    32     1     8
  4.3142862695538998E-02 a       629     0    32     1     9
  2.7577627574516456E-01 a       630     0    32     1    10
  2.9514266018243387E-02 a       631     0    32     1    11
 -8.3837961230847538E-02 a       632     0    32     1    12
 -1.4732020497599610E-01 a       633     0    32     1    13
  1.4835115488635378E-01 a       634     0    32     1    14
  2.7641142254272999E-01 a       635     0    32     1    15
  3.8085659974166497E-01 a       636     0    32     1    16
 -5.6303950418268600E-01 a       637     0    32     1    17
 -4.3403504597816572E-01 a       638     0    32     1    18
 -3.1537698348083171E-01 a       639     0    32     1    19
 -1.7099661676594344E-01 a       640     0    32     1    20
 -1.7064697746994065E-01 a       641     0    33     1     1
 -5.0091561250358678E-02 a       642     0    33     1     2
 -3.2578377648795243E-01 a       643     0    33     1     3
 -1.0939290891651512E-01 a       644     0    33     1     4
 -1.7685367665663645E-01 a       645     0    33     1     5
 -3.1905960019481427E-02 a       646     0    33     1     6
  3.6988625118295115E-01 a       647     0    33     1     7
  1.5882546957093890E-01 a       648     0    33     1     8
  3.4656971582118679E-01 a       649     0    33     1     9
 -1.1165896295200832E-01 a       650     0    33     1    10
  6.9743597207270157E-03 a       651     0    33     1    11
 -6.1595816257935469E-02 a       652     0    33     1    12
 -1.0084241404167905E-01 a       653     0    33     1    13
 -3.5928911200886737E-01 a       654     0    33     1    14
  2.0837219416598646E-01 a       655     0    33     1    15
 -3.0681682858066248E-04 a       656     0    33     1    16
  1.7515585547858031E-01 a       657     0    33     1    17
 -2.5770265484257832E-01 a       658     0    33     1    18
  3.0007961181972148E-01 a       659     0    33     1    19
  7.0509203725089745E-02 a       660     0    33     1    20
 -4.1878916783074199E-01 a       661     0    34     1     1
 -7.0813740785576229E-01 a       662     0    34     1     2
 -8.4169612922232628E-01 a       663     0    34     1     3
 -1.4190105717645921E-01 a       664     0    34     1     4
 -6.5686763737315934E-01 a       665     0    34     1     5
  3.2367165275210213E-01 a       666     0    34     1     6
  8.3680702081997932E-02 a       667     0    34     1     7
 -4.7240691632156445E-04 a       668     0    34     1     8
 -3.1663732474948858E-02 a       669     0    34     1     9
 -2.0094262366480020E-01 a       670     0    34     1    10
  9.1404914135379225E-02 a       671     0    34     1    11
 -3.5936803673519968E-01 a       672     0    34     1    12
  2.9981165573571411E-01 a       673     0    34     1    13
 -2.9388696647772033E-01 a       674     0    34     1    14
 -2.9594079486352015E-01 a       675     0    34     1    15
  1.2570827855884986E-01 a       676     0    34     1    16
  7.9988549603764536E-01 a       677     0    34     1    17
  3.9801543680898488E-01 a       678     0    34     1    18
  3.7209135566134499E-01 a       679     0    34     1    19
  4.3872056442727425E-01 a       680     0    34     1    20
  5.9314523088130966E-01 a       681     0    35     1     1
  4.0569809695951420E-01 a       682     0    35     1     2
  9.7453928373712695E-02 a       683     0    35     1     3
  2.4670961321479909E-01 a       684     0    35     1     4
  3.6715225083973407E-01 a       685     0    35     1     5
  1.9590319651626142E-01 a       686     0    35     1     6
 -4.0204319620781614E-01 a       687     0    35     1     7
  6.8239485439878664E-02 a       688     0    35     1     8
  1.1782078487747212E-01 a       689     0    35     1     9
 -2.5945106756255783E-02 a       690     0    35     1    10
 -2.3971760720342358E-01 a       691     0    35     1    11
  2.8909640130036762E-01 a       692     0    35     1    12
 -1.0138231549703129E-01 a       693     0    35     1    13
  4.2095740325785669E-01 a       694     0    35     1    14
 -2.5836577318137893E-01 a       695     0    35     1    15
 -1.3057572093259304E-01 a       696     0    35     1    16
 -2.4745048040833009E-01 a       697     0    35     1    17
  2.1882006953728894E-01 a       698     0    35     1    18
 -2.1510757480211115E-01 a       699     0    35     1    19
 -4.8363037574585505E-01 a       700     0    35     1    20
 -1.4819231049720472E-01 a       701     0    36     1     1
 -3.2820627875579839E-01 a       702     0    36     1     2
 -5.8219108801519870E-02 a       703     0    36     1     3
 -2.6861494873210455E-02 a       704     0    36     1     4
  6.5920449562085343E-02 a       705     0    36     1     5
  1.8222973064632145E-01 a       706     0    36     1     6
  2.6427435026840290E-01 a       707     0    36     1     7
  6.5126674265830603E-02 a       708     0    36     1     8
  6.1809041318155761E-02 a       709     0    36     1     9
  9.8299905605948548E-02 a       710     0    36     1    10
  9.3841086115228848E-03 a       711     0    36     1    11
 -2.8297056044708946E-01 a       712     0    36     1    12
  2.0782138999604988E-01 a       713     0    36     1    13
 -1.1599653796768464E-01 a       714     0    36     1    14
 -2.4092204635178877E-01 a       715     0    36     1    15
  3.5627264419340283E-02 a       716     0    36     1    16
  1.7045179466380438E-03 a       717     0    36     1    17
  4.1267910314345339E-02 a       718     0    36     1    18
 -1.7263500897981152E-02 a       719     0    36     1    19
 -1.5741025273039416E-01 a       720     0    36     1    20
 -1.9363073028309463E-01 a       721     0    37     1     1
 -9.5075288808497679E-02 a       722     0    37     1     2
 -2.6888474279553376E-01 a       723     0    37     1     3
  8.8081131880581413E-03 a       724     0    37     1     4
 -5.0232267426830735E-01 a       725     0    37     1     5
 -2.7559715831878256E-01 a       726     0    37     1     6
  3.7758777216837888E-02 a       727     0    37     1     7
 -3.4275316623742574E-01 a       728     0    37     1     8
 -9.8343813238541411E-02 a       729     0    37     1     9
 -4.9968626665363232E-02 a       730     0    37     1    10
 -5.8367232663670154E-01 a       731     0    37     1    11
  1.4406004014852850E-01 a       732     0    37     1    12
  4.2316794759225757E-01 a       733     0    37     1    13
  4.5178880536436777E-01 a       734     0    37     1    14
 -3.4575174706496203E-01 a       735     0    37     1    15
  1.8963597094288495E-01 a       736     0    37     1    16
 -2.2247910228402604E-01 a       737     0    37     1    17
 -2.1236198796106096E-01 a       738     0    37     1    18
  1.1646173611613357E-01 a       739     0    37     1    19
 -5.1996137466519071E-02 a       740     0    37     1    20
  5.6402335922869185E-01 a       741     0    38     1     1
  2.9254476677999003E-01 a       742     0    38     1     2
 -7.6624676192557495E-01 a       743     0    38     1     3
  2.5921347844672293E-01 a       744     0    38     1     4
 -3.1192023777405892E-01 a       745     0    38     1     5
 -2.2930252413796115E-01 a       746     0    38     1     6
 -2.3082736877462476E-01 a       747     0    38     1     7
  4.8160375851714160E-01 a       748     0    38     1     8
 -4.9879476702505331E-02 a       749     0    38     1     9
  9.6684387182833967E-02 a       750     0    38     1    10
  9.3622868231884537E-01 a       751     0    38     1    11
 -1.2175413879202150E-01 a       752     0    38     1    12
 -2.3523779323262051E-01 a       753     0    38     1    13
 -9.1087046971979435E-01 a       754     0    38     1    14
 -3.0563973395437533E-01 a       755     0    38     1    15
  3.8743976368802974E-01 a       756     0    38     1    16
  1.7254819203696289E-01 a       757     0    38     1    17
  3.1948246502349897E-01 a       758     0    38     1    18
 -1.0756297239078433E-01 a       759     0    38     1    19
  2.9622445286175136E-02 a       760     0    38     1    20
 -1.7861148475303323E-01 a       761     0    39     1     1
 -4.2016470434849872E-02 a       762     0    39     1     2
  6.9189757887696865E-02 a       763     0    39     1     3
  1.1578271596223344E-02 a       764     0    39     1     4
  8.6370027872922792E-02 a       765     0    39     1     5
 -1.4298841547442695E-01 a       766     0    39     1     6
 -5.6200093825642235E-02 a       767     0    39     1     7
  1.8650110515215482E-01 a       768     0    39     1     8
 -1.4754016619953950E-01 a       769     0    39     1     9
  1.4439320168956804E-01 a       770     0    39     1    10
 -1.8799380682277472E-01 a       771     0    39     1    11
 -2.1083139520041965E-02 a       772     0    39     1    12
  1.6046421364917035E-01 a       773     0    39     1    13
  3.1603655526705889E-02 a       774     0    39     1    14
  6.0158524183807759E-02 a       775     0    39     1    15
  1.0801331820840277E-02 a       776     0    39     1    16
 -2.7002323318325838E-01 a       777     0    39     1    17
  1.0949408387794889E-01 a       778     0    39     1    18
 -3.0597819904937695E-01 a       779     0    39     1    19
  3.0815709879431212E-02 a       780     0    39     1    20
 -1.4520844364990185E-01 a       781     0    40     1     1
  5.4247290678117434E-02 a       782     0    40     1     2
  6.4031771697945272E-01 a       783     0    40     1     3
 -8.5369751571616345E-02 a       784     0    40     1     4
  1.2409770743691133E-01 a       785     0    40     1     5
 -1.0784897178109711E-01 a       786     0    40     1     6
  3.1174008983816609E-01 a       787     0    40     1     7
 -1.4400325514909423E-01 a       788     0    40     1     8
 -3.9093415398611725E-01 a       789     0    40     1     9
 -4.1947029330137151E-02 a       790     0    40     1    10
 -4.6162170066129954E-01 a       791     0    40     1    11
  2.2238172781783169E-01 a       792     0    40     1    12
 -1.4988130633461735E-01 a       793     0    40     1    13
  3.9751033228831101E-01 a       794     0    40     1    14
  2.0637507996750581E-01 a       795     0    40     1    15
 -1.5779861333478445E-01 a       796     0    40     1    16
 -2.3497998076235022E-01 a       797     0    40     1    17
 -5.4393634569362870E-01 a       798     0    40     1    18
 -3.2091323845247065E-02 a       799     0    40     1    19
  4.7775018205594058E-02 a       800     0    40     1    20
  4.4782027116761304E-02 a       801     0    41     1     1
 -1.3697369132325118E-01 a       802     0    41     1     2
 -9.6229268044130165E-02 a       803     0    41     1     3
  7.1974342004924294E-02 a       804     0    41     1     4
 -2.5035285095418675E-01 a       805     0    41     1     5
 -9.2788783576258541E-02 a       806     0    41     1     6
 -1.7149817415946225E-01 a       807     0    41     1     7
  3.5870052789325785E-01 a       808     0    41     1     8
 -5.8525958252230184E-02 a       809     0    41     1     9
  4.1708677065817551E-01 a       810     0    41     1    10
  1.7110340110807348E-01 a       811     0    41     1    11
  1.4927545198926262E-01 a       812     0    41     1    12
 -3.4716722261267452E-01 a       813     0    41     1    13
  2.7521553139684962E-01 a       814     0    41     1    14
  9.6977300203285877E-02 a       815     0    41     1    15
 -8.2390715398501554E-02 a       816     0    41     1    16
 -4.0302442374117353E-01 a       817     0    41     1    17
 -1.8366688833153952E-01 a       818     0    41     1    18
  6.3923286300620920E-03 a       819     0    41     1    19
  1.3469249583260634E-01 a       820     0    41     1    20
 -6.5796080242013041E-02 a       821     0    42     1     1
  4.6506908770878014E-01 a       822     0    42     1     2
 -2.4539278928410424E-01 a       823     0    42     1     3
  5.5495465537358284E-02 a       824     0    42     1     4
 -1.5757655110406296E-01 a       825     0    42     1     5
 -4.1544919431646893E-03 a       826     0    42     1     6
 -8.1364901659712260E-02 a       827     0    42     1     7
  3.5435278328975461E-01 a       828     0    42     1     8
  1.7520945824882816E-01 a       829     0    42     1     9
  2.3798717960325008E-01 a       830     0    42     1    10
  1.5474665615778116E-01 a       831     0    42     1    11
  1.5189058948220721E-01 a       832     0    42     1    12
 -1.5279456577193240E-01 a       833     0    42     1    13
 -1.4134717768687155E-01 a       834     0    42     1    14
  2.6860351348558953E-01 a       835     0    42     1    15
  6.8632618778255022E-02 a       836     0    42     1    16
  1.0436947279340662E-01 a       837     0    42     1    17
 -4.2499627831823672E-01 a       838     0    42     1    18
  1.9771649182941067E-01 a       839     0    42     1    19
  9.3104212094652240E-03 a       840     0    42     1    20
 -1.0337448176725261E-01 a       841     0    43     1     1
  9.6382109505536342E-02 a       842     0    43     1     2
  6.0822466718698315E-02 a       843     0    43     1     3
 -6.9678017765745166E-05 a       844     0    43     1     4
 -5.4944013849947571E-02 a       845     0    43     1     5
 -2.4984075423424620E-01 a       846     0    43     1     6
 -6.0608257014375631E-02 a       847     0    43     1     7
 -2.8405977800414373E-02 a       848     0    43     1     8
  1.6052357181698829E-01 a       849     0    43     1     9
 -7.7495433160805885E-02 a       850     0    43     1    10
  5.4190808621181683E-02 a       851     0    43     1    11
 -5.7220121543653329E-02 a       852     0    43     1    12
 -7.0265880132644107E-03 a       853     0    43     1    13
  6.7527913224701003E-02 a       854     0    43     1    14
 -1.3931895617619910E-01 a       855     0    43     1    15
 -1.4291342729192934E-02 a       856     0    43     1    16
  9.6187073055100415E-03 a       857     0    43     1    17
  1.4252885628080170E-01 a       858     0    43     1    18
 -1.2084159182463586E-02 a       859     0    43     1    19
 -2.8455643365450086E-02 a       860     0    43     1    20
  2.7672797424427520E-01 a       861     0    44     1     1
 -1.1889084490991223E-02 a       862     0    44     1     2
 -7.3648846905895043E-02 a       863     0    44     1     3
 -8.9726445803365359E-03 a       864     0    44     1     4
  1.2221732236284193E-02 a       865     0    44     1     5
  2.0897517789686057E-01 a       866     0    44     1     6
  8.7801973601919853E-02 a       867     0    44     1     7
 -3.7182516699101401E-02 a       868     0    44     1     8
 -2.8979003613454885E-01 a       869     0    44     1     9
 -1.6664881309540377E-01 a       870     0    44     1    10
  7.9367371739086298E-03 a       871     0    44     1    11
  8.3237231975691051E-02 a       872     0    44     1    12
 -3.0715109499970049E-02 a       873     0    44     1    13
  4.8528480397326643E-02 a       874     0    44     1    14
 -1.2522032902777890E-02 a       875     0    44     1    15
  7.2472165408118905E-02 a       876     0    44     1    16
 -6.1464575843427301E-02 a       877     0    44     1    17
 -9.2092619378457044E-02 a       878     0    44     1    18
 -6.5590560437416264E-03 a       879     0    44     1    19
  1.1961517418311669E-01 a       880     0    44     1    20
 -9.7895419536111555E-02 a       881     0    45     1     1
  1.2860561970720771E-01 a       882     0    45     1     2
  4.5606296781058570E-02 a       883     0    45     1     3
  1.7159445552495104E-02 a       884     0    45     1     4
  6.3607441218930888E-02 a       885     0    45     1     5
 -4.1578615927116418E-02 a       886     0    45     1     6
 -9.2036966385530480E-02 a       887     0    45     1     7
 -2.5070627342881478E-02 a       888     0    45     1     8
  1.9395454143082701E-02 a       889     0    45     1     9
  2.0435344579979330E-02 a       890     0    45     1    10
  2.4219456711232423E-01 a       891     0    45     1    11
  1.7599457427946965E-02 a       892     0    45     1    12
  7.0037347399980621E-04 a       893     0    45     1    13
  1.2482554814455346E-01 a       894     0    45     1    14
 -1.9432832787360554E-01 a       895     0    45     1    15
  1.6837401326644436E-01 a       896     0    45     1    16
 -1.2190574636566229E-02 a       897     0    45     1    17
  2.7752931533096697E-01 a       898     0    45     1    18
  2.4601264282091952E-02 a       899     0    45     1    19
 -9.3489050536377013E-03 a       900     0    45     1    20
 -9.9188930260212443E-02 a       901     0    46     1     1
  1.1858753228780747E-01 a       902     0    46     1     2
  3.6431376548201250E-01 a       903     0    46     1     3
  3.4704282972184675E-01 a       904     0    46     1     4
  8.5475805257725662E-02 a       905     0    46     1     5
 -1.4423748017650917E-01 a       906     0    46     1     6
 -1.2984229972159472E-01 a       907     0    46     1     7
 -5.4987369547814163E-02 a       908     0    46     1     8
 -3.6591868962533408E-01 a       909     0    46     1     9
  2.2586312112477230E-01 a       910     0    46     1    10
  2.9741943701210155E-01 a       911     0    46     1    11
 -1.8462939397137723E-01 a       912     0    46     1    12
  9.0150487599770263E-02 a       913     0    46     1    13
 -8.5609837032575395E-02 a       914     0    46     1    14
 -1.9824960680420703E-01 a       915     0    46     1    15
  1.4670465810861985E-01 a       916     0    46     1    16
  3.4063618472435092E-01 a       917     0    46     1    17
  2.5748338783303676E-01 a       918     0    46     1    18
  4.4565979186280691E-02 a       919     0    46     1    19
  7.1772278582029586E-02 a       920     0    46     1    20
  2.6626274573818010E-01 a       921     0    47     1     1
 -3.6776792714395830E-02 a       922     0    47     1     2
  1.7098872659903647E-01 a       923     0    47     1     3
  9.1715087720832991E-02 a       924     0    47     1     4
  1.4119016686625968E-01 a       925     0    47     1     5
  2.8512946554011104E-01 a       926     0    47     1     6
  4.7017615391921223E-02 a       927     0    47     1     7
 -1.0193083576412193E-01 a       928     0    47     1     8
 -3.7817489511348362E-01 a       929     0    47     1     9
 -4.8638614548050810E-02 a       930     0    47     1    10
 -2.3689069867791152E-01 a       931     0    47     1    11
 -1.3580927778595545E-01 a       932     0    47     1    12
  5.0406377135879359E-02 a       933     0    47     1    13
 -1.6736359387423919E-02 a       934     0    47     1    14
  1.3987808373760435E-01 a       935     0    47     1    15
 -2.4669439536693324E-01 a       936     0    47     1    16
  1.2935874062100589E-02 a       937     0    47     1    17
  1.3912934856164250E-01 a       938     0    47     1    18
 -6.4799028943234929E-03 a       939     0    47     1    19
  2.4784694221560724E-01 a       940     0    47     1    20
 -1.0987799493885446E-02 a       941     0    48     1     1
 -1.2127502495874796E-02 a       942     0    48     1     2
  1.3271758377375126E-01 a       943     0    48     1     3
  7.5907253097175137E-02 a       944     0    48     1     4
 -1.6783681071535653E-01 a       945     0    48     1     5
 -1.0878246925557698E-01 a       946     0    48     1     6
  3.4358396683061537E-02 a       947     0    48     1     7
 -6.4523593235537663E-02 a       948     0    48     1     8
 -3.4136161140927150E-02 a       949     0    48     1     9
  2.0854216653021751E-01 a       950     0    48     1    10
  1.5110522082654648E-01 a       951     0    48     1    11
 -6.8174934109413686E-03 a       952     0    48     1    12
 -1.1796396385387353E-01 a       953     0    48     1    13
 -5.5278068571078816E-02 a       954     0    48     1    14
 -4.2590457343183327E-02 a       955     0    48     1    15
  3.0292432681280673E-01 a       956     0    48     1    16
  3.0763873976003608E-02 a       957     0    48     1    17
 -3.5410284575928562E-02 a       958     0    48     1    18
 -3.6019191829156421E-03 a       959     0    48     1    19
 -5.9797503719892099E-02 a       960     0    48     1    20
  5.7305903111711118E-02 a       961     0    49     1     1
 -1.1425546742701770E-02 a       962     0    49     1     2
  6.6682674042638923E-01 a       963     0    49     1     3
  5.8662946359681702E-05 a       964     0    49     1     4
  2.7155616137768479E-01 a       965     0    49     1     5
  4.5671982314810394E-01 a       966     0    49     1     6
 -3.1256705209358204E-01 a       967     0    49     1     7
  8.8505318491042234E-02 a       968     0    49     1     8
 -2.1860639330529891E-01 a       969     0    49     1     9
 -2.3711597846470544E-02 a       970     0    49     1    10
  2.5867364797661307E-01 a       971     0    49     1    11
 -1.8353988285901462E-01 a       972     0    49     1    12
 -2.5552555447214409E-01 a       973     0    49     1    13
 -2.8601722196645735E-01 a       974     0    49     1    14
 -2.9099433645559070E-01 a       975     0    49     1    15
 -2.2221261607130610E-01 a       976     0    49     1    16
  3.5197278594684593E-03 a       977     0    49     1    17
 -5.3072366339386272E-02 a       978     0    49     1    18
 -3.2867680645278685E-01 a       979     0    49     1    19
  3.2172920004945871E-01 a       980     0    49     1    20
 -5.1690765509929182E-01 a       981     0    50     1     1
 -2.3603998341960444E-01 a       982     0    50     1     2
 -2.5695494573486488E-01 a       983     0    50     1     3
  3.8312865146130810E-03 a       984     0    50     1     4
  2.0254772965190740E-01 a       985     0    50     1     5
 -1.4720743430834299E-01 a       986     0    50     1     6
  7.0186225664667956E-01 a       987     0    50     1     7
  1.8869492908919924E-01 a       988     0    50     1     8
  9.2531078380219178E-02 a       989     0    50     1     9
 -5.8561813509233307E-01 a       990     0    50     1    10
 -1.0615585231159703E+00 a       991     0    50     1    11
 -8.4034063104864734E-02 a       992     0    50     1    12
  3.2540001702639731E-01 a       993     0    50     1    13
  8.3526066368909757E-01 a       994     0    50     1    14
 -8.1663667209939353E-02 a       995     0    50     1    15
  1.1111033779177047E-01 a       996     0    50     1    16
  1.3474821272210669E-01 a       997     0    50     1    17
 -7.7531685449383769E-02 a       998     0    50     1    18
  6.6281005230730539E-01 a       999     0    50     1    19
  1.9302575633069574E-01 a      1000     0    50     1    20
 -2.6704792530077106E-03 a      1001     0    51     1     1
  3.4477016097832248E-02 a      1002     0    51     1     2
  1.9334350542627984E-01 a      1003     0    51     1     3
  9.9166402084282495E-03 a      1004     0    51     1     4
 -4.1191694392959229E-02 a      1005     0    51     1     5
  1.3054271267091180E-01 a      1006     0    51     1     6
 -7.5773443884469743E-02 a      1007     0    51     1     7
 -1.3677419736572854E-01 a      1008     0    51     1     8
 -1.5310483328736003E-02 a      1009     0    51     1     9
 -2.1695558481009938E-01 a      1010     0    51     1    10
  1.2406369167763176E-01 a      1011     0    51     1    11
 -3.5411828968473572E-02 a      1012     0    51     1    12
 -9.2906704189357842E-02 a      1013     0    51     1    13
  5.9106679353522554E-02 a      1014     0    51     1    14
 -8.9171526209006424E-02 a      1015     0    51     1    15
 -2.4824874964641908E-01 a      1016     0    51     1    16
  5.8111338988604495E-02 a      1017     0    51     1    17
 -7.5833051218734307E-02 a      1018     0    51     1    18
  1.1068236446433632E-01 a      1019     0    51     1    19
 -8.5500094187432527E-02 a      1020     0    51     1    20
  5.4014012787565090E-02 a      1021     0    52     1     1
 -5.7133762177689569E-02 a      1022     0    52     1     2
 -1.5056066790817699E-01 a      1023     0    52     1     3
 -2.1624822165831875E-01 a      1024     0    52     1     4
  1.4213677647136862E-02 a      1025     0    52     1     5
 -9.3894788805326798E-02 a      1026     0    52     1     6
 -4.7902396987136941E-01 a      1027     0    52     1     7
  1.3551489536509528E-01 a      1028     0    52     1     8
  3.4535388901380132E-01 a      1029     0    52     1     9
 -1.6436115369488447E-01 a      1030     0    52     1    10
  1.6676354045824618E-01 a      1031     0    52     1    11
 -6.7263157457627037E-02 a      1032     0    52     1    12
 -1.2894029099052709E-01 a      1033     0    52     1    13
 -2.9430589551658365E-01 a      1034     0    52     1    14
  1.5562581149824685E-02 a      1035     0    52     1    15
 -7.9433527708002855E-02 a      1036     0    52     1    16
  1.3901980017548344E-02 a      1037     0    52     1    17
  2.4084048476583741E-01 a      1038     0    52     1    18
 -3.6207492437247440E-01 a      1039     0    52     1    19
 -9.8786999073304155E-02 a      1040     0    52     1    20
 -8.8643783704986406E-02 a      1041     0    53     1     1
  6.5845379791767952E-02 a      1042     0    53     1     2
 -3.5411127386168401E-01 a      1043     0    53     1     3
  2.3923852454010276E-02 a      1044     0    53     1     4
 -3.5284755084321806E-01 a      1045     0    53     1     5
 -6.7005968129231719E-01 a      1046     0    53     1     6
  7.3338679379063965E-01 a      1047     0    53     1     7
 -2.2193344291585732E-01 a      1048     0    53     1     8
  4.0007169967963031E-02 a      1049     0    53     1     9
 -2.5410732099522859E-01 a      1050     0    53     1    10
 -2.2545037190661490E-01 a      1051     0    53     1    11
 -1.8724100743724187E-02 a      1052     0    53     1    12
  2.1961713414309333E-01 a      1053     0    53     1    13
 -2.9909639988778558E-01 a      1054     0    53     1    14
 -1.6621786421360119E-01 a      1055     0    53     1    15
  3.6998781100034089E-01 a      1056     0    53     1    16
  3.1684817518153979E-01 a      1057     0    53     1    17
 -6.6566071197226528E-01 a      1058     0    53     1    18
  2.1123072146697133E-01 a      1059     0    53     1    19
  2.6881951585130143E-01 a      1060     0    53     1    20
 -3.2662762399501322E-01 a      1061     0    54     1     1
 -3.6716861206187729E-01 a      1062     0    54     1     2
  3.1361134422110282E-01 a      1063     0    54     1     3
 -2.6993381791271959E-01 a      1064     0    54     1     4
  2.5518320045567405E-01 a      1065     0    54     1     5
  1.0679564866843230E-01 a      1066     0    54     1     6
 -2.6301556703350193E-01 a      1067     0    54     1     7
 -2.3190817458627194E-02 a      1068     0    54     1     8
 -1.4913835861199518E-01 a      1069     0    54     1     9
  4.4214002375748657E-01 a      1070     0    54     1    10
 -3.6998138892858537E-02 a      1071     0    54     1    11
 -2.3742206282882000E-01 a      1072     0    54     1    12
  1.5036053630924445E-01 a      1073     0    54     1    13
  1.4195734926142666E-02 a      1074     0    54     1    14
  1.2292560046637424E-01 a      1075     0    54     1    15
 -1.6245732796821066E-02 a      1076     0    54     1    16
  1.0486420816977751E-02 a      1077     0    54     1    17
  2.3374949688863170E-01 a      1078     0    54     1    18
 -1.7788386729746669E-01 a      1079     0    54     1    19
 -3.4066989216010235E-04 a      1080     0    54     1    20
  1.4792059950070321E-01 b      1081     1     1
 -3.6086568186796042E-01 b      1082     1     2
  1.5151859447575483E-01 b      1083     1     3
 -6.9057365071677465E-02 b      1084     1     4
 -1.0289673860526050E+00 b      1085     1     5
  1.2204608112454651E+00 b      1086     1     6
  7.9995372996826353E-01 b      1087     1     7
 -6.3218725060983890E-03 b      1088     1     8
 -1.4050922916636581E+00 b      1089     1     9
 -1.0719793531419326E+00 b      1090     1    10
  1.1448251719276337E+00 b      1091     1    11
 -6.3381560983102803E-01 b      1092     1    12
 -1.0415789876056627E+00 b      1093     1    13
  1.1731431525541474E+00 b      1094     1    14
 -1.3183416552941809E+00 b      1095     1    15
 -1.2287877283502611E+00 b      1096     1    16
  1.4956468764626958E+00 b      1097     1    17
 -1.1216428690443387E+00 b      1098     1    18
 -8.5129899904214046E-01 b      1099     1    19
 -5.7848170807105759E-01 b      1100     1    20
 -4.8926738747410470E-01 a      1101     1     1     2     1
 -2.4633541605966234E-02 a      1102     1     1     2     2
  7.2196704571266215E-02 a      1103     1     1     2     3
  4.6411821105840800E-01 a      1104     1     1     2     4
  2.0425961424482456E-01 a      1105     1     1     2     5
 -7.4630818102188023E-02 a      1106     1     1     2     6
  3.4205726884527066E-01 a      1107     1     1     2     7
 -6.5873115152835215E-01 a      1108     1     1     2     8
 -5.1835934866199654E-02 a      1109     1     1     2     9
 -6.2085112730244152E-01 a      1110     1     1     2    10
  3.9852772840464368E-01 a      1111     1     1     2    11
 -5.7170075691318656E-01 a      1112     1     1     2    12
  1.0324061507267344E-01 a      1113     1     1     2    13
  4.0221466516440108E-01 a      1114     1     1     2    14
 -6.0745599154687768E-01 a      1115     1     1     2    15
  5.8197612309539359E-01 a      1116     1     1     2    16
 -2.4265379375106469E-01 a      1117     1     1     2    17
  2.3208316171238336E-01 a      1118     1     1     2    18
 -1.3947602022528013E-01 a      1119     1     1     2    19
 -7.5620702430125109E-01 a      1120     1     1     2    20
 -3.2302305679735832E-01 a      1121     1     2     2     1
 -5.1773309309742177E-01 a      1122     1     2     2     2
  6.3081754418727454E-01 a      1123     1     2     2     3
  2.4779261944550854E-01 a      1124     1     2     2     4
 -4.6464226474142062E-01 a      1125     1     2     2     5
  2.2396247727876037E-01 a      1126     1     2     2     6
  8.1508181132833168E-01 a      1127     1     2     2     7
  1.9030937296264561E-01 a      1128     1     2     2     8
  6.8873541928586390E-01 a      1129     1     2     2     9
  1.3065263473718866E-01 a      1130     1     2     2    10
  5.6478062718780087E-02 a      1131     1     2     2    11
  3.7966646975698115E-01 a      1132     1     2     2    12
  3.0628216820611404E-01 a      1133     1     2     2    13
  1.9742966120880820E-01 a      1134     1     2     2    14
 -6.2053187247794694E-01 a      1135     1     2     2    15
  5.4822369179797525E-01 a      1136     1     2     2    16
 -4.5596272060028697E-02 a      1137     1     2     2    17
  3.2272773450276321E-01 a      1138     1     2     2    18
 -8.6216108594195304E-02 a      1139     1     2     2    19
 -3.1698499029184153E-02 a      1140     1     2     2    20
  1.9513674351701990E-01 a      1141     1     3     2     1
  3.8227352849779134E-01 a      1142     1     3     2     2
  8.0349105309312392E-03 a      1143     1     3     2     3
 -1.9566421166898931E-01 a      1144     1     3     2     4
 -3.5773599206654372E-01 a      1145     1     3     2     5
  5.4280746405531755E-01 a      1146     1     3     2     6
 -2.6101946046315400E-01 a      1147     1     3     2     7
  4.2346038011217246E-01 a      1148     1     3     2     8
 -6.4371722295039763E-02 a      1149     1     3     2     9
 -3.0626819056824856E-01 a      1150     1     3     2    10
  2.9434023104076024E-01 a      1151     1     3     2    11
  8.7965796583114220E-01 a      1152     1     3     2    12
 -3.2041197752343958E-01 a      1153     1     3     2    13
  3.4765147062441931E-01 a      1154     1     3     2    14
  1.0408032045893316E-01 a      1155     1     3     2    15
 -1.7486245559757246E-01 a      1156     1     3     2    16
  5.9812430755271526E-02 a      1157     1     3     2    17
 -2.8549191683516478E-01 a      1158     1     3     2    18
 -2.5429332321241122E-01 a      1159     1     3     2    19
 -2.5348351919229195E-01 a      1160     1     3     2    20
  4.2599388673248484E-01 a      1161     1     4     2     1
 -4.8793292682555689E-01 a      1162     1     4     2     2
 -5.6299973626586974E-01 a      1163     1     4     2     3
 -1.4939109263336064E-03 a      1164     1     4     2     4
 -4.3906934385393498E-01 a      1165     1     4     2     5
  3.5698939598293117E-01 a      1166     1     4     2     6
 -3.6532603095660082E-01 a      1167     1     4     2     7
  3.0592876376015210E-01 a      1168     1     4     2     8
 -4.8275874626516238E-02 a      1169     1     4     2     9
  1.1943563403532238E-01 a      1170     1     4     2    10
  1.6411199955090147E-01 a      1171     1     4     2    11
  1.3071619746454594E-01 a      1172     1     4     2    12
  4.5842201991746434E-01 a      1173     1     4     2    13
  7.7056084308857664E-01 a      1174     1     4     2    14
  7.1050602997658885E-01 a      1175     1     4     2    15
  4.5662178791896252E-01 a      1176     1     4     2    16
 -5.7767088227111796E-01 a      1177     1     4     2    17
  1.0803049502146039E-02 a      1178     1     4     2    18
 -6.6702510802330306E-02 a      1179     1     4     2    19
  1.2812208806549530E-01 a      1180     1     4     2    20
 -6.4932532204509663E-01 a      1181     1     5     2     1
  3.5155819988296905E-01 a      1182     1     5     2     2
 -6.6120155146509729E-01 a      1183     1     5     2     3
 -1.8016145176329768E-01 a      1184     1     5     2     4
 -5.1872549361651477E-01 a      1185     1     5     2     5
 -5.3979055339659843E-01 a      1186     1     5     2     6
 -2.6574057491174047E-01 a      1187     1     5     2     7
 -4.0565383428624829E-01 a      1188     1     5     2     8
 -6.9178392125706900E-01 a      1189     1     5     2     9
  6.6488718046964423E-01 a      1190     1     5     2    10
 -3.8449887074728872E-01 a      1191     1     5     2    11
 -5.6176699336668257E-01 a      1192     1     5     2    12
 -4.1795570636935470E-01 a      1193     1     5     2    13
  5.0358383978256616E-01 a      1194     1     5     2    14
  5.0641928797109159E-01 a      1195     1     5     2    15
  4.5142912955063647E-01 a      1196     1     5     2    16
  1.6285357876334253E-01 a      1197     1     5     2    17
 -2.4199503312337664E-01 a      1198     1     5     2    18
 -4.0982229420933347E-01 a      1199     1     5     2    19
  3.9899915624684307E-01 a      1200     1     5     2    20
 -2.6927297731894406E-01 a      1201     1     6     2     1
 -6.3974187388019932E-01 a      1202     1     6     2     2
  2.2238108175437332E-01 a      1203     1     6     2     3
 -3.2153785353176695E-01 a      1204     1     6     2     4
 -3.6978585233436634E-01 a      1205     1     6     2     5
 -2.2202628881762007E-01 a      1206     1     6     2     6
 -6.9695266748941331E-01 a      1207     1     6     2     7
 -2.1026047287161517E-01 a      1208     1     6     2     8
  7.6221406574714920E-02 a      1209     1     6     2     9
  4.6503449800487884E-01 a      1210     1     6     2    10
 -3.0282240157996937E-01 a      1211     1     6     2    11
 -2.1407911264542473E-01 a      1212     1     6     2    12
  5.5376773353333097E-01 a      1213     1     6     2    13
 -1.9157451263462741E-01 a      1214     1     6     2    14
  3.1939650826988147E-01 a      1215     1     6     2    15
 -3.4715469950631322E-01 a      1216     1     6     2    16
 -3.5367976343799740E-01 a      1217     1     6     2    17
 -3.3961486798346335E-01 a      1218     1     6     2    18
  1.3113504827321426E-02 a      1219     1     6     2    19
  2.5551452041357847E-01 a      1220     1     6     2    20
 -4.9403843835041172E-01 a      1221     1     7     2     1
 -3.5810712758747149E-01 a      1222     1     7     2     2
  5.0845904389015262E-01 a      1223     1     7     2     3
  1.5159537397290929E-01 a      1224     1     7     2     4
  2.6179051128529880E-02 a      1225     1     7     2     5
 -6.6309149906048281E-01 a      1226     1     7     2     6
  3.3876686775326481E-01 a      1227     1     7     2     7
 -4.6471012839816189E-01 a      1228     1     7     2     8
 -2.5856518235994735E-01 a      1229     1     7     2     9
  5.3922922537099993E-01 a      1230     1     7     2    10
 -6.8303706520809737E-01 a      1231     1     7     2    11
  2.8618672854545935E-01 a      1232     1     7     2    12
 -4.4596391260394741E-01 a      1233     1     7     2    13
 -7.1534476549024298E-02 a      1234     1     7     2    14
  7.1270482544734559E-01 a      1235     1     7     2    15
 -7.6340814040281835E-01 a      1236     1     7     2    16
 -3.7339428208984687E-01 a      1237     1     7     2    17
 -1.3606699318008611E-01 a      1238     1     7     2    18
 -5.1634375557497203E-01 a      1239     1     7     2    19
  5.9998829778073648E-01 a      1240     1     7     2    20
 -5.2857341703129931E-02 a      1241     1     8     2     1
 -8.5988610583300318E-01 a      1242     1     8     2     2
  3.9307954412650242E-01 a      1243     1     8     2     3
  6.3985137682503834E-01 a      1244     1     8     2     4
  3.9010000087930007E-02 a      1245     1     8     2     5
  3.7216924377317284E-01 a      1246     1     8     2     6
 -4.1682328134257707E-01 a      1247     1     8     2     7
 -5.0165532635680843E-01 a      1248     1     8     2     8
  4.7618397840896076E-01 a      1249     1     8     2     9
 -6.8515978382728748E-01 a      1250     1     8     2    10
  5.3547580049607313E-01 a      1251     1     8     2    11
  3.5925643603700569E-01 a      1252     1     8     2    12
  7.7287270012043452E-01 a      1253     1     8     2    13
 -1.6969601325926509E-01 a      1254     1     8     2    14
 -1.2159902181750731E-01 a      1255     1     8     2    15
  4.8670897020485565E-01 a      1256     1     8     2    16
 -4.6984753043765348E-01 a      1257     1     8     2    17
 -4.0129515175354724E-01 a      1258     1     8     2    18
 -1.6581501792294968E-02 a      1259     1     8     2    19
  6.8243676180927748E-01 a      1260     1     8     2    20
 -3.9186659462948087E-01 a      1261     1     9     2     1
  3.6664925682483240E-01 a      1262     1     9     2     2
  1.5893207226713996E-01 a      1263     1     9     2     3
 -3.6057912462659253E-01 a      1264     1     9     2     4
 -3.3073618542563760E-01 a      1265     1     9     2     5
 -4.2880120330404609E-01 a      1266     1     9     2     6
 -4.8027497607556480E-01 a      1267     1     9     2     7
 -2.2339063456381997E-01 a      1268     1     9     2     8
 -3.5205029414296879E-01 a      1269     1     9     2     9
 -1.6497242439853899E-01 a      1270     1     9     2    10
  5.2250346304712303E-01 a      1271     1     9     2    11
  1.2638803676392213E-01 a      1272     1     9     2    12
  5.2075555787404686E-02 a      1273     1     9     2    13
 -5.4788785547207874E-01 a      1274     1     9     2    14
  2.3851483064200371E-01 a      1275     1     9     2    15
  8.1059011630883637E-02 a      1276     1     9     2    16
  2.3397581185605246E-01 a      1277     1     9     2    17
 -2.3183161107958077E-02 a      1278     1     9     2    18
  6.9524524171324187E-01 a      1279     1     9     2    19
 -4.2815136736571491E-01 a      1280     1     9     2    20
  3.5612233599999532E-01 a      1281     1    10     2     1
  1.5511276322294731E-01 a      1282     1    10     2     2
  6.5775670342927839E-01 a      1283     1    10     2     3
  4.7623035254561241E-01 a      1284     1    10     2     4
 -3.6806520578483736E-03 a      1285     1    10     2     5
  6.8857255833910558E-01 a      1286     1    10     2     6
 -4.1821244729080898E-01 a      1287     1    10     2     7
 -1.3125335685089959E-01 a      1288     1    10     2     8
 -1.6291197126387935E-01 a      1289     1    10     2     9
 -1.7997724936242943E-01 a      1290     1    10     2    10
 -2.3423925979043622E-01 a      1291     1    10     2    11
  6.3761900166382590E-01 a      1292     1    10     2    12
 -1.6960640166343671E-01 a      1293     1    10     2    13
 -4.0501247430237741E-01 a      1294     1    10     2    14
  1.0583841663626964E-01 a      1295     1    10     2    15
  2.3150679225767506E-01 a      1296     1    10     2    16
  4.6413687499284934E-01 a      1297     1    10     2    17
  2.0218699658253336E-01 a      1298     1    10     2    18
  1.5491127262885917E-02 a      1299     1    10     2    19
 -4.6192139736375848E-01 a      1300     1    10     2    20
  2.3191999818522122E-01 a      1301     1    11     2     1
 -1.7285827570778978E-01 a      1302     1    11     2     2
  1.5568447811813702E-01 a      1303     1    11     2     3
  4.2932285409976872E-01 a      1304     1    11     2     4
  9.6794075757543874E-01 a      1305     1    11     2     5
 -8.5198272625729943E-01 a      1306     1    11     2     6
  5.3880231049498495E-01 a      1307     1    11     2     7
 -1.4825627508068651E+00 a      1308     1    11     2     8
  3.8576707661474180E-01 a      1309     1    11     2     9
 -4.7936632116128064E-01 a      1310     1    11     2    10
  1.1520616602324395E-01 a      1311     1    11     2    11
 -7.3747148881458602E-01 a      1312     1    11     2    12
  1.7746462417486356E-01 a      1313     1    11     2    13
 -6.1993596640713668E-02 a      1314     1    11     2    14
 -8.7421027743258273E-01 a      1315     1    11     2    15
  3.3265636685201433E-01 a      1316     1    11     2    16
 -2.3147468109230479E-01 a      1317     1    11     2    17
  2.3478435067839659E-01 a      1318     1    11     2    18
  9.0591775842485234E-02 a      1319     1    11     2    19
  2.5427817361727029E-01 a      1320     1    11     2    20
  2.9696716731084910E-01 a      1321     1    12     2     1
  3.5756568482203299E-01 a      1322     1    12     2     2
 -9.6094959371889714E-03 a      1323     1    12     2     3
 -2.5561300823352018E-01 a      1324     1    12     2     4
 -6.4316580580965532E-01 a      1325     1    12     2     5
  1.9489426980568889E-01 a      1326     1    12     2     6
  3.3437408098919028E-02 a      1327     1    12     2     7
 -3.8292568559021151E-01 a      1328     1    12     2     8
  6.3830764712092658E-01 a      1329     1    12     2     9
 -4.1419576814863063E-01 a      1330     1    12     2    10
  2.5943759586378151E-01 a      1331     1    12     2    11
 -3.8075827475874130E-01 a      1332     1    12     2    12
 -2.3193573208768353E-01 a      1333     1    12     2    13
  2.2958223026542052E-01 a      1334     1    12     2    14
 -3.2766915601102814E-01 a      1335     1    12     2    15
 -1.6425006739585185E-01 a      1336     1    12     2    16
 -2.5804395209205822E-01 a      1337     1    12     2    17
  2.7502329239161509E-02 a      1338     1    12     2    18
 -2.1878546075524802E-01 a      1339     1    12     2    19
 -4.6166962954624308E-01 a      1340     1    12     2    20
 -5.5594018326426700E-02 a      1341     1    13     2     1
 -4.6957438410318525E-01 a      1342     1    13     2     2
 -2.8770986866705500E-01 a      1343     1    13     2     3
 -2.9643114094287426E-01 a      1344     1    13     2     4
  4.0795108926188706E-02 a      1345     1    13     2     5
 -1.2140053626993200E-01 a      1346     1    13     2     6
  5.7235420047129518E-02 a      1347     1    13     2     7
  1.9227482548671840E-01 a      1348     1    13     2     8
 -4.0609212131284317E-01 a      1349     1    13     2     9
  3.0706508759860307E-01 a      1350     1    13     2    10
  4.4644238947990983E-01 a      1351     1    13     2    11
 -5.0318525116599067E-01 a      1352     1    13     2    12
 -3.3576107457209936E-01 a      1353     1    13     2    13
  3.0184447121023511E-01 a      1354     1    13     2    14
  1.4249693905649868E-01 a      1355     1    13     2    15
 -7.3682650759755952E-01 a      1356     1    13     2    16
 -2.4205518271735046E-01 a      1357     1    13     2    17
  6.8805007672715934E-01 a      1358     1    13     2    18
  6.9314593092073640E-01 a      1359     1    13     2    19
 -1.5951803645587032E-01 a      1360     1    13     2    20
  1.0126932927277905E+00 a      1361     1    14     2     1
  1.1650710708736753E-01 a      1362     1    14     2     2
 -7.9358697886510274E-02 a      1363     1    14     2     3
 -8.7071463586948838E-02 a      1364     1    14     2     4
 -2.1501264636268252E-01 a      1365     1    14     2     5
  5.3338052636700571E-02 a      1366     1    14     2     6
 -2.8408429432208809E-01 a      1367     1    14     2     7
  1.6058209001686893E-01 a      1368     1    14     2     8
 -6.1362514066313278E-01 a      1369     1    14     2     9
 -2.7785664113689412E-01 a      1370     1    14     2    10
 -8.1751260694466110E-01 a      1371     1    14     2    11
 -4.3248475105500761E-01 a      1372     1    14     2    12
 -5.4909225879266110E-01 a      1373     1    14     2    13
  1.8537382431487934E-01 a      1374     1    14     2    14
  6.4698648641719814E-02 a      1375     1    14     2    15
  6.2556825752553091E-01 a      1376     1    14     2    16
 -8.0018498298411123E-01 a      1377     1    14     2    17
  5.7722210111036976E-01 a      1378     1    14     2    18
  1.6215363188005311E-01 a      1379     1    14     2    19
  8.4793552598622657E-01 a      1380     1    14     2    20
  2.4341528343696586E-01 a      1381     1    15     2     1
  3.1226965247901439E-01 a      1382     1    15     2     2
  1.1062568524382922E-01 a      1383     1    15     2     3
 -1.6269144215010665E-02 a      1384     1    15     2     4
 -1.4344861729126304E-01 a      1385     1    15     2     5
 -3.3907610904945229E-01 a      1386     1    15     2     6
  3.3305446670048328E-01 a      1387     1    15     2     7
  3.8951898061211671E-01 a      1388     1    15     2     8
  4.5826170788833026E-01 a      1389     1    15     2     9
 -4.6147430887581824E-02 a      1390     1    15     2    10
  3.1809212798863423E-01 a      1391     1    15     2    11
 -2.6952826509162808E-01 a      1392     1    15     2    12
  4.9410889957515119E-01 a      1393     1    15     2    13
  5.1411920321182170E-01 a      1394     1    15     2    14
 -4.8610944315306082E-01 a      1395     1    15     2    15
  4.8285063085930563E-01 a      1396     1    15     2    16
 -3.3485997932447137E-02 a      1397     1    15     2    17
  9.2643913228506486E-02 a      1398     1    15     2    18
  5.4022299619419067E-01 a      1399     1    15     2    19
 -2.8859534834399125E-01 a      1400     1    15     2    20
 -1.2644320033198447E-01 a      1401     1    16     2     1
 -1.7302269126399267E-01 a      1402     1    16     2     2
  6.5218285169871959E-01 a      1403     1    16     2     3
  4.6048491321335855E-01 a      1404     1    16     2     4
 -4.7540082433890585E-01 a      1405     1    16     2     5
  6.3011794776129060E-01 a      1406     1    16     2     6
  1.4450594494443639E-01 a      1407     1    16     2     7
  6.4678489531858707E-01 a      1408     1    16     2     8
 -5.5207374178154500E-01 a      1409     1    16     2     9
  5.2667981873448488E-01 a      1410     1    16     2    10
 -2.2054533395873910E-01 a      1411     1    16     2    11
 -9.6833692132416660E-02 a      1412     1    16     2    12
  4.0680143739746061E-01 a      1413     1    16     2    13
 -2.1778435386071882E-01 a      1414     1    16     2    14
  4.2451043786410975E-01 a      1415     1    16     2    15
  4.8124301389021451E-04 a      1416     1    16     2    16
  2.0471081876123029E-01 a      1417     1    16     2    17
 -5.2075454244059412E-02 a      1418     1    16     2    18
  4.8549112735438521E-01 a      1419     1    16     2    19
 -7.7520712311506601E-01 a      1420     1    16     2    20
 -2.8909876600984413E-01 a      1421     1    17     2     1
  7.1546343743313479E-02 a      1422     1    17     2     2
 -1.7467704129287809E-01 a      1423     1    17     2     3
 -5.5244078751673653E-01 a      1424     1    17     2     4
  7.7660232758013192E-01 a      1425     1    17     2     5
 -1.3143001031566909E-01 a      1426     1    17     2     6
  8.7407463004656183E-02 a      1427     1    17     2     7
 -4.7458095068784939E-01 a      1428     1    17     2     8
  5.7180747110952568E-01 a      1429     1    17     2     9
 -2.4004744486561203E-01 a      1430     1    17     2    10
 -4.6686554946537345E-01 a      1431     1    17     2    11
 -2.5430590923867624E-01 a      1432     1    17     2    12
 -1.6371826496816111E-01 a      1433     1    17     2    13
 -3.3861179674907815E-01 a      1434     1    17     2    14
 -1.5355739708280323E-02 a      1435     1    17     2    15
 -1.3178190054349825E-01 a      1436     1    17     2    16
  4.1586783758508589E-01 a      1437     1    17     2    17
 -6.8451719237066777E-01 a      1438     1    17     2    18
  4.4455519479570105E-01 a      1439     1    17     2    19
 -3.2592867949457144E-01 a      1440     1    17     2    20
 -6.9919891226325290E-02 a      1441     1    18     2     1
  2.8878967276823103E-01 a      1442     1    18     2     2
  3.8274280865451532E-01 a      1443     1    18     2     3
  9.5346776837080555E-03 a      1444     1    18     2     4
  5.6857609345489424E-01 a      1445     1    18     2     5
 -1.8654249316706589E-01 a      1446     1    18     2     6
 -3.0963368745682696E-01 a      1447     1    18     2     7
  3.5183499606099383E-01 a      1448     1    18     2     8
 -1.0777024945317211E-01 a      1449     1    18     2     9
 -4.8320785588874121E-01 a      1450     1    18     2    10
 -1.0644202757730288E-01 a      1451     1    18     2    11
 -5.2410552733952087E-01 a      1452     1    18     2    12
  5.7057061165954504E-01 a      1453     1    18     2    13
 -5.9864675903073905E-01 a      1454     1    18     2    14
 -2.8686967942616670E-01 a      1455     1    18     2    15
 -5.4844693222959229E-01 a      1456     1    18     2    16
  4.8480387817175047E-01 a      1457     1    18     2    17
 -2.1439987810846969E-01 a      1458     1    18     2    18
  4.7752385321492473E-02 a      1459     1    18     2    19
 -4.0280875911615099E-01 a      1460     1    18     2    20
  1.2291884258841827E-01 a      1461     1    19     2     1
  5.4133900647309108E-01 a      1462     1    19     2     2
  5.6264456216212788E-01 a      1463     1    19     2     3
 -1.7456795128767966E-01 a      1464     1    19     2     4
 -4.3920305635425921E-01 a      1465     1    19     2     5
  9.3193167206141270E-01 a      1466     1    19     2     6
 -4.6324384448987099E-01 a      1467     1    19     2     7
  1.5423010985090164E+00 a      1468     1    19     2     8
 -1.4906667346797242E-01 a      1469     1    19     2     9
 -2.7286899118743241E-01 a      1470     1    19     2    10
  1.0851649780161243E-01 a      1471     1    19     2    11
 -5.3791814535874345E-02 a      1472     1    19     2    12
  2.6655125657328510E-01 a      1473     1    19     2    13
 -3.9650190732214902E-01 a      1474     1    19     2    14
  8.6744442463422500E-02 a      1475     1    19     2    15
  6.8952181128153364E-02 a      1476     1    19     2    16
 -3.0183254699118928E-01 a      1477     1    19     2    17
 -1.1521022797219296E-01 a      1478     1    19     2    18
 -5.6126620916300329E-02 a      1479     1    19     2    19
  1.6312077387681589E-01 a      1480     1    19     2    20
  6.0728849963336906E-01 a      1481     1    20     2     1
 -3.3081880199797231E-01 a      1482     1    20     2     2
 -8.6271786320299221E-02 a      1483     1    20     2     3
  6.1224216950157617E-01 a      1484     1    20     2     4
  2.1478625076220662E-01 a      1485     1    20     2     5
  2.5453725558471290E-02 a      1486     1    20     2     6
  1.1784078178798509E-02 a      1487     1    20     2     7
 -3.8578528033405911E-02 a      1488     1    20     2     8
  2.2337191799584791E-01 a      1489     1    20     2     9
  7.6646711611600957E-02 a      1490     1    20     2    10
  7.1141674634963542E-02 a      1491     1    20     2    11
  7.6598949777647446E-02 a      1492     1    20     2    12
 -6.2508679891435692E-01 a      1493     1    20     2    13
 -2.1751733202257156E-01 a      1494     1    20     2    14
  4.7626138246612099E-01 a      1495     1    20     2    15
  2.4387200268689364E-02 a      1496     1    20     2    16
  6.0673468249163913E-02 a      1497     1    20     2    17
  2.7824756909181747E-01 a      1498     1    20     2    18
  5.6385977023419365E-01 a      1499     1    20     2    19
  2.0352791827857272E-01 a      1500     1    20     2    20
  1.4211587883168191E+00 b      1501     2     1
  1.2579502244422696E+00 b      1502     2     2
  1.4598016065675954E+00 b      1503     2     3
  5.6446995480124229E-01 b      1504     2     4
 -2.6862774227962022E-01 b      1505     2     5
 -1.0506817654290692E+00 b      1506     2     6
 -1.4452531752780671E+00 b      1507     2     7
  3.7767500113595681E-01 b      1508     2     8
  1.1566202173582623E+00 b      1509     2     9
 -2.2246155860069761E-01 b      1510     2    10
  4.4835400952383847E-01 b      1511     2    11
  6.4958232691160922E-01 b      1512     2    12
  1.0394679944054219E+00 b      1513     2    13
  1.4026050957274142E-01 b      1514     2    14
  4.7750647789165307E-01 b      1515     2    15
  1.4842081747627052E+00 b      1516     2    16
 -1.4482643512500799E+00 b      1517     2    17
 -1.2300380856759503E+00 b      1518     2    18
  7.8830597245247425E-01 b      1519     2    19
  5.3907188823835672E-01 b      1520     2    20
 -4.7435091360946557E-01 a      1521     2     1     3     1
  1.2251465862781512E-02 a      1522     2     2     3     1
 -1.3771644716824394E-01 a      1523     2     3     3     1
  1.5696227784668237E-01 a      1524     2     4     3     1
 -2.2323788207979942E+00 a      1525     2     5     3     1
  2.3108176024707152E+00 a      1526     2     6     3     1
 -1.5182424458717358E-01 a      1527     2     7     3     1
  1.1878232154342379E+00 a      1528     2     8     3     1
 -4.5738529070383765E-01 a      1529     2     9     3     1
  3.2689651229048594E-01 a      1530     2    10     3     1
  1.2114882615564935E+00 a      1531     2    11     3     1
  7.2955010061501471E-02 a      1532     2    12     3     1
 -6.2619299104279937E-03 a      1533     2    13     3     1
  5.9361605297985051E-02 a      1534     2    14     3     1
 -2.9602474108960231E-01 a      1535     2    15     3     1
 -6.5812231697936319E-01 a      1536     2    16     3     1
  9.6242144203176594E-01 a      1537     2    17     3     1
  8.3315508173977271E-01 a      1538     2    18     3     1
  1.4690267247049549E-03 a      1539     2    19     3     1
 -1.7373341622219243E+00 a      1540     2    20     3     1
 -2.6228284627773975E+00 b      1541     3     1
