################################################################################
# Neural network connection values (weights and biases).
################################################################################
# Col  Name       Description
################################################################################
# 1    connection Neural network connection value.
# 2    t          Connection type (a = weight, b = bias).
# 3    index      Index enumerating weights.
# 4    l_s        Starting point layer (end point layer for biases).
# 5    n_s        Starting point neuron in starting layer (end point neuron for biases).
# 6    l_e        End point layer.
# 7    n_e        End point neuron in end layer.
################################################################################
#                      1 2         3     4     5     6     7
#             connection t     index   l_s   n_s   l_e   n_e
############################################################
  2.3572930861301103E-01 a         1     0     1     1     1
 -1.6173259992744070E-02 a         2     0     1     1     2
 -2.1486825541510678E-02 a         3     0     1     1     3
 -5.7492273443935121E-02 a         4     0     1     1     4
 -2.5339017345949708E-02 a         5     0     1     1     5
  1.7760873776566627E-01 a         6     0     1     1     6
  1.6993822954332220E-02 a         7     0     1     1     7
  6.1737036039949497E-02 a         8     0     1     1     8
 -1.3367356981944764E-01 a         9     0     1     1     9
  2.9040124086799940E-01 a        10     0     1     1    10
 -9.7648234541429894E-03 a        11     0     1     1    11
  2.6131542682836550E-01 a        12     0     1     1    12
  7.2188452055226074E-02 a        13     0     1     1    13
  7.8371232962058293E-02 a        14     0     1     1    14
 -1.3222979485699649E-01 a        15     0     1     1    15
 -1.0399995595994140E-01 a        16     0     1     1    16
 -1.6705326734184699E-02 a        17     0     1     1    17
  1.1036806082501800E-01 a        18     0     1     1    18
  1.9891639663405683E-01 a        19     0     1     1    19
 -8.9124187416441888E-02 a        20     0     1     1    20
 -1.0470562798530243E-01 a        21     0     2     1     1
  1.3711275253617744E-01 a        22     0     2     1     2
  2.6148322605758162E-01 a        23     0     2     1     3
 -1.2717500776777302E-01 a        24     0     2     1     4
 -2.0951729670605948E-01 a        25     0     2     1     5
 -9.5086010922090236E-03 a        26     0     2     1     6
 -2.8669869064935805E-01 a        27     0     2     1     7
  4.3898983723673446E-01 a        28     0     2     1     8
  5.6908980253039074E-02 a        29     0     2     1     9
 -4.2314491647252933E-01 a        30     0     2     1    10
  4.2710642057308590E-01 a        31     0     2     1    11
 -1.2486368811090279E-01 a        32     0     2     1    12
 -1.4581339832343107E-01 a        33     0     2     1    13
  2.2422224029309307E-01 a        34     0     2     1    14
 -1.1898767628537825E-01 a        35     0     2     1    15
  7.7804070347266940E-02 a        36     0     2     1    16
  9.2928609022604372E-02 a        37     0     2     1    17
  3.1855498143002448E-01 a        38     0     2     1    18
 -1.5836448177928480E-01 a        39     0     2     1    19
 -4.9426366545298145E-01 a        40     0     2     1    20
  1.5604961556733205E-01 a        41     0     3     1     1
  4.8739283412492972E-02 a        42     0     3     1     2
  1.9010184247477407E-01 a        43     0     3     1     3
 -4.9526158066786535E-02 a        44     0     3     1     4
 -2.2118218100486448E-01 a        45     0     3     1     5
 -8.4719175536071903E-02 a        46     0     3     1     6
  8.2520983988384443E-03 a        47     0     3     1     7
  6.0831707201670956E-02 a        48     0     3     1     8
  1.0973217305714252E-01 a        49     0     3     1     9
 -2.6956683637428390E-02 a        50     0     3     1    10
 -1.1601805137215374E-01 a        51     0     3     1    11
 -1.5848766349855073E-01 a        52     0     3     1    12
  8.1895205902841484E-03 a        53     0     3     1    13
  2.1634918323694765E-02 a        54     0     3     1    14
  1.4093819244273009E-01 a        55     0     3     1    15
 -9.6906500747733562E-02 a        56     0     3     1    16
  4.6217239982348376E-02 a        57     0     3     1    17
 -2.5871192994701137E-01 a        58     0     3     1    18
  2.2992421023163193E-01 a        59     0     3     1    19
 -1.2164224251789681E-01 a        60     0     3     1    20
  1.0428514274222475E-01 a        61     0     4     1     1
  2.4160374567743163E-02 a        62     0     4     1     2
  3.3315780859453537E-01 a        63     0     4     1     3
 -1.1022288689951240E-01 a        64     0     4     1     4
  4.2853254860808383E-02 a        65     0     4     1     5
 -8.6557178431197909E-02 a        66     0     4     1     6
 -8.3329569205173828E-02 a        67     0     4     1     7
 -1.8738175897293588E-01 a        68     0     4     1     8
 -2.3721016831324306E-03 a        69     0     4     1     9
 -1.5178066929814479E-01 a        70     0     4     1    10
  2.0132081633798354E-02 a        71     0     4     1    11
 -3.6782117579061507E-01 a        72     0     4     1    12
  8.5467817491186884E-02 a        73     0     4     1    13
  7.4454466471657932E-02 a        74     0     4     1    14
  1.1369109192490862E-01 a        75     0     4     1    15
  1.2614661502575258E-01 a        76     0     4     1    16
  9.6536965887067654E-03 a        77     0     4     1    17
  1.0918999515195330E-02 a        78     0     4     1    18
  7.0282831527014060E-03 a        79     0     4     1    19
 -5.0373293593722418E-02 a        80     0     4     1    20
  4.9634357256944134E-01 a        81     0     5     1     1
  2.1252805398759125E-01 a        82     0     5     1     2
  1.9453705198774700E-02 a        83     0     5     1     3
 -6.6005169468897076E-02 a        84     0     5     1     4
  4.9084164790352380E-01 a        85     0     5     1     5
  2.5315736005499828E-01 a        86     0     5     1     6
 -2.7367331511531812E-01 a        87     0     5     1     7
 -3.1892855439818180E-01 a        88     0     5     1     8
 -1.9471415027464906E-01 a        89     0     5     1     9
  3.2722665887680545E-02 a        90     0     5     1    10
 -7.1341534276296492E-01 a        91     0     5     1    11
 -5.4750139397451880E-01 a        92     0     5     1    12
 -1.5934517421832811E-01 a        93     0     5     1    13
  4.7252158528488064E-01 a        94     0     5     1    14
  5.8923629404857025E-01 a        95     0     5     1    15
 -1.9996004459357769E-01 a        96     0     5     1    16
  9.5198967173984586E-02 a        97     0     5     1    17
 -8.1414379582008101E-01 a        98     0     5     1    18
  4.0920526919642530E-01 a        99     0     5     1    19
  2.6119435577092287E-01 a       100     0     5     1    20
 -8.7183832077543225E-02 a       101     0     6     1     1
  6.2420536014376027E-02 a       102     0     6     1     2
 -2.8199942529789634E-01 a       103     0     6     1     3
 -1.6757398620067698E-01 a       104     0     6     1     4
  4.5534742972199138E-01 a       105     0     6     1     5
  1.8225863933179778E-01 a       106     0     6     1     6
  3.1554451309924275E-01 a       107     0     6     1     7
 -2.5534422969228454E-01 a       108     0     6     1     8
 -8.2245021084928011E-02 a       109     0     6     1     9
  1.8845960443248588E-01 a       110     0     6     1    10
  1.3897719482597029E-01 a       111     0     6     1    11
  5.5825136859170221E-01 a       112     0     6     1    12
 -2.4084594794175707E-01 a       113     0     6     1    13
 -6.5624888139194010E-02 a       114     0     6     1    14
 -3.5144057726096189E-01 a       115     0     6     1    15
  1.7325666684550484E-01 a       116     0     6     1    16
 -1.1791625991769794E-01 a       117     0     6     1    17
  1.6847811945841421E-01 a       118     0     6     1    18
 -1.0956118079579802E-01 a       119     0     6     1    19
  1.0683809473376057E-01 a       120     0     6     1    20
 -4.3451950209653159E-02 a       121     0     7     1     1
  1.5994872953818637E-01 a       122     0     7     1     2
 -1.8218921828356718E-01 a       123     0     7     1     3
 -1.8036946141332200E-01 a       124     0     7     1     4
 -3.1230709524231898E-01 a       125     0     7     1     5
 -1.7389258888642697E-01 a       126     0     7     1     6
  1.5932437870177174E-02 a       127     0     7     1     7
  5.1066242331814060E-01 a       128     0     7     1     8
  2.4656833317690718E-01 a       129     0     7     1     9
  7.9072445157906766E-03 a       130     0     7     1    10
  1.5022025528840183E-01 a       131     0     7     1    11
  1.2322217771537439E-01 a       132     0     7     1    12
 -3.1319245564027587E-01 a       133     0     7     1    13
  8.7979861844925539E-02 a       134     0     7     1    14
 -1.4407622248640473E-01 a       135     0     7     1    15
 -3.0976891996325651E-01 a       136     0     7     1    16
 -9.3894417393216328E-02 a       137     0     7     1    17
 -2.7066521938530669E-02 a       138     0     7     1    18
 -3.5502461870424905E-02 a       139     0     7     1    19
  3.0331744963773277E-01 a       140     0     7     1    20
  5.1656915453919372E-01 a       141     0     8     1     1
 -3.3585505569674662E-01 a       142     0     8     1     2
  1.9412685074362487E-01 a       143     0     8     1     3
 -1.3081572029645255E-01 a       144     0     8     1     4
 -2.1663316679086009E-01 a       145     0     8     1     5
  3.0300913363433435E-01 a       146     0     8     1     6
  3.6506591240204805E-01 a       147     0     8     1     7
  1.1240415779728272E-01 a       148     0     8     1     8
 -5.3957092609487967E-01 a       149     0     8     1     9
 -3.2638734176693435E-01 a       150     0     8     1    10
  5.3106624980480344E-01 a       151     0     8     1    11
  6.1874717222723619E-01 a       152     0     8     1    12
  1.1636070910913884E-01 a       153     0     8     1    13
 -7.2910499058960498E-01 a       154     0     8     1    14
 -4.3590454780188731E-01 a       155     0     8     1    15
  4.3727022221142470E-02 a       156     0     8     1    16
 -4.2217152833825161E-01 a       157     0     8     1    17
  1.4466643888895400E-01 a       158     0     8     1    18
  4.2531319204004547E-01 a       159     0     8     1    19
 -2.6483661543789139E-01 a       160     0     8     1    20
 -3.7432207062955053E-01 a       161     0     9     1     1
 -2.2221564588448336E-01 a       162     0     9     1     2
  1.5769365246122319E-01 a       163     0     9     1     3
  3.1333029625393011E-01 a       164     0     9     1     4
 -4.0801696965966860E-01 a       165     0     9     1     5
 -3.5090664799820170E-01 a       166     0     9     1     6
 -2.2826243792435316E-01 a       167     0     9     1     7
  9.0505253607313110E-02 a       168     0     9     1     8
  1.4080222184590158E-01 a       169     0     9     1     9
 -1.7173846432347842E-01 a       170     0     9     1    10
  1.5191465715721619E-01 a       171     0     9     1    11
 -1.2261400410642841E-01 a       172     0     9     1    12
  4.5464405001286290E-01 a       173     0     9     1    13
 -1.7893772707310215E-01 a       174     0     9     1    14
 -1.5519026125045537E-01 a       175     0     9     1    15
 -2.0227140178593489E-01 a       176     0     9     1    16
 -9.7776771280069716E-02 a       177     0     9     1    17
 -7.5770144617157503E-02 a       178     0     9     1    18
  1.5152116402740870E-01 a       179     0     9     1    19
  4.1200196417942003E-01 a       180     0     9     1    20
  6.9995854471032543E-02 a       181     0    10     1     1
 -1.1777420907989782E-01 a       182     0    10     1     2
  5.2872383912617719E-02 a       183     0    10     1     3
 -3.3824268463250456E-02 a       184     0    10     1     4
 -2.0983671021874661E-01 a       185     0    10     1     5
  2.3822019418633797E-01 a       186     0    10     1     6
 -5.3151342807367830E-02 a       187     0    10     1     7
  1.2270885953972997E-01 a       188     0    10     1     8
  3.3967295062740412E-02 a       189     0    10     1     9
  5.1885846618618364E-02 a       190     0    10     1    10
  2.5589805973772350E-01 a       191     0    10     1    11
 -2.7370264394492139E-02 a       192     0    10     1    12
  2.3862113242897318E-01 a       193     0    10     1    13
  2.9987824820450937E-01 a       194     0    10     1    14
  3.0190585937202512E-02 a       195     0    10     1    15
 -2.6858150392775904E-01 a       196     0    10     1    16
  9.0098826963192061E-02 a       197     0    10     1    17
  5.2005783766649161E-01 a       198     0    10     1    18
  3.4467262417062811E-01 a       199     0    10     1    19
  6.8714807228454328E-02 a       200     0    10     1    20
 -7.9807162627411152E-02 a       201     0    11     1     1
  4.9625049811920852E-01 a       202     0    11     1     2
  7.2964364936367354E-01 a       203     0    11     1     3
  2.3986957436474074E-01 a       204     0    11     1     4
  2.4932714505375614E-01 a       205     0    11     1     5
  2.1015909458850013E-02 a       206     0    11     1     6
 -3.0667915359214948E-01 a       207     0    11     1     7
 -2.5670874745872824E-01 a       208     0    11     1     8
  8.5057145676041987E-02 a       209     0    11     1     9
  1.2392039608089983E-01 a       210     0    11     1    10
 -4.8791599472965991E-02 a       211     0    11     1    11
 -5.0648207268760737E-01 a       212     0    11     1    12
  3.3453255148151663E-03 a       213     0    11     1    13
  5.4701710299897233E-01 a       214     0    11     1    14
  5.9718222740778822E-02 a       215     0    11     1    15
  2.5853781494385952E-02 a       216     0    11     1    16
  1.6739300539983085E-01 a       217     0    11     1    17
 -2.2740378882386816E-01 a       218     0    11     1    18
  9.7571811724843679E-02 a       219     0    11     1    19
 -5.9548492239955386E-01 a       220     0    11     1    20
  6.1502428743036741E-01 a       221     0    12     1     1
  6.3721982704566735E-02 a       222     0    12     1     2
  4.4413009953193494E-01 a       223     0    12     1     3
  6.8667617281176332E-02 a       224     0    12     1     4
 -2.5369466568701843E-01 a       225     0    12     1     5
 -2.6078437277137900E-01 a       226     0    12     1     6
  4.7555360347662118E-01 a       227     0    12     1     7
  5.4996702780923327E-02 a       228     0    12     1     8
  4.6341704040027165E-01 a       229     0    12     1     9
  1.2736176152219816E-01 a       230     0    12     1    10
 -6.2821594909913445E-02 a       231     0    12     1    11
  9.5123409476538745E-02 a       232     0    12     1    12
 -3.0020029632853151E-01 a       233     0    12     1    13
 -1.7832285392836850E-01 a       234     0    12     1    14
 -2.8282864384700599E-02 a       235     0    12     1    15
  1.6977357952486563E-01 a       236     0    12     1    16
  1.8034149850735881E-01 a       237     0    12     1    17
 -2.6503590764044899E-01 a       238     0    12     1    18
  7.7440219215347827E-01 a       239     0    12     1    19
 -8.8747498410079825E-02 a       240     0    12     1    20
  2.6657257269474965E-01 a       241     0    13     1     1
  2.2783475998245339E-01 a       242     0    13     1     2
 -2.8124049157693431E-01 a       243     0    13     1     3
 -2.2982897333472124E-01 a       244     0    13     1     4
 -5.9108335945455469E-02 a       245     0    13     1     5
 -1.3574220834085365E-01 a       246     0    13     1     6
 -1.4261139349594115E-01 a       247     0    13     1     7
  2.4293709416194723E-01 a       248     0    13     1     8
  3.7650783788372272E-01 a       249     0    13     1     9
 -5.2889968219995066E-02 a       250     0    13     1    10
 -2.3726529839693002E-02 a       251     0    13     1    11
 -1.5768649394297424E-01 a       252     0    13     1    12
 -4.7048947033273503E-02 a       253     0    13     1    13
 -2.0043374551710531E-02 a       254     0    13     1    14
 -3.8380901989775534E-02 a       255     0    13     1    15
 -1.8369057565929200E-01 a       256     0    13     1    16
 -1.6944502952814761E-01 a       257     0    13     1    17
 -2.0694723752727176E-01 a       258     0    13     1    18
  4.2990400396879919E-01 a       259     0    13     1    19
  2.3062844725572873E-01 a       260     0    13     1    20
  6.4229928063163699E-01 a       261     0    14     1     1
 -2.5456776436768347E-01 a       262     0    14     1     2
 -7.6980745929360137E-03 a       263     0    14     1     3
 -3.7507144582435514E-01 a       264     0    14     1     4
 -1.7154195326598884E-01 a       265     0    14     1     5
  1.2300287203981085E-01 a       266     0    14     1     6
 -7.8843922605671204E-02 a       267     0    14     1     7
  1.8329949889046002E-01 a       268     0    14     1     8
  6.5953177051127063E-02 a       269     0    14     1     9
 -3.7741165837972024E-01 a       270     0    14     1    10
  6.0005692304477727E-02 a       271     0    14     1    11
  1.6733765977173683E-02 a       272     0    14     1    12
 -1.7802329598387104E-01 a       273     0    14     1    13
  1.2950323163457367E-01 a       274     0    14     1    14
  1.1732083622247921E-01 a       275     0    14     1    15
 -2.5333059759151422E-01 a       276     0    14     1    16
 -1.3535400070626813E-01 a       277     0    14     1    17
 -1.3680875193977315E-01 a       278     0    14     1    18
  8.2535321986814469E-01 a       279     0    14     1    19
 -1.6989018510262310E-01 a       280     0    14     1    20
  4.1389220348731404E-01 a       281     0    15     1     1
  4.2873617284132047E-03 a       282     0    15     1     2
  2.0287768231486733E-01 a       283     0    15     1     3
 -9.7079351780327214E-02 a       284     0    15     1     4
 -1.4419708883003693E-01 a       285     0    15     1     5
 -8.1876393418212873E-02 a       286     0    15     1     6
  3.8134367568115768E-01 a       287     0    15     1     7
 -2.7542044343319294E-01 a       288     0    15     1     8
  4.8418284467409929E-02 a       289     0    15     1     9
 -1.8117830773478188E-01 a       290     0    15     1    10
  1.9043924609638446E-01 a       291     0    15     1    11
  4.7100922231032949E-01 a       292     0    15     1    12
 -7.7888483034402337E-02 a       293     0    15     1    13
 -3.2453621521377102E-01 a       294     0    15     1    14
 -4.8361097263730840E-01 a       295     0    15     1    15
 -1.9451531265371014E-02 a       296     0    15     1    16
  9.0371880725108600E-02 a       297     0    15     1    17
 -2.7981705382945887E-01 a       298     0    15     1    18
  1.3856311017254126E+00 a       299     0    15     1    19
 -4.0115339171510350E-01 a       300     0    15     1    20
 -2.5509494486003814E-01 a       301     0    16     1     1
  1.7857530752755704E-01 a       302     0    16     1     2
 -4.3634711591897461E-02 a       303     0    16     1     3
 -3.4930842156665076E-01 a       304     0    16     1     4
 -2.8647145142700819E-01 a       305     0    16     1     5
  2.3823320966890341E-01 a       306     0    16     1     6
 -4.9226193837754978E-02 a       307     0    16     1     7
  3.4185909963994082E-01 a       308     0    16     1     8
  5.4576324544331900E-01 a       309     0    16     1     9
  4.0391019689785923E-01 a       310     0    16     1    10
  3.4747655302655900E-01 a       311     0    16     1    11
  2.9484775073337777E-01 a       312     0    16     1    12
  5.3440591770760708E-02 a       313     0    16     1    13
  8.4661764688690827E-02 a       314     0    16     1    14
  3.8488374624292832E-02 a       315     0    16     1    15
 -1.1526827769529352E-01 a       316     0    16     1    16
  1.6334762850860862E-01 a       317     0    16     1    17
  8.1110302092842174E-02 a       318     0    16     1    18
  3.8700060019968779E-01 a       319     0    16     1    19
  1.3441065175661407E-01 a       320     0    16     1    20
 -1.1251000348450270E-01 a       321     0    17     1     1
 -1.0978412546721295E-01 a       322     0    17     1     2
 -1.3492975521963751E-02 a       323     0    17     1     3
  1.5053133065459412E-01 a       324     0    17     1     4
 -1.0311058124927603E-02 a       325     0    17     1     5
  1.6642057375161823E-01 a       326     0    17     1     6
  1.9269600482905977E-01 a       327     0    17     1     7
 -1.8293101768221412E-01 a       328     0    17     1     8
 -8.5379612129377946E-02 a       329     0    17     1     9
  1.3219204337318935E-01 a       330     0    17     1    10
 -1.2959914636390452E-01 a       331     0    17     1    11
 -5.1501262158464393E-02 a       332     0    17     1    12
  1.0975243602467208E-01 a       333     0    17     1    13
 -1.2997582030109350E-01 a       334     0    17     1    14
  1.1738374859731850E-01 a       335     0    17     1    15
  1.4024621359351364E-02 a       336     0    17     1    16
  4.9981845952992127E-02 a       337     0    17     1    17
  2.0762467121571732E-01 a       338     0    17     1    18
  4.8164188479895544E-02 a       339     0    17     1    19
 -3.9429465724157153E-01 a       340     0    17     1    20
 -4.6959494517232819E-01 a       341     0    18     1     1
 -2.5368474187710199E-01 a       342     0    18     1     2
 -2.1061491935890120E-01 a       343     0    18     1     3
  1.2088988709981735E-01 a       344     0    18     1     4
 -2.6243468688001281E-01 a       345     0    18     1     5
  2.2503926098906163E-01 a       346     0    18     1     6
  1.9471793624268502E-01 a       347     0    18     1     7
  3.1731746025194502E-01 a       348     0    18     1     8
  3.4901906968269886E-01 a       349     0    18     1     9
  3.2804990179588843E-02 a       350     0    18     1    10
 -7.4554171021704765E-02 a       351     0    18     1    11
 -8.6265690336399636E-02 a       352     0    18     1    12
  8.8293732830377211E-02 a       353     0    18     1    13
 -6.8821313692818487E-01 a       354     0    18     1    14
  4.1393771172170313E-01 a       355     0    18     1    15
 -6.4154454008914966E-02 a       356     0    18     1    16
  5.7818874864323799E-02 a       357     0    18     1    17
  4.4635316830544414E-01 a       358     0    18     1    18
  9.3346959584995515E-01 a       359     0    18     1    19
 -7.1455278986777684E-02 a       360     0    18     1    20
  1.6649651614096481E-01 a       361     0    19     1     1
 -1.5232499192602852E-02 a       362     0    19     1     2
 -9.9465091006771478E-02 a       363     0    19     1     3
 -8.1350964577289638E-03 a       364     0    19     1     4
 -4.5280662915298413E-02 a       365     0    19     1     5
  1.3324636305413137E-01 a       366     0    19     1     6
 -2.5984844080599268E-01 a       367     0    19     1     7
  2.5474339484970815E-01 a       368     0    19     1     8
 -6.0021713415087379E-02 a       369     0    19     1     9
 -5.7630710787638172E-02 a       370     0    19     1    10
 -1.1433348560418122E-01 a       371     0    19     1    11
  7.6670298719154484E-02 a       372     0    19     1    12
  4.0463234978968365E-02 a       373     0    19     1    13
 -3.0986175705327346E-02 a       374     0    19     1    14
  1.3708306174085821E-01 a       375     0    19     1    15
 -2.7474462004538575E-01 a       376     0    19     1    16
  6.7000667110704449E-03 a       377     0    19     1    17
 -8.7881112167712952E-02 a       378     0    19     1    18
  3.7484800114955541E-01 a       379     0    19     1    19
  3.6202476638381326E-01 a       380     0    19     1    20
  1.3894234837169486E-01 a       381     0    20     1     1
  2.8025978614946817E-01 a       382     0    20     1     2
 -4.2812871854451096E-02 a       383     0    20     1     3
  6.8074183863902071E-02 a       384     0    20     1     4
  1.5323081684486917E-01 a       385     0    20     1     5
 -4.3456574398602038E-02 a       386     0    20     1     6
 -2.4303555692872367E-01 a       387     0    20     1     7
  6.3084457779985975E-02 a       388     0    20     1     8
  4.3903716952319705E-01 a       389     0    20     1     9
  2.3266974292230286E-01 a       390     0    20     1    10
 -2.0971675410867783E-02 a       391     0    20     1    11
 -6.8346041849368239E-02 a       392     0    20     1    12
 -1.6829306976703928E-01 a       393     0    20     1    13
 -9.1951280696567023E-02 a       394     0    20     1    14
  6.3360667403987575E-02 a       395     0    20     1    15
 -4.2473804547369452E-02 a       396     0    20     1    16
 -3.3692788174760936E-02 a       397     0    20     1    17
  2.5067914107923091E-02 a       398     0    20     1    18
  7.2120866052127297E-01 a       399     0    20     1    19
 -4.7105521566911379E-01 a       400     0    20     1    20
  1.5461005530754823E-01 a       401     0    21     1     1
  1.3405475226344374E-01 a       402     0    21     1     2
 -5.8157221553912442E-01 a       403     0    21     1     3
 -1.8479201451153612E-01 a       404     0    21     1     4
  1.1933848522289830E-02 a       405     0    21     1     5
 -2.4460344398931766E-01 a       406     0    21     1     6
  2.7212845189499974E-02 a       407     0    21     1     7
 -1.9987005067824701E-01 a       408     0    21     1     8
  2.0058384594686171E-01 a       409     0    21     1     9
 -4.1847911609674832E-01 a       410     0    21     1    10
 -5.2057906200708944E-02 a       411     0    21     1    11
 -1.2606646521250228E-01 a       412     0    21     1    12
  2.8948743265676680E-01 a       413     0    21     1    13
  3.7360315256096753E-02 a       414     0    21     1    14
 -1.9107719213355800E-01 a       415     0    21     1    15
  9.3925848292088748E-02 a       416     0    21     1    16
  1.4269261643506597E-02 a       417     0    21     1    17
 -4.8928077862672192E-01 a       418     0    21     1    18
  1.0249895717440722E+00 a       419     0    21     1    19
  1.8820767363353594E-01 a       420     0    21     1    20
 -7.6778559920588109E-03 a       421     0    22     1     1
 -1.2976735078229229E-01 a       422     0    22     1     2
 -3.9799761705633385E-01 a       423     0    22     1     3
 -1.7052268692138073E-01 a       424     0    22     1     4
 -1.7450203117131116E-01 a       425     0    22     1     5
  1.2017317083996173E-01 a       426     0    22     1     6
  9.4214414505685892E-02 a       427     0    22     1     7
  5.1978486679331581E-02 a       428     0    22     1     8
  1.3296595443536333E-01 a       429     0    22     1     9
  2.6376420094132114E-01 a       430     0    22     1    10
  3.3360437859130836E-02 a       431     0    22     1    11
 -6.7763001337794060E-02 a       432     0    22     1    12
  2.7148864515332305E-01 a       433     0    22     1    13
  1.3581045418267745E-01 a       434     0    22     1    14
  2.4508949172740299E-01 a       435     0    22     1    15
  1.1897664172951736E-01 a       436     0    22     1    16
  4.8040574732475957E-02 a       437     0    22     1    17
  1.8748912569738052E-01 a       438     0    22     1    18
  1.0361732887817000E-01 a       439     0    22     1    19
 -3.0721296192850628E-01 a       440     0    22     1    20
  2.6854727840090232E-02 a       441     0    23     1     1
  5.8657175418382015E-02 a       442     0    23     1     2
 -1.4011039085125487E-01 a       443     0    23     1     3
 -6.4759975494057653E-01 a       444     0    23     1     4
  6.2417274637718741E-02 a       445     0    23     1     5
  3.0769969396481628E-01 a       446     0    23     1     6
 -5.1997873346307670E-02 a       447     0    23     1     7
  5.7235549913154271E-02 a       448     0    23     1     8
 -3.4459453206383724E-02 a       449     0    23     1     9
 -4.1365685000827496E-01 a       450     0    23     1    10
 -1.3176058529622586E-01 a       451     0    23     1    11
  9.8574872221278403E-03 a       452     0    23     1    12
 -1.5980609092793444E-01 a       453     0    23     1    13
  2.5511564261069841E-01 a       454     0    23     1    14
 -9.3129158062828232E-02 a       455     0    23     1    15
 -3.1117272931216783E-01 a       456     0    23     1    16
 -5.2725975633985796E-02 a       457     0    23     1    17
 -2.1604602456476604E-02 a       458     0    23     1    18
  1.2034220306108001E-01 a       459     0    23     1    19
  3.0360595279998698E-02 a       460     0    23     1    20
  1.7131353053882892E-01 a       461     0    24     1     1
 -4.1866642783411331E-02 a       462     0    24     1     2
  1.9580829690654875E-01 a       463     0    24     1     3
  4.5936139568194770E-02 a       464     0    24     1     4
 -1.6951511960234997E-01 a       465     0    24     1     5
  2.3255198272114985E-01 a       466     0    24     1     6
  1.7742769843983691E-04 a       467     0    24     1     7
  2.0939348064033386E-01 a       468     0    24     1     8
  1.1270391905767792E-01 a       469     0    24     1     9
 -1.0277003557448612E-01 a       470     0    24     1    10
 -6.9670172180077037E-03 a       471     0    24     1    11
 -5.7308264746576576E-02 a       472     0    24     1    12
  1.0847835288931916E-01 a       473     0    24     1    13
 -9.2138383592577006E-02 a       474     0    24     1    14
 -7.1009630672075608E-02 a       475     0    24     1    15
 -4.2350198926168044E-02 a       476     0    24     1    16
  4.1836935191638967E-02 a       477     0    24     1    17
  8.3589725334724863E-02 a       478     0    24     1    18
  1.2129656908592763E-02 a       479     0    24     1    19
 -1.8487132604133774E-01 a       480     0    24     1    20
 -8.8391956798592825E-02 a       481     0    25     1     1
  3.9391638449779366E-02 a       482     0    25     1     2
  1.7132473036965645E-01 a       483     0    25     1     3
 -4.7321055083482276E-03 a       484     0    25     1     4
 -4.7761518719353156E-02 a       485     0    25     1     5
 -7.0839380206794644E-02 a       486     0    25     1     6
 -4.3688491387493665E-02 a       487     0    25     1     7
  1.3995702300415844E-01 a       488     0    25     1     8
  5.9144189635225927E-02 a       489     0    25     1     9
 -1.2146240673853757E-01 a       490     0    25     1    10
  7.8767476865589089E-02 a       491     0    25     1    11
  9.9647119677263182E-02 a       492     0    25     1    12
 -2.5907717188940144E-01 a       493     0    25     1    13
  2.1635157879591085E-03 a       494     0    25     1    14
 -9.3945963693948017E-02 a       495     0    25     1    15
 -1.5532866954168342E-01 a       496     0    25     1    16
 -3.8048906564116892E-02 a       497     0    25     1    17
 -1.6773662058911815E-01 a       498     0    25     1    18
  2.2371571237604757E-01 a       499     0    25     1    19
  3.3336663451942028E-01 a       500     0    25     1    20
 -1.6228516759966435E-01 a       501     0    26     1     1
  2.1064006249492027E-02 a       502     0    26     1     2
 -6.5671386630704078E-03 a       503     0    26     1     3
  3.9563211679737220E-01 a       504     0    26     1     4
  1.0697892637561465E-01 a       505     0    26     1     5
 -2.6527424557380369E-01 a       506     0    26     1     6
  1.8947726876621432E-01 a       507     0    26     1     7
 -2.2254345641109249E-01 a       508     0    26     1     8
  2.4051562853218184E-01 a       509     0    26     1     9
  3.0642923037071462E-01 a       510     0    26     1    10
  8.3586059946109514E-02 a       511     0    26     1    11
 -7.6289373373410463E-02 a       512     0    26     1    12
 -1.1662844947803802E-01 a       513     0    26     1    13
 -4.4930966097038783E-01 a       514     0    26     1    14
  8.4863377662173972E-02 a       515     0    26     1    15
  2.9930031644722899E-01 a       516     0    26     1    16
  4.7744238758268085E-03 a       517     0    26     1    17
  9.6228697617809528E-02 a       518     0    26     1    18
  2.3854480583989573E-01 a       519     0    26     1    19
 -1.9382325526511565E-01 a       520     0    26     1    20
 -1.8049669405544682E-02 a       521     0    27     1     1
 -1.2819714813826436E-01 a       522     0    27     1     2
 -5.0863588507904878E-01 a       523     0    27     1     3
 -1.6139848192912074E-01 a       524     0    27     1     4
 -4.6131850031728934E-02 a       525     0    27     1     5
 -5.3998406151498597E-02 a       526     0    27     1     6
  4.2086632848771309E-02 a       527     0    27     1     7
 -4.3464380811405613E-02 a       528     0    27     1     8
  2.8517410043806746E-02 a       529     0    27     1     9
  1.1102231832153713E-01 a       530     0    27     1    10
  5.0188423998326973E-03 a       531     0    27     1    11
 -2.2507996270218985E-02 a       532     0    27     1    12
  1.5769797986660308E-01 a       533     0    27     1    13
  1.1986566136379476E-01 a       534     0    27     1    14
  1.9696699492898503E-01 a       535     0    27     1    15
 -1.3228669475112547E-02 a       536     0    27     1    16
 -1.7782883260744665E-02 a       537     0    27     1    17
 -1.0992618247835312E-01 a       538     0    27     1    18
  3.2594381655890420E-01 a       539     0    27     1    19
  1.0181783421382373E-01 a       540     0    27     1    20
  4.3572887955972459E-02 a       541     0    28     1     1
 -5.3444339767902763E-02 a       542     0    28     1     2
 -3.7246975397122306E-01 a       543     0    28     1     3
 -1.2613935109684743E-01 a       544     0    28     1     4
 -4.5321811649754594E-02 a       545     0    28     1     5
 -9.1563950213824300E-03 a       546     0    28     1     6
  1.2140981355255975E-01 a       547     0    28     1     7
 -1.4422918432311238E-01 a       548     0    28     1     8
  1.6736519799016869E-01 a       549     0    28     1     9
 -2.8454280456508857E-02 a       550     0    28     1    10
 -1.0091996391644267E-01 a       551     0    28     1    11
 -1.8244311224095669E-01 a       552     0    28     1    12
  3.1490743554413397E-01 a       553     0    28     1    13
 -4.1251776892787632E-02 a       554     0    28     1    14
 -1.1583683786648697E-02 a       555     0    28     1    15
  7.1026025643383464E-02 a       556     0    28     1    16
 -3.0002161546450030E-02 a       557     0    28     1    17
 -5.6905670045349493E-02 a       558     0    28     1    18
  4.0391063297746910E-01 a       559     0    28     1    19
 -1.5140940126665298E-01 a       560     0    28     1    20
  7.6056954899663520E-02 a       561     0    29     1     1
  1.7055713201524608E-01 a       562     0    29     1     2
  5.3810190496980694E-02 a       563     0    29     1     3
 -1.3934656198255635E-01 a       564     0    29     1     4
  9.0878169542073228E-02 a       565     0    29     1     5
  1.7831722731548288E-01 a       566     0    29     1     6
 -2.5223152420196165E-01 a       567     0    29     1     7
  1.9777007191015616E-01 a       568     0    29     1     8
 -1.5934234569892871E-02 a       569     0    29     1     9
  3.0505159684254258E-02 a       570     0    29     1    10
 -5.6628714990506826E-03 a       571     0    29     1    11
  1.8558816762295627E-01 a       572     0    29     1    12
 -1.1251322277847360E-01 a       573     0    29     1    13
  1.0873707348551188E-01 a       574     0    29     1    14
 -2.9625690290662570E-02 a       575     0    29     1    15
 -1.3443457883771748E-01 a       576     0    29     1    16
  3.8776744560154328E-02 a       577     0    29     1    17
  1.7832568808760222E-02 a       578     0    29     1    18
  3.3365053717206598E-02 a       579     0    29     1    19
  1.0649411733528225E-01 a       580     0    29     1    20
  1.2673388573650411E-02 a       581     0    30     1     1
  1.1513830490389945E-01 a       582     0    30     1     2
  1.2369449727896052E-01 a       583     0    30     1     3
 -2.5825996093450498E-02 a       584     0    30     1     4
 -9.4125005882337437E-02 a       585     0    30     1     5
  5.9987302040192161E-02 a       586     0    30     1     6
 -1.1020951873040440E-01 a       587     0    30     1     7
  2.3264898962766559E-01 a       588     0    30     1     8
  1.9736966680653406E-01 a       589     0    30     1     9
  1.3214257904455766E-02 a       590     0    30     1    10
 -2.2857315651845959E-02 a       591     0    30     1    11
  1.2053319458424129E-01 a       592     0    30     1    12
 -3.4758924158716474E-02 a       593     0    30     1    13
  8.4466479181340620E-02 a       594     0    30     1    14
 -1.4391461838362571E-01 a       595     0    30     1    15
 -1.6490687134192489E-01 a       596     0    30     1    16
  5.9732784395932371E-03 a       597     0    30     1    17
 -1.9797343709080126E-02 a       598     0    30     1    18
  1.8124446681597781E-02 a       599     0    30     1    19
  2.4530992123331838E-01 a       600     0    30     1    20
 -3.9841681046970188E-02 a       601     0    31     1     1
 -1.3422761456960097E-01 a       602     0    31     1     2
 -2.1439949373943206E-02 a       603     0    31     1     3
 -3.6320373233770453E-01 a       604     0    31     1     4
 -1.0420417895976186E-01 a       605     0    31     1     5
  1.0966550547643675E-01 a       606     0    31     1     6
  5.0870004395906871E-03 a       607     0    31     1     7
  1.8773844538483725E-01 a       608     0    31     1     8
 -2.2889197001318279E-01 a       609     0    31     1     9
  1.7001801651409240E-01 a       610     0    31     1    10
  1.1376629990471075E-01 a       611     0    31     1    11
  1.3203974564679652E-01 a       612     0    31     1    12
 -6.1599125632780867E-02 a       613     0    31     1    13
  2.7263716048903497E-01 a       614     0    31     1    14
  8.4687457400306240E-02 a       615     0    31     1    15
 -3.8922335831917357E-02 a       616     0    31     1    16
  8.6772815970008202E-02 a       617     0    31     1    17
  1.5956301977770096E-01 a       618     0    31     1    18
  2.0564432235289598E-01 a       619     0    31     1    19
  3.7560519982688126E-02 a       620     0    31     1    20
  2.5380870727940646E-01 a       621     0    32     1     1
 -2.9129812830481866E-01 a       622     0    32     1     2
 -6.1040023652358644E-01 a       623     0    32     1     3
 -3.7207534228799327E-01 a       624     0    32     1     4
  6.8581274327951053E-02 a       625     0    32     1     5
  1.6161612350627144E-01 a       626     0    32     1     6
  2.3563814920536866E-01 a       627     0    32     1     7
 -2.1944263137460676E-01 a       628     0    32     1     8
  1.3698536413066456E-01 a       629     0    32     1     9
 -2.5970016056216922E-02 a       630     0    32     1    10
 -2.3272169830027842E-01 a       631     0    32     1    11
 -1.5356457119567449E-01 a       632     0    32     1    12
 -3.6832348901799550E-01 a       633     0    32     1    13
 -2.3517739374862343E-01 a       634     0    32     1    14
  3.4948382471908279E-01 a       635     0    32     1    15
  4.7936884747894842E-01 a       636     0    32     1    16
  1.5479807784744798E-01 a       637     0    32     1    17
  1.9165239800649339E-01 a       638     0    32     1    18
  6.3233172217349243E-01 a       639     0    32     1    19
  1.4139764444037423E-01 a       640     0    32     1    20
 -2.7239222305222882E-01 a       641     0    33     1     1
 -3.1003462049860459E-02 a       642     0    33     1     2
 -2.4793669427539997E-01 a       643     0    33     1     3
  1.4034240354271477E-01 a       644     0    33     1     4
 -4.2834586534908389E-02 a       645     0    33     1     5
  1.9127233810367981E-02 a       646     0    33     1     6
  2.7885033994713617E-02 a       647     0    33     1     7
 -7.7215358471892773E-02 a       648     0    33     1     8
  2.3553830291154867E-01 a       649     0    33     1     9
 -1.0995563230893661E-01 a       650     0    33     1    10
 -3.2148190030221444E-02 a       651     0    33     1    11
 -6.9721042113224344E-02 a       652     0    33     1    12
  1.1948678229638127E-01 a       653     0    33     1    13
  1.3373238701446197E-01 a       654     0    33     1    14
 -7.3965846499482998E-02 a       655     0    33     1    15
 -1.4403669377873948E-01 a       656     0    33     1    16
  8.4163365986495819E-02 a       657     0    33     1    17
 -2.1870211922369551E-01 a       658     0    33     1    18
 -4.7501087701268907E-01 a       659     0    33     1    19
 -3.3049346003819613E-01 a       660     0    33     1    20
 -4.8910590069143567E-01 a       661     0    34     1     1
 -4.9981742939367685E-01 a       662     0    34     1     2
  1.7034969460851218E-01 a       663     0    34     1     3
 -2.8743643828498696E-02 a       664     0    34     1     4
 -1.4810345992819804E-01 a       665     0    34     1     5
 -7.1384439122818932E-01 a       666     0    34     1     6
 -4.0346504339250627E-01 a       667     0    34     1     7
  5.6042170164690497E-01 a       668     0    34     1     8
  2.6722636741401651E-01 a       669     0    34     1     9
  6.6855383827592840E-01 a       670     0    34     1    10
 -5.8883841419770426E-02 a       671     0    34     1    11
  4.4483075187215992E-01 a       672     0    34     1    12
  1.3862778039245824E-01 a       673     0    34     1    13
  3.1576118562660738E-01 a       674     0    34     1    14
  1.0468486587468287E-01 a       675     0    34     1    15
  2.7799359042684690E-01 a       676     0    34     1    16
  8.8044839848594580E-01 a       677     0    34     1    17
 -4.0739241117383730E-02 a       678     0    34     1    18
  4.0626891176805513E-01 a       679     0    34     1    19
  9.2232466092446036E-02 a       680     0    34     1    20
 -6.6510622705850475E-01 a       681     0    35     1     1
  6.3410743478899378E-01 a       682     0    35     1     2
 -1.0366058397868323E+00 a       683     0    35     1     3
 -2.4463602455560304E-01 a       684     0    35     1     4
  2.4639401559211291E-01 a       685     0    35     1     5
  2.4658765904429697E-01 a       686     0    35     1     6
 -4.1630496433611119E-01 a       687     0    35     1     7
  2.0729873797818529E-01 a       688     0    35     1     8
 -2.1807449609379828E-01 a       689     0    35     1     9
 -8.3268225234637749E-01 a       690     0    35     1    10
 -2.2098753531188745E-01 a       691     0    35     1    11
 -6.8014036023294588E-01 a       692     0    35     1    12
 -1.7706938971044314E-01 a       693     0    35     1    13
 -1.1473653712744152E-01 a       694     0    35     1    14
  4.8583971920946878E-01 a       695     0    35     1    15
  6.4892810836625492E-01 a       696     0    35     1    16
  6.1176762703445006E-02 a       697     0    35     1    17
  8.2688283406387686E-01 a       698     0    35     1    18
 -5.1726017898220533E-01 a       699     0    35     1    19
  4.4819837690566133E-01 a       700     0    35     1    20
  6.0446950052648529E-01 a       701     0    36     1     1
  8.4718900582409307E-01 a       702     0    36     1     2
 -1.4500660297740657E+00 a       703     0    36     1     3
 -2.4387357052293490E-01 a       704     0    36     1     4
 -4.7223506239461233E-01 a       705     0    36     1     5
  1.3805454917022114E-01 a       706     0    36     1     6
 -1.7938513170745307E-01 a       707     0    36     1     7
  4.7711469552109859E-01 a       708     0    36     1     8
 -4.8995543806417008E-01 a       709     0    36     1     9
 -6.2697334679358258E-02 a       710     0    36     1    10
  2.3530951623229127E-01 a       711     0    36     1    11
 -5.6365275844761024E-02 a       712     0    36     1    12
  3.7841066490032133E-02 a       713     0    36     1    13
 -1.0531073751938233E-01 a       714     0    36     1    14
  2.8326564551867123E-01 a       715     0    36     1    15
 -3.3397856122884545E-01 a       716     0    36     1    16
 -1.2300977179406923E-01 a       717     0    36     1    17
  1.6863875489742883E-01 a       718     0    36     1    18
 -6.3728128296607978E-01 a       719     0    36     1    19
  1.9553539071616968E-01 a       720     0    36     1    20
  9.2741081446341671E-03 a       721     0    37     1     1
  3.1500683986431460E-04 a       722     0    37     1     2
  3.3657134836110397E-01 a       723     0    37     1     3
  4.1639990789621489E-01 a       724     0    37     1     4
  7.1188597770131007E-02 a       725     0    37     1     5
 -2.6344240323653045E-01 a       726     0    37     1     6
 -9.9021012852243045E-02 a       727     0    37     1     7
 -2.5465896803002958E-01 a       728     0    37     1     8
 -1.1284948565900812E-02 a       729     0    37     1     9
  7.6816268323515083E-02 a       730     0    37     1    10
  1.3646906618140794E-02 a       731     0    37     1    11
  2.5109113428333468E-01 a       732     0    37     1    12
 -3.3181298121486201E-02 a       733     0    37     1    13
  8.3282240893081130E-02 a       734     0    37     1    14
  3.8415698240304602E-03 a       735     0    37     1    15
 -1.1959784173366442E-01 a       736     0    37     1    16
 -1.1632921261968536E-01 a       737     0    37     1    17
  1.5931635647727074E-03 a       738     0    37     1    18
 -3.1953355130557365E-01 a       739     0    37     1    19
  1.5783707298509103E-01 a       740     0    37     1    20
  2.0145488291571637E-01 a       741     0    38     1     1
 -1.4874626849788744E-01 a       742     0    38     1     2
 -3.6982804472020270E-01 a       743     0    38     1     3
 -1.5339588201918919E-01 a       744     0    38     1     4
  5.8180031991342740E-01 a       745     0    38     1     5
 -8.3130217816960505E-02 a       746     0    38     1     6
 -3.9005241662027496E-01 a       747     0    38     1     7
  1.9731390126725787E-01 a       748     0    38     1     8
 -6.3953756705264719E-01 a       749     0    38     1     9
  3.0486964763954537E-02 a       750     0    38     1    10
 -3.5879899756551575E-01 a       751     0    38     1    11
  1.7201992260082322E-01 a       752     0    38     1    12
 -5.9601555261408778E-01 a       753     0    38     1    13
 -3.3738129706977135E-02 a       754     0    38     1    14
  5.1617192691815583E-01 a       755     0    38     1    15
  1.8896894912531867E-01 a       756     0    38     1    16
  8.1136380794492730E-02 a       757     0    38     1    17
 -4.7362235054068935E-01 a       758     0    38     1    18
 -8.6438932117199677E-02 a       759     0    38     1    19
  1.3710001397072435E-01 a       760     0    38     1    20
  2.0832249859732802E-01 a       761     0    39     1     1
  1.5574238088756145E-01 a       762     0    39     1     2
  1.4467832398492939E-01 a       763     0    39     1     3
  1.2351045736402896E-01 a       764     0    39     1     4
  2.1470447190697778E-01 a       765     0    39     1     5
  4.8000293082418322E-02 a       766     0    39     1     6
 -3.9496937521060774E-02 a       767     0    39     1     7
  4.0319683804531874E-02 a       768     0    39     1     8
 -2.5570874382181485E-01 a       769     0    39     1     9
 -3.7460944202470148E-01 a       770     0    39     1    10
  1.1586202500965979E-01 a       771     0    39     1    11
 -2.7861044098420529E-01 a       772     0    39     1    12
 -1.6000822732789446E-01 a       773     0    39     1    13
 -1.5294832823858953E-01 a       774     0    39     1    14
 -1.9925988129983527E-01 a       775     0    39     1    15
 -3.2753407203059665E-02 a       776     0    39     1    16
 -3.7322044485332762E-01 a       777     0    39     1    17
  4.5446240853928871E-02 a       778     0    39     1    18
 -3.3567998207735805E-01 a       779     0    39     1    19
 -2.2327177397054351E-01 a       780     0    39     1    20
  2.5762992379587291E-01 a       781     0    40     1     1
  4.6397042560230167E-01 a       782     0    40     1     2
 -1.9549576542851482E-01 a       783     0    40     1     3
  1.7895830487147438E-01 a       784     0    40     1     4
 -4.0405246745644674E-01 a       785     0    40     1     5
  4.5819565539396234E-01 a       786     0    40     1     6
  4.2902372681385381E-01 a       787     0    40     1     7
 -2.9256224404905880E-02 a       788     0    40     1     8
  8.9152412728867558E-01 a       789     0    40     1     9
 -2.9598906209045484E-01 a       790     0    40     1    10
  1.3345044848719018E-01 a       791     0    40     1    11
 -5.2703524013834990E-01 a       792     0    40     1    12
  4.2567168806685529E-01 a       793     0    40     1    13
  2.0577661655956075E-02 a       794     0    40     1    14
 -9.1538001760520271E-01 a       795     0    40     1    15
 -4.6365117316480148E-01 a       796     0    40     1    16
 -7.5528388134328395E-01 a       797     0    40     1    17
  8.3554293281033043E-01 a       798     0    40     1    18
 -7.7325858497508015E-01 a       799     0    40     1    19
  2.3769854404407886E-01 a       800     0    40     1    20
 -9.2639516960771939E-01 a       801     0    41     1     1
 -9.2093275822337547E-02 a       802     0    41     1     2
  6.2445138642518205E-01 a       803     0    41     1     3
 -2.4158407665681325E-01 a       804     0    41     1     4
  1.8593536974626164E+00 a       805     0    41     1     5
  3.0817860309104855E-02 a       806     0    41     1     6
 -4.8852147886303576E-01 a       807     0    41     1     7
 -3.8288600882604962E-01 a       808     0    41     1     8
 -1.5860448456026457E-01 a       809     0    41     1     9
  4.5653492170417703E-01 a       810     0    41     1    10
 -1.6240191860726327E-01 a       811     0    41     1    11
  2.9607410558300495E-01 a       812     0    41     1    12
 -1.1975744467683538E+00 a       813     0    41     1    13
 -1.4585933134614232E-01 a       814     0    41     1    14
  1.3427034876609090E-01 a       815     0    41     1    15
 -1.4591464840508339E-01 a       816     0    41     1    16
 -2.1675746400360288E-01 a       817     0    41     1    17
 -1.5244607622077317E+00 a       818     0    41     1    18
  1.3759105178887152E-01 a       819     0    41     1    19
 -8.2493701010654885E-01 a       820     0    41     1    20
 -1.3040064414461316E-01 a       821     0    42     1     1
 -1.4142529340882557E+00 a       822     0    42     1     2
  1.2844373269050411E+00 a       823     0    42     1     3
  5.0847054410482739E-01 a       824     0    42     1     4
  6.5974738210269157E-01 a       825     0    42     1     5
  2.4145527769200991E-02 a       826     0    42     1     6
 -7.4754442059379089E-02 a       827     0    42     1     7
 -4.7171762888778018E-01 a       828     0    42     1     8
  8.6157824790678494E-01 a       829     0    42     1     9
  3.7379454089216940E-01 a       830     0    42     1    10
 -1.4168460607808459E-01 a       831     0    42     1    11
  3.3270235703819956E-02 a       832     0    42     1    12
  8.5053821386880724E-02 a       833     0    42     1    13
  2.6226839111384226E-01 a       834     0    42     1    14
 -3.9905786425950052E-02 a       835     0    42     1    15
 -1.1842088765114483E-02 a       836     0    42     1    16
  1.9694147340384288E-01 a       837     0    42     1    17
  8.9394234281152354E-02 a       838     0    42     1    18
 -3.3708147999613958E-01 a       839     0    42     1    19
 -1.0327057327310619E-01 a       840     0    42     1    20
 -9.7516360142176781E-02 a       841     0    43     1     1
  9.6127786303045068E-02 a       842     0    43     1     2
  1.4968879532447385E-01 a       843     0    43     1     3
  4.7990161321975922E-02 a       844     0    43     1     4
  4.0493653198670425E-02 a       845     0    43     1     5
  5.8131050312201185E-02 a       846     0    43     1     6
 -5.4833989909124449E-02 a       847     0    43     1     7
 -1.9699575187405650E-02 a       848     0    43     1     8
 -7.2884877038007029E-02 a       849     0    43     1     9
 -8.6477765786356336E-03 a       850     0    43     1    10
 -2.2203749962736094E-02 a       851     0    43     1    11
  6.1792281278920738E-02 a       852     0    43     1    12
  2.6378764871714290E-03 a       853     0    43     1    13
 -7.8477772217581565E-02 a       854     0    43     1    14
  1.7276342792358054E-02 a       855     0    43     1    15
 -5.0632681223389875E-02 a       856     0    43     1    16
  8.7919644740194116E-03 a       857     0    43     1    17
  5.3998250094621308E-02 a       858     0    43     1    18
  2.7515723005714099E-01 a       859     0    43     1    19
 -8.5003603793205821E-03 a       860     0    43     1    20
 -2.4423793213052550E-01 a       861     0    44     1     1
 -1.7369579921128095E-01 a       862     0    44     1     2
  2.8047506769827601E-01 a       863     0    44     1     3
 -9.7923167053636739E-02 a       864     0    44     1     4
  4.5732314140494869E-02 a       865     0    44     1     5
 -4.8426562787050770E-01 a       866     0    44     1     6
  3.9901304979537294E-01 a       867     0    44     1     7
 -5.3870129244387988E-01 a       868     0    44     1     8
  1.0470803039806705E-01 a       869     0    44     1     9
  1.6421965130733851E-01 a       870     0    44     1    10
 -7.7143330754368786E-02 a       871     0    44     1    11
  2.7815967855194268E-01 a       872     0    44     1    12
  2.6443361356430523E-01 a       873     0    44     1    13
 -6.0743946368379279E-02 a       874     0    44     1    14
 -1.1077556829096834E-01 a       875     0    44     1    15
  3.5085631466303735E-01 a       876     0    44     1    16
 -1.1354848912048029E-01 a       877     0    44     1    17
 -7.1179277043655198E-01 a       878     0    44     1    18
 -5.1074623757760368E-02 a       879     0    44     1    19
  5.0389954740059972E-01 a       880     0    44     1    20
 -2.2236990493174236E-01 a       881     0    45     1     1
  1.0660882421961039E-01 a       882     0    45     1     2
 -2.1568412482118215E-01 a       883     0    45     1     3
  1.0628186193321031E-01 a       884     0    45     1     4
  5.1533852038983585E-02 a       885     0    45     1     5
 -7.1304041785610339E-02 a       886     0    45     1     6
 -1.0855977178905398E-02 a       887     0    45     1     7
  1.1674888845250152E-01 a       888     0    45     1     8
  8.3985621794490081E-02 a       889     0    45     1     9
 -1.8058032772965302E-01 a       890     0    45     1    10
  4.1483305428000120E-02 a       891     0    45     1    11
 -1.5519394203599704E-01 a       892     0    45     1    12
 -8.6521310735976575E-02 a       893     0    45     1    13
 -4.3868435051179086E-02 a       894     0    45     1    14
 -6.4640954677041979E-02 a       895     0    45     1    15
  2.0410316151009966E-02 a       896     0    45     1    16
 -8.6503122108288671E-02 a       897     0    45     1    17
 -6.9379846502615639E-02 a       898     0    45     1    18
 -3.9706535087988454E-01 a       899     0    45     1    19
 -2.7354218732857077E-01 a       900     0    45     1    20
  1.3265326354071283E-01 a       901     0    46     1     1
  1.7196135501059087E-01 a       902     0    46     1     2
 -2.3506353875389863E-01 a       903     0    46     1     3
  1.5175696140251668E-01 a       904     0    46     1     4
 -1.7611518091352685E-01 a       905     0    46     1     5
 -2.8052881127746032E-01 a       906     0    46     1     6
  4.0662108026060850E-01 a       907     0    46     1     7
 -4.9182169190269709E-01 a       908     0    46     1     8
  6.8638436532401914E-01 a       909     0    46     1     9
 -2.8279863323481191E-01 a       910     0    46     1    10
 -2.7731975529352465E-01 a       911     0    46     1    11
 -5.0517073570737828E-02 a       912     0    46     1    12
  3.0716870361925660E-02 a       913     0    46     1    13
 -2.4293623837510914E-01 a       914     0    46     1    14
 -1.1669948857666276E-01 a       915     0    46     1    15
 -2.0928076121265546E-01 a       916     0    46     1    16
 -1.6785554025124561E-01 a       917     0    46     1    17
 -3.7332777011085144E-01 a       918     0    46     1    18
 -3.1257781027719245E-01 a       919     0    46     1    19
  8.0260957873394587E-02 a       920     0    46     1    20
 -1.0870572448289013E-01 a       921     0    47     1     1
 -3.9361117939424278E-01 a       922     0    47     1     2
 -3.9247799374121976E-02 a       923     0    47     1     3
 -2.8705522678877195E-02 a       924     0    47     1     4
  2.9553754319069606E-02 a       925     0    47     1     5
  1.8909924932471486E-01 a       926     0    47     1     6
 -1.7256396744361659E-02 a       927     0    47     1     7
  5.8543795814472704E-03 a       928     0    47     1     8
 -5.2730319827889782E-01 a       929     0    47     1     9
  1.4767111514806461E-01 a       930     0    47     1    10
  1.6360379094612162E-01 a       931     0    47     1    11
 -8.0757975531574266E-02 a       932     0    47     1    12
  2.2776843815560205E-01 a       933     0    47     1    13
  3.0261845647981628E-01 a       934     0    47     1    14
  3.2588648004361798E-01 a       935     0    47     1    15
  2.8750708663546180E-02 a       936     0    47     1    16
 -1.9710446572655912E-01 a       937     0    47     1    17
  4.0235902391163175E-03 a       938     0    47     1    18
 -3.7291196608397720E-01 a       939     0    47     1    19
  5.1794379210842589E-01 a       940     0    47     1    20
 -3.0513842029548144E-01 a       941     0    48     1     1
 -1.3110985563456183E-02 a       942     0    48     1     2
  1.1752423854360837E-01 a       943     0    48     1     3
  1.5620164388697824E-01 a       944     0    48     1     4
  7.5930080426163921E-02 a       945     0    48     1     5
  1.2133416602019129E-01 a       946     0    48     1     6
 -3.0403473442709134E-01 a       947     0    48     1     7
  1.7304422175215314E-01 a       948     0    48     1     8
  4.7026942360400725E-02 a       949     0    48     1     9
 -7.8116964577010561E-02 a       950     0    48     1    10
  2.4084633842722542E-02 a       951     0    48     1    11
 -1.6160251900269279E-01 a       952     0    48     1    12
  3.3082674479402652E-01 a       953     0    48     1    13
  2.1839228748397477E-01 a       954     0    48     1    14
 -8.4493632431567156E-02 a       955     0    48     1    15
 -6.7214532179579178E-02 a       956     0    48     1    16
  6.5484455295505326E-02 a       957     0    48     1    17
  5.7002576144361411E-02 a       958     0    48     1    18
  4.4173441020484032E-02 a       959     0    48     1    19
 -2.9037314064466668E-01 a       960     0    48     1    20
  4.0835915002622883E-03 a       961     0    49     1     1
 -4.5727213201282426E-03 a       962     0    49     1     2
  3.3518243003597847E-02 a       963     0    49     1     3
  5.1630022944874350E-02 a       964     0    49     1     4
  5.9071407563480744E-03 a       965     0    49     1     5
  1.0135736722204690E-01 a       966     0    49     1     6
  1.3874900068808971E-01 a       967     0    49     1     7
  5.5493520360944668E-02 a       968     0    49     1     8
 -2.2148147671021987E-01 a       969     0    49     1     9
 -2.7230496551371813E-01 a       970     0    49     1    10
 -6.7131144357206199E-02 a       971     0    49     1    11
 -3.5872338110848706E-01 a       972     0    49     1    12
  7.0649461463867302E-02 a       973     0    49     1    13
 -1.0906187374298412E-01 a       974     0    49     1    14
 -1.6504368115039431E-01 a       975     0    49     1    15
  2.1143893262446989E-01 a       976     0    49     1    16
  5.4377675426013745E-02 a       977     0    49     1    17
  6.6247929782800891E-02 a       978     0    49     1    18
 -4.7042852101950430E-02 a       979     0    49     1    19
 -3.3161745903936413E-01 a       980     0    49     1    20
  1.6569476924749446E-01 a       981     0    50     1     1
  9.6099002323471613E-02 a       982     0    50     1     2
  2.8654550914382493E-01 a       983     0    50     1     3
 -2.2661239254080259E-01 a       984     0    50     1     4
 -2.6147287363420713E-01 a       985     0    50     1     5
 -3.5327343920562623E-02 a       986     0    50     1     6
  4.4728517612748264E-02 a       987     0    50     1     7
 -2.7004426235437773E-01 a       988     0    50     1     8
  3.6235776598313546E-01 a       989     0    50     1     9
 -1.3477752262119980E-01 a       990     0    50     1    10
  1.5300464547508802E-01 a       991     0    50     1    11
 -7.1475248785714929E-02 a       992     0    50     1    12
  4.9225100683931450E-01 a       993     0    50     1    13
  1.6850226870078697E-01 a       994     0    50     1    14
 -9.5119179305900400E-02 a       995     0    50     1    15
  9.1846829015407486E-02 a       996     0    50     1    16
  1.5303968652442010E-01 a       997     0    50     1    17
  3.6927032210239474E-01 a       998     0    50     1    18
 -9.5329858951725382E-02 a       999     0    50     1    19
 -1.4466988377861914E-01 a      1000     0    50     1    20
 -1.5875704017786374E-01 a      1001     0    51     1     1
 -7.1007982820681936E-02 a      1002     0    51     1     2
 -7.8829451480158852E-02 a      1003     0    51     1     3
  3.3655469644866119E-02 a      1004     0    51     1     4
 -1.1346733585142044E-01 a      1005     0    51     1     5
 -2.0097673176761591E-02 a      1006     0    51     1     6
 -5.0527695447218565E-02 a      1007     0    51     1     7
  9.9026311327820877E-04 a      1008     0    51     1     8
  9.0534609425226439E-02 a      1009     0    51     1     9
 -2.2875172452762771E-02 a      1010     0    51     1    10
 -1.0480454604978486E-01 a      1011     0    51     1    11
 -7.9040909970456791E-02 a      1012     0    51     1    12
  2.5932414923044567E-01 a      1013     0    51     1    13
  2.2649648151489526E-01 a      1014     0    51     1    14
  4.4046481235202814E-03 a      1015     0    51     1    15
  8.8902111260932490E-02 a      1016     0    51     1    16
  2.3317754662397169E-01 a      1017     0    51     1    17
  3.7675946838134092E-02 a      1018     0    51     1    18
 -1.8030261783941962E-01 a      1019     0    51     1    19
 -9.4187801157153583E-02 a      1020     0    51     1    20
 -2.6966291884708771E-01 a      1021     0    52     1     1
 -3.3387055312123209E-01 a      1022     0    52     1     2
 -2.0940078103584797E-01 a      1023     0    52     1     3
 -1.9387431855913734E-01 a      1024     0    52     1     4
  2.6659303433123915E-01 a      1025     0    52     1     5
 -3.7040750765405756E-01 a      1026     0    52     1     6
 -2.0306423878054286E-02 a      1027     0    52     1     7
 -1.2204908678701729E-02 a      1028     0    52     1     8
 -7.4390307346339990E-01 a      1029     0    52     1     9
 -8.8698465421980704E-02 a      1030     0    52     1    10
  1.6375503492500630E-02 a      1031     0    52     1    11
  2.6201443673079799E-01 a      1032     0    52     1    12
 -4.1890250987777689E-01 a      1033     0    52     1    13
 -2.8981125961923243E-01 a      1034     0    52     1    14
  4.5555852782608169E-01 a      1035     0    52     1    15
  3.5088770262476077E-01 a      1036     0    52     1    16
  3.6863736446892081E-01 a      1037     0    52     1    17
 -5.1989888478622848E-01 a      1038     0    52     1    18
 -1.3754861530875881E-01 a      1039     0    52     1    19
  2.7976424419659296E-01 a      1040     0    52     1    20
  9.2932088067184937E-01 a      1041     0    53     1     1
  8.0749672437546782E-01 a      1042     0    53     1     2
  2.2231700091307213E-01 a      1043     0    53     1     3
  1.8293036224310746E-01 a      1044     0    53     1     4
 -1.2514744838362579E+00 a      1045     0    53     1     5
  2.3669694278042590E-02 a      1046     0    53     1     6
 -1.8063937235132496E-01 a      1047     0    53     1     7
  3.4434986339557938E-01 a      1048     0    53     1     8
  6.2531792839914246E-01 a      1049     0    53     1     9
  7.6129611527534258E-01 a      1050     0    53     1    10
  2.6290705236703260E-01 a      1051     0    53     1    11
  2.6134227117737674E-01 a      1052     0    53     1    12
  8.4650980323231007E-01 a      1053     0    53     1    13
  8.2896520908768168E-01 a      1054     0    53     1    14
 -4.9915773364098565E-01 a      1055     0    53     1    15
 -8.6775545855845918E-02 a      1056     0    53     1    16
  4.4531803048321139E-01 a      1057     0    53     1    17
  1.2060565624120447E+00 a      1058     0    53     1    18
 -9.4319781097752783E-02 a      1059     0    53     1    19
  4.3748474413907312E-01 a      1060     0    53     1    20
  1.0934194916646273E-01 a      1061     0    54     1     1
  5.0628998633430022E-01 a      1062     0    54     1     2
 -2.9745121902111604E-02 a      1063     0    54     1     3
 -1.6243428998801529E-01 a      1064     0    54     1     4
 -4.7622880957045721E-01 a      1065     0    54     1     5
 -5.5424528638883287E-02 a      1066     0    54     1     6
 -4.5544605553034190E-02 a      1067     0    54     1     7
  3.7838873960172886E-01 a      1068     0    54     1     8
 -7.4515349472433901E-01 a      1069     0    54     1     9
 -3.5146439342354910E-02 a      1070     0    54     1    10
  5.4211766763120575E-02 a      1071     0    54     1    11
  3.0232023492842192E-01 a      1072     0    54     1    12
  1.4664639450424302E-01 a      1073     0    54     1    13
  1.6343157128162469E-01 a      1074     0    54     1    14
 -2.2476543510420616E-01 a      1075     0    54     1    15
  1.6257821366506428E-02 a      1076     0    54     1    16
 -1.8557555895020375E-01 a      1077     0    54     1    17
 -2.9187407348385225E-01 a      1078     0    54     1    18
 -8.2117234361746339E-01 a      1079     0    54     1    19
  6.9152585752570972E-01 a      1080     0    54     1    20
 -1.1313368473095549E+00 b      1081     1     1
  5.3293052848816358E-01 b      1082     1     2
 -9.4330667954780767E-01 b      1083     1     3
 -5.3399094099020628E-01 b      1084     1     4
  2.8125892469941932E-01 b      1085     1     5
 -7.5134610305699068E-01 b      1086     1     6
  2.2012833222416842E-01 b      1087     1     7
 -7.3270138626767911E-01 b      1088     1     8
  5.7482031820044277E-01 b      1089     1     9
 -1.1364322630071864E+00 b      1090     1    10
  1.4894083915805838E+00 b      1091     1    11
 -1.2328165066458412E+00 b      1092     1    12
 -2.4342066412340202E-01 b      1093     1    13
  3.3736946786620414E-01 b      1094     1    14
  5.9914941666186036E-02 b      1095     1    15
  5.7791946683820838E-01 b      1096     1    16
  5.7147005666714312E-01 b      1097     1    17
 -5.2001732166308122E-02 b      1098     1    18
  1.8036736628546977E+00 b      1099     1    19
 -1.1784567847125711E+00 b      1100     1    20
 -8.6813623040052981E-02 a      1101     1     1     2     1
 -5.8965605814866129E-01 a      1102     1     1     2     2
 -1.2487186700083099E-01 a      1103     1     1     2     3
  5.0850425884213277E-02 a      1104     1     1     2     4
  9.2730209981397316E-01 a      1105     1     1     2     5
  9.7031097946445946E-02 a      1106     1     1     2     6
  2.0548464551352022E-01 a      1107     1     1     2     7
  2.5434092352387228E-01 a      1108     1     1     2     8
 -5.6917618094626132E-01 a      1109     1     1     2     9
 -1.4663215933098919E-01 a      1110     1     1     2    10
 -2.0540257318745064E-01 a      1111     1     1     2    11
  2.6156946038728639E-02 a      1112     1     1     2    12
  1.5691513062319182E-01 a      1113     1     1     2    13
 -2.4618593772131164E-01 a      1114     1     1     2    14
 -2.9355668815014946E-01 a      1115     1     1     2    15
 -6.3435625810839735E-01 a      1116     1     1     2    16
 -7.2225485786710730E-02 a      1117     1     1     2    17
  3.9191953082391151E-01 a      1118     1     1     2    18
  4.9555756729218930E-01 a      1119     1     1     2    19
 -1.6743995469314527E-01 a      1120     1     1     2    20
 -5.7043423490937273E-01 a      1121     1     2     2     1
 -4.3860029103514420E-01 a      1122     1     2     2     2
  6.6446231272008480E-02 a      1123     1     2     2     3
 -4.8599055176884350E-02 a      1124     1     2     2     4
 -2.1572344532438453E-01 a      1125     1     2     2     5
 -8.2624761244402178E-01 a      1126     1     2     2     6
 -3.4876613263737472E-01 a      1127     1     2     2     7
 -2.6727513303627454E-01 a      1128     1     2     2     8
 -7.8626113091588823E-01 a      1129     1     2     2     9
  7.7764476548752892E-01 a      1130     1     2     2    10
 -4.5033359123258637E-01 a      1131     1     2     2    11
  1.5748036308401767E-01 a      1132     1     2     2    12
 -4.8370914194549486E-01 a      1133     1     2     2    13
 -1.8409642977499235E-01 a      1134     1     2     2    14
 -2.8328949512397517E-01 a      1135     1     2     2    15
  5.1276255604481957E-01 a      1136     1     2     2    16
  2.0049792531598429E-01 a      1137     1     2     2    17
  4.0874312710965105E-01 a      1138     1     2     2    18
  8.1857364060806936E-01 a      1139     1     2     2    19
  2.2729727441352648E-01 a      1140     1     2     2    20
  8.8638048697816973E-01 a      1141     1     3     2     1
  3.3154724052053924E-01 a      1142     1     3     2     2
 -4.5122106030783182E-01 a      1143     1     3     2     3
  7.8614828071427889E-02 a      1144     1     3     2     4
  1.5480341124624131E-01 a      1145     1     3     2     5
 -2.7176205771577616E-02 a      1146     1     3     2     6
  8.0417171133691812E-01 a      1147     1     3     2     7
  1.7171560530201798E-02 a      1148     1     3     2     8
  7.6517027346826791E-02 a      1149     1     3     2     9
 -5.9061866386280770E-01 a      1150     1     3     2    10
  1.2881785062176693E-01 a      1151     1     3     2    11
 -3.0821515254172810E-01 a      1152     1     3     2    12
  3.7534635975757441E-01 a      1153     1     3     2    13
  7.2857196488989762E-01 a      1154     1     3     2    14
  8.6552730813117029E-01 a      1155     1     3     2    15
 -1.3987516364087366E-01 a      1156     1     3     2    16
 -6.0901158781726494E-01 a      1157     1     3     2    17
 -5.8979095934757386E-01 a      1158     1     3     2    18
  4.5951798172390429E-01 a      1159     1     3     2    19
 -5.2319846312876528E-01 a      1160     1     3     2    20
 -7.1079562617323078E-01 a      1161     1     4     2     1
  2.1484618424869656E-01 a      1162     1     4     2     2
 -3.2905375114701019E-01 a      1163     1     4     2     3
 -2.2125688866935539E-01 a      1164     1     4     2     4
  3.9419141865398460E-01 a      1165     1     4     2     5
 -3.8426210355749540E-01 a      1166     1     4     2     6
 -3.0103575364087684E-02 a      1167     1     4     2     7
  7.5740248871932281E-01 a      1168     1     4     2     8
  6.8279954700761447E-01 a      1169     1     4     2     9
  8.2511141121265813E-02 a      1170     1     4     2    10
 -5.4030057044195445E-01 a      1171     1     4     2    11
 -6.5453792638673947E-01 a      1172     1     4     2    12
 -2.3874176198083794E-01 a      1173     1     4     2    13
 -4.2678468740051412E-01 a      1174     1     4     2    14
  5.4168159158157081E-01 a      1175     1     4     2    15
 -7.0750093740595699E-01 a      1176     1     4     2    16
  9.7467273798552481E-03 a      1177     1     4     2    17
 -2.8860250691677353E-01 a      1178     1     4     2    18
 -3.0579346294039983E-01 a      1179     1     4     2    19
  1.9034212881166343E-01 a      1180     1     4     2    20
  4.9484815412822164E-01 a      1181     1     5     2     1
  3.1205957999987789E-03 a      1182     1     5     2     2
  7.4136286177988531E-01 a      1183     1     5     2     3
  4.9857859799484192E-02 a      1184     1     5     2     4
  1.8174955623953895E-01 a      1185     1     5     2     5
 -4.7477191549346504E-01 a      1186     1     5     2     6
 -3.0302673808298808E-01 a      1187     1     5     2     7
 -7.6307481952374001E-01 a      1188     1     5     2     8
  5.3682904782182428E-01 a      1189     1     5     2     9
 -1.8521709019270111E-01 a      1190     1     5     2    10
  9.2399430023943252E-01 a      1191     1     5     2    11
  1.1758870777621655E+00 a      1192     1     5     2    12
  5.3677621178850644E-02 a      1193     1     5     2    13
 -4.8674998526595549E-02 a      1194     1     5     2    14
 -6.3116128474420474E-01 a      1195     1     5     2    15
 -3.3470769784815657E-01 a      1196     1     5     2    16
  3.5892164683989602E-01 a      1197     1     5     2    17
 -5.1781059043292677E-01 a      1198     1     5     2    18
  2.6237505222900437E-01 a      1199     1     5     2    19
 -4.9718831050879531E-01 a      1200     1     5     2    20
 -2.6593033023697710E-01 a      1201     1     6     2     1
  4.3099922707887733E-01 a      1202     1     6     2     2
 -5.4082088095104819E-01 a      1203     1     6     2     3
  2.1938915682446694E-01 a      1204     1     6     2     4
 -1.3173130829025967E-01 a      1205     1     6     2     5
 -1.5196036287246051E-01 a      1206     1     6     2     6
  1.6668440406207399E-01 a      1207     1     6     2     7
 -5.4519231307471872E-01 a      1208     1     6     2     8
 -2.6566977048389007E-01 a      1209     1     6     2     9
 -7.1076767637777571E-01 a      1210     1     6     2    10
  3.7367507913118897E-01 a      1211     1     6     2    11
 -5.8353598512203586E-01 a      1212     1     6     2    12
  9.6318956245801501E-02 a      1213     1     6     2    13
 -3.1093067036518607E-01 a      1214     1     6     2    14
  5.0606852492111964E-01 a      1215     1     6     2    15
  1.3062933676752391E-02 a      1216     1     6     2    16
 -9.1045832602400997E-02 a      1217     1     6     2    17
 -2.6258722712080812E-01 a      1218     1     6     2    18
 -2.0263136900395765E-01 a      1219     1     6     2    19
 -3.8937049991294087E-01 a      1220     1     6     2    20
  2.1716507698517631E-01 a      1221     1     7     2     1
 -2.2046192690244720E-01 a      1222     1     7     2     2
  5.8031617466443142E-01 a      1223     1     7     2     3
 -5.7949798578577261E-01 a      1224     1     7     2     4
  1.9922354053678049E-01 a      1225     1     7     2     5
 -4.4979528113371980E-01 a      1226     1     7     2     6
 -2.3014192391310459E-01 a      1227     1     7     2     7
  2.3946929738575493E-01 a      1228     1     7     2     8
  5.3299075979289645E-01 a      1229     1     7     2     9
  7.8821935833051493E-01 a      1230     1     7     2    10
 -9.9360811444526888E-03 a      1231     1     7     2    11
 -4.2966654979058638E-01 a      1232     1     7     2    12
  2.8302356420166536E-01 a      1233     1     7     2    13
  3.5356767487813628E-01 a      1234     1     7     2    14
  3.7446327255785655E-01 a      1235     1     7     2    15
  6.4564777913105087E-01 a      1236     1     7     2    16
  2.6025107416480681E-01 a      1237     1     7     2    17
  1.0864024853810286E-01 a      1238     1     7     2    18
  1.7340246536896385E-02 a      1239     1     7     2    19
 -2.8913896890192464E-01 a      1240     1     7     2    20
  3.4664217606315523E-01 a      1241     1     8     2     1
 -3.7837996378117439E-01 a      1242     1     8     2     2
  2.9278250419209395E-01 a      1243     1     8     2     3
 -4.9964192876066588E-01 a      1244     1     8     2     4
  2.4132039727122243E-01 a      1245     1     8     2     5
  1.3664159303728682E-01 a      1246     1     8     2     6
  5.8039058306159041E-01 a      1247     1     8     2     7
  3.4708920031916723E-02 a      1248     1     8     2     8
  5.5438479461101786E-01 a      1249     1     8     2     9
  8.2821223953772227E-01 a      1250     1     8     2    10
  7.4609158009199039E-01 a      1251     1     8     2    11
 -7.3915537152854272E-01 a      1252     1     8     2    12
  3.8411161566305113E-01 a      1253     1     8     2    13
  2.5412926939537528E-01 a      1254     1     8     2    14
  6.5876157687386216E-01 a      1255     1     8     2    15
 -7.3842600113424126E-02 a      1256     1     8     2    16
  5.6838893703650528E-01 a      1257     1     8     2    17
 -1.4094338563957284E-01 a      1258     1     8     2    18
  3.0880096932225010E-01 a      1259     1     8     2    19
  4.1999973198499546E-01 a      1260     1     8     2    20
 -7.2705019615972233E-01 a      1261     1     9     2     1
  6.0226535992443353E-01 a      1262     1     9     2     2
 -1.8827417104518807E-01 a      1263     1     9     2     3
 -1.1683157736678804E+00 a      1264     1     9     2     4
  1.5210971066261361E-01 a      1265     1     9     2     5
  8.0698725310892516E-01 a      1266     1     9     2     6
  1.4566325474328842E-01 a      1267     1     9     2     7
  2.1004250880698414E-01 a      1268     1     9     2     8
  5.6778789733045683E-02 a      1269     1     9     2     9
 -5.2178711854767779E-01 a      1270     1     9     2    10
 -9.3088964091760457E-02 a      1271     1     9     2    11
  1.7689170805507318E-01 a      1272     1     9     2    12
  3.7661641813206276E-01 a      1273     1     9     2    13
  2.9908794876560646E-01 a      1274     1     9     2    14
  1.0508698684392237E+00 a      1275     1     9     2    15
  7.9577151011899094E-01 a      1276     1     9     2    16
 -1.7318063915382048E-01 a      1277     1     9     2    17
  2.2977655316563914E-02 a      1278     1     9     2    18
 -8.1307086868275882E-02 a      1279     1     9     2    19
 -1.9450354580608986E-01 a      1280     1     9     2    20
  9.0523907141725035E-01 a      1281     1    10     2     1
  5.8366477335994960E-01 a      1282     1    10     2     2
  7.9617406602308549E-01 a      1283     1    10     2     3
  8.8964026610561908E-01 a      1284     1    10     2     4
 -3.8729414248548583E-01 a      1285     1    10     2     5
  3.1971550566481388E-01 a      1286     1    10     2     6
  8.7515078131690974E-02 a      1287     1    10     2     7
 -1.0483508227991993E+00 a      1288     1    10     2     8
  3.2993919492615531E-01 a      1289     1    10     2     9
  3.7968136062300534E-01 a      1290     1    10     2    10
  3.4698792546043869E-02 a      1291     1    10     2    11
 -2.4244040129296343E-01 a      1292     1    10     2    12
  8.1604332356871062E-02 a      1293     1    10     2    13
  4.6688794847799014E-01 a      1294     1    10     2    14
 -1.0274896237440738E-01 a      1295     1    10     2    15
 -7.3522766559673203E-01 a      1296     1    10     2    16
 -7.2124769680472978E-01 a      1297     1    10     2    17
  3.6363275064264311E-01 a      1298     1    10     2    18
 -2.8489218430566932E-01 a      1299     1    10     2    19
  5.6864759904457074E-01 a      1300     1    10     2    20
  2.2650577608239014E-01 a      1301     1    11     2     1
  1.4798051912437571E-01 a      1302     1    11     2     2
  6.7294946336489869E-01 a      1303     1    11     2     3
  8.4780771300645791E-02 a      1304     1    11     2     4
  1.0523483599868406E-01 a      1305     1    11     2     5
 -8.3504295224522151E-01 a      1306     1    11     2     6
  3.6442925182523755E-01 a      1307     1    11     2     7
 -5.6797911727994410E-01 a      1308     1    11     2     8
  3.8078243375093790E-01 a      1309     1    11     2     9
  4.2434373705239703E-01 a      1310     1    11     2    10
 -3.1395757274482644E-01 a      1311     1    11     2    11
 -6.7483437719103001E-01 a      1312     1    11     2    12
 -2.8837532425708357E-01 a      1313     1    11     2    13
  1.0484593116944232E-01 a      1314     1    11     2    14
  2.0564526097406496E-02 a      1315     1    11     2    15
  2.9065091880362637E-01 a      1316     1    11     2    16
 -2.6478385760177020E-01 a      1317     1    11     2    17
  7.3137720260969186E-01 a      1318     1    11     2    18
  6.9920058900941839E-01 a      1319     1    11     2    19
 -3.5656653616548184E-01 a      1320     1    11     2    20
 -7.9710120033882548E-01 a      1321     1    12     2     1
 -6.8996932609814166E-01 a      1322     1    12     2     2
 -2.9141484976291271E-01 a      1323     1    12     2     3
  8.0491150489493368E-01 a      1324     1    12     2     4
  2.7182677400570721E-01 a      1325     1    12     2     5
 -6.1969280253065295E-01 a      1326     1    12     2     6
 -8.5187814635417303E-02 a      1327     1    12     2     7
 -5.0890243984438477E-01 a      1328     1    12     2     8
 -7.2510453937134267E-01 a      1329     1    12     2     9
 -7.6526248055315868E-02 a      1330     1    12     2    10
  5.4073628382688352E-02 a      1331     1    12     2    11
  2.3830780475063579E-01 a      1332     1    12     2    12
  4.2521512154193534E-03 a      1333     1    12     2    13
 -2.3998360710092470E-01 a      1334     1    12     2    14
 -7.9916228514820720E-01 a      1335     1    12     2    15
  1.8974086046273733E-01 a      1336     1    12     2    16
  1.1118423224121170E-01 a      1337     1    12     2    17
 -7.0985291423934338E-01 a      1338     1    12     2    18
  2.1597798030013171E-01 a      1339     1    12     2    19
 -6.6039366602229488E-01 a      1340     1    12     2    20
 -6.3199621988365706E-01 a      1341     1    13     2     1
 -2.9247298928538734E-01 a      1342     1    13     2     2
  1.8762607388374034E-01 a      1343     1    13     2     3
 -7.6578428256496645E-01 a      1344     1    13     2     4
  6.7398413391507400E-02 a      1345     1    13     2     5
 -1.3116341621152242E-01 a      1346     1    13     2     6
  9.3648607382900662E-01 a      1347     1    13     2     7
  1.1131261564501580E+00 a      1348     1    13     2     8
  3.5296147439747677E-01 a      1349     1    13     2     9
 -1.7623218017846212E-01 a      1350     1    13     2    10
 -6.2827327161878777E-01 a      1351     1    13     2    11
  4.1777117821624334E-02 a      1352     1    13     2    12
 -2.4474081084510624E-01 a      1353     1    13     2    13
  2.9433879873533325E-01 a      1354     1    13     2    14
 -2.3602623954270882E-01 a      1355     1    13     2    15
  5.9554622883871999E-01 a      1356     1    13     2    16
  3.8824613257610391E-01 a      1357     1    13     2    17
  1.2786603687144535E-01 a      1358     1    13     2    18
  3.6066957805832001E-01 a      1359     1    13     2    19
 -3.3869390842830299E-01 a      1360     1    13     2    20
 -6.3073558914663364E-01 a      1361     1    14     2     1
 -5.2346535009961204E-01 a      1362     1    14     2     2
 -1.1343606610729944E-01 a      1363     1    14     2     3
  7.9637716302539929E-01 a      1364     1    14     2     4
  4.3773384516666064E-01 a      1365     1    14     2     5
 -8.8451465692509412E-01 a      1366     1    14     2     6
  2.5440891646749209E-01 a      1367     1    14     2     7
  4.9818096254265226E-01 a      1368     1    14     2     8
  2.3546654051547852E-01 a      1369     1    14     2     9
  4.0358688373818891E-01 a      1370     1    14     2    10
  6.2775605361671885E-02 a      1371     1    14     2    11
  3.5436312233134820E-01 a      1372     1    14     2    12
 -4.2292050932991432E-01 a      1373     1    14     2    13
 -4.0857184629806520E-01 a      1374     1    14     2    14
 -6.2256469789065350E-02 a      1375     1    14     2    15
  5.3629233527235609E-01 a      1376     1    14     2    16
 -3.1378076945921907E-01 a      1377     1    14     2    17
 -2.8170110531504022E-01 a      1378     1    14     2    18
  1.8487072242655528E-02 a      1379     1    14     2    19
  1.5647000985022086E-02 a      1380     1    14     2    20
 -7.7932593644761669E-02 a      1381     1    15     2     1
  4.7978056280496137E-03 a      1382     1    15     2     2
 -1.0748222050264351E-01 a      1383     1    15     2     3
 -3.5839849467956508E-01 a      1384     1    15     2     4
  6.8795538223067676E-01 a      1385     1    15     2     5
  1.4233454500248291E-01 a      1386     1    15     2     6
 -2.2499361133919057E-01 a      1387     1    15     2     7
 -1.7438885475991117E-01 a      1388     1    15     2     8
 -1.0780996978266447E-01 a      1389     1    15     2     9
  3.5644905662330212E-01 a      1390     1    15     2    10
 -2.3326203217060740E-01 a      1391     1    15     2    11
  4.4101353562468160E-01 a      1392     1    15     2    12
  2.0471473852081787E-01 a      1393     1    15     2    13
  6.1498224654699418E-01 a      1394     1    15     2    14
 -2.5489715574576960E-01 a      1395     1    15     2    15
 -9.2782642891153910E-01 a      1396     1    15     2    16
 -1.3647852486252357E-01 a      1397     1    15     2    17
 -2.0161502793954025E-01 a      1398     1    15     2    18
  5.3354032932536721E-01 a      1399     1    15     2    19
  1.5388279258401646E-01 a      1400     1    15     2    20
  1.6632021518661232E-02 a      1401     1    16     2     1
 -3.3416048021384248E-01 a      1402     1    16     2     2
  6.7686315802977248E-01 a      1403     1    16     2     3
 -7.8185217830734288E-02 a      1404     1    16     2     4
  3.9202621191767739E-01 a      1405     1    16     2     5
 -1.7757121564781703E-01 a      1406     1    16     2     6
  1.3617747666392385E-01 a      1407     1    16     2     7
  6.1884860092034233E-01 a      1408     1    16     2     8
 -5.0007262847037837E-01 a      1409     1    16     2     9
 -5.1716682409907642E-02 a      1410     1    16     2    10
  4.3327477138651882E-01 a      1411     1    16     2    11
  1.9288604910578319E-03 a      1412     1    16     2    12
  2.5245853519163858E-01 a      1413     1    16     2    13
  2.0996361720803025E-01 a      1414     1    16     2    14
  2.3948116374922579E-01 a      1415     1    16     2    15
  4.2575693060821163E-01 a      1416     1    16     2    16
 -2.6599141154646672E-01 a      1417     1    16     2    17
 -3.1448635801894753E-01 a      1418     1    16     2    18
 -1.4532600058454795E-01 a      1419     1    16     2    19
 -3.9277353349956512E-01 a      1420     1    16     2    20
 -4.2205162260601081E-01 a      1421     1    17     2     1
 -6.7781723703014884E-02 a      1422     1    17     2     2
  4.6933163475830114E-01 a      1423     1    17     2     3
  4.0082662205387021E-01 a      1424     1    17     2     4
 -6.0702729807811495E-01 a      1425     1    17     2     5
 -5.7830018612584944E-01 a      1426     1    17     2     6
 -9.8915720088915124E-02 a      1427     1    17     2     7
  2.8797546873605839E-01 a      1428     1    17     2     8
  5.8990393047290490E-01 a      1429     1    17     2     9
 -7.8068026711424554E-01 a      1430     1    17     2    10
  1.0700890304957411E+00 a      1431     1    17     2    11
  5.1163289219193786E-01 a      1432     1    17     2    12
  6.2858500201800871E-01 a      1433     1    17     2    13
 -2.7424183487378817E-01 a      1434     1    17     2    14
 -7.5289871115642126E-01 a      1435     1    17     2    15
  3.2594293691304760E-01 a      1436     1    17     2    16
 -1.6005098043873328E-01 a      1437     1    17     2    17
  1.4297567936460850E-01 a      1438     1    17     2    18
  2.4399357159650195E-01 a      1439     1    17     2    19
 -5.4619216836201556E-01 a      1440     1    17     2    20
 -3.1193598504809100E-01 a      1441     1    18     2     1
 -1.8433172813531798E-01 a      1442     1    18     2     2
 -3.7802924858574949E-01 a      1443     1    18     2     3
  4.0126285510830001E-01 a      1444     1    18     2     4
  6.1223019047588989E-01 a      1445     1    18     2     5
  2.3471755054696894E-01 a      1446     1    18     2     6
 -2.2735941180148220E-01 a      1447     1    18     2     7
  4.1025063347152002E-01 a      1448     1    18     2     8
 -1.4447979917721171E-01 a      1449     1    18     2     9
 -3.3471611978808474E-01 a      1450     1    18     2    10
 -7.2224760613451455E-01 a      1451     1    18     2    11
  3.9264493175756136E-02 a      1452     1    18     2    12
 -1.2821662800910466E-01 a      1453     1    18     2    13
 -1.6238860053170062E-01 a      1454     1    18     2    14
  5.8761152606716183E-01 a      1455     1    18     2    15
  1.8994905410766424E-01 a      1456     1    18     2    16
 -1.9184057929280462E-01 a      1457     1    18     2    17
  3.4359587277437165E-01 a      1458     1    18     2    18
 -4.4311993939839145E-02 a      1459     1    18     2    19
 -1.8471588941796085E-01 a      1460     1    18     2    20
  7.7383661117550939E-01 a      1461     1    19     2     1
  3.3069522239124705E-01 a      1462     1    19     2     2
 -4.9828209007762303E-01 a      1463     1    19     2     3
 -1.1751241874905769E+00 a      1464     1    19     2     4
 -6.1547508608838797E-01 a      1465     1    19     2     5
 -4.1597397898067395E-01 a      1466     1    19     2     6
  9.2365973769973309E-01 a      1467     1    19     2     7
  7.9690470132974223E-01 a      1468     1    19     2     8
 -1.0135801995750479E-01 a      1469     1    19     2     9
 -4.7923775792113704E-01 a      1470     1    19     2    10
  5.7573416950048939E-01 a      1471     1    19     2    11
  4.9027841235927400E-01 a      1472     1    19     2    12
 -4.1612141914266049E-01 a      1473     1    19     2    13
 -7.6667183119601845E-01 a      1474     1    19     2    14
 -3.0705869548913023E-01 a      1475     1    19     2    15
 -4.2917336502913828E-01 a      1476     1    19     2    16
 -2.3318433752588802E-01 a      1477     1    19     2    17
 -5.2512500130001316E-01 a      1478     1    19     2    18
  1.6166818120185439E-01 a      1479     1    19     2    19
  3.1095466678280897E-01 a      1480     1    19     2    20
 -6.7415408772038155E-01 a      1481     1    20     2     1
 -4.1006466530049535E-01 a      1482     1    20     2     2
 -9.2671205241232235E-01 a      1483     1    20     2     3
 -8.6749942074429667E-02 a      1484     1    20     2     4
  4.8910998797576738E-02 a      1485     1    20     2     5
  4.7178485472229664E-02 a      1486     1    20     2     6
 -5.0855802804057615E-01 a      1487     1    20     2     7
  6.3943697745623279E-02 a      1488     1    20     2     8
 -1.1534164172865145E-01 a      1489     1    20     2     9
 -4.5231609493884317E-01 a      1490     1    20     2    10
 -4.8396232116528015E-01 a      1491     1    20     2    11
 -1.4959635565211918E-01 a      1492     1    20     2    12
  1.7642793964732781E-01 a      1493     1    20     2    13
 -5.3276508056722760E-01 a      1494     1    20     2    14
 -3.7682162234576327E-01 a      1495     1    20     2    15
 -1.9407645098725385E-01 a      1496     1    20     2    16
 -4.7465095931708939E-01 a      1497     1    20     2    17
  2.3329300384153429E-01 a      1498     1    20     2    18
  2.2685198174435492E-01 a      1499     1    20     2    19
 -2.2987786253597823E-02 a      1500     1    20     2    20
 -4.2542808436235084E-02 b      1501     2     1
  1.2039916905651447E+00 b      1502     2     2
  5.7326792403059754E-02 b      1503     2     3
 -1.0227070561320657E+00 b      1504     2     4
 -1.4745492383065599E+00 b      1505     2     5
  1.2334075584092594E+00 b      1506     2     6
 -1.3996837575021790E+00 b      1507     2     7
  8.2917394815613055E-01 b      1508     2     8
 -9.1965042403204689E-02 b      1509     2     9
 -1.4683549159593112E+00 b      1510     2    10
  8.8291745343113182E-01 b      1511     2    11
 -4.9783883252093486E-01 b      1512     2    12
 -7.8424705433459552E-01 b      1513     2    13
  3.9494981020128372E-01 b      1514     2    14
 -8.7065721090845039E-01 b      1515     2    15
  7.4171811529344078E-01 b      1516     2    16
  1.3448800382258743E+00 b      1517     2    17
  7.5628790667436840E-01 b      1518     2    18
 -8.3159787104715810E-01 b      1519     2    19
 -9.8723650787968098E-01 b      1520     2    20
 -2.5593144839690363E-01 a      1521     2     1     3     1
 -7.7236130093434496E-01 a      1522     2     2     3     1
 -8.7188298217120208E-01 a      1523     2     3     3     1
  6.7061921894980703E-01 a      1524     2     4     3     1
  1.6249963558048228E+00 a      1525     2     5     3     1
 -2.7923542791304018E-01 a      1526     2     6     3     1
  2.0034467293498312E-01 a      1527     2     7     3     1
  5.1071428190512924E-01 a      1528     2     8     3     1
 -7.5097671088888163E-01 a      1529     2     9     3     1
 -4.1406700560635529E-01 a      1530     2    10     3     1
 -1.0924674038555784E+00 a      1531     2    11     3     1
  6.3029316256360957E-01 a      1532     2    12     3     1
  2.4260139313676937E-01 a      1533     2    13     3     1
  4.8630460285622656E-01 a      1534     2    14     3     1
  3.5540123001755530E-01 a      1535     2    15     3     1
 -1.5433966856800170E+00 a      1536     2    16     3     1
  1.1061466713038740E-01 a      1537     2    17     3     1
 -1.7206158832610365E+00 a      1538     2    18     3     1
 -7.6030497833071486E-01 a      1539     2    19     3     1
  9.5431027135303426E-01 a      1540     2    20     3     1
 -8.5905064107353668E-01 b      1541     3     1
