################################################################################
# Neural network connection values (weights and biases).
################################################################################
# Col  Name       Description
################################################################################
# 1    connection Neural network connection value.
# 2    t          Connection type (a = weight, b = bias).
# 3    index      Index enumerating weights.
# 4    l_s        Starting point layer (end point layer for biases).
# 5    n_s        Starting point neuron in starting layer (end point neuron for biases).
# 6    l_e        End point layer.
# 7    n_e        End point neuron in end layer.
################################################################################
#                      1 2         3     4     5     6     7
#             connection t     index   l_s   n_s   l_e   n_e
############################################################
  2.2226510538867389E-01 a         1     0     1     1     1
  8.7162216800944131E-02 a         2     0     1     1     2
  1.2307203525949411E+00 a         3     0     1     1     3
  4.3684588431899624E-02 a         4     0     1     1     4
 -3.7347677651849903E-02 a         5     0     1     1     5
 -1.2533225433705875E-01 a         6     0     1     1     6
  2.8722070883005912E-01 a         7     0     1     1     7
  4.2702038128687891E-02 a         8     0     1     1     8
 -4.9203608668459381E-01 a         9     0     1     1     9
  5.0692543648013233E-01 a        10     0     1     1    10
  1.9462536700450650E-01 a        11     0     1     1    11
 -3.7730516261426483E-01 a        12     0     1     1    12
 -1.3074491962402435E-01 a        13     0     1     1    13
 -3.0838732760914356E-01 a        14     0     1     1    14
  3.0918918587512895E-01 a        15     0     1     1    15
  2.3865373171146045E-01 a        16     0     1     1    16
 -1.3607269145150014E-01 a        17     0     1     1    17
 -2.2494918975399614E-02 a        18     0     1     1    18
  1.5302411846214606E-01 a        19     0     1     1    19
 -8.4516509585676018E-03 a        20     0     1     1    20
  8.3901853760047038E-02 a        21     0     2     1     1
  5.2707054102135390E-03 a        22     0     2     1     2
 -2.5182313934477829E-01 a        23     0     2     1     3
 -3.2438896203972728E-01 a        24     0     2     1     4
  8.9761402520875583E-02 a        25     0     2     1     5
 -1.3784964677585768E-01 a        26     0     2     1     6
  5.7206391730879332E-02 a        27     0     2     1     7
  3.4191143394529090E-02 a        28     0     2     1     8
 -1.6041066314570424E-01 a        29     0     2     1     9
 -2.1547365460656237E-01 a        30     0     2     1    10
  7.0913957892537260E-01 a        31     0     2     1    11
  3.0498329092096682E-03 a        32     0     2     1    12
 -4.8404443670858166E-01 a        33     0     2     1    13
  1.7668227840678141E-01 a        34     0     2     1    14
  2.7784363924831718E-01 a        35     0     2     1    15
 -3.5206742267907926E-01 a        36     0     2     1    16
  5.4092226883366967E-01 a        37     0     2     1    17
 -2.0219482997777330E-01 a        38     0     2     1    18
 -2.7097664220017331E-01 a        39     0     2     1    19
  2.7501321420423306E-02 a        40     0     2     1    20
 -8.9140609130364160E-02 a        41     0     3     1     1
  2.5674560008431968E-01 a        42     0     3     1     2
  9.1723484648243939E-02 a        43     0     3     1     3
  1.2426061306054458E-01 a        44     0     3     1     4
 -9.0760491167050303E-02 a        45     0     3     1     5
  2.1245046541711891E-02 a        46     0     3     1     6
 -1.8303419572182486E-01 a        47     0     3     1     7
  1.7239533077187730E-01 a        48     0     3     1     8
  2.4987766408095516E-03 a        49     0     3     1     9
 -2.7400271397746007E-01 a        50     0     3     1    10
  7.2000275438423439E-02 a        51     0     3     1    11
  2.3353118028962080E-01 a        52     0     3     1    12
 -3.1020874607012078E-01 a        53     0     3     1    13
 -1.5197781246771996E-01 a        54     0     3     1    14
 -2.0980177563073579E-01 a        55     0     3     1    15
  8.9744404892884641E-02 a        56     0     3     1    16
 -4.5803375006166297E-02 a        57     0     3     1    17
  2.4149823913965995E-01 a        58     0     3     1    18
  9.6951841044030998E-02 a        59     0     3     1    19
  8.4955961315424072E-02 a        60     0     3     1    20
 -2.9196818973344963E-02 a        61     0     4     1     1
 -6.1292984332286571E-01 a        62     0     4     1     2
 -1.9814920638376532E-01 a        63     0     4     1     3
 -3.9637418981349215E-01 a        64     0     4     1     4
 -2.0839103443356524E-01 a        65     0     4     1     5
  3.4206428804652467E-01 a        66     0     4     1     6
 -6.4972931884039298E-01 a        67     0     4     1     7
 -4.9588727994249776E-01 a        68     0     4     1     8
 -3.2732258829146249E-01 a        69     0     4     1     9
 -6.5719592293045070E-01 a        70     0     4     1    10
 -7.2643629355913869E-02 a        71     0     4     1    11
  2.4753998384609385E-01 a        72     0     4     1    12
  1.5040893714682038E-01 a        73     0     4     1    13
  2.9615060702926344E-01 a        74     0     4     1    14
  4.8826732039167187E-01 a        75     0     4     1    15
 -1.1431721576606931E-01 a        76     0     4     1    16
  2.4965340776175771E-01 a        77     0     4     1    17
 -4.2249423588855212E-01 a        78     0     4     1    18
  1.9134598707995157E-01 a        79     0     4     1    19
  7.6655153931297071E-01 a        80     0     4     1    20
  4.9709645086064638E-03 a        81     0     5     1     1
 -3.9001849742800992E-02 a        82     0     5     1     2
  1.5082302845879914E-01 a        83     0     5     1     3
  1.0518201835813024E+00 a        84     0     5     1     4
  6.4713454204925880E-01 a        85     0     5     1     5
  1.2384846644936724E-01 a        86     0     5     1     6
 -5.0057467776550367E-02 a        87     0     5     1     7
  3.6929332499701456E-02 a        88     0     5     1     8
  1.6064839811345329E-02 a        89     0     5     1     9
  3.9110160739237759E-01 a        90     0     5     1    10
 -4.7259610397939045E-01 a        91     0     5     1    11
 -1.6343184374062147E-01 a        92     0     5     1    12
  1.8768652388497734E-01 a        93     0     5     1    13
 -1.2191888669673120E-02 a        94     0     5     1    14
  1.4259538541765474E-01 a        95     0     5     1    15
 -2.4766518241617444E-01 a        96     0     5     1    16
 -5.7376813561050710E-01 a        97     0     5     1    17
  5.6773049488991090E-01 a        98     0     5     1    18
  4.7378402793431235E-01 a        99     0     5     1    19
 -2.6367056106408554E-01 a       100     0     5     1    20
  4.5107837814533402E-01 a       101     0     6     1     1
  1.1641170473503035E-01 a       102     0     6     1     2
 -2.0946347097573381E-01 a       103     0     6     1     3
  2.8033761115643759E-02 a       104     0     6     1     4
 -3.8271101836158805E-01 a       105     0     6     1     5
  1.0071226463186411E-01 a       106     0     6     1     6
  3.1276272804486616E-01 a       107     0     6     1     7
  4.1498058425345638E-02 a       108     0     6     1     8
 -8.5872882020028435E-02 a       109     0     6     1     9
  1.1776137910858431E-01 a       110     0     6     1    10
 -1.0585620795954923E-01 a       111     0     6     1    11
 -8.8117574960109926E-03 a       112     0     6     1    12
  2.9860426177120003E-01 a       113     0     6     1    13
  1.0995336828805774E-02 a       114     0     6     1    14
  2.7089611258113888E-01 a       115     0     6     1    15
 -1.6781493333234299E-01 a       116     0     6     1    16
 -1.3999077310597566E-01 a       117     0     6     1    17
 -7.1973099698565413E-02 a       118     0     6     1    18
 -2.1541335962843430E-01 a       119     0     6     1    19
  1.7653082029710787E-01 a       120     0     6     1    20
 -2.5553207348219342E-01 a       121     0     7     1     1
  3.4805410734648340E-01 a       122     0     7     1     2
 -1.6286435418033454E-01 a       123     0     7     1     3
 -1.6283194038888640E-01 a       124     0     7     1     4
  1.9301357207615899E-01 a       125     0     7     1     5
 -6.4235609552788203E-02 a       126     0     7     1     6
  1.3238480297056460E-01 a       127     0     7     1     7
  3.3027156226194876E-01 a       128     0     7     1     8
  4.6158592578618685E-01 a       129     0     7     1     9
  4.5819141363168481E-01 a       130     0     7     1    10
 -1.7073526432648159E-01 a       131     0     7     1    11
 -2.4034199657401989E-01 a       132     0     7     1    12
 -6.3791300208857607E-02 a       133     0     7     1    13
  4.0851585197449559E-02 a       134     0     7     1    14
 -1.0788560779471863E+00 a       135     0     7     1    15
  1.2457082647800277E-01 a       136     0     7     1    16
 -1.8704647826677973E-01 a       137     0     7     1    17
  2.7959569275266960E-01 a       138     0     7     1    18
 -2.0764083815137171E-01 a       139     0     7     1    19
 -6.9316110079793292E-01 a       140     0     7     1    20
  1.9542948963828105E-01 a       141     0     8     1     1
  1.1696105716867197E-01 a       142     0     8     1     2
  2.1656671211016554E-02 a       143     0     8     1     3
 -1.5982707183222822E-01 a       144     0     8     1     4
  1.2587918067793384E-02 a       145     0     8     1     5
 -2.1361030841030526E-01 a       146     0     8     1     6
 -1.3299196923674181E-01 a       147     0     8     1     7
  1.1839348827347729E-01 a       148     0     8     1     8
  8.8537855934473955E-02 a       149     0     8     1     9
 -3.4852194564956068E-01 a       150     0     8     1    10
  2.8297979942224566E-01 a       151     0     8     1    11
 -2.7554391298800279E-01 a       152     0     8     1    12
  2.3577978123038839E-02 a       153     0     8     1    13
  3.7782289100260102E-01 a       154     0     8     1    14
  1.9847579337227528E-01 a       155     0     8     1    15
 -1.2369879225213477E-01 a       156     0     8     1    16
  4.7071995772922609E-01 a       157     0     8     1    17
 -3.7455200169560132E-01 a       158     0     8     1    18
  3.6137688293270485E-02 a       159     0     8     1    19
 -1.7644794545545547E-01 a       160     0     8     1    20
 -2.3843438634446028E-02 a       161     0     9     1     1
 -1.8749030261505023E-01 a       162     0     9     1     2
  1.7887197114055581E-01 a       163     0     9     1     3
 -2.2302395799884578E-01 a       164     0     9     1     4
  2.2899156465231326E-02 a       165     0     9     1     5
 -2.8619325682380076E-01 a       166     0     9     1     6
 -3.6834699484227219E-02 a       167     0     9     1     7
 -2.2457049878110852E-01 a       168     0     9     1     8
 -4.1064762130879465E-02 a       169     0     9     1     9
  6.9781956617441727E-04 a       170     0     9     1    10
 -2.5430059545744666E-02 a       171     0     9     1    11
  1.9917590494032103E-01 a       172     0     9     1    12
  8.1006443409473536E-02 a       173     0     9     1    13
  1.2952236376747983E-01 a       174     0     9     1    14
 -3.1723441972770633E-01 a       175     0     9     1    15
 -6.7667608416157182E-02 a       176     0     9     1    16
  1.4798677086031503E-01 a       177     0     9     1    17
 -1.3444795789465142E-01 a       178     0     9     1    18
  1.3923651771852982E-01 a       179     0     9     1    19
 -1.8029833537154338E-01 a       180     0     9     1    20
  1.6649943004450693E-01 a       181     0    10     1     1
 -3.9967658430765218E-01 a       182     0    10     1     2
  4.0327563762751101E-01 a       183     0    10     1     3
 -2.0362420005967333E-01 a       184     0    10     1     4
 -2.2195271576165593E-01 a       185     0    10     1     5
  2.6842515737763317E-01 a       186     0    10     1     6
 -2.3906252802248673E-01 a       187     0    10     1     7
 -1.4678255112907587E-01 a       188     0    10     1     8
  1.8868998798896833E-01 a       189     0    10     1     9
  5.4961983594929681E-02 a       190     0    10     1    10
  2.2139994536702451E-01 a       191     0    10     1    11
  2.1428245525892609E-02 a       192     0    10     1    12
 -1.7204026671534739E-01 a       193     0    10     1    13
 -8.6137017198038138E-02 a       194     0    10     1    14
  4.5654656772413021E-01 a       195     0    10     1    15
  2.8142191846703174E-01 a       196     0    10     1    16
  2.7065064599274979E-01 a       197     0    10     1    17
 -4.4124324235696416E-01 a       198     0    10     1    18
  2.2827570300592795E-01 a       199     0    10     1    19
  7.1570990178441996E-01 a       200     0    10     1    20
 -8.1579178457231380E-02 a       201     0    11     1     1
 -1.0265743079481270E-01 a       202     0    11     1     2
  1.0205816944642300E-01 a       203     0    11     1     3
  2.3738333500036307E-01 a       204     0    11     1     4
  1.6650743286074113E-01 a       205     0    11     1     5
  6.4583538732352674E-02 a       206     0    11     1     6
 -7.8733288653390868E-02 a       207     0    11     1     7
 -4.2749516454452394E-02 a       208     0    11     1     8
  3.0406463269954503E-01 a       209     0    11     1     9
  4.0977575805148470E-01 a       210     0    11     1    10
 -2.8722718309931472E-01 a       211     0    11     1    11
  1.1128389357938337E-01 a       212     0    11     1    12
 -3.2295807392073178E-01 a       213     0    11     1    13
  9.0440192146392845E-02 a       214     0    11     1    14
 -1.9905370815029030E-01 a       215     0    11     1    15
 -4.1190153605214497E-02 a       216     0    11     1    16
 -4.4628081782435364E-01 a       217     0    11     1    17
  5.2153308136486898E-01 a       218     0    11     1    18
 -2.1521345156240376E-01 a       219     0    11     1    19
  6.0788519418588614E-02 a       220     0    11     1    20
 -2.3933861534927781E-01 a       221     0    12     1     1
 -7.5253132370854611E-02 a       222     0    12     1     2
  2.5896110849649284E-01 a       223     0    12     1     3
  2.0386584554414244E-01 a       224     0    12     1     4
  1.8361706804090633E-01 a       225     0    12     1     5
  3.6429026292696773E-02 a       226     0    12     1     6
  1.2113891083533986E-01 a       227     0    12     1     7
  2.6780840406290618E-01 a       228     0    12     1     8
  4.2688854297263636E-02 a       229     0    12     1     9
 -3.0868478529195147E-02 a       230     0    12     1    10
 -8.4117421982998430E-02 a       231     0    12     1    11
  2.9768152948686979E-03 a       232     0    12     1    12
  3.2077558700212960E-01 a       233     0    12     1    13
 -7.7549717517227321E-02 a       234     0    12     1    14
 -4.7247175000006914E-02 a       235     0    12     1    15
  8.4092156008359842E-02 a       236     0    12     1    16
  2.1678706606770132E-01 a       237     0    12     1    17
 -1.0776039139550454E-01 a       238     0    12     1    18
  3.0045058078457743E-01 a       239     0    12     1    19
  2.4362863173344232E-01 a       240     0    12     1    20
  5.0659092477249985E-02 a       241     0    13     1     1
 -1.2634425209621558E-01 a       242     0    13     1     2
 -2.5070839385292892E-02 a       243     0    13     1     3
 -1.4098634562951615E-01 a       244     0    13     1     4
  1.7567100383178341E-01 a       245     0    13     1     5
  5.1533875051251989E-02 a       246     0    13     1     6
  2.5501353523897638E-02 a       247     0    13     1     7
 -3.7998092703079946E-02 a       248     0    13     1     8
 -4.1711485609233817E-01 a       249     0    13     1     9
 -7.7367780169074363E-02 a       250     0    13     1    10
 -1.2880933222195537E-01 a       251     0    13     1    11
 -9.4536695409789068E-02 a       252     0    13     1    12
  1.6788602324778798E-01 a       253     0    13     1    13
  8.2320278220496798E-02 a       254     0    13     1    14
  4.2995620267730933E-02 a       255     0    13     1    15
 -4.6821343947664247E-02 a       256     0    13     1    16
  5.5550626684771114E-02 a       257     0    13     1    17
 -7.3638747700966928E-02 a       258     0    13     1    18
 -7.2894997270127701E-02 a       259     0    13     1    19
 -2.2829187772440354E-01 a       260     0    13     1    20
 -4.4779723139435269E-02 a       261     0    14     1     1
 -6.5195088399031320E-02 a       262     0    14     1     2
 -2.0076445959630460E-01 a       263     0    14     1     3
  6.4173312901603941E-02 a       264     0    14     1     4
  9.8305696598486147E-02 a       265     0    14     1     5
 -1.1740775372687204E-01 a       266     0    14     1     6
 -1.8860613281618532E-02 a       267     0    14     1     7
  1.0639584281516531E-01 a       268     0    14     1     8
 -1.8336181977186958E-01 a       269     0    14     1     9
 -9.8949166722734322E-02 a       270     0    14     1    10
  1.5813063273532860E-01 a       271     0    14     1    11
 -5.6522665771255955E-02 a       272     0    14     1    12
  1.1062038203837958E-02 a       273     0    14     1    13
  1.0565898579351272E-01 a       274     0    14     1    14
  2.6775470890013575E-01 a       275     0    14     1    15
 -1.0910655262998124E-01 a       276     0    14     1    16
  1.6041599779141735E-01 a       277     0    14     1    17
  8.5694913745692672E-02 a       278     0    14     1    18
 -7.2779549074908648E-02 a       279     0    14     1    19
 -4.9311574266530281E-02 a       280     0    14     1    20
  4.3610718373306842E-03 a       281     0    15     1     1
 -2.1558031136951544E-01 a       282     0    15     1     2
 -2.5448309360950261E-01 a       283     0    15     1     3
 -2.0669279289232456E-01 a       284     0    15     1     4
 -3.7447312337578870E-01 a       285     0    15     1     5
 -1.8121633020431227E-01 a       286     0    15     1     6
  6.0755832025805340E-02 a       287     0    15     1     7
 -2.2305047297444183E-01 a       288     0    15     1     8
  2.2384052648982272E-02 a       289     0    15     1     9
 -2.3286207792124803E-02 a       290     0    15     1    10
  6.0045079530868404E-03 a       291     0    15     1    11
  1.1282894695419610E-01 a       292     0    15     1    12
  4.7799765574792909E-02 a       293     0    15     1    13
  8.8316578354434752E-02 a       294     0    15     1    14
  9.1400477984134032E-04 a       295     0    15     1    15
 -1.1780788427236111E-01 a       296     0    15     1    16
 -3.1634522625324596E-02 a       297     0    15     1    17
  2.6809393474619403E-01 a       298     0    15     1    18
 -1.6697898018812210E-01 a       299     0    15     1    19
 -2.3368148995714647E-01 a       300     0    15     1    20
 -2.5810751027917289E-01 a       301     0    16     1     1
  3.9011411162611048E-03 a       302     0    16     1     2
  1.1768818462540245E-01 a       303     0    16     1     3
  9.1680158285088575E-02 a       304     0    16     1     4
  1.8636535474147065E-02 a       305     0    16     1     5
  1.2958099391832715E-02 a       306     0    16     1     6
  6.8841160216043640E-02 a       307     0    16     1     7
  5.2581480026296826E-02 a       308     0    16     1     8
  3.1107029840439532E-01 a       309     0    16     1     9
  2.8702536979475370E-02 a       310     0    16     1    10
  1.4783856126312120E-01 a       311     0    16     1    11
 -6.2631717450659527E-02 a       312     0    16     1    12
  1.6989762846168169E-01 a       313     0    16     1    13
 -7.4754735656637747E-02 a       314     0    16     1    14
 -1.7276869476038567E-01 a       315     0    16     1    15
  7.8775731768517099E-02 a       316     0    16     1    16
 -8.9796062130624594E-03 a       317     0    16     1    17
  2.7162169659992043E-03 a       318     0    16     1    18
  5.3096245767925418E-02 a       319     0    16     1    19
  1.6771134131971882E-01 a       320     0    16     1    20
 -2.1521673857984636E-01 a       321     0    17     1     1
  4.4328193286249450E-02 a       322     0    17     1     2
 -1.0580022417310499E-01 a       323     0    17     1     3
  9.1839292732807595E-02 a       324     0    17     1     4
 -1.9101327509572167E-02 a       325     0    17     1     5
 -1.1251149148832312E-01 a       326     0    17     1     6
 -3.3763469656890482E-01 a       327     0    17     1     7
  1.1525731935266745E-01 a       328     0    17     1     8
  2.6749131557292866E-01 a       329     0    17     1     9
  2.1709720039524927E-01 a       330     0    17     1    10
 -1.6325818149850788E-01 a       331     0    17     1    11
 -2.1911912771877545E-01 a       332     0    17     1    12
 -2.6619047460774331E-01 a       333     0    17     1    13
  5.5604208444737244E-03 a       334     0    17     1    14
 -1.5474863213844942E-01 a       335     0    17     1    15
 -4.5262138435170345E-02 a       336     0    17     1    16
 -1.6956657779169779E-01 a       337     0    17     1    17
  1.6481246163370433E-01 a       338     0    17     1    18
 -9.4463966365607832E-02 a       339     0    17     1    19
  2.3597983754955098E-02 a       340     0    17     1    20
  3.1025267347506033E-02 a       341     0    18     1     1
 -5.2694493474487229E-02 a       342     0    18     1     2
  1.4213749599515066E-01 a       343     0    18     1     3
 -2.1541155284822235E-02 a       344     0    18     1     4
 -3.2364484594425195E-02 a       345     0    18     1     5
 -2.8458283621749802E-02 a       346     0    18     1     6
 -4.2264950224445902E-02 a       347     0    18     1     7
 -1.0622400451485329E-02 a       348     0    18     1     8
 -2.2737337228998478E-01 a       349     0    18     1     9
 -7.0061569978083988E-03 a       350     0    18     1    10
  2.3485690166005355E-02 a       351     0    18     1    11
 -1.3230660283957804E-01 a       352     0    18     1    12
  1.4742823193266724E-01 a       353     0    18     1    13
 -3.6718037274613660E-02 a       354     0    18     1    14
 -1.4187806972201180E-02 a       355     0    18     1    15
 -2.0283346216948335E-02 a       356     0    18     1    16
 -4.4601159123783554E-02 a       357     0    18     1    17
 -1.6758600482137381E-01 a       358     0    18     1    18
  6.2899867964932410E-02 a       359     0    18     1    19
  8.4362681786549591E-03 a       360     0    18     1    20
  1.1756133672761138E-01 a       361     0    19     1     1
 -9.2651570294500107E-02 a       362     0    19     1     2
  2.8182860978564017E-01 a       363     0    19     1     3
 -1.2672280042191419E-01 a       364     0    19     1     4
 -2.7507104300990104E-01 a       365     0    19     1     5
 -6.6244182565385779E-02 a       366     0    19     1     6
  3.9587537973878519E-02 a       367     0    19     1     7
  1.5633116919392176E-01 a       368     0    19     1     8
 -2.2672548491278813E-01 a       369     0    19     1     9
 -3.5302265160815621E-01 a       370     0    19     1    10
 -2.2463370244025130E-02 a       371     0    19     1    11
  4.8837763268305592E-02 a       372     0    19     1    12
 -1.4901327639104175E-02 a       373     0    19     1    13
 -8.3138577336204736E-02 a       374     0    19     1    14
  1.1980993301206583E-01 a       375     0    19     1    15
 -3.7610017851611478E-02 a       376     0    19     1    16
 -3.4012685500558040E-02 a       377     0    19     1    17
 -9.5507892181592793E-02 a       378     0    19     1    18
 -1.4103231707921431E-02 a       379     0    19     1    19
  1.1247006019533376E-01 a       380     0    19     1    20
  3.2013799475253085E-01 a       381     0    20     1     1
  4.2260577599681090E-02 a       382     0    20     1     2
 -1.3729880340597972E-01 a       383     0    20     1     3
 -8.5820834503936974E-02 a       384     0    20     1     4
  9.1882441264746498E-02 a       385     0    20     1     5
  1.4989943290643926E-01 a       386     0    20     1     6
  2.9163110116269507E-02 a       387     0    20     1     7
 -1.1281705408960799E-01 a       388     0    20     1     8
  3.1055548280652427E-02 a       389     0    20     1     9
 -2.2604364990353554E-02 a       390     0    20     1    10
  2.9756726365974404E-02 a       391     0    20     1    11
  2.1810550972657461E-01 a       392     0    20     1    12
 -1.0127654571692048E-01 a       393     0    20     1    13
  5.5620021943061683E-02 a       394     0    20     1    14
  7.6534017503620100E-02 a       395     0    20     1    15
  3.1524332702282866E-02 a       396     0    20     1    16
  1.1539969494696303E-01 a       397     0    20     1    17
  1.3316286797568214E-01 a       398     0    20     1    18
  8.7387647303340310E-02 a       399     0    20     1    19
 -7.4939311618089449E-02 a       400     0    20     1    20
 -7.4927547930406777E-02 a       401     0    21     1     1
 -4.0074251418192770E-02 a       402     0    21     1     2
 -2.0602638326008116E-01 a       403     0    21     1     3
 -7.0853799651598125E-03 a       404     0    21     1     4
  2.1932363299219240E-01 a       405     0    21     1     5
  3.5033287146469694E-02 a       406     0    21     1     6
  2.1108797073812921E-01 a       407     0    21     1     7
 -8.1817601676204745E-03 a       408     0    21     1     8
  1.6017264239501727E-02 a       409     0    21     1     9
  1.6748957230186001E-01 a       410     0    21     1    10
 -3.2296315484705247E-02 a       411     0    21     1    11
  1.3597080023151957E-02 a       412     0    21     1    12
  4.2527011611843947E-02 a       413     0    21     1    13
  1.9081388223894071E-02 a       414     0    21     1    14
  8.3042014936696620E-02 a       415     0    21     1    15
 -1.3242601656329825E-02 a       416     0    21     1    16
  6.4807738547380450E-02 a       417     0    21     1    17
  2.9810953769728591E-02 a       418     0    21     1    18
 -2.3807419081759242E-02 a       419     0    21     1    19
  5.5873076544400246E-04 a       420     0    21     1    20
 -7.2812851358136033E-02 a       421     0    22     1     1
  3.2414527415261335E-01 a       422     0    22     1     2
 -1.7404253852290802E-02 a       423     0    22     1     3
  1.2908242412978180E-01 a       424     0    22     1     4
  2.9864022185811329E-02 a       425     0    22     1     5
  3.7541517824933395E-03 a       426     0    22     1     6
  1.4711223800713895E-02 a       427     0    22     1     7
 -8.5247517501654171E-02 a       428     0    22     1     8
 -7.9853473418583343E-02 a       429     0    22     1     9
  1.5630760460438067E-02 a       430     0    22     1    10
  6.3941088017296352E-02 a       431     0    22     1    11
  1.2619950744769523E-01 a       432     0    22     1    12
  1.5556400775314125E-01 a       433     0    22     1    13
 -2.0361562686098750E-02 a       434     0    22     1    14
 -1.3319061172283270E-01 a       435     0    22     1    15
  8.4040847469429261E-02 a       436     0    22     1    16
  3.3763264950394306E-02 a       437     0    22     1    17
 -7.0998083197945788E-02 a       438     0    22     1    18
  2.6398127791147008E-01 a       439     0    22     1    19
 -2.1125086922698145E-02 a       440     0    22     1    20
 -1.9309562556931720E-01 a       441     0    23     1     1
 -1.5147557737795539E-01 a       442     0    23     1     2
 -3.2901565291721585E-01 a       443     0    23     1     3
  1.1976425404681065E-01 a       444     0    23     1     4
  1.3662255294030584E-01 a       445     0    23     1     5
 -5.8465679343941944E-02 a       446     0    23     1     6
 -6.0900802491584791E-02 a       447     0    23     1     7
 -2.0334997337953811E-02 a       448     0    23     1     8
 -2.1898470588076768E-02 a       449     0    23     1     9
  4.3265303663872068E-01 a       450     0    23     1    10
 -8.8623243672951768E-02 a       451     0    23     1    11
 -3.6556051881340362E-01 a       452     0    23     1    12
 -7.6109112079896291E-02 a       453     0    23     1    13
  7.7897132381466130E-02 a       454     0    23     1    14
  8.3791525914072615E-02 a       455     0    23     1    15
 -9.3104724080803294E-02 a       456     0    23     1    16
 -5.1015620100862968E-02 a       457     0    23     1    17
  3.7305297070255670E-02 a       458     0    23     1    18
 -2.5494207504676641E-01 a       459     0    23     1    19
 -5.3544233490120281E-02 a       460     0    23     1    20
  1.0596780035982484E-01 a       461     0    24     1     1
 -8.1591332111116771E-02 a       462     0    24     1     2
  1.8322630405170584E-01 a       463     0    24     1     3
 -1.3910231657868566E-02 a       464     0    24     1     4
 -2.4213790422463444E-01 a       465     0    24     1     5
 -2.2474330217049435E-02 a       466     0    24     1     6
 -3.2633099048507676E-02 a       467     0    24     1     7
 -7.8241393410821508E-02 a       468     0    24     1     8
 -1.0407962146129508E-01 a       469     0    24     1     9
 -1.2686068621278165E-01 a       470     0    24     1    10
  3.9596954490735213E-02 a       471     0    24     1    11
 -5.5318507707576306E-02 a       472     0    24     1    12
  1.9047164256816660E-02 a       473     0    24     1    13
  9.2623164623165562E-03 a       474     0    24     1    14
 -4.9071660046834699E-02 a       475     0    24     1    15
 -3.1539967822524443E-03 a       476     0    24     1    16
 -6.0067224526887772E-02 a       477     0    24     1    17
 -7.9876201516321660E-02 a       478     0    24     1    18
 -3.6143680264889483E-02 a       479     0    24     1    19
 -6.1267716030614712E-02 a       480     0    24     1    20
  3.7046462472777139E-02 a       481     0    25     1     1
 -2.3055371545691128E-01 a       482     0    25     1     2
 -1.3687002881619162E-01 a       483     0    25     1     3
 -1.0554719814095222E-01 a       484     0    25     1     4
 -1.1290470282590034E-01 a       485     0    25     1     5
 -8.4266466594805883E-02 a       486     0    25     1     6
  1.4761816631533553E-01 a       487     0    25     1     7
  1.8978384339150400E-02 a       488     0    25     1     8
  5.9785853569414377E-02 a       489     0    25     1     9
  1.0627646493641696E-01 a       490     0    25     1    10
 -3.8554173316500469E-02 a       491     0    25     1    11
 -3.7548650317031466E-02 a       492     0    25     1    12
  7.5934912574902340E-03 a       493     0    25     1    13
  1.1462293891353148E-02 a       494     0    25     1    14
  1.7531394094181277E-01 a       495     0    25     1    15
 -9.3295996697050382E-02 a       496     0    25     1    16
  1.2447084042201555E-02 a       497     0    25     1    17
 -7.4099792786635005E-02 a       498     0    25     1    18
 -1.5850976883826784E-01 a       499     0    25     1    19
 -6.7730939637991025E-02 a       500     0    25     1    20
  1.1020585168662859E-01 a       501     0    26     1     1
  8.4144480040646821E-04 a       502     0    26     1     2
  1.6046424884084362E-01 a       503     0    26     1     3
 -8.9075436433163374E-02 a       504     0    26     1     4
  4.9718193267860797E-02 a       505     0    26     1     5
  8.6626384121580219E-02 a       506     0    26     1     6
 -6.7553104522336593E-02 a       507     0    26     1     7
  2.1057924261035050E-02 a       508     0    26     1     8
  1.0445763859987024E-01 a       509     0    26     1     9
 -1.9953578137565114E-01 a       510     0    26     1    10
  3.3877575545473410E-02 a       511     0    26     1    11
  1.4128951149148389E-01 a       512     0    26     1    12
 -2.6908180069476342E-02 a       513     0    26     1    13
 -2.7206194526274270E-02 a       514     0    26     1    14
 -7.9649861856710968E-02 a       515     0    26     1    15
  4.9531524611088555E-02 a       516     0    26     1    16
  1.0648303721962207E-02 a       517     0    26     1    17
  8.2853220826051996E-02 a       518     0    26     1    18
  8.8961616342121796E-02 a       519     0    26     1    19
  3.9629381996467046E-02 a       520     0    26     1    20
 -3.3661831960255878E-02 a       521     0    27     1     1
 -4.1390149583724507E-02 a       522     0    27     1     2
 -1.3564728471287310E-01 a       523     0    27     1     3
  3.4285565050365910E-02 a       524     0    27     1     4
  5.2765968444200992E-02 a       525     0    27     1     5
 -3.8958015538752815E-03 a       526     0    27     1     6
  6.7679281352583970E-02 a       527     0    27     1     7
  3.2164377969909855E-02 a       528     0    27     1     8
  1.1604880063471384E-01 a       529     0    27     1     9
  1.0007902589975652E-01 a       530     0    27     1    10
 -2.2152210181997121E-02 a       531     0    27     1    11
 -1.4128017206321514E-01 a       532     0    27     1    12
  5.0200735917846392E-02 a       533     0    27     1    13
  1.9832269206476343E-02 a       534     0    27     1    14
  6.1685616324485854E-02 a       535     0    27     1    15
 -4.7376573450628158E-02 a       536     0    27     1    16
  4.9395357948917841E-02 a       537     0    27     1    17
  2.2595825306605814E-03 a       538     0    27     1    18
 -5.3782902349592709E-02 a       539     0    27     1    19
 -3.8472098965884258E-02 a       540     0    27     1    20
  3.9648336923249108E-02 a       541     0    28     1     1
  6.5142211911843294E-03 a       542     0    28     1     2
  9.6100216698383582E-03 a       543     0    28     1     3
  6.5752589509909755E-04 a       544     0    28     1     4
  5.9534714941063674E-02 a       545     0    28     1     5
  4.0145495805873316E-02 a       546     0    28     1     6
  8.7584770402118085E-03 a       547     0    28     1     7
 -3.4003267906953419E-02 a       548     0    28     1     8
 -2.1547849919969258E-02 a       549     0    28     1     9
  2.6465604581099016E-02 a       550     0    28     1    10
  9.1449083029218649E-03 a       551     0    28     1    11
 -5.7200771685470379E-02 a       552     0    28     1    12
  4.2872380582009130E-02 a       553     0    28     1    13
  1.7052046402943884E-02 a       554     0    28     1    14
 -5.3634831409143054E-02 a       555     0    28     1    15
  1.1882711778005787E-02 a       556     0    28     1    16
  1.0448748149359298E-02 a       557     0    28     1    17
 -4.8717440358197153E-02 a       558     0    28     1    18
  3.4497616638437284E-02 a       559     0    28     1    19
 -4.3417837714539900E-02 a       560     0    28     1    20
 -2.5069983628342413E-02 a       561     0    29     1     1
 -9.4244792429584463E-03 a       562     0    29     1     2
 -7.5443652080031356E-02 a       563     0    29     1     3
  3.4754370518178111E-02 a       564     0    29     1     4
  2.7340861796338715E-02 a       565     0    29     1     5
 -4.4504936981446044E-03 a       566     0    29     1     6
  3.7708755238935063E-02 a       567     0    29     1     7
 -5.9111991387875075E-02 a       568     0    29     1     8
 -1.0066939477361798E-01 a       569     0    29     1     9
  1.2050116089569082E-01 a       570     0    29     1    10
 -3.0096100099893767E-02 a       571     0    29     1    11
 -6.4656405995966296E-02 a       572     0    29     1    12
 -3.3422457557604882E-02 a       573     0    29     1    13
  3.3076255158490671E-02 a       574     0    29     1    14
  4.0100457263571941E-02 a       575     0    29     1    15
 -2.7360302855726923E-02 a       576     0    29     1    16
 -3.1484960742998905E-02 a       577     0    29     1    17
  4.5022371477225369E-02 a       578     0    29     1    18
 -6.0129682487085077E-02 a       579     0    29     1    19
  2.2029958929293755E-02 a       580     0    29     1    20
 -1.0395733849938217E-01 a       581     0    30     1     1
  9.3318263927027384E-02 a       582     0    30     1     2
  1.3808369508202131E-01 a       583     0    30     1     3
  9.1733040566902804E-02 a       584     0    30     1     4
 -8.1110123266921616E-02 a       585     0    30     1     5
 -4.8002054744908783E-02 a       586     0    30     1     6
 -1.1630579973091573E-01 a       587     0    30     1     7
  9.3062050287874010E-02 a       588     0    30     1     8
 -2.7821705768751155E-02 a       589     0    30     1     9
 -1.6026785596336146E-01 a       590     0    30     1    10
  3.3302942153296794E-02 a       591     0    30     1    11
  1.2283190107326243E-01 a       592     0    30     1    12
 -1.9893878291813234E-02 a       593     0    30     1    13
 -5.6449953457590268E-02 a       594     0    30     1    14
 -4.9501019700608939E-02 a       595     0    30     1    15
  2.6140678303856201E-02 a       596     0    30     1    16
 -2.6659859297509018E-02 a       597     0    30     1    17
 -4.3021487039319973E-03 a       598     0    30     1    18
 -8.1409084312169325E-02 a       599     0    30     1    19
  6.0740978684349162E-02 a       600     0    30     1    20
  2.6177138058976218E-01 a       601     0    31     1     1
  4.4701947086507787E-01 a       602     0    31     1     2
 -2.6901415068328643E-01 a       603     0    31     1     3
  1.5459753044866851E-02 a       604     0    31     1     4
  1.0468341947902274E-01 a       605     0    31     1     5
 -3.9310709244127195E-01 a       606     0    31     1     6
  8.1611869927654124E-02 a       607     0    31     1     7
  6.3208700487075345E-02 a       608     0    31     1     8
  1.7441465756045150E-02 a       609     0    31     1     9
  2.5546953528660002E-02 a       610     0    31     1    10
 -1.5477148046181879E-01 a       611     0    31     1    11
 -1.2111998677830352E-01 a       612     0    31     1    12
 -1.2483953418869499E-01 a       613     0    31     1    13
 -2.6193685393519095E-01 a       614     0    31     1    14
  4.4683576696685878E-02 a       615     0    31     1    15
 -8.8350885902497549E-03 a       616     0    31     1    16
  2.8251260922549254E-01 a       617     0    31     1    17
  3.5743313091833773E-01 a       618     0    31     1    18
  2.8867726717311665E-01 a       619     0    31     1    19
 -2.4642378989649746E-01 a       620     0    31     1    20
 -6.4376895170921763E-03 a       621     0    32     1     1
 -2.5820684877670769E-01 a       622     0    32     1     2
  4.0506312255056104E-02 a       623     0    32     1     3
  9.7934395556880327E-01 a       624     0    32     1     4
  6.2565626611034220E-01 a       625     0    32     1     5
  1.6118365667837739E-01 a       626     0    32     1     6
  1.0404068813472733E-01 a       627     0    32     1     7
  3.6481077673832685E-01 a       628     0    32     1     8
 -4.0623916138199051E-01 a       629     0    32     1     9
 -9.2911107387680700E-02 a       630     0    32     1    10
  1.7071466602881544E-01 a       631     0    32     1    11
  2.5565681091957643E-01 a       632     0    32     1    12
 -3.4074158284298306E-01 a       633     0    32     1    13
  5.4694382166968913E-01 a       634     0    32     1    14
  2.8028989329251158E-01 a       635     0    32     1    15
 -1.9240541918379586E-01 a       636     0    32     1    16
 -2.7601586088804209E-01 a       637     0    32     1    17
  6.5608129268326543E-01 a       638     0    32     1    18
 -1.9493393911820261E-01 a       639     0    32     1    19
  8.9788818163390544E-02 a       640     0    32     1    20
 -8.9968306326166127E-03 a       641     0    33     1     1
  1.7070391955726918E-01 a       642     0    33     1     2
 -1.5699684562666397E-01 a       643     0    33     1     3
 -7.3569434380574894E-02 a       644     0    33     1     4
 -2.1142288925914920E-02 a       645     0    33     1     5
 -9.7894436167914489E-02 a       646     0    33     1     6
  8.2414737158467546E-02 a       647     0    33     1     7
 -1.6585859646197698E-01 a       648     0    33     1     8
  2.8362385656535326E-02 a       649     0    33     1     9
  1.2471459138731233E-01 a       650     0    33     1    10
 -2.4248594942836783E-02 a       651     0    33     1    11
  2.4952387755476826E-01 a       652     0    33     1    12
  2.7874587483215452E-01 a       653     0    33     1    13
 -6.3487428417631789E-02 a       654     0    33     1    14
 -2.9923762256344563E-02 a       655     0    33     1    15
  1.6316584815141987E-02 a       656     0    33     1    16
  9.0366366589792760E-02 a       657     0    33     1    17
 -1.5835616552622286E-01 a       658     0    33     1    18
 -1.1907007971628424E-01 a       659     0    33     1    19
 -1.8301452221092643E-01 a       660     0    33     1    20
 -2.7226786676081538E-01 a       661     0    34     1     1
  1.9617847984722145E-01 a       662     0    34     1     2
 -3.1127620836432840E-01 a       663     0    34     1     3
 -7.4058242962233467E-01 a       664     0    34     1     4
 -2.9010252085853910E-01 a       665     0    34     1     5
 -1.0093969002692553E-01 a       666     0    34     1     6
 -5.9397045723815163E-02 a       667     0    34     1     7
 -4.3488390374310938E-02 a       668     0    34     1     8
 -2.6522891540228377E-01 a       669     0    34     1     9
  4.5513473338209279E-02 a       670     0    34     1    10
  1.8713572518405979E-02 a       671     0    34     1    11
 -3.7699095549689580E-02 a       672     0    34     1    12
 -1.9373368719270434E-01 a       673     0    34     1    13
 -7.1098839376653755E-01 a       674     0    34     1    14
 -3.8857530971813777E-02 a       675     0    34     1    15
  3.7482309031096039E-01 a       676     0    34     1    16
  3.1659046722517820E-01 a       677     0    34     1    17
 -6.8025193265333261E-01 a       678     0    34     1    18
  9.1805318215540707E-02 a       679     0    34     1    19
  1.1992191293490991E-01 a       680     0    34     1    20
 -1.8541228126057951E-01 a       681     0    35     1     1
 -2.2432005441754420E-03 a       682     0    35     1     2
  2.3048567968240039E-01 a       683     0    35     1     3
  2.1840329151255172E-01 a       684     0    35     1     4
 -1.8877254402562799E-01 a       685     0    35     1     5
 -2.5506514668983715E-01 a       686     0    35     1     6
 -2.8162965705229764E-01 a       687     0    35     1     7
 -1.8321138603117604E-01 a       688     0    35     1     8
  1.0472207712002578E-01 a       689     0    35     1     9
 -1.5100814460561893E-01 a       690     0    35     1    10
  5.7686131696644389E-04 a       691     0    35     1    11
  2.4835182966621336E-01 a       692     0    35     1    12
 -2.8600384319454519E-01 a       693     0    35     1    13
  2.8142102417191162E-01 a       694     0    35     1    14
  2.6589868934333521E-01 a       695     0    35     1    15
 -1.2441332826620244E-01 a       696     0    35     1    16
 -1.2519925561368753E-01 a       697     0    35     1    17
  4.3915362238661965E-01 a       698     0    35     1    18
 -1.3930419834628954E-01 a       699     0    35     1    19
  3.7347836003754270E-02 a       700     0    35     1    20
  1.5890163255211978E-01 a       701     0    36     1     1
  2.8617987700948463E-02 a       702     0    36     1     2
 -1.2865903402605239E-01 a       703     0    36     1     3
 -3.4576118098944758E-01 a       704     0    36     1     4
 -3.3253301294423149E-01 a       705     0    36     1     5
  1.3218916031909289E-01 a       706     0    36     1     6
 -2.7074581653994340E-01 a       707     0    36     1     7
 -2.3453615592630803E-01 a       708     0    36     1     8
 -1.7483739021221756E-01 a       709     0    36     1     9
 -1.0225173877738668E-01 a       710     0    36     1    10
  5.8695966712447235E-02 a       711     0    36     1    11
  1.3118585811620856E-01 a       712     0    36     1    12
  4.6662783120552487E-01 a       713     0    36     1    13
  7.0436066160722677E-02 a       714     0    36     1    14
 -2.4179555830779814E-01 a       715     0    36     1    15
 -9.9895211432620881E-02 a       716     0    36     1    16
 -3.8617466931128663E-01 a       717     0    36     1    17
 -4.3246989990638807E-01 a       718     0    36     1    18
  8.5437565780838123E-02 a       719     0    36     1    19
  1.8789984512806938E-02 a       720     0    36     1    20
 -2.2031285547867913E-01 a       721     0    37     1     1
  8.3065126691572802E-02 a       722     0    37     1     2
  6.8261043360081586E-01 a       723     0    37     1     3
 -9.0722624498436072E-02 a       724     0    37     1     4
 -5.2748796732791800E-02 a       725     0    37     1     5
 -2.4098850211146164E-01 a       726     0    37     1     6
  3.2675999387685861E-01 a       727     0    37     1     7
 -2.9538227936130629E-01 a       728     0    37     1     8
  3.0403200029430688E-01 a       729     0    37     1     9
  3.8324201018523146E-01 a       730     0    37     1    10
 -1.3993999325238918E-01 a       731     0    37     1    11
  3.0856888150800076E-02 a       732     0    37     1    12
  7.4572559461135918E-02 a       733     0    37     1    13
 -4.1633973214702785E-01 a       734     0    37     1    14
  3.8104027947912522E-01 a       735     0    37     1    15
  1.3782524062993298E-01 a       736     0    37     1    16
  5.2433802773520199E-01 a       737     0    37     1    17
 -2.4095649358257784E-01 a       738     0    37     1    18
 -3.4594658798508676E-02 a       739     0    37     1    19
  2.4999621429477331E-01 a       740     0    37     1    20
  1.3513537996164612E-01 a       741     0    38     1     1
  1.1959039195814425E-01 a       742     0    38     1     2
 -2.3581536774438200E-01 a       743     0    38     1     3
  1.5436832432363704E-01 a       744     0    38     1     4
  4.2880135245292231E-02 a       745     0    38     1     5
  1.2832674890301121E-01 a       746     0    38     1     6
 -8.7480809784851829E-02 a       747     0    38     1     7
  7.4662411700399264E-02 a       748     0    38     1     8
  1.4769720292955946E-01 a       749     0    38     1     9
 -8.5452405176598190E-02 a       750     0    38     1    10
  2.0393824686077495E-02 a       751     0    38     1    11
 -1.8571616526374257E-01 a       752     0    38     1    12
 -2.2587969640985467E-01 a       753     0    38     1    13
 -4.2304976797917740E-02 a       754     0    38     1    14
  9.4467396834369360E-02 a       755     0    38     1    15
  1.9993085926845277E-03 a       756     0    38     1    16
  1.9309196853013954E-03 a       757     0    38     1    17
  8.9845347601042347E-02 a       758     0    38     1    18
  2.0921069002407988E-01 a       759     0    38     1    19
  9.9891536469122466E-03 a       760     0    38     1    20
 -1.2605007697735890E-01 a       761     0    39     1     1
 -1.7832810355726750E-01 a       762     0    39     1     2
 -1.8209473524025471E-01 a       763     0    39     1     3
  1.0385688896450886E-01 a       764     0    39     1     4
 -1.0735190657054965E-01 a       765     0    39     1     5
  1.5724514387289001E-01 a       766     0    39     1     6
  2.8980320280741662E-01 a       767     0    39     1     7
 -7.2529602704907395E-02 a       768     0    39     1     8
 -1.2674340643639453E-01 a       769     0    39     1     9
 -3.3642769456282999E-03 a       770     0    39     1    10
  6.9622003806636204E-02 a       771     0    39     1    11
  1.3455427878685403E-01 a       772     0    39     1    12
  2.9171449757269341E-01 a       773     0    39     1    13
  3.2175693725501453E-01 a       774     0    39     1    14
 -3.2070269554955194E-01 a       775     0    39     1    15
 -1.1540812373393625E-01 a       776     0    39     1    16
 -3.7063472270870690E-01 a       777     0    39     1    17
  2.2762941967385794E-01 a       778     0    39     1    18
 -2.8557994243991386E-01 a       779     0    39     1    19
 -1.2599891693401085E-02 a       780     0    39     1    20
 -1.7303767640686848E-01 a       781     0    40     1     1
 -5.1854341217524115E-02 a       782     0    40     1     2
  3.6923079033873950E-02 a       783     0    40     1     3
  9.6495452902166018E-02 a       784     0    40     1     4
  2.6845915670161247E-01 a       785     0    40     1     5
 -1.9397535005465197E-01 a       786     0    40     1     6
 -2.2775927257441510E-02 a       787     0    40     1     7
 -1.3996999197698121E-01 a       788     0    40     1     8
  3.6978642021968688E-01 a       789     0    40     1     9
  1.3880127856019156E-01 a       790     0    40     1    10
  1.3844730215180586E-02 a       791     0    40     1    11
 -5.3734316915203577E-02 a       792     0    40     1    12
  2.0042389522200842E-02 a       793     0    40     1    13
 -1.1855618178132929E-01 a       794     0    40     1    14
 -1.4765830231113222E-01 a       795     0    40     1    15
 -1.5189002995070177E-02 a       796     0    40     1    16
 -1.5726864342577676E-01 a       797     0    40     1    17
  1.0843461208786163E-01 a       798     0    40     1    18
  5.4825108379417113E-02 a       799     0    40     1    19
 -7.0970445030812609E-02 a       800     0    40     1    20
 -1.0996118389938378E-01 a       801     0    41     1     1
  8.0958821629872266E-02 a       802     0    41     1     2
 -1.0743985397515740E-01 a       803     0    41     1     3
  9.8521644282538491E-03 a       804     0    41     1     4
 -8.1513135741413237E-02 a       805     0    41     1     5
 -3.9136924563338331E-02 a       806     0    41     1     6
 -4.7017496451782964E-02 a       807     0    41     1     7
  5.5438394967423046E-02 a       808     0    41     1     8
  1.6878092870378339E-01 a       809     0    41     1     9
 -6.7465254915724374E-02 a       810     0    41     1    10
  6.0475767290158232E-03 a       811     0    41     1    11
 -1.2854648832257393E-01 a       812     0    41     1    12
 -8.9826456488383902E-02 a       813     0    41     1    13
 -3.8838441070854449E-02 a       814     0    41     1    14
 -1.2906076728718121E-02 a       815     0    41     1    15
  3.5849146546898171E-02 a       816     0    41     1    16
 -2.0620730424074512E-02 a       817     0    41     1    17
  6.3269523847619916E-03 a       818     0    41     1    18
  4.6564676988455359E-02 a       819     0    41     1    19
  8.2743611412664508E-02 a       820     0    41     1    20
 -7.8971400508333345E-02 a       821     0    42     1     1
  1.8763703630967607E-01 a       822     0    42     1     2
  1.3213952097841242E-01 a       823     0    42     1     3
  2.5861525871284974E-01 a       824     0    42     1     4
 -9.5587406260169538E-01 a       825     0    42     1     5
  2.1145245020564732E-01 a       826     0    42     1     6
  1.7075353547181832E-01 a       827     0    42     1     7
 -1.5556595065653023E-01 a       828     0    42     1     8
  9.1158784471838367E-02 a       829     0    42     1     9
 -6.5063545158910149E-02 a       830     0    42     1    10
  4.6124839940637298E-02 a       831     0    42     1    11
  3.2286691476555712E-01 a       832     0    42     1    12
  1.6194087695793463E-01 a       833     0    42     1    13
 -5.9163478603442071E-03 a       834     0    42     1    14
  9.2656092618372571E-02 a       835     0    42     1    15
  6.0036421672110207E-02 a       836     0    42     1    16
  3.3152328145435464E-02 a       837     0    42     1    17
  1.9584839778775141E-02 a       838     0    42     1    18
 -9.5064700644372682E-02 a       839     0    42     1    19
 -3.9513039571977042E-02 a       840     0    42     1    20
 -1.1610343591728267E-01 a       841     0    43     1     1
 -3.4046988092418218E-01 a       842     0    43     1     2
 -3.7410309437634626E-01 a       843     0    43     1     3
 -7.4201769221735103E-02 a       844     0    43     1     4
 -7.9504550115801279E-02 a       845     0    43     1     5
 -1.8350995974474238E-01 a       846     0    43     1     6
 -2.2223350363765720E-01 a       847     0    43     1     7
 -1.1933191356756365E-01 a       848     0    43     1     8
 -2.7825100776622425E-01 a       849     0    43     1     9
  2.2624758338872081E-01 a       850     0    43     1    10
 -7.8618183575605727E-03 a       851     0    43     1    11
 -1.6174922758842469E-01 a       852     0    43     1    12
 -7.8872713243125142E-02 a       853     0    43     1    13
  4.2311942435943439E-02 a       854     0    43     1    14
  2.6639012279060803E-01 a       855     0    43     1    15
 -1.3118764985392843E-02 a       856     0    43     1    16
  1.4425264599298943E-01 a       857     0    43     1    17
 -8.5422960042833299E-02 a       858     0    43     1    18
 -1.8418525508620127E-02 a       859     0    43     1    19
 -3.3122567712056633E-01 a       860     0    43     1    20
  1.8526651530266280E-02 a       861     0    44     1     1
 -1.8124435614349405E-01 a       862     0    44     1     2
  7.6531569590011200E-02 a       863     0    44     1     3
 -3.6473601349282236E-01 a       864     0    44     1     4
  3.0630722582997477E-01 a       865     0    44     1     5
 -1.0056369708663157E-01 a       866     0    44     1     6
  3.8380948463293046E-01 a       867     0    44     1     7
 -1.5961692770521955E-02 a       868     0    44     1     8
 -2.7613953002337530E-02 a       869     0    44     1     9
 -1.7327769211122304E-01 a       870     0    44     1    10
 -5.6126309715988996E-02 a       871     0    44     1    11
  3.6489347749917113E-02 a       872     0    44     1    12
 -9.6155191725719069E-01 a       873     0    44     1    13
  3.5467788585434819E-02 a       874     0    44     1    14
 -2.9758249867862230E-01 a       875     0    44     1    15
  1.6172718756901464E-02 a       876     0    44     1    16
 -1.2634560631724212E-01 a       877     0    44     1    17
  9.3264426545088111E-02 a       878     0    44     1    18
 -3.5607324334104135E-01 a       879     0    44     1    19
  7.5155228908780583E-02 a       880     0    44     1    20
  8.4296743190996309E-02 a       881     0    45     1     1
 -5.5050679539911759E-02 a       882     0    45     1     2
  1.6081320787220749E-01 a       883     0    45     1     3
  3.9640152365618436E-02 a       884     0    45     1     4
 -4.1507260102611604E-02 a       885     0    45     1     5
  2.5298366010129736E-01 a       886     0    45     1     6
  2.4109012866880244E-01 a       887     0    45     1     7
 -6.2816646992145647E-02 a       888     0    45     1     8
 -2.2167830204485098E-01 a       889     0    45     1     9
 -6.0581581497714004E-02 a       890     0    45     1    10
  9.9131856578306712E-02 a       891     0    45     1    11
  1.8199363653148612E-01 a       892     0    45     1    12
  2.6120072501589003E-01 a       893     0    45     1    13
 -1.4130127037708166E-02 a       894     0    45     1    14
  1.2364742393671932E-01 a       895     0    45     1    15
  7.7211203116189231E-02 a       896     0    45     1    16
  4.5972246709831584E-02 a       897     0    45     1    17
 -9.9544454104995128E-02 a       898     0    45     1    18
  5.4259691840749177E-02 a       899     0    45     1    19
 -7.5557660947347741E-02 a       900     0    45     1    20
  1.2267062415723853E-02 a       901     0    46     1     1
 -6.2025702292391918E-02 a       902     0    46     1     2
  2.0657339529125299E-01 a       903     0    46     1     3
  1.0749624118306011E-01 a       904     0    46     1     4
  1.8914761599255819E-01 a       905     0    46     1     5
  2.2741408461426905E-02 a       906     0    46     1     6
  1.8974776216783118E-01 a       907     0    46     1     7
 -8.5469532541052034E-03 a       908     0    46     1     8
  1.4433269991091691E-01 a       909     0    46     1     9
  1.2450011015911666E-01 a       910     0    46     1    10
 -3.0701178898165696E-03 a       911     0    46     1    11
 -6.8194792669968876E-02 a       912     0    46     1    12
 -4.1324526775373577E-01 a       913     0    46     1    13
  1.8571208641458667E-01 a       914     0    46     1    14
 -8.8103136434611630E-03 a       915     0    46     1    15
  1.3005935157742676E-01 a       916     0    46     1    16
  1.7549104573800603E-01 a       917     0    46     1    17
  2.1374864750031766E-02 a       918     0    46     1    18
 -1.6116868199824083E-01 a       919     0    46     1    19
 -2.0819898904014852E-01 a       920     0    46     1    20
  2.7346671076187978E-01 a       921     0    47     1     1
 -8.2316235113355909E-02 a       922     0    47     1     2
 -7.5053689417290004E-01 a       923     0    47     1     3
 -5.0152526145397636E-01 a       924     0    47     1     4
 -2.1681394814966115E-02 a       925     0    47     1     5
 -1.5684031417953601E-01 a       926     0    47     1     6
 -2.6659500434293176E-01 a       927     0    47     1     7
  1.0987358429823242E-01 a       928     0    47     1     8
  5.3454237777604462E-02 a       929     0    47     1     9
 -7.5745578050342866E-01 a       930     0    47     1    10
  4.1222452969152015E-02 a       931     0    47     1    11
 -6.3500419846928086E-02 a       932     0    47     1    12
  5.0114063264011233E-01 a       933     0    47     1    13
 -3.9915805972368379E-01 a       934     0    47     1    14
 -3.1564662097478008E-01 a       935     0    47     1    15
 -6.0886144096153771E-01 a       936     0    47     1    16
 -6.1015696604831116E-01 a       937     0    47     1    17
 -2.2798058283939024E-01 a       938     0    47     1    18
  4.8476984515209776E-01 a       939     0    47     1    19
 -4.1929496434952251E-01 a       940     0    47     1    20
  3.3603958997053304E-02 a       941     0    48     1     1
  7.3043748295223337E-02 a       942     0    48     1     2
 -1.3298733783697617E-02 a       943     0    48     1     3
  8.2155394513616069E-03 a       944     0    48     1     4
  1.2543371286103827E-01 a       945     0    48     1     5
 -5.4857049391130543E-02 a       946     0    48     1     6
 -7.1949712578338529E-02 a       947     0    48     1     7
  7.8061638773490302E-02 a       948     0    48     1     8
 -1.5764011187559776E-01 a       949     0    48     1     9
  2.3019409025304319E-01 a       950     0    48     1    10
 -2.8345134373719542E-02 a       951     0    48     1    11
  2.1096385761916212E-01 a       952     0    48     1    12
 -6.4957022284629073E-02 a       953     0    48     1    13
 -1.1729622174012468E-02 a       954     0    48     1    14
  6.1775932089674608E-04 a       955     0    48     1    15
  5.3350449032956979E-02 a       956     0    48     1    16
  8.0306665080420850E-02 a       957     0    48     1    17
 -1.3348781007249094E-01 a       958     0    48     1    18
 -2.0769277578661460E-01 a       959     0    48     1    19
  8.3077532721103492E-02 a       960     0    48     1    20
 -1.9002561237500153E-02 a       961     0    49     1     1
 -6.9134211278673433E-04 a       962     0    49     1     2
  3.0594533081108732E-01 a       963     0    49     1     3
  2.4968075618963437E-01 a       964     0    49     1     4
  1.2159164055523762E-01 a       965     0    49     1     5
  6.7662781514953044E-02 a       966     0    49     1     6
 -6.6785172026959192E-03 a       967     0    49     1     7
 -1.0462145906383800E-01 a       968     0    49     1     8
 -1.5714617277568504E-01 a       969     0    49     1     9
  2.6214565477233492E-01 a       970     0    49     1    10
 -6.7709746595387005E-02 a       971     0    49     1    11
  8.8896252937845574E-02 a       972     0    49     1    12
 -7.9636368445361497E-02 a       973     0    49     1    13
  1.7125531612905021E-01 a       974     0    49     1    14
  2.9699761298620342E-01 a       975     0    49     1    15
  2.2294051205442700E-01 a       976     0    49     1    16
  3.8082907523357129E-01 a       977     0    49     1    17
  6.4454105987197613E-02 a       978     0    49     1    18
 -6.2267384109280073E-02 a       979     0    49     1    19
  2.8337308662940340E-02 a       980     0    49     1    20
 -1.3303846721653295E-01 a       981     0    50     1     1
  1.6633087261110693E-01 a       982     0    50     1     2
 -1.8665292271076653E-01 a       983     0    50     1     3
 -7.1593283366063754E-01 a       984     0    50     1     4
 -1.2358511280656351E-01 a       985     0    50     1     5
  5.1128252627518267E-01 a       986     0    50     1     6
 -1.5006636674859214E-01 a       987     0    50     1     7
  1.1738654891317982E-01 a       988     0    50     1     8
  1.8760246086093971E-01 a       989     0    50     1     9
 -2.8328681554730872E-01 a       990     0    50     1    10
 -2.6207984190155888E-02 a       991     0    50     1    11
  3.1717738425794034E-01 a       992     0    50     1    12
 -2.3346323498266996E-01 a       993     0    50     1    13
 -4.0182914747455406E-01 a       994     0    50     1    14
 -5.6768616591894201E-02 a       995     0    50     1    15
  5.4183099430127966E-02 a       996     0    50     1    16
 -1.1001745749358066E-01 a       997     0    50     1    17
 -8.1274751552287194E-01 a       998     0    50     1    18
  3.5920854652588902E-01 a       999     0    50     1    19
  1.5106190324021160E-01 a      1000     0    50     1    20
  1.0887954304669138E+00 b      1001     1     1
 -8.1922865414960067E-01 b      1002     1     2
  7.4552179175826161E-01 b      1003     1     3
 -1.2535164058498258E+00 b      1004     1     4
 -1.6300626848112099E+00 b      1005     1     5
 -3.3045352470414158E-01 b      1006     1     6
  9.1103677859313226E-01 b      1007     1     7
  5.2584964567590942E-01 b      1008     1     8
  8.4294624194291856E-01 b      1009     1     9
 -1.0143681378904483E-01 b      1010     1    10
 -1.5306491878393551E+00 b      1011     1    11
  9.4319159296210053E-01 b      1012     1    12
 -1.4376451427132462E+00 b      1013     1    13
 -2.0027374863339345E-01 b      1014     1    14
  3.8402944278664319E-01 b      1015     1    15
 -5.5152769180047978E-01 b      1016     1    16
  6.0807004596197090E-01 b      1017     1    17
  9.5779335973117441E-01 b      1018     1    18
 -1.4206874923996695E+00 b      1019     1    19
  1.1190852671418327E-02 b      1020     1    20
 -8.4387146791617473E-01 a      1021     1     1     2     1
  3.1101940135443829E-01 a      1022     1     1     2     2
 -4.1113033540698846E-01 a      1023     1     1     2     3
  2.7920328314046133E-01 a      1024     1     1     2     4
 -2.0831489949300766E-01 a      1025     1     1     2     5
  4.6462479584541511E-01 a      1026     1     1     2     6
 -4.0082224703893549E-01 a      1027     1     1     2     7
  6.7901537845661430E-01 a      1028     1     1     2     8
  4.1216170027204030E-01 a      1029     1     1     2     9
 -3.1096408529919811E-01 a      1030     1     1     2    10
 -3.8514373019880604E-01 a      1031     1     1     2    11
 -2.4116003204102382E-01 a      1032     1     1     2    12
 -1.3979109643735593E-01 a      1033     1     1     2    13
 -5.5492345783456931E-01 a      1034     1     1     2    14
  3.4007149088123112E-01 a      1035     1     1     2    15
 -1.1252152716414499E-01 a      1036     1     1     2    16
  3.5710269238939901E-01 a      1037     1     1     2    17
 -3.4388131009882417E-01 a      1038     1     1     2    18
 -2.1464501105600237E-01 a      1039     1     1     2    19
  6.5918977218908392E-01 a      1040     1     1     2    20
  3.8562040004496922E-01 a      1041     1     2     2     1
  2.4836004428306033E-01 a      1042     1     2     2     2
  5.9272452436964662E-01 a      1043     1     2     2     3
  3.6878143596892110E-01 a      1044     1     2     2     4
  3.6522704544285284E-01 a      1045     1     2     2     5
  1.7689995462874369E-01 a      1046     1     2     2     6
 -4.9827779124319987E-01 a      1047     1     2     2     7
 -2.7201218254237408E-01 a      1048     1     2     2     8
 -1.7222966535625919E-01 a      1049     1     2     2     9
  6.1372003485112914E-01 a      1050     1     2     2    10
  4.3377513741988433E-01 a      1051     1     2     2    11
  2.0218352205349685E-01 a      1052     1     2     2    12
  6.7407133669081432E-01 a      1053     1     2     2    13
  1.5218256739971470E-01 a      1054     1     2     2    14
 -3.4834275213835342E-01 a      1055     1     2     2    15
  4.7002702747040770E-01 a      1056     1     2     2    16
  1.9051884788643619E-01 a      1057     1     2     2    17
 -1.4133295981000057E-01 a      1058     1     2     2    18
  5.7082255246268132E-01 a      1059     1     2     2    19
  1.0430955720216971E-01 a      1060     1     2     2    20
  3.5959045376030807E-01 a      1061     1     3     2     1
  4.3200192303437454E-03 a      1062     1     3     2     2
  2.4955373763346417E-01 a      1063     1     3     2     3
  5.0975084524612047E-01 a      1064     1     3     2     4
  1.7527131821311470E-01 a      1065     1     3     2     5
 -3.4731485356778730E-01 a      1066     1     3     2     6
 -3.4860121452825693E-01 a      1067     1     3     2     7
 -2.2981012372048643E-01 a      1068     1     3     2     8
  2.7283857261230476E-01 a      1069     1     3     2     9
  2.5686773194163859E-01 a      1070     1     3     2    10
 -1.3569903860134444E-01 a      1071     1     3     2    11
 -2.1699354662463263E-01 a      1072     1     3     2    12
 -1.3668052796001936E-02 a      1073     1     3     2    13
  2.6320241470965960E-01 a      1074     1     3     2    14
  7.7081894337871507E-02 a      1075     1     3     2    15
 -2.0664485171720998E-01 a      1076     1     3     2    16
  8.1135161932629796E-01 a      1077     1     3     2    17
 -1.1037662268236956E-01 a      1078     1     3     2    18
 -9.2772804399186604E-01 a      1079     1     3     2    19
 -1.6538100606789252E-01 a      1080     1     3     2    20
  3.0450232549340372E-01 a      1081     1     4     2     1
 -7.4236655327855061E-01 a      1082     1     4     2     2
  5.2716981493300119E-01 a      1083     1     4     2     3
 -4.9012350335647376E-01 a      1084     1     4     2     4
  1.7884188781140994E-01 a      1085     1     4     2     5
  3.7501675222728653E-01 a      1086     1     4     2     6
 -2.6380613348835097E-01 a      1087     1     4     2     7
 -3.5406638547753511E-01 a      1088     1     4     2     8
  3.1734920282036622E-01 a      1089     1     4     2     9
  4.5085839294349733E-01 a      1090     1     4     2    10
 -1.7484164344774858E-01 a      1091     1     4     2    11
  2.8198726689176590E-01 a      1092     1     4     2    12
 -3.1868780383132972E-01 a      1093     1     4     2    13
  9.6110214693031021E-02 a      1094     1     4     2    14
 -6.4341379688497102E-01 a      1095     1     4     2    15
  2.3819414478433507E-01 a      1096     1     4     2    16
  1.5833642882454640E-01 a      1097     1     4     2    17
  1.7956820987485342E-01 a      1098     1     4     2    18
  2.5780898220837906E-01 a      1099     1     4     2    19
 -4.8032354645286612E-01 a      1100     1     4     2    20
  3.6448197471011590E-01 a      1101     1     5     2     1
 -3.3268705725440606E-01 a      1102     1     5     2     2
  1.9389381417244414E-01 a      1103     1     5     2     3
  2.8240318253822144E-02 a      1104     1     5     2     4
 -1.3766273805088794E-01 a      1105     1     5     2     5
 -4.4325461515528569E-01 a      1106     1     5     2     6
  3.8048366359757102E-01 a      1107     1     5     2     7
  3.1965027634260235E-01 a      1108     1     5     2     8
 -2.2624956636207155E-01 a      1109     1     5     2     9
  4.7950831141339093E-02 a      1110     1     5     2    10
 -2.2454679395862182E-02 a      1111     1     5     2    11
 -9.5755329780417486E-01 a      1112     1     5     2    12
 -6.6924836439054258E-01 a      1113     1     5     2    13
  2.9043696889478121E-01 a      1114     1     5     2    14
  4.8394845783391482E-01 a      1115     1     5     2    15
 -2.4436893208228291E-01 a      1116     1     5     2    16
  5.2334146973701079E-01 a      1117     1     5     2    17
 -8.8303777732674060E-02 a      1118     1     5     2    18
  3.0956118158671025E-01 a      1119     1     5     2    19
  3.6575790777736955E-01 a      1120     1     5     2    20
  1.6893455726496936E-01 a      1121     1     6     2     1
 -4.5934747467004194E-01 a      1122     1     6     2     2
  7.3194600731110293E-01 a      1123     1     6     2     3
 -8.3555466802532452E-01 a      1124     1     6     2     4
 -2.0778073284389326E-01 a      1125     1     6     2     5
 -4.8833374898455001E-01 a      1126     1     6     2     6
 -2.9744400689321776E-01 a      1127     1     6     2     7
 -4.3067958864617822E-01 a      1128     1     6     2     8
  3.4271155971248392E-02 a      1129     1     6     2     9
  3.2749609926545425E-01 a      1130     1     6     2    10
  2.4352535458883003E-02 a      1131     1     6     2    11
  4.1813332301797995E-01 a      1132     1     6     2    12
 -6.9130057816492041E-01 a      1133     1     6     2    13
  8.8393223364795970E-01 a      1134     1     6     2    14
 -4.4729294001967332E-02 a      1135     1     6     2    15
 -4.2828112332578117E-01 a      1136     1     6     2    16
 -6.0652282138265934E-01 a      1137     1     6     2    17
  1.9789039509483665E-02 a      1138     1     6     2    18
  2.3401425191058503E-01 a      1139     1     6     2    19
 -3.7651722580895508E-01 a      1140     1     6     2    20
  3.7068637887689415E-01 a      1141     1     7     2     1
 -4.6238911180861941E-01 a      1142     1     7     2     2
 -6.8831922800758052E-03 a      1143     1     7     2     3
 -6.7921182617723508E-02 a      1144     1     7     2     4
 -2.7933208114453767E-01 a      1145     1     7     2     5
 -2.6072273172796639E-01 a      1146     1     7     2     6
 -4.6596425906171479E-01 a      1147     1     7     2     7
 -3.0826010764288031E-01 a      1148     1     7     2     8
 -3.4635194623163412E-01 a      1149     1     7     2     9
 -5.4312952626729061E-01 a      1150     1     7     2    10
  4.2008202555389701E-01 a      1151     1     7     2    11
 -6.4624195349643687E-01 a      1152     1     7     2    12
  7.0150398874473954E-02 a      1153     1     7     2    13
  3.1619121355091394E-02 a      1154     1     7     2    14
  2.0859209185496455E-01 a      1155     1     7     2    15
  3.5868372491465267E-01 a      1156     1     7     2    16
  7.8668283029581054E-01 a      1157     1     7     2    17
 -7.2498125365061661E-01 a      1158     1     7     2    18
  8.8420714586687016E-02 a      1159     1     7     2    19
 -6.3800770515458827E-01 a      1160     1     7     2    20
  5.6271837037894096E-02 a      1161     1     8     2     1
 -5.7044738056772581E-01 a      1162     1     8     2     2
  3.2526116597173482E-01 a      1163     1     8     2     3
  3.3978748822035987E-01 a      1164     1     8     2     4
  8.4000022626445292E-01 a      1165     1     8     2     5
  1.2389140201263339E-01 a      1166     1     8     2     6
 -9.2318159489952956E-01 a      1167     1     8     2     7
 -1.0453237575973173E-01 a      1168     1     8     2     8
  6.6694717629655897E-01 a      1169     1     8     2     9
  2.7060944261543183E-02 a      1170     1     8     2    10
 -7.3620104072486786E-02 a      1171     1     8     2    11
  6.4868205505177107E-02 a      1172     1     8     2    12
 -2.0056629190923123E-01 a      1173     1     8     2    13
  9.4264563309766611E-02 a      1174     1     8     2    14
  5.9995411053903835E-01 a      1175     1     8     2    15
 -7.9001402972485053E-03 a      1176     1     8     2    16
  6.2827216171891287E-01 a      1177     1     8     2    17
  3.9208264188952185E-01 a      1178     1     8     2    18
  3.6551182219945511E-01 a      1179     1     8     2    19
 -4.0027307191292388E-01 a      1180     1     8     2    20
 -1.5667620206746233E-01 a      1181     1     9     2     1
  3.2815161172155322E-01 a      1182     1     9     2     2
  3.6680764306464991E-01 a      1183     1     9     2     3
 -1.7791304234497557E-01 a      1184     1     9     2     4
  5.7144764119366344E-02 a      1185     1     9     2     5
 -1.5479682834536188E-01 a      1186     1     9     2     6
  7.6285750975893851E-02 a      1187     1     9     2     7
  4.4640146704505024E-01 a      1188     1     9     2     8
 -2.4642249160663388E-01 a      1189     1     9     2     9
  5.4670333440351504E-01 a      1190     1     9     2    10
 -3.3782160005687450E-01 a      1191     1     9     2    11
  6.0033575671902373E-01 a      1192     1     9     2    12
  2.5623841141962417E-01 a      1193     1     9     2    13
 -8.9549133769400158E-02 a      1194     1     9     2    14
  4.3836937692670785E-01 a      1195     1     9     2    15
 -3.1225606165992648E-01 a      1196     1     9     2    16
  1.8006754382687243E-01 a      1197     1     9     2    17
 -6.6292680578154267E-02 a      1198     1     9     2    18
 -5.4294597709026327E-01 a      1199     1     9     2    19
  7.2525460633306471E-01 a      1200     1     9     2    20
  1.8976223072505533E-01 a      1201     1    10     2     1
  4.2258929712289672E-01 a      1202     1    10     2     2
 -4.3009565123112298E-01 a      1203     1    10     2     3
 -1.0296579199478612E-01 a      1204     1    10     2     4
  7.2714645415236401E-01 a      1205     1    10     2     5
  1.0358467411494721E+00 a      1206     1    10     2     6
 -5.0162323737812253E-01 a      1207     1    10     2     7
  4.9439748097877718E-02 a      1208     1    10     2     8
 -1.4523723141369316E-01 a      1209     1    10     2     9
  5.2027864078081021E-01 a      1210     1    10     2    10
 -3.9167366122077357E-01 a      1211     1    10     2    11
  7.6841957944654382E-01 a      1212     1    10     2    12
  1.8209300023426131E-01 a      1213     1    10     2    13
  4.8708979926534911E-02 a      1214     1    10     2    14
 -2.1458121532572008E-01 a      1215     1    10     2    15
  3.2132599760907689E-02 a      1216     1    10     2    16
  4.6182039201105196E-01 a      1217     1    10     2    17
  6.9585975458583926E-01 a      1218     1    10     2    18
 -6.1666093108502196E-01 a      1219     1    10     2    19
  3.4716075227724941E-01 a      1220     1    10     2    20
  5.7584397579676827E-01 a      1221     1    11     2     1
  2.0422593532963221E-01 a      1222     1    11     2     2
  3.8023815210170120E-01 a      1223     1    11     2     3
  3.7569555217772627E-01 a      1224     1    11     2     4
  3.4535573311332629E-01 a      1225     1    11     2     5
 -2.6262621000474734E-01 a      1226     1    11     2     6
 -4.3437575618539115E-01 a      1227     1    11     2     7
 -2.1004956596381100E-01 a      1228     1    11     2     8
 -3.4182140535867400E-01 a      1229     1    11     2     9
 -4.9288629238002352E-01 a      1230     1    11     2    10
 -1.2211701426719650E-01 a      1231     1    11     2    11
 -1.2749132390110807E-01 a      1232     1    11     2    12
 -7.1765987604440995E-01 a      1233     1    11     2    13
 -3.1915907742848965E-01 a      1234     1    11     2    14
 -1.7399951865172669E-01 a      1235     1    11     2    15
  7.1601706614294533E-02 a      1236     1    11     2    16
  3.5667993855621399E-01 a      1237     1    11     2    17
  2.0916181326053934E-01 a      1238     1    11     2    18
  1.6256806122877721E-01 a      1239     1    11     2    19
  6.3127314101523513E-01 a      1240     1    11     2    20
  2.2642403564479149E-01 a      1241     1    12     2     1
  1.3800269545580784E-02 a      1242     1    12     2     2
 -2.0033804200174843E-01 a      1243     1    12     2     3
 -2.2215372079433132E-01 a      1244     1    12     2     4
 -1.3261984599354032E-01 a      1245     1    12     2     5
  7.3005328853521692E-02 a      1246     1    12     2     6
  4.1533836736309049E-01 a      1247     1    12     2     7
  1.7832015485042668E-01 a      1248     1    12     2     8
  6.4092117793658143E-01 a      1249     1    12     2     9
 -4.2082225457373557E-02 a      1250     1    12     2    10
  3.6253034016659712E-02 a      1251     1    12     2    11
 -2.6661581906772719E-01 a      1252     1    12     2    12
 -1.6847948553518077E-01 a      1253     1    12     2    13
  1.9176092317943920E-02 a      1254     1    12     2    14
 -2.1932290025313850E-01 a      1255     1    12     2    15
 -3.7721566330905193E-01 a      1256     1    12     2    16
  3.1220576232621894E-01 a      1257     1    12     2    17
 -2.7600790366287514E-01 a      1258     1    12     2    18
  2.7251367256031975E-02 a      1259     1    12     2    19
  4.1367426281392544E-01 a      1260     1    12     2    20
 -6.1044595783517441E-01 a      1261     1    13     2     1
 -1.7834005026435079E-01 a      1262     1    13     2     2
  9.1665215032546279E-02 a      1263     1    13     2     3
  5.5842713190623816E-01 a      1264     1    13     2     4
  2.9367383557923743E-01 a      1265     1    13     2     5
 -3.4627860343073691E-01 a      1266     1    13     2     6
 -8.7952532263849276E-02 a      1267     1    13     2     7
  7.7127712183782185E-02 a      1268     1    13     2     8
 -1.1325133325269264E-01 a      1269     1    13     2     9
  3.0248660410893424E-01 a      1270     1    13     2    10
  2.3420093759703112E-02 a      1271     1    13     2    11
 -2.0275647443714473E-01 a      1272     1    13     2    12
  3.9903677092260648E-01 a      1273     1    13     2    13
 -2.5474248136640087E-01 a      1274     1    13     2    14
 -4.6191415625016197E-01 a      1275     1    13     2    15
  3.1458083898106559E-01 a      1276     1    13     2    16
 -3.9300028450178404E-01 a      1277     1    13     2    17
  1.6474150790356853E-01 a      1278     1    13     2    18
  5.2687059722284513E-01 a      1279     1    13     2    19
  2.4465693603169004E-02 a      1280     1    13     2    20
  2.5054498266169456E-01 a      1281     1    14     2     1
 -3.8552934111836706E-01 a      1282     1    14     2     2
  4.5121848273694432E-01 a      1283     1    14     2     3
  1.8051813478541334E-01 a      1284     1    14     2     4
 -8.6631586816794148E-01 a      1285     1    14     2     5
  8.0320928089590726E-01 a      1286     1    14     2     6
 -2.7297705426478069E-01 a      1287     1    14     2     7
  2.9685093167410567E-02 a      1288     1    14     2     8
 -1.1502296169377453E-01 a      1289     1    14     2     9
  2.3291678346612690E-01 a      1290     1    14     2    10
  5.6377720963806321E-01 a      1291     1    14     2    11
 -6.5112727713332397E-01 a      1292     1    14     2    12
 -4.8395327390779513E-01 a      1293     1    14     2    13
 -6.7385276734721655E-01 a      1294     1    14     2    14
  1.3927162580135419E-01 a      1295     1    14     2    15
 -2.1683501038518627E-01 a      1296     1    14     2    16
  3.6535948462500167E-01 a      1297     1    14     2    17
  7.7042597074824160E-01 a      1298     1    14     2    18
  6.4961323036600827E-01 a      1299     1    14     2    19
 -2.3311882688750613E-01 a      1300     1    14     2    20
 -1.0545428104480907E-02 a      1301     1    15     2     1
 -6.1178036206674102E-01 a      1302     1    15     2     2
 -4.7119782453641729E-01 a      1303     1    15     2     3
  5.1382406052554186E-01 a      1304     1    15     2     4
  8.8596524321049919E-01 a      1305     1    15     2     5
 -4.2756268474810127E-01 a      1306     1    15     2     6
 -5.9932491793320908E-01 a      1307     1    15     2     7
  2.6882493462513113E-01 a      1308     1    15     2     8
 -1.8996091948945426E-01 a      1309     1    15     2     9
  3.1903696313332847E-01 a      1310     1    15     2    10
 -6.0040792479792819E-02 a      1311     1    15     2    11
 -2.8129290978538078E-02 a      1312     1    15     2    12
 -2.2651354946547872E-01 a      1313     1    15     2    13
  1.9683354079201659E-01 a      1314     1    15     2    14
  2.6247856767467770E-01 a      1315     1    15     2    15
 -6.5446970201985299E-01 a      1316     1    15     2    16
 -3.9925435372842370E-02 a      1317     1    15     2    17
  7.4062298957965012E-01 a      1318     1    15     2    18
 -1.4065742122987246E+00 a      1319     1    15     2    19
  1.8672651454715125E-02 a      1320     1    15     2    20
 -2.7294871736588200E-01 a      1321     1    16     2     1
 -6.5589816972428139E-01 a      1322     1    16     2     2
  6.9085216406372163E-02 a      1323     1    16     2     3
 -1.4316967392843286E-01 a      1324     1    16     2     4
  2.6047631946857952E-01 a      1325     1    16     2     5
  3.3637133988374292E-02 a      1326     1    16     2     6
  7.2027109971887091E-02 a      1327     1    16     2     7
  4.4291539188714556E-02 a      1328     1    16     2     8
  3.4697557087200043E-01 a      1329     1    16     2     9
  3.6879600931136625E-01 a      1330     1    16     2    10
  1.0822324312688811E-01 a      1331     1    16     2    11
 -2.3655842102099850E-01 a      1332     1    16     2    12
  1.8070764668030334E-01 a      1333     1    16     2    13
 -4.3918695877961000E-01 a      1334     1    16     2    14
  5.5323390225848834E-01 a      1335     1    16     2    15
 -4.5418844526607571E-01 a      1336     1    16     2    16
  3.4480850676180903E-02 a      1337     1    16     2    17
  2.7745597556604740E-01 a      1338     1    16     2    18
 -7.4414217982338737E-01 a      1339     1    16     2    19
 -5.5096782266116784E-01 a      1340     1    16     2    20
 -4.4303598492831686E-01 a      1341     1    17     2     1
 -9.0203434056163559E-02 a      1342     1    17     2     2
  5.5052314325675944E-01 a      1343     1    17     2     3
 -4.5806850431968693E-02 a      1344     1    17     2     4
 -2.4217830621008241E-01 a      1345     1    17     2     5
  1.9498974428569524E-01 a      1346     1    17     2     6
 -8.4604394531044416E-02 a      1347     1    17     2     7
 -1.0493423982164893E-01 a      1348     1    17     2     8
 -4.1689705434489444E-01 a      1349     1    17     2     9
  3.1481776153471841E-01 a      1350     1    17     2    10
  4.7444078396349515E-01 a      1351     1    17     2    11
  2.5262727998847029E-01 a      1352     1    17     2    12
  4.5888974631700902E-01 a      1353     1    17     2    13
  5.8370919363751973E-02 a      1354     1    17     2    14
  2.7265176456534207E-01 a      1355     1    17     2    15
  4.4970160037698553E-01 a      1356     1    17     2    16
  1.0218363467896757E-01 a      1357     1    17     2    17
 -2.8954210577716516E-01 a      1358     1    17     2    18
  2.0132096967575300E-01 a      1359     1    17     2    19
 -2.5711550446992604E-01 a      1360     1    17     2    20
  5.4446338017454132E-01 a      1361     1    18     2     1
 -3.0340184815982715E-02 a      1362     1    18     2     2
  5.5358256548924989E-01 a      1363     1    18     2     3
  6.1390638389012320E-01 a      1364     1    18     2     4
  8.6432763645282976E-02 a      1365     1    18     2     5
  2.6067164512802593E-01 a      1366     1    18     2     6
 -1.7631754417970227E-01 a      1367     1    18     2     7
 -7.0692866362762874E-01 a      1368     1    18     2     8
  5.0278936711134348E-01 a      1369     1    18     2     9
  4.3775376603884524E-02 a      1370     1    18     2    10
  3.1331742839764315E-01 a      1371     1    18     2    11
 -5.7235349173643935E-01 a      1372     1    18     2    12
 -7.8672521530509143E-01 a      1373     1    18     2    13
  4.9597580528850743E-01 a      1374     1    18     2    14
 -2.7673666882765741E-01 a      1375     1    18     2    15
  5.9202711327611890E-01 a      1376     1    18     2    16
  2.6360057198006920E-01 a      1377     1    18     2    17
 -2.9972956882055096E-01 a      1378     1    18     2    18
 -4.8748784143042256E-01 a      1379     1    18     2    19
 -6.5737631627772242E-01 a      1380     1    18     2    20
  5.0853343438020526E-01 a      1381     1    19     2     1
  8.4381276138503369E-01 a      1382     1    19     2     2
 -3.9287479336364201E-01 a      1383     1    19     2     3
  5.4381093342421771E-01 a      1384     1    19     2     4
  6.5689164727082236E-02 a      1385     1    19     2     5
  4.6206354080944595E-01 a      1386     1    19     2     6
 -5.2274446357870508E-01 a      1387     1    19     2     7
  3.4234867912031119E-01 a      1388     1    19     2     8
 -5.9698023110831688E-01 a      1389     1    19     2     9
  5.0940308763397824E-01 a      1390     1    19     2    10
 -4.6816228253086195E-01 a      1391     1    19     2    11
 -1.0729109060955410E-02 a      1392     1    19     2    12
 -7.9750689737064701E-02 a      1393     1    19     2    13
 -3.4051459391792777E-01 a      1394     1    19     2    14
 -4.2818915719665246E-01 a      1395     1    19     2    15
 -7.0644831621977588E-01 a      1396     1    19     2    16
 -2.7518277198249619E-01 a      1397     1    19     2    17
  2.8407767905609932E-01 a      1398     1    19     2    18
 -3.1499389556318041E-01 a      1399     1    19     2    19
  5.5627367583650356E-01 a      1400     1    19     2    20
 -4.1744376256827925E-01 a      1401     1    20     2     1
  4.3558754453121118E-01 a      1402     1    20     2     2
 -4.5135295947544696E-01 a      1403     1    20     2     3
 -6.0419875804621381E-02 a      1404     1    20     2     4
  1.1081428636629562E-01 a      1405     1    20     2     5
 -5.2039717091376958E-01 a      1406     1    20     2     6
  5.4968804286128348E-01 a      1407     1    20     2     7
  4.0168254211317428E-01 a      1408     1    20     2     8
 -1.9822205577983995E-01 a      1409     1    20     2     9
  3.6685333408721194E-01 a      1410     1    20     2    10
  2.6761542785366338E-01 a      1411     1    20     2    11
  2.8006629044423331E-01 a      1412     1    20     2    12
  1.9886622462749479E-01 a      1413     1    20     2    13
 -4.7308713114458373E-01 a      1414     1    20     2    14
 -3.2142066349762188E-01 a      1415     1    20     2    15
 -6.4412423290524801E-01 a      1416     1    20     2    16
 -1.4781142479091439E-01 a      1417     1    20     2    17
  7.8987861168793638E-01 a      1418     1    20     2    18
 -3.1174051601875041E-01 a      1419     1    20     2    19
  6.3582015777329337E-01 a      1420     1    20     2    20
 -4.8370811817738452E-01 b      1421     2     1
 -5.8716025305607378E-01 b      1422     2     2
 -9.2148984213049412E-01 b      1423     2     3
  1.0585202929534314E+00 b      1424     2     4
 -1.2045920922333593E+00 b      1425     2     5
  2.8055537631893692E-02 b      1426     2     6
 -1.3673059929424110E-02 b      1427     2     7
 -9.6135006079326513E-01 b      1428     2     8
  1.4242777023976136E+00 b      1429     2     9
 -1.5092537540580016E+00 b      1430     2    10
  2.6769482530364230E-01 b      1431     2    11
  8.2059488042351347E-01 b      1432     2    12
  6.4779722014536467E-01 b      1433     2    13
 -5.7704572521327668E-01 b      1434     2    14
  1.0943923123531580E+00 b      1435     2    15
 -1.2225019448713852E+00 b      1436     2    16
  6.1350311961742976E-01 b      1437     2    17
 -1.4537619611519652E+00 b      1438     2    18
 -2.0059615575755285E-01 b      1439     2    19
  9.6820350266243610E-02 b      1440     2    20
  5.5039582026450706E-01 a      1441     2     1     3     1
 -2.4790104866881232E-01 a      1442     2     2     3     1
 -2.7340124204573268E-02 a      1443     2     3     3     1
  9.2155050320440399E-03 a      1444     2     4     3     1
 -6.1701933103627975E-02 a      1445     2     5     3     1
 -9.4473145005513712E-03 a      1446     2     6     3     1
 -1.7887375690034985E-02 a      1447     2     7     3     1
 -5.4735968252173561E-01 a      1448     2     8     3     1
 -8.8110688252976022E-01 a      1449     2     9     3     1
  4.9133499804182218E-01 a      1450     2    10     3     1
 -1.8096083534031016E-01 a      1451     2    11     3     1
  6.0722866992275408E-02 a      1452     2    12     3     1
 -1.3221752209497292E-01 a      1453     2    13     3     1
 -3.5693945910223118E-01 a      1454     2    14     3     1
 -5.0267857444381636E-01 a      1455     2    15     3     1
 -1.1933613950222964E-01 a      1456     2    16     3     1
 -3.4289426406566798E-01 a      1457     2    17     3     1
  1.2905561838716924E+00 a      1458     2    18     3     1
  9.7962041248780996E-01 a      1459     2    19     3     1
  2.3736073894523016E-01 a      1460     2    20     3     1
 -1.4573080055927830E+00 b      1461     3     1
