################################################################################
# Neural network connection values (weights and biases).
################################################################################
# Col  Name       Description
################################################################################
# 1    connection Neural network connection value.
# 2    t          Connection type (a = weight, b = bias).
# 3    index      Index enumerating weights.
# 4    l_s        Starting point layer (end point layer for biases).
# 5    n_s        Starting point neuron in starting layer (end point neuron for biases).
# 6    l_e        End point layer.
# 7    n_e        End point neuron in end layer.
################################################################################
#                      1 2         3     4     5     6     7
#             connection t     index   l_s   n_s   l_e   n_e
############################################################
  7.0372006489301614E-02 a         1     0     1     1     1
 -1.9171315157983249E-01 a         2     0     1     1     2
 -1.2477781850597806E-01 a         3     0     1     1     3
  4.1161551465781637E-01 a         4     0     1     1     4
 -1.2365333966749828E-01 a         5     0     1     1     5
 -4.7268572816116114E-02 a         6     0     1     1     6
 -6.8886305219986166E-01 a         7     0     1     1     7
 -7.0722267355575644E-02 a         8     0     1     1     8
 -7.4605671770687665E-02 a         9     0     1     1     9
  9.0525054164662860E-02 a        10     0     1     1    10
 -4.2748467830697723E-01 a        11     0     1     1    11
  1.3813592902847133E-01 a        12     0     1     1    12
  4.0928925777329611E-01 a        13     0     1     1    13
 -4.8238468997000750E-01 a        14     0     1     1    14
 -1.0226939127073612E-01 a        15     0     1     1    15
  3.4909363172707547E-01 a        16     0     1     1    16
 -5.2036008647217047E-01 a        17     0     1     1    17
  4.2722563351218945E-01 a        18     0     1     1    18
 -9.5464437885821887E-02 a        19     0     1     1    19
  5.1956272737131570E-01 a        20     0     1     1    20
 -4.4214922356025699E-02 a        21     0     2     1     1
  9.9906729385095913E-02 a        22     0     2     1     2
 -2.2779069098015293E-02 a        23     0     2     1     3
 -9.5848299731796288E-02 a        24     0     2     1     4
  4.1393084656387726E-02 a        25     0     2     1     5
 -2.5754344634625936E-01 a        26     0     2     1     6
  5.8481658619159060E-01 a        27     0     2     1     7
  1.6039837616135755E-01 a        28     0     2     1     8
  2.7763925031432296E-01 a        29     0     2     1     9
 -1.9210711862050944E-01 a        30     0     2     1    10
  1.9719529729986132E-01 a        31     0     2     1    11
 -1.4765660307979578E-02 a        32     0     2     1    12
  4.3276343096621872E-01 a        33     0     2     1    13
 -2.2635247384371673E-01 a        34     0     2     1    14
  8.3368518915868317E-01 a        35     0     2     1    15
 -8.2537042364852153E-02 a        36     0     2     1    16
 -4.6630352911791251E-01 a        37     0     2     1    17
 -3.7179533469765308E-01 a        38     0     2     1    18
  1.6068911122326851E-01 a        39     0     2     1    19
 -1.0556768812589160E-01 a        40     0     2     1    20
  3.0655198546483453E-01 a        41     0     3     1     1
 -7.7459687141447436E-02 a        42     0     3     1     2
 -2.5427669015332255E-01 a        43     0     3     1     3
  9.5530320944850963E-02 a        44     0     3     1     4
 -3.4627852071580603E-02 a        45     0     3     1     5
  1.7545893159028367E-01 a        46     0     3     1     6
  1.5481389061880890E-01 a        47     0     3     1     7
  1.6344022879762160E-01 a        48     0     3     1     8
 -2.5131715746102251E-01 a        49     0     3     1     9
  9.0128819627857126E-03 a        50     0     3     1    10
 -3.4930063237042797E-01 a        51     0     3     1    11
  1.2485571287841939E-01 a        52     0     3     1    12
 -1.4600803537559981E-01 a        53     0     3     1    13
 -2.4248248738971748E-02 a        54     0     3     1    14
 -1.9252642670021328E-01 a        55     0     3     1    15
 -1.1670374312735345E-01 a        56     0     3     1    16
 -2.1190680647962237E-01 a        57     0     3     1    17
  4.6480432704951717E-02 a        58     0     3     1    18
  1.9378939060237815E-01 a        59     0     3     1    19
 -1.5205131614269002E-01 a        60     0     3     1    20
 -1.2585559964618456E-01 a        61     0     4     1     1
  4.9291368039454242E-01 a        62     0     4     1     2
  2.4078933723354295E-01 a        63     0     4     1     3
 -3.1207427903406554E-01 a        64     0     4     1     4
  2.3009657673744352E-01 a        65     0     4     1     5
  1.6015875168191596E-01 a        66     0     4     1     6
  6.1190446483783800E-01 a        67     0     4     1     7
 -1.1382979538412644E-02 a        68     0     4     1     8
 -2.0960332554006494E-01 a        69     0     4     1     9
 -1.8839652713042851E-01 a        70     0     4     1    10
 -3.7674371671201190E-01 a        71     0     4     1    11
 -4.3529980366924043E-02 a        72     0     4     1    12
 -3.9035602382491608E-01 a        73     0     4     1    13
 -3.0059441548225579E-02 a        74     0     4     1    14
  1.4298037330307989E-01 a        75     0     4     1    15
  3.7909987703054543E-01 a        76     0     4     1    16
 -9.1781629982066001E-02 a        77     0     4     1    17
 -2.2767396402713636E-03 a        78     0     4     1    18
 -3.1675749198254069E-02 a        79     0     4     1    19
 -3.0068367769280069E-02 a        80     0     4     1    20
 -5.9696122915639416E-01 a        81     0     5     1     1
 -2.6819631126626220E-01 a        82     0     5     1     2
  2.6779699760609910E-01 a        83     0     5     1     3
  1.6442889653244634E-02 a        84     0     5     1     4
  9.2423727126074218E-02 a        85     0     5     1     5
  6.3237842034925196E-01 a        86     0     5     1     6
 -4.7716286058838063E-02 a        87     0     5     1     7
 -5.5762791991977180E-02 a        88     0     5     1     8
 -3.0385093871220953E-01 a        89     0     5     1     9
 -1.0996583034883649E-01 a        90     0     5     1    10
  7.2601120735672264E-02 a        91     0     5     1    11
 -1.8914462204540902E-01 a        92     0     5     1    12
 -3.5068391014819296E-02 a        93     0     5     1    13
  2.2431537902435678E-01 a        94     0     5     1    14
 -3.2049719704823371E-01 a        95     0     5     1    15
  1.8801176771577929E-01 a        96     0     5     1    16
  1.4564395980422881E-01 a        97     0     5     1    17
  4.4378031450599525E-01 a        98     0     5     1    18
  2.7720891895187733E-01 a        99     0     5     1    19
  1.1656422266221794E-01 a       100     0     5     1    20
 -1.6131000051196626E-01 a       101     0     6     1     1
 -7.0618585338746718E-03 a       102     0     6     1     2
  1.1966817063406007E-02 a       103     0     6     1     3
 -7.9642825153647678E-02 a       104     0     6     1     4
 -3.6228987537442170E-01 a       105     0     6     1     5
  1.8514124972848139E-01 a       106     0     6     1     6
  2.1313766484644822E-01 a       107     0     6     1     7
  1.5840511757982062E-01 a       108     0     6     1     8
  1.8570078976822574E-01 a       109     0     6     1     9
 -3.5406116654971995E-02 a       110     0     6     1    10
 -1.7813237484412631E-01 a       111     0     6     1    11
 -4.1060101924105308E-01 a       112     0     6     1    12
  2.6017729924333453E-02 a       113     0     6     1    13
  2.0856711889057175E-01 a       114     0     6     1    14
  1.2403535154403487E-01 a       115     0     6     1    15
  3.1453428040848080E-01 a       116     0     6     1    16
 -3.9441067105474042E-01 a       117     0     6     1    17
  2.5084972644619330E-01 a       118     0     6     1    18
 -1.3396725868692327E-01 a       119     0     6     1    19
  1.4326143930097912E-01 a       120     0     6     1    20
  1.0936150838953852E-01 a       121     0     7     1     1
 -1.3063314626652012E-01 a       122     0     7     1     2
 -2.5069579982139512E-01 a       123     0     7     1     3
  3.2922742219169293E-01 a       124     0     7     1     4
 -2.1811650990761891E-01 a       125     0     7     1     5
 -4.3736393821247194E-01 a       126     0     7     1     6
 -3.6027189498358736E-01 a       127     0     7     1     7
  1.7818111232016479E-01 a       128     0     7     1     8
  1.7683566677807444E-01 a       129     0     7     1     9
  1.3109469073031163E-02 a       130     0     7     1    10
  8.5675918724995326E-01 a       131     0     7     1    11
 -1.6849033814380907E-01 a       132     0     7     1    12
 -2.7446618697422209E-01 a       133     0     7     1    13
  2.5672047192270758E-01 a       134     0     7     1    14
 -9.6072529003154439E-02 a       135     0     7     1    15
 -5.8165322372210793E-01 a       136     0     7     1    16
  3.7026128636389821E-02 a       137     0     7     1    17
  2.9850574048914541E-01 a       138     0     7     1    18
  1.4672405347986012E-01 a       139     0     7     1    19
 -1.8275800018353886E-02 a       140     0     7     1    20
 -6.2117904405413829E-02 a       141     0     8     1     1
 -1.1094712420984885E-01 a       142     0     8     1     2
 -7.2903767253625087E-02 a       143     0     8     1     3
  5.7289146449868239E-02 a       144     0     8     1     4
 -2.5950078893607925E-02 a       145     0     8     1     5
 -6.3680124512994749E-02 a       146     0     8     1     6
  3.1665016795133766E-01 a       147     0     8     1     7
 -3.0963198722471063E-02 a       148     0     8     1     8
  3.8384101490068594E-02 a       149     0     8     1     9
  2.2991979003499202E-01 a       150     0     8     1    10
  3.8070458385411288E-01 a       151     0     8     1    11
  2.7410563503150442E-01 a       152     0     8     1    12
  3.0506228311177158E-01 a       153     0     8     1    13
 -2.2456467012325615E-01 a       154     0     8     1    14
 -8.6444089511818395E-02 a       155     0     8     1    15
 -9.4503582403686545E-02 a       156     0     8     1    16
  3.2372392950358375E-02 a       157     0     8     1    17
 -3.0467957571292958E-01 a       158     0     8     1    18
  5.9768002102025292E-02 a       159     0     8     1    19
  9.1367610287837478E-02 a       160     0     8     1    20
  1.0010070169503575E-01 a       161     0     9     1     1
  5.2502884044597027E-02 a       162     0     9     1     2
 -5.0659317263155174E-02 a       163     0     9     1     3
  1.5440990258414480E-01 a       164     0     9     1     4
  1.7092465712344415E-01 a       165     0     9     1     5
 -4.2148856733610740E-02 a       166     0     9     1     6
 -2.1199903506012743E-01 a       167     0     9     1     7
  1.8643141155925333E-01 a       168     0     9     1     8
  1.8892031589369343E-01 a       169     0     9     1     9
 -1.7645676779732403E-01 a       170     0     9     1    10
  7.0672919838683679E-02 a       171     0     9     1    11
 -2.2925195069279692E-02 a       172     0     9     1    12
 -2.5355475546326106E-01 a       173     0     9     1    13
 -6.0455376412478633E-02 a       174     0     9     1    14
 -8.8256372201542366E-02 a       175     0     9     1    15
 -7.2243201227643911E-02 a       176     0     9     1    16
 -5.7887485792894315E-02 a       177     0     9     1    17
 -2.0913796955522779E-01 a       178     0     9     1    18
  2.8191228358072856E-01 a       179     0     9     1    19
 -2.0682738228359071E-01 a       180     0     9     1    20
 -4.1207196427722415E-01 a       181     0    10     1     1
  4.3648578526218934E-01 a       182     0    10     1     2
  9.3455241363663441E-02 a       183     0    10     1     3
 -1.0275415689618950E-01 a       184     0    10     1     4
  2.2625197103182820E-01 a       185     0    10     1     5
  1.1744750870030950E-01 a       186     0    10     1     6
 -1.3389927225380324E-01 a       187     0    10     1     7
  2.3492641827387870E-01 a       188     0    10     1     8
  1.4261860515424166E-01 a       189     0    10     1     9
 -2.0847717064684260E-01 a       190     0    10     1    10
 -4.6308426512397188E-01 a       191     0    10     1    11
  7.3912009785520094E-02 a       192     0    10     1    12
  1.9591111119806220E-01 a       193     0    10     1    13
 -3.9708018470064282E-01 a       194     0    10     1    14
  3.2591092328659921E-01 a       195     0    10     1    15
  7.1614646763601442E-01 a       196     0    10     1    16
 -3.0954888236084588E-01 a       197     0    10     1    17
 -1.1012950878821695E-01 a       198     0    10     1    18
  1.6694488429768967E-02 a       199     0    10     1    19
  4.2376650504133639E-02 a       200     0    10     1    20
  3.4097148075981426E-01 a       201     0    11     1     1
 -2.4346705058363310E-01 a       202     0    11     1     2
 -3.0957875272773355E-01 a       203     0    11     1     3
  2.6438878912049163E-01 a       204     0    11     1     4
 -2.3877663449656827E-01 a       205     0    11     1     5
  4.5377602691067781E-01 a       206     0    11     1     6
 -2.0708953434595140E-02 a       207     0    11     1     7
  1.5575867344011543E-01 a       208     0    11     1     8
 -6.3139713297827568E-02 a       209     0    11     1     9
 -1.9058641190222522E-01 a       210     0    11     1    10
 -5.3305573335970517E-02 a       211     0    11     1    11
 -1.1065261852886378E-01 a       212     0    11     1    12
  2.2028387435053531E-03 a       213     0    11     1    13
  6.4425041127472077E-02 a       214     0    11     1    14
  3.1351520252670517E-01 a       215     0    11     1    15
  1.7076495902211028E-01 a       216     0    11     1    16
  1.1234645342012080E-01 a       217     0    11     1    17
  6.0032756603390670E-02 a       218     0    11     1    18
  5.6103891914447403E-02 a       219     0    11     1    19
 -1.8240449099747569E-01 a       220     0    11     1    20
 -2.7903691992098523E-01 a       221     0    12     1     1
 -1.6947595474573540E-01 a       222     0    12     1     2
  4.1438539995947050E-02 a       223     0    12     1     3
  3.0671873688917495E-03 a       224     0    12     1     4
 -2.8934436315152084E-01 a       225     0    12     1     5
  1.1831668641927368E-01 a       226     0    12     1     6
  1.6717144587773625E-01 a       227     0    12     1     7
 -8.9043134876109209E-02 a       228     0    12     1     8
  1.5519197291453485E-02 a       229     0    12     1     9
  1.5815535894044067E-01 a       230     0    12     1    10
  3.0812953717074910E-02 a       231     0    12     1    11
 -8.4644609207246202E-02 a       232     0    12     1    12
  2.3107490887745297E-01 a       233     0    12     1    13
  9.8243229365052986E-03 a       234     0    12     1    14
 -1.0679314741378283E-04 a       235     0    12     1    15
  5.8525061445557650E-02 a       236     0    12     1    16
 -5.3365731226001467E-02 a       237     0    12     1    17
  3.9874909304441104E-02 a       238     0    12     1    18
 -6.6622611788473965E-02 a       239     0    12     1    19
  7.7376712129238787E-02 a       240     0    12     1    20
  1.6606850556116531E-01 a       241     0    13     1     1
 -2.0044502972252350E-02 a       242     0    13     1     2
 -2.4875737705578896E-01 a       243     0    13     1     3
 -2.0911639684447026E-02 a       244     0    13     1     4
 -8.0701010097747244E-02 a       245     0    13     1     5
 -2.7448598449949291E-01 a       246     0    13     1     6
  1.0120673349048617E-01 a       247     0    13     1     7
 -9.8546287737461782E-02 a       248     0    13     1     8
 -1.2352858462033538E-01 a       249     0    13     1     9
 -9.8042723898240938E-02 a       250     0    13     1    10
  1.5487683184744364E-01 a       251     0    13     1    11
 -1.4877536140638187E-01 a       252     0    13     1    12
 -8.0452252891644607E-02 a       253     0    13     1    13
  1.3311493793990573E-01 a       254     0    13     1    14
 -2.6194035974340396E-01 a       255     0    13     1    15
 -2.5538978448914956E-01 a       256     0    13     1    16
 -6.2882690155232915E-02 a       257     0    13     1    17
  4.3323046660328390E-01 a       258     0    13     1    18
 -3.6998518747326840E-02 a       259     0    13     1    19
 -8.0325447885793266E-02 a       260     0    13     1    20
  1.6900310061241006E-01 a       261     0    14     1     1
 -6.0253319873756588E-02 a       262     0    14     1     2
  5.6251490333341793E-02 a       263     0    14     1     3
 -1.6982251491488128E-02 a       264     0    14     1     4
 -8.1800326142754162E-02 a       265     0    14     1     5
  5.5885552482417597E-02 a       266     0    14     1     6
  6.0469545263966910E-02 a       267     0    14     1     7
  5.0313519094796005E-02 a       268     0    14     1     8
  1.2696907594795653E-01 a       269     0    14     1     9
  2.7326581802314326E-01 a       270     0    14     1    10
 -4.7961025994531122E-02 a       271     0    14     1    11
  1.6751035311548784E-01 a       272     0    14     1    12
  7.0567489262363114E-02 a       273     0    14     1    13
 -5.1665187001154911E-02 a       274     0    14     1    14
 -8.8526518549434968E-02 a       275     0    14     1    15
 -4.3698966286114055E-02 a       276     0    14     1    16
 -7.0323789969179373E-02 a       277     0    14     1    17
 -2.7772842313069157E-01 a       278     0    14     1    18
  3.3814923863681859E-02 a       279     0    14     1    19
  7.4619094947929898E-02 a       280     0    14     1    20
  2.6550899006832784E-01 a       281     0    15     1     1
  1.2787667589148627E-01 a       282     0    15     1     2
 -1.4451453043955118E-01 a       283     0    15     1     3
  8.6366959748287508E-02 a       284     0    15     1     4
  1.9148892541308507E-01 a       285     0    15     1     5
 -4.2988465951254329E-02 a       286     0    15     1     6
 -6.2242472320023147E-02 a       287     0    15     1     7
 -2.5977197008448426E-02 a       288     0    15     1     8
  3.6244050725206686E-02 a       289     0    15     1     9
 -1.7434466285343198E-01 a       290     0    15     1    10
  4.6015975185804969E-03 a       291     0    15     1    11
 -1.2957667540644452E-01 a       292     0    15     1    12
 -2.7762451583790617E-02 a       293     0    15     1    13
 -7.1948770629847716E-03 a       294     0    15     1    14
  7.1843172046497122E-02 a       295     0    15     1    15
 -2.8223462311735812E-02 a       296     0    15     1    16
  9.3521826103523720E-02 a       297     0    15     1    17
 -4.4185556109526812E-02 a       298     0    15     1    18
  5.6749897742495205E-02 a       299     0    15     1    19
  7.9732581914923384E-02 a       300     0    15     1    20
 -6.0908502486186310E-02 a       301     0    16     1     1
  6.1861289095993623E-02 a       302     0    16     1     2
 -3.4366542833958097E-02 a       303     0    16     1     3
  3.0104768329978072E-05 a       304     0    16     1     4
  1.0596823655396548E-01 a       305     0    16     1     5
  5.0657484830684239E-02 a       306     0    16     1     6
 -9.5743286788740847E-02 a       307     0    16     1     7
 -1.7835538980322257E-01 a       308     0    16     1     8
  4.7446697735468675E-02 a       309     0    16     1     9
  5.4524180154765858E-02 a       310     0    16     1    10
 -4.6454924145871837E-02 a       311     0    16     1    11
  1.5722188291346673E-01 a       312     0    16     1    12
 -5.1770372172504193E-02 a       313     0    16     1    13
 -1.4239958810918890E-01 a       314     0    16     1    14
  1.9445187044980378E-01 a       315     0    16     1    15
  1.5585083940414754E-01 a       316     0    16     1    16
  1.6466301184834151E-02 a       317     0    16     1    17
 -1.5419267002016718E-01 a       318     0    16     1    18
  2.8488492345634855E-02 a       319     0    16     1    19
  4.8155429905328583E-02 a       320     0    16     1    20
 -5.2528796978674137E-02 a       321     0    17     1     1
 -1.1977570382074368E-01 a       322     0    17     1     2
  1.4162253073206704E-01 a       323     0    17     1     3
  1.7013667648182704E-01 a       324     0    17     1     4
  1.3726613310866394E-02 a       325     0    17     1     5
  1.5994277211240299E-01 a       326     0    17     1     6
  9.9189364742672294E-03 a       327     0    17     1     7
  2.1501980663862469E-01 a       328     0    17     1     8
 -5.1933667453845280E-03 a       329     0    17     1     9
 -1.2136210970871178E-01 a       330     0    17     1    10
  6.6786791212899863E-02 a       331     0    17     1    11
 -1.0386118824644376E-01 a       332     0    17     1    12
 -1.9303719033141733E-02 a       333     0    17     1    13
  1.0951741731344687E-01 a       334     0    17     1    14
  1.6046065245413177E-01 a       335     0    17     1    15
 -4.4583624713037319E-02 a       336     0    17     1    16
  1.3820391106250937E-01 a       337     0    17     1    17
 -7.0602890215998262E-02 a       338     0    17     1    18
 -1.3987513760045228E-02 a       339     0    17     1    19
 -4.8509504511024863E-02 a       340     0    17     1    20
 -5.5414594279043675E-02 a       341     0    18     1     1
 -9.0074391416627944E-02 a       342     0    18     1     2
  7.5851754890310513E-02 a       343     0    18     1     3
 -2.6330733099782067E-02 a       344     0    18     1     4
 -1.1121326125008126E-01 a       345     0    18     1     5
  4.2867807946098728E-02 a       346     0    18     1     6
  6.8926609976826619E-02 a       347     0    18     1     7
  5.8543235130239816E-03 a       348     0    18     1     8
 -5.5171350124722678E-02 a       349     0    18     1     9
  8.5478723579627602E-02 a       350     0    18     1    10
 -7.2174523052016742E-02 a       351     0    18     1    11
  2.3633248161891402E-02 a       352     0    18     1    12
  3.3502527225255568E-02 a       353     0    18     1    13
  4.8172443096635660E-02 a       354     0    18     1    14
 -3.1938196554145544E-02 a       355     0    18     1    15
 -4.9042507578554252E-02 a       356     0    18     1    16
 -4.4075311349772162E-02 a       357     0    18     1    17
  2.4346215527607552E-02 a       358     0    18     1    18
 -4.4607041505838989E-02 a       359     0    18     1    19
  3.5510513576010073E-02 a       360     0    18     1    20
 -1.2571609559745242E-01 a       361     0    19     1     1
 -7.0711097619183899E-02 a       362     0    19     1     2
  1.2473854671308990E-03 a       363     0    19     1     3
 -1.2876212126479611E-01 a       364     0    19     1     4
 -4.8708772300590820E-02 a       365     0    19     1     5
 -1.1622329985823171E-01 a       366     0    19     1     6
  3.8543677152691219E-02 a       367     0    19     1     7
  3.0321690955943378E-02 a       368     0    19     1     8
 -8.3529438536314952E-03 a       369     0    19     1     9
 -3.4400394411259298E-02 a       370     0    19     1    10
  3.9159157246170792E-02 a       371     0    19     1    11
 -6.2643581894365372E-04 a       372     0    19     1    12
  6.7030213816389239E-02 a       373     0    19     1    13
 -1.5937639166231633E-02 a       374     0    19     1    14
 -1.8669723352373666E-01 a       375     0    19     1    15
 -2.4175398940706371E-02 a       376     0    19     1    16
 -3.0106109994366786E-02 a       377     0    19     1    17
  2.0202333811060397E-01 a       378     0    19     1    18
 -5.9913596931306663E-02 a       379     0    19     1    19
 -7.8763235066108661E-02 a       380     0    19     1    20
  1.3366524675050656E-01 a       381     0    20     1     1
 -2.1809284319551613E-02 a       382     0    20     1     2
 -8.0575130809481088E-02 a       383     0    20     1     3
 -1.4084685830970722E-02 a       384     0    20     1     4
 -8.5457375444208561E-02 a       385     0    20     1     5
  2.1797408289093548E-02 a       386     0    20     1     6
  5.8007579541382087E-03 a       387     0    20     1     7
  5.5456812883060626E-02 a       388     0    20     1     8
  7.1934480805117912E-02 a       389     0    20     1     9
  9.4327966852455106E-02 a       390     0    20     1    10
 -3.9714865953482961E-02 a       391     0    20     1    11
  8.0047187667981218E-02 a       392     0    20     1    12
  3.6201895690839481E-02 a       393     0    20     1    13
 -4.1943108575497205E-02 a       394     0    20     1    14
  1.3513452158762554E-02 a       395     0    20     1    15
  6.9409676322507774E-02 a       396     0    20     1    16
 -1.0841482793595084E-01 a       397     0    20     1    17
 -8.4844755917201878E-02 a       398     0    20     1    18
 -3.0909893435647449E-02 a       399     0    20     1    19
 -6.2499214610531505E-02 a       400     0    20     1    20
 -7.5866582930268517E-02 a       401     0    21     1     1
  1.3441423007562710E-02 a       402     0    21     1     2
 -3.6032974214918197E-02 a       403     0    21     1     3
  2.9447329261845345E-02 a       404     0    21     1     4
 -3.8281398788674675E-03 a       405     0    21     1     5
 -2.3049372505816536E-02 a       406     0    21     1     6
 -6.9661788778281997E-02 a       407     0    21     1     7
 -4.1779984027571597E-02 a       408     0    21     1     8
  1.3187940458614544E-01 a       409     0    21     1     9
  1.1601357301320080E-02 a       410     0    21     1    10
  1.6243518526007650E-01 a       411     0    21     1    11
  1.3858452580111282E-02 a       412     0    21     1    12
  1.8086277216997224E-02 a       413     0    21     1    13
 -4.4544760652678164E-02 a       414     0    21     1    14
  3.6021447948305141E-02 a       415     0    21     1    15
  8.1416193918193255E-02 a       416     0    21     1    16
  4.2580642786495357E-02 a       417     0    21     1    17
 -1.3721688417885169E-01 a       418     0    21     1    18
  1.0777219029048478E-02 a       419     0    21     1    19
 -1.0829121747558053E-01 a       420     0    21     1    20
 -1.2915143727125505E-01 a       421     0    22     1     1
  1.7956034328696701E-02 a       422     0    22     1     2
  4.7642167827683359E-02 a       423     0    22     1     3
 -2.3862296899032343E-02 a       424     0    22     1     4
  5.4831287503328913E-02 a       425     0    22     1     5
 -6.5364004594336148E-03 a       426     0    22     1     6
 -5.6419860579818926E-03 a       427     0    22     1     7
 -1.8282902643506779E-02 a       428     0    22     1     8
  3.3191723938344794E-03 a       429     0    22     1     9
  6.0605183150220622E-03 a       430     0    22     1    10
  7.4052115484952663E-02 a       431     0    22     1    11
  9.9381248707784697E-02 a       432     0    22     1    12
 -1.1263402493258275E-01 a       433     0    22     1    13
  3.2716898552606274E-02 a       434     0    22     1    14
  2.3651350789662157E-02 a       435     0    22     1    15
  6.2451392392790309E-04 a       436     0    22     1    16
  1.7054373996300554E-02 a       437     0    22     1    17
 -1.3406997074893759E-01 a       438     0    22     1    18
  4.0631403061428036E-03 a       439     0    22     1    19
  3.0735269586058402E-02 a       440     0    22     1    20
  3.7468251728970808E-02 a       441     0    23     1     1
 -3.8310247873590289E-02 a       442     0    23     1     2
  1.7454194943440687E-01 a       443     0    23     1     3
  1.6621532594538047E-01 a       444     0    23     1     4
  5.5094772649856696E-02 a       445     0    23     1     5
  1.0675801202764976E-01 a       446     0    23     1     6
  2.9425754041692703E-02 a       447     0    23     1     7
 -5.9181750384657658E-02 a       448     0    23     1     8
 -8.8346805529182143E-02 a       449     0    23     1     9
  8.1429001862749154E-03 a       450     0    23     1    10
  3.5568446360873191E-03 a       451     0    23     1    11
 -1.0071639552234916E-01 a       452     0    23     1    12
 -6.5906184620758965E-02 a       453     0    23     1    13
  4.3748003369115371E-02 a       454     0    23     1    14
  9.8606056355117738E-02 a       455     0    23     1    15
 -8.1913473998195332E-02 a       456     0    23     1    16
  1.2181544524864624E-01 a       457     0    23     1    17
 -7.8099260909683058E-03 a       458     0    23     1    18
  6.9504034771797609E-03 a       459     0    23     1    19
  1.2061091339377179E-01 a       460     0    23     1    20
  1.5487797141045181E-01 a       461     0    24     1     1
  2.8751944436214757E-02 a       462     0    24     1     2
  2.2681654098795486E-03 a       463     0    24     1     3
  8.9420440125808961E-03 a       464     0    24     1     4
  8.3617462885200416E-02 a       465     0    24     1     5
  2.1329525885531584E-02 a       466     0    24     1     6
  5.2815263528747582E-02 a       467     0    24     1     7
  1.0872556647365586E-01 a       468     0    24     1     8
 -9.6558328031055990E-02 a       469     0    24     1     9
 -1.0689121505856718E-01 a       470     0    24     1    10
 -1.8172888003738136E-01 a       471     0    24     1    11
 -6.6962171482600599E-02 a       472     0    24     1    12
 -2.9755434879319472E-02 a       473     0    24     1    13
  4.4678199906542190E-02 a       474     0    24     1    14
  1.7318986260958161E-06 a       475     0    24     1    15
 -7.6717957993408151E-02 a       476     0    24     1    16
 -2.6858145599844879E-02 a       477     0    24     1    17
  1.4358975640105331E-01 a       478     0    24     1    18
  1.7064629283390868E-02 a       479     0    24     1    19
  1.2747374320198612E-01 a       480     0    24     1    20
  4.2841800983577830E-02 a       481     0    25     1     1
 -3.3520934959897076E-03 a       482     0    25     1     2
 -1.7052612874460995E-02 a       483     0    25     1     3
 -5.8264279522846130E-02 a       484     0    25     1     4
 -3.3646350768816988E-02 a       485     0    25     1     5
 -2.1746909357990021E-02 a       486     0    25     1     6
 -2.6694405910250397E-02 a       487     0    25     1     7
  8.8270427252620902E-03 a       488     0    25     1     8
  1.8622054352751324E-02 a       489     0    25     1     9
  4.6118258328011960E-02 a       490     0    25     1    10
 -6.3383322908609832E-02 a       491     0    25     1    11
 -1.4289656863539314E-02 a       492     0    25     1    12
  3.5893729569546617E-02 a       493     0    25     1    13
 -5.7940447785657906E-02 a       494     0    25     1    14
 -6.4841578682748938E-02 a       495     0    25     1    15
 -1.4627569774061750E-02 a       496     0    25     1    16
 -5.6315846232421769E-03 a       497     0    25     1    17
  1.3970011090506237E-01 a       498     0    25     1    18
  3.6916735266050500E-02 a       499     0    25     1    19
 -1.3577560639928573E-02 a       500     0    25     1    20
 -1.0231872974333259E-01 a       501     0    26     1     1
 -4.3215221289662445E-02 a       502     0    26     1     2
 -6.5284910201937399E-02 a       503     0    26     1     3
 -4.4991221689073060E-02 a       504     0    26     1     4
 -5.3707264016192226E-02 a       505     0    26     1     5
 -2.0346395677670329E-02 a       506     0    26     1     6
  1.6675559887953158E-02 a       507     0    26     1     7
  6.0691305280750722E-02 a       508     0    26     1     8
  4.6729725762985591E-02 a       509     0    26     1     9
  5.4727159060335316E-03 a       510     0    26     1    10
  1.0903069127339099E-01 a       511     0    26     1    11
  6.1524258824865244E-02 a       512     0    26     1    12
  7.2694658254302227E-02 a       513     0    26     1    13
 -5.9194632778963717E-02 a       514     0    26     1    14
 -1.0513930599038154E-02 a       515     0    26     1    15
  7.8576741697194474E-02 a       516     0    26     1    16
 -5.2071699206882677E-02 a       517     0    26     1    17
  3.5014273041733498E-03 a       518     0    26     1    18
 -2.6032227831606830E-02 a       519     0    26     1    19
 -3.7489895529533017E-02 a       520     0    26     1    20
 -1.0485787432519698E-01 a       521     0    27     1     1
  7.4154993696559828E-03 a       522     0    27     1     2
  4.4569595812313104E-03 a       523     0    27     1     3
 -2.4114740780932131E-03 a       524     0    27     1     4
 -3.8221199815694731E-02 a       525     0    27     1     5
 -6.9825225613579147E-03 a       526     0    27     1     6
 -1.1805309607558153E-02 a       527     0    27     1     7
 -6.1120772190022626E-02 a       528     0    27     1     8
  3.7855394195263257E-02 a       529     0    27     1     9
  5.4133295122646682E-02 a       530     0    27     1    10
  8.7664055709970448E-02 a       531     0    27     1    11
  2.0322626099075133E-02 a       532     0    27     1    12
  1.7702388079169476E-02 a       533     0    27     1    13
 -7.2172899057733721E-03 a       534     0    27     1    14
 -2.3320276730902475E-02 a       535     0    27     1    15
  4.6816412688775129E-02 a       536     0    27     1    16
 -1.4808632821902930E-02 a       537     0    27     1    17
 -8.5590266929867154E-02 a       538     0    27     1    18
 -5.4717226937628302E-03 a       539     0    27     1    19
 -8.3870641868811588E-02 a       540     0    27     1    20
 -1.0237594727756259E-01 a       541     0    28     1     1
  2.4242700735398234E-02 a       542     0    28     1     2
  2.9302392685966582E-02 a       543     0    28     1     3
 -2.0489080846724916E-02 a       544     0    28     1     4
  5.5359325342283459E-02 a       545     0    28     1     5
 -2.7408250444665872E-02 a       546     0    28     1     6
  7.3933009750568410E-03 a       547     0    28     1     7
  4.1151305914243916E-02 a       548     0    28     1     8
  1.9980106840875228E-02 a       549     0    28     1     9
 -7.5045885502664514E-02 a       550     0    28     1    10
  5.8044719731433179E-02 a       551     0    28     1    11
  1.1999885245825594E-02 a       552     0    28     1    12
 -2.4102017468775730E-02 a       553     0    28     1    13
  3.8627074127153459E-02 a       554     0    28     1    14
 -2.0780047569271175E-02 a       555     0    28     1    15
  1.0394445728001262E-02 a       556     0    28     1    16
 -6.8144086051764472E-03 a       557     0    28     1    17
 -6.1320853351062549E-02 a       558     0    28     1    18
 -1.6006465485359306E-02 a       559     0    28     1    19
 -2.7020408396328703E-03 a       560     0    28     1    20
  1.7067209421325871E-01 a       561     0    29     1     1
  5.8836844203506425E-03 a       562     0    29     1     2
  1.2703913081574083E-03 a       563     0    29     1     3
  1.0102572378304726E-01 a       564     0    29     1     4
 -1.9562536859409167E-02 a       565     0    29     1     5
  5.4169775804835542E-02 a       566     0    29     1     6
 -1.9728508387533733E-02 a       567     0    29     1     7
 -4.6567681713808137E-02 a       568     0    29     1     8
 -2.8642341681085762E-02 a       569     0    29     1     9
  2.2078005963998698E-02 a       570     0    29     1    10
 -7.1442282294420803E-02 a       571     0    29     1    11
 -4.1772576626771883E-02 a       572     0    29     1    12
 -3.9500481045352615E-02 a       573     0    29     1    13
  1.4359877812620058E-02 a       574     0    29     1    14
  8.2973003433939485E-02 a       575     0    29     1    15
 -9.6488926759008102E-03 a       576     0    29     1    16
  1.2293013229866354E-02 a       577     0    29     1    17
 -1.2850430822329898E-02 a       578     0    29     1    18
  5.5410182025230435E-03 a       579     0    29     1    19
  2.3047748280930386E-02 a       580     0    29     1    20
  4.6259058686655204E-02 a       581     0    30     1     1
 -9.3530353230897693E-03 a       582     0    30     1     2
 -5.5228485117136076E-03 a       583     0    30     1     3
 -2.1090154606461537E-03 a       584     0    30     1     4
  1.3590214527727755E-02 a       585     0    30     1     5
  6.9681900090988458E-03 a       586     0    30     1     6
 -3.7605863431049340E-03 a       587     0    30     1     7
  2.7913298491380557E-02 a       588     0    30     1     8
  3.2625390679287889E-04 a       589     0    30     1     9
 -2.3199281275099373E-02 a       590     0    30     1    10
 -2.6441680605673347E-02 a       591     0    30     1    11
 -6.1927284720889250E-03 a       592     0    30     1    12
 -4.4658478537606765E-04 a       593     0    30     1    13
 -4.6153840086068506E-03 a       594     0    30     1    14
  2.4722424208145365E-02 a       595     0    30     1    15
 -1.3934761825458870E-02 a       596     0    30     1    16
  1.2494013107010907E-02 a       597     0    30     1    17
  2.8492890028595265E-02 a       598     0    30     1    18
 -4.6223321539974572E-04 a       599     0    30     1    19
  2.6484242873071939E-02 a       600     0    30     1    20
 -5.7868869427223101E-02 a       601     0    31     1     1
 -1.8465361615945439E-01 a       602     0    31     1     2
 -8.1974036916069054E-02 a       603     0    31     1     3
 -6.7559432607579489E-02 a       604     0    31     1     4
  1.2227995447741817E-01 a       605     0    31     1     5
 -1.7649083057351533E-02 a       606     0    31     1     6
  2.0238823747271779E-02 a       607     0    31     1     7
 -1.1655787412726501E-01 a       608     0    31     1     8
  2.9993924894026447E-01 a       609     0    31     1     9
  2.6288242948144552E-01 a       610     0    31     1    10
 -3.4118555810738110E-01 a       611     0    31     1    11
 -5.4942964469296297E-03 a       612     0    31     1    12
  8.9196736951755867E-02 a       613     0    31     1    13
  8.3086493256875657E-02 a       614     0    31     1    14
 -1.8994218700302404E-01 a       615     0    31     1    15
 -3.0311835575254614E-01 a       616     0    31     1    16
  1.8492254246782916E-01 a       617     0    31     1    17
 -4.5732278185382175E-01 a       618     0    31     1    18
 -1.3708770366633921E-01 a       619     0    31     1    19
 -3.4616917685892833E-02 a       620     0    31     1    20
  1.0664240089245282E-01 a       621     0    32     1     1
  2.3432233831426466E-01 a       622     0    32     1     2
  1.8306120726891992E-01 a       623     0    32     1     3
 -9.1271480370244754E-02 a       624     0    32     1     4
  2.1235890464847695E-01 a       625     0    32     1     5
  2.9249588937311843E-01 a       626     0    32     1     6
  2.6594274451955402E-01 a       627     0    32     1     7
  1.4198447916317561E-01 a       628     0    32     1     8
 -4.0861524575722358E-01 a       629     0    32     1     9
 -4.5233336055864271E-01 a       630     0    32     1    10
  4.1889287946708320E-01 a       631     0    32     1    11
 -5.2535727533559076E-02 a       632     0    32     1    12
  1.0937217059054281E-01 a       633     0    32     1    13
  2.6333804823313167E-01 a       634     0    32     1    14
 -3.9337616253029478E-01 a       635     0    32     1    15
  1.4975263567740771E-01 a       636     0    32     1    16
 -1.4238719430066607E-01 a       637     0    32     1    17
  8.3459945820093084E-02 a       638     0    32     1    18
  6.2724326438830491E-01 a       639     0    32     1    19
 -3.1080389258824492E-01 a       640     0    32     1    20
  1.4132962094311971E-01 a       641     0    33     1     1
 -2.6606877299779613E-01 a       642     0    33     1     2
  1.3427556235933838E-01 a       643     0    33     1     3
 -1.9114302062768973E-01 a       644     0    33     1     4
 -1.0929449389838440E-02 a       645     0    33     1     5
  6.5983821587187366E-02 a       646     0    33     1     6
 -4.2453245446439691E-02 a       647     0    33     1     7
  1.3653943722649442E-02 a       648     0    33     1     8
 -1.7959740538225719E-01 a       649     0    33     1     9
 -2.1362028564681404E-01 a       650     0    33     1    10
 -1.5188548680299527E-01 a       651     0    33     1    11
  4.5317567312903283E-02 a       652     0    33     1    12
  5.2006436729598038E-01 a       653     0    33     1    13
  1.2750023218216841E-01 a       654     0    33     1    14
  6.4775573707848231E-03 a       655     0    33     1    15
 -5.8035374573063500E-02 a       656     0    33     1    16
  6.4848953080547431E-02 a       657     0    33     1    17
 -3.8986919083896350E-02 a       658     0    33     1    18
 -3.2589683394992477E-02 a       659     0    33     1    19
 -2.9413071281150455E-01 a       660     0    33     1    20
 -4.9983130417658457E-02 a       661     0    34     1     1
  1.8852402173224359E-01 a       662     0    34     1     2
  5.2299981808425593E-02 a       663     0    34     1     3
 -1.8515182135385561E-01 a       664     0    34     1     4
  9.8906948565718786E-02 a       665     0    34     1     5
 -6.2862408877264486E-01 a       666     0    34     1     6
 -3.2896610319543101E-01 a       667     0    34     1     7
 -4.0520943093434725E-01 a       668     0    34     1     8
  2.7261407443301838E-01 a       669     0    34     1     9
  6.5318018942266673E-02 a       670     0    34     1    10
 -5.5499758172300084E-01 a       671     0    34     1    11
 -3.0690884606404617E-01 a       672     0    34     1    12
  2.4868395753465514E-01 a       673     0    34     1    13
  6.9902731306491092E-02 a       674     0    34     1    14
  9.9408297020137551E-02 a       675     0    34     1    15
 -2.6668975460955957E-01 a       676     0    34     1    16
  5.7932080026079448E-02 a       677     0    34     1    17
 -1.3899860637363945E-01 a       678     0    34     1    18
 -6.4078119786697274E-01 a       679     0    34     1    19
  3.0903855024025328E-01 a       680     0    34     1    20
  1.0159126014657394E-01 a       681     0    35     1     1
  1.9513603592893417E-01 a       682     0    35     1     2
 -1.9231672754508072E-01 a       683     0    35     1     3
  1.3923991581786690E-01 a       684     0    35     1     4
  3.0335794284918910E-01 a       685     0    35     1     5
 -3.9778429887048050E-01 a       686     0    35     1     6
 -1.5050009802565989E-01 a       687     0    35     1     7
  7.3421366076469624E-02 a       688     0    35     1     8
  1.8990906353921153E-01 a       689     0    35     1     9
  2.2679551625283109E-01 a       690     0    35     1    10
  3.4236471400573092E-03 a       691     0    35     1    11
  2.5490726877106679E-01 a       692     0    35     1    12
 -3.5544371864192452E-02 a       693     0    35     1    13
  3.8502159959110271E-02 a       694     0    35     1    14
  1.0581381122834274E-01 a       695     0    35     1    15
 -1.6865067046991059E-01 a       696     0    35     1    16
  3.3576451358135961E-01 a       697     0    35     1    17
 -1.2264408136251095E-01 a       698     0    35     1    18
 -1.8914457752118363E-01 a       699     0    35     1    19
 -6.1810878859893302E-02 a       700     0    35     1    20
 -7.9523686978712996E-02 a       701     0    36     1     1
  1.2829532920609904E-01 a       702     0    36     1     2
 -1.2419536267334536E-01 a       703     0    36     1     3
  1.1553362402774681E-01 a       704     0    36     1     4
 -5.9450124184753129E-02 a       705     0    36     1     5
 -1.1546619573235173E-01 a       706     0    36     1     6
 -1.6507178885006774E-02 a       707     0    36     1     7
  7.0678929912724855E-02 a       708     0    36     1     8
  7.7857590164261831E-02 a       709     0    36     1     9
 -6.7484885652770166E-02 a       710     0    36     1    10
  3.9936850239171179E-02 a       711     0    36     1    11
 -1.0076750022145904E-01 a       712     0    36     1    12
 -1.3887860510916666E-01 a       713     0    36     1    13
  5.3034447199738100E-02 a       714     0    36     1    14
  2.9014981087309089E-01 a       715     0    36     1    15
  7.2964344111453250E-02 a       716     0    36     1    16
 -3.3763306819698899E-02 a       717     0    36     1    17
  3.5551856573169288E-01 a       718     0    36     1    18
  1.4182515422294423E-02 a       719     0    36     1    19
  8.6685609820816148E-02 a       720     0    36     1    20
  1.4546519770903513E-01 a       721     0    37     1     1
 -5.1636286628018735E-01 a       722     0    37     1     2
  6.1870165395856283E-02 a       723     0    37     1     3
 -2.1755381768418769E-01 a       724     0    37     1     4
 -4.1446351380022665E-02 a       725     0    37     1     5
  2.0974472710622438E-01 a       726     0    37     1     6
 -3.9837585711896432E-02 a       727     0    37     1     7
  2.4399769138972785E-01 a       728     0    37     1     8
  1.9152545401542539E-01 a       729     0    37     1     9
 -1.2139614451206307E-01 a       730     0    37     1    10
 -6.5973460151690422E-01 a       731     0    37     1    11
  2.1178337509819503E-01 a       732     0    37     1    12
 -3.5757009536249668E-01 a       733     0    37     1    13
 -4.3735888447222282E-01 a       734     0    37     1    14
 -3.9105013142761835E-01 a       735     0    37     1    15
  4.0394904805495918E-01 a       736     0    37     1    16
 -1.0925707334764004E-01 a       737     0    37     1    17
 -3.7096667824836316E-01 a       738     0    37     1    18
 -1.8693047911920918E-01 a       739     0    37     1    19
 -2.5863153356751305E-02 a       740     0    37     1    20
 -1.9637920381580534E-01 a       741     0    38     1     1
  1.4824416369270640E-01 a       742     0    38     1     2
 -1.3605374393191327E-01 a       743     0    38     1     3
  7.7255684955242265E-02 a       744     0    38     1     4
  1.6007204792780359E-02 a       745     0    38     1     5
  9.9293843240995217E-02 a       746     0    38     1     6
  1.8079472110125450E-01 a       747     0    38     1     7
 -3.9809712792677726E-01 a       748     0    38     1     8
 -6.4553146089793942E-02 a       749     0    38     1     9
  6.4460949027331224E-02 a       750     0    38     1    10
  3.3294715831700744E-01 a       751     0    38     1    11
  1.2561471009882136E-01 a       752     0    38     1    12
 -1.8404805128135526E-01 a       753     0    38     1    13
 -1.3086202250425524E-01 a       754     0    38     1    14
 -5.6295719557679799E-02 a       755     0    38     1    15
  2.1744199605598183E-01 a       756     0    38     1    16
 -4.9612121604761153E-02 a       757     0    38     1    17
 -1.5005509474571474E-01 a       758     0    38     1    18
 -9.1726579661014981E-02 a       759     0    38     1    19
 -4.2870381140286032E-02 a       760     0    38     1    20
 -1.5537362724863288E-01 a       761     0    39     1     1
  1.4897314566847825E-01 a       762     0    39     1     2
  2.4243791641228665E-01 a       763     0    39     1     3
  1.3161317368921907E-01 a       764     0    39     1     4
 -1.4751421217831401E-01 a       765     0    39     1     5
  4.9358796314847901E-02 a       766     0    39     1     6
 -5.5965469878712905E-02 a       767     0    39     1     7
  1.3300102747582995E-01 a       768     0    39     1     8
 -2.1607193842111672E-01 a       769     0    39     1     9
  6.0170050155463686E-02 a       770     0    39     1    10
  5.2791800071782946E-01 a       771     0    39     1    11
  8.9813479788565451E-02 a       772     0    39     1    12
  9.5140317531452162E-02 a       773     0    39     1    13
  4.8871526078393075E-02 a       774     0    39     1    14
  2.1880314320124725E-01 a       775     0    39     1    15
 -1.2668694024831095E-04 a       776     0    39     1    16
 -1.7769819646965772E-02 a       777     0    39     1    17
  1.5042003016842911E-01 a       778     0    39     1    18
  8.1080311932012844E-02 a       779     0    39     1    19
 -7.8220609099330693E-02 a       780     0    39     1    20
  1.2760770573411859E-01 a       781     0    40     1     1
 -1.0818950800698535E-01 a       782     0    40     1     2
  4.4047732158674364E-02 a       783     0    40     1     3
  2.6318787664717626E-03 a       784     0    40     1     4
 -1.8016806587599821E-01 a       785     0    40     1     5
  6.1259683345840296E-02 a       786     0    40     1     6
 -2.3314074645930882E-02 a       787     0    40     1     7
 -1.8656617349820517E-01 a       788     0    40     1     8
 -1.1857363877900046E-01 a       789     0    40     1     9
  1.8608961557801715E-01 a       790     0    40     1    10
 -1.9232473342231082E-01 a       791     0    40     1    11
 -7.1765576728898647E-02 a       792     0    40     1    12
  7.7551995171528613E-03 a       793     0    40     1    13
 -1.2301781342145862E-01 a       794     0    40     1    14
  2.1101079326232425E-02 a       795     0    40     1    15
 -6.4697144088533165E-02 a       796     0    40     1    16
 -5.2732881012130986E-02 a       797     0    40     1    17
  2.0385606561645581E-01 a       798     0    40     1    18
  8.4256737310406143E-02 a       799     0    40     1    19
 -7.7682469228162729E-02 a       800     0    40     1    20
  1.0251114903346227E-01 a       801     0    41     1     1
 -1.0220600696481671E-01 a       802     0    41     1     2
  7.2322179136961554E-02 a       803     0    41     1     3
 -4.8021575812695179E-02 a       804     0    41     1     4
  5.6081200018102642E-02 a       805     0    41     1     5
 -1.9636047691448284E-02 a       806     0    41     1     6
 -6.2261206444509561E-02 a       807     0    41     1     7
  1.4564237805765312E-01 a       808     0    41     1     8
  4.2812811071800030E-02 a       809     0    41     1     9
  4.2820084137841524E-02 a       810     0    41     1    10
 -1.7387959407183237E-01 a       811     0    41     1    11
  1.3288592803919566E-01 a       812     0    41     1    12
  4.3348006310075154E-02 a       813     0    41     1    13
 -2.5367460132639390E-02 a       814     0    41     1    14
  2.5537312885575217E-02 a       815     0    41     1    15
 -6.7326877392245590E-02 a       816     0    41     1    16
  1.2417137916646409E-01 a       817     0    41     1    17
  2.9142233305739344E-02 a       818     0    41     1    18
 -4.8524689453014733E-02 a       819     0    41     1    19
 -1.7482840308096631E-01 a       820     0    41     1    20
 -2.3130713750596080E-01 a       821     0    42     1     1
 -6.0043569546864892E-02 a       822     0    42     1     2
  2.0118945157840476E-01 a       823     0    42     1     3
 -2.3644211460373439E-03 a       824     0    42     1     4
 -7.0039924316635416E-02 a       825     0    42     1     5
  6.2712599669086364E-02 a       826     0    42     1     6
  2.5567069945541043E-02 a       827     0    42     1     7
  1.3101150505521318E-02 a       828     0    42     1     8
 -2.9726460882252236E-02 a       829     0    42     1     9
  9.9935085021158068E-02 a       830     0    42     1    10
  1.4893237492357608E-01 a       831     0    42     1    11
  4.5098095801610637E-02 a       832     0    42     1    12
 -1.8238961110750582E-01 a       833     0    42     1    13
 -3.4562110986415887E-02 a       834     0    42     1    14
 -2.1223910056085427E-02 a       835     0    42     1    15
  7.4664586032976418E-02 a       836     0    42     1    16
 -1.4076526391056093E-02 a       837     0    42     1    17
 -6.0299007273210380E-02 a       838     0    42     1    18
 -1.6901606522923926E-02 a       839     0    42     1    19
  1.6861327398064477E-01 a       840     0    42     1    20
  1.3490381043924782E-01 a       841     0    43     1     1
  8.3191142130246740E-02 a       842     0    43     1     2
 -2.5610575140781389E-01 a       843     0    43     1     3
  1.1884721856572224E-02 a       844     0    43     1     4
 -1.9070432986630717E-01 a       845     0    43     1     5
 -8.4098196880658185E-03 a       846     0    43     1     6
  9.9806621023668149E-02 a       847     0    43     1     7
 -2.2070498082876790E-02 a       848     0    43     1     8
 -1.1797154939137448E-01 a       849     0    43     1     9
  7.2158920029858478E-02 a       850     0    43     1    10
 -1.3310552013025148E-01 a       851     0    43     1    11
 -1.1957324559839810E-02 a       852     0    43     1    12
  1.2011193569011133E-01 a       853     0    43     1    13
 -2.0089841957696971E-02 a       854     0    43     1    14
 -9.5499331238930729E-02 a       855     0    43     1    15
  7.7877213007839952E-02 a       856     0    43     1    16
 -1.1747257818446345E-01 a       857     0    43     1    17
  2.6060837502286167E-02 a       858     0    43     1    18
 -3.1663953806259887E-02 a       859     0    43     1    19
  1.0774412742934192E-01 a       860     0    43     1    20
  3.0950681820815140E-01 a       861     0    44     1     1
 -4.1381728678416399E-02 a       862     0    44     1     2
  2.4098240495596463E-02 a       863     0    44     1     3
  1.2731465327069347E-01 a       864     0    44     1     4
  3.2879124175171824E-02 a       865     0    44     1     5
 -4.1292204643359150E-02 a       866     0    44     1     6
 -2.9733074102025164E-02 a       867     0    44     1     7
  6.8181831427625850E-02 a       868     0    44     1     8
  6.9471526564665719E-03 a       869     0    44     1     9
 -2.2319055956911399E-01 a       870     0    44     1    10
  1.4511756171322018E-01 a       871     0    44     1    11
 -5.7264305523903922E-02 a       872     0    44     1    12
  5.3176445902064473E-01 a       873     0    44     1    13
 -5.4364244638387564E-02 a       874     0    44     1    14
  8.6984373391665412E-02 a       875     0    44     1    15
 -6.4005047807569923E-02 a       876     0    44     1    16
  5.6049658416519585E-02 a       877     0    44     1    17
 -2.0719114951826847E-01 a       878     0    44     1    18
 -1.8395154912573275E-01 a       879     0    44     1    19
  1.1984889989169471E-01 a       880     0    44     1    20
  2.3803716661662766E-01 a       881     0    45     1     1
 -2.8270021758959096E-02 a       882     0    45     1     2
  1.5158008671017958E-01 a       883     0    45     1     3
  1.2440335071722625E-01 a       884     0    45     1     4
  1.6595776305668627E-01 a       885     0    45     1     5
  9.9156164583709822E-02 a       886     0    45     1     6
  7.7894522142766529E-02 a       887     0    45     1     7
 -2.6228690110679481E-01 a       888     0    45     1     8
 -2.3904197800147522E-01 a       889     0    45     1     9
 -5.6086957140405382E-02 a       890     0    45     1    10
  1.8894819296555193E-01 a       891     0    45     1    11
 -4.5273556208933904E-02 a       892     0    45     1    12
 -1.2285366114749301E-01 a       893     0    45     1    13
 -1.9946080939855604E-01 a       894     0    45     1    14
  1.4025628586200847E-01 a       895     0    45     1    15
  2.0346191108060976E-02 a       896     0    45     1    16
  1.9481054441668363E-02 a       897     0    45     1    17
  1.6471385712627931E-01 a       898     0    45     1    18
 -8.0399636327758275E-02 a       899     0    45     1    19
  2.5541656588413580E-01 a       900     0    45     1    20
  1.5738701799442309E-01 a       901     0    46     1     1
  8.4882150977384649E-02 a       902     0    46     1     2
 -5.1150203918964750E-03 a       903     0    46     1     3
  5.4969917068758131E-02 a       904     0    46     1     4
 -3.1505143355297449E-01 a       905     0    46     1     5
  1.0444541541978435E-01 a       906     0    46     1     6
  4.4717321409336500E-02 a       907     0    46     1     7
 -8.4057893766838667E-03 a       908     0    46     1     8
 -3.9872164131852605E-01 a       909     0    46     1     9
  1.9177574115818835E-01 a       910     0    46     1    10
 -4.7912528709294244E-02 a       911     0    46     1    11
 -1.2405282606266700E-02 a       912     0    46     1    12
  2.1502195426279011E-01 a       913     0    46     1    13
  2.1222954064625300E-03 a       914     0    46     1    14
 -1.0900291480842852E-01 a       915     0    46     1    15
 -1.0496736513421927E-01 a       916     0    46     1    16
 -1.5133696246866630E-02 a       917     0    46     1    17
 -9.2683637038957524E-03 a       918     0    46     1    18
  1.2679743176065911E-01 a       919     0    46     1    19
  7.4927820379676283E-02 a       920     0    46     1    20
  4.2208508241616351E-02 a       921     0    47     1     1
 -9.5834922673795106E-02 a       922     0    47     1     2
  1.7526573123890030E-03 a       923     0    47     1     3
 -3.9088807787521318E-01 a       924     0    47     1     4
  4.8439634987053121E-01 a       925     0    47     1     5
 -2.1520658663468589E-01 a       926     0    47     1     6
  4.7985250442647495E-02 a       927     0    47     1     7
 -3.2995533286919920E-01 a       928     0    47     1     8
 -5.0747045575250782E-02 a       929     0    47     1     9
  1.5615507125098127E-01 a       930     0    47     1    10
  5.6046000647173889E-02 a       931     0    47     1    11
  1.2220394973912407E-01 a       932     0    47     1    12
 -1.8216330873979189E-01 a       933     0    47     1    13
  4.2984201566654018E-01 a       934     0    47     1    14
  2.9061603402673114E-01 a       935     0    47     1    15
 -4.9446742277874073E-01 a       936     0    47     1    16
  1.7414196195948509E-01 a       937     0    47     1    17
  4.1563444592622595E-01 a       938     0    47     1    18
 -2.4746844763450088E-01 a       939     0    47     1    19
 -3.5733800835127943E-01 a       940     0    47     1    20
 -1.6650387398111599E-01 a       941     0    48     1     1
 -2.0834487222574330E-01 a       942     0    48     1     2
  2.3386025137826719E-01 a       943     0    48     1     3
 -2.6142099842170230E-01 a       944     0    48     1     4
 -6.0817420425575891E-02 a       945     0    48     1     5
 -2.8243849573220129E-02 a       946     0    48     1     6
 -1.8038276757570865E-01 a       947     0    48     1     7
  3.7638842863261179E-01 a       948     0    48     1     8
  1.3300104213748254E-01 a       949     0    48     1     9
 -8.9596475062034567E-02 a       950     0    48     1    10
  8.1911675767027195E-02 a       951     0    48     1    11
  2.1597966166052612E-01 a       952     0    48     1    12
  2.6384702276947267E-02 a       953     0    48     1    13
  1.5343928527391051E-01 a       954     0    48     1    14
  7.3725197918813892E-02 a       955     0    48     1    15
  4.3770847022885528E-02 a       956     0    48     1    16
 -5.2386931488884944E-02 a       957     0    48     1    17
 -1.4089183907860314E-01 a       958     0    48     1    18
 -1.5616823814505013E-01 a       959     0    48     1    19
 -1.1499125968529886E-01 a       960     0    48     1    20
  1.1081277847983026E-01 a       961     0    49     1     1
  1.2178221119371824E-01 a       962     0    49     1     2
 -1.5777369298230939E-01 a       963     0    49     1     3
  4.8324122403065085E-02 a       964     0    49     1     4
  2.2394624019715117E-02 a       965     0    49     1     5
 -1.9017822191696544E-02 a       966     0    49     1     6
 -7.8462236770306795E-02 a       967     0    49     1     7
 -5.7779586124177440E-02 a       968     0    49     1     8
  1.8090252843162580E-01 a       969     0    49     1     9
 -1.0166929477345928E-01 a       970     0    49     1    10
 -2.1125304337516732E-01 a       971     0    49     1    11
 -1.0783603950765648E-01 a       972     0    49     1    12
  4.0535925739696811E-02 a       973     0    49     1    13
 -9.7949706281205112E-02 a       974     0    49     1    14
 -1.9142086662636804E-01 a       975     0    49     1    15
  1.0647549890428609E-01 a       976     0    49     1    16
 -5.0640534305214015E-02 a       977     0    49     1    17
 -1.4849586034724477E-01 a       978     0    49     1    18
  1.4223536726637059E-01 a       979     0    49     1    19
  4.0509183499990993E-04 a       980     0    49     1    20
  1.3075153519618177E-01 a       981     0    50     1     1
  1.8888943193069077E-01 a       982     0    50     1     2
 -5.2530500524379554E-02 a       983     0    50     1     3
  6.9555082927492424E-03 a       984     0    50     1     4
  1.3276765184717049E-01 a       985     0    50     1     5
 -1.2361030478462785E-02 a       986     0    50     1     6
  1.1117784984127048E-02 a       987     0    50     1     7
  6.5608493935517834E-02 a       988     0    50     1     8
 -3.3670646132221843E-02 a       989     0    50     1     9
 -8.8400429108972542E-02 a       990     0    50     1    10
 -9.6046008044145134E-02 a       991     0    50     1    11
 -9.2654601096912148E-02 a       992     0    50     1    12
 -7.9272986045948957E-02 a       993     0    50     1    13
  1.4562216749824901E-02 a       994     0    50     1    14
 -6.8397039931454989E-02 a       995     0    50     1    15
 -4.3779897506511518E-02 a       996     0    50     1    16
 -1.7501967111967859E-02 a       997     0    50     1    17
  9.0358037101707589E-02 a       998     0    50     1    18
  1.0266514259391474E-01 a       999     0    50     1    19
  1.8261368896003352E-01 a      1000     0    50     1    20
  4.9500214360485822E-02 b      1001     1     1
 -5.8320029373402371E-01 b      1002     1     2
  1.7043409453859629E-01 b      1003     1     3
 -1.0510731002211409E+00 b      1004     1     4
  9.4797543975204701E-01 b      1005     1     5
  1.2622374675508441E+00 b      1006     1     6
 -7.4896698318882615E-01 b      1007     1     7
  7.2610787598271176E-01 b      1008     1     8
 -5.0580703224332335E-01 b      1009     1     9
 -5.0997866092814625E-01 b      1010     1    10
 -2.7494794363941388E-01 b      1011     1    11
 -3.3638447742282696E-01 b      1012     1    12
  7.5634923714837976E-01 b      1013     1    13
 -3.9774044777066607E-02 b      1014     1    14
 -1.2063605452985648E+00 b      1015     1    15
  3.6391436993097726E-01 b      1016     1    16
 -4.4187345139119932E-01 b      1017     1    17
  2.3270720376377462E-02 b      1018     1    18
 -1.8951414267938829E-01 b      1019     1    19
  3.8141437780912923E-01 b      1020     1    20
  1.2191849543510501E-01 a      1021     1     1     2     1
  4.0287272165084026E-01 a      1022     1     1     2     2
 -3.1614656832288968E-01 a      1023     1     1     2     3
  1.8598827771510890E-01 a      1024     1     1     2     4
 -4.5990388509441837E-01 a      1025     1     1     2     5
  3.1890259973669888E-01 a      1026     1     1     2     6
 -7.3779983344216171E-01 a      1027     1     1     2     7
  1.8547332049802895E-01 a      1028     1     1     2     8
 -1.8501492949977653E-02 a      1029     1     1     2     9
 -6.7347239063386832E-01 a      1030     1     1     2    10
  1.0780768457852768E-01 a      1031     1     1     2    11
  2.0665760902351168E-01 a      1032     1     1     2    12
 -3.1044544466431540E-01 a      1033     1     1     2    13
  1.5017239625795561E-01 a      1034     1     1     2    14
 -1.1163727131929410E-02 a      1035     1     1     2    15
  1.0394631022448450E-01 a      1036     1     1     2    16
 -3.4520539250224114E-01 a      1037     1     1     2    17
 -2.6552624388724005E-01 a      1038     1     1     2    18
  2.0347393864590019E-01 a      1039     1     1     2    19
  5.3041773572021611E-01 a      1040     1     1     2    20
  5.4795411736674804E-01 a      1041     1     2     2     1
 -7.1219033611699045E-01 a      1042     1     2     2     2
  6.5297254151015383E-01 a      1043     1     2     2     3
  8.9740024737122642E-02 a      1044     1     2     2     4
 -3.4476978817169746E-01 a      1045     1     2     2     5
 -6.6076004403242583E-01 a      1046     1     2     2     6
 -6.1335733322263331E-01 a      1047     1     2     2     7
  6.4107132957882773E-01 a      1048     1     2     2     8
  5.6189778072571983E-01 a      1049     1     2     2     9
 -5.9082999899433086E-01 a      1050     1     2     2    10
  2.0525205124872817E-01 a      1051     1     2     2    11
 -9.6332099547854688E-01 a      1052     1     2     2    12
 -7.3791271063588126E-01 a      1053     1     2     2    13
  5.9391252627488900E-01 a      1054     1     2     2    14
 -5.2125313437188947E-01 a      1055     1     2     2    15
 -3.0915618951956958E-01 a      1056     1     2     2    16
 -5.9232819588163421E-01 a      1057     1     2     2    17
 -2.6906260642703603E-02 a      1058     1     2     2    18
  4.9269856265858658E-01 a      1059     1     2     2    19
 -5.4729726451763439E-01 a      1060     1     2     2    20
  3.6895887002959277E-01 a      1061     1     3     2     1
  1.8115811148201197E-01 a      1062     1     3     2     2
 -2.4611451397899606E-01 a      1063     1     3     2     3
 -3.7875981448995988E-01 a      1064     1     3     2     4
 -3.6610799402203137E-01 a      1065     1     3     2     5
  5.9102937483656348E-01 a      1066     1     3     2     6
 -1.7024333737717609E-01 a      1067     1     3     2     7
 -6.1274353112990010E-01 a      1068     1     3     2     8
 -4.1659053049429590E-01 a      1069     1     3     2     9
 -8.8472874361193843E-01 a      1070     1     3     2    10
  2.6378835411681120E-02 a      1071     1     3     2    11
 -3.7054310171277000E-01 a      1072     1     3     2    12
 -1.8599343123649154E-01 a      1073     1     3     2    13
 -4.3663063570470328E-01 a      1074     1     3     2    14
  2.0940906079479338E-01 a      1075     1     3     2    15
 -2.8430880952008364E-01 a      1076     1     3     2    16
 -1.9766890291662401E-01 a      1077     1     3     2    17
  3.5220035243992204E-01 a      1078     1     3     2    18
  8.0627051449906839E-01 a      1079     1     3     2    19
  3.0341759468314550E-01 a      1080     1     3     2    20
 -8.9087899527809780E-02 a      1081     1     4     2     1
  6.7919373949585382E-01 a      1082     1     4     2     2
 -3.4286038637288957E-01 a      1083     1     4     2     3
 -9.1846439592635443E-02 a      1084     1     4     2     4
  1.3600809301686134E-01 a      1085     1     4     2     5
  2.2402468277275911E-01 a      1086     1     4     2     6
  3.2416664976644294E-01 a      1087     1     4     2     7
  7.4691992038398869E-01 a      1088     1     4     2     8
  3.9250421626834120E-01 a      1089     1     4     2     9
  1.4819603223054666E-02 a      1090     1     4     2    10
 -5.3000572856787720E-01 a      1091     1     4     2    11
 -9.0337264519788418E-01 a      1092     1     4     2    12
 -8.9529694531854609E-01 a      1093     1     4     2    13
 -2.6873829921236322E-02 a      1094     1     4     2    14
  1.0227318151576037E-01 a      1095     1     4     2    15
 -4.2903394547037021E-01 a      1096     1     4     2    16
 -5.8896118417673803E-02 a      1097     1     4     2    17
 -1.6791282114571909E-01 a      1098     1     4     2    18
 -4.4764948694959089E-01 a      1099     1     4     2    19
  1.0711157142330556E-01 a      1100     1     4     2    20
  2.8871903978841800E-02 a      1101     1     5     2     1
  5.7923783201664680E-01 a      1102     1     5     2     2
 -2.6283284199533491E-01 a      1103     1     5     2     3
  1.1502776547134896E-01 a      1104     1     5     2     4
  2.2839601515492222E-01 a      1105     1     5     2     5
  2.8426982875776424E-01 a      1106     1     5     2     6
  2.1828025649985455E-01 a      1107     1     5     2     7
 -1.4406235525890740E-01 a      1108     1     5     2     8
  4.2671957414912914E-01 a      1109     1     5     2     9
  2.2608451901768351E-01 a      1110     1     5     2    10
 -8.4446867403431811E-02 a      1111     1     5     2    11
  4.9601036333267362E-01 a      1112     1     5     2    12
  1.3305691339641368E-01 a      1113     1     5     2    13
  5.2973412362231276E-01 a      1114     1     5     2    14
 -2.3517717144766848E-02 a      1115     1     5     2    15
 -1.4777786157146988E-01 a      1116     1     5     2    16
 -3.0044879736199770E-01 a      1117     1     5     2    17
  1.3256500511336203E-01 a      1118     1     5     2    18
  4.8103515057817703E-01 a      1119     1     5     2    19
 -9.5320407930958898E-04 a      1120     1     5     2    20
 -2.3049442373608067E-01 a      1121     1     6     2     1
 -2.6951225263771655E-01 a      1122     1     6     2     2
  6.4597421139933198E-01 a      1123     1     6     2     3
  6.2347586191980409E-01 a      1124     1     6     2     4
  6.0988976431412945E-01 a      1125     1     6     2     5
 -3.3779444439249590E-01 a      1126     1     6     2     6
  3.0523436312554725E-01 a      1127     1     6     2     7
 -7.0426263418511006E-02 a      1128     1     6     2     8
  7.3392579362651034E-01 a      1129     1     6     2     9
 -1.9799131176458834E-01 a      1130     1     6     2    10
 -1.6992941356763855E-01 a      1131     1     6     2    11
 -3.7191945135588383E-01 a      1132     1     6     2    12
  1.6657366436546436E-01 a      1133     1     6     2    13
 -5.2665474896183817E-01 a      1134     1     6     2    14
 -4.6646311587243267E-01 a      1135     1     6     2    15
 -2.7878389228806250E-01 a      1136     1     6     2    16
  6.2703530892080128E-01 a      1137     1     6     2    17
 -7.4520643511383655E-02 a      1138     1     6     2    18
 -4.9339368549435492E-02 a      1139     1     6     2    19
 -2.0302265067006879E-02 a      1140     1     6     2    20
  3.6614157760097760E-01 a      1141     1     7     2     1
  2.0701404097026513E-01 a      1142     1     7     2     2
  1.7494920590405466E-01 a      1143     1     7     2     3
 -8.4233437088034180E-01 a      1144     1     7     2     4
  3.3604120996494374E-02 a      1145     1     7     2     5
  3.9821606196462933E-01 a      1146     1     7     2     6
 -1.5190868000930269E+00 a      1147     1     7     2     7
 -5.7317084663372464E-01 a      1148     1     7     2     8
  1.1446454740943933E-01 a      1149     1     7     2     9
  5.5435302194344482E-01 a      1150     1     7     2    10
 -3.6930372337478051E-01 a      1151     1     7     2    11
 -6.1819439672405600E-02 a      1152     1     7     2    12
 -3.8764982031143808E-01 a      1153     1     7     2    13
  2.1959546139493799E-01 a      1154     1     7     2    14
 -2.6740138535782204E-01 a      1155     1     7     2    15
  7.0754531733166270E-01 a      1156     1     7     2    16
 -1.6962911019422025E-01 a      1157     1     7     2    17
  2.9189344076443074E-01 a      1158     1     7     2    18
 -1.3518659887647211E-01 a      1159     1     7     2    19
 -1.1164607862631284E-01 a      1160     1     7     2    20
 -3.2962703978045554E-01 a      1161     1     8     2     1
  5.4162792655067704E-01 a      1162     1     8     2     2
 -4.5377308718860178E-02 a      1163     1     8     2     3
  2.9937037470449174E-01 a      1164     1     8     2     4
  2.6300842894013843E-01 a      1165     1     8     2     5
 -1.3109566325655422E-01 a      1166     1     8     2     6
  6.4680164403279256E-02 a      1167     1     8     2     7
  3.9135422121421543E-01 a      1168     1     8     2     8
  1.2552656152996647E-01 a      1169     1     8     2     9
 -4.5263168853340835E-01 a      1170     1     8     2    10
 -5.0191479649437043E-02 a      1171     1     8     2    11
 -9.8635375246631116E-02 a      1172     1     8     2    12
  2.6798467908509063E-02 a      1173     1     8     2    13
  5.5690379666267120E-01 a      1174     1     8     2    14
 -4.7094807344577172E-01 a      1175     1     8     2    15
  4.7996136541823270E-01 a      1176     1     8     2    16
 -2.1025696733205304E-01 a      1177     1     8     2    17
  1.1930074220553834E-01 a      1178     1     8     2    18
 -1.2808975546808773E-01 a      1179     1     8     2    19
  5.4680283253267870E-01 a      1180     1     8     2    20
 -8.3706096724160139E-01 a      1181     1     9     2     1
 -4.4557504412305143E-01 a      1182     1     9     2     2
 -3.8949600438175114E-01 a      1183     1     9     2     3
  8.1739911001269663E-02 a      1184     1     9     2     4
  8.1826729878885590E-02 a      1185     1     9     2     5
  8.4952785359926497E-01 a      1186     1     9     2     6
 -4.2024412481250628E-01 a      1187     1     9     2     7
  6.7546834673392597E-01 a      1188     1     9     2     8
  4.1551993651092950E-01 a      1189     1     9     2     9
 -1.7507250891675170E-02 a      1190     1     9     2    10
  6.5266877736388884E-01 a      1191     1     9     2    11
 -3.8238335818836877E-01 a      1192     1     9     2    12
 -5.6833011384184362E-01 a      1193     1     9     2    13
 -3.6371306519586777E-01 a      1194     1     9     2    14
  9.3768223547754090E-02 a      1195     1     9     2    15
 -9.9007835987961548E-02 a      1196     1     9     2    16
  4.1563219440918736E-01 a      1197     1     9     2    17
  4.2833571705086954E-01 a      1198     1     9     2    18
 -6.0248755391275421E-01 a      1199     1     9     2    19
 -2.6457027160458046E-01 a      1200     1     9     2    20
 -5.7436068786102704E-02 a      1201     1    10     2     1
  3.7349621310924708E-01 a      1202     1    10     2     2
 -5.6960027771999477E-01 a      1203     1    10     2     3
 -1.1424297405128150E-01 a      1204     1    10     2     4
  5.6336077261990380E-01 a      1205     1    10     2     5
  3.5437013277664514E-01 a      1206     1    10     2     6
  2.3100887693585831E-01 a      1207     1    10     2     7
 -3.5926381223790750E-02 a      1208     1    10     2     8
  7.3206025700527022E-01 a      1209     1    10     2     9
 -4.0112623834065358E-01 a      1210     1    10     2    10
  3.9045109277209455E-01 a      1211     1    10     2    11
 -3.0403028791533110E-01 a      1212     1    10     2    12
 -2.7005548131653700E-01 a      1213     1    10     2    13
  8.5462198111135101E-01 a      1214     1    10     2    14
 -4.7710842152049343E-01 a      1215     1    10     2    15
  1.7192978527882033E-01 a      1216     1    10     2    16
 -9.9523217839087588E-02 a      1217     1    10     2    17
  1.4017542771027869E-01 a      1218     1    10     2    18
 -2.0795369303227934E-01 a      1219     1    10     2    19
  4.7593397894510214E-01 a      1220     1    10     2    20
 -3.1844418849241946E-01 a      1221     1    11     2     1
  1.3014792083942828E-01 a      1222     1    11     2     2
 -3.4590148989477065E-01 a      1223     1    11     2     3
  2.8352488070435866E-01 a      1224     1    11     2     4
 -5.4303916715333922E-01 a      1225     1    11     2     5
  8.7021456896225147E-02 a      1226     1    11     2     6
 -1.4614722397678530E+00 a      1227     1    11     2     7
  1.9217252201183124E-01 a      1228     1    11     2     8
  2.2412144231402120E-01 a      1229     1    11     2     9
  7.1103299736141504E-02 a      1230     1    11     2    10
  6.0002943098939221E-01 a      1231     1    11     2    11
 -2.4839857889625193E-02 a      1232     1    11     2    12
 -3.2660396005225850E-01 a      1233     1    11     2    13
  3.7172176017647501E-01 a      1234     1    11     2    14
 -8.9552966390776423E-02 a      1235     1    11     2    15
  3.7799147460658283E-01 a      1236     1    11     2    16
  6.8329282041420059E-01 a      1237     1    11     2    17
  8.1441417037255825E-01 a      1238     1    11     2    18
 -8.8683885815631965E-03 a      1239     1    11     2    19
 -1.7456821858867505E-01 a      1240     1    11     2    20
 -5.9155913798957904E-01 a      1241     1    12     2     1
  7.9045210749766548E-01 a      1242     1    12     2     2
  7.2281013476426603E-01 a      1243     1    12     2     3
 -1.0181450022379883E-01 a      1244     1    12     2     4
 -2.6417208350101820E-02 a      1245     1    12     2     5
 -1.1511124336733193E-01 a      1246     1    12     2     6
  1.9536450603696232E-01 a      1247     1    12     2     7
 -4.3480139875487489E-01 a      1248     1    12     2     8
  4.5378731112049103E-01 a      1249     1    12     2     9
  4.7641707906095337E-01 a      1250     1    12     2    10
 -6.2036593010314345E-01 a      1251     1    12     2    11
  2.2313809239865537E-01 a      1252     1    12     2    12
 -6.5256566999604992E-01 a      1253     1    12     2    13
 -9.8731158851501147E-02 a      1254     1    12     2    14
  4.8207414700340445E-01 a      1255     1    12     2    15
  4.3294980633650776E-01 a      1256     1    12     2    16
 -2.2005269616066719E-01 a      1257     1    12     2    17
 -4.2990157091694081E-01 a      1258     1    12     2    18
  2.4458057562844329E-01 a      1259     1    12     2    19
 -6.5705057039631698E-01 a      1260     1    12     2    20
 -7.1581708749043871E-01 a      1261     1    13     2     1
 -7.7756868876851526E-01 a      1262     1    13     2     2
 -1.5108009692996008E-01 a      1263     1    13     2     3
  3.2094965794541430E-01 a      1264     1    13     2     4
  1.0239520606600847E-01 a      1265     1    13     2     5
  5.4980092556760174E-01 a      1266     1    13     2     6
  2.8214912066873260E-01 a      1267     1    13     2     7
  2.6953181459968656E-01 a      1268     1    13     2     8
 -5.7861467940192174E-02 a      1269     1    13     2     9
  8.7183532276146880E-01 a      1270     1    13     2    10
 -5.4424478715809765E-01 a      1271     1    13     2    11
 -5.7181347317293918E-01 a      1272     1    13     2    12
 -1.6020750182643047E-02 a      1273     1    13     2    13
 -5.3469288479077093E-01 a      1274     1    13     2    14
  4.3755782393988391E-01 a      1275     1    13     2    15
  5.4521408376864666E-01 a      1276     1    13     2    16
 -4.7171393433785158E-01 a      1277     1    13     2    17
  4.0191571653521285E-01 a      1278     1    13     2    18
  4.0404370833022069E-01 a      1279     1    13     2    19
  5.5682702330217271E-01 a      1280     1    13     2    20
  1.3557973184978428E-01 a      1281     1    14     2     1
 -6.5875237840479317E-01 a      1282     1    14     2     2
 -4.4991640687991619E-01 a      1283     1    14     2     3
  2.5402963751973373E-01 a      1284     1    14     2     4
  6.3454119326710923E-01 a      1285     1    14     2     5
  4.0213030368316538E-01 a      1286     1    14     2     6
 -1.0964340824195884E+00 a      1287     1    14     2     7
 -7.8207476891273817E-02 a      1288     1    14     2     8
  5.7501925380224106E-01 a      1289     1    14     2     9
  4.7564421474274793E-01 a      1290     1    14     2    10
 -3.4272816821585034E-01 a      1291     1    14     2    11
  3.7251278252514369E-01 a      1292     1    14     2    12
 -4.7215090228506584E-01 a      1293     1    14     2    13
 -3.3609602257741750E-01 a      1294     1    14     2    14
  7.2588202963407877E-01 a      1295     1    14     2    15
  1.1666399404881660E-01 a      1296     1    14     2    16
  4.9068103690459003E-01 a      1297     1    14     2    17
 -3.1657079627151691E-01 a      1298     1    14     2    18
 -6.6598699534243033E-01 a      1299     1    14     2    19
  6.3590696681627035E-01 a      1300     1    14     2    20
  3.4241384480651221E-01 a      1301     1    15     2     1
  1.8230935914149776E-01 a      1302     1    15     2     2
  6.5021334801041697E-01 a      1303     1    15     2     3
  2.8356521216338471E-01 a      1304     1    15     2     4
  7.7299832390955781E-01 a      1305     1    15     2     5
  6.7870323782711406E-02 a      1306     1    15     2     6
 -1.3204419812583645E-01 a      1307     1    15     2     7
  7.9483794074960201E-02 a      1308     1    15     2     8
  2.2749117962735080E-01 a      1309     1    15     2     9
 -4.2930058875208732E-01 a      1310     1    15     2    10
  3.4747386424291760E-01 a      1311     1    15     2    11
 -1.4262411344831413E-01 a      1312     1    15     2    12
  2.8911242421185185E-01 a      1313     1    15     2    13
 -3.8636112603178779E-01 a      1314     1    15     2    14
  4.8896471563239641E-01 a      1315     1    15     2    15
 -5.6888344449726780E-01 a      1316     1    15     2    16
 -4.6700765639647623E-01 a      1317     1    15     2    17
  5.7099268911044809E-01 a      1318     1    15     2    18
 -5.5618206806700377E-01 a      1319     1    15     2    19
  3.6283628103413612E-01 a      1320     1    15     2    20
  6.2779405072594430E-01 a      1321     1    16     2     1
 -2.0741097179874493E-01 a      1322     1    16     2     2
 -8.7795818887171057E-02 a      1323     1    16     2     3
 -2.2745756815527535E-01 a      1324     1    16     2     4
  3.7269415272686435E-01 a      1325     1    16     2     5
  2.9068482381688532E-01 a      1326     1    16     2     6
  1.1272392433091112E+00 a      1327     1    16     2     7
 -1.1774438650615869E-01 a      1328     1    16     2     8
 -3.5908189491558734E-01 a      1329     1    16     2     9
 -1.3601818037748106E-01 a      1330     1    16     2    10
  6.6909243996047940E-01 a      1331     1    16     2    11
  7.3193252908437101E-01 a      1332     1    16     2    12
  2.3655310994021939E-01 a      1333     1    16     2    13
 -1.0974387655933550E-01 a      1334     1    16     2    14
  2.7171616324675268E-01 a      1335     1    16     2    15
 -5.0350859705092099E-01 a      1336     1    16     2    16
  1.4823824954832182E-01 a      1337     1    16     2    17
 -4.2978245222569211E-01 a      1338     1    16     2    18
  3.0423559830498109E-01 a      1339     1    16     2    19
 -1.2648620417977247E-01 a      1340     1    16     2    20
 -3.5841989304927357E-01 a      1341     1    17     2     1
  1.1145401805281875E-01 a      1342     1    17     2     2
  4.6751457402044644E-01 a      1343     1    17     2     3
 -6.7608214716741910E-01 a      1344     1    17     2     4
  3.4324323034275150E-01 a      1345     1    17     2     5
 -6.7363712678567125E-02 a      1346     1    17     2     6
 -8.5415462968235056E-01 a      1347     1    17     2     7
  7.9539594940738131E-02 a      1348     1    17     2     8
 -4.9555553418805576E-01 a      1349     1    17     2     9
  6.0569913460222218E-02 a      1350     1    17     2    10
  3.9829520087587278E-01 a      1351     1    17     2    11
 -1.9437051710815417E-02 a      1352     1    17     2    12
  3.2245037559971257E-01 a      1353     1    17     2    13
 -3.9226753928107816E-01 a      1354     1    17     2    14
  1.2278813303016559E-01 a      1355     1    17     2    15
 -3.9715499798886289E-01 a      1356     1    17     2    16
 -4.1721015740656542E-01 a      1357     1    17     2    17
  2.1274470830723091E-01 a      1358     1    17     2    18
  5.1880779035444191E-01 a      1359     1    17     2    19
  6.3049712771705374E-02 a      1360     1    17     2    20
  2.9934570839378866E-01 a      1361     1    18     2     1
  4.1676335802136660E-01 a      1362     1    18     2     2
 -6.7217799661184241E-01 a      1363     1    18     2     3
  8.7494742950111740E-02 a      1364     1    18     2     4
  4.8590000652224553E-02 a      1365     1    18     2     5
  2.8006765566254210E-01 a      1366     1    18     2     6
 -5.1676907156111573E-01 a      1367     1    18     2     7
 -1.5527825690111297E-01 a      1368     1    18     2     8
  3.1939081953382681E-01 a      1369     1    18     2     9
 -6.5520197090832644E-01 a      1370     1    18     2    10
 -6.6377189187079522E-01 a      1371     1    18     2    11
 -4.5607490685931601E-01 a      1372     1    18     2    12
 -5.1355935202376968E-01 a      1373     1    18     2    13
 -2.8624258414503689E-01 a      1374     1    18     2    14
  2.9190536799191197E-01 a      1375     1    18     2    15
 -1.6393370404986568E-01 a      1376     1    18     2    16
 -2.6981265630892254E-01 a      1377     1    18     2    17
 -1.0789847768983687E-01 a      1378     1    18     2    18
 -6.0050652072050337E-01 a      1379     1    18     2    19
  2.8586738809693819E-02 a      1380     1    18     2    20
 -7.1842082264736962E-01 a      1381     1    19     2     1
 -3.8364918029823580E-01 a      1382     1    19     2     2
  3.7019312761580797E-01 a      1383     1    19     2     3
 -5.1039327930690714E-01 a      1384     1    19     2     4
  2.9835144208273062E-01 a      1385     1    19     2     5
  5.4205778227573487E-01 a      1386     1    19     2     6
  9.5707108566525576E-02 a      1387     1    19     2     7
 -3.1458804925396044E-01 a      1388     1    19     2     8
 -2.3160220149431462E-01 a      1389     1    19     2     9
  7.5653477705304473E-01 a      1390     1    19     2    10
 -8.7122076398562842E-01 a      1391     1    19     2    11
  7.7937829014194082E-01 a      1392     1    19     2    12
  1.0900338722372090E-01 a      1393     1    19     2    13
 -2.7520146578702720E-01 a      1394     1    19     2    14
  4.2301076617181466E-01 a      1395     1    19     2    15
  4.5323845095335547E-02 a      1396     1    19     2    16
  2.7905425639591745E-04 a      1397     1    19     2    17
  7.1597373352963944E-01 a      1398     1    19     2    18
 -6.0689285907821751E-02 a      1399     1    19     2    19
  3.0812143497435901E-01 a      1400     1    19     2    20
 -6.3467248928991005E-01 a      1401     1    20     2     1
  3.0130079829224339E-02 a      1402     1    20     2     2
  2.7799817863831972E-01 a      1403     1    20     2     3
  3.0990349730399808E-01 a      1404     1    20     2     4
  3.7485004835294999E-01 a      1405     1    20     2     5
  3.5321248965382863E-02 a      1406     1    20     2     6
  9.4169823000584274E-01 a      1407     1    20     2     7
 -5.4555000725555980E-01 a      1408     1    20     2     8
  1.8389987128877217E-01 a      1409     1    20     2     9
  4.9929174034185825E-01 a      1410     1    20     2    10
  6.2138090348023001E-01 a      1411     1    20     2    11
  2.8721188226367089E-01 a      1412     1    20     2    12
 -2.5527660061462811E-02 a      1413     1    20     2    13
 -4.9631275701783301E-02 a      1414     1    20     2    14
  1.6192280735000078E-01 a      1415     1    20     2    15
  3.6533833787313746E-01 a      1416     1    20     2    16
  6.6010127761084003E-01 a      1417     1    20     2    17
  2.8614492873157710E-01 a      1418     1    20     2    18
 -3.1529068001452537E-01 a      1419     1    20     2    19
  3.4997214830338369E-01 a      1420     1    20     2    20
  1.5716133772708321E-01 b      1421     2     1
  1.3747922469655867E+00 b      1422     2     2
 -9.8657380156069618E-01 b      1423     2     3
  1.2646106365200629E+00 b      1424     2     4
 -9.4935652889053868E-01 b      1425     2     5
 -4.0123844897245764E-01 b      1426     2     6
 -5.3930608037035355E-01 b      1427     2     7
  1.2111828306500483E+00 b      1428     2     8
  6.9696076603460588E-01 b      1429     2     9
  5.9637426909850233E-01 b      1430     2    10
  1.4995683878845855E-02 b      1431     2    11
  1.0808139242244402E-01 b      1432     2    12
 -2.7584940383587953E-01 b      1433     2    13
  6.8030561534414513E-01 b      1434     2    14
 -3.8195897611558405E-01 b      1435     2    15
  1.1956351586655702E+00 b      1436     2    16
  1.2168041287247220E+00 b      1437     2    17
 -4.9249959038632413E-01 b      1438     2    18
 -1.4684828087627060E+00 b      1439     2    19
  1.4003739734547980E+00 b      1440     2    20
  2.0279737872187138E-02 a      1441     2     1     3     1
 -2.8618604080380389E-02 a      1442     2     2     3     1
  6.1579631969379089E-01 a      1443     2     3     3     1
 -1.3537621507871762E+00 a      1444     2     4     3     1
  2.6483578695418702E-01 a      1445     2     5     3     1
  3.0568770163440429E-01 a      1446     2     6     3     1
 -1.2020176397475935E-01 a      1447     2     7     3     1
  1.0316648374239594E-02 a      1448     2     8     3     1
 -7.5773425116931792E-01 a      1449     2     9     3     1
  3.9873474034978158E-02 a      1450     2    10     3     1
 -1.7641400839192051E-02 a      1451     2    11     3     1
 -7.5025977596303250E-01 a      1452     2    12     3     1
 -1.3742770441243064E+00 a      1453     2    13     3     1
  8.1406523758747218E-01 a      1454     2    14     3     1
  1.1336399259780461E+00 a      1455     2    15     3     1
 -2.1326717225833838E-01 a      1456     2    16     3     1
 -2.2363949547051598E-01 a      1457     2    17     3     1
 -2.6896300682888705E-02 a      1458     2    18     3     1
 -1.7894404802207919E-01 a      1459     2    19     3     1
 -4.5737512175230194E-01 a      1460     2    20     3     1
 -1.0448885622693485E+00 b      1461     3     1
