################################################################################
# Neural network connection values (weights and biases).
################################################################################
# Col  Name       Description
################################################################################
# 1    connection Neural network connection value.
# 2    t          Connection type (a = weight, b = bias).
# 3    index      Index enumerating weights.
# 4    l_s        Starting point layer (end point layer for biases).
# 5    n_s        Starting point neuron in starting layer (end point neuron for biases).
# 6    l_e        End point layer.
# 7    n_e        End point neuron in end layer.
################################################################################
#                      1 2         3     4     5     6     7
#             connection t     index   l_s   n_s   l_e   n_e
############################################################
  1.4262624524383291E-01 a         1     0     1     1     1
 -9.7725229270320721E-02 a         2     0     1     1     2
 -1.4093771350383877E-01 a         3     0     1     1     3
 -3.7859318555073168E-01 a         4     0     1     1     4
 -1.0439276154182693E-01 a         5     0     1     1     5
  4.8379734976543326E-02 a         6     0     1     1     6
  4.0047896598871105E-02 a         7     0     1     1     7
  3.5436381299827913E-01 a         8     0     1     1     8
  1.7359640716902630E-01 a         9     0     1     1     9
 -3.9772530055949251E-01 a        10     0     1     1    10
 -2.9731018977949641E-01 a        11     0     1     1    11
  3.5688514858550589E-02 a        12     0     1     1    12
  7.5271066430016895E-02 a        13     0     1     1    13
  2.3924704274911787E-01 a        14     0     1     1    14
  1.0693761270619470E-01 a        15     0     1     1    15
 -3.3290125631072951E-04 a        16     0     1     1    16
 -2.0146245496096501E-02 a        17     0     1     1    17
 -1.6573582668032527E-01 a        18     0     1     1    18
  1.5482892184360805E-01 a        19     0     1     1    19
 -2.9363140440173470E-02 a        20     0     1     1    20
  1.1874115444892588E-01 a        21     0     2     1     1
  3.3679175744913981E-01 a        22     0     2     1     2
  6.8145345050573555E-02 a        23     0     2     1     3
  1.1852649853743288E-02 a        24     0     2     1     4
  1.1264327050286616E-01 a        25     0     2     1     5
  1.1795190796097801E-01 a        26     0     2     1     6
  6.2745222617658983E-02 a        27     0     2     1     7
 -9.9509432717363247E-02 a        28     0     2     1     8
  1.2165386835411357E-01 a        29     0     2     1     9
 -3.8586996906352415E-02 a        30     0     2     1    10
  5.4295964921875391E-02 a        31     0     2     1    11
  7.8374461952590457E-02 a        32     0     2     1    12
 -9.2505906924877729E-02 a        33     0     2     1    13
 -9.8684700819767490E-02 a        34     0     2     1    14
 -4.7768950993870046E-02 a        35     0     2     1    15
  2.2627732378272133E-02 a        36     0     2     1    16
 -1.4915372728129669E-01 a        37     0     2     1    17
  5.7115793038070725E-02 a        38     0     2     1    18
 -1.6938579298088945E-02 a        39     0     2     1    19
  1.4710625018334448E-03 a        40     0     2     1    20
  1.8287439502215358E-01 a        41     0     3     1     1
  9.5413157396974382E-02 a        42     0     3     1     2
 -2.3482710105452279E-01 a        43     0     3     1     3
  2.5994174754146526E-01 a        44     0     3     1     4
 -1.9326524768345540E-01 a        45     0     3     1     5
  2.4015677268533217E-01 a        46     0     3     1     6
  3.9593091824002141E-01 a        47     0     3     1     7
 -1.6611025548801533E-01 a        48     0     3     1     8
 -1.4483438802475776E-01 a        49     0     3     1     9
  1.0407240641446842E-01 a        50     0     3     1    10
  2.2470468690317857E-01 a        51     0     3     1    11
  3.2281670214053565E-01 a        52     0     3     1    12
  2.1513589822852763E-01 a        53     0     3     1    13
  7.8834946873555037E-02 a        54     0     3     1    14
  1.0310204854377275E-01 a        55     0     3     1    15
 -3.4237547882711805E-01 a        56     0     3     1    16
  3.2419355084227018E-02 a        57     0     3     1    17
 -1.8412731904567883E-01 a        58     0     3     1    18
 -9.0350385342758702E-02 a        59     0     3     1    19
 -3.1014530592953213E-02 a        60     0     3     1    20
 -3.8092356021545437E-01 a        61     0     4     1     1
 -1.4430341576044761E-01 a        62     0     4     1     2
 -1.1225705744273844E-01 a        63     0     4     1     3
  1.1176800744645932E-02 a        64     0     4     1     4
  8.4534376003526160E-02 a        65     0     4     1     5
  1.6526392096227174E-01 a        66     0     4     1     6
  4.4752827818783494E-02 a        67     0     4     1     7
 -4.3774710246952570E-01 a        68     0     4     1     8
  1.4002965655440450E-01 a        69     0     4     1     9
  3.5508494039069310E-01 a        70     0     4     1    10
  3.2487799422442060E-01 a        71     0     4     1    11
 -3.9684220386401237E-01 a        72     0     4     1    12
 -1.0041739679752200E-02 a        73     0     4     1    13
 -2.5098137598445291E-01 a        74     0     4     1    14
 -3.8930578686145179E-01 a        75     0     4     1    15
 -1.7379315240895213E-01 a        76     0     4     1    16
 -1.7648757721867939E-01 a        77     0     4     1    17
  1.4084709657353258E-02 a        78     0     4     1    18
 -3.2775867545929288E-01 a        79     0     4     1    19
 -9.4288262519053645E-02 a        80     0     4     1    20
 -1.3397410087233078E-01 a        81     0     5     1     1
 -1.0246678741841912E-01 a        82     0     5     1     2
  1.2488618620720258E-01 a        83     0     5     1     3
  1.3641526326615822E-01 a        84     0     5     1     4
 -9.5420707318819215E-02 a        85     0     5     1     5
 -2.2304242973029245E-01 a        86     0     5     1     6
 -1.3144646583942010E-01 a        87     0     5     1     7
  2.4718571561864403E-01 a        88     0     5     1     8
 -3.7794901190240571E-01 a        89     0     5     1     9
  1.7107692419712001E-01 a        90     0     5     1    10
  1.7773966587591628E-01 a        91     0     5     1    11
 -1.1046948092469011E-01 a        92     0     5     1    12
  3.8793898377737987E-02 a        93     0     5     1    13
 -2.6003569878772632E-02 a        94     0     5     1    14
  4.9793584358221309E-02 a        95     0     5     1    15
 -1.0652556056161211E-01 a        96     0     5     1    16
  2.2988643514332344E-01 a        97     0     5     1    17
 -1.6484403693130673E-02 a        98     0     5     1    18
 -6.8702533514040279E-02 a        99     0     5     1    19
 -1.7613642014449796E-01 a       100     0     5     1    20
 -2.8604448879612132E-01 a       101     0     6     1     1
 -8.5848310112892026E-02 a       102     0     6     1     2
  1.5164789693423733E-01 a       103     0     6     1     3
  1.4367947519029506E-01 a       104     0     6     1     4
  1.4031791194372212E-01 a       105     0     6     1     5
 -4.0545777834513286E-01 a       106     0     6     1     6
  3.0465638513908488E-01 a       107     0     6     1     7
  2.5464965615996832E-01 a       108     0     6     1     8
 -2.3365621510236143E-01 a       109     0     6     1     9
 -2.7707147878882910E-01 a       110     0     6     1    10
  3.4345382857806646E-02 a       111     0     6     1    11
  7.6009804781287243E-02 a       112     0     6     1    12
 -6.0012593859363701E-02 a       113     0     6     1    13
  8.4560236912615327E-02 a       114     0     6     1    14
 -8.9927607887499691E-02 a       115     0     6     1    15
  2.9355288127348850E-01 a       116     0     6     1    16
 -5.1018278080282059E-02 a       117     0     6     1    17
  1.9512002485099234E-01 a       118     0     6     1    18
 -1.9627936894243603E-01 a       119     0     6     1    19
  1.5862011944798873E-02 a       120     0     6     1    20
 -2.2218500895677562E-02 a       121     0     7     1     1
 -4.4121895985945098E-02 a       122     0     7     1     2
  1.9142566574248959E-01 a       123     0     7     1     3
 -2.0188600976528390E-01 a       124     0     7     1     4
 -1.3515075431201432E-01 a       125     0     7     1     5
  2.8965005338799354E-01 a       126     0     7     1     6
 -1.5578924020933282E-01 a       127     0     7     1     7
  1.3811586901430722E-01 a       128     0     7     1     8
 -4.5417944238354652E-01 a       129     0     7     1     9
 -3.4644205831709157E-01 a       130     0     7     1    10
  4.6593967926624930E-02 a       131     0     7     1    11
 -1.0274664421269712E-01 a       132     0     7     1    12
  2.3470770516131270E-01 a       133     0     7     1    13
 -5.1801765031560865E-02 a       134     0     7     1    14
 -4.5271620514357701E-02 a       135     0     7     1    15
 -2.4365307505454459E-02 a       136     0     7     1    16
 -9.5545118468458326E-02 a       137     0     7     1    17
 -3.2661964166071633E-01 a       138     0     7     1    18
  2.9652632147369568E-01 a       139     0     7     1    19
  1.0206986707326701E-01 a       140     0     7     1    20
 -9.5211449978334181E-02 a       141     0     8     1     1
  5.1523517144189540E-02 a       142     0     8     1     2
  1.7020422876110375E-01 a       143     0     8     1     3
 -1.0589887865198591E-01 a       144     0     8     1     4
 -1.3782478548288205E-01 a       145     0     8     1     5
 -1.3826601236699545E-02 a       146     0     8     1     6
 -2.2055968213569782E-01 a       147     0     8     1     7
  5.3074763016451441E-02 a       148     0     8     1     8
  8.6201121869409841E-02 a       149     0     8     1     9
 -6.7609078003310383E-02 a       150     0     8     1    10
 -3.7334921417142769E-01 a       151     0     8     1    11
 -8.5988219929720486E-02 a       152     0     8     1    12
 -2.0427736473844343E-01 a       153     0     8     1    13
  2.0257890679318533E-01 a       154     0     8     1    14
 -1.8702534209257388E-01 a       155     0     8     1    15
  1.7060460938177476E-02 a       156     0     8     1    16
 -8.1479415192221377E-02 a       157     0     8     1    17
 -2.6645133726665809E-02 a       158     0     8     1    18
  2.4083506222490805E-01 a       159     0     8     1    19
  3.7758426466219425E-01 a       160     0     8     1    20
  9.5192893768443088E-02 a       161     0     9     1     1
  3.1012354110426299E-01 a       162     0     9     1     2
 -3.0954968377893433E-01 a       163     0     9     1     3
 -6.3847740511749435E-02 a       164     0     9     1     4
 -5.6784748770060206E-02 a       165     0     9     1     5
  2.9393196041333769E-01 a       166     0     9     1     6
  2.9238009017092026E-01 a       167     0     9     1     7
  1.1051110482984164E-01 a       168     0     9     1     8
 -2.2696633020400336E-01 a       169     0     9     1     9
  2.7668119401944702E-01 a       170     0     9     1    10
  2.8420233228104757E-02 a       171     0     9     1    11
 -1.9688307343792309E-02 a       172     0     9     1    12
  3.0257788287819098E-01 a       173     0     9     1    13
 -8.0287597177456052E-02 a       174     0     9     1    14
  1.3626979636241264E-02 a       175     0     9     1    15
 -4.0151359464553414E-02 a       176     0     9     1    16
  1.2809339481850032E-01 a       177     0     9     1    17
  1.3554792547790309E-01 a       178     0     9     1    18
  1.6715131248566531E-01 a       179     0     9     1    19
 -1.0745671411335904E-01 a       180     0     9     1    20
 -4.3511773925195014E-02 a       181     0    10     1     1
  4.0618243210324208E-02 a       182     0    10     1     2
 -1.0102571117598177E-01 a       183     0    10     1     3
 -2.7286225902169413E-02 a       184     0    10     1     4
  2.4039949646814077E-01 a       185     0    10     1     5
 -3.2281406793809655E-02 a       186     0    10     1     6
 -1.0133247901080360E-01 a       187     0    10     1     7
 -4.2157553047825112E-02 a       188     0    10     1     8
  3.3512832938407405E-01 a       189     0    10     1     9
  1.8727858992310681E-01 a       190     0    10     1    10
 -3.0720831731966568E-02 a       191     0    10     1    11
 -2.5969891819977695E-02 a       192     0    10     1    12
 -2.2416805528592620E-01 a       193     0    10     1    13
 -2.6338900336358617E-01 a       194     0    10     1    14
 -2.0476540896052609E-01 a       195     0    10     1    15
 -4.1752416113398733E-01 a       196     0    10     1    16
 -1.5582557132513997E-01 a       197     0    10     1    17
 -3.3851297224318490E-02 a       198     0    10     1    18
  1.0112236057400979E-01 a       199     0    10     1    19
 -1.6851315669391319E-02 a       200     0    10     1    20
 -2.6923413425039261E-02 a       201     0    11     1     1
  1.8834532927175909E-01 a       202     0    11     1     2
  6.1666335210590117E-02 a       203     0    11     1     3
  3.6447954277284994E-01 a       204     0    11     1     4
 -1.2476525286036609E-01 a       205     0    11     1     5
  4.8205867424087931E-02 a       206     0    11     1     6
 -2.0836041789525853E-01 a       207     0    11     1     7
 -3.5935814415800564E-02 a       208     0    11     1     8
  3.1724691984265349E-02 a       209     0    11     1     9
 -5.2512210344931136E-02 a       210     0    11     1    10
  3.2991350730789831E-01 a       211     0    11     1    11
  6.1364601668198904E-02 a       212     0    11     1    12
 -3.1355209384749166E-01 a       213     0    11     1    13
 -3.8883996541198874E-02 a       214     0    11     1    14
  2.2560649988210368E-01 a       215     0    11     1    15
 -9.8949084442099502E-02 a       216     0    11     1    16
  1.6945187204383683E-01 a       217     0    11     1    17
  5.1631738158813487E-02 a       218     0    11     1    18
 -2.4437967530944849E-01 a       219     0    11     1    19
  4.7154687008719387E-02 a       220     0    11     1    20
 -3.0914413918487982E-02 a       221     0    12     1     1
  2.0711334434516643E-01 a       222     0    12     1     2
 -2.3961541583808202E-01 a       223     0    12     1     3
 -1.9185545316490762E-02 a       224     0    12     1     4
  1.6622805136112553E-01 a       225     0    12     1     5
 -1.0263604819376275E-01 a       226     0    12     1     6
 -1.1125010820509137E-01 a       227     0    12     1     7
 -1.8883991430581387E-01 a       228     0    12     1     8
  1.5425100092913913E-01 a       229     0    12     1     9
  2.4419168289012474E-01 a       230     0    12     1    10
  1.5798562705384861E-01 a       231     0    12     1    11
  1.0535776047062780E-01 a       232     0    12     1    12
 -1.4119257924841463E-01 a       233     0    12     1    13
 -1.2518667672409398E-01 a       234     0    12     1    14
  3.1741350681351879E-02 a       235     0    12     1    15
  1.0123860876990970E-01 a       236     0    12     1    16
 -4.5546936821682309E-02 a       237     0    12     1    17
 -1.1921042475554117E-01 a       238     0    12     1    18
 -8.1672908163618663E-02 a       239     0    12     1    19
  1.7304239656499368E-01 a       240     0    12     1    20
 -1.0587918489459013E-01 a       241     0    13     1     1
 -1.0576126130242566E-01 a       242     0    13     1     2
  7.6137440239950104E-03 a       243     0    13     1     3
  6.6064732937136231E-02 a       244     0    13     1     4
  3.2738762390840115E-02 a       245     0    13     1     5
  2.2650134360335414E-01 a       246     0    13     1     6
  7.3342171316665816E-02 a       247     0    13     1     7
  9.5775063501893951E-02 a       248     0    13     1     8
 -8.5971914763044638E-02 a       249     0    13     1     9
 -1.1961576499147825E-01 a       250     0    13     1    10
  9.2128825289501171E-02 a       251     0    13     1    11
  1.7596253077856969E-01 a       252     0    13     1    12
  3.8955518058823613E-01 a       253     0    13     1    13
 -1.5480327275476974E-01 a       254     0    13     1    14
 -1.4766526931403193E-01 a       255     0    13     1    15
  2.4663585050739418E-02 a       256     0    13     1    16
 -1.1148260380409389E-01 a       257     0    13     1    17
 -1.2460785037480089E-02 a       258     0    13     1    18
  1.7593285121853222E-01 a       259     0    13     1    19
 -2.1980519803461709E-01 a       260     0    13     1    20
 -7.3603288855317667E-02 a       261     0    14     1     1
 -1.8710500456498827E-01 a       262     0    14     1     2
  3.6750508681310279E-01 a       263     0    14     1     3
 -2.2534140224341717E-01 a       264     0    14     1     4
  1.2853607998737282E-01 a       265     0    14     1     5
 -1.7344054408426104E-01 a       266     0    14     1     6
  5.0049967060607305E-02 a       267     0    14     1     7
  1.4592298408467122E-01 a       268     0    14     1     8
  1.1321144544897117E-01 a       269     0    14     1     9
  2.5383214933439024E-01 a       270     0    14     1    10
 -1.0469469082452736E-01 a       271     0    14     1    11
 -2.8439739766509897E-01 a       272     0    14     1    12
  1.2051595518132881E-01 a       273     0    14     1    13
 -1.0850237137122168E-01 a       274     0    14     1    14
 -4.4654041224742445E-02 a       275     0    14     1    15
  1.8782539761658834E-01 a       276     0    14     1    16
 -5.8650370035932507E-02 a       277     0    14     1    17
  7.2986674682537264E-02 a       278     0    14     1    18
  5.5230273310109997E-02 a       279     0    14     1    19
  2.7039112110249428E-02 a       280     0    14     1    20
 -2.1312937682231615E-02 a       281     0    15     1     1
  5.2975859184430027E-03 a       282     0    15     1     2
  2.4416963996511112E-01 a       283     0    15     1     3
  1.3936741652791851E-01 a       284     0    15     1     4
  1.0222751770983193E-01 a       285     0    15     1     5
 -4.8950009904019497E-03 a       286     0    15     1     6
  1.7808610678041934E-02 a       287     0    15     1     7
 -3.2733050391976146E-02 a       288     0    15     1     8
 -1.8076826908363500E-01 a       289     0    15     1     9
 -6.7452581200160219E-03 a       290     0    15     1    10
 -4.1943690996261267E-02 a       291     0    15     1    11
  6.2733500431577929E-03 a       292     0    15     1    12
 -6.8291802233082663E-02 a       293     0    15     1    13
 -1.5667350016045875E-01 a       294     0    15     1    14
  5.9704332377400179E-02 a       295     0    15     1    15
 -3.8929849085109582E-02 a       296     0    15     1    16
 -9.4723577424058500E-02 a       297     0    15     1    17
  5.9631026684890114E-02 a       298     0    15     1    18
  1.0407679800563382E-01 a       299     0    15     1    19
 -1.2614945192240046E-01 a       300     0    15     1    20
 -4.2559374570372684E-02 a       301     0    16     1     1
 -1.7581824285413480E-01 a       302     0    16     1     2
 -1.9127248878125511E-01 a       303     0    16     1     3
 -9.1107970470821198E-02 a       304     0    16     1     4
  1.5533645970249835E-01 a       305     0    16     1     5
  1.7922694427310898E-02 a       306     0    16     1     6
  3.3240935373151415E-01 a       307     0    16     1     7
  7.3351936814158511E-03 a       308     0    16     1     8
 -6.7027753959396572E-02 a       309     0    16     1     9
  8.7947867214980130E-02 a       310     0    16     1    10
  8.3197280719506189E-02 a       311     0    16     1    11
 -3.3743795264088897E-02 a       312     0    16     1    12
 -2.1412661692809298E-01 a       313     0    16     1    13
 -7.5430612513427793E-03 a       314     0    16     1    14
 -8.9326364660005902E-02 a       315     0    16     1    15
  9.0665005560575228E-03 a       316     0    16     1    16
 -2.0650666598028444E-02 a       317     0    16     1    17
 -3.6378609097977611E-02 a       318     0    16     1    18
 -1.7664073057372121E-01 a       319     0    16     1    19
  4.1765228128836807E-03 a       320     0    16     1    20
 -6.7841263554847472E-02 a       321     0    17     1     1
 -6.6978765620267458E-02 a       322     0    17     1     2
 -1.4823464250998258E-01 a       323     0    17     1     3
  1.1165734540090697E-01 a       324     0    17     1     4
 -1.2779091361448316E-01 a       325     0    17     1     5
 -1.1048411018204086E-01 a       326     0    17     1     6
  2.8083031607783171E-01 a       327     0    17     1     7
  6.0346833053428394E-03 a       328     0    17     1     8
 -8.8010035056919997E-02 a       329     0    17     1     9
 -2.6574791991668495E-01 a       330     0    17     1    10
 -2.4318425092778037E-01 a       331     0    17     1    11
  1.5773038421772567E-01 a       332     0    17     1    12
 -1.9499442439741924E-01 a       333     0    17     1    13
  3.3000037485183070E-01 a       334     0    17     1    14
  2.1831715555425152E-01 a       335     0    17     1    15
  7.4449875670234408E-02 a       336     0    17     1    16
  4.1481195100079651E-02 a       337     0    17     1    17
  7.6073784384940737E-02 a       338     0    17     1    18
 -1.2057387392765145E-01 a       339     0    17     1    19
 -2.7231240657007327E-02 a       340     0    17     1    20
 -7.6112856206532922E-02 a       341     0    18     1     1
 -1.3596035826705918E-01 a       342     0    18     1     2
 -1.3391733987372420E-01 a       343     0    18     1     3
 -4.1764285473775510E-02 a       344     0    18     1     4
 -4.0613368127810461E-02 a       345     0    18     1     5
  3.1902697598737782E-02 a       346     0    18     1     6
  1.5253122317679391E-01 a       347     0    18     1     7
  1.4051623185091289E-01 a       348     0    18     1     8
  2.5497036023012815E-02 a       349     0    18     1     9
  4.3213847836765927E-02 a       350     0    18     1    10
 -1.3579482075884625E-01 a       351     0    18     1    11
  2.5027938100477064E-02 a       352     0    18     1    12
  8.3942852497355308E-02 a       353     0    18     1    13
  5.3681829532653755E-02 a       354     0    18     1    14
  2.9119065362888098E-02 a       355     0    18     1    15
  1.0460862409907347E-01 a       356     0    18     1    16
  5.4840607239695971E-02 a       357     0    18     1    17
 -2.8869405222268281E-02 a       358     0    18     1    18
 -8.0457423217690408E-02 a       359     0    18     1    19
  1.6444237330399400E-01 a       360     0    18     1    20
 -1.0228030945596568E-01 a       361     0    19     1     1
  1.7602578415750028E-01 a       362     0    19     1     2
 -2.1781986055228034E-01 a       363     0    19     1     3
 -7.0045820409845777E-02 a       364     0    19     1     4
 -1.2558867835911780E-02 a       365     0    19     1     5
  7.8092306030913883E-02 a       366     0    19     1     6
 -1.2097219306547409E-01 a       367     0    19     1     7
 -1.2052079303848304E-01 a       368     0    19     1     8
  4.2739527944092269E-02 a       369     0    19     1     9
  9.9807580966822892E-02 a       370     0    19     1    10
  1.8923407543624760E-01 a       371     0    19     1    11
  4.6782459884837937E-02 a       372     0    19     1    12
  8.8904517149707873E-02 a       373     0    19     1    13
 -1.2787189944659053E-01 a       374     0    19     1    14
 -8.1430595821333322E-03 a       375     0    19     1    15
  2.0320885525144688E-02 a       376     0    19     1    16
 -3.1732819466298474E-02 a       377     0    19     1    17
  6.9777354902816960E-02 a       378     0    19     1    18
  4.4678622048050134E-02 a       379     0    19     1    19
 -1.1912978834055422E-01 a       380     0    19     1    20
  8.7831549421077793E-02 a       381     0    20     1     1
  5.0820018331953584E-02 a       382     0    20     1     2
  2.3104682421090120E-01 a       383     0    20     1     3
  8.1727936149426764E-02 a       384     0    20     1     4
 -1.5439274184522894E-01 a       385     0    20     1     5
  2.5918646024537605E-02 a       386     0    20     1     6
 -7.6881315360424951E-03 a       387     0    20     1     7
  1.1705920599368253E-02 a       388     0    20     1     8
  6.8885566326778502E-02 a       389     0    20     1     9
 -7.9566455706246049E-03 a       390     0    20     1    10
 -3.3007543577214228E-02 a       391     0    20     1    11
 -1.3401064913683794E-01 a       392     0    20     1    12
  3.4297852973347398E-01 a       393     0    20     1    13
 -3.1497939173271247E-02 a       394     0    20     1    14
 -3.4395136095166028E-02 a       395     0    20     1    15
 -1.0343089574236076E-01 a       396     0    20     1    16
  8.0212291771864092E-02 a       397     0    20     1    17
 -5.8749361233034862E-02 a       398     0    20     1    18
  3.5954578506433375E-02 a       399     0    20     1    19
  1.4035366891584664E-01 a       400     0    20     1    20
  9.9316265886832011E-02 a       401     0    21     1     1
 -9.6867320175069604E-02 a       402     0    21     1     2
  9.7667518795194100E-02 a       403     0    21     1     3
 -8.5391724427178305E-03 a       404     0    21     1     4
 -1.3642002833136230E-01 a       405     0    21     1     5
  2.5026878997814809E-02 a       406     0    21     1     6
 -7.9844501223700903E-02 a       407     0    21     1     7
 -1.1501978906238655E-01 a       408     0    21     1     8
  2.2012129892711174E-01 a       409     0    21     1     9
 -1.1847660965552673E-01 a       410     0    21     1    10
 -5.4861423083097341E-02 a       411     0    21     1    11
  1.1149527145636222E-01 a       412     0    21     1    12
  1.5161102377941432E-01 a       413     0    21     1    13
  6.1461802930075221E-02 a       414     0    21     1    14
  3.4139247252827326E-02 a       415     0    21     1    15
 -2.0389372893075638E-01 a       416     0    21     1    16
  6.8005482781694784E-02 a       417     0    21     1    17
  1.6768579900644221E-02 a       418     0    21     1    18
  1.3454046317899337E-01 a       419     0    21     1    19
 -5.4016121261626832E-02 a       420     0    21     1    20
  8.4261776057757573E-02 a       421     0    22     1     1
 -1.3225476713522774E-01 a       422     0    22     1     2
  1.1021588699877106E-01 a       423     0    22     1     3
  1.2045008533757656E-01 a       424     0    22     1     4
  7.6567971348620950E-02 a       425     0    22     1     5
  1.0283924980475511E-02 a       426     0    22     1     6
 -9.7599964980980156E-02 a       427     0    22     1     7
 -4.8129198511377487E-02 a       428     0    22     1     8
 -9.5372434755782276E-02 a       429     0    22     1     9
  9.9723694983511954E-02 a       430     0    22     1    10
  8.1056762887602593E-02 a       431     0    22     1    11
 -2.4811875569945500E-03 a       432     0    22     1    12
 -7.6575648615990657E-02 a       433     0    22     1    13
 -8.2044153632843508E-02 a       434     0    22     1    14
 -6.6179198763989158E-02 a       435     0    22     1    15
 -7.0687264792093765E-02 a       436     0    22     1    16
  1.5787829908775843E-02 a       437     0    22     1    17
 -7.3413424739562014E-02 a       438     0    22     1    18
  4.4354254619391041E-02 a       439     0    22     1    19
  1.2429740716690907E-01 a       440     0    22     1    20
  5.0347627291741609E-02 a       441     0    23     1     1
 -9.1255743364693900E-02 a       442     0    23     1     2
 -9.0869526368643039E-02 a       443     0    23     1     3
 -7.3998753452470242E-02 a       444     0    23     1     4
  1.0941329449643018E-01 a       445     0    23     1     5
 -3.9262608053401531E-02 a       446     0    23     1     6
  9.1988787185185425E-02 a       447     0    23     1     7
  1.2987982258358610E-01 a       448     0    23     1     8
 -4.0019163575017280E-02 a       449     0    23     1     9
 -4.4207808319533297E-02 a       450     0    23     1    10
 -2.0543838286848620E-01 a       451     0    23     1    11
 -1.7139035146509121E-02 a       452     0    23     1    12
 -5.2321868112981486E-02 a       453     0    23     1    13
  6.5998874236373281E-02 a       454     0    23     1    14
  8.9930020149839113E-02 a       455     0    23     1    15
  1.8148968564611040E-01 a       456     0    23     1    16
 -7.1541502242600738E-02 a       457     0    23     1    17
  6.6530214527168063E-02 a       458     0    23     1    18
  3.3937574820133917E-02 a       459     0    23     1    19
 -4.8152382597304075E-02 a       460     0    23     1    20
 -7.7989254777681274E-02 a       461     0    24     1     1
  1.5640516509713917E-01 a       462     0    24     1     2
  5.0576035667763364E-02 a       463     0    24     1     3
  1.2729925099031798E-02 a       464     0    24     1     4
  5.7392644568852048E-04 a       465     0    24     1     5
 -7.3137319396046077E-02 a       466     0    24     1     6
 -1.1218932949489004E-01 a       467     0    24     1     7
  1.1311225732829820E-01 a       468     0    24     1     8
 -1.3897272890194270E-01 a       469     0    24     1     9
 -4.1605578995384730E-02 a       470     0    24     1    10
  1.1115051695765568E-01 a       471     0    24     1    11
 -8.3701867434281055E-02 a       472     0    24     1    12
 -2.1439913656209758E-01 a       473     0    24     1    13
  8.4045681620484661E-02 a       474     0    24     1    14
 -1.3834468558067559E-01 a       475     0    24     1    15
  1.1049379874840400E-01 a       476     0    24     1    16
  1.0651748026149311E-02 a       477     0    24     1    17
 -2.9490095164792136E-02 a       478     0    24     1    18
 -1.0467033722982344E-01 a       479     0    24     1    19
  1.1137033105515858E-02 a       480     0    24     1    20
 -1.0318809136552201E-01 a       481     0    25     1     1
  2.0420985942912531E-01 a       482     0    25     1     2
 -1.2676126807772906E-01 a       483     0    25     1     3
 -9.5726446880262203E-02 a       484     0    25     1     4
 -2.9926219305203266E-02 a       485     0    25     1     5
  8.0079594480702093E-02 a       486     0    25     1     6
  1.9947982881178328E-01 a       487     0    25     1     7
 -2.8020182008740145E-02 a       488     0    25     1     8
 -3.0274356785619939E-02 a       489     0    25     1     9
  3.5315057338606189E-02 a       490     0    25     1    10
  7.7882939664503423E-02 a       491     0    25     1    11
 -9.7503346068818442E-02 a       492     0    25     1    12
  6.7698920543518462E-02 a       493     0    25     1    13
 -1.6381530429938881E-02 a       494     0    25     1    14
  3.5028189949079351E-02 a       495     0    25     1    15
  1.1870572674119441E-01 a       496     0    25     1    16
  5.6859005600749602E-03 a       497     0    25     1    17
  2.8485940636507417E-02 a       498     0    25     1    18
 -8.2092329813411274E-02 a       499     0    25     1    19
 -4.5887196462260346E-02 a       500     0    25     1    20
 -7.3673643250781282E-02 a       501     0    26     1     1
 -1.1616379666789724E-01 a       502     0    26     1     2
  5.8678168531123669E-02 a       503     0    26     1     3
  6.9677247822958893E-02 a       504     0    26     1     4
 -9.0410494599016011E-02 a       505     0    26     1     5
 -5.7681807148523903E-02 a       506     0    26     1     6
  2.3265408124099282E-01 a       507     0    26     1     7
 -7.8277933110883283E-03 a       508     0    26     1     8
  8.5201015883644454E-02 a       509     0    26     1     9
 -1.6111728416195617E-01 a       510     0    26     1    10
  2.3557764169626211E-02 a       511     0    26     1    11
  1.4220665719718470E-01 a       512     0    26     1    12
  2.8299364726918276E-02 a       513     0    26     1    13
  1.3392383486588655E-01 a       514     0    26     1    14
  2.3744266981001023E-05 a       515     0    26     1    15
 -7.3604882854837919E-02 a       516     0    26     1    16
  5.4219484704568673E-02 a       517     0    26     1    17
  8.4809513507748541E-03 a       518     0    26     1    18
 -1.5296390913610322E-01 a       519     0    26     1    19
 -7.8319290684865914E-02 a       520     0    26     1    20
  1.9803603172750144E-02 a       521     0    27     1     1
  9.5059737973427511E-02 a       522     0    27     1     2
 -5.3538465115453557E-02 a       523     0    27     1     3
  6.5261406735412225E-02 a       524     0    27     1     4
 -4.1130679302317806E-02 a       525     0    27     1     5
  7.3992334764991568E-03 a       526     0    27     1     6
  1.4471727866071494E-02 a       527     0    27     1     7
  1.0812685989251463E-02 a       528     0    27     1     8
  3.4331132594272888E-02 a       529     0    27     1     9
 -1.1101790456222940E-01 a       530     0    27     1    10
  7.1340481439690392E-02 a       531     0    27     1    11
  8.1062072517143077E-02 a       532     0    27     1    12
  1.0126222047223113E-01 a       533     0    27     1    13
  9.3270275391210120E-02 a       534     0    27     1    14
 -3.7456426182735945E-02 a       535     0    27     1    15
 -2.8098902993440252E-02 a       536     0    27     1    16
  5.7355695484166622E-02 a       537     0    27     1    17
  2.4791222199226005E-02 a       538     0    27     1    18
 -1.4575564141570086E-02 a       539     0    27     1    19
 -8.4092849656534338E-02 a       540     0    27     1    20
  9.1024233391826831E-02 a       541     0    28     1     1
  1.4672128148086849E-01 a       542     0    28     1     2
 -9.2785265625626889E-02 a       543     0    28     1     3
  1.0077989690230969E-01 a       544     0    28     1     4
 -2.2728803220057096E-02 a       545     0    28     1     5
 -4.2026457387434095E-02 a       546     0    28     1     6
 -5.6874156277810312E-02 a       547     0    28     1     7
 -2.9944652768203520E-02 a       548     0    28     1     8
 -1.1939930590430520E-01 a       549     0    28     1     9
 -1.6772853866696441E-02 a       550     0    28     1    10
  5.3859570339681050E-02 a       551     0    28     1    11
 -4.4105366792868764E-02 a       552     0    28     1    12
 -1.8651202448639811E-02 a       553     0    28     1    13
  5.0678385817660036E-02 a       554     0    28     1    14
 -7.5859981247738961E-02 a       555     0    28     1    15
 -6.2783535547678349E-02 a       556     0    28     1    16
 -1.6882674857706739E-02 a       557     0    28     1    17
  7.5509535073159308E-04 a       558     0    28     1    18
 -6.2259755255420268E-02 a       559     0    28     1    19
 -7.5346688539872184E-02 a       560     0    28     1    20
  2.0241834768630822E-03 a       561     0    29     1     1
 -1.4950059451537240E-01 a       562     0    29     1     2
  4.6155367987764945E-03 a       563     0    29     1     3
 -1.1043305020625686E-01 a       564     0    29     1     4
 -4.0623652018907747E-02 a       565     0    29     1     5
  4.6857533972025016E-02 a       566     0    29     1     6
 -2.0914510428387231E-01 a       567     0    29     1     7
  8.4729801318680867E-02 a       568     0    29     1     8
  1.1048200880827064E-01 a       569     0    29     1     9
 -3.1558861477973960E-02 a       570     0    29     1    10
 -1.1110160546966413E-01 a       571     0    29     1    11
 -2.5569747622322950E-02 a       572     0    29     1    12
  5.4842502492650838E-02 a       573     0    29     1    13
  2.0628421857540468E-03 a       574     0    29     1    14
  2.0227229317943421E-02 a       575     0    29     1    15
  5.7517746377102226E-02 a       576     0    29     1    16
  3.6131121250591570E-02 a       577     0    29     1    17
 -1.7819730181653871E-02 a       578     0    29     1    18
  1.0149065183296359E-01 a       579     0    29     1    19
  1.2484516635091064E-01 a       580     0    29     1    20
 -9.4029815010785098E-03 a       581     0    30     1     1
 -1.5453369043658952E-01 a       582     0    30     1     2
  3.8550797432036640E-02 a       583     0    30     1     3
 -6.4825468729446417E-02 a       584     0    30     1     4
  1.2126792319629093E-01 a       585     0    30     1     5
  3.6264540731483526E-05 a       586     0    30     1     6
  9.6332711624929346E-02 a       587     0    30     1     7
  9.1242032969620734E-04 a       588     0    30     1     8
 -2.1553765947949333E-02 a       589     0    30     1     9
  1.1124932840611879E-01 a       590     0    30     1    10
  6.5913741560568971E-03 a       591     0    30     1    11
  1.3647830449929704E-02 a       592     0    30     1    12
 -6.0433916195915059E-02 a       593     0    30     1    13
 -1.1720967210313313E-01 a       594     0    30     1    14
  7.3569514519925244E-02 a       595     0    30     1    15
  5.8348722427111338E-02 a       596     0    30     1    16
 -5.9132444061694170E-02 a       597     0    30     1    17
  4.5147205241930890E-03 a       598     0    30     1    18
  4.9178486406196646E-02 a       599     0    30     1    19
  4.1427213560419965E-02 a       600     0    30     1    20
  1.0172177697772899E-01 a       601     0    31     1     1
 -2.9647296847217525E-01 a       602     0    31     1     2
 -4.1486915004125158E-01 a       603     0    31     1     3
 -2.4059768315729611E-02 a       604     0    31     1     4
 -3.3388266652788615E-02 a       605     0    31     1     5
  5.1891423498498751E-04 a       606     0    31     1     6
 -2.5195712563231931E-01 a       607     0    31     1     7
 -1.2011462902775112E-01 a       608     0    31     1     8
  2.6499195986529284E-01 a       609     0    31     1     9
  4.7947872296369048E-01 a       610     0    31     1    10
  4.9650790484042619E-02 a       611     0    31     1    11
  2.9757980266744738E-01 a       612     0    31     1    12
  2.5260339618767887E-02 a       613     0    31     1    13
  1.2755301674387262E-01 a       614     0    31     1    14
  1.5768599640159631E-01 a       615     0    31     1    15
  4.6852823917487452E-01 a       616     0    31     1    16
  2.1736554297976982E-01 a       617     0    31     1    17
  4.9334103214590180E-01 a       618     0    31     1    18
 -1.7259737738247447E-01 a       619     0    31     1    19
 -1.0433429867615913E-01 a       620     0    31     1    20
  2.9773494466933418E-03 a       621     0    32     1     1
  4.0276825704303332E-01 a       622     0    32     1     2
  1.3569290888538130E-01 a       623     0    32     1     3
 -1.3723171196858100E-01 a       624     0    32     1     4
  1.5839489430857386E-02 a       625     0    32     1     5
 -4.2553362228842168E-01 a       626     0    32     1     6
 -1.0670625092430076E-01 a       627     0    32     1     7
  6.9478013807421704E-02 a       628     0    32     1     8
 -2.2270056715789757E-01 a       629     0    32     1     9
 -6.1969691469204646E-01 a       630     0    32     1    10
 -3.5860591752513093E-01 a       631     0    32     1    11
  5.0704022782048740E-02 a       632     0    32     1    12
  1.9729313347516053E-01 a       633     0    32     1    13
  4.0759564223696310E-01 a       634     0    32     1    14
  1.0908750780708934E-01 a       635     0    32     1    15
 -1.9022755201692271E-01 a       636     0    32     1    16
 -1.9513993466183394E-01 a       637     0    32     1    17
 -2.9520783425892205E-01 a       638     0    32     1    18
 -7.6933869030374871E-02 a       639     0    32     1    19
  6.9851880892456600E-02 a       640     0    32     1    20
  2.0162633551232689E-01 a       641     0    33     1     1
 -3.1267118239578662E-01 a       642     0    33     1     2
  1.6499918390848278E-01 a       643     0    33     1     3
  4.1548896646986737E-02 a       644     0    33     1     4
 -1.8974874920507333E-02 a       645     0    33     1     5
 -1.6969335241714747E-01 a       646     0    33     1     6
  1.0442245175047662E-01 a       647     0    33     1     7
 -3.3304208341785796E-02 a       648     0    33     1     8
 -1.0543441824352122E-01 a       649     0    33     1     9
 -1.8397791749470405E-01 a       650     0    33     1    10
 -7.6984717788941337E-02 a       651     0    33     1    11
  1.0163264070364830E-01 a       652     0    33     1    12
 -1.7546454087347427E-01 a       653     0    33     1    13
 -7.1975824358849055E-02 a       654     0    33     1    14
  1.4825665820615613E-01 a       655     0    33     1    15
 -1.8833168020143962E-01 a       656     0    33     1    16
 -1.0231085994177312E-01 a       657     0    33     1    17
  3.3686536695134967E-02 a       658     0    33     1    18
 -4.9259782112628402E-02 a       659     0    33     1    19
  3.9134401461344205E-02 a       660     0    33     1    20
  3.0122263280870865E-02 a       661     0    34     1     1
  1.4372663289803778E-01 a       662     0    34     1     2
  2.3471511703626269E-01 a       663     0    34     1     3
 -1.4424915426179338E-01 a       664     0    34     1     4
 -1.9000600411337884E-01 a       665     0    34     1     5
 -1.7167538658023604E-02 a       666     0    34     1     6
 -2.3890100010571622E-01 a       667     0    34     1     7
  4.8365414030255842E-02 a       668     0    34     1     8
  3.1754813635160528E-01 a       669     0    34     1     9
 -1.0042440548871542E-01 a       670     0    34     1    10
  9.9547781208847580E-02 a       671     0    34     1    11
  5.5912514117833510E-02 a       672     0    34     1    12
 -3.6746989198463025E-02 a       673     0    34     1    13
  7.0994697371803564E-03 a       674     0    34     1    14
  1.3970553194511624E-02 a       675     0    34     1    15
 -2.0397412241436253E-02 a       676     0    34     1    16
  2.3429578108160171E-01 a       677     0    34     1    17
 -5.9042964509013397E-02 a       678     0    34     1    18
 -5.9123696025867568E-02 a       679     0    34     1    19
  9.0530648439436742E-02 a       680     0    34     1    20
 -1.9108089799842715E-01 a       681     0    35     1     1
 -7.4374797400223860E-02 a       682     0    35     1     2
 -2.4239601987287935E-02 a       683     0    35     1     3
 -1.3919600681285191E-01 a       684     0    35     1     4
 -1.6711070196123234E-01 a       685     0    35     1     5
  1.1749783642968671E-02 a       686     0    35     1     6
  1.1980883510222014E-01 a       687     0    35     1     7
 -5.3123516657098718E-02 a       688     0    35     1     8
  7.8948278481343864E-02 a       689     0    35     1     9
 -9.9428776035495409E-02 a       690     0    35     1    10
  2.3277666114293208E-01 a       691     0    35     1    11
 -5.1090836946815335E-02 a       692     0    35     1    12
 -8.0320320569030643E-02 a       693     0    35     1    13
  2.2554201005588109E-01 a       694     0    35     1    14
 -2.5821616500999241E-02 a       695     0    35     1    15
 -1.4657353614855302E-02 a       696     0    35     1    16
  5.0320000894881770E-02 a       697     0    35     1    17
 -9.1373333960797096E-02 a       698     0    35     1    18
  1.0776899568385602E-02 a       699     0    35     1    19
 -1.1045544298964748E-01 a       700     0    35     1    20
  3.9121527430211592E-02 a       701     0    36     1     1
 -1.5342429053517065E-01 a       702     0    36     1     2
  2.2173020595323459E-02 a       703     0    36     1     3
  3.4299982833402602E-03 a       704     0    36     1     4
 -3.2925716042718162E-01 a       705     0    36     1     5
  1.3016844834099610E-02 a       706     0    36     1     6
 -2.1591027911414873E-02 a       707     0    36     1     7
 -1.5949088681420703E-01 a       708     0    36     1     8
  6.8356451328656739E-02 a       709     0    36     1     9
  3.3280278553458942E-01 a       710     0    36     1    10
 -3.6878121674736315E-02 a       711     0    36     1    11
 -6.1716682874714490E-01 a       712     0    36     1    12
  6.5324395908818722E-02 a       713     0    36     1    13
 -9.0627324271076337E-02 a       714     0    36     1    14
  1.1017129186110647E-01 a       715     0    36     1    15
 -4.4270362437928268E-01 a       716     0    36     1    16
 -2.4240929932076768E-02 a       717     0    36     1    17
 -1.4719157010289780E-01 a       718     0    36     1    18
  3.2642127206297757E-02 a       719     0    36     1    19
  1.6163967682978769E-01 a       720     0    36     1    20
  5.5938912973687596E-02 a       721     0    37     1     1
  1.0538343288285684E-01 a       722     0    37     1     2
  3.4804556408070958E-01 a       723     0    37     1     3
  6.4935071845250630E-02 a       724     0    37     1     4
  2.5857501130247540E-01 a       725     0    37     1     5
  1.0261389515125664E-01 a       726     0    37     1     6
 -2.5815677689843519E-01 a       727     0    37     1     7
 -2.1595085867418809E-01 a       728     0    37     1     8
  2.8181329396684825E-02 a       729     0    37     1     9
  2.6324985184226024E-01 a       730     0    37     1    10
  2.4900956888945980E-01 a       731     0    37     1    11
  4.4439639527507913E-01 a       732     0    37     1    12
 -1.8624079135563884E-01 a       733     0    37     1    13
  9.2045922456832126E-03 a       734     0    37     1    14
  2.5925131244999255E-01 a       735     0    37     1    15
  2.2643644543290034E-01 a       736     0    37     1    16
  1.0676613921064482E-01 a       737     0    37     1    17
 -2.1004164708932246E-01 a       738     0    37     1    18
  1.1061550736148269E-02 a       739     0    37     1    19
 -9.2217965808939581E-02 a       740     0    37     1    20
  5.0906772888708950E-02 a       741     0    38     1     1
  1.8600351913758958E-01 a       742     0    38     1     2
  1.3758889434411939E-01 a       743     0    38     1     3
 -2.6883798104034917E-01 a       744     0    38     1     4
  7.6011664446495278E-02 a       745     0    38     1     5
 -5.2647817900966669E-02 a       746     0    38     1     6
 -2.9524154883521769E-01 a       747     0    38     1     7
  1.9475793938446462E-01 a       748     0    38     1     8
 -3.6257286962068411E-02 a       749     0    38     1     9
  8.8405881198585612E-02 a       750     0    38     1    10
  2.3222536793753357E-01 a       751     0    38     1    11
  2.0275388638365352E-01 a       752     0    38     1    12
 -1.0887592089586190E-01 a       753     0    38     1    13
  1.4118116301012973E-01 a       754     0    38     1    14
 -8.2082947566099504E-02 a       755     0    38     1    15
 -5.4068906398739555E-02 a       756     0    38     1    16
  1.2934450158542990E-01 a       757     0    38     1    17
 -7.7531101129380511E-02 a       758     0    38     1    18
  1.0153915643408726E-01 a       759     0    38     1    19
  1.3572955024923145E-01 a       760     0    38     1    20
 -2.1592729263892269E-01 a       761     0    39     1     1
 -5.9101568657477836E-02 a       762     0    39     1     2
 -1.9708989761129023E-01 a       763     0    39     1     3
  1.8156790980274305E-02 a       764     0    39     1     4
  4.1593291148790248E-02 a       765     0    39     1     5
  2.5978365667956294E-01 a       766     0    39     1     6
 -1.0756783346759419E-01 a       767     0    39     1     7
 -1.3395971475562482E-01 a       768     0    39     1     8
  3.4874529666463627E-01 a       769     0    39     1     9
  6.7367341494829628E-03 a       770     0    39     1    10
  4.5510048176939190E-02 a       771     0    39     1    11
 -6.0450872595222936E-02 a       772     0    39     1    12
 -6.9913977259856624E-02 a       773     0    39     1    13
 -2.0730151176868739E-01 a       774     0    39     1    14
 -1.1146315217026773E-01 a       775     0    39     1    15
 -7.2515075360798806E-02 a       776     0    39     1    16
 -7.8200112856300671E-02 a       777     0    39     1    17
  1.3382508566533421E-01 a       778     0    39     1    18
  2.3844377285707244E-01 a       779     0    39     1    19
  4.4838189513550411E-02 a       780     0    39     1    20
  1.6670420632974312E-01 a       781     0    40     1     1
  2.5424647497250308E-01 a       782     0    40     1     2
 -2.2803361493286953E-01 a       783     0    40     1     3
  8.1693239427500133E-02 a       784     0    40     1     4
 -8.4993507097522250E-02 a       785     0    40     1     5
 -1.2323277543075835E-01 a       786     0    40     1     6
 -2.0552869865719386E-01 a       787     0    40     1     7
  2.5509831266799936E-02 a       788     0    40     1     8
  2.3393964558277719E-01 a       789     0    40     1     9
 -1.6727812401485943E-02 a       790     0    40     1    10
 -3.6878178121695387E-01 a       791     0    40     1    11
 -8.6511381640840740E-02 a       792     0    40     1    12
  2.6237389099199221E-01 a       793     0    40     1    13
  1.1930650185494263E-01 a       794     0    40     1    14
 -1.3061962490380233E-01 a       795     0    40     1    15
 -1.4380245437802078E-01 a       796     0    40     1    16
 -1.3753605177186226E-01 a       797     0    40     1    17
  1.8761362718077157E-01 a       798     0    40     1    18
 -1.7095936348381605E-01 a       799     0    40     1    19
 -3.0242778049149144E-01 a       800     0    40     1    20
  1.5317481564942670E-01 a       801     0    41     1     1
 -3.1968765678258887E-01 a       802     0    41     1     2
 -1.2236931970554553E-01 a       803     0    41     1     3
 -8.7342132731674252E-02 a       804     0    41     1     4
 -2.7396844681134444E-02 a       805     0    41     1     5
 -7.3254990447727125E-02 a       806     0    41     1     6
  2.0063538938069203E-01 a       807     0    41     1     7
 -1.2861866955897389E-01 a       808     0    41     1     8
 -2.0297586725563387E-02 a       809     0    41     1     9
 -1.8784165445125511E-01 a       810     0    41     1    10
  2.5392757263998378E-01 a       811     0    41     1    11
  7.4332110172142363E-02 a       812     0    41     1    12
  2.0727837609318935E-02 a       813     0    41     1    13
  2.3468476451766701E-01 a       814     0    41     1    14
 -9.5632596858705676E-02 a       815     0    41     1    15
  1.1303254479862553E-01 a       816     0    41     1    16
 -8.8347814704892697E-02 a       817     0    41     1    17
  1.7947246160808758E-01 a       818     0    41     1    18
 -3.2543657125826575E-01 a       819     0    41     1    19
 -1.1550181402155212E-01 a       820     0    41     1    20
 -2.9600504058671190E-01 a       821     0    42     1     1
 -1.0180610914925721E-01 a       822     0    42     1     2
 -2.2878920973613873E-01 a       823     0    42     1     3
 -1.9081198637645402E-01 a       824     0    42     1     4
  1.6836318283423157E-01 a       825     0    42     1     5
 -5.0501797942262248E-02 a       826     0    42     1     6
  1.2556877492011112E-01 a       827     0    42     1     7
  1.0195888899978214E-01 a       828     0    42     1     8
  3.8560062567215181E-01 a       829     0    42     1     9
 -6.0430511123066976E-03 a       830     0    42     1    10
 -2.3336381642030632E-01 a       831     0    42     1    11
  2.2534035531316621E-01 a       832     0    42     1    12
 -2.3629076485439715E-01 a       833     0    42     1    13
 -9.0330874493713617E-02 a       834     0    42     1    14
  2.0367684970369646E-01 a       835     0    42     1    15
  1.3850274460317538E-01 a       836     0    42     1    16
  1.4638307614061005E-01 a       837     0    42     1    17
 -9.7651857688544966E-02 a       838     0    42     1    18
  2.4286839065127919E-01 a       839     0    42     1    19
 -1.1653256363152101E-01 a       840     0    42     1    20
  8.7926628026121584E-02 a       841     0    43     1     1
  2.5075357751726407E-01 a       842     0    43     1     2
  1.8121027059781029E-03 a       843     0    43     1     3
  8.8671875795550983E-02 a       844     0    43     1     4
 -5.4600818374428525E-02 a       845     0    43     1     5
 -2.9546898548594443E-02 a       846     0    43     1     6
 -1.0844114659902201E-01 a       847     0    43     1     7
 -2.3831058838931253E-02 a       848     0    43     1     8
  1.0183049421036212E-01 a       849     0    43     1     9
 -1.5991010540071496E-01 a       850     0    43     1    10
  6.5553702556569241E-02 a       851     0    43     1    11
 -2.3427572546961037E-01 a       852     0    43     1    12
 -2.6962351502896255E-02 a       853     0    43     1    13
  1.1000167879201629E-01 a       854     0    43     1    14
 -3.9583995840678135E-02 a       855     0    43     1    15
  3.2961501627070434E-02 a       856     0    43     1    16
  1.4113270161175429E-01 a       857     0    43     1    17
 -7.7752950266382195E-02 a       858     0    43     1    18
 -5.4016215251681654E-02 a       859     0    43     1    19
 -5.4534730803686260E-02 a       860     0    43     1    20
 -1.6516538529878028E-02 a       861     0    44     1     1
  1.3079400711461317E-01 a       862     0    44     1     2
  1.1036776300685396E-01 a       863     0    44     1     3
  1.4313379621843850E-01 a       864     0    44     1     4
  1.2171183346600119E-01 a       865     0    44     1     5
  2.9828994009830120E-02 a       866     0    44     1     6
 -2.9175703032376871E-01 a       867     0    44     1     7
 -8.9911902193882634E-02 a       868     0    44     1     8
 -2.1656309319663555E-02 a       869     0    44     1     9
 -1.2707515945759426E-02 a       870     0    44     1    10
  1.0954311098825706E-01 a       871     0    44     1    11
 -1.4617582621728956E-01 a       872     0    44     1    12
 -5.4058735971792456E-02 a       873     0    44     1    13
 -1.8575526830809247E-01 a       874     0    44     1    14
 -1.5382527850093985E-01 a       875     0    44     1    15
  4.0652720942899234E-02 a       876     0    44     1    16
 -4.9185652230526230E-03 a       877     0    44     1    17
  2.4883075023926018E-02 a       878     0    44     1    18
  5.8564801948209573E-02 a       879     0    44     1    19
  2.2447915816824961E-02 a       880     0    44     1    20
  6.0251014461872074E-02 a       881     0    45     1     1
 -1.1640665270294985E-01 a       882     0    45     1     2
  2.2567588922480303E-01 a       883     0    45     1     3
  8.3363168970383497E-02 a       884     0    45     1     4
  1.7196592690521872E-01 a       885     0    45     1     5
 -7.7439749599107471E-03 a       886     0    45     1     6
 -1.2409247314338816E-01 a       887     0    45     1     7
  4.2064615215083957E-02 a       888     0    45     1     8
  9.9584969048995955E-02 a       889     0    45     1     9
  1.2864223585796583E-01 a       890     0    45     1    10
 -1.9663532270789838E-01 a       891     0    45     1    11
  4.6680704821598626E-02 a       892     0    45     1    12
 -9.2299473035827556E-02 a       893     0    45     1    13
 -1.6548348028209969E-01 a       894     0    45     1    14
  6.4380669705922072E-02 a       895     0    45     1    15
 -1.0537991565552292E-01 a       896     0    45     1    16
 -1.1625439644510233E-01 a       897     0    45     1    17
  6.1526412459912465E-02 a       898     0    45     1    18
  1.4642588346758753E-01 a       899     0    45     1    19
 -6.8158957505954354E-02 a       900     0    45     1    20
  1.6160964769398878E-01 a       901     0    46     1     1
  6.1111371077844064E-03 a       902     0    46     1     2
 -2.6525408172296894E-01 a       903     0    46     1     3
 -6.7754107096020524E-03 a       904     0    46     1     4
 -1.9273850891689201E-01 a       905     0    46     1     5
 -1.3118363568050637E-01 a       906     0    46     1     6
  7.0472657458593699E-02 a       907     0    46     1     7
  3.3604248116451880E-03 a       908     0    46     1     8
 -2.9748964951518454E-02 a       909     0    46     1     9
 -1.9799823468018329E-01 a       910     0    46     1    10
  5.6754170651546337E-02 a       911     0    46     1    11
 -2.4831517585630118E-02 a       912     0    46     1    12
 -2.2407770401738600E-01 a       913     0    46     1    13
  1.6859662824208330E-01 a       914     0    46     1    14
  3.9677671231492816E-02 a       915     0    46     1    15
 -1.3101097784345889E-01 a       916     0    46     1    16
  8.8103080260659966E-02 a       917     0    46     1    17
 -5.7628706965190325E-02 a       918     0    46     1    18
 -1.3123890298782864E-01 a       919     0    46     1    19
 -2.0517047444775418E-02 a       920     0    46     1    20
  2.0529954660662120E-01 a       921     0    47     1     1
  2.1831623888613905E-01 a       922     0    47     1     2
  1.8814713420537210E-01 a       923     0    47     1     3
  9.9603761053498552E-02 a       924     0    47     1     4
 -1.1006177142976446E-01 a       925     0    47     1     5
  4.4169497792758616E-01 a       926     0    47     1     6
  7.0969085631572360E-03 a       927     0    47     1     7
 -1.6800557525135311E-02 a       928     0    47     1     8
 -6.4409040289104158E-01 a       929     0    47     1     9
 -8.4226116812253560E-02 a       930     0    47     1    10
 -1.1978322890556936E-01 a       931     0    47     1    11
 -6.4933589308991305E-02 a       932     0    47     1    12
  2.9086214627619678E-01 a       933     0    47     1    13
  5.4375307779169935E-02 a       934     0    47     1    14
 -3.5316304646680818E-01 a       935     0    47     1    15
  5.5651610203421042E-01 a       936     0    47     1    16
 -6.5138301309797086E-02 a       937     0    47     1    17
  3.5371774992342780E-01 a       938     0    47     1    18
  1.6086137036560366E-02 a       939     0    47     1    19
  2.7071016999176328E-01 a       940     0    47     1    20
 -2.1798735347148088E-01 a       941     0    48     1     1
 -2.8031619766064197E-01 a       942     0    48     1     2
  5.5664840835253956E-02 a       943     0    48     1     3
 -2.9077496624593312E-02 a       944     0    48     1     4
 -6.5971417135625890E-02 a       945     0    48     1     5
  1.3579073570480094E-01 a       946     0    48     1     6
 -2.7246013201874969E-01 a       947     0    48     1     7
  1.5310375547159211E-01 a       948     0    48     1     8
 -1.7337280071211403E-01 a       949     0    48     1     9
 -3.0318138246375199E-02 a       950     0    48     1    10
 -1.7749435282560472E-01 a       951     0    48     1    11
 -1.5039051967588665E-01 a       952     0    48     1    12
 -2.7346288631931387E-01 a       953     0    48     1    13
 -6.4337911142403970E-03 a       954     0    48     1    14
 -1.4277125974520868E-01 a       955     0    48     1    15
  3.7573721399822285E-01 a       956     0    48     1    16
 -1.2932064819014652E-01 a       957     0    48     1    17
  1.9936414670076127E-01 a       958     0    48     1    18
 -1.3081293009567074E-01 a       959     0    48     1    19
  1.4971633025452956E-02 a       960     0    48     1    20
  2.1828241947351133E-02 a       961     0    49     1     1
 -1.5331512129146962E-01 a       962     0    49     1     2
  1.5565520001266314E-01 a       963     0    49     1     3
 -5.7842348627877911E-02 a       964     0    49     1     4
  7.4408657264945693E-02 a       965     0    49     1     5
 -2.5777407496924637E-01 a       966     0    49     1     6
  1.0550917019139535E-02 a       967     0    49     1     7
  1.9221578239929388E-01 a       968     0    49     1     8
 -2.9478475379452036E-02 a       969     0    49     1     9
 -5.4338977003816701E-02 a       970     0    49     1    10
 -3.6197708509161423E-02 a       971     0    49     1    11
  1.5862004583876793E-01 a       972     0    49     1    12
  1.9505310689100903E-02 a       973     0    49     1    13
  7.4801076300446162E-02 a       974     0    49     1    14
  2.2477051622798862E-02 a       975     0    49     1    15
 -9.1333727198134138E-02 a       976     0    49     1    16
 -5.5554243692098266E-03 a       977     0    49     1    17
 -9.0005355280025803E-02 a       978     0    49     1    18
  5.3294361115206633E-03 a       979     0    49     1    19
 -1.0230520371586702E-01 a       980     0    49     1    20
 -5.9314162528701586E-02 a       981     0    50     1     1
 -8.1986458954520891E-02 a       982     0    50     1     2
  1.7856590255456348E-01 a       983     0    50     1     3
  1.8922392367422144E-01 a       984     0    50     1     4
  4.7766022323959004E-02 a       985     0    50     1     5
  7.4531438825973267E-02 a       986     0    50     1     6
 -7.7024902999939346E-02 a       987     0    50     1     7
 -1.3998416606453140E-01 a       988     0    50     1     8
 -4.6107396503533619E-02 a       989     0    50     1     9
  6.2934959809890674E-03 a       990     0    50     1    10
 -3.2568868950584987E-02 a       991     0    50     1    11
  4.3725536763163514E-02 a       992     0    50     1    12
 -7.8879396321437836E-03 a       993     0    50     1    13
 -2.0038935966618163E-01 a       994     0    50     1    14
  7.3745265313171465E-02 a       995     0    50     1    15
 -2.7330775648048478E-02 a       996     0    50     1    16
  1.1596947327182866E-01 a       997     0    50     1    17
 -1.2354044202758009E-01 a       998     0    50     1    18
  1.6570378376366091E-01 a       999     0    50     1    19
  2.2170928051810945E-01 a      1000     0    50     1    20
 -5.8482988886927645E-01 b      1001     1     1
  8.9685122242112236E-01 b      1002     1     2
 -9.9700872038766519E-01 b      1003     1     3
 -1.2023253202318795E+00 b      1004     1     4
 -1.0013698297512008E-01 b      1005     1     5
 -4.3923830549154347E-01 b      1006     1     6
 -1.5240104493672300E+00 b      1007     1     7
  1.4889106246843558E+00 b      1008     1     8
  7.4246052571483145E-01 b      1009     1     9
  4.8598028643052266E-01 b      1010     1    10
 -1.5038203541138477E+00 b      1011     1    11
  7.6383449899122380E-01 b      1012     1    12
 -1.1370767176717407E+00 b      1013     1    13
  1.9791074825636929E-02 b      1014     1    14
 -2.0369120919146833E-01 b      1015     1    15
  1.3682584927316128E-02 b      1016     1    16
  3.3787209344552549E-01 b      1017     1    17
 -8.3084455454464179E-01 b      1018     1    18
  7.3565433795229052E-01 b      1019     1    19
 -4.6238958170341798E-01 b      1020     1    20
 -3.1969913082709789E-01 a      1021     1     1     2     1
  5.6508025031719422E-01 a      1022     1     1     2     2
  3.0081403260763845E-01 a      1023     1     1     2     3
  1.1075421807968439E-01 a      1024     1     1     2     4
  1.3545347658065432E-01 a      1025     1     1     2     5
 -5.7864636413553217E-01 a      1026     1     1     2     6
 -4.3993237344832431E-01 a      1027     1     1     2     7
 -6.7872051931572353E-01 a      1028     1     1     2     8
 -1.9409819993260249E-01 a      1029     1     1     2     9
  1.9482015691474514E-01 a      1030     1     1     2    10
  1.3996505249307689E-01 a      1031     1     1     2    11
 -2.1521615196087174E-01 a      1032     1     1     2    12
  5.7369055790246015E-01 a      1033     1     1     2    13
  1.9631741620958534E-01 a      1034     1     1     2    14
  1.3773661600504927E-01 a      1035     1     1     2    15
  5.3985245515518487E-01 a      1036     1     1     2    16
  4.0858244905525631E-01 a      1037     1     1     2    17
  7.8269511823919377E-02 a      1038     1     1     2    18
 -5.0180207271439770E-01 a      1039     1     1     2    19
  3.6990897704897013E-01 a      1040     1     1     2    20
  7.5848938889132744E-02 a      1041     1     2     2     1
  4.0165226894476991E-01 a      1042     1     2     2     2
 -4.4647557096699417E-02 a      1043     1     2     2     3
 -1.5272004950491408E-01 a      1044     1     2     2     4
  1.8502517478105018E-01 a      1045     1     2     2     5
  1.6381806829496059E-01 a      1046     1     2     2     6
 -2.3928433956781112E-01 a      1047     1     2     2     7
  5.3748943527458692E-01 a      1048     1     2     2     8
  2.9698341275298307E-01 a      1049     1     2     2     9
 -3.1804026280020381E-01 a      1050     1     2     2    10
  5.2465795986274522E-01 a      1051     1     2     2    11
 -3.6895847801862430E-01 a      1052     1     2     2    12
  2.7322656804201056E-01 a      1053     1     2     2    13
  4.1090071668043782E-01 a      1054     1     2     2    14
 -3.1298924565673103E-01 a      1055     1     2     2    15
  4.0848916056597123E-01 a      1056     1     2     2    16
 -3.2923957712649626E-01 a      1057     1     2     2    17
 -4.4787563097490668E-01 a      1058     1     2     2    18
  1.5073305144199842E-01 a      1059     1     2     2    19
  3.3817823655375601E-01 a      1060     1     2     2    20
 -4.9171245773443006E-01 a      1061     1     3     2     1
  5.0780779235309637E-01 a      1062     1     3     2     2
 -8.9469745853859417E-01 a      1063     1     3     2     3
 -5.0906216543692306E-01 a      1064     1     3     2     4
  4.3389744867430530E-01 a      1065     1     3     2     5
 -3.0542793755843484E-01 a      1066     1     3     2     6
  3.9479946613241240E-01 a      1067     1     3     2     7
 -5.2587854551677182E-01 a      1068     1     3     2     8
  1.6595368887664602E-01 a      1069     1     3     2     9
  2.6359930367998247E-01 a      1070     1     3     2    10
  1.3376068077949219E-01 a      1071     1     3     2    11
 -2.1749519432439418E-01 a      1072     1     3     2    12
 -1.6681561603409628E-03 a      1073     1     3     2    13
  2.5340861628108108E-01 a      1074     1     3     2    14
  2.0451970612716205E-01 a      1075     1     3     2    15
  5.7602861547246842E-01 a      1076     1     3     2    16
 -4.7696756864364359E-01 a      1077     1     3     2    17
  1.7842268451880158E-01 a      1078     1     3     2    18
  4.1354238956319306E-01 a      1079     1     3     2    19
 -1.0056733901063290E-01 a      1080     1     3     2    20
  5.0827725539720703E-01 a      1081     1     4     2     1
  2.9678965241817534E-01 a      1082     1     4     2     2
  2.9874015787803482E-01 a      1083     1     4     2     3
  2.4571300996474349E-01 a      1084     1     4     2     4
  1.1082786997395969E-01 a      1085     1     4     2     5
  2.5841798156565227E-01 a      1086     1     4     2     6
  2.9937744394670229E-01 a      1087     1     4     2     7
  1.4618284489442782E-01 a      1088     1     4     2     8
 -2.7860350246091908E-01 a      1089     1     4     2     9
 -6.7649063908279283E-01 a      1090     1     4     2    10
 -5.2288497479391993E-01 a      1091     1     4     2    11
  5.0657939712732258E-01 a      1092     1     4     2    12
  7.1934065669936165E-01 a      1093     1     4     2    13
  6.3061669909702522E-01 a      1094     1     4     2    14
 -5.1626288360313001E-02 a      1095     1     4     2    15
 -5.6306172222686679E-01 a      1096     1     4     2    16
  4.5418915561967321E-01 a      1097     1     4     2    17
 -4.7882094817655063E-01 a      1098     1     4     2    18
 -3.6035370384160176E-01 a      1099     1     4     2    19
 -5.9783359205186604E-01 a      1100     1     4     2    20
  2.3612357903017928E-01 a      1101     1     5     2     1
 -1.9434564856954945E-01 a      1102     1     5     2     2
 -2.6395843973945271E-01 a      1103     1     5     2     3
  3.5026096035898213E-01 a      1104     1     5     2     4
  3.5593342615136403E-01 a      1105     1     5     2     5
 -1.7087256500673054E-01 a      1106     1     5     2     6
 -3.6704020212089616E-01 a      1107     1     5     2     7
 -5.5803241357840642E-02 a      1108     1     5     2     8
  1.8831044514499012E-01 a      1109     1     5     2     9
 -4.7634148206256127E-01 a      1110     1     5     2    10
 -8.2595367309927656E-02 a      1111     1     5     2    11
  7.8870836355082310E-02 a      1112     1     5     2    12
  6.6614617797471742E-01 a      1113     1     5     2    13
 -3.6892915174565710E-01 a      1114     1     5     2    14
 -5.3503390312033405E-01 a      1115     1     5     2    15
  6.2602609778263751E-01 a      1116     1     5     2    16
  2.7683354038731933E-01 a      1117     1     5     2    17
 -3.3270529445585040E-01 a      1118     1     5     2    18
  1.3053135962801044E-02 a      1119     1     5     2    19
 -2.1066323176334853E-01 a      1120     1     5     2    20
  7.6568807486903945E-01 a      1121     1     6     2     1
  2.7340867205875569E-01 a      1122     1     6     2     2
 -4.7933685240689439E-01 a      1123     1     6     2     3
 -2.4270803487929696E-01 a      1124     1     6     2     4
 -6.5351714549064477E-01 a      1125     1     6     2     5
 -3.0351594844459467E-01 a      1126     1     6     2     6
 -6.9586009158484341E-01 a      1127     1     6     2     7
  3.2885956560867952E-01 a      1128     1     6     2     8
 -3.8501340824173569E-01 a      1129     1     6     2     9
  1.3586078977805607E-01 a      1130     1     6     2    10
 -6.8301057849826430E-01 a      1131     1     6     2    11
  3.8762415077705664E-01 a      1132     1     6     2    12
 -3.5690078396942987E-01 a      1133     1     6     2    13
  6.5454681789254177E-01 a      1134     1     6     2    14
 -5.8068788699922602E-02 a      1135     1     6     2    15
  2.2098433435121978E-01 a      1136     1     6     2    16
 -5.7373715245413859E-01 a      1137     1     6     2    17
  3.0891711743845929E-01 a      1138     1     6     2    18
  4.5542834677606764E-01 a      1139     1     6     2    19
  8.6878737815390317E-01 a      1140     1     6     2    20
  1.5721613046774611E-02 a      1141     1     7     2     1
 -4.1973720023340355E-01 a      1142     1     7     2     2
  2.6361171800557570E-01 a      1143     1     7     2     3
  1.6564843889832254E-01 a      1144     1     7     2     4
  5.1080615577983358E-02 a      1145     1     7     2     5
  2.0850451556104835E-01 a      1146     1     7     2     6
 -6.2832316184078918E-02 a      1147     1     7     2     7
 -6.1003859032167396E-01 a      1148     1     7     2     8
  2.8180122960205828E-01 a      1149     1     7     2     9
  1.1565067748158755E-01 a      1150     1     7     2    10
 -1.5403674927453193E-01 a      1151     1     7     2    11
 -4.5584092774118803E-02 a      1152     1     7     2    12
  9.2255627593413256E-02 a      1153     1     7     2    13
 -2.1495348849438797E-01 a      1154     1     7     2    14
 -1.9271889041290482E-02 a      1155     1     7     2    15
 -1.5603768362699488E-01 a      1156     1     7     2    16
  2.3652701749893060E-01 a      1157     1     7     2    17
 -2.5539053727787919E-01 a      1158     1     7     2    18
  2.6866967797360042E-01 a      1159     1     7     2    19
  3.3836128636909435E-02 a      1160     1     7     2    20
 -4.9908012243032879E-01 a      1161     1     8     2     1
  5.2153395407969191E-02 a      1162     1     8     2     2
  1.6120535372769657E-01 a      1163     1     8     2     3
  3.1931904960476248E-01 a      1164     1     8     2     4
 -2.2731740421359653E-01 a      1165     1     8     2     5
 -3.5749431469471815E-01 a      1166     1     8     2     6
 -1.1014213615372688E-01 a      1167     1     8     2     7
 -1.6152363348447904E-01 a      1168     1     8     2     8
 -4.5562676521469070E-01 a      1169     1     8     2     9
 -7.2427951497072360E-02 a      1170     1     8     2    10
 -6.3695965823018508E-02 a      1171     1     8     2    11
  4.1697608238404467E-02 a      1172     1     8     2    12
 -4.0880788309687011E-01 a      1173     1     8     2    13
  2.4376121750121726E-01 a      1174     1     8     2    14
  4.5247565955070529E-01 a      1175     1     8     2    15
 -4.6338438976508151E-01 a      1176     1     8     2    16
  1.7176000467054006E-01 a      1177     1     8     2    17
 -3.8849012317486575E-01 a      1178     1     8     2    18
  2.4818227420582203E-01 a      1179     1     8     2    19
 -1.3131918804136788E-02 a      1180     1     8     2    20
  2.0072866964868130E-01 a      1181     1     9     2     1
 -1.9240228450820535E-01 a      1182     1     9     2     2
  1.4605265526046107E-01 a      1183     1     9     2     3
  4.2214553111628872E-01 a      1184     1     9     2     4
  5.4089288854146635E-02 a      1185     1     9     2     5
  1.1509608522955569E-01 a      1186     1     9     2     6
 -1.2635363509155240E-01 a      1187     1     9     2     7
  4.0513952005186160E-01 a      1188     1     9     2     8
 -4.1665376566141471E-01 a      1189     1     9     2     9
 -6.4875648982575071E-02 a      1190     1     9     2    10
 -4.8835141745478060E-02 a      1191     1     9     2    11
  1.4851411738140266E-01 a      1192     1     9     2    12
  5.3081258227258378E-02 a      1193     1     9     2    13
  3.4798308126223047E-03 a      1194     1     9     2    14
 -8.8997094315563074E-02 a      1195     1     9     2    15
 -5.1597187278308687E-01 a      1196     1     9     2    16
  5.7534708418155545E-01 a      1197     1     9     2    17
 -3.6430768442121997E-01 a      1198     1     9     2    18
  3.1465805869000185E-01 a      1199     1     9     2    19
 -6.7272214627766461E-02 a      1200     1     9     2    20
 -6.2563961581710648E-01 a      1201     1    10     2     1
 -4.4883209287413589E-01 a      1202     1    10     2     2
 -1.5561708663481472E-01 a      1203     1    10     2     3
  2.4380897001585503E-01 a      1204     1    10     2     4
 -3.1775758376275609E-02 a      1205     1    10     2     5
 -5.7658406197010048E-01 a      1206     1    10     2     6
  5.6917301287759603E-01 a      1207     1    10     2     7
 -2.9364143798775283E-01 a      1208     1    10     2     8
 -6.4987723763186057E-04 a      1209     1    10     2     9
 -4.9389208116090921E-01 a      1210     1    10     2    10
 -7.1124971574552401E-02 a      1211     1    10     2    11
  5.4269914125974017E-01 a      1212     1    10     2    12
  2.5519151424251341E-01 a      1213     1    10     2    13
  7.1476581472700151E-01 a      1214     1    10     2    14
  7.0317238156178130E-01 a      1215     1    10     2    15
 -5.6584378098063604E-01 a      1216     1    10     2    16
  4.8932530858344464E-01 a      1217     1    10     2    17
 -1.3742765479743843E-01 a      1218     1    10     2    18
  4.5434933876914241E-01 a      1219     1    10     2    19
 -4.5720689923402796E-01 a      1220     1    10     2    20
 -6.2968541739967121E-01 a      1221     1    11     2     1
  1.3837680767741892E-01 a      1222     1    11     2     2
  2.6610830231734234E-01 a      1223     1    11     2     3
  3.5955396517154831E-01 a      1224     1    11     2     4
  8.7572858247146612E-02 a      1225     1    11     2     5
  4.7995919324482261E-01 a      1226     1    11     2     6
  3.9275437194209167E-01 a      1227     1    11     2     7
  2.3923746194896253E-01 a      1228     1    11     2     8
 -5.1826830789950662E-01 a      1229     1    11     2     9
  9.2727930911925355E-02 a      1230     1    11     2    10
  3.7284741371927210E-01 a      1231     1    11     2    11
 -5.4618278273865606E-01 a      1232     1    11     2    12
  1.3534653275207769E-02 a      1233     1    11     2    13
  4.6334875302805063E-02 a      1234     1    11     2    14
  6.9944770711713233E-01 a      1235     1    11     2    15
  1.0400961374492079E-01 a      1236     1    11     2    16
  1.6210613947482239E-01 a      1237     1    11     2    17
 -4.7816278941826373E-01 a      1238     1    11     2    18
  4.8218527241616810E-01 a      1239     1    11     2    19
  2.7285401085063579E-02 a      1240     1    11     2    20
 -2.6078607804130516E-01 a      1241     1    12     2     1
  3.0420495197788028E-01 a      1242     1    12     2     2
 -1.7795142774735731E-01 a      1243     1    12     2     3
 -1.2228450619580679E-01 a      1244     1    12     2     4
  5.9733421183686664E-01 a      1245     1    12     2     5
 -3.5901640335329221E-01 a      1246     1    12     2     6
 -5.4249239990179043E-01 a      1247     1    12     2     7
  5.1984050854683184E-01 a      1248     1    12     2     8
  2.9127105067400327E-01 a      1249     1    12     2     9
  5.7922982528167288E-01 a      1250     1    12     2    10
 -1.1155169865471146E-01 a      1251     1    12     2    11
  2.3237490581805370E-01 a      1252     1    12     2    12
 -1.2286560462084112E-01 a      1253     1    12     2    13
  5.3807463115373377E-01 a      1254     1    12     2    14
 -5.1704470218375143E-01 a      1255     1    12     2    15
 -3.2221720003713095E-01 a      1256     1    12     2    16
  1.6575228125084679E-01 a      1257     1    12     2    17
  1.6106471407433515E-02 a      1258     1    12     2    18
  2.2984366761969915E-01 a      1259     1    12     2    19
  5.3374789448632487E-01 a      1260     1    12     2    20
  5.1093242789000914E-01 a      1261     1    13     2     1
  3.8342415693778886E-01 a      1262     1    13     2     2
 -1.8568843967097251E-01 a      1263     1    13     2     3
 -4.7741032853983317E-02 a      1264     1    13     2     4
  1.6510271714962221E-01 a      1265     1    13     2     5
 -2.8944502327835503E-01 a      1266     1    13     2     6
  2.0981534957863596E-01 a      1267     1    13     2     7
  2.5961710331462629E-01 a      1268     1    13     2     8
  3.6289979134594280E-01 a      1269     1    13     2     9
 -8.4897237330311931E-02 a      1270     1    13     2    10
  4.8880606698611601E-01 a      1271     1    13     2    11
  1.9787120339941158E-01 a      1272     1    13     2    12
 -2.0490627758364224E-01 a      1273     1    13     2    13
  1.2799636750125731E-01 a      1274     1    13     2    14
 -3.1900171116294507E-01 a      1275     1    13     2    15
 -5.4127019808408317E-01 a      1276     1    13     2    16
 -3.1202263352725318E-01 a      1277     1    13     2    17
  1.3089893026983773E-01 a      1278     1    13     2    18
  4.7852904742659230E-01 a      1279     1    13     2    19
 -4.8989600913526093E-01 a      1280     1    13     2    20
 -6.0548987803399001E-01 a      1281     1    14     2     1
  4.6284914193776233E-01 a      1282     1    14     2     2
 -1.0175331491317436E+00 a      1283     1    14     2     3
 -2.0276705852451821E-01 a      1284     1    14     2     4
  6.3437352378617362E-01 a      1285     1    14     2     5
 -3.3414601785251763E-01 a      1286     1    14     2     6
  2.3890573025011547E-01 a      1287     1    14     2     7
 -1.3986624059546146E-01 a      1288     1    14     2     8
  5.2293523440739931E-01 a      1289     1    14     2     9
  2.0460414496074891E-01 a      1290     1    14     2    10
  5.4742339770522708E-01 a      1291     1    14     2    11
  4.7119904878986879E-01 a      1292     1    14     2    12
  4.9701711619312988E-01 a      1293     1    14     2    13
 -4.5849734568811229E-01 a      1294     1    14     2    14
  2.4849289074507719E-01 a      1295     1    14     2    15
  7.7130793058410044E-02 a      1296     1    14     2    16
 -2.2283313637726246E-01 a      1297     1    14     2    17
  3.0832294412684663E-01 a      1298     1    14     2    18
 -7.9329433021041354E-02 a      1299     1    14     2    19
 -6.6801385216147049E-02 a      1300     1    14     2    20
 -4.2920887620719456E-01 a      1301     1    15     2     1
 -2.9758709982846870E-01 a      1302     1    15     2     2
 -7.1829435800195296E-01 a      1303     1    15     2     3
 -6.4626329691462858E-01 a      1304     1    15     2     4
  6.4326913648548156E-01 a      1305     1    15     2     5
  4.4614354591258570E-01 a      1306     1    15     2     6
  4.7103900197658477E-01 a      1307     1    15     2     7
  5.5545426586351110E-01 a      1308     1    15     2     8
 -6.7482581815404097E-01 a      1309     1    15     2     9
 -5.1924438684021257E-01 a      1310     1    15     2    10
  5.6460100393934398E-01 a      1311     1    15     2    11
 -4.7030249185333844E-01 a      1312     1    15     2    12
  2.2279701058149445E-01 a      1313     1    15     2    13
  1.6129622394014143E-01 a      1314     1    15     2    14
  8.3768252634218568E-02 a      1315     1    15     2    15
  3.8094959158090708E-01 a      1316     1    15     2    16
 -7.8035145706936415E-01 a      1317     1    15     2    17
 -5.4319596389156111E-01 a      1318     1    15     2    18
 -5.1627085206060970E-02 a      1319     1    15     2    19
  1.9516392540553643E-01 a      1320     1    15     2    20
 -5.1290512868803162E-01 a      1321     1    16     2     1
  6.2733239587796963E-01 a      1322     1    16     2     2
 -3.5194157510265123E-01 a      1323     1    16     2     3
 -4.0202173979111822E-01 a      1324     1    16     2     4
  3.7741975267754008E-01 a      1325     1    16     2     5
 -6.5872064222119858E-02 a      1326     1    16     2     6
  2.8352542137782449E-01 a      1327     1    16     2     7
 -8.9677480009125315E-02 a      1328     1    16     2     8
  5.6514129800178237E-01 a      1329     1    16     2     9
  5.8148652736825357E-01 a      1330     1    16     2    10
 -3.0394681902156523E-01 a      1331     1    16     2    11
  3.1430800064397557E-01 a      1332     1    16     2    12
  5.9365744741615056E-01 a      1333     1    16     2    13
  1.7280962274717346E-01 a      1334     1    16     2    14
  3.5457833230409763E-01 a      1335     1    16     2    15
 -5.3457680428963561E-01 a      1336     1    16     2    16
 -1.5348584732408885E-01 a      1337     1    16     2    17
  3.6447933297259971E-01 a      1338     1    16     2    18
  3.0784572899009549E-01 a      1339     1    16     2    19
  1.7782635590362672E-01 a      1340     1    16     2    20
  2.8091293809403739E-01 a      1341     1    17     2     1
  2.4394167180610263E-01 a      1342     1    17     2     2
  6.1368965626762903E-02 a      1343     1    17     2     3
 -9.5925902174460689E-02 a      1344     1    17     2     4
 -7.6111024961990181E-02 a      1345     1    17     2     5
 -5.5561315295290592E-01 a      1346     1    17     2     6
  3.9575245493738220E-01 a      1347     1    17     2     7
 -3.3174426118848510E-01 a      1348     1    17     2     8
 -5.1811334958925293E-01 a      1349     1    17     2     9
  6.9932983419349389E-03 a      1350     1    17     2    10
 -4.4679723649195319E-01 a      1351     1    17     2    11
 -1.6872832926047746E-01 a      1352     1    17     2    12
  1.3437031639103481E-01 a      1353     1    17     2    13
 -6.3468320171253700E-01 a      1354     1    17     2    14
  6.3875179596687137E-01 a      1355     1    17     2    15
  8.1608985831786363E-01 a      1356     1    17     2    16
 -3.4151254531199438E-01 a      1357     1    17     2    17
 -1.4970063236008671E-01 a      1358     1    17     2    18
 -5.4787285839484401E-01 a      1359     1    17     2    19
 -2.6629755338884892E-01 a      1360     1    17     2    20
  2.3702924354485411E-01 a      1361     1    18     2     1
  1.8430278595953092E-01 a      1362     1    18     2     2
  3.1620908797578606E-01 a      1363     1    18     2     3
  2.0949822469149837E-01 a      1364     1    18     2     4
  1.7400645995770411E-01 a      1365     1    18     2     5
 -3.6537631498063267E-01 a      1366     1    18     2     6
 -2.4222565999674101E-01 a      1367     1    18     2     7
 -6.7450597255811973E-01 a      1368     1    18     2     8
  1.2942506703415554E-01 a      1369     1    18     2     9
  3.6813737440679367E-01 a      1370     1    18     2    10
 -1.2408573522362862E-01 a      1371     1    18     2    11
 -2.1399105546872926E-01 a      1372     1    18     2    12
 -5.2733776003884758E-01 a      1373     1    18     2    13
 -4.8763509643506958E-01 a      1374     1    18     2    14
 -1.4284341943521639E-01 a      1375     1    18     2    15
  2.4237856681311044E-02 a      1376     1    18     2    16
  2.4432442233750717E-01 a      1377     1    18     2    17
  2.9029235945215121E-01 a      1378     1    18     2    18
 -5.1907374256780014E-01 a      1379     1    18     2    19
  7.0536957035006609E-01 a      1380     1    18     2    20
  4.7516378681380156E-01 a      1381     1    19     2     1
  6.3851757025411771E-01 a      1382     1    19     2     2
 -2.3970972875605548E-01 a      1383     1    19     2     3
 -5.4008246890308165E-01 a      1384     1    19     2     4
  3.9376863246036786E-01 a      1385     1    19     2     5
  5.6756576715836971E-01 a      1386     1    19     2     6
  6.4631754132225672E-01 a      1387     1    19     2     7
 -3.6240384257279885E-02 a      1388     1    19     2     8
 -1.7065291220660478E-01 a      1389     1    19     2     9
 -4.4065649371297949E-01 a      1390     1    19     2    10
  2.1914292917344297E-01 a      1391     1    19     2    11
 -1.5240964724942382E-01 a      1392     1    19     2    12
 -1.3850505299692481E-01 a      1393     1    19     2    13
  1.6907855135416011E-01 a      1394     1    19     2    14
  6.6882124029033008E-01 a      1395     1    19     2    15
  3.8787262881542611E-01 a      1396     1    19     2    16
 -8.2975472128228955E-01 a      1397     1    19     2    17
  5.9857332392271578E-01 a      1398     1    19     2    18
 -2.1642066360743065E-01 a      1399     1    19     2    19
  1.4354009042173718E-01 a      1400     1    19     2    20
  4.7810060872490956E-02 a      1401     1    20     2     1
  7.3070279374617603E-02 a      1402     1    20     2     2
 -1.1529948974421507E-01 a      1403     1    20     2     3
  7.7143891264335587E-02 a      1404     1    20     2     4
  4.9761317871014271E-01 a      1405     1    20     2     5
  2.5324158799193436E-01 a      1406     1    20     2     6
 -4.9060062734755705E-01 a      1407     1    20     2     7
  4.5086975358193948E-02 a      1408     1    20     2     8
 -3.0057156188405593E-01 a      1409     1    20     2     9
 -3.5804998832947982E-01 a      1410     1    20     2    10
  6.4906413614947966E-01 a      1411     1    20     2    11
 -1.6812504873305728E-01 a      1412     1    20     2    12
 -5.5740237928462777E-01 a      1413     1    20     2    13
 -3.2877618062867892E-01 a      1414     1    20     2    14
 -1.0365813949356015E+00 a      1415     1    20     2    15
  7.0616285737465367E-02 a      1416     1    20     2    16
 -2.2059853521660999E-01 a      1417     1    20     2    17
 -1.2895458836081305E-01 a      1418     1    20     2    18
 -6.2616102367800863E-01 a      1419     1    20     2    19
  1.0875673868978292E-01 a      1420     1    20     2    20
  1.3539749126921097E+00 b      1421     2     1
 -1.3209340748576490E-01 b      1422     2     2
  1.2288694845749246E+00 b      1423     2     3
 -5.0026148143574767E-01 b      1424     2     4
  6.5560657705105019E-01 b      1425     2     5
 -1.8350942285482386E-01 b      1426     2     6
  6.9647146580235283E-02 b      1427     2     7
  6.1741916686349152E-01 b      1428     2     8
 -1.2584780522948495E+00 b      1429     2     9
 -1.2833607973434420E+00 b      1430     2    10
 -1.5035459232148698E+00 b      1431     2    11
 -1.1633599430307000E+00 b      1432     2    12
 -1.1369079212269639E+00 b      1433     2    13
 -4.5044261771069238E-01 b      1434     2    14
 -9.0053825635892137E-01 b      1435     2    15
  9.2248660429479123E-01 b      1436     2    16
 -8.8905652743054786E-01 b      1437     2    17
 -1.4257799146898769E+00 b      1438     2    18
  1.3685664688761003E+00 b      1439     2    19
 -2.9245214437680789E-03 b      1440     2    20
 -6.7780812822274120E-02 a      1441     2     1     3     1
  1.0969399989104381E-01 a      1442     2     2     3     1
  4.4582404377880230E-01 a      1443     2     3     3     1
  1.1962880346341631E+00 a      1444     2     4     3     1
 -6.8798994131588478E-02 a      1445     2     5     3     1
 -4.2757618500753763E-01 a      1446     2     6     3     1
  1.2402872984970583E+00 a      1447     2     7     3     1
 -1.1988690744690322E+00 a      1448     2     8     3     1
 -1.7223399468468439E-01 a      1449     2     9     3     1
  1.2990997953903766E-01 a      1450     2    10     3     1
 -2.7743251000674268E-01 a      1451     2    11     3     1
  4.7708752247858838E-01 a      1452     2    12     3     1
  4.9471879969018334E-02 a      1453     2    13     3     1
 -6.0966918393634342E-02 a      1454     2    14     3     1
 -7.0844722384696457E-01 a      1455     2    15     3     1
  2.5127426136931053E-01 a      1456     2    16     3     1
 -4.1210225392073169E-01 a      1457     2    17     3     1
 -2.5596378294348993E-01 a      1458     2    18     3     1
 -1.6458621268921725E-01 a      1459     2    19     3     1
  8.2779071587676234E-01 a      1460     2    20     3     1
 -1.1973048776173940E+00 b      1461     3     1
