################################################################################
# Neural network connection values (weights and biases).
################################################################################
# Col  Name       Description
################################################################################
# 1    connection Neural network connection value.
# 2    t          Connection type (a = weight, b = bias).
# 3    index      Index enumerating weights.
# 4    l_s        Starting point layer (end point layer for biases).
# 5    n_s        Starting point neuron in starting layer (end point neuron for biases).
# 6    l_e        End point layer.
# 7    n_e        End point neuron in end layer.
################################################################################
#                      1 2         3     4     5     6     7
#             connection t     index   l_s   n_s   l_e   n_e
############################################################
 -1.8834796223621320E-01 a         1     0     1     1     1
  3.6735084875940287E-02 a         2     0     1     1     2
 -3.7074976155314088E-01 a         3     0     1     1     3
  2.7280353470939672E-01 a         4     0     1     1     4
 -3.2395751887347023E-02 a         5     0     1     1     5
 -1.3934506181804243E-01 a         6     0     1     1     6
 -4.4899539140269694E-02 a         7     0     1     1     7
 -1.2485122141616969E-01 a         8     0     1     1     8
  2.7710748233156618E-01 a         9     0     1     1     9
 -2.4201068837289993E-02 a        10     0     1     1    10
 -4.1676950954398539E-01 a        11     0     1     1    11
 -2.3983737653854292E-01 a        12     0     1     1    12
  1.7341478032476454E-01 a        13     0     1     1    13
 -3.4086594494402817E-01 a        14     0     1     1    14
 -2.2377146928748079E-01 a        15     0     1     1    15
 -2.2175164089402188E-01 a        16     0     1     1    16
  2.2556595466899246E-01 a        17     0     1     1    17
 -2.6024548865944652E-01 a        18     0     1     1    18
 -9.0729210269186414E-02 a        19     0     1     1    19
  5.3026755813319219E-02 a        20     0     1     1    20
  8.7826416803176544E-02 a        21     0     2     1     1
 -2.1452130002398040E-01 a        22     0     2     1     2
 -2.0345459754104414E-01 a        23     0     2     1     3
  4.5102420360206272E-02 a        24     0     2     1     4
  1.3064803038279754E-01 a        25     0     2     1     5
 -1.8459841513018752E-01 a        26     0     2     1     6
  3.8549325770327193E-02 a        27     0     2     1     7
 -8.3969163854815745E-03 a        28     0     2     1     8
 -2.1684028452916435E-01 a        29     0     2     1     9
 -5.3148214715593792E-02 a        30     0     2     1    10
 -1.5027328664544493E-01 a        31     0     2     1    11
  4.2544121937113527E-01 a        32     0     2     1    12
 -3.6139406349268799E-01 a        33     0     2     1    13
  2.6433464074190455E-01 a        34     0     2     1    14
  2.0256350340804119E-01 a        35     0     2     1    15
 -3.1709846326531838E-01 a        36     0     2     1    16
 -1.3577079707371797E-01 a        37     0     2     1    17
 -8.9604814548646688E-02 a        38     0     2     1    18
 -1.5184064061807404E-01 a        39     0     2     1    19
 -5.9424008969818753E-01 a        40     0     2     1    20
 -5.2025119224994518E-02 a        41     0     3     1     1
 -2.0832756892999970E-02 a        42     0     3     1     2
 -3.6811289941830784E-02 a        43     0     3     1     3
  6.7814036699020502E-02 a        44     0     3     1     4
 -1.6283092986139791E-01 a        45     0     3     1     5
 -2.8424900118839899E-02 a        46     0     3     1     6
 -3.0556059978056414E-02 a        47     0     3     1     7
 -3.2807701259715355E-02 a        48     0     3     1     8
  1.5526913620906850E-02 a        49     0     3     1     9
  1.9081394796155843E-01 a        50     0     3     1    10
 -2.7237236377013652E-01 a        51     0     3     1    11
  2.6226562999545222E-01 a        52     0     3     1    12
 -1.4833098345161608E-01 a        53     0     3     1    13
  2.4498960805757689E-01 a        54     0     3     1    14
  3.5869150801073352E-01 a        55     0     3     1    15
 -6.0286707748495864E-02 a        56     0     3     1    16
 -7.5888557240441856E-02 a        57     0     3     1    17
  1.1843243989327862E-01 a        58     0     3     1    18
  3.7891786301337210E-01 a        59     0     3     1    19
 -1.1387782498291432E-01 a        60     0     3     1    20
 -3.9854651334671426E-01 a        61     0     4     1     1
 -9.2526866324996640E-02 a        62     0     4     1     2
  3.5729712163850702E-01 a        63     0     4     1     3
 -6.7336794446769133E-01 a        64     0     4     1     4
 -1.3686773255474344E-01 a        65     0     4     1     5
  1.5864258181381583E-01 a        66     0     4     1     6
 -2.6807865276658620E-02 a        67     0     4     1     7
 -4.6000747689433652E-01 a        68     0     4     1     8
  3.5559354694570640E-03 a        69     0     4     1     9
  5.2385370259260589E-01 a        70     0     4     1    10
  2.2412397093059697E-01 a        71     0     4     1    11
  1.3878587108049464E-01 a        72     0     4     1    12
 -2.9381262455684881E-01 a        73     0     4     1    13
 -1.7437973176943894E-01 a        74     0     4     1    14
  6.8944051029209016E-02 a        75     0     4     1    15
  3.1411826517776026E-01 a        76     0     4     1    16
  8.1398885025132123E-02 a        77     0     4     1    17
  1.9518009507139369E-01 a        78     0     4     1    18
  1.5193512399854378E-01 a        79     0     4     1    19
 -4.8244521968535459E-01 a        80     0     4     1    20
 -2.7716113677472787E-01 a        81     0     5     1     1
  2.5137907091971001E-01 a        82     0     5     1     2
  2.0851061525166475E-01 a        83     0     5     1     3
  5.3277955404783894E-01 a        84     0     5     1     4
 -2.1681051564175874E-01 a        85     0     5     1     5
  6.8209641511234070E-02 a        86     0     5     1     6
  2.6558993657986459E-03 a        87     0     5     1     7
 -3.1668769611367764E-01 a        88     0     5     1     8
  2.2370295834514575E-01 a        89     0     5     1     9
  8.4471208954578700E-02 a        90     0     5     1    10
 -1.5864779342581858E-01 a        91     0     5     1    11
 -4.2296910862584824E-01 a        92     0     5     1    12
  4.4660421574747887E-02 a        93     0     5     1    13
 -4.6197372130277542E-01 a        94     0     5     1    14
 -3.3697009870261363E-01 a        95     0     5     1    15
 -3.6650103656731103E-02 a        96     0     5     1    16
 -1.1655883186356773E-01 a        97     0     5     1    17
  3.5159287426808200E-01 a        98     0     5     1    18
  1.8509159540649148E-01 a        99     0     5     1    19
  1.8506701024501621E-01 a       100     0     5     1    20
 -3.6547002825325281E-01 a       101     0     6     1     1
 -1.0259676742779000E-01 a       102     0     6     1     2
 -9.1039977911151031E-03 a       103     0     6     1     3
  5.5490854337000073E-02 a       104     0     6     1     4
  6.8678635573892491E-02 a       105     0     6     1     5
  5.6497448934568574E-02 a       106     0     6     1     6
  9.4255462869021672E-02 a       107     0     6     1     7
 -1.5947708217656789E-01 a       108     0     6     1     8
  4.0605452496868127E-01 a       109     0     6     1     9
  8.4381400371158939E-03 a       110     0     6     1    10
 -2.8124182250363644E-01 a       111     0     6     1    11
 -2.8499826849496057E-01 a       112     0     6     1    12
  1.5720661342840969E-01 a       113     0     6     1    13
 -2.5761117826509172E-01 a       114     0     6     1    14
  2.7136428834007331E-01 a       115     0     6     1    15
 -7.5200458954233940E-02 a       116     0     6     1    16
 -1.7996918199317380E-01 a       117     0     6     1    17
 -1.8405778943771980E-01 a       118     0     6     1    18
 -9.6074319738958996E-02 a       119     0     6     1    19
 -1.5298134717929118E-01 a       120     0     6     1    20
  4.6853839096774014E-01 a       121     0     7     1     1
  2.5777891458733443E-01 a       122     0     7     1     2
 -2.1547480090636412E-01 a       123     0     7     1     3
  5.8437164124900043E-01 a       124     0     7     1     4
  2.9781045071274437E-01 a       125     0     7     1     5
  6.3174318345501537E-02 a       126     0     7     1     6
  1.5169063280578401E-01 a       127     0     7     1     7
  6.5079654225817285E-01 a       128     0     7     1     8
 -1.2275588498257263E-01 a       129     0     7     1     9
  1.0958816570570495E-01 a       130     0     7     1    10
 -1.0975990618313941E-01 a       131     0     7     1    11
 -4.2357768460535475E-02 a       132     0     7     1    12
  3.0249646513986195E-01 a       133     0     7     1    13
  6.9096784556050628E-01 a       134     0     7     1    14
 -2.4711966189278584E-02 a       135     0     7     1    15
  4.2630237128379950E-01 a       136     0     7     1    16
 -1.2845198088650009E-01 a       137     0     7     1    17
  2.6004532000804062E-02 a       138     0     7     1    18
 -2.6019098694426573E-01 a       139     0     7     1    19
  2.3811168566204211E-01 a       140     0     7     1    20
  8.4502170533692925E-02 a       141     0     8     1     1
 -1.8357411698742912E-01 a       142     0     8     1     2
  1.3616653977477097E-01 a       143     0     8     1     3
 -2.9056499919034640E-01 a       144     0     8     1     4
  9.9719283407320239E-03 a       145     0     8     1     5
 -7.7628395234005674E-03 a       146     0     8     1     6
 -7.9978752676245449E-02 a       147     0     8     1     7
  2.0355786617088985E-02 a       148     0     8     1     8
 -1.9486807069971285E-01 a       149     0     8     1     9
  5.4422352253455583E-02 a       150     0     8     1    10
  1.4997074647356670E-01 a       151     0     8     1    11
  1.5755236209212958E-01 a       152     0     8     1    12
  1.4618432934554626E-01 a       153     0     8     1    13
  2.6502752430829019E-01 a       154     0     8     1    14
 -1.5469259823574072E-01 a       155     0     8     1    15
 -8.9034944043335562E-02 a       156     0     8     1    16
  1.2020590861410325E-01 a       157     0     8     1    17
 -1.4306617416657988E-01 a       158     0     8     1    18
 -5.4035278090153224E-02 a       159     0     8     1    19
 -1.2503943678574053E-01 a       160     0     8     1    20
  8.2164997430315939E-02 a       161     0     9     1     1
  2.4748360258980851E-02 a       162     0     9     1     2
  9.5487695457337540E-02 a       163     0     9     1     3
  7.9978679397919361E-02 a       164     0     9     1     4
 -1.8534428628601271E-01 a       165     0     9     1     5
 -1.4061211241761043E-01 a       166     0     9     1     6
 -1.0486723638855391E-01 a       167     0     9     1     7
 -1.3516782189308663E-01 a       168     0     9     1     8
 -1.3483711913563848E-01 a       169     0     9     1     9
  1.2038127769162338E-01 a       170     0     9     1    10
 -8.9149353796814615E-02 a       171     0     9     1    11
  1.0529471950454751E-01 a       172     0     9     1    12
 -3.2274017252551951E-01 a       173     0     9     1    13
 -2.7244216496799034E-02 a       174     0     9     1    14
  3.3339293321638180E-01 a       175     0     9     1    15
  1.4747659308896738E-01 a       176     0     9     1    16
  1.6029129025960093E-01 a       177     0     9     1    17
  2.5618292299726736E-01 a       178     0     9     1    18
 -8.7685176317147756E-02 a       179     0     9     1    19
  2.5843079226430893E-01 a       180     0     9     1    20
 -4.3673395357161532E-01 a       181     0    10     1     1
 -9.7009655109532036E-02 a       182     0    10     1     2
 -1.9127280457998372E-01 a       183     0    10     1     3
 -3.9873707501053884E-01 a       184     0    10     1     4
 -1.3485350507241226E-01 a       185     0    10     1     5
  2.6173547200210385E-02 a       186     0    10     1     6
 -3.8732856939981669E-01 a       187     0    10     1     7
 -6.1341374552928130E-01 a       188     0    10     1     8
  1.6287547203678907E-01 a       189     0    10     1     9
  1.1025862629249386E-01 a       190     0    10     1    10
 -1.8660456025115224E-01 a       191     0    10     1    11
  5.5825691153257057E-02 a       192     0    10     1    12
 -3.5059194555106254E-01 a       193     0    10     1    13
 -6.7908885806994790E-01 a       194     0    10     1    14
 -2.4124732857820960E-01 a       195     0    10     1    15
  9.0602670369859944E-03 a       196     0    10     1    16
  4.1706181174651157E-02 a       197     0    10     1    17
 -8.1067561136371147E-02 a       198     0    10     1    18
 -1.4703213742039598E-01 a       199     0    10     1    19
 -3.6967883192330186E-01 a       200     0    10     1    20
 -1.8707365989637345E-01 a       201     0    11     1     1
  2.4573257377435140E-02 a       202     0    11     1     2
  2.0686991267271149E-01 a       203     0    11     1     3
  3.5014248642042251E-01 a       204     0    11     1     4
 -1.6378312271815573E-01 a       205     0    11     1     5
 -4.8302691214244450E-02 a       206     0    11     1     6
  1.9412439670101259E-01 a       207     0    11     1     7
 -5.2966755889733021E-02 a       208     0    11     1     8
  1.3172166786402811E-01 a       209     0    11     1     9
 -1.0550538465563436E-01 a       210     0    11     1    10
 -9.9402315868387825E-02 a       211     0    11     1    11
 -1.4112923854523055E-01 a       212     0    11     1    12
 -4.2918953051180382E-02 a       213     0    11     1    13
 -2.3186399478459063E-01 a       214     0    11     1    14
  3.6981876874132319E-01 a       215     0    11     1    15
 -2.5567978441043115E-01 a       216     0    11     1    16
 -1.6771794426738809E-01 a       217     0    11     1    17
 -2.2810074085797438E-02 a       218     0    11     1    18
 -5.1586538480100368E-04 a       219     0    11     1    19
  1.7752701546849983E-01 a       220     0    11     1    20
 -1.2954093607547694E-02 a       221     0    12     1     1
 -3.0017020478660318E-02 a       222     0    12     1     2
  1.1583455997789932E-02 a       223     0    12     1     3
 -1.3752754718031854E-01 a       224     0    12     1     4
 -7.4810899390045232E-02 a       225     0    12     1     5
  9.3849827609990458E-02 a       226     0    12     1     6
 -2.8803331296589396E-01 a       227     0    12     1     7
  4.8812626290298623E-02 a       228     0    12     1     8
 -1.4332092250751056E-02 a       229     0    12     1     9
 -2.2146075741310253E-01 a       230     0    12     1    10
 -1.6725522478132487E-01 a       231     0    12     1    11
 -5.0904032564793061E-02 a       232     0    12     1    12
  9.1328520190155166E-02 a       233     0    12     1    13
 -3.9241543255063446E-02 a       234     0    12     1    14
  8.4991103821877162E-03 a       235     0    12     1    15
  1.2649747097750258E-01 a       236     0    12     1    16
 -1.8400301112079617E-01 a       237     0    12     1    17
  7.5212842968798585E-02 a       238     0    12     1    18
 -1.4081431943611730E-01 a       239     0    12     1    19
 -9.7812761100400120E-03 a       240     0    12     1    20
  3.6458342609596356E-01 a       241     0    13     1     1
  1.9915922050186319E-01 a       242     0    13     1     2
  1.2423324630401776E-01 a       243     0    13     1     3
  1.2607737294523191E-01 a       244     0    13     1     4
  2.1460992000076232E-01 a       245     0    13     1     5
  1.7710911299699800E-01 a       246     0    13     1     6
  3.0686848063896387E-02 a       247     0    13     1     7
  3.4466029016529487E-01 a       248     0    13     1     8
 -9.2945655628365209E-02 a       249     0    13     1     9
  1.3405768078776731E-01 a       250     0    13     1    10
  7.4841810378537432E-02 a       251     0    13     1    11
 -4.6765472987929609E-02 a       252     0    13     1    12
  1.5060410893676290E-01 a       253     0    13     1    13
  3.3038959369448134E-01 a       254     0    13     1    14
 -3.0052260585901665E-02 a       255     0    13     1    15
  1.6977320541950242E-01 a       256     0    13     1    16
  7.1077076703604261E-02 a       257     0    13     1    17
  8.8762587477639640E-02 a       258     0    13     1    18
  8.2410803999463482E-03 a       259     0    13     1    19
  7.1645528385930303E-03 a       260     0    13     1    20
  8.4105097269156631E-02 a       261     0    14     1     1
 -2.3389576837937487E-01 a       262     0    14     1     2
  7.2635061520088973E-02 a       263     0    14     1     3
 -1.5627507268654753E-01 a       264     0    14     1     4
 -2.9339603622317849E-02 a       265     0    14     1     5
  1.9160603441688861E-02 a       266     0    14     1     6
  2.4380727658309280E-02 a       267     0    14     1     7
 -2.3288889492989592E-01 a       268     0    14     1     8
  6.9516438369488500E-03 a       269     0    14     1     9
  1.7515975511594611E-01 a       270     0    14     1    10
  7.4554689284820799E-02 a       271     0    14     1    11
 -3.2311898456509044E-02 a       272     0    14     1    12
  1.0089948073318922E-01 a       273     0    14     1    13
  7.2944948487794217E-02 a       274     0    14     1    14
  1.7200499424697910E-01 a       275     0    14     1    15
 -1.9745620974020517E-01 a       276     0    14     1    16
  1.3356321655989606E-01 a       277     0    14     1    17
  1.7431668289938300E-02 a       278     0    14     1    18
  1.9783580528960237E-01 a       279     0    14     1    19
 -4.1572105990619494E-02 a       280     0    14     1    20
  3.2548816013341475E-02 a       281     0    15     1     1
 -6.0731600918560745E-02 a       282     0    15     1     2
 -1.7191667657533657E-01 a       283     0    15     1     3
  1.4446493662488466E-01 a       284     0    15     1     4
 -6.2088760613657229E-02 a       285     0    15     1     5
  4.9182441468534274E-02 a       286     0    15     1     6
  2.3429644565708652E-01 a       287     0    15     1     7
 -1.3072754834899756E-02 a       288     0    15     1     8
 -9.8162034457002362E-02 a       289     0    15     1     9
  4.0794592446874389E-02 a       290     0    15     1    10
  8.4211316281457005E-02 a       291     0    15     1    11
  8.6911004022744917E-02 a       292     0    15     1    12
 -1.7870352624912419E-01 a       293     0    15     1    13
 -3.4309111057531295E-02 a       294     0    15     1    14
  7.7963951685345353E-02 a       295     0    15     1    15
 -1.5977476632473364E-01 a       296     0    15     1    16
 -6.9634736154986091E-03 a       297     0    15     1    17
  1.0377396503354031E-02 a       298     0    15     1    18
 -1.2306287318956496E-02 a       299     0    15     1    19
  8.3747923392021181E-02 a       300     0    15     1    20
 -1.4784592881685296E-01 a       301     0    16     1     1
 -4.0036943382058071E-02 a       302     0    16     1     2
 -1.1444193094148244E-01 a       303     0    16     1     3
 -1.6075360085672852E-01 a       304     0    16     1     4
 -1.1655603746947489E-01 a       305     0    16     1     5
 -6.8757872556438740E-02 a       306     0    16     1     6
 -6.7170169479172454E-02 a       307     0    16     1     7
 -1.6634660389425998E-01 a       308     0    16     1     8
  5.2113561060706949E-02 a       309     0    16     1     9
 -9.7747180034536474E-02 a       310     0    16     1    10
 -2.8031414376660777E-02 a       311     0    16     1    11
  2.3941129846906061E-02 a       312     0    16     1    12
 -4.0326371767958322E-02 a       313     0    16     1    13
 -2.2019345314252223E-01 a       314     0    16     1    14
 -4.6655735682959443E-02 a       315     0    16     1    15
  1.0824559789428928E-01 a       316     0    16     1    16
 -5.5530145329916986E-02 a       317     0    16     1    17
 -6.9924783750106703E-02 a       318     0    16     1    18
 -6.3566818505295178E-02 a       319     0    16     1    19
 -1.3989683492736485E-01 a       320     0    16     1    20
 -1.3780349449820659E-01 a       321     0    17     1     1
  1.9688985781915794E-03 a       322     0    17     1     2
  1.1686787154222276E-02 a       323     0    17     1     3
  1.7230359710162443E-01 a       324     0    17     1     4
 -6.0775274144649463E-02 a       325     0    17     1     5
 -4.9037173983871543E-02 a       326     0    17     1     6
  1.4548019172797169E-01 a       327     0    17     1     7
  1.1173408639771590E-01 a       328     0    17     1     8
 -1.7866263271631631E-02 a       329     0    17     1     9
 -3.0098716289009680E-01 a       330     0    17     1    10
 -5.2792790905100945E-02 a       331     0    17     1    11
  2.4751137239383044E-02 a       332     0    17     1    12
 -8.0747637652306900E-02 a       333     0    17     1    13
  4.0589042716646075E-02 a       334     0    17     1    14
 -8.7550020453171628E-03 a       335     0    17     1    15
 -8.6008118121693095E-02 a       336     0    17     1    16
 -1.0670041237975209E-01 a       337     0    17     1    17
 -2.2457632396005504E-02 a       338     0    17     1    18
 -7.4147786172792843E-02 a       339     0    17     1    19
  1.6481237306277491E-01 a       340     0    17     1    20
  1.5738632472457187E-02 a       341     0    18     1     1
  1.1444554957502314E-02 a       342     0    18     1     2
 -2.0285854741105405E-02 a       343     0    18     1     3
 -8.7436900003826472E-03 a       344     0    18     1     4
 -6.7725957045997640E-02 a       345     0    18     1     5
  1.4529206920611677E-02 a       346     0    18     1     6
 -1.0682650933171278E-02 a       347     0    18     1     7
 -7.8345533257732386E-02 a       348     0    18     1     8
 -4.8117158848897355E-02 a       349     0    18     1     9
 -1.4012536955007669E-02 a       350     0    18     1    10
  9.9711923297218688E-02 a       351     0    18     1    11
 -3.9938094889139193E-02 a       352     0    18     1    12
  6.7194201460016298E-02 a       353     0    18     1    13
  6.5249697411050495E-02 a       354     0    18     1    14
  1.8106006319057344E-01 a       355     0    18     1    15
 -6.4859372264649634E-02 a       356     0    18     1    16
  2.7490453953018055E-02 a       357     0    18     1    17
  8.2670232988058562E-02 a       358     0    18     1    18
  1.7537496325701021E-02 a       359     0    18     1    19
 -1.0643065925559390E-02 a       360     0    18     1    20
  3.2287255301416427E-02 a       361     0    19     1     1
  1.3405775611313842E-01 a       362     0    19     1     2
  1.1708298056966505E-01 a       363     0    19     1     3
  6.6359200095387330E-02 a       364     0    19     1     4
  1.1332296636458079E-01 a       365     0    19     1     5
  3.5717153743808981E-02 a       366     0    19     1     6
  7.6629249316245165E-02 a       367     0    19     1     7
  1.0942762336052125E-01 a       368     0    19     1     8
 -6.3114291116975321E-02 a       369     0    19     1     9
 -3.1141539316635287E-02 a       370     0    19     1    10
  1.5329667081787818E-01 a       371     0    19     1    11
 -2.4167334081531228E-02 a       372     0    19     1    12
  4.5731863350194787E-02 a       373     0    19     1    13
  3.1996705556441268E-02 a       374     0    19     1    14
  6.6010690053385807E-02 a       375     0    19     1    15
 -3.3903027340201175E-02 a       376     0    19     1    16
  1.6358655562431326E-01 a       377     0    19     1    17
  2.1269402167883823E-03 a       378     0    19     1    18
 -2.0362900647009689E-02 a       379     0    19     1    19
 -4.2253474400944499E-02 a       380     0    19     1    20
 -4.1131652320237702E-02 a       381     0    20     1     1
 -8.4480554140808295E-02 a       382     0    20     1     2
 -2.9424215606317045E-02 a       383     0    20     1     3
  1.1522992605801346E-02 a       384     0    20     1     4
  1.1021486286169316E-02 a       385     0    20     1     5
 -9.5994501991857207E-03 a       386     0    20     1     6
  1.0585611385963933E-02 a       387     0    20     1     7
 -1.1573075384724203E-01 a       388     0    20     1     8
  3.0665073589304422E-02 a       389     0    20     1     9
  2.2341281956345110E-01 a       390     0    20     1    10
  6.9909862135100434E-02 a       391     0    20     1    11
 -2.2917076885442065E-02 a       392     0    20     1    12
  1.8464356766487222E-02 a       393     0    20     1    13
  2.9932294755556459E-02 a       394     0    20     1    14
 -1.6197157621018266E-01 a       395     0    20     1    15
 -2.3426340151032857E-02 a       396     0    20     1    16
  7.8872309787380482E-02 a       397     0    20     1    17
  5.0576758162597393E-02 a       398     0    20     1    18
  1.5022410503027184E-01 a       399     0    20     1    19
 -4.2321895922246514E-02 a       400     0    20     1    20
  6.7643644224657740E-02 a       401     0    21     1     1
 -3.1135231388689025E-02 a       402     0    21     1     2
 -3.0512254235751206E-02 a       403     0    21     1     3
 -3.8838539276202025E-02 a       404     0    21     1     4
  3.8161733465267765E-02 a       405     0    21     1     5
  1.3281717819301073E-01 a       406     0    21     1     6
 -3.3849282623347618E-02 a       407     0    21     1     7
  5.5209613702162673E-02 a       408     0    21     1     8
  1.6866193046139021E-02 a       409     0    21     1     9
 -1.3228827961273754E-01 a       410     0    21     1    10
 -1.0065708084292120E-01 a       411     0    21     1    11
  3.1840485241146410E-02 a       412     0    21     1    12
 -4.7495221958540806E-02 a       413     0    21     1    13
 -7.3650926459647048E-02 a       414     0    21     1    14
 -9.9530479895482582E-02 a       415     0    21     1    15
 -1.7358586166976466E-02 a       416     0    21     1    16
 -5.5506653577355979E-02 a       417     0    21     1    17
 -8.3260696511759241E-02 a       418     0    21     1    18
  3.4138908974393881E-02 a       419     0    21     1    19
  5.1162638753256126E-03 a       420     0    21     1    20
 -8.8465951296996664E-02 a       421     0    22     1     1
 -1.9400164836321645E-02 a       422     0    22     1     2
 -1.9339674129655399E-01 a       423     0    22     1     3
  6.6928398361115499E-02 a       424     0    22     1     4
 -4.3391973310454558E-02 a       425     0    22     1     5
 -9.5179564260155447E-02 a       426     0    22     1     6
  1.0890972726581667E-01 a       427     0    22     1     7
 -9.7088900564222726E-03 a       428     0    22     1     8
 -3.5117848413617488E-02 a       429     0    22     1     9
 -6.5549970879798816E-02 a       430     0    22     1    10
  5.3414841775602635E-02 a       431     0    22     1    11
  3.5053667296521346E-02 a       432     0    22     1    12
 -5.5980711115121491E-02 a       433     0    22     1    13
 -6.1565685399530071E-03 a       434     0    22     1    14
 -1.0944082228080174E-01 a       435     0    22     1    15
  2.4542519826333431E-02 a       436     0    22     1    16
 -7.3962705719822733E-02 a       437     0    22     1    17
 -1.2138324059452990E-02 a       438     0    22     1    18
 -4.7483455955440533E-02 a       439     0    22     1    19
 -1.7142600673543080E-02 a       440     0    22     1    20
  3.5232140118172085E-02 a       441     0    23     1     1
 -6.3703473462153881E-02 a       442     0    23     1     2
  1.9600133875180021E-02 a       443     0    23     1     3
 -3.0894819939602407E-02 a       444     0    23     1     4
 -5.2309792911888073E-02 a       445     0    23     1     5
  4.1974254292543867E-02 a       446     0    23     1     6
 -1.1616554091764919E-01 a       447     0    23     1     7
  4.6051007716083392E-02 a       448     0    23     1     8
  4.3724375267202770E-02 a       449     0    23     1     9
 -9.3873369171088555E-03 a       450     0    23     1    10
 -2.4173456806335020E-01 a       451     0    23     1    11
  2.6725592558365319E-02 a       452     0    23     1    12
 -7.8111020961197625E-02 a       453     0    23     1    13
  4.7128569561695803E-02 a       454     0    23     1    14
  7.2817841601894570E-02 a       455     0    23     1    15
  4.2748081555047616E-03 a       456     0    23     1    16
 -1.5960598901520565E-01 a       457     0    23     1    17
  2.3606374259873306E-02 a       458     0    23     1    18
 -5.4627392440157962E-02 a       459     0    23     1    19
  1.4112562410445811E-01 a       460     0    23     1    20
 -1.2716582980896857E-01 a       461     0    24     1     1
  9.8837146067958844E-03 a       462     0    24     1     2
  2.3323677579696407E-03 a       463     0    24     1     3
  7.6280790987729621E-02 a       464     0    24     1     4
 -1.6189663618887913E-02 a       465     0    24     1     5
 -1.3582798040108748E-01 a       466     0    24     1     6
  1.5130912153355666E-01 a       467     0    24     1     7
 -6.0320622069223610E-02 a       468     0    24     1     8
  1.0191583022864480E-02 a       469     0    24     1     9
 -5.7544116444464433E-03 a       470     0    24     1    10
  1.2956553151999894E-01 a       471     0    24     1    11
 -1.5242069302767293E-02 a       472     0    24     1    12
  1.9629776256819845E-02 a       473     0    24     1    13
  1.1823181359100321E-01 a       474     0    24     1    14
 -4.5230493914747713E-03 a       475     0    24     1    15
 -4.1921001650352500E-02 a       476     0    24     1    16
  7.4806072395918938E-02 a       477     0    24     1    17
  2.4503130089511667E-02 a       478     0    24     1    18
  4.5851835362472150E-02 a       479     0    24     1    19
 -8.7294435488844621E-03 a       480     0    24     1    20
 -1.0389067347411947E-01 a       481     0    25     1     1
  3.5637539058644294E-02 a       482     0    25     1     2
  3.6470600230044489E-02 a       483     0    25     1     3
  8.1167670287717139E-02 a       484     0    25     1     4
  3.7785103087982670E-02 a       485     0    25     1     5
  5.8189226238954230E-03 a       486     0    25     1     6
  1.4173733472218591E-01 a       487     0    25     1     7
  8.9334511970052058E-03 a       488     0    25     1     8
 -1.9550952317424448E-02 a       489     0    25     1     9
 -4.0815441727044439E-02 a       490     0    25     1    10
  9.1203134436673231E-02 a       491     0    25     1    11
 -2.0210757751006350E-02 a       492     0    25     1    12
 -8.7174479359022599E-03 a       493     0    25     1    13
  4.1790024828803493E-02 a       494     0    25     1    14
 -3.8138652686600896E-02 a       495     0    25     1    15
 -7.1349984081113885E-02 a       496     0    25     1    16
  1.3763547738183737E-01 a       497     0    25     1    17
  6.5061155235810637E-03 a       498     0    25     1    18
  1.0551510515271792E-01 a       499     0    25     1    19
 -2.5514888664472015E-02 a       500     0    25     1    20
  1.7150732569342855E-01 a       501     0    26     1     1
  4.4297893424347722E-02 a       502     0    26     1     2
  1.6821996109259640E-01 a       503     0    26     1     3
 -9.3819702244782310E-02 a       504     0    26     1     4
  2.3470870303132132E-02 a       505     0    26     1     5
 -1.8085006918892678E-02 a       506     0    26     1     6
 -2.3246163923469135E-01 a       507     0    26     1     7
 -3.7238169129016417E-02 a       508     0    26     1     8
  1.4106422554350209E-02 a       509     0    26     1     9
  6.8638744568485635E-02 a       510     0    26     1    10
  7.6611497333205270E-02 a       511     0    26     1    11
 -1.7258997355759281E-02 a       512     0    26     1    12
  9.5990690775172846E-02 a       513     0    26     1    13
 -1.2213411360958890E-01 a       514     0    26     1    14
 -8.7504614647191059E-02 a       515     0    26     1    15
  9.6583598855025668E-02 a       516     0    26     1    16
  2.4873912641047977E-02 a       517     0    26     1    17
 -6.2271374979152146E-02 a       518     0    26     1    18
 -1.6398012650082455E-01 a       519     0    26     1    19
 -5.8066301224122166E-02 a       520     0    26     1    20
  9.1114539309091094E-02 a       521     0    27     1     1
 -1.0734958480871129E-02 a       522     0    27     1     2
 -8.4276774511889294E-02 a       523     0    27     1     3
 -1.5153647332288158E-02 a       524     0    27     1     4
 -4.3335064161759305E-03 a       525     0    27     1     5
  1.1340510293370924E-01 a       526     0    27     1     6
 -1.1764607806210539E-02 a       527     0    27     1     7
 -1.5053989665545822E-02 a       528     0    27     1     8
 -4.6613144511006663E-02 a       529     0    27     1     9
 -6.7682435160639390E-02 a       530     0    27     1    10
 -6.0459709465739107E-02 a       531     0    27     1    11
  1.2944317972625290E-02 a       532     0    27     1    12
 -3.4256083666637190E-02 a       533     0    27     1    13
 -5.9216411764711471E-02 a       534     0    27     1    14
  1.2971497496471820E-01 a       535     0    27     1    15
 -4.2989810349802732E-02 a       536     0    27     1    16
 -6.8249184124403700E-02 a       537     0    27     1    17
 -2.0215226734689409E-02 a       538     0    27     1    18
 -4.0411156480405067E-02 a       539     0    27     1    19
 -5.0462552887078202E-03 a       540     0    27     1    20
  7.7301857793336037E-02 a       541     0    28     1     1
  2.1460642505481346E-02 a       542     0    28     1     2
  5.0098936641346722E-02 a       543     0    28     1     3
 -8.1286753330820735E-02 a       544     0    28     1     4
 -4.6608496901966558E-03 a       545     0    28     1     5
  2.6096691920241402E-02 a       546     0    28     1     6
 -3.4308191102177081E-02 a       547     0    28     1     7
  5.4316352834584049E-03 a       548     0    28     1     8
  3.9483665859221771E-03 a       549     0    28     1     9
 -3.8873054387158976E-02 a       550     0    28     1    10
  2.3095015771641674E-02 a       551     0    28     1    11
 -9.5046474391714429E-04 a       552     0    28     1    12
  6.7533123043859750E-02 a       553     0    28     1    13
 -4.7528975868278561E-02 a       554     0    28     1    14
  1.2532216180892264E-01 a       555     0    28     1    15
  2.7627364783953175E-02 a       556     0    28     1    16
  3.9857014904876474E-03 a       557     0    28     1    17
 -3.8557942328861401E-02 a       558     0    28     1    18
 -2.7189673841341178E-02 a       559     0    28     1    19
 -2.7982381514100256E-02 a       560     0    28     1    20
 -1.3101642402990907E-01 a       561     0    29     1     1
 -6.6702673105191082E-02 a       562     0    29     1     2
 -1.6141330751428792E-01 a       563     0    29     1     3
  9.0768936602941330E-02 a       564     0    29     1     4
 -2.7123194594609632E-02 a       565     0    29     1     5
 -2.3519020937480305E-03 a       566     0    29     1     6
  1.4463765515289093E-01 a       567     0    29     1     7
 -8.8430380433719633E-03 a       568     0    29     1     8
 -7.7130775936985470E-04 a       569     0    29     1     9
  4.6565131116645848E-02 a       570     0    29     1    10
 -6.7068910510107591E-02 a       571     0    29     1    11
  2.0841752728588507E-02 a       572     0    29     1    12
 -1.1353951549313084E-01 a       573     0    29     1    13
  9.6810216280803399E-02 a       574     0    29     1    14
  4.0231121272761031E-02 a       575     0    29     1    15
 -8.2181160472111048E-02 a       576     0    29     1    16
 -5.7795783510285206E-02 a       577     0    29     1    17
  5.9033580409939966E-02 a       578     0    29     1    18
  8.4856835750468276E-02 a       579     0    29     1    19
  5.6656768240637083E-02 a       580     0    29     1    20
 -5.8115982695678255E-02 a       581     0    30     1     1
 -6.9560037384301674E-03 a       582     0    30     1     2
  4.2319861690379851E-03 a       583     0    30     1     3
  1.3253355847539451E-02 a       584     0    30     1     4
  1.0240085136639234E-02 a       585     0    30     1     5
 -3.8249085040865140E-02 a       586     0    30     1     6
  2.6847634023345040E-03 a       587     0    30     1     7
  3.5098087459437474E-02 a       588     0    30     1     8
  2.3690035776815260E-02 a       589     0    30     1     9
 -2.8049452948362003E-02 a       590     0    30     1    10
 -7.8698000483105723E-03 a       591     0    30     1    11
  3.9446451716321227E-03 a       592     0    30     1    12
 -2.8445049714729498E-02 a       593     0    30     1    13
  2.2231554209864682E-02 a       594     0    30     1    14
 -1.1630727725005935E-01 a       595     0    30     1    15
  3.6179613252397463E-02 a       596     0    30     1    16
  6.8492170610257620E-03 a       597     0    30     1    17
  2.3652781277353645E-02 a       598     0    30     1    18
  3.0966615755381059E-02 a       599     0    30     1    19
  1.2684364122098555E-02 a       600     0    30     1    20
 -8.2785034647811073E-03 a       601     0    31     1     1
 -3.8837405272459880E-02 a       602     0    31     1     2
  4.5525860249817487E-02 a       603     0    31     1     3
  3.0887757586594559E-02 a       604     0    31     1     4
 -9.4187079873572069E-02 a       605     0    31     1     5
 -1.9977870398230144E-01 a       606     0    31     1     6
 -3.5186575100248599E-02 a       607     0    31     1     7
 -1.5981224305026392E-02 a       608     0    31     1     8
  1.4705541618435417E-01 a       609     0    31     1     9
 -3.1832771592625375E-01 a       610     0    31     1    10
  1.0870253495672179E-01 a       611     0    31     1    11
 -4.8281962659432607E-04 a       612     0    31     1    12
 -6.7000743664080240E-03 a       613     0    31     1    13
  1.0592773545999880E-01 a       614     0    31     1    14
 -1.6088059956325829E-01 a       615     0    31     1    15
 -9.9049152217073597E-02 a       616     0    31     1    16
  9.3452138632629550E-02 a       617     0    31     1    17
 -2.6353870085848558E-01 a       618     0    31     1    18
 -2.1654794823995346E-01 a       619     0    31     1    19
  1.2163711200357492E-01 a       620     0    31     1    20
  5.8418103563931367E-01 a       621     0    32     1     1
 -1.1020985844759131E-01 a       622     0    32     1     2
  3.5413063462157707E-01 a       623     0    32     1     3
  2.2091269119624943E-01 a       624     0    32     1     4
 -1.9645535742325931E-01 a       625     0    32     1     5
 -1.8144244098443812E-02 a       626     0    32     1     6
  1.9815266897809250E-01 a       627     0    32     1     7
 -9.4363469603922865E-03 a       628     0    32     1     8
 -4.4476409335865014E-01 a       629     0    32     1     9
  2.1802548790904092E-01 a       630     0    32     1    10
 -1.7667123068424620E-02 a       631     0    32     1    11
 -1.1135015828553545E-01 a       632     0    32     1    12
  3.3222630165686107E-01 a       633     0    32     1    13
 -1.2607305384012704E-01 a       634     0    32     1    14
 -9.8722751161439457E-02 a       635     0    32     1    15
 -2.8075395751175775E-01 a       636     0    32     1    16
 -3.9246815473205826E-01 a       637     0    32     1    17
  1.3254664455766116E-01 a       638     0    32     1    18
  3.4778426899817150E-01 a       639     0    32     1    19
  1.2476826495872982E-01 a       640     0    32     1    20
 -2.1556852258718204E-01 a       641     0    33     1     1
 -1.7072309423686864E-02 a       642     0    33     1     2
 -2.8880270219258798E-02 a       643     0    33     1     3
  1.9508570538462283E-01 a       644     0    33     1     4
  3.7269389079807549E-02 a       645     0    33     1     5
 -3.1286261271550209E-01 a       646     0    33     1     6
  2.5964902405875362E-01 a       647     0    33     1     7
  8.6896493548612855E-02 a       648     0    33     1     8
 -1.3104162202895139E-01 a       649     0    33     1     9
  1.1623304017769734E-01 a       650     0    33     1    10
 -1.0047879111560806E-01 a       651     0    33     1    11
 -3.2217986071608133E-02 a       652     0    33     1    12
 -1.6428474013894737E-01 a       653     0    33     1    13
 -4.6896853304660945E-02 a       654     0    33     1    14
  5.1332898560786273E-02 a       655     0    33     1    15
 -1.3602450247745865E-01 a       656     0    33     1    16
  1.4293574442178344E-01 a       657     0    33     1    17
  2.6666253336397333E-01 a       658     0    33     1    18
  2.6315618956420384E-01 a       659     0    33     1    19
  2.2955989499270929E-01 a       660     0    33     1    20
 -2.4119402556466114E-02 a       661     0    34     1     1
  1.4358741694244054E-01 a       662     0    34     1     2
 -2.2628712470502121E-01 a       663     0    34     1     3
 -3.7078252525619693E-01 a       664     0    34     1     4
  2.9538172435340043E-01 a       665     0    34     1     5
  1.1288134377200666E-01 a       666     0    34     1     6
 -3.6468893332525110E-01 a       667     0    34     1     7
  1.4143787090933316E-01 a       668     0    34     1     8
  3.4794927297262651E-01 a       669     0    34     1     9
 -1.5261691204275812E-01 a       670     0    34     1    10
 -3.8004051682360117E-02 a       671     0    34     1    11
  1.3502917863404770E-01 a       672     0    34     1    12
 -1.6623588257962493E-01 a       673     0    34     1    13
  9.2559039325299398E-03 a       674     0    34     1    14
  7.5073657650231588E-03 a       675     0    34     1    15
  2.3012660339840313E-01 a       676     0    34     1    16
  4.5914238685354930E-01 a       677     0    34     1    17
 -1.5229530275644881E-01 a       678     0    34     1    18
  4.1215626771249202E-02 a       679     0    34     1    19
  5.0582780663842829E-03 a       680     0    34     1    20
  3.0113289852884911E-01 a       681     0    35     1     1
  1.4532447030137910E-01 a       682     0    35     1     2
 -3.7444297191000719E-01 a       683     0    35     1     3
 -7.9119886779403667E-02 a       684     0    35     1     4
  2.6204269636949284E-01 a       685     0    35     1     5
  2.3629330738551227E-01 a       686     0    35     1     6
 -1.5232331254689940E-01 a       687     0    35     1     7
  1.6381724691608482E-01 a       688     0    35     1     8
  1.8819016120428484E-02 a       689     0    35     1     9
  1.5381854180581142E-01 a       690     0    35     1    10
  5.1174069114271949E-02 a       691     0    35     1    11
  3.6058086084689123E-03 a       692     0    35     1    12
 -4.7554488073694924E-02 a       693     0    35     1    13
 -1.2966317757054849E-01 a       694     0    35     1    14
  1.9378842476744615E-01 a       695     0    35     1    15
  4.4933715859556576E-03 a       696     0    35     1    16
 -1.9073591161572717E-01 a       697     0    35     1    17
  6.1043590929499344E-03 a       698     0    35     1    18
 -2.5708133643432945E-01 a       699     0    35     1    19
 -1.7807248179048965E-01 a       700     0    35     1    20
 -2.0500081341563828E-01 a       701     0    36     1     1
  1.6240562293302471E-01 a       702     0    36     1     2
  2.5897674729833512E-02 a       703     0    36     1     3
 -4.1574687314629634E-02 a       704     0    36     1     4
  1.9475343131999590E-01 a       705     0    36     1     5
  1.7144143509393278E-01 a       706     0    36     1     6
 -4.0549040124717908E-03 a       707     0    36     1     7
  7.8179284610006075E-03 a       708     0    36     1     8
  3.0877388109952178E-02 a       709     0    36     1     9
  9.1033996106538340E-02 a       710     0    36     1    10
  1.3719981208202461E-01 a       711     0    36     1    11
 -3.5579606214181186E-02 a       712     0    36     1    12
 -6.3378510565058707E-02 a       713     0    36     1    13
  1.2901104961425167E-01 a       714     0    36     1    14
  3.0573380115572424E-01 a       715     0    36     1    15
  7.6667498716448471E-02 a       716     0    36     1    16
  1.3878266251640611E-01 a       717     0    36     1    17
  3.1330738778199246E-01 a       718     0    36     1    18
  4.5266339016195527E-02 a       719     0    36     1    19
 -1.5734814898431004E-01 a       720     0    36     1    20
 -6.5826165596889730E-01 a       721     0    37     1     1
 -2.7682139437744852E-01 a       722     0    37     1     2
 -3.3645951167384264E-01 a       723     0    37     1     3
 -2.0582859786193158E-01 a       724     0    37     1     4
 -3.0204781853228330E-01 a       725     0    37     1     5
 -2.8313770859007042E-01 a       726     0    37     1     6
 -9.8509720755776450E-02 a       727     0    37     1     7
  3.2478515464920256E-03 a       728     0    37     1     8
  3.6839584061036254E-02 a       729     0    37     1     9
 -7.0999490666135935E-03 a       730     0    37     1    10
 -5.7342196153192126E-01 a       731     0    37     1    11
  2.1164201717812298E-01 a       732     0    37     1    12
 -9.1089171067138736E-02 a       733     0    37     1    13
 -7.9289415698926191E-01 a       734     0    37     1    14
 -2.7544764539775968E-01 a       735     0    37     1    15
  2.0272308671541361E-01 a       736     0    37     1    16
 -6.3006887273900830E-02 a       737     0    37     1    17
 -6.7181901913066866E-01 a       738     0    37     1    18
 -2.0256441928306151E-01 a       739     0    37     1    19
  2.0804160326935725E-01 a       740     0    37     1    20
  2.0029853324799526E-01 a       741     0    38     1     1
 -2.1755087536271166E-02 a       742     0    38     1     2
  1.6823141396808416E-01 a       743     0    38     1     3
 -1.3362030075955461E-01 a       744     0    38     1     4
 -9.8759994488738928E-02 a       745     0    38     1     5
  1.3531927988052722E-01 a       746     0    38     1     6
 -1.4956881792333551E-01 a       747     0    38     1     7
 -1.3873682990119640E-01 a       748     0    38     1     8
  6.1785598059532522E-02 a       749     0    38     1     9
 -1.2507910322596102E-01 a       750     0    38     1    10
 -1.0034577082936040E-01 a       751     0    38     1    11
  4.1250881824567036E-02 a       752     0    38     1    12
  7.9747200595239529E-02 a       753     0    38     1    13
 -1.6081207571999157E-01 a       754     0    38     1    14
  1.1023390507650194E-01 a       755     0    38     1    15
  2.0610674023429004E-01 a       756     0    38     1    16
 -3.4839658804124929E-02 a       757     0    38     1    17
 -2.4322727212740256E-01 a       758     0    38     1    18
 -1.6248955118274119E-01 a       759     0    38     1    19
 -9.8162017806222301E-03 a       760     0    38     1    20
  1.7884590924012794E-01 a       761     0    39     1     1
  6.6619591227948818E-02 a       762     0    39     1     2
  9.7473962338864545E-02 a       763     0    39     1     3
  2.0149922691008175E-02 a       764     0    39     1     4
  5.9519945664012149E-02 a       765     0    39     1     5
  1.1136082674481240E-01 a       766     0    39     1     6
 -7.7980436921635976E-02 a       767     0    39     1     7
 -3.5681716028052382E-02 a       768     0    39     1     8
  5.7412571290813980E-03 a       769     0    39     1     9
  1.3175277813046571E-01 a       770     0    39     1    10
 -9.7729726501968872E-02 a       771     0    39     1    11
 -3.5632705692817901E-02 a       772     0    39     1    12
 -1.7648087405313310E-02 a       773     0    39     1    13
  3.1400500935922421E-01 a       774     0    39     1    14
  5.3010676036310475E-03 a       775     0    39     1    15
  2.5168847914446307E-01 a       776     0    39     1    16
 -1.5496447203468433E-01 a       777     0    39     1    17
  3.1415251794049304E-01 a       778     0    39     1    18
  1.7164715329370542E-02 a       779     0    39     1    19
 -8.0642395355273386E-02 a       780     0    39     1    20
 -1.9950172554906800E-01 a       781     0    40     1     1
  1.9066113259592699E-03 a       782     0    40     1     2
 -1.5128392176452782E-01 a       783     0    40     1     3
  1.9798245309761567E-01 a       784     0    40     1     4
 -3.5334729392014610E-02 a       785     0    40     1     5
 -2.3216460931373104E-01 a       786     0    40     1     6
  2.2333684732091935E-03 a       787     0    40     1     7
  1.5887574131499087E-02 a       788     0    40     1     8
 -1.0544637663780838E-01 a       789     0    40     1     9
  6.4169193872955999E-02 a       790     0    40     1    10
 -6.1603124171292073E-02 a       791     0    40     1    11
  2.1628356539498829E-02 a       792     0    40     1    12
 -1.1604639571800221E-01 a       793     0    40     1    13
  2.4024183087887502E-01 a       794     0    40     1    14
  2.9473307870240267E-01 a       795     0    40     1    15
  3.3592331837211047E-02 a       796     0    40     1    16
 -1.1620840937206985E-01 a       797     0    40     1    17
  1.2643331231708044E-01 a       798     0    40     1    18
 -4.7367567833491858E-02 a       799     0    40     1    19
  4.9344691864311639E-02 a       800     0    40     1    20
  4.8360937129289398E-02 a       801     0    41     1     1
  2.2737107036552209E-02 a       802     0    41     1     2
  1.3890047026841951E-02 a       803     0    41     1     3
  2.3823277788389628E-02 a       804     0    41     1     4
  1.2511533995829731E-02 a       805     0    41     1     5
 -5.8759817863694296E-02 a       806     0    41     1     6
 -3.0650583308409213E-02 a       807     0    41     1     7
 -1.4699087888638373E-02 a       808     0    41     1     8
 -1.6242192015615060E-02 a       809     0    41     1     9
 -8.8145948475900709E-02 a       810     0    41     1    10
  6.3896648130033804E-02 a       811     0    41     1    11
  3.8695495879685505E-03 a       812     0    41     1    12
 -3.0760705716023774E-02 a       813     0    41     1    13
 -1.0372411389053674E-02 a       814     0    41     1    14
  4.2027635482913524E-03 a       815     0    41     1    15
  9.4080578081452045E-03 a       816     0    41     1    16
 -1.5255910843945701E-02 a       817     0    41     1    17
  1.9284083234861606E-02 a       818     0    41     1    18
 -9.8716775774316201E-02 a       819     0    41     1    19
  5.6449430150996849E-03 a       820     0    41     1    20
 -2.5127130996296310E-01 a       821     0    42     1     1
 -6.5886398284784320E-02 a       822     0    42     1     2
 -6.9200458521875799E-02 a       823     0    42     1     3
  5.6196481016892712E-03 a       824     0    42     1     4
  5.4945876503833925E-03 a       825     0    42     1     5
  1.3896363680116713E-02 a       826     0    42     1     6
  1.5951476778559145E-01 a       827     0    42     1     7
  8.7450720040056010E-02 a       828     0    42     1     8
  1.6643414031063727E-02 a       829     0    42     1     9
  5.2686586980838737E-02 a       830     0    42     1    10
 -5.6677310900610914E-02 a       831     0    42     1    11
 -8.8388635889638127E-05 a       832     0    42     1    12
  5.8707604637462654E-03 a       833     0    42     1    13
 -4.1709280724971091E-02 a       834     0    42     1    14
  1.5909424078117110E-01 a       835     0    42     1    15
 -1.7310755203027547E-01 a       836     0    42     1    16
  8.3413553488704259E-02 a       837     0    42     1    17
  4.8047130412942410E-03 a       838     0    42     1    18
  2.2241755984692713E-01 a       839     0    42     1    19
  5.0002865471666720E-02 a       840     0    42     1    20
  3.8312559790705379E-02 a       841     0    43     1     1
 -8.5338247204745837E-02 a       842     0    43     1     2
 -1.7702451719741838E-01 a       843     0    43     1     3
  1.3562559797856927E-01 a       844     0    43     1     4
  6.2706555146039650E-02 a       845     0    43     1     5
  2.1490662340741481E-02 a       846     0    43     1     6
  8.2450370557986416E-02 a       847     0    43     1     7
 -2.8628994572919976E-03 a       848     0    43     1     8
 -4.9770268515646884E-03 a       849     0    43     1     9
  9.9225684718553128E-02 a       850     0    43     1    10
  1.0291621777404895E-02 a       851     0    43     1    11
  7.4037343294875310E-02 a       852     0    43     1    12
 -3.4657945708900552E-02 a       853     0    43     1    13
  8.2228213733734359E-02 a       854     0    43     1    14
 -2.0206069588631659E-01 a       855     0    43     1    15
 -1.1447828006071539E-01 a       856     0    43     1    16
 -6.3056405380962730E-02 a       857     0    43     1    17
 -1.0913319204080342E-01 a       858     0    43     1    18
  7.9167190229935666E-02 a       859     0    43     1    19
  1.0016961223861241E-01 a       860     0    43     1    20
  2.0285221048786548E-01 a       861     0    44     1     1
 -6.4817783499983156E-02 a       862     0    44     1     2
 -2.0365687145835298E-01 a       863     0    44     1     3
  3.7643071019146893E-02 a       864     0    44     1     4
 -8.5441394853096125E-02 a       865     0    44     1     5
  1.2198316125379179E-01 a       866     0    44     1     6
  5.7624793367977496E-02 a       867     0    44     1     7
 -2.7200665564059195E-01 a       868     0    44     1     8
 -1.5812688440940598E-02 a       869     0    44     1     9
 -1.9085283605662834E-01 a       870     0    44     1    10
 -2.3568725441148022E-01 a       871     0    44     1    11
  8.9460517942182724E-02 a       872     0    44     1    12
 -4.7935124738252004E-02 a       873     0    44     1    13
  2.8141512630170984E-01 a       874     0    44     1    14
  2.5347799021443723E-01 a       875     0    44     1    15
  1.7179328651231215E-01 a       876     0    44     1    16
 -1.9570790923677253E-01 a       877     0    44     1    17
 -8.3892723075552622E-02 a       878     0    44     1    18
  1.0437347152115113E-01 a       879     0    44     1    19
  2.7300274085071661E-02 a       880     0    44     1    20
  1.7733837280506839E-01 a       881     0    45     1     1
  6.7205754332824016E-03 a       882     0    45     1     2
 -4.6564352492231197E-02 a       883     0    45     1     3
 -2.0337217945166356E-02 a       884     0    45     1     4
 -1.8337800437693783E-01 a       885     0    45     1     5
 -1.0927504870821539E-01 a       886     0    45     1     6
 -2.9660763187606517E-02 a       887     0    45     1     7
  2.2173494801135468E-01 a       888     0    45     1     8
 -2.4548685648386004E-01 a       889     0    45     1     9
 -3.1033301279703057E-01 a       890     0    45     1    10
  2.5619216735337486E-01 a       891     0    45     1    11
  1.5226319271067665E-01 a       892     0    45     1    12
  1.3375779849690142E-01 a       893     0    45     1    13
 -4.0319036237790561E-02 a       894     0    45     1    14
  1.6543965305627140E-01 a       895     0    45     1    15
  9.3268155543326625E-02 a       896     0    45     1    16
 -2.3189572028226349E-01 a       897     0    45     1    17
  4.9707654239767890E-02 a       898     0    45     1    18
 -2.0882650117565668E-02 a       899     0    45     1    19
  5.4970303060130196E-03 a       900     0    45     1    20
  3.3806010592872998E-02 a       901     0    46     1     1
 -1.9743015939340103E-01 a       902     0    46     1     2
 -7.5490739148501712E-02 a       903     0    46     1     3
  1.1369971127501032E-01 a       904     0    46     1     4
 -6.6120958006219185E-02 a       905     0    46     1     5
 -5.2697301547085150E-02 a       906     0    46     1     6
  1.1242311224635151E-01 a       907     0    46     1     7
 -8.3205545006928505E-02 a       908     0    46     1     8
  1.1614478593625958E-02 a       909     0    46     1     9
  1.2995469029327475E-01 a       910     0    46     1    10
 -2.7172559412015618E-01 a       911     0    46     1    11
 -2.0796097897513081E-02 a       912     0    46     1    12
  1.3251662767168467E-02 a       913     0    46     1    13
  1.8994420935434120E-02 a       914     0    46     1    14
  9.7836654432541359E-02 a       915     0    46     1    15
 -1.5499877278567106E-01 a       916     0    46     1    16
 -6.0940320014128940E-02 a       917     0    46     1    17
 -1.2920825044980960E-01 a       918     0    46     1    18
  1.8145270789347101E-01 a       919     0    46     1    19
  1.6562550878395454E-01 a       920     0    46     1    20
  3.6202952790293719E-01 a       921     0    47     1     1
  3.9648385495583127E-01 a       922     0    47     1     2
  2.2391037595575956E-02 a       923     0    47     1     3
 -2.2673656966166028E-01 a       924     0    47     1     4
  1.4477781767887493E-01 a       925     0    47     1     5
  2.6205642961330128E-01 a       926     0    47     1     6
 -2.1370693816836358E-03 a       927     0    47     1     7
  4.1331239156012317E-01 a       928     0    47     1     8
  1.0958484644712334E-01 a       929     0    47     1     9
  9.6216865821048533E-02 a       930     0    47     1    10
  5.5996859576870617E-01 a       931     0    47     1    11
 -5.9023725553169933E-02 a       932     0    47     1    12
  9.2503405944655781E-02 a       933     0    47     1    13
  7.3519835646341880E-01 a       934     0    47     1    14
 -2.4380782447001961E-01 a       935     0    47     1    15
  2.6284368642271649E-01 a       936     0    47     1    16
 -1.0563045851652506E-01 a       937     0    47     1    17
  8.1995382636701442E-01 a       938     0    47     1    18
  3.8602292083645895E-01 a       939     0    47     1    19
 -2.9858874295578425E-01 a       940     0    47     1    20
  2.0291569666600154E-01 a       941     0    48     1     1
  6.8166780916453118E-02 a       942     0    48     1     2
 -5.7534644389446825E-02 a       943     0    48     1     3
 -5.6674747830133057E-02 a       944     0    48     1     4
  1.1536326729512866E-01 a       945     0    48     1     5
 -6.0417894788903047E-02 a       946     0    48     1     6
  9.8438936796223092E-02 a       947     0    48     1     7
  4.8788250389248784E-02 a       948     0    48     1     8
  3.7907707370235945E-02 a       949     0    48     1     9
 -1.6234819617045798E-01 a       950     0    48     1    10
  1.8327780967201637E-01 a       951     0    48     1    11
 -7.4401060269095893E-03 a       952     0    48     1    12
 -7.2580642665699038E-02 a       953     0    48     1    13
 -1.8560794120744345E-01 a       954     0    48     1    14
  1.3810092559654769E-01 a       955     0    48     1    15
 -2.1704703497344888E-01 a       956     0    48     1    16
 -1.0479242194539422E-01 a       957     0    48     1    17
 -1.6111947949975558E-02 a       958     0    48     1    18
 -2.1166914447970156E-01 a       959     0    48     1    19
 -1.0795603372516523E-01 a       960     0    48     1    20
 -2.2496145982346616E-02 a       961     0    49     1     1
 -6.9400006596777628E-02 a       962     0    49     1     2
  2.1665303912077192E-02 a       963     0    49     1     3
  5.5249831013666706E-02 a       964     0    49     1     4
 -1.5053354482164662E-02 a       965     0    49     1     5
 -7.3845844197086410E-02 a       966     0    49     1     6
 -1.0791404710484361E-01 a       967     0    49     1     7
 -2.9762738045749020E-02 a       968     0    49     1     8
 -4.1758326324030995E-02 a       969     0    49     1     9
 -3.2530750021931495E-02 a       970     0    49     1    10
 -6.2974169786206777E-02 a       971     0    49     1    11
  1.8641366444197074E-02 a       972     0    49     1    12
  2.2013337488063400E-02 a       973     0    49     1    13
 -2.5838161779341479E-01 a       974     0    49     1    14
 -2.0490735586226366E-01 a       975     0    49     1    15
 -1.3876330098467207E-01 a       976     0    49     1    16
  4.3668273848246529E-02 a       977     0    49     1    17
 -2.5979354544756000E-01 a       978     0    49     1    18
 -1.3197730265629051E-01 a       979     0    49     1    19
  9.7192668272106722E-02 a       980     0    49     1    20
  5.5080851304008631E-02 a       981     0    50     1     1
  4.2274884731314938E-02 a       982     0    50     1     2
  1.4391968951255385E-01 a       983     0    50     1     3
  1.5372352656452504E-02 a       984     0    50     1     4
  3.5509200122551869E-02 a       985     0    50     1     5
 -1.7793263581064166E-02 a       986     0    50     1     6
 -1.8993613806659940E-01 a       987     0    50     1     7
  3.3692597560968339E-02 a       988     0    50     1     8
 -2.3497484616705814E-02 a       989     0    50     1     9
  1.3899582348434833E-01 a       990     0    50     1    10
  4.9673595808579191E-02 a       991     0    50     1    11
 -4.7729686884443265E-03 a       992     0    50     1    12
  1.0182021801317227E-01 a       993     0    50     1    13
 -1.3356937091676926E-01 a       994     0    50     1    14
 -2.5318172999928557E-01 a       995     0    50     1    15
 -5.3140763156563652E-02 a       996     0    50     1    16
  9.5757028259120289E-02 a       997     0    50     1    17
 -9.6334522445704340E-02 a       998     0    50     1    18
 -7.7307997546432916E-02 a       999     0    50     1    19
  3.9422478212439514E-02 a      1000     0    50     1    20
 -4.9229747077972535E-01 b      1001     1     1
  1.1005066855187502E+00 b      1002     1     2
 -5.5574860946135805E-02 b      1003     1     3
  5.6475989197941123E-01 b      1004     1     4
 -1.0541591273605624E+00 b      1005     1     5
  3.3087919552528676E-02 b      1006     1     6
 -1.9753727163547855E-01 b      1007     1     7
 -5.9865216378187336E-01 b      1008     1     8
  3.8305608940050062E-01 b      1009     1     9
 -1.0672065323195603E+00 b      1010     1    10
 -3.5126872769638307E-01 b      1011     1    11
  1.1762651096445291E+00 b      1012     1    12
  5.6179257861628751E-01 b      1013     1    13
 -5.6665296113774344E-01 b      1014     1    14
  1.2640931280150882E+00 b      1015     1    15
  3.0784481729876145E-01 b      1016     1    16
  1.6793315292773861E-01 b      1017     1    17
 -7.4669055918449079E-01 b      1018     1    18
  2.8155848254365423E-01 b      1019     1    19
  1.2453194630859294E+00 b      1020     1    20
 -3.5409534197715220E-01 a      1021     1     1     2     1
  2.9613498099354713E-01 a      1022     1     1     2     2
  5.7697276821112670E-02 a      1023     1     1     2     3
 -1.6267206419906438E-01 a      1024     1     1     2     4
 -3.0968902825749539E-01 a      1025     1     1     2     5
 -4.1160755569347041E-01 a      1026     1     1     2     6
 -4.5644900160435992E-01 a      1027     1     1     2     7
  2.1882652142705952E-01 a      1028     1     1     2     8
 -3.0313994248732629E-01 a      1029     1     1     2     9
  1.8977118504141149E-01 a      1030     1     1     2    10
  1.2637364211126745E-01 a      1031     1     1     2    11
  1.5931754047386820E-02 a      1032     1     1     2    12
  1.1879356909905298E-01 a      1033     1     1     2    13
  3.9768714154538970E-01 a      1034     1     1     2    14
  1.4501669126828876E-01 a      1035     1     1     2    15
  5.8180461590910326E-01 a      1036     1     1     2    16
 -6.8606008677516817E-02 a      1037     1     1     2    17
  3.4682776694363077E-01 a      1038     1     1     2    18
 -5.8408422961679607E-01 a      1039     1     1     2    19
  1.2215746640020007E-01 a      1040     1     1     2    20
  3.6830109457137744E-01 a      1041     1     2     2     1
  4.0014190275504286E-01 a      1042     1     2     2     2
 -4.8573625512316587E-02 a      1043     1     2     2     3
 -2.6501623943589531E-01 a      1044     1     2     2     4
 -5.8975145271300622E-01 a      1045     1     2     2     5
 -1.7220962958275729E-01 a      1046     1     2     2     6
  5.6004498574674946E-02 a      1047     1     2     2     7
 -7.2488867886231889E-01 a      1048     1     2     2     8
  1.5233994877513019E-01 a      1049     1     2     2     9
  4.8733140144343384E-01 a      1050     1     2     2    10
  9.4346344824206652E-01 a      1051     1     2     2    11
 -1.8343040997344986E-01 a      1052     1     2     2    12
 -8.9802349456306441E-01 a      1053     1     2     2    13
 -4.0935671735546258E-01 a      1054     1     2     2    14
  2.1823122293556529E-01 a      1055     1     2     2    15
 -2.4433055072493098E-01 a      1056     1     2     2    16
 -2.1673539241891756E-03 a      1057     1     2     2    17
  7.5684766296931313E-02 a      1058     1     2     2    18
  5.4283480164652376E-01 a      1059     1     2     2    19
 -2.3903246780775128E-01 a      1060     1     2     2    20
  2.6487570568089153E-01 a      1061     1     3     2     1
  2.8418140389864083E-02 a      1062     1     3     2     2
 -6.1266441407036254E-01 a      1063     1     3     2     3
 -3.9720929032759367E-01 a      1064     1     3     2     4
  4.3776941762336169E-01 a      1065     1     3     2     5
  3.9348419926962874E-01 a      1066     1     3     2     6
 -5.5651509038402297E-02 a      1067     1     3     2     7
 -3.4358551027795114E-01 a      1068     1     3     2     8
 -2.4506997556562057E-01 a      1069     1     3     2     9
  1.4555869596932056E-01 a      1070     1     3     2    10
  4.8648945923434195E-01 a      1071     1     3     2    11
  1.3182556430681491E-01 a      1072     1     3     2    12
 -4.5588212480415891E-01 a      1073     1     3     2    13
 -1.8154947342107625E-01 a      1074     1     3     2    14
  5.4498976798970145E-01 a      1075     1     3     2    15
  2.6053207795799815E-01 a      1076     1     3     2    16
  1.8798966464011596E-01 a      1077     1     3     2    17
  9.7588410961096317E-01 a      1078     1     3     2    18
  2.5019787923735037E-01 a      1079     1     3     2    19
  1.8064808131119645E-01 a      1080     1     3     2    20
 -5.0704681513248595E-01 a      1081     1     4     2     1
  1.0291486624029194E+00 a      1082     1     4     2     2
 -7.2732136361648503E-01 a      1083     1     4     2     3
 -4.5785868438748512E-01 a      1084     1     4     2     4
  7.1624384919696171E-01 a      1085     1     4     2     5
 -2.1818493618498724E-01 a      1086     1     4     2     6
 -3.3702985551969877E-01 a      1087     1     4     2     7
  3.5261991484868638E-01 a      1088     1     4     2     8
 -7.5910285178152059E-01 a      1089     1     4     2     9
 -3.2357920003935997E-01 a      1090     1     4     2    10
  6.9909943640672945E-01 a      1091     1     4     2    11
  7.0591762280375381E-01 a      1092     1     4     2    12
 -3.9418678704472576E-01 a      1093     1     4     2    13
  3.1764885973155049E-01 a      1094     1     4     2    14
 -1.3543952740213212E-02 a      1095     1     4     2    15
  7.4809263914569579E-01 a      1096     1     4     2    16
  5.9806547751108119E-01 a      1097     1     4     2    17
  8.6996592179411603E-01 a      1098     1     4     2    18
 -2.9232830141592342E-01 a      1099     1     4     2    19
  2.1046053644795959E-01 a      1100     1     4     2    20
  1.5256223041304004E-01 a      1101     1     5     2     1
  2.5170563550008596E-01 a      1102     1     5     2     2
  8.6669743568995983E-01 a      1103     1     5     2     3
 -1.4404691122006916E-01 a      1104     1     5     2     4
 -1.9956518029752834E-01 a      1105     1     5     2     5
 -4.1565607029966573E-01 a      1106     1     5     2     6
  6.1011563527827350E-01 a      1107     1     5     2     7
 -4.5319060997674232E-01 a      1108     1     5     2     8
  9.7509979877770991E-02 a      1109     1     5     2     9
 -4.8230734499909761E-01 a      1110     1     5     2    10
 -6.6530153511704870E-01 a      1111     1     5     2    11
 -5.1786059011739871E-01 a      1112     1     5     2    12
  5.1493899736997761E-01 a      1113     1     5     2    13
 -3.1395360993843457E-01 a      1114     1     5     2    14
 -5.0821160298969226E-01 a      1115     1     5     2    15
 -1.3150847344943103E-01 a      1116     1     5     2    16
 -7.8225008291877507E-01 a      1117     1     5     2    17
  7.2913061831618231E-01 a      1118     1     5     2    18
  4.1516093692376554E-01 a      1119     1     5     2    19
 -5.8446029743653927E-01 a      1120     1     5     2    20
  4.2812927622507096E-01 a      1121     1     6     2     1
  8.2464365753267238E-02 a      1122     1     6     2     2
 -6.0342576562951514E-02 a      1123     1     6     2     3
  1.0499868732550113E-01 a      1124     1     6     2     4
  4.7036100093844935E-01 a      1125     1     6     2     5
  3.4319907795259202E-01 a      1126     1     6     2     6
  6.6817046853263740E-01 a      1127     1     6     2     7
  1.0661001178178038E-01 a      1128     1     6     2     8
  8.6628032693198498E-01 a      1129     1     6     2     9
 -3.7790651674134063E-01 a      1130     1     6     2    10
  7.9166142299521014E-02 a      1131     1     6     2    11
 -2.0050705885161413E-01 a      1132     1     6     2    12
 -6.3077097940886517E-01 a      1133     1     6     2    13
 -7.8080015999361332E-02 a      1134     1     6     2    14
 -4.5754332748034587E-01 a      1135     1     6     2    15
 -4.8994871619154295E-01 a      1136     1     6     2    16
  1.5354933116339872E-01 a      1137     1     6     2    17
  5.3598464964861248E-01 a      1138     1     6     2    18
 -5.6140414261400695E-01 a      1139     1     6     2    19
 -3.0045435787636580E-02 a      1140     1     6     2    20
 -6.0726896995057722E-01 a      1141     1     7     2     1
 -3.7257781683308883E-01 a      1142     1     7     2     2
  1.8156011203573752E-01 a      1143     1     7     2     3
  4.6320310534701675E-02 a      1144     1     7     2     4
 -3.0289160415907762E-01 a      1145     1     7     2     5
  5.4587929393973689E-01 a      1146     1     7     2     6
  1.8147821846867024E-01 a      1147     1     7     2     7
 -2.6117421102818583E-01 a      1148     1     7     2     8
  3.8433234261869370E-01 a      1149     1     7     2     9
 -3.3196269121817557E-02 a      1150     1     7     2    10
  5.6857479506946218E-01 a      1151     1     7     2    11
 -4.1478121728329015E-01 a      1152     1     7     2    12
 -2.6756793399112427E-01 a      1153     1     7     2    13
 -9.8884572878550056E-02 a      1154     1     7     2    14
  1.6195361464564095E-01 a      1155     1     7     2    15
 -2.9505149034875411E-01 a      1156     1     7     2    16
  4.5271585411219151E-01 a      1157     1     7     2    17
  1.8464291004767547E-01 a      1158     1     7     2    18
 -1.9436396115685323E-01 a      1159     1     7     2    19
 -1.8001127544510376E-02 a      1160     1     7     2    20
 -1.0961131594872786E-01 a      1161     1     8     2     1
  4.4324086611813113E-01 a      1162     1     8     2     2
  3.1660396775451749E-01 a      1163     1     8     2     3
  5.0262676667551109E-01 a      1164     1     8     2     4
  4.8683612730532372E-01 a      1165     1     8     2     5
  6.4471560065236899E-01 a      1166     1     8     2     6
 -3.1721035233909728E-01 a      1167     1     8     2     7
 -4.1348495412628178E-01 a      1168     1     8     2     8
  1.3070947739004032E-01 a      1169     1     8     2     9
  1.9481778990067738E-01 a      1170     1     8     2    10
  2.2256651469631808E-01 a      1171     1     8     2    11
 -2.8890314678257129E-01 a      1172     1     8     2    12
 -2.1634696484505508E-01 a      1173     1     8     2    13
  4.3006135200252221E-01 a      1174     1     8     2    14
  3.1405462538536350E-01 a      1175     1     8     2    15
  3.3019492334389716E-01 a      1176     1     8     2    16
  2.3547713872006415E-01 a      1177     1     8     2    17
  5.7308575740718271E-01 a      1178     1     8     2    18
 -2.8119963266664227E-01 a      1179     1     8     2    19
  6.1884422403689687E-01 a      1180     1     8     2    20
  2.0008738222039951E-01 a      1181     1     9     2     1
 -1.2647980966977748E-01 a      1182     1     9     2     2
  1.3131752381346642E-01 a      1183     1     9     2     3
  5.5034612607656086E-01 a      1184     1     9     2     4
 -2.4247343967215990E-01 a      1185     1     9     2     5
  6.4758914873247003E-02 a      1186     1     9     2     6
  1.7463412620253801E-01 a      1187     1     9     2     7
  6.0706043093868756E-01 a      1188     1     9     2     8
  1.7223199354644400E-01 a      1189     1     9     2     9
 -8.6790776063041464E-01 a      1190     1     9     2    10
  6.0217632874332294E-01 a      1191     1     9     2    11
  1.2811212626677307E-01 a      1192     1     9     2    12
 -1.3302195897828181E-01 a      1193     1     9     2    13
  4.6314150662740985E-02 a      1194     1     9     2    14
 -1.0002509562545024E-01 a      1195     1     9     2    15
 -4.6723941872099950E-01 a      1196     1     9     2    16
 -4.6947101397637875E-01 a      1197     1     9     2    17
 -4.9070896869437719E-01 a      1198     1     9     2    18
 -2.1992369771892090E-01 a      1199     1     9     2    19
  4.3268776409248111E-01 a      1200     1     9     2    20
  6.2151365020965565E-01 a      1201     1    10     2     1
 -1.4089832313121403E-01 a      1202     1    10     2     2
 -3.4852623001168322E-03 a      1203     1    10     2     3
  6.1951890444531296E-02 a      1204     1    10     2     4
  4.0121832935013846E-01 a      1205     1    10     2     5
 -9.9114951628606812E-02 a      1206     1    10     2     6
 -1.8696841210854326E-01 a      1207     1    10     2     7
 -6.9490517049625791E-02 a      1208     1    10     2     8
  3.7642700894605285E-01 a      1209     1    10     2     9
  1.3582521306688020E-01 a      1210     1    10     2    10
  1.7998571195513202E-01 a      1211     1    10     2    11
 -4.8489918092618223E-01 a      1212     1    10     2    12
  2.6594178781990685E-01 a      1213     1    10     2    13
  5.0234167723175641E-02 a      1214     1    10     2    14
 -6.7955531878504657E-02 a      1215     1    10     2    15
 -1.9878479832104129E-01 a      1216     1    10     2    16
 -1.4334945284695816E-01 a      1217     1    10     2    17
  1.7388798928087001E-01 a      1218     1    10     2    18
  3.1443988693485497E-01 a      1219     1    10     2    19
  1.4857605528496876E-01 a      1220     1    10     2    20
  6.3162610935350072E-01 a      1221     1    11     2     1
 -1.8012086747150030E-01 a      1222     1    11     2     2
 -1.0495300871054086E-02 a      1223     1    11     2     3
 -6.5180737692369498E-02 a      1224     1    11     2     4
 -1.1954387946600052E-01 a      1225     1    11     2     5
  4.8973623453350773E-01 a      1226     1    11     2     6
  6.8383537379670434E-01 a      1227     1    11     2     7
  6.6720773698083502E-01 a      1228     1    11     2     8
  2.8928446353934839E-01 a      1229     1    11     2     9
 -4.9206574006895148E-01 a      1230     1    11     2    10
 -5.5072091605820350E-01 a      1231     1    11     2    11
  2.4362788490742168E-01 a      1232     1    11     2    12
 -6.2266002121713826E-01 a      1233     1    11     2    13
 -2.8793904630845357E-01 a      1234     1    11     2    14
 -6.2197631158527855E-01 a      1235     1    11     2    15
 -1.8793050079917722E-01 a      1236     1    11     2    16
  4.6314094698122249E-01 a      1237     1    11     2    17
  2.4381710576960414E-01 a      1238     1    11     2    18
  5.8979284094435931E-02 a      1239     1    11     2    19
 -4.5078085111441829E-01 a      1240     1    11     2    20
  8.7233400278318204E-02 a      1241     1    12     2     1
  8.3472790530081697E-01 a      1242     1    12     2     2
 -2.1536035535549009E-01 a      1243     1    12     2     3
  4.6583247225159663E-01 a      1244     1    12     2     4
 -6.5619614614485389E-01 a      1245     1    12     2     5
 -1.6007919915084909E-01 a      1246     1    12     2     6
  6.7098813278770653E-01 a      1247     1    12     2     7
 -9.4224772664133774E-02 a      1248     1    12     2     8
  1.6545708657532057E-01 a      1249     1    12     2     9
 -3.1958157428445794E-01 a      1250     1    12     2    10
  3.2006424192129790E-01 a      1251     1    12     2    11
  5.7134807155093581E-01 a      1252     1    12     2    12
  2.6227248367057510E-01 a      1253     1    12     2    13
  1.8384317728858363E-01 a      1254     1    12     2    14
  1.8352799890374011E-01 a      1255     1    12     2    15
 -1.9801998739158760E-01 a      1256     1    12     2    16
  4.6330705055189753E-01 a      1257     1    12     2    17
 -5.8049962831317574E-02 a      1258     1    12     2    18
 -4.6245351467059442E-01 a      1259     1    12     2    19
 -5.6193911153260812E-01 a      1260     1    12     2    20
  9.3135280072771387E-02 a      1261     1    13     2     1
  5.1540914548955619E-01 a      1262     1    13     2     2
  6.2444901728511593E-01 a      1263     1    13     2     3
  7.9751848364260502E-01 a      1264     1    13     2     4
  4.6639990482146065E-01 a      1265     1    13     2     5
 -5.0046579456770923E-01 a      1266     1    13     2     6
  1.7760407584113605E-01 a      1267     1    13     2     7
 -4.6383690340270411E-01 a      1268     1    13     2     8
 -5.1871808482571735E-01 a      1269     1    13     2     9
 -3.4184394989867650E-01 a      1270     1    13     2    10
 -2.9438618933488564E-01 a      1271     1    13     2    11
  5.8864041929429756E-01 a      1272     1    13     2    12
 -2.6399287788972881E-01 a      1273     1    13     2    13
  5.6625839972809310E-02 a      1274     1    13     2    14
 -1.6351084148323328E-01 a      1275     1    13     2    15
  2.0712729390652262E-01 a      1276     1    13     2    16
 -4.4853269153289133E-01 a      1277     1    13     2    17
 -1.6812213133571893E-01 a      1278     1    13     2    18
 -1.9787166061518505E-01 a      1279     1    13     2    19
 -3.6721366860205675E-03 a      1280     1    13     2    20
 -6.4073874037864686E-01 a      1281     1    14     2     1
  6.5081629092290738E-01 a      1282     1    14     2     2
  2.6584897066796348E-01 a      1283     1    14     2     3
  6.0045443682653898E-01 a      1284     1    14     2     4
 -7.6405061004683683E-01 a      1285     1    14     2     5
 -4.6915573490056633E-01 a      1286     1    14     2     6
  8.7387251601849389E-02 a      1287     1    14     2     7
 -3.4869000474477330E-01 a      1288     1    14     2     8
 -2.7799613978454107E-01 a      1289     1    14     2     9
  2.5846017412420989E-02 a      1290     1    14     2    10
 -5.4949578233179797E-01 a      1291     1    14     2    11
  8.3290155844640545E-01 a      1292     1    14     2    12
 -2.1198314817526132E-01 a      1293     1    14     2    13
  2.1500102006623834E-01 a      1294     1    14     2    14
  4.0045010005190779E-01 a      1295     1    14     2    15
  7.9774058110083501E-01 a      1296     1    14     2    16
 -5.7991385349094600E-02 a      1297     1    14     2    17
  1.2623040092503510E+00 a      1298     1    14     2    18
  6.4324327716013019E-01 a      1299     1    14     2    19
  6.5471341043855957E-01 a      1300     1    14     2    20
  3.6217765427542015E-01 a      1301     1    15     2     1
  3.9491108099797778E-01 a      1302     1    15     2     2
 -5.0141759226394640E-02 a      1303     1    15     2     3
 -4.0701905447626635E-01 a      1304     1    15     2     4
  1.2749033148275937E-01 a      1305     1    15     2     5
  2.9473510212126460E-02 a      1306     1    15     2     6
  2.6582475193336602E-01 a      1307     1    15     2     7
  3.2459066873265346E-01 a      1308     1    15     2     8
 -3.3295226415318868E-01 a      1309     1    15     2     9
 -2.8797532562261852E-01 a      1310     1    15     2    10
 -2.7737072885551906E-01 a      1311     1    15     2    11
 -2.4266373198840593E-01 a      1312     1    15     2    12
 -9.5080687574682521E-02 a      1313     1    15     2    13
 -9.9274012878374732E-03 a      1314     1    15     2    14
 -2.0713846643980877E-01 a      1315     1    15     2    15
  1.6803670676063676E-01 a      1316     1    15     2    16
  2.2709877641492437E-01 a      1317     1    15     2    17
  1.5804966050141150E-01 a      1318     1    15     2    18
 -3.4717880351945557E-01 a      1319     1    15     2    19
 -2.9706237126243157E-01 a      1320     1    15     2    20
 -5.5159246909027304E-01 a      1321     1    16     2     1
  1.6137340708126577E-01 a      1322     1    16     2     2
  3.6035084138650475E-01 a      1323     1    16     2     3
 -4.8825512358602718E-01 a      1324     1    16     2     4
 -1.3284228637139850E-01 a      1325     1    16     2     5
 -3.9397243954651322E-02 a      1326     1    16     2     6
  3.9886241305764611E-02 a      1327     1    16     2     7
  3.6145451986788213E-01 a      1328     1    16     2     8
 -1.7150345390491173E-01 a      1329     1    16     2     9
  6.5900783709630012E-02 a      1330     1    16     2    10
 -1.2272751034294027E-01 a      1331     1    16     2    11
  7.4315497178464959E-02 a      1332     1    16     2    12
 -6.1369913781630564E-02 a      1333     1    16     2    13
 -3.6994783812621954E-03 a      1334     1    16     2    14
 -4.6014609181505106E-01 a      1335     1    16     2    15
 -6.0325395179267452E-02 a      1336     1    16     2    16
 -3.1152216352447998E-01 a      1337     1    16     2    17
  4.6407308741419386E-02 a      1338     1    16     2    18
 -4.0085081628421859E-01 a      1339     1    16     2    19
  6.9346242372602035E-02 a      1340     1    16     2    20
 -1.2770063219688824E-01 a      1341     1    17     2     1
  8.3553972968094381E-01 a      1342     1    17     2     2
  5.4073802457594100E-01 a      1343     1    17     2     3
 -3.9708899078188670E-01 a      1344     1    17     2     4
 -7.5022093534280840E-02 a      1345     1    17     2     5
 -1.1802305954274148E-01 a      1346     1    17     2     6
 -8.8264600246611458E-01 a      1347     1    17     2     7
  1.9641222825751417E-01 a      1348     1    17     2     8
 -6.6275124379562896E-03 a      1349     1    17     2     9
  5.9255027100171143E-01 a      1350     1    17     2    10
  2.8493563536141336E-01 a      1351     1    17     2    11
  4.4270198771271058E-01 a      1352     1    17     2    12
  4.4177359990151971E-01 a      1353     1    17     2    13
  7.8555374317171034E-01 a      1354     1    17     2    14
  8.1603760232042050E-02 a      1355     1    17     2    15
 -4.1313435525937470E-01 a      1356     1    17     2    16
  6.4230761208653553E-01 a      1357     1    17     2    17
 -9.6651149379836399E-01 a      1358     1    17     2    18
 -2.9281337326668488E-01 a      1359     1    17     2    19
 -1.0866729943144719E-01 a      1360     1    17     2    20
 -4.0543679857783127E-01 a      1361     1    18     2     1
  1.6037031105507979E-01 a      1362     1    18     2     2
 -2.3299015921540986E-01 a      1363     1    18     2     3
  2.3868335037272323E-01 a      1364     1    18     2     4
 -4.6271718753218567E-02 a      1365     1    18     2     5
 -2.5506413051139987E-01 a      1366     1    18     2     6
 -7.1311295487074752E-02 a      1367     1    18     2     7
  2.7507479898882359E-01 a      1368     1    18     2     8
  4.9957071457539970E-02 a      1369     1    18     2     9
 -2.8965585113678138E-01 a      1370     1    18     2    10
  2.5781870158038961E-01 a      1371     1    18     2    11
  5.8571480577034418E-01 a      1372     1    18     2    12
  1.4848041463089062E-01 a      1373     1    18     2    13
  3.8472825783961684E-01 a      1374     1    18     2    14
  2.5457574179296144E-01 a      1375     1    18     2    15
  1.5771531196983943E-01 a      1376     1    18     2    16
  3.8694666004136913E-01 a      1377     1    18     2    17
  2.8343514642073125E-01 a      1378     1    18     2    18
 -3.0290973951322875E-01 a      1379     1    18     2    19
  1.1597155000279220E-01 a      1380     1    18     2    20
 -6.4259225919544916E-01 a      1381     1    19     2     1
 -1.6496715492828465E-01 a      1382     1    19     2     2
 -3.6624256328601734E-01 a      1383     1    19     2     3
 -5.4245865437700314E-01 a      1384     1    19     2     4
  8.7521149484527688E-02 a      1385     1    19     2     5
 -3.5370640237202278E-01 a      1386     1    19     2     6
 -2.7776363357064765E-01 a      1387     1    19     2     7
  2.5935350777375266E-01 a      1388     1    19     2     8
 -4.5664618168188831E-01 a      1389     1    19     2     9
  2.2613003462890499E-01 a      1390     1    19     2    10
 -1.0126436427874547E-01 a      1391     1    19     2    11
 -2.9985108191319060E-01 a      1392     1    19     2    12
  1.1799174456328243E-01 a      1393     1    19     2    13
 -1.7490837293462641E-01 a      1394     1    19     2    14
 -2.0100209538993138E-01 a      1395     1    19     2    15
  3.7039629459248413E-01 a      1396     1    19     2    16
  4.2238895603264526E-01 a      1397     1    19     2    17
  1.2943662341329837E-01 a      1398     1    19     2    18
  4.9125771698799031E-01 a      1399     1    19     2    19
 -4.8211027521128053E-01 a      1400     1    19     2    20
  3.0234086209243988E-01 a      1401     1    20     2     1
 -6.3697482769236846E-01 a      1402     1    20     2     2
  4.9776765234417736E-01 a      1403     1    20     2     3
  2.5274694899702405E-01 a      1404     1    20     2     4
 -7.6141120100318982E-01 a      1405     1    20     2     5
 -7.0151843183380136E-01 a      1406     1    20     2     6
  2.4592832217110233E-01 a      1407     1    20     2     7
 -5.6384120190890508E-02 a      1408     1    20     2     8
  4.0348641271020952E-01 a      1409     1    20     2     9
 -1.9375904888817946E-02 a      1410     1    20     2    10
  1.0661829648279287E-02 a      1411     1    20     2    11
 -5.7431267885462389E-01 a      1412     1    20     2    12
 -4.1001592573674688E-02 a      1413     1    20     2    13
 -4.6111186801715459E-01 a      1414     1    20     2    14
  1.1939481154628617E-01 a      1415     1    20     2    15
  4.6239343317792847E-01 a      1416     1    20     2    16
  4.1154458338919980E-01 a      1417     1    20     2    17
 -1.0266716702693425E-01 a      1418     1    20     2    18
  6.5158204574601059E-02 a      1419     1    20     2    19
  4.4202550983370442E-01 a      1420     1    20     2    20
 -6.7030580696313224E-01 b      1421     2     1
 -1.0572758422431743E+00 b      1422     2     2
 -5.8402055469327219E-01 b      1423     2     3
  4.3395656758236645E-01 b      1424     2     4
 -1.3360627667174911E+00 b      1425     2     5
 -1.4247106177345299E+00 b      1426     2     6
 -1.1704994010464693E+00 b      1427     2     7
 -3.5044868504294890E-01 b      1428     2     8
 -5.8086987687564351E-01 b      1429     2     9
  4.0180319513574891E-01 b      1430     2    10
 -1.1922609694304498E+00 b      1431     2    11
 -3.6812350850673636E-01 b      1432     2    12
 -1.1879038663170083E+00 b      1433     2    13
  1.5380055921022345E-01 b      1434     2    14
  1.3446992043761166E-01 b      1435     2    15
  7.2124213805677517E-01 b      1436     2    16
 -7.6633890513494418E-01 b      1437     2    17
 -5.8667765449920117E-01 b      1438     2    18
 -1.2897569292215230E+00 b      1439     2    19
 -1.3149983492700286E+00 b      1440     2    20
 -7.0216935870365451E-03 a      1441     2     1     3     1
 -7.6753903184716732E-01 a      1442     2     2     3     1
  3.0678237295899202E-01 a      1443     2     3     3     1
 -8.5940899102530821E-01 a      1444     2     4     3     1
  1.1904523983465682E+00 a      1445     2     5     3     1
  4.1890341327861058E-01 a      1446     2     6     3     1
 -5.8976819120600632E-01 a      1447     2     7     3     1
 -1.1312355548578010E+00 a      1448     2     8     3     1
  5.5897528703442156E-01 a      1449     2     9     3     1
 -1.1726263381334587E+00 a      1450     2    10     3     1
 -4.3689213855293602E-01 a      1451     2    11     3     1
  3.3155290821798505E-01 a      1452     2    12     3     1
  1.3334880883244238E+00 a      1453     2    13     3     1
  1.3017818012741649E+00 a      1454     2    14     3     1
 -4.7234172562683657E-01 a      1455     2    15     3     1
  1.9757973606430052E-01 a      1456     2    16     3     1
  2.2177736604901202E-02 a      1457     2    17     3     1
  1.4438972807280868E+00 a      1458     2    18     3     1
  4.0463918916543951E-01 a      1459     2    19     3     1
  4.0822066503678484E-01 a      1460     2    20     3     1
 -2.8914326308929431E-02 b      1461     3     1
