################################################################################
# Neural network connection values (weights and biases).
################################################################################
# Col  Name       Description
################################################################################
# 1    connection Neural network connection value.
# 2    t          Connection type (a = weight, b = bias).
# 3    index      Index enumerating weights.
# 4    l_s        Starting point layer (end point layer for biases).
# 5    n_s        Starting point neuron in starting layer (end point neuron for biases).
# 6    l_e        End point layer.
# 7    n_e        End point neuron in end layer.
################################################################################
#                      1 2         3     4     5     6     7
#             connection t     index   l_s   n_s   l_e   n_e
############################################################
 -1.4242613913783647E-01 a         1     0     1     1     1
 -4.7783802176383700E-02 a         2     0     1     1     2
 -1.9691952152516790E-01 a         3     0     1     1     3
 -1.7445196262386500E-01 a         4     0     1     1     4
  7.4930285286729972E-02 a         5     0     1     1     5
 -1.2961717927689992E-01 a         6     0     1     1     6
  1.1832590810867530E-01 a         7     0     1     1     7
 -1.5545473109352093E-01 a         8     0     1     1     8
  9.1141352428922406E-02 a         9     0     1     1     9
  1.3758993059499543E-02 a        10     0     1     1    10
  9.1565263013169682E-02 a        11     0     1     1    11
 -1.0680237212424612E-01 a        12     0     1     1    12
  1.1033980369212588E-01 a        13     0     1     1    13
  5.0130355005307548E-02 a        14     0     1     1    14
 -4.7578958130116186E-02 a        15     0     1     1    15
  2.0070914487103433E-01 a        16     0     1     1    16
  5.7006801679642789E-02 a        17     0     1     1    17
  1.1592779764646473E-01 a        18     0     1     1    18
 -6.2046225905577575E-02 a        19     0     1     1    19
 -9.9344710295788299E-02 a        20     0     1     1    20
 -1.1829455949611994E-01 a        21     0     2     1     1
 -1.0476239518183457E-01 a        22     0     2     1     2
 -1.0687997364222898E-01 a        23     0     2     1     3
  7.3532829964050042E-02 a        24     0     2     1     4
  6.8386399426190778E-02 a        25     0     2     1     5
 -7.0811863784711271E-02 a        26     0     2     1     6
 -5.5758041113998666E-02 a        27     0     2     1     7
 -2.6605900973430935E-01 a        28     0     2     1     8
 -1.0765958716740805E-01 a        29     0     2     1     9
  1.4692815572019072E-01 a        30     0     2     1    10
 -7.3800224949913951E-02 a        31     0     2     1    11
 -5.0470821667158813E-02 a        32     0     2     1    12
  3.0130985861734205E-01 a        33     0     2     1    13
 -1.6791909004381195E-01 a        34     0     2     1    14
 -1.6874944100341818E-01 a        35     0     2     1    15
  1.5582832836226579E-01 a        36     0     2     1    16
  1.0126932487658244E-01 a        37     0     2     1    17
 -1.4463307260442432E-01 a        38     0     2     1    18
 -5.4969169075816351E-02 a        39     0     2     1    19
 -8.8397757264049817E-02 a        40     0     2     1    20
  2.0406286510752839E-01 a        41     0     3     1     1
 -7.7855904551350191E-02 a        42     0     3     1     2
  1.3403374654087330E-01 a        43     0     3     1     3
 -5.9967983423615421E-03 a        44     0     3     1     4
  5.7756216450851820E-02 a        45     0     3     1     5
  2.0210399950643587E-01 a        46     0     3     1     6
 -2.1231972297925752E-01 a        47     0     3     1     7
  6.3094179354581850E-02 a        48     0     3     1     8
 -1.3690879986677268E-01 a        49     0     3     1     9
  2.0946854925114944E-01 a        50     0     3     1    10
 -1.0426258116048154E-01 a        51     0     3     1    11
 -2.5762061893057332E-02 a        52     0     3     1    12
 -1.5128783925860022E-02 a        53     0     3     1    13
  2.2997334915092077E-01 a        54     0     3     1    14
 -1.3850690069830465E-01 a        55     0     3     1    15
  6.4876162879876548E-02 a        56     0     3     1    16
  1.0647163607235632E-01 a        57     0     3     1    17
  7.5842143616116136E-03 a        58     0     3     1    18
  1.4413924091958119E-01 a        59     0     3     1    19
 -2.3088797637767522E-01 a        60     0     3     1    20
 -2.4049257837726501E-01 a        61     0     4     1     1
 -3.0803106196963653E-01 a        62     0     4     1     2
 -7.2043222358952413E-02 a        63     0     4     1     3
 -2.4805463528838348E-01 a        64     0     4     1     4
 -2.8393623552889680E-01 a        65     0     4     1     5
  1.8092740447675271E-01 a        66     0     4     1     6
 -2.5833456119496134E-01 a        67     0     4     1     7
 -4.2325483147680659E-01 a        68     0     4     1     8
 -9.3598069222907809E-02 a        69     0     4     1     9
 -1.6602271866818563E-01 a        70     0     4     1    10
  1.3492781417192251E-01 a        71     0     4     1    11
  2.4843725815952639E-01 a        72     0     4     1    12
  4.8074174479414483E-01 a        73     0     4     1    13
  1.0785771051413572E-01 a        74     0     4     1    14
  9.1774240205291069E-02 a        75     0     4     1    15
 -6.1213076226827104E-02 a        76     0     4     1    16
 -1.7297754461675774E-01 a        77     0     4     1    17
 -5.4761212841608661E-02 a        78     0     4     1    18
  2.6836867247823835E-02 a        79     0     4     1    19
 -4.8604479507876518E-02 a        80     0     4     1    20
 -1.9035890979435346E-01 a        81     0     5     1     1
  3.7307413550575506E-02 a        82     0     5     1     2
 -5.8009158375808001E-02 a        83     0     5     1     3
  8.6530982487053487E-02 a        84     0     5     1     4
 -1.1256143886634988E-01 a        85     0     5     1     5
  1.4847298037800954E-01 a        86     0     5     1     6
 -5.6959749175428669E-02 a        87     0     5     1     7
  1.8881304648979813E-01 a        88     0     5     1     8
 -1.5097312806836391E-01 a        89     0     5     1     9
 -1.1236282063636692E-02 a        90     0     5     1    10
  8.8274194386481319E-02 a        91     0     5     1    11
 -1.4293712549066606E-01 a        92     0     5     1    12
  8.8336738327230740E-02 a        93     0     5     1    13
 -1.0008962088301250E-01 a        94     0     5     1    14
 -5.1213579949705643E-02 a        95     0     5     1    15
 -1.3070067643665229E-01 a        96     0     5     1    16
 -1.0058454441566532E-01 a        97     0     5     1    17
  1.0757106975664321E-01 a        98     0     5     1    18
 -5.3158630253216490E-03 a        99     0     5     1    19
 -4.2190017959756798E-02 a       100     0     5     1    20
 -6.9822386113123872E-02 a       101     0     6     1     1
  5.2940337907803191E-02 a       102     0     6     1     2
 -1.7374310934952861E-01 a       103     0     6     1     3
 -1.2020206994547025E-01 a       104     0     6     1     4
 -5.7457655115945756E-02 a       105     0     6     1     5
  6.8681234176507983E-02 a       106     0     6     1     6
  3.0768367764339763E-02 a       107     0     6     1     7
  1.0310615166929693E-01 a       108     0     6     1     8
  1.4011822345762256E-01 a       109     0     6     1     9
 -9.0224918052748765E-02 a       110     0     6     1    10
  2.4117041924873253E-01 a       111     0     6     1    11
  9.4310625785959043E-02 a       112     0     6     1    12
 -2.9978542018485457E-02 a       113     0     6     1    13
  3.0706908296404511E-01 a       114     0     6     1    14
  1.4256187855347843E-01 a       115     0     6     1    15
 -3.2598159228121792E-01 a       116     0     6     1    16
 -9.7527524766828605E-02 a       117     0     6     1    17
 -1.1804535481731500E-02 a       118     0     6     1    18
 -2.0604521206501708E-01 a       119     0     6     1    19
 -9.0778785542092677E-02 a       120     0     6     1    20
 -2.8511276716055334E-01 a       121     0     7     1     1
  2.1185317595938510E-01 a       122     0     7     1     2
  3.7483958060331481E-02 a       123     0     7     1     3
  2.2756226392191234E-01 a       124     0     7     1     4
 -4.9014308148143407E-02 a       125     0     7     1     5
 -3.3274519060583575E-02 a       126     0     7     1     6
  1.3474547420536589E-01 a       127     0     7     1     7
 -8.4920574855745792E-02 a       128     0     7     1     8
 -1.9797269362252817E-02 a       129     0     7     1     9
 -3.3195095835771671E-01 a       130     0     7     1    10
  2.6650198681016990E-01 a       131     0     7     1    11
 -1.4660148580386587E-01 a       132     0     7     1    12
  4.6796905248456921E-02 a       133     0     7     1    13
 -4.0819244867378007E-01 a       134     0     7     1    14
  6.1096995908662376E-02 a       135     0     7     1    15
  3.0813289982671742E-03 a       136     0     7     1    16
 -2.1534045514097627E-01 a       137     0     7     1    17
 -2.0438395027659917E-01 a       138     0     7     1    18
 -2.0520557728240291E-01 a       139     0     7     1    19
  2.8765060417554994E-01 a       140     0     7     1    20
  5.6358783873005303E-02 a       141     0     8     1     1
  1.0828501950039091E-01 a       142     0     8     1     2
 -1.7395520873347012E-01 a       143     0     8     1     3
  3.1900055795423726E-01 a       144     0     8     1     4
  1.2010133450110442E-04 a       145     0     8     1     5
  3.5614112932126385E-01 a       146     0     8     1     6
 -7.6314929344046281E-02 a       147     0     8     1     7
 -2.7576766974788780E-01 a       148     0     8     1     8
 -1.0175602396468227E-01 a       149     0     8     1     9
  5.2430640745328272E-01 a       150     0     8     1    10
 -1.3067783362734009E-01 a       151     0     8     1    11
 -2.7720572557099543E-01 a       152     0     8     1    12
 -4.9464756678058164E-02 a       153     0     8     1    13
 -2.2983028200346545E-01 a       154     0     8     1    14
  2.0464732595232576E-01 a       155     0     8     1    15
 -2.6618698910085264E-01 a       156     0     8     1    16
 -3.0338758418333789E-01 a       157     0     8     1    17
  2.7632677380540899E-01 a       158     0     8     1    18
  4.5566355001209907E-01 a       159     0     8     1    19
 -7.9121304215268223E-02 a       160     0     8     1    20
  2.7096445956993820E-01 a       161     0     9     1     1
  6.9352783021145475E-02 a       162     0     9     1     2
  6.3863582462043711E-02 a       163     0     9     1     3
 -1.4628121725638410E-01 a       164     0     9     1     4
 -1.1836908648415257E-02 a       165     0     9     1     5
  1.7435988108444564E-01 a       166     0     9     1     6
  1.0587657696963948E-01 a       167     0     9     1     7
  1.1042337014223053E-01 a       168     0     9     1     8
  1.8486419077220156E-01 a       169     0     9     1     9
 -1.9477379146050685E-02 a       170     0     9     1    10
 -2.4530346683776963E-01 a       171     0     9     1    11
  2.7602557962445767E-01 a       172     0     9     1    12
 -3.4729119977543593E-01 a       173     0     9     1    13
  1.7169123199700009E-01 a       174     0     9     1    14
  1.6808102850196208E-01 a       175     0     9     1    15
  1.4042817357046838E-01 a       176     0     9     1    16
  2.7742006747676188E-02 a       177     0     9     1    17
 -6.0504332995466141E-02 a       178     0     9     1    18
  6.3331055727182894E-02 a       179     0     9     1    19
  1.4566836873539293E-01 a       180     0     9     1    20
  1.1489678735304368E-01 a       181     0    10     1     1
 -1.8924109298336461E-01 a       182     0    10     1     2
  5.9882067862146574E-02 a       183     0    10     1     3
 -1.5598448883262558E-01 a       184     0    10     1     4
  8.4836907517403790E-02 a       185     0    10     1     5
 -3.9423486894612662E-02 a       186     0    10     1     6
  2.0483111598253518E-02 a       187     0    10     1     7
  1.3215119601455033E-01 a       188     0    10     1     8
 -5.9672075175698003E-02 a       189     0    10     1     9
 -1.0829433394430818E-01 a       190     0    10     1    10
 -2.3212850336450055E-02 a       191     0    10     1    11
 -1.1690243167904472E-01 a       192     0    10     1    12
 -2.2906769651161540E-01 a       193     0    10     1    13
 -1.0042885365394562E-01 a       194     0    10     1    14
 -5.8012018156123620E-02 a       195     0    10     1    15
  3.6876754604106492E-02 a       196     0    10     1    16
  1.7620058236724065E-01 a       197     0    10     1    17
 -1.0522093377695341E-01 a       198     0    10     1    18
  6.6827830448052891E-02 a       199     0    10     1    19
  1.2141033287263440E-01 a       200     0    10     1    20
 -3.3746405816299879E-01 a       201     0    11     1     1
  1.6581278875133798E-01 a       202     0    11     1     2
  5.6874498238819737E-02 a       203     0    11     1     3
  2.0087266978979564E-02 a       204     0    11     1     4
 -3.6066530927773337E-02 a       205     0    11     1     5
  1.4768624419875725E-01 a       206     0    11     1     6
  2.8011212844302663E-01 a       207     0    11     1     7
 -2.5724000333636460E-01 a       208     0    11     1     8
  5.1417923077652972E-02 a       209     0    11     1     9
 -1.8343882375956039E-01 a       210     0    11     1    10
  1.3069568330353906E-01 a       211     0    11     1    11
 -3.3308470759908171E-02 a       212     0    11     1    12
  5.9805367604351699E-02 a       213     0    11     1    13
  3.3784243302886839E-02 a       214     0    11     1    14
 -1.1983390989023193E-01 a       215     0    11     1    15
 -5.1786470642445508E-02 a       216     0    11     1    16
  2.2395994032100749E-01 a       217     0    11     1    17
  1.5232630140521033E-01 a       218     0    11     1    18
  5.7497322837099379E-02 a       219     0    11     1    19
 -1.3247093049452557E-01 a       220     0    11     1    20
  1.3684322175834895E-01 a       221     0    12     1     1
  4.7020800951123272E-02 a       222     0    12     1     2
  2.1870413747098047E-01 a       223     0    12     1     3
  4.5074076272737837E-02 a       224     0    12     1     4
  4.3410723943574162E-02 a       225     0    12     1     5
  1.5861999008111827E-01 a       226     0    12     1     6
 -1.9760035498951992E-01 a       227     0    12     1     7
 -2.0426201205893041E-01 a       228     0    12     1     8
 -1.6915556878980631E-01 a       229     0    12     1     9
  5.2774243449123215E-01 a       230     0    12     1    10
 -3.3194122128187553E-01 a       231     0    12     1    11
 -4.9765842026060925E-01 a       232     0    12     1    12
 -2.6706258956784112E-01 a       233     0    12     1    13
 -2.6202785473557483E-01 a       234     0    12     1    14
  8.2687909426518824E-02 a       235     0    12     1    15
  3.3317635468060702E-01 a       236     0    12     1    16
 -1.4394171866444311E-01 a       237     0    12     1    17
 -4.5917452394529205E-02 a       238     0    12     1    18
  2.4864458358825253E-01 a       239     0    12     1    19
  2.7766175244380353E-01 a       240     0    12     1    20
 -7.9965937960872993E-02 a       241     0    13     1     1
  1.7686484951863719E-02 a       242     0    13     1     2
 -3.2161442819092051E-01 a       243     0    13     1     3
 -8.4893612398000279E-03 a       244     0    13     1     4
 -1.8839561840346139E-01 a       245     0    13     1     5
  3.5781345754671356E-01 a       246     0    13     1     6
  1.5913524092239356E-01 a       247     0    13     1     7
  1.3386106127955889E-02 a       248     0    13     1     8
 -1.3193157559993343E-01 a       249     0    13     1     9
 -1.2433954752167962E-02 a       250     0    13     1    10
 -9.5209271555971711E-02 a       251     0    13     1    11
 -4.6185588173979761E-02 a       252     0    13     1    12
  2.2054013622186214E-01 a       253     0    13     1    13
 -4.6867057172422316E-02 a       254     0    13     1    14
 -6.9188172501653766E-02 a       255     0    13     1    15
 -5.3592808929770115E-04 a       256     0    13     1    16
 -7.6651360480717370E-02 a       257     0    13     1    17
 -1.0804094896260426E-01 a       258     0    13     1    18
 -2.0613715104474889E-01 a       259     0    13     1    19
 -1.5024698303151837E-01 a       260     0    13     1    20
  7.3176118348746849E-02 a       261     0    14     1     1
  6.5047074053735360E-02 a       262     0    14     1     2
 -1.5925987689338181E-01 a       263     0    14     1     3
 -1.4491432403133843E-02 a       264     0    14     1     4
  1.6236474779854321E-01 a       265     0    14     1     5
  2.3907420331002333E-01 a       266     0    14     1     6
  8.6091705998936272E-02 a       267     0    14     1     7
 -2.5541198318108643E-01 a       268     0    14     1     8
 -8.7134443490997873E-02 a       269     0    14     1     9
  3.1592650537815420E-01 a       270     0    14     1    10
 -3.3627852512894663E-01 a       271     0    14     1    11
 -5.0488473702417047E-02 a       272     0    14     1    12
 -5.5614932392195277E-04 a       273     0    14     1    13
 -1.4344210041890476E-01 a       274     0    14     1    14
 -1.3694290574959880E-01 a       275     0    14     1    15
  5.3411439746236966E-02 a       276     0    14     1    16
 -2.2835415401004330E-01 a       277     0    14     1    17
  1.0710694529574601E-01 a       278     0    14     1    18
 -1.7222788534010178E-01 a       279     0    14     1    19
  4.4665738115903575E-02 a       280     0    14     1    20
  3.4344756162211787E-01 a       281     0    15     1     1
  2.5463309051579452E-01 a       282     0    15     1     2
  1.2110633408923180E-01 a       283     0    15     1     3
 -2.1222108707688873E-02 a       284     0    15     1     4
  1.5741013713930693E-01 a       285     0    15     1     5
  1.8003187634048604E-01 a       286     0    15     1     6
  9.8630879322916920E-02 a       287     0    15     1     7
  1.0110895278861848E-02 a       288     0    15     1     8
  1.4399438131794504E-01 a       289     0    15     1     9
  1.7862691051361118E-01 a       290     0    15     1    10
  2.2221236590135546E-01 a       291     0    15     1    11
 -1.7994500561367480E-02 a       292     0    15     1    12
 -2.5194510788618254E-02 a       293     0    15     1    13
  2.4774232056229498E-01 a       294     0    15     1    14
 -8.9882978584835960E-02 a       295     0    15     1    15
 -6.0686777657306623E-02 a       296     0    15     1    16
  5.6477845247602576E-01 a       297     0    15     1    17
 -1.0948151003683082E-01 a       298     0    15     1    18
  2.5445071719485582E-02 a       299     0    15     1    19
 -2.0854054422242885E-01 a       300     0    15     1    20
 -6.9965194990260181E-03 a       301     0    16     1     1
 -4.3909427470194490E-01 a       302     0    16     1     2
  1.5248470782153403E-01 a       303     0    16     1     3
  3.7781716518918762E-01 a       304     0    16     1     4
 -1.7064357054685683E-01 a       305     0    16     1     5
 -1.8646599686086301E-01 a       306     0    16     1     6
 -3.4698614481726536E-01 a       307     0    16     1     7
  2.0700696758476922E-01 a       308     0    16     1     8
  2.5099826094577471E-01 a       309     0    16     1     9
  2.1506141001248999E-01 a       310     0    16     1    10
 -4.6844091592277814E-01 a       311     0    16     1    11
  1.9215033848282223E-01 a       312     0    16     1    12
 -3.1374728447182620E-01 a       313     0    16     1    13
  1.4888503558062624E-01 a       314     0    16     1    14
  7.9902431720450279E-02 a       315     0    16     1    15
  4.7507127238389318E-02 a       316     0    16     1    16
  6.5385550658150632E-02 a       317     0    16     1    17
 -1.5106764377206722E-01 a       318     0    16     1    18
  3.6526046228218131E-03 a       319     0    16     1    19
  1.0833104836836926E-01 a       320     0    16     1    20
 -1.7287463807051029E-01 a       321     0    17     1     1
  3.6693972507115570E-02 a       322     0    17     1     2
 -2.9240580192665708E-02 a       323     0    17     1     3
 -8.5900225831940999E-02 a       324     0    17     1     4
  8.5634693843789661E-02 a       325     0    17     1     5
  9.5703375203767302E-02 a       326     0    17     1     6
  1.7032495899552070E-02 a       327     0    17     1     7
  7.0763331825112991E-02 a       328     0    17     1     8
  3.2731523516847397E-02 a       329     0    17     1     9
  1.4062056696102540E-02 a       330     0    17     1    10
  1.5747566929700188E-01 a       331     0    17     1    11
 -9.4104112242555091E-02 a       332     0    17     1    12
 -8.4752026327464564E-02 a       333     0    17     1    13
  6.9743193715862101E-02 a       334     0    17     1    14
  6.1325546083538254E-02 a       335     0    17     1    15
  1.0696424989967167E-01 a       336     0    17     1    16
  1.6948566658171439E-02 a       337     0    17     1    17
 -6.9638480087928958E-02 a       338     0    17     1    18
 -5.5283998835033821E-02 a       339     0    17     1    19
  5.2925198777812280E-02 a       340     0    17     1    20
 -1.9005123671362686E-01 a       341     0    18     1     1
 -1.4645824153736040E-01 a       342     0    18     1     2
 -1.2883382369672258E-01 a       343     0    18     1     3
 -4.3083415898965888E-02 a       344     0    18     1     4
 -5.1214634502139374E-02 a       345     0    18     1     5
 -2.0906674181830925E-01 a       346     0    18     1     6
 -2.0161933514290728E-01 a       347     0    18     1     7
  2.7562744798431760E-01 a       348     0    18     1     8
  1.4131578095700578E-01 a       349     0    18     1     9
  4.4823574437783162E-02 a       350     0    18     1    10
  1.6310820251985389E-01 a       351     0    18     1    11
  1.3586388553005746E-01 a       352     0    18     1    12
 -3.7648142364026255E-01 a       353     0    18     1    13
 -1.7034356768075208E-02 a       354     0    18     1    14
  6.1326952929581284E-02 a       355     0    18     1    15
 -1.4946082215946505E-01 a       356     0    18     1    16
  2.0856790075816992E-02 a       357     0    18     1    17
 -1.8651473664936311E-01 a       358     0    18     1    18
 -4.7106123053812315E-02 a       359     0    18     1    19
 -2.5984784782429930E-02 a       360     0    18     1    20
  4.7886383826810958E-02 a       361     0    19     1     1
 -3.5150926237666336E-01 a       362     0    19     1     2
 -6.0486867491860101E-02 a       363     0    19     1     3
  4.9657404343747646E-01 a       364     0    19     1     4
  1.6036583004092669E-01 a       365     0    19     1     5
 -9.4683403316672701E-02 a       366     0    19     1     6
  4.0485547872926497E-01 a       367     0    19     1     7
 -2.2482328823168288E-01 a       368     0    19     1     8
 -2.4388482346383344E-01 a       369     0    19     1     9
 -4.9857740693752278E-01 a       370     0    19     1    10
 -5.8952794227503734E-02 a       371     0    19     1    11
 -3.3791125370491237E-01 a       372     0    19     1    12
  2.4771710253106458E-01 a       373     0    19     1    13
 -6.5040157156331921E-02 a       374     0    19     1    14
 -4.2559763399484674E-01 a       375     0    19     1    15
  1.0910690021966236E-01 a       376     0    19     1    16
 -4.6763070613033775E-01 a       377     0    19     1    17
 -2.3257985851353821E-01 a       378     0    19     1    18
 -2.3551092822777539E-01 a       379     0    19     1    19
  2.9081501174159341E-01 a       380     0    19     1    20
  1.2442488925398554E-01 a       381     0    20     1     1
  5.6980408933428291E-03 a       382     0    20     1     2
 -1.5692415048487529E-01 a       383     0    20     1     3
  3.8861026828750020E-02 a       384     0    20     1     4
 -2.6580340490640275E-01 a       385     0    20     1     5
 -2.6163730959670273E-01 a       386     0    20     1     6
 -4.0696620646262605E-01 a       387     0    20     1     7
 -9.1043382018487162E-02 a       388     0    20     1     8
 -6.9250183221671868E-02 a       389     0    20     1     9
  2.6356575644533303E-01 a       390     0    20     1    10
 -2.1054434021177568E-01 a       391     0    20     1    11
  2.0045561995778990E-01 a       392     0    20     1    12
  5.2386474808618255E-01 a       393     0    20     1    13
 -1.3177398600585266E-01 a       394     0    20     1    14
  1.1593916181383056E-01 a       395     0    20     1    15
  7.9774416679407364E-02 a       396     0    20     1    16
 -2.5948335579710152E-01 a       397     0    20     1    17
 -6.5425157640133375E-03 a       398     0    20     1    18
  3.9163144644196590E-01 a       399     0    20     1    19
 -1.6272511722465469E-02 a       400     0    20     1    20
  8.5602967631745644E-02 a       401     0    21     1     1
  6.0746673014857998E-02 a       402     0    21     1     2
 -1.9307204736646894E-01 a       403     0    21     1     3
  5.3948267524705766E-02 a       404     0    21     1     4
  1.8368697129263586E-02 a       405     0    21     1     5
  1.2454527206747232E-01 a       406     0    21     1     6
  1.3523800790207534E-02 a       407     0    21     1     7
 -6.6206143680050469E-02 a       408     0    21     1     8
 -5.4708150171557647E-02 a       409     0    21     1     9
 -3.8085756431975711E-02 a       410     0    21     1    10
 -4.9878289206180648E-02 a       411     0    21     1    11
  8.5665831490401596E-03 a       412     0    21     1    12
  6.8221370266508791E-02 a       413     0    21     1    13
 -8.8886962913078640E-02 a       414     0    21     1    14
  2.2720710015158751E-02 a       415     0    21     1    15
  5.4285285061952460E-02 a       416     0    21     1    16
 -3.0083636396977233E-02 a       417     0    21     1    17
 -5.5899062711518302E-02 a       418     0    21     1    18
  7.2245913037287335E-02 a       419     0    21     1    19
  1.5238051721827205E-02 a       420     0    21     1    20
  1.7496319355689802E-01 a       421     0    22     1     1
 -4.6084386260095755E-02 a       422     0    22     1     2
  8.4304103395343541E-02 a       423     0    22     1     3
 -1.7069367599481805E-01 a       424     0    22     1     4
  4.7602167877617049E-02 a       425     0    22     1     5
  1.3013150552343197E-01 a       426     0    22     1     6
  2.6343878545873273E-01 a       427     0    22     1     7
 -6.0227474736155577E-02 a       428     0    22     1     8
  5.0627027871601900E-02 a       429     0    22     1     9
 -6.7216011794928907E-02 a       430     0    22     1    10
 -9.9033557134810060E-02 a       431     0    22     1    11
 -1.5484516191343919E-01 a       432     0    22     1    12
  1.6779491860946710E-01 a       433     0    22     1    13
 -1.7634985646324253E-02 a       434     0    22     1    14
 -5.8086292786692639E-02 a       435     0    22     1    15
  1.0340432912423664E-01 a       436     0    22     1    16
 -7.5741505715336777E-02 a       437     0    22     1    17
  1.1722532724205872E-01 a       438     0    22     1    18
 -1.1694537810224521E-01 a       439     0    22     1    19
  1.7700408997875259E-02 a       440     0    22     1    20
 -4.7975211851531852E-01 a       441     0    23     1     1
  5.0767763000992927E-01 a       442     0    23     1     2
  4.0326568412206804E-01 a       443     0    23     1     3
 -8.7536714494168444E-02 a       444     0    23     1     4
 -3.3295986801858923E-01 a       445     0    23     1     5
  1.4111443835492252E-01 a       446     0    23     1     6
  1.8909763373568209E-01 a       447     0    23     1     7
 -1.0958892350795366E-01 a       448     0    23     1     8
 -2.1973084112097216E-01 a       449     0    23     1     9
 -1.6241936219918798E-01 a       450     0    23     1    10
  1.2963833861639101E-01 a       451     0    23     1    11
 -3.0104123622686929E-01 a       452     0    23     1    12
  1.4976247835100084E-01 a       453     0    23     1    13
  1.0198416205317255E-01 a       454     0    23     1    14
  2.3867246554041241E-01 a       455     0    23     1    15
  2.0624804449499415E-01 a       456     0    23     1    16
  3.9078662791270891E-01 a       457     0    23     1    17
  2.7856918691876831E-01 a       458     0    23     1    18
  5.7047302281821766E-01 a       459     0    23     1    19
  1.7092795832393301E-02 a       460     0    23     1    20
 -7.2890294418272383E-02 a       461     0    24     1     1
  4.9099128097666464E-02 a       462     0    24     1     2
  1.5980418745043112E-01 a       463     0    24     1     3
 -4.1932807938793309E-02 a       464     0    24     1     4
 -2.3298419925771643E-01 a       465     0    24     1     5
  1.3925362637712491E-01 a       466     0    24     1     6
  2.6108446540740994E-02 a       467     0    24     1     7
  2.1772997898938006E-02 a       468     0    24     1     8
  1.8245695011766494E-01 a       469     0    24     1     9
 -9.0254163015167990E-02 a       470     0    24     1    10
 -1.8172609294267622E-01 a       471     0    24     1    11
 -4.5375609891389429E-01 a       472     0    24     1    12
  3.4849048307799896E-01 a       473     0    24     1    13
 -5.4386992352841190E-01 a       474     0    24     1    14
 -2.1669456137324329E-02 a       475     0    24     1    15
 -2.3326124059853923E-01 a       476     0    24     1    16
  6.1100316735428961E-01 a       477     0    24     1    17
  1.3115328993797304E-01 a       478     0    24     1    18
  7.8348980916089017E-01 a       479     0    24     1    19
  5.4545029750894680E-01 a       480     0    24     1    20
 -1.6337781993628542E-01 a       481     0    25     1     1
 -2.0933549699358536E-02 a       482     0    25     1     2
 -1.1448057249034171E-01 a       483     0    25     1     3
 -7.5840399103212428E-02 a       484     0    25     1     4
  3.6881553925065874E-03 a       485     0    25     1     5
 -1.2552099650025078E-02 a       486     0    25     1     6
  9.4541601428577274E-02 a       487     0    25     1     7
  1.9103667014163303E-01 a       488     0    25     1     8
  1.0465449367901497E-02 a       489     0    25     1     9
  1.4275734207840854E-01 a       490     0    25     1    10
  4.5148555606642937E-02 a       491     0    25     1    11
  5.5842709167412449E-02 a       492     0    25     1    12
 -7.9940823601973660E-02 a       493     0    25     1    13
  1.2210048599534550E-02 a       494     0    25     1    14
  4.2692001607035818E-02 a       495     0    25     1    15
  1.4996964365968167E-02 a       496     0    25     1    16
 -4.9433641710685094E-02 a       497     0    25     1    17
 -7.0545052820942866E-02 a       498     0    25     1    18
 -1.3830526236681936E-01 a       499     0    25     1    19
 -7.6337271661684344E-02 a       500     0    25     1    20
 -3.6356272987739809E-02 a       501     0    26     1     1
 -7.3072026524723110E-02 a       502     0    26     1     2
  3.0067936842763814E-02 a       503     0    26     1     3
  8.4483117288618417E-02 a       504     0    26     1     4
 -2.5788812615034906E-01 a       505     0    26     1     5
 -6.4179508364760732E-02 a       506     0    26     1     6
 -4.8715007218322358E-02 a       507     0    26     1     7
  8.5577879221864328E-02 a       508     0    26     1     8
 -9.6289030370982520E-02 a       509     0    26     1     9
 -5.7403747214041130E-03 a       510     0    26     1    10
 -4.0251576578980028E-02 a       511     0    26     1    11
  1.4991895725082052E-01 a       512     0    26     1    12
 -8.7474129442867820E-03 a       513     0    26     1    13
  6.4886253162944385E-02 a       514     0    26     1    14
  7.7313553341540289E-02 a       515     0    26     1    15
 -1.5869391206061961E-01 a       516     0    26     1    16
  2.2310792888147111E-02 a       517     0    26     1    17
 -1.1243245877597756E-02 a       518     0    26     1    18
 -1.0271356491886950E-01 a       519     0    26     1    19
  4.5476172177843700E-02 a       520     0    26     1    20
  3.5884285339207017E-01 a       521     0    27     1     1
 -1.3616592973396618E-01 a       522     0    27     1     2
 -3.2566230266117419E-01 a       523     0    27     1     3
  3.6422438466880880E-01 a       524     0    27     1     4
 -1.0692419323327014E-01 a       525     0    27     1     5
 -1.8868874540200556E-01 a       526     0    27     1     6
 -1.1787463177484331E-02 a       527     0    27     1     7
 -2.5602388365046636E-01 a       528     0    27     1     8
 -1.5710394292987173E-01 a       529     0    27     1     9
 -3.7643755549328167E-01 a       530     0    27     1    10
  2.2198556339265219E-01 a       531     0    27     1    11
  3.6382475535719266E-01 a       532     0    27     1    12
  3.2117730108228681E-01 a       533     0    27     1    13
  1.2597082364655379E-01 a       534     0    27     1    14
 -9.0358938187575288E-02 a       535     0    27     1    15
 -9.6047743033187777E-02 a       536     0    27     1    16
  1.8903589673091359E-01 a       537     0    27     1    17
  2.2635854391373042E-01 a       538     0    27     1    18
  2.5744516783491916E-01 a       539     0    27     1    19
  1.7427191819450494E-01 a       540     0    27     1    20
 -1.2864128342155781E-01 a       541     0    28     1     1
  2.9423316777528430E-01 a       542     0    28     1     2
 -1.8664492240596015E-01 a       543     0    28     1     3
  3.7019271471274284E-01 a       544     0    28     1     4
 -7.2055395499682609E-02 a       545     0    28     1     5
  1.0394093899093833E-01 a       546     0    28     1     6
 -2.0966754451460212E-01 a       547     0    28     1     7
  4.0422150386186920E-02 a       548     0    28     1     8
 -1.6189180538154248E-02 a       549     0    28     1     9
 -2.0336484072824387E-01 a       550     0    28     1    10
  3.0214430866274844E-01 a       551     0    28     1    11
  3.8229254265724510E-01 a       552     0    28     1    12
  5.0586524573777141E-03 a       553     0    28     1    13
  1.8088896965267684E-01 a       554     0    28     1    14
  3.7001552222891998E-01 a       555     0    28     1    15
  2.9667223195706360E-01 a       556     0    28     1    16
 -1.6711908186793842E-01 a       557     0    28     1    17
  1.3624196679594247E-01 a       558     0    28     1    18
  1.1676445176573329E-01 a       559     0    28     1    19
 -1.2924717218344536E-01 a       560     0    28     1    20
  1.1205200416121275E-02 a       561     0    29     1     1
  1.1112492233701615E-01 a       562     0    29     1     2
 -7.3055397241832298E-02 a       563     0    29     1     3
  8.2506030115619480E-02 a       564     0    29     1     4
  2.1866378932238889E-01 a       565     0    29     1     5
 -3.4487835924397393E-02 a       566     0    29     1     6
 -1.4025846964998667E-01 a       567     0    29     1     7
 -1.2020618631730658E-01 a       568     0    29     1     8
 -1.6516347083286715E-02 a       569     0    29     1     9
 -6.7933424669234063E-02 a       570     0    29     1    10
  9.5110844793768787E-02 a       571     0    29     1    11
 -1.5468587687470811E-01 a       572     0    29     1    12
 -9.4581550145232965E-02 a       573     0    29     1    13
 -5.3502741155933842E-02 a       574     0    29     1    14
 -2.1001488270065353E-03 a       575     0    29     1    15
  1.7222456954800291E-02 a       576     0    29     1    16
  4.1156797002977065E-02 a       577     0    29     1    17
 -4.0299116223251982E-02 a       578     0    29     1    18
  1.3972133761221364E-01 a       579     0    29     1    19
  1.3321082865132788E-01 a       580     0    29     1    20
  1.3129080341725906E-02 a       581     0    30     1     1
 -4.7531218627757513E-02 a       582     0    30     1     2
  4.4941006018758008E-02 a       583     0    30     1     3
 -1.1944164295993369E-01 a       584     0    30     1     4
  5.7812693262294969E-02 a       585     0    30     1     5
  6.1884026516732006E-02 a       586     0    30     1     6
  3.1940590136567686E-02 a       587     0    30     1     7
 -1.4818693750923159E-01 a       588     0    30     1     8
  1.0305746415256081E-01 a       589     0    30     1     9
  2.2547429149026792E-02 a       590     0    30     1    10
 -2.5092857951311913E-03 a       591     0    30     1    11
 -8.1577970232810604E-02 a       592     0    30     1    12
 -4.9675610101746467E-02 a       593     0    30     1    13
 -3.1517266741537882E-02 a       594     0    30     1    14
 -4.7682529251097672E-02 a       595     0    30     1    15
  8.6739538215782966E-02 a       596     0    30     1    16
 -6.4143314479755791E-03 a       597     0    30     1    17
 -2.6556032946852253E-02 a       598     0    30     1    18
 -7.3859706114865501E-03 a       599     0    30     1    19
 -8.7228340022212011E-02 a       600     0    30     1    20
 -2.6136432362147699E-01 a       601     0    31     1     1
  1.1100340072316014E-01 a       602     0    31     1     2
  1.8382204963991608E-01 a       603     0    31     1     3
 -4.2866273073022676E-01 a       604     0    31     1     4
 -2.3166701946169407E-01 a       605     0    31     1     5
 -1.3921795783549404E-03 a       606     0    31     1     6
  3.1947595915552529E-01 a       607     0    31     1     7
  2.4186867765383532E-01 a       608     0    31     1     8
 -3.2107330281694624E-01 a       609     0    31     1     9
  1.0458704774077718E-01 a       610     0    31     1    10
 -2.0483827769438070E-01 a       611     0    31     1    11
 -5.9052478467030134E-01 a       612     0    31     1    12
  1.2644455045396760E-01 a       613     0    31     1    13
  5.3697121950093081E-02 a       614     0    31     1    14
  1.1576529198300463E-01 a       615     0    31     1    15
  3.4008797639849803E-01 a       616     0    31     1    16
 -2.6980865825453199E-01 a       617     0    31     1    17
 -2.9185721708021745E-01 a       618     0    31     1    18
 -1.8426414449360322E-02 a       619     0    31     1    19
 -4.0525865127560366E-02 a       620     0    31     1    20
  2.9893656008540553E-01 a       621     0    32     1     1
 -3.4017955851839349E-01 a       622     0    32     1     2
 -3.0513781993121370E-02 a       623     0    32     1     3
 -3.9442232239353586E-01 a       624     0    32     1     4
 -4.5366112171578837E-01 a       625     0    32     1     5
 -1.5147525398872139E-01 a       626     0    32     1     6
  1.1700907603498881E-01 a       627     0    32     1     7
 -7.1276864638318621E-03 a       628     0    32     1     8
 -3.6669540606513040E-01 a       629     0    32     1     9
  2.3130711317264874E-01 a       630     0    32     1    10
 -4.0725053216787094E-01 a       631     0    32     1    11
 -1.4893373459664028E-01 a       632     0    32     1    12
  4.5731425319314022E-03 a       633     0    32     1    13
 -2.6501546409824500E-01 a       634     0    32     1    14
 -6.7303900238264922E-02 a       635     0    32     1    15
 -1.0465435569785811E-01 a       636     0    32     1    16
  1.6356192143412612E-01 a       637     0    32     1    17
 -3.8875807001841178E-02 a       638     0    32     1    18
  6.4940104883484520E-02 a       639     0    32     1    19
 -2.0186016017613514E-01 a       640     0    32     1    20
 -1.8322612808351384E-02 a       641     0    33     1     1
 -7.7378508390274200E-02 a       642     0    33     1     2
 -7.3562353173600672E-02 a       643     0    33     1     3
 -8.4967267469570742E-02 a       644     0    33     1     4
 -7.8862051100424657E-02 a       645     0    33     1     5
 -7.3382406688680596E-02 a       646     0    33     1     6
  1.4740019143996913E-01 a       647     0    33     1     7
  9.3336169798965640E-02 a       648     0    33     1     8
  3.8975116076268605E-03 a       649     0    33     1     9
  1.0941914482408641E-01 a       650     0    33     1    10
 -1.0993309382058471E-01 a       651     0    33     1    11
  1.4434180425349569E-01 a       652     0    33     1    12
 -5.7354668720305674E-02 a       653     0    33     1    13
  2.0100440636864250E-02 a       654     0    33     1    14
 -8.2886919308985656E-03 a       655     0    33     1    15
  2.0443005417161139E-02 a       656     0    33     1    16
 -7.8303161588905129E-02 a       657     0    33     1    17
  6.2647261423707856E-02 a       658     0    33     1    18
 -3.6017203610266585E-02 a       659     0    33     1    19
 -4.8659375061674393E-02 a       660     0    33     1    20
 -3.2312801776918434E-02 a       661     0    34     1     1
  8.8033600333205127E-03 a       662     0    34     1     2
 -7.5510318766872933E-02 a       663     0    34     1     3
  6.0497994957039808E-02 a       664     0    34     1     4
 -3.6393207668191513E-02 a       665     0    34     1     5
 -7.6899626511528263E-02 a       666     0    34     1     6
 -2.4455988816451259E-02 a       667     0    34     1     7
  1.2946195893824150E-01 a       668     0    34     1     8
 -4.0713424626468910E-02 a       669     0    34     1     9
 -5.8431150373983783E-02 a       670     0    34     1    10
  4.3017169220115600E-02 a       671     0    34     1    11
 -5.0099455617650175E-02 a       672     0    34     1    12
  1.3364152086455025E-01 a       673     0    34     1    13
  3.2515236124098734E-02 a       674     0    34     1    14
  5.0227139841607898E-02 a       675     0    34     1    15
 -5.7325891222486242E-02 a       676     0    34     1    16
  6.0496151748593010E-03 a       677     0    34     1    17
  5.4660964886129482E-02 a       678     0    34     1    18
 -4.8608473222046837E-03 a       679     0    34     1    19
  1.0391955568873214E-01 a       680     0    34     1    20
 -1.0199165063033452E-01 a       681     0    35     1     1
 -1.3974922991596267E-01 a       682     0    35     1     2
 -1.5885620084787980E-01 a       683     0    35     1     3
  1.5936214526270248E-01 a       684     0    35     1     4
  7.9768232395415084E-02 a       685     0    35     1     5
  2.0364140236499986E-01 a       686     0    35     1     6
 -1.8914485714368984E-01 a       687     0    35     1     7
 -4.0335638069262804E-02 a       688     0    35     1     8
  1.4622617125196125E-01 a       689     0    35     1     9
 -9.9473118288838994E-03 a       690     0    35     1    10
  1.5762160894621599E-01 a       691     0    35     1    11
  2.3890858248254795E-01 a       692     0    35     1    12
 -1.3910396599900918E-01 a       693     0    35     1    13
 -4.8868683360866463E-03 a       694     0    35     1    14
 -2.7103968529229958E-02 a       695     0    35     1    15
 -1.4695597783359976E-01 a       696     0    35     1    16
  1.3672071887218559E-01 a       697     0    35     1    17
  1.1747570699628265E-01 a       698     0    35     1    18
 -1.0031775899906549E-01 a       699     0    35     1    19
 -8.7976069911266507E-03 a       700     0    35     1    20
 -7.1237825395308749E-02 a       701     0    36     1     1
  3.3362824337533459E-01 a       702     0    36     1     2
  1.3142849261902673E-01 a       703     0    36     1     3
  2.7517136246691376E-01 a       704     0    36     1     4
 -1.0514183321740228E-01 a       705     0    36     1     5
 -2.8122415034767650E-01 a       706     0    36     1     6
 -1.1769181565538246E-01 a       707     0    36     1     7
  1.6851671801445914E-01 a       708     0    36     1     8
  3.1879381647115131E-02 a       709     0    36     1     9
 -2.1447111007264517E-02 a       710     0    36     1    10
  1.4064137095148865E-01 a       711     0    36     1    11
  4.7125546154511705E-01 a       712     0    36     1    12
 -2.4251404240670338E-01 a       713     0    36     1    13
 -1.7781870492098523E-01 a       714     0    36     1    14
  4.3771864706005748E-02 a       715     0    36     1    15
 -3.3470818953488241E-01 a       716     0    36     1    16
 -8.6437882768957003E-02 a       717     0    36     1    17
  2.1199511701081478E-01 a       718     0    36     1    18
  3.4795034037410633E-01 a       719     0    36     1    19
  5.4808477018330831E-02 a       720     0    36     1    20
 -4.8968402237777778E-02 a       721     0    37     1     1
  4.2755165464776694E-02 a       722     0    37     1     2
 -5.5749699269628271E-02 a       723     0    37     1     3
  4.4917053590114553E-02 a       724     0    37     1     4
  5.1413979242023858E-02 a       725     0    37     1     5
  2.1312176796962172E-02 a       726     0    37     1     6
 -8.1386789622734962E-02 a       727     0    37     1     7
  1.6734333801053734E-02 a       728     0    37     1     8
 -1.5783120320591995E-02 a       729     0    37     1     9
 -3.1337028113530889E-02 a       730     0    37     1    10
  8.5021101513602801E-02 a       731     0    37     1    11
 -6.3557281045549918E-02 a       732     0    37     1    12
  1.9869738889974963E-02 a       733     0    37     1    13
 -3.9738150450040644E-02 a       734     0    37     1    14
  3.3405066198864859E-02 a       735     0    37     1    15
 -1.2412784026459136E-04 a       736     0    37     1    16
  3.6343817319710883E-02 a       737     0    37     1    17
 -6.3042207648472112E-02 a       738     0    37     1    18
  1.2745906623058693E-02 a       739     0    37     1    19
  1.8172840745821570E-02 a       740     0    37     1    20
  4.8545429169575861E-02 a       741     0    38     1     1
 -3.7536717682717984E-02 a       742     0    38     1     2
  7.9943695480153315E-02 a       743     0    38     1     3
 -3.8116641819661512E-02 a       744     0    38     1     4
 -1.1978478833896163E-01 a       745     0    38     1     5
  8.3351610398015627E-02 a       746     0    38     1     6
  5.3766686374734363E-02 a       747     0    38     1     7
 -3.6609229855419589E-02 a       748     0    38     1     8
 -4.0505023184036889E-03 a       749     0    38     1     9
  8.9802941644785152E-04 a       750     0    38     1    10
 -8.5175463555896586E-02 a       751     0    38     1    11
  1.0372664226991593E-01 a       752     0    38     1    12
  1.6539290736575535E-02 a       753     0    38     1    13
  2.3646408887146107E-02 a       754     0    38     1    14
 -6.5588231264879795E-02 a       755     0    38     1    15
  3.0491657803186621E-03 a       756     0    38     1    16
  5.1291510715664604E-03 a       757     0    38     1    17
  2.7863538615313186E-02 a       758     0    38     1    18
 -1.9921262315235777E-02 a       759     0    38     1    19
 -6.5539244469827382E-02 a       760     0    38     1    20
  7.5313034861576700E-02 a       761     0    39     1     1
  1.2154410428582148E-01 a       762     0    39     1     2
  1.7525238406498733E-02 a       763     0    39     1     3
 -4.9201887821569472E-02 a       764     0    39     1     4
  1.3178660042700174E-01 a       765     0    39     1     5
 -2.4958732808714323E-01 a       766     0    39     1     6
  9.5606744006205405E-02 a       767     0    39     1     7
 -5.1137783878376926E-02 a       768     0    39     1     8
 -9.8402281276902134E-02 a       769     0    39     1     9
 -1.9861439712999360E-03 a       770     0    39     1    10
 -2.5920033957604869E-02 a       771     0    39     1    11
 -2.0074678036615665E-01 a       772     0    39     1    12
  1.8867736431329646E-01 a       773     0    39     1    13
  1.7867233728978634E-02 a       774     0    39     1    14
  2.6171679951126393E-02 a       775     0    39     1    15
  5.5408020359663065E-02 a       776     0    39     1    16
 -2.7994026945201637E-02 a       777     0    39     1    17
 -1.1714682910479052E-01 a       778     0    39     1    18
  7.7096650279586856E-02 a       779     0    39     1    19
  5.7581256471243333E-02 a       780     0    39     1    20
 -1.9083131033214448E-01 a       781     0    40     1     1
 -2.8255840634968627E-02 a       782     0    40     1     2
  5.9217596806605249E-03 a       783     0    40     1     3
  4.7173900539577783E-02 a       784     0    40     1     4
  2.1354308936099706E-01 a       785     0    40     1     5
  4.1562471287211897E-02 a       786     0    40     1     6
  6.8281370890578189E-02 a       787     0    40     1     7
 -5.6060386802409753E-02 a       788     0    40     1     8
 -1.4195184270056027E-01 a       789     0    40     1     9
  1.6944279563880827E-02 a       790     0    40     1    10
  9.0062487562947879E-02 a       791     0    40     1    11
 -1.7399856304331426E-01 a       792     0    40     1    12
 -6.6253808026952979E-02 a       793     0    40     1    13
  1.1474754000751636E-01 a       794     0    40     1    14
 -2.4929359962113724E-02 a       795     0    40     1    15
  1.0433391803216435E-01 a       796     0    40     1    16
  7.0454143383600315E-02 a       797     0    40     1    17
  1.8686386583295429E-02 a       798     0    40     1    18
 -6.5383273867380673E-02 a       799     0    40     1    19
  1.9930565538262435E-02 a       800     0    40     1    20
 -9.8961068856425138E-02 a       801     0    41     1     1
  1.4774449851919060E-02 a       802     0    41     1     2
 -4.0000641434824617E-02 a       803     0    41     1     3
  4.9733434678317145E-02 a       804     0    41     1     4
  1.1990625777387961E-02 a       805     0    41     1     5
 -3.5905649653808033E-02 a       806     0    41     1     6
  8.1426887357226155E-02 a       807     0    41     1     7
 -2.3810448511387902E-02 a       808     0    41     1     8
 -9.9030551566098010E-02 a       809     0    41     1     9
  1.0467704267071831E-01 a       810     0    41     1    10
  2.3005259893075610E-02 a       811     0    41     1    11
  9.8210949057359720E-02 a       812     0    41     1    12
 -2.4200359387597650E-01 a       813     0    41     1    13
 -1.0324033671741584E-02 a       814     0    41     1    14
  3.3556904723589655E-03 a       815     0    41     1    15
  3.0996232024743078E-02 a       816     0    41     1    16
 -1.1060957146071812E-01 a       817     0    41     1    17
  1.3333847767240789E-01 a       818     0    41     1    18
  2.0193029311660778E-02 a       819     0    41     1    19
  4.9875263211993780E-02 a       820     0    41     1    20
 -1.0842046554770968E-01 a       821     0    42     1     1
 -1.3648679707699674E-01 a       822     0    42     1     2
  9.0171081186216397E-03 a       823     0    42     1     3
 -9.3084819038323607E-02 a       824     0    42     1     4
  6.1796149915212678E-02 a       825     0    42     1     5
  2.8556539132416799E-02 a       826     0    42     1     6
 -1.0800263650753056E-01 a       827     0    42     1     7
 -2.8704279453061360E-01 a       828     0    42     1     8
 -4.6243329715302942E-02 a       829     0    42     1     9
  5.1657961078287129E-02 a       830     0    42     1    10
  1.1726183795198195E-01 a       831     0    42     1    11
 -1.3255660703404523E-01 a       832     0    42     1    12
  1.0349435645051665E-01 a       833     0    42     1    13
  1.6009407361278663E-02 a       834     0    42     1    14
  1.0883938519342869E-01 a       835     0    42     1    15
 -4.0984102117685356E-02 a       836     0    42     1    16
  4.5032674679785688E-02 a       837     0    42     1    17
 -9.5114361212535040E-02 a       838     0    42     1    18
 -1.8770528242458068E-01 a       839     0    42     1    19
 -7.6550185106265045E-02 a       840     0    42     1    20
 -4.4565303691071888E-02 a       841     0    43     1     1
  1.3344614259714907E-01 a       842     0    43     1     2
  1.8387060100608352E-01 a       843     0    43     1     3
  1.0682434380305035E-01 a       844     0    43     1     4
  4.3810729366755737E-02 a       845     0    43     1     5
  1.0526474813885922E-01 a       846     0    43     1     6
 -1.0243109605090426E-03 a       847     0    43     1     7
 -3.2534871383593600E-01 a       848     0    43     1     8
 -1.3241644698597049E-01 a       849     0    43     1     9
 -2.1647891828144156E-02 a       850     0    43     1    10
  1.7273599193540667E-01 a       851     0    43     1    11
 -2.9407856144224587E-01 a       852     0    43     1    12
 -1.7141888283006293E-01 a       853     0    43     1    13
 -4.2895810269598635E-02 a       854     0    43     1    14
 -2.6930075967721543E-02 a       855     0    43     1    15
  2.3914707478304109E-01 a       856     0    43     1    16
  1.0373151665468194E-01 a       857     0    43     1    17
 -2.7497895412953416E-01 a       858     0    43     1    18
  9.4656827727539514E-02 a       859     0    43     1    19
 -1.1332360997674139E-01 a       860     0    43     1    20
 -5.1503241208753096E-02 a       861     0    44     1     1
 -6.7788203379296350E-02 a       862     0    44     1     2
 -1.7556583846734178E-01 a       863     0    44     1     3
  8.2794838332997927E-03 a       864     0    44     1     4
  1.0389348930934572E-01 a       865     0    44     1     5
 -2.1719891636478419E-01 a       866     0    44     1     6
  2.3966997162209128E-03 a       867     0    44     1     7
 -1.1324264464101362E-01 a       868     0    44     1     8
 -9.1799502022608934E-02 a       869     0    44     1     9
 -1.5852025185124863E-01 a       870     0    44     1    10
  6.4948206224912375E-03 a       871     0    44     1    11
  7.9056299703224656E-02 a       872     0    44     1    12
 -1.9807873477642149E-01 a       873     0    44     1    13
 -1.3845104548299000E-01 a       874     0    44     1    14
  9.3084649551035084E-02 a       875     0    44     1    15
 -2.3021924888920206E-01 a       876     0    44     1    16
 -5.1777669950077508E-02 a       877     0    44     1    17
  1.0332927739030048E-01 a       878     0    44     1    18
 -9.5806128865011622E-02 a       879     0    44     1    19
  2.3222889218080997E-01 a       880     0    44     1    20
  1.8910514092346478E-01 a       881     0    45     1     1
  5.2748382936279578E-02 a       882     0    45     1     2
  1.8691846435446677E-01 a       883     0    45     1     3
 -8.9620818187789733E-02 a       884     0    45     1     4
 -1.3461193177291897E-01 a       885     0    45     1     5
 -3.9506984243477331E-03 a       886     0    45     1     6
  1.2334194523715822E-01 a       887     0    45     1     7
 -5.7625377343051329E-02 a       888     0    45     1     8
 -7.1348270190348659E-02 a       889     0    45     1     9
 -6.7498679124154984E-02 a       890     0    45     1    10
 -1.1905056360145144E-01 a       891     0    45     1    11
  7.5956051620516551E-02 a       892     0    45     1    12
  1.4848415491127417E-01 a       893     0    45     1    13
 -4.1177115123018311E-02 a       894     0    45     1    14
  8.3770137205190998E-02 a       895     0    45     1    15
  1.1651734330684239E-01 a       896     0    45     1    16
 -1.1071753255545795E-02 a       897     0    45     1    17
 -1.9093363284503986E-01 a       898     0    45     1    18
  1.1895844065486505E-01 a       899     0    45     1    19
  3.0642645481236887E-02 a       900     0    45     1    20
 -1.9659719879158957E-01 a       901     0    46     1     1
 -3.9797116577377604E-02 a       902     0    46     1     2
  2.4821166946698478E-01 a       903     0    46     1     3
 -3.4753943697642065E-02 a       904     0    46     1     4
  4.7070896890587357E-03 a       905     0    46     1     5
 -4.0874823250674021E-02 a       906     0    46     1     6
  1.4296220839812485E-01 a       907     0    46     1     7
 -1.3513805027161993E-01 a       908     0    46     1     8
 -1.9030987749207223E-01 a       909     0    46     1     9
  3.9638201457724342E-02 a       910     0    46     1    10
 -9.0857753430431232E-02 a       911     0    46     1    11
 -1.0439794557592724E-01 a       912     0    46     1    12
  2.7186006136207230E-01 a       913     0    46     1    13
  5.3665278657103174E-02 a       914     0    46     1    14
  5.5419449937336392E-02 a       915     0    46     1    15
 -3.3138641785564921E-01 a       916     0    46     1    16
  4.5207850391168432E-02 a       917     0    46     1    17
 -2.0311306659719433E-01 a       918     0    46     1    18
  1.0993607473834492E-01 a       919     0    46     1    19
  9.7688838532835165E-02 a       920     0    46     1    20
  2.8386838688727972E-02 a       921     0    47     1     1
 -1.6382085015746164E-01 a       922     0    47     1     2
 -2.5085517502716431E-01 a       923     0    47     1     3
 -2.5071717248904505E-02 a       924     0    47     1     4
 -3.4200213200488527E-01 a       925     0    47     1     5
  9.3824363846437553E-02 a       926     0    47     1     6
 -2.1076667762394152E-01 a       927     0    47     1     7
 -6.6610754480822904E-02 a       928     0    47     1     8
 -2.7279849489106876E-03 a       929     0    47     1     9
  1.5973402018509919E-01 a       930     0    47     1    10
 -1.3126641028423756E-02 a       931     0    47     1    11
 -2.6984580358405019E-01 a       932     0    47     1    12
 -9.6192077884656516E-02 a       933     0    47     1    13
  2.1684777469072067E-01 a       934     0    47     1    14
  3.3703341957378385E-01 a       935     0    47     1    15
  1.4701893194434518E-01 a       936     0    47     1    16
 -1.1834511294337929E-01 a       937     0    47     1    17
  1.6891167640103422E-01 a       938     0    47     1    18
 -7.0173505707699688E-02 a       939     0    47     1    19
 -1.1482446832691792E-01 a       940     0    47     1    20
  4.4268107928334188E-01 a       941     0    48     1     1
 -3.6891070763348283E-01 a       942     0    48     1     2
 -4.1545533642435711E-02 a       943     0    48     1     3
  3.9811884066238667E-01 a       944     0    48     1     4
  4.5799450913220616E-02 a       945     0    48     1     5
  1.2238469982169393E-01 a       946     0    48     1     6
 -1.4282193184043276E-01 a       947     0    48     1     7
  3.4256807677467627E-01 a       948     0    48     1     8
  1.8146689234554633E-02 a       949     0    48     1     9
  2.8047337974167308E-02 a       950     0    48     1    10
  4.6309181174453745E-01 a       951     0    48     1    11
 -1.2834085414180657E-01 a       952     0    48     1    12
  7.6996816112042718E-02 a       953     0    48     1    13
 -1.4876725995182281E-02 a       954     0    48     1    14
  3.4876528909185023E-02 a       955     0    48     1    15
  1.9305430868378398E-01 a       956     0    48     1    16
 -2.3133865822333008E-01 a       957     0    48     1    17
 -1.2805577830468740E-01 a       958     0    48     1    18
  1.0015510464511261E-01 a       959     0    48     1    19
  7.9889369730351087E-02 a       960     0    48     1    20
 -3.3598597854407475E-01 a       961     0    49     1     1
 -5.4182631904454370E-01 a       962     0    49     1     2
  2.5758701353982250E-01 a       963     0    49     1     3
  2.9489582888656996E-01 a       964     0    49     1     4
 -4.2934880346383258E-01 a       965     0    49     1     5
 -1.7020086893354691E-01 a       966     0    49     1     6
 -9.0074949242401420E-02 a       967     0    49     1     7
  3.2063106659087370E-01 a       968     0    49     1     8
 -6.9583457205034116E-01 a       969     0    49     1     9
  5.5368789044427123E-02 a       970     0    49     1    10
  1.5613567850264679E-01 a       971     0    49     1    11
  4.1462606428009213E-01 a       972     0    49     1    12
  7.5882845387585376E-03 a       973     0    49     1    13
 -9.0209412928582478E-02 a       974     0    49     1    14
  1.2418658375936311E-02 a       975     0    49     1    15
 -4.1010983743848123E-02 a       976     0    49     1    16
 -2.1408598350573166E-01 a       977     0    49     1    17
  1.0974969792935867E-01 a       978     0    49     1    18
 -1.4205579551950093E-01 a       979     0    49     1    19
  4.1290153304343452E-01 a       980     0    49     1    20
  8.3488243298401099E-02 a       981     0    50     1     1
 -1.0057202055189627E+00 a       982     0    50     1     2
 -2.4950543110737865E-02 a       983     0    50     1     3
 -7.8987033665500694E-01 a       984     0    50     1     4
  2.5770877503904910E-01 a       985     0    50     1     5
  1.4318551592679680E-02 a       986     0    50     1     6
  3.5623010959298790E-01 a       987     0    50     1     7
  4.9044503291217227E-02 a       988     0    50     1     8
  6.2034469194375508E-01 a       989     0    50     1     9
 -9.1537067712056608E-01 a       990     0    50     1    10
  1.9572785667279255E-01 a       991     0    50     1    11
 -2.4791412495118892E-01 a       992     0    50     1    12
 -3.0123800360113494E-02 a       993     0    50     1    13
 -9.4157927691396900E-02 a       994     0    50     1    14
 -6.0048214708266145E-01 a       995     0    50     1    15
 -1.9658316013158642E-01 a       996     0    50     1    16
  3.9722959758901821E-01 a       997     0    50     1    17
  7.2415737415644180E-02 a       998     0    50     1    18
 -3.0037411234794792E-01 a       999     0    50     1    19
  2.3374646371062527E-01 a      1000     0    50     1    20
  3.3606185576341291E-02 a      1001     0    51     1     1
  5.5349051960368330E-02 a      1002     0    51     1     2
  8.4274996047285639E-02 a      1003     0    51     1     3
 -1.0205807315625563E-03 a      1004     0    51     1     4
 -9.4640982904041864E-05 a      1005     0    51     1     5
  8.0019972415640763E-03 a      1006     0    51     1     6
  6.8475431286672772E-02 a      1007     0    51     1     7
  1.2754144688656469E-01 a      1008     0    51     1     8
  4.8682798512939905E-02 a      1009     0    51     1     9
 -2.0148625528778946E-01 a      1010     0    51     1    10
  8.6419551721678714E-02 a      1011     0    51     1    11
 -1.6950493675895981E-01 a      1012     0    51     1    12
  6.5933629555602016E-02 a      1013     0    51     1    13
 -4.9200149866040509E-02 a      1014     0    51     1    14
 -1.8097371697971298E-01 a      1015     0    51     1    15
 -1.5622634335110400E-01 a      1016     0    51     1    16
  2.7867394453000843E-01 a      1017     0    51     1    17
  9.5606095146844733E-02 a      1018     0    51     1    18
  1.1866133225293946E-01 a      1019     0    51     1    19
 -2.9363375173233036E-01 a      1020     0    51     1    20
  1.0516212893669211E-01 a      1021     0    52     1     1
  3.5574958859323810E-02 a      1022     0    52     1     2
  5.3006342233954161E-03 a      1023     0    52     1     3
  4.3662458332876424E-03 a      1024     0    52     1     4
 -1.5084996316778862E-01 a      1025     0    52     1     5
 -1.3114169152502103E-01 a      1026     0    52     1     6
 -1.2293403220531629E-01 a      1027     0    52     1     7
  1.0998677417831547E-01 a      1028     0    52     1     8
 -2.3631323719736358E-01 a      1029     0    52     1     9
 -8.2786269261723347E-02 a      1030     0    52     1    10
  8.4557172089038735E-02 a      1031     0    52     1    11
  1.5140418490522847E-01 a      1032     0    52     1    12
 -1.4715747438950774E-01 a      1033     0    52     1    13
 -1.5461788277118593E-02 a      1034     0    52     1    14
 -1.6461706706017307E-01 a      1035     0    52     1    15
 -3.3885360225470937E-02 a      1036     0    52     1    16
 -2.0293432532095571E-01 a      1037     0    52     1    17
 -7.3241918201632436E-02 a      1038     0    52     1    18
 -5.5104030335685235E-02 a      1039     0    52     1    19
  1.2676386234887063E-01 a      1040     0    52     1    20
  1.0515433505860386E-02 a      1041     0    53     1     1
 -2.8785396639690909E-02 a      1042     0    53     1     2
 -1.3905398757562229E-01 a      1043     0    53     1     3
 -2.4591169977698876E-01 a      1044     0    53     1     4
  9.0188505022481671E-02 a      1045     0    53     1     5
 -8.8771116765763228E-02 a      1046     0    53     1     6
  1.9125089380939368E-02 a      1047     0    53     1     7
 -1.0071174886464310E-01 a      1048     0    53     1     8
 -1.6176302010996804E-01 a      1049     0    53     1     9
  6.8288156004947670E-02 a      1050     0    53     1    10
 -1.7142443675523186E-02 a      1051     0    53     1    11
  9.0079376992495699E-02 a      1052     0    53     1    12
 -3.7405530761324524E-02 a      1053     0    53     1    13
 -8.6657126215712338E-02 a      1054     0    53     1    14
  2.8075939213231687E-02 a      1055     0    53     1    15
  3.4572419571661010E-02 a      1056     0    53     1    16
 -1.0705161340829990E-01 a      1057     0    53     1    17
  1.4844175208083646E-01 a      1058     0    53     1    18
  2.3642936428508654E-01 a      1059     0    53     1    19
 -1.0345227036731397E-01 a      1060     0    53     1    20
  7.2308003888062009E-02 a      1061     0    54     1     1
  1.0783758655183345E-01 a      1062     0    54     1     2
  5.8013699587953153E-02 a      1063     0    54     1     3
  1.1758012757124257E-01 a      1064     0    54     1     4
  9.8103890199634974E-02 a      1065     0    54     1     5
 -3.6230352336577868E-04 a      1066     0    54     1     6
 -1.5567763327897766E-01 a      1067     0    54     1     7
 -6.0801789920614913E-02 a      1068     0    54     1     8
  8.6955622351827883E-02 a      1069     0    54     1     9
  1.8513181232054532E-01 a      1070     0    54     1    10
  1.5924597445951566E-01 a      1071     0    54     1    11
  1.0144385506287117E-02 a      1072     0    54     1    12
  1.2625863052139083E-01 a      1073     0    54     1    13
 -2.2298575532854656E-03 a      1074     0    54     1    14
  6.8051841150011783E-02 a      1075     0    54     1    15
  1.2085831896801998E-01 a      1076     0    54     1    16
  1.4176533320113011E-02 a      1077     0    54     1    17
 -2.3407773130624251E-01 a      1078     0    54     1    18
  9.0943396994029951E-02 a      1079     0    54     1    19
 -2.7878863949030351E-02 a      1080     0    54     1    20
 -9.9664464498610481E-02 a      1081     0    55     1     1
  7.2679654860247536E-02 a      1082     0    55     1     2
 -1.5696688099579856E-01 a      1083     0    55     1     3
  1.6086349566152386E-01 a      1084     0    55     1     4
 -1.3811354535716537E-02 a      1085     0    55     1     5
  2.4053512572680266E-01 a      1086     0    55     1     6
  6.1329523100736374E-03 a      1087     0    55     1     7
 -9.6494237873851548E-04 a      1088     0    55     1     8
  1.1368607228892140E-01 a      1089     0    55     1     9
 -2.4941421158875925E-02 a      1090     0    55     1    10
 -3.8095749440587398E-02 a      1091     0    55     1    11
 -1.1028912884314217E-01 a      1092     0    55     1    12
  1.9637312275463969E-03 a      1093     0    55     1    13
  1.7484979925019589E-01 a      1094     0    55     1    14
 -8.2193334442607104E-03 a      1095     0    55     1    15
 -4.5361647154125440E-03 a      1096     0    55     1    16
  1.6403238988429100E-01 a      1097     0    55     1    17
  9.6509356292851733E-02 a      1098     0    55     1    18
  2.2446545058950951E-01 a      1099     0    55     1    19
 -9.8422496746179672E-02 a      1100     0    55     1    20
  4.0191572475889954E-02 a      1101     0    56     1     1
  9.2345544522968537E-04 a      1102     0    56     1     2
 -1.6526511918482253E-01 a      1103     0    56     1     3
  8.4971859606519998E-02 a      1104     0    56     1     4
 -4.4872438352155819E-02 a      1105     0    56     1     5
 -1.2107055310110057E-01 a      1106     0    56     1     6
 -2.2837612457956649E-01 a      1107     0    56     1     7
  2.0940267498165948E-03 a      1108     0    56     1     8
  5.2022831837184605E-02 a      1109     0    56     1     9
  1.9038571810521654E-02 a      1110     0    56     1    10
  1.4748227608469652E-01 a      1111     0    56     1    11
  9.8403251609786219E-02 a      1112     0    56     1    12
 -1.1611984833713551E-03 a      1113     0    56     1    13
  1.0208988177826454E-02 a      1114     0    56     1    14
 -4.1874368509202302E-03 a      1115     0    56     1    15
  9.4587693301874373E-02 a      1116     0    56     1    16
  7.1311016627726154E-02 a      1117     0    56     1    17
  5.3841825319720954E-02 a      1118     0    56     1    18
  2.0108256279598533E-01 a      1119     0    56     1    19
  9.7723784067922214E-03 a      1120     0    56     1    20
 -9.1386545456668425E-02 a      1121     0    57     1     1
 -1.4032622052380703E-01 a      1122     0    57     1     2
 -1.1639863461490846E-01 a      1123     0    57     1     3
 -8.7848753556807185E-02 a      1124     0    57     1     4
 -2.2183775107742408E-02 a      1125     0    57     1     5
  1.4772106317008440E-02 a      1126     0    57     1     6
 -3.3858014675489656E-02 a      1127     0    57     1     7
  5.7378381468746818E-02 a      1128     0    57     1     8
  2.3509589184483960E-02 a      1129     0    57     1     9
 -8.1788811057841221E-02 a      1130     0    57     1    10
 -8.4751393124000818E-02 a      1131     0    57     1    11
 -2.0613118776993203E-01 a      1132     0    57     1    12
 -5.1903657185482392E-02 a      1133     0    57     1    13
  5.7172081542467548E-03 a      1134     0    57     1    14
  4.1794403752002392E-02 a      1135     0    57     1    15
 -1.0874966305921893E-01 a      1136     0    57     1    16
  9.5033867919474078E-03 a      1137     0    57     1    17
  3.1756829063668778E-03 a      1138     0    57     1    18
 -2.3689630382142687E-01 a      1139     0    57     1    19
  2.3439081133697617E-01 a      1140     0    57     1    20
 -1.0220244287914118E-01 a      1141     0    58     1     1
  5.3978469406531981E-01 a      1142     0    58     1     2
  5.6887899703754567E-02 a      1143     0    58     1     3
 -4.9920899248198480E-01 a      1144     0    58     1     4
  8.7221982532521336E-02 a      1145     0    58     1     5
 -1.4591408943486903E-01 a      1146     0    58     1     6
  5.1047403502839046E-02 a      1147     0    58     1     7
  8.2140495520446180E-02 a      1148     0    58     1     8
  1.2491070300034185E-01 a      1149     0    58     1     9
 -3.0477499869274788E-01 a      1150     0    58     1    10
 -1.2617783035143454E-01 a      1151     0    58     1    11
  1.7083730851582726E-02 a      1152     0    58     1    12
  6.4282382914434123E-04 a      1153     0    58     1    13
 -5.1938084065901356E-02 a      1154     0    58     1    14
  3.2108201573377643E-01 a      1155     0    58     1    15
 -5.2299507625224465E-02 a      1156     0    58     1    16
  2.1350752763514386E-01 a      1157     0    58     1    17
  7.7495952664418194E-02 a      1158     0    58     1    18
  5.5501837077444834E-02 a      1159     0    58     1    19
 -4.4890648264819022E-01 a      1160     0    58     1    20
 -3.1617846988712972E-01 a      1161     0    59     1     1
  5.1964464181430770E-01 a      1162     0    59     1     2
  2.3432693501808780E-01 a      1163     0    59     1     3
 -1.1342846976043025E-01 a      1164     0    59     1     4
 -2.6849185620887006E-02 a      1165     0    59     1     5
  6.4438583653837853E-02 a      1166     0    59     1     6
 -6.2259070768491478E-02 a      1167     0    59     1     7
  2.0729702417133282E-02 a      1168     0    59     1     8
 -1.1463569146557047E-01 a      1169     0    59     1     9
  2.7177827876481819E-01 a      1170     0    59     1    10
 -6.8308195753142814E-02 a      1171     0    59     1    11
  5.8197547248339393E-02 a      1172     0    59     1    12
 -2.0864500413583223E-01 a      1173     0    59     1    13
 -1.3155563183057983E-01 a      1174     0    59     1    14
  1.5674799984345988E-01 a      1175     0    59     1    15
  7.1807192141993131E-02 a      1176     0    59     1    16
  1.2765756599460015E-01 a      1177     0    59     1    17
 -3.0289815838567913E-01 a      1178     0    59     1    18
  8.9495505058839492E-02 a      1179     0    59     1    19
  3.5561221645088636E-01 a      1180     0    59     1    20
 -5.3139669650729936E-02 a      1181     0    60     1     1
  8.1041707122802009E-01 a      1182     0    60     1     2
  5.9982923219385498E-01 a      1183     0    60     1     3
 -1.1179605418539764E+00 a      1184     0    60     1     4
  1.8757801160759613E-01 a      1185     0    60     1     5
  2.6809765931138102E-01 a      1186     0    60     1     6
  2.6856711465803718E-01 a      1187     0    60     1     7
  2.4349798296532169E-01 a      1188     0    60     1     8
  1.0820024421358300E-01 a      1189     0    60     1     9
 -1.9637250945083218E-01 a      1190     0    60     1    10
  3.0965107916903634E-01 a      1191     0    60     1    11
  2.1010340014950288E-01 a      1192     0    60     1    12
 -2.4604105102515106E-01 a      1193     0    60     1    13
  1.1752624731723056E+00 a      1194     0    60     1    14
  6.0611045465077129E-01 a      1195     0    60     1    15
  7.7354312902255237E-02 a      1196     0    60     1    16
 -5.9951209506672043E-01 a      1197     0    60     1    17
 -1.4769427550878317E-01 a      1198     0    60     1    18
  2.0153299115453746E-01 a      1199     0    60     1    19
 -1.3620592686688016E+00 a      1200     0    60     1    20
  3.0516039560274721E-02 a      1201     0    61     1     1
  5.8006209686398916E-03 a      1202     0    61     1     2
 -8.1743231006119590E-02 a      1203     0    61     1     3
 -2.0881784895163444E-02 a      1204     0    61     1     4
  3.8876039262893201E-02 a      1205     0    61     1     5
 -1.4929273401669926E-01 a      1206     0    61     1     6
  9.3952840910873289E-02 a      1207     0    61     1     7
 -3.4906143428692561E-02 a      1208     0    61     1     8
 -1.4423367290806420E-03 a      1209     0    61     1     9
 -2.5304504940369652E-02 a      1210     0    61     1    10
 -1.3289645373124256E-02 a      1211     0    61     1    11
  2.8572096688258729E-02 a      1212     0    61     1    12
  3.0331443360726299E-02 a      1213     0    61     1    13
  4.9085291696265874E-02 a      1214     0    61     1    14
 -9.1460357217474184E-02 a      1215     0    61     1    15
 -2.2501478751385667E-02 a      1216     0    61     1    16
  4.5213799109865532E-02 a      1217     0    61     1    17
  2.6915769288657018E-02 a      1218     0    61     1    18
  8.1467942986374817E-02 a      1219     0    61     1    19
  4.1890552332696944E-02 a      1220     0    61     1    20
 -6.5090234080849695E-04 a      1221     0    62     1     1
  1.3083047926384672E-01 a      1222     0    62     1     2
  6.4570608408997601E-02 a      1223     0    62     1     3
  1.1747232077276407E-01 a      1224     0    62     1     4
 -1.2585516890924634E-02 a      1225     0    62     1     5
  7.6893296877936862E-02 a      1226     0    62     1     6
 -6.2753908007785381E-02 a      1227     0    62     1     7
  7.0754998215851184E-02 a      1228     0    62     1     8
  7.3746392273698738E-02 a      1229     0    62     1     9
 -5.8493641321646951E-02 a      1230     0    62     1    10
  6.2859027291677486E-02 a      1231     0    62     1    11
 -1.0104074932155549E-01 a      1232     0    62     1    12
  3.6062357164401225E-02 a      1233     0    62     1    13
 -4.7317672725971156E-02 a      1234     0    62     1    14
  5.5472273351194555E-02 a      1235     0    62     1    15
  3.9503761355986128E-02 a      1236     0    62     1    16
  3.7192642035873601E-02 a      1237     0    62     1    17
 -2.8055629684183792E-02 a      1238     0    62     1    18
 -1.8029050009669639E-01 a      1239     0    62     1    19
 -1.1450138855335863E-01 a      1240     0    62     1    20
 -1.2766188376650359E-01 a      1241     0    63     1     1
 -3.9908905279500409E-06 a      1242     0    63     1     2
 -6.8037139136339325E-02 a      1243     0    63     1     3
 -3.0237183304144898E-02 a      1244     0    63     1     4
  2.1673036993097047E-01 a      1245     0    63     1     5
 -1.7454277432100163E-01 a      1246     0    63     1     6
 -9.9794410108402967E-02 a      1247     0    63     1     7
  1.0906748562283403E-01 a      1248     0    63     1     8
  7.5708899565286897E-02 a      1249     0    63     1     9
 -7.9737462059092912E-04 a      1250     0    63     1    10
  1.6744245713573854E-02 a      1251     0    63     1    11
 -2.3754736725173731E-01 a      1252     0    63     1    12
  1.7147085296241563E-01 a      1253     0    63     1    13
  7.4675425970734524E-02 a      1254     0    63     1    14
  5.9710469410433800E-02 a      1255     0    63     1    15
  3.5174161668588270E-02 a      1256     0    63     1    16
  4.7418089479850788E-02 a      1257     0    63     1    17
 -9.6039911976517692E-02 a      1258     0    63     1    18
  3.4620159645633468E-02 a      1259     0    63     1    19
  1.6145171918177206E-01 a      1260     0    63     1    20
 -8.6700070197830978E-02 a      1261     0    64     1     1
 -1.1149547968160563E-01 a      1262     0    64     1     2
  6.2867881427802821E-02 a      1263     0    64     1     3
  3.4726596048123712E-02 a      1264     0    64     1     4
  5.5840711405466786E-02 a      1265     0    64     1     5
  1.0258791280519358E-01 a      1266     0    64     1     6
 -2.1936290712541960E-02 a      1267     0    64     1     7
 -1.4311719415719999E-02 a      1268     0    64     1     8
 -7.2651471671711917E-02 a      1269     0    64     1     9
  1.1829934006457893E-01 a      1270     0    64     1    10
  1.3397898034653100E-01 a      1271     0    64     1    11
  5.4068875790004287E-02 a      1272     0    64     1    12
  2.7038179791414535E-01 a      1273     0    64     1    13
  4.2193516605786574E-02 a      1274     0    64     1    14
 -2.5676040013487073E-02 a      1275     0    64     1    15
  1.6654826211846770E-02 a      1276     0    64     1    16
 -2.4923233887789588E-02 a      1277     0    64     1    17
  2.0450662486175089E-01 a      1278     0    64     1    18
  1.0530544104281739E-01 a      1279     0    64     1    19
 -1.0012402449012814E-01 a      1280     0    64     1    20
 -1.0196722461766874E-01 a      1281     0    65     1     1
 -4.8252618799008967E-02 a      1282     0    65     1     2
  7.7744864886491405E-02 a      1283     0    65     1     3
 -8.1622813309402173E-02 a      1284     0    65     1     4
  7.7652506869378152E-03 a      1285     0    65     1     5
  2.3650891110258609E-01 a      1286     0    65     1     6
 -8.4141437775102065E-02 a      1287     0    65     1     7
 -6.9220894267760527E-02 a      1288     0    65     1     8
  2.9184398772470893E-02 a      1289     0    65     1     9
 -5.1042502612675678E-02 a      1290     0    65     1    10
  2.6451274356248577E-01 a      1291     0    65     1    11
 -1.2493948087382802E-02 a      1292     0    65     1    12
  1.9431707640393975E-01 a      1293     0    65     1    13
  2.4780113616376834E-02 a      1294     0    65     1    14
 -6.7432135115973485E-02 a      1295     0    65     1    15
 -9.7123274002588689E-02 a      1296     0    65     1    16
 -1.0373005443644404E-02 a      1297     0    65     1    17
  1.7585075038530587E-01 a      1298     0    65     1    18
 -1.4446696194877123E-02 a      1299     0    65     1    19
 -2.9414628586948474E-02 a      1300     0    65     1    20
  1.1892881006203972E-01 a      1301     0    66     1     1
  1.1779799832019165E-01 a      1302     0    66     1     2
  2.6563943284360109E-01 a      1303     0    66     1     3
  1.4118850520902390E-01 a      1304     0    66     1     4
  7.0760240219811116E-02 a      1305     0    66     1     5
 -1.6341240947852065E-01 a      1306     0    66     1     6
  5.0252998529513706E-03 a      1307     0    66     1     7
 -8.1459421126740317E-02 a      1308     0    66     1     8
  2.2626202149701610E-02 a      1309     0    66     1     9
 -1.7062688546846307E-02 a      1310     0    66     1    10
  5.3731916717360845E-03 a      1311     0    66     1    11
 -3.6802146750552170E-02 a      1312     0    66     1    12
 -1.3736869753914024E-01 a      1313     0    66     1    13
  9.3519003364961245E-02 a      1314     0    66     1    14
 -7.6255249074992676E-02 a      1315     0    66     1    15
  3.5871842567818647E-02 a      1316     0    66     1    16
  3.4438318931753380E-03 a      1317     0    66     1    17
  4.6208664293582863E-02 a      1318     0    66     1    18
  1.4957951135244636E-02 a      1319     0    66     1    19
  2.2105951896962614E-02 a      1320     0    66     1    20
 -1.7783452962561858E-01 a      1321     0    67     1     1
  1.7036161743238123E-01 a      1322     0    67     1     2
  1.1829868414217548E-01 a      1323     0    67     1     3
  4.2714428535648739E-02 a      1324     0    67     1     4
  3.4692924256631653E-02 a      1325     0    67     1     5
  1.7790693686515952E-02 a      1326     0    67     1     6
  1.4879842802132190E-01 a      1327     0    67     1     7
  1.3093017929539133E-01 a      1328     0    67     1     8
  1.3479045786618113E-01 a      1329     0    67     1     9
 -3.1334334667829822E-01 a      1330     0    67     1    10
  2.1314795839445072E-01 a      1331     0    67     1    11
  1.2415388202502958E-02 a      1332     0    67     1    12
  2.0558328149837449E-02 a      1333     0    67     1    13
 -1.5290904160175706E-01 a      1334     0    67     1    14
 -6.4066438078265679E-03 a      1335     0    67     1    15
  2.9764659083027306E-01 a      1336     0    67     1    16
  7.1889380097961267E-02 a      1337     0    67     1    17
 -9.6780764996253505E-03 a      1338     0    67     1    18
  1.3097789593435402E-01 a      1339     0    67     1    19
  3.5440703223756816E-02 a      1340     0    67     1    20
  2.2807443872593453E-01 a      1341     0    68     1     1
 -5.4756782257718919E-02 a      1342     0    68     1     2
 -4.5685088397506096E-02 a      1343     0    68     1     3
 -1.2983643935465558E-01 a      1344     0    68     1     4
 -3.7664551627952507E-02 a      1345     0    68     1     5
 -1.3240021118329964E-01 a      1346     0    68     1     6
 -1.8608393535917578E-01 a      1347     0    68     1     7
 -1.0341054798066775E-01 a      1348     0    68     1     8
 -5.9411946482288154E-02 a      1349     0    68     1     9
 -2.4998505461828316E-02 a      1350     0    68     1    10
 -2.3645960330110052E-01 a      1351     0    68     1    11
  1.3339653235021084E-01 a      1352     0    68     1    12
 -4.7928664372556357E-02 a      1353     0    68     1    13
  1.9188495883150145E-01 a      1354     0    68     1    14
  2.7476835134945599E-01 a      1355     0    68     1    15
  1.7841481880035598E-01 a      1356     0    68     1    16
 -9.2158238586285635E-02 a      1357     0    68     1    17
 -1.1323214426788072E-01 a      1358     0    68     1    18
  6.6272895421261935E-01 a      1359     0    68     1    19
  2.4807493994978308E-01 a      1360     0    68     1    20
 -1.6193997559197117E-02 a      1361     0    69     1     1
 -2.8145996861641520E-01 a      1362     0    69     1     2
 -5.3402794948995302E-01 a      1363     0    69     1     3
 -5.1416490109762436E-01 a      1364     0    69     1     4
  1.9136319285000730E-01 a      1365     0    69     1     5
  3.1366476687382833E-03 a      1366     0    69     1     6
  7.0049945561922441E-02 a      1367     0    69     1     7
 -2.6736708175068555E-02 a      1368     0    69     1     8
  1.2477990853527009E-01 a      1369     0    69     1     9
  3.5741682376379558E-01 a      1370     0    69     1    10
 -4.7669270771272138E-01 a      1371     0    69     1    11
  1.6671788325403566E-01 a      1372     0    69     1    12
  1.3367217351896751E-01 a      1373     0    69     1    13
  1.5713124887837079E-01 a      1374     0    69     1    14
  1.2050900964337506E-01 a      1375     0    69     1    15
 -4.4850477793786281E-01 a      1376     0    69     1    16
 -4.0335684536672906E-01 a      1377     0    69     1    17
  2.8843965069022207E-02 a      1378     0    69     1    18
 -9.0890449661222242E-02 a      1379     0    69     1    19
  2.3287547629312519E-01 a      1380     0    69     1    20
 -1.2448028701901549E-01 a      1381     0    70     1     1
  1.3942333853993234E+00 a      1382     0    70     1     2
  1.6000183035141102E-01 a      1383     0    70     1     3
  7.9589736244316500E-01 a      1384     0    70     1     4
  3.8659058780209776E-01 a      1385     0    70     1     5
 -5.3305661076621845E-02 a      1386     0    70     1     6
 -5.4916742142253905E-01 a      1387     0    70     1     7
 -2.7234185996225746E-01 a      1388     0    70     1     8
  2.1193350234413273E-02 a      1389     0    70     1     9
  2.3793880078521995E-01 a      1390     0    70     1    10
  5.2416410502059874E-01 a      1391     0    70     1    11
 -1.0232597659625081E-01 a      1392     0    70     1    12
 -2.7332592771718102E-02 a      1393     0    70     1    13
  1.7973258589606633E-01 a      1394     0    70     1    14
 -3.9865701065561188E-01 a      1395     0    70     1    15
  7.9672659421398329E-01 a      1396     0    70     1    16
  6.6553462113532957E-01 a      1397     0    70     1    17
 -2.3692834682342051E-01 a      1398     0    70     1    18
 -7.3386233501814180E-01 a      1399     0    70     1    19
  1.0224920087160448E-01 a      1400     0    70     1    20
  1.3693946812554328E-01 a      1401     0    71     1     1
  6.8805219732761630E-02 a      1402     0    71     1     2
  7.6486304204301664E-02 a      1403     0    71     1     3
  8.8479438758248347E-02 a      1404     0    71     1     4
 -2.0689196504050090E-02 a      1405     0    71     1     5
 -8.5076531772632802E-02 a      1406     0    71     1     6
 -4.4896952742748027E-02 a      1407     0    71     1     7
  3.9639578638292997E-02 a      1408     0    71     1     8
  8.5254282804954187E-02 a      1409     0    71     1     9
  9.3822131176571191E-02 a      1410     0    71     1    10
 -2.1382849061339049E-01 a      1411     0    71     1    11
  2.4796177781453280E-01 a      1412     0    71     1    12
 -2.8770802197222958E-02 a      1413     0    71     1    13
  6.8855393242657395E-02 a      1414     0    71     1    14
  1.4683710237426237E-01 a      1415     0    71     1    15
  6.4797129642442275E-02 a      1416     0    71     1    16
 -1.4527754021357689E-01 a      1417     0    71     1    17
 -2.7878714651279172E-02 a      1418     0    71     1    18
 -1.6653014759033545E-02 a      1419     0    71     1    19
  2.5496577509715063E-01 a      1420     0    71     1    20
 -2.8534041519301358E-02 a      1421     0    72     1     1
 -2.2599794219886596E-01 a      1422     0    72     1     2
  6.7388629472967558E-03 a      1423     0    72     1     3
  2.9750827064576147E-02 a      1424     0    72     1     4
 -4.1381374901888784E-02 a      1425     0    72     1     5
 -2.1377265659270150E-01 a      1426     0    72     1     6
  1.4436578680354806E-01 a      1427     0    72     1     7
 -1.3001294838167604E-01 a      1428     0    72     1     8
  1.8668522958089984E-01 a      1429     0    72     1     9
  1.0112147387608091E-01 a      1430     0    72     1    10
 -5.5545825821446293E-02 a      1431     0    72     1    11
  5.9455563507290497E-02 a      1432     0    72     1    12
 -2.4717729299779851E-02 a      1433     0    72     1    13
 -8.5320918259552195E-03 a      1434     0    72     1    14
  9.0904283576220699E-02 a      1435     0    72     1    15
 -1.5305840449037988E-02 a      1436     0    72     1    16
  1.4530624347561516E-01 a      1437     0    72     1    17
  1.8370511655281102E-01 a      1438     0    72     1    18
 -6.9375962512025532E-02 a      1439     0    72     1    19
 -2.4717893867022012E-01 a      1440     0    72     1    20
  4.3512086939045957E-02 a      1441     0    73     1     1
 -8.9932597191375238E-02 a      1442     0    73     1     2
  8.7257569605143331E-02 a      1443     0    73     1     3
  9.7050324114543757E-02 a      1444     0    73     1     4
 -1.6107207649410737E-01 a      1445     0    73     1     5
  7.1238664992764062E-03 a      1446     0    73     1     6
 -4.1242443178269667E-02 a      1447     0    73     1     7
  3.2477872545164432E-01 a      1448     0    73     1     8
  2.4361813619670220E-01 a      1449     0    73     1     9
 -4.9580039163019889E-02 a      1450     0    73     1    10
 -1.4621912391396474E-01 a      1451     0    73     1    11
 -1.2490646134214469E-02 a      1452     0    73     1    12
 -8.4880303321487022E-02 a      1453     0    73     1    13
  1.1581075530891490E-01 a      1454     0    73     1    14
 -4.1486639789568132E-02 a      1455     0    73     1    15
 -5.2139062259143859E-02 a      1456     0    73     1    16
  1.4025689158693113E-03 a      1457     0    73     1    17
  8.9294711505088484E-02 a      1458     0    73     1    18
 -1.3110659092837251E-01 a      1459     0    73     1    19
  1.6380695535860887E-01 a      1460     0    73     1    20
  4.5584777071820626E-02 a      1461     0    74     1     1
  4.1163937366930706E-02 a      1462     0    74     1     2
  1.7154257513999013E-01 a      1463     0    74     1     3
  9.2811515552503610E-03 a      1464     0    74     1     4
 -3.3883502774114088E-02 a      1465     0    74     1     5
 -6.0608588745746102E-02 a      1466     0    74     1     6
  9.6976215686009157E-02 a      1467     0    74     1     7
 -6.9707931205744103E-02 a      1468     0    74     1     8
 -1.3200283410368158E-01 a      1469     0    74     1     9
 -6.4207078183547719E-02 a      1470     0    74     1    10
 -9.8297992067650067E-02 a      1471     0    74     1    11
  1.3207010970863858E-01 a      1472     0    74     1    12
  2.1936123374535185E-01 a      1473     0    74     1    13
  8.6247952584311283E-03 a      1474     0    74     1    14
 -1.2696670148152195E-01 a      1475     0    74     1    15
 -1.0274501257288991E-01 a      1476     0    74     1    16
  9.4562713612524288E-02 a      1477     0    74     1    17
  1.3159131528310511E-01 a      1478     0    74     1    18
  9.6479638019427896E-02 a      1479     0    74     1    19
 -8.6803292893406242E-02 a      1480     0    74     1    20
  8.3686886331600430E-02 a      1481     0    75     1     1
  3.6156715403692127E-02 a      1482     0    75     1     2
  9.4555238874152306E-02 a      1483     0    75     1     3
 -3.9727402621414415E-02 a      1484     0    75     1     4
  4.2357999490784629E-02 a      1485     0    75     1     5
 -4.9578729566855155E-02 a      1486     0    75     1     6
 -1.1141660295184905E-01 a      1487     0    75     1     7
  1.0381936686542272E-01 a      1488     0    75     1     8
 -5.3845300165524029E-03 a      1489     0    75     1     9
 -1.0269736549758808E-02 a      1490     0    75     1    10
  5.2454944329118746E-03 a      1491     0    75     1    11
  9.8876833490478405E-02 a      1492     0    75     1    12
  1.2539715454240116E-01 a      1493     0    75     1    13
 -1.1308427660544670E-01 a      1494     0    75     1    14
 -7.0745601683116152E-02 a      1495     0    75     1    15
 -2.6561402392526245E-02 a      1496     0    75     1    16
 -6.4554745323644455E-02 a      1497     0    75     1    17
  5.2973340041180095E-02 a      1498     0    75     1    18
 -7.7088172964734455E-02 a      1499     0    75     1    19
  5.6792483016748718E-02 a      1500     0    75     1    20
 -2.5739213958658472E-02 a      1501     0    76     1     1
  1.3041538008029466E-01 a      1502     0    76     1     2
 -8.0461837129368857E-02 a      1503     0    76     1     3
 -1.7763932819555111E-02 a      1504     0    76     1     4
  2.8273609550182699E-01 a      1505     0    76     1     5
  2.7873626256295247E-02 a      1506     0    76     1     6
  1.4570152270516504E-01 a      1507     0    76     1     7
 -3.6225172391466359E-02 a      1508     0    76     1     8
  4.8138546241965723E-02 a      1509     0    76     1     9
 -5.2154464132242652E-02 a      1510     0    76     1    10
 -7.3841830100102507E-02 a      1511     0    76     1    11
 -9.2795971955421011E-02 a      1512     0    76     1    12
 -2.9665415641498206E-02 a      1513     0    76     1    13
  4.3641288264155191E-02 a      1514     0    76     1    14
 -5.0068232498661012E-02 a      1515     0    76     1    15
  8.6371784201524596E-02 a      1516     0    76     1    16
  4.5600657712179235E-02 a      1517     0    76     1    17
 -1.1499479297935507E-01 a      1518     0    76     1    18
 -1.8635687888825456E-02 a      1519     0    76     1    19
 -1.6683854106356737E-02 a      1520     0    76     1    20
 -1.6077501353279445E-02 a      1521     0    77     1     1
  3.6984563286731727E-02 a      1522     0    77     1     2
  1.9864599872080177E-01 a      1523     0    77     1     3
  6.2267292750587566E-02 a      1524     0    77     1     4
 -7.3734683631406200E-02 a      1525     0    77     1     5
  5.3248580557429545E-03 a      1526     0    77     1     6
 -5.8205669790364893E-02 a      1527     0    77     1     7
 -2.5592153371950279E-02 a      1528     0    77     1     8
 -8.4465814748505161E-02 a      1529     0    77     1     9
  6.9485173455973034E-02 a      1530     0    77     1    10
  9.4215447874850533E-02 a      1531     0    77     1    11
  8.7958840301176705E-02 a      1532     0    77     1    12
  5.1697830506180535E-02 a      1533     0    77     1    13
 -1.3007212329923443E-01 a      1534     0    77     1    14
 -2.5513999916840405E-02 a      1535     0    77     1    15
  5.3980794119347246E-02 a      1536     0    77     1    16
 -5.3562084041807179E-02 a      1537     0    77     1    17
  7.8827985027647256E-03 a      1538     0    77     1    18
  1.5113977957137964E-01 a      1539     0    77     1    19
 -1.1440161585404006E-01 a      1540     0    77     1    20
 -1.1786806211879362E-02 a      1541     0    78     1     1
 -3.2115677644129037E-01 a      1542     0    78     1     2
 -5.8846505194791020E-03 a      1543     0    78     1     3
  1.2505346343557056E-01 a      1544     0    78     1     4
 -4.2883272383951648E-01 a      1545     0    78     1     5
  6.5797998865473606E-02 a      1546     0    78     1     6
 -1.5406843954955047E-03 a      1547     0    78     1     7
 -1.1319415431004960E-01 a      1548     0    78     1     8
  5.4779784168349447E-03 a      1549     0    78     1     9
  5.1509292957078725E-03 a      1550     0    78     1    10
  8.9949802457845521E-02 a      1551     0    78     1    11
 -6.6639857296361446E-02 a      1552     0    78     1    12
 -3.7626244075065159E-02 a      1553     0    78     1    13
 -3.0201792511396132E-02 a      1554     0    78     1    14
 -2.6592054072346483E-01 a      1555     0    78     1    15
  5.6899088908782189E-02 a      1556     0    78     1    16
  3.9317224817973603E-02 a      1557     0    78     1    17
  5.5554217029495263E-02 a      1558     0    78     1    18
 -1.6642823548169075E-01 a      1559     0    78     1    19
  2.9384965094624831E-02 a      1560     0    78     1    20
  2.9648921692108904E-01 a      1561     0    79     1     1
  1.1890353049406176E-01 a      1562     0    79     1     2
 -3.3233789917237538E-01 a      1563     0    79     1     3
  8.5115597290494213E-02 a      1564     0    79     1     4
  3.0049046035903043E-01 a      1565     0    79     1     5
 -1.5370495862106195E-01 a      1566     0    79     1     6
 -3.4310555358789169E-01 a      1567     0    79     1     7
 -1.6452527299546305E-01 a      1568     0    79     1     8
  1.1055242314602155E-01 a      1569     0    79     1     9
  7.6435113808059799E-02 a      1570     0    79     1    10
 -1.6995129183558727E-01 a      1571     0    79     1    11
  3.8626215513564648E-02 a      1572     0    79     1    12
 -2.4772020742180195E-01 a      1573     0    79     1    13
 -1.4381018960067585E-01 a      1574     0    79     1    14
 -3.1890581867930162E-01 a      1575     0    79     1    15
 -2.7531963705318546E-01 a      1576     0    79     1    16
  3.0430064751090544E-02 a      1577     0    79     1    17
  1.6357406014809681E-01 a      1578     0    79     1    18
 -5.8903556215768364E-02 a      1579     0    79     1    19
 -6.4290696769134248E-01 a      1580     0    79     1    20
  1.7432674990992231E-01 a      1581     0    80     1     1
 -2.8261726412124788E-01 a      1582     0    80     1     2
 -4.4995018746515604E-02 a      1583     0    80     1     3
  8.7592298456628515E-01 a      1584     0    80     1     4
 -6.7032793361037984E-02 a      1585     0    80     1     5
  2.2791701651786050E-01 a      1586     0    80     1     6
  3.3581633291377411E-01 a      1587     0    80     1     7
 -1.2158768203516938E-01 a      1588     0    80     1     8
 -2.4109954313712093E-01 a      1589     0    80     1     9
  2.4266983755480986E-01 a      1590     0    80     1    10
  1.9985850312111605E-01 a      1591     0    80     1    11
  1.7307684479762858E-01 a      1592     0    80     1    12
  1.8188415366807764E-01 a      1593     0    80     1    13
 -2.4730557898656388E-01 a      1594     0    80     1    14
 -4.8606005264190777E-01 a      1595     0    80     1    15
  2.3531531862121124E-01 a      1596     0    80     1    16
  5.0689484620285205E-02 a      1597     0    80     1    17
  2.5854573124664371E-01 a      1598     0    80     1    18
 -5.3084276958193799E-01 a      1599     0    80     1    19
  5.7826003571239337E-01 a      1600     0    80     1    20
 -6.0160739839041721E-01 b      1601     1     1
 -1.3440729360649977E+00 b      1602     1     2
 -1.1124084638122564E+00 b      1603     1     3
 -8.3378352751786755E-01 b      1604     1     4
 -9.2118917623323016E-01 b      1605     1     5
 -1.0592032308750838E+00 b      1606     1     6
  6.2458337474981029E-01 b      1607     1     7
 -6.6407457307913897E-01 b      1608     1     8
 -9.2885490313902710E-02 b      1609     1     9
  2.5303056893852052E-02 b      1610     1    10
  8.4646065253354941E-01 b      1611     1    11
 -7.2139698189782420E-01 b      1612     1    12
  1.1413259341877282E+00 b      1613     1    13
  3.8383512108141732E-01 b      1614     1    14
  1.5685513618485709E+00 b      1615     1    15
  1.0139808258687639E+00 b      1616     1    16
 -3.2627309607144210E-02 b      1617     1    17
 -1.3420923081511533E+00 b      1618     1    18
  7.0046487127969359E-01 b      1619     1    19
  7.0565387347783115E-01 b      1620     1    20
 -4.9976833846741786E-01 a      1621     1     1     2     1
  6.2134447784914637E-01 a      1622     1     1     2     2
 -3.0957488948143094E-02 a      1623     1     1     2     3
  4.7429481006029028E-01 a      1624     1     1     2     4
  3.0948469810363571E-01 a      1625     1     1     2     5
  1.7111827877371963E-02 a      1626     1     1     2     6
 -5.8154241638814844E-02 a      1627     1     1     2     7
