################################################################################
# Neural network connection values (weights and biases).
################################################################################
# Col  Name       Description
################################################################################
# 1    connection Neural network connection value.
# 2    t          Connection type (a = weight, b = bias).
# 3    index      Index enumerating weights.
# 4    l_s        Starting point layer (end point layer for biases).
# 5    n_s        Starting point neuron in starting layer (end point neuron for biases).
# 6    l_e        End point layer.
# 7    n_e        End point neuron in end layer.
################################################################################
#                      1 2         3     4     5     6     7
#             connection t     index   l_s   n_s   l_e   n_e
############################################################
  8.1916459132112165E-02 a         1     0     1     1     1
 -8.8626112760356077E-02 a         2     0     1     1     2
  8.9886159743316804E-02 a         3     0     1     1     3
 -1.5987258986395397E-01 a         4     0     1     1     4
 -5.8598314804143396E-02 a         5     0     1     1     5
 -2.9078938364464740E-01 a         6     0     1     1     6
  1.0225856275913167E-02 a         7     0     1     1     7
 -3.5158372442308722E-01 a         8     0     1     1     8
 -2.5745834709876086E-01 a         9     0     1     1     9
 -2.1342067781066199E-01 a        10     0     1     1    10
  1.7514515351358084E-01 a        11     0     1     1    11
 -1.8397198072504922E-01 a        12     0     1     1    12
  4.8977885945094973E-02 a        13     0     1     1    13
 -1.1877337106283754E-01 a        14     0     1     1    14
 -7.8103938340785584E-01 a        15     0     1     1    15
 -8.3036984243921336E-02 a        16     0     1     1    16
  2.6273990088868820E-01 a        17     0     1     1    17
  9.9642861115008924E-04 a        18     0     1     1    18
  2.6712982449434947E-01 a        19     0     1     1    19
  4.2244431164600665E-01 a        20     0     1     1    20
 -1.0634017669386135E-01 a        21     0     2     1     1
  5.1457655218264819E-01 a        22     0     2     1     2
 -6.2500803180538633E-01 a        23     0     2     1     3
 -3.8082653872256983E-01 a        24     0     2     1     4
 -2.1530986594941165E-01 a        25     0     2     1     5
  1.1359644633723347E-01 a        26     0     2     1     6
 -1.6288339949142752E-01 a        27     0     2     1     7
 -1.9728029853456761E-01 a        28     0     2     1     8
  3.3115040603521562E-01 a        29     0     2     1     9
 -1.6886772718484092E-01 a        30     0     2     1    10
 -1.2711030049036204E-01 a        31     0     2     1    11
  5.7904074831755893E-02 a        32     0     2     1    12
 -2.4578860485714596E-01 a        33     0     2     1    13
 -1.3136111669092421E-01 a        34     0     2     1    14
  1.0917233030060280E-01 a        35     0     2     1    15
  6.6049777269960502E-02 a        36     0     2     1    16
 -5.8208767556033117E-02 a        37     0     2     1    17
 -1.9849039468457644E-01 a        38     0     2     1    18
  1.8266580995386097E-01 a        39     0     2     1    19
 -1.1990185767943359E-01 a        40     0     2     1    20
 -2.2587786409923446E-03 a        41     0     3     1     1
  2.1190514723500458E-02 a        42     0     3     1     2
  2.8965546284885030E-02 a        43     0     3     1     3
  3.2968633707807431E-03 a        44     0     3     1     4
  5.4746751500360076E-02 a        45     0     3     1     5
 -2.4278696506854533E-02 a        46     0     3     1     6
 -2.5006403575516839E-01 a        47     0     3     1     7
 -9.7329815470460254E-02 a        48     0     3     1     8
  1.5479567431710786E-01 a        49     0     3     1     9
 -6.9834449661372908E-02 a        50     0     3     1    10
  1.3994224721076429E-02 a        51     0     3     1    11
  1.1724559392604746E-01 a        52     0     3     1    12
  1.8430637012645851E-01 a        53     0     3     1    13
 -1.3583183517364791E-01 a        54     0     3     1    14
  1.2570742227591764E-01 a        55     0     3     1    15
 -1.0920259630508046E-01 a        56     0     3     1    16
 -5.7721512047035316E-02 a        57     0     3     1    17
 -1.4493854698675593E-01 a        58     0     3     1    18
 -2.4357646688628104E-01 a        59     0     3     1    19
 -1.7997845009092139E-01 a        60     0     3     1    20
  2.3444870064075177E-01 a        61     0     4     1     1
  2.5222737839724640E-01 a        62     0     4     1     2
  1.8440911157329254E-01 a        63     0     4     1     3
  7.8476053303647056E-02 a        64     0     4     1     4
 -1.0376345896425571E-01 a        65     0     4     1     5
  1.5206950956649598E-01 a        66     0     4     1     6
 -1.7845355689250450E-01 a        67     0     4     1     7
  2.2107304155412988E-01 a        68     0     4     1     8
  1.3729086872613752E-01 a        69     0     4     1     9
 -1.5316036534263455E-01 a        70     0     4     1    10
  4.8254542332531822E-03 a        71     0     4     1    11
 -1.6889278167065991E-01 a        72     0     4     1    12
  7.8209477920113568E-02 a        73     0     4     1    13
 -8.7596528895486095E-02 a        74     0     4     1    14
  5.3021697190744413E-02 a        75     0     4     1    15
 -6.8140294039313862E-02 a        76     0     4     1    16
 -3.1277275357903200E-01 a        77     0     4     1    17
  1.5388054522893341E-01 a        78     0     4     1    18
 -1.7423856985786323E-01 a        79     0     4     1    19
  2.6261685033307031E-01 a        80     0     4     1    20
  1.8615630933471694E-01 a        81     0     5     1     1
  7.2867788073580131E-02 a        82     0     5     1     2
 -2.8245235580080047E-01 a        83     0     5     1     3
 -2.5347831983491659E-01 a        84     0     5     1     4
 -2.4713342814781350E-01 a        85     0     5     1     5
  2.1402280680747532E-01 a        86     0     5     1     6
  8.9355917241739205E-02 a        87     0     5     1     7
 -1.7208719127014466E-02 a        88     0     5     1     8
  1.2922507544099018E-01 a        89     0     5     1     9
  9.2647029128963054E-02 a        90     0     5     1    10
 -2.1628676018199675E-01 a        91     0     5     1    11
  4.7102443981805014E-01 a        92     0     5     1    12
 -3.9435784602327323E-01 a        93     0     5     1    13
  1.0977457825277936E-01 a        94     0     5     1    14
 -4.9760362954352398E-02 a        95     0     5     1    15
 -9.0003173119471569E-01 a        96     0     5     1    16
  1.7435739150980259E-01 a        97     0     5     1    17
  2.5370288659495677E-01 a        98     0     5     1    18
 -4.1687581600403928E-01 a        99     0     5     1    19
 -2.6979648166435993E-01 a       100     0     5     1    20
  1.7242508988924823E-01 a       101     0     6     1     1
 -7.1859021527026568E-01 a       102     0     6     1     2
  5.5626902121958643E-01 a       103     0     6     1     3
  1.0818340445882293E-01 a       104     0     6     1     4
 -1.2343526318233909E-01 a       105     0     6     1     5
 -1.2570052082097333E-01 a       106     0     6     1     6
 -1.6536144242099823E-01 a       107     0     6     1     7
  1.0168096708205696E-01 a       108     0     6     1     8
  6.8938893440261204E-02 a       109     0     6     1     9
  1.6263338449113857E-01 a       110     0     6     1    10
  5.2720534293246146E-01 a       111     0     6     1    11
  1.0482874214385329E-01 a       112     0     6     1    12
 -1.1071445144292649E-01 a       113     0     6     1    13
  2.4160194811229405E-01 a       114     0     6     1    14
 -2.0631729010974253E-01 a       115     0     6     1    15
 -1.5541348338524563E-01 a       116     0     6     1    16
  5.4335668156756833E-01 a       117     0     6     1    17
  2.0143502267251220E-01 a       118     0     6     1    18
 -1.0870437061105009E-01 a       119     0     6     1    19
  3.5178767948395771E-02 a       120     0     6     1    20
  1.4064229011253035E-01 a       121     0     7     1     1
 -9.5525831394695240E-02 a       122     0     7     1     2
 -1.4977429908595180E-03 a       123     0     7     1     3
  1.5450932200748940E-01 a       124     0     7     1     4
 -2.2914916899872734E-01 a       125     0     7     1     5
 -7.2540615905390404E-02 a       126     0     7     1     6
  2.1384713843942627E-01 a       127     0     7     1     7
  1.3613828429817457E-01 a       128     0     7     1     8
 -1.2377387577353594E-01 a       129     0     7     1     9
  1.3467792726888164E-03 a       130     0     7     1    10
  1.7986749522040638E-01 a       131     0     7     1    11
  6.4736288973369138E-02 a       132     0     7     1    12
 -2.2144804024577383E-01 a       133     0     7     1    13
 -1.7872472864885453E-01 a       134     0     7     1    14
 -1.6898264933511156E-01 a       135     0     7     1    15
  1.7210977816382220E-01 a       136     0     7     1    16
 -3.0844806859795296E-02 a       137     0     7     1    17
  7.5000275678959963E-02 a       138     0     7     1    18
  2.1392772451581288E-01 a       139     0     7     1    19
 -6.6030070020349274E-02 a       140     0     7     1    20
 -1.2116857538510178E-01 a       141     0     8     1     1
  1.4833791037234587E-01 a       142     0     8     1     2
  1.4224994151180395E-01 a       143     0     8     1     3
 -2.7275461519149019E-01 a       144     0     8     1     4
  5.1120881007649291E-02 a       145     0     8     1     5
 -1.9063626265892356E-01 a       146     0     8     1     6
 -5.8538106869397838E-02 a       147     0     8     1     7
 -1.3741990640231846E-01 a       148     0     8     1     8
 -2.6345752377124532E-01 a       149     0     8     1     9
 -2.1825977219821402E-01 a       150     0     8     1    10
  1.2316617985371131E-01 a       151     0     8     1    11
  2.8422857810341397E-02 a       152     0     8     1    12
 -2.8986769796716794E-01 a       153     0     8     1    13
 -1.6150923957815261E-01 a       154     0     8     1    14
 -1.5244326906458022E-02 a       155     0     8     1    15
  2.6144127510244930E-01 a       156     0     8     1    16
  1.8207735279839515E-02 a       157     0     8     1    17
 -2.5059972654794493E-01 a       158     0     8     1    18
  2.5914796117325500E-01 a       159     0     8     1    19
  9.1518620964104763E-02 a       160     0     8     1    20
  3.7684103167628957E-01 a       161     0     9     1     1
 -5.8305865163623663E-04 a       162     0     9     1     2
  2.7159812592062410E-01 a       163     0     9     1     3
  2.1478052307261075E-01 a       164     0     9     1     4
  5.1228070449972865E-02 a       165     0     9     1     5
  1.8802362849809895E-01 a       166     0     9     1     6
 -3.0492060585875125E-01 a       167     0     9     1     7
 -2.0333294821009842E-02 a       168     0     9     1     8
 -4.1339855424897148E-01 a       169     0     9     1     9
  8.4115993096781833E-02 a       170     0     9     1    10
  2.9010342342561380E-02 a       171     0     9     1    11
 -2.9795604127142122E-01 a       172     0     9     1    12
  4.1840468174951018E-01 a       173     0     9     1    13
 -1.5267423116348627E-01 a       174     0     9     1    14
  5.6394542037543638E-01 a       175     0     9     1    15
  4.2174927842537940E-01 a       176     0     9     1    16
  1.2902187606878807E-01 a       177     0     9     1    17
 -3.2629896451269880E-01 a       178     0     9     1    18
  5.7450152767115770E-01 a       179     0     9     1    19
  2.7804548383492744E-01 a       180     0     9     1    20
 -8.6753221832604185E-02 a       181     0    10     1     1
  1.4879676525123686E-01 a       182     0    10     1     2
 -3.2177263498390513E-01 a       183     0    10     1     3
 -3.2573713739794695E-02 a       184     0    10     1     4
  4.2545257890866987E-02 a       185     0    10     1     5
 -1.2579066182881590E-01 a       186     0    10     1     6
  2.2108827111897111E-01 a       187     0    10     1     7
 -1.5853564058786204E-01 a       188     0    10     1     8
 -1.0320058971378809E-02 a       189     0    10     1     9
  1.2479256602181753E-01 a       190     0    10     1    10
 -8.9801381644932260E-02 a       191     0    10     1    11
  1.3166628665456279E-01 a       192     0    10     1    12
 -1.7122826361441754E-01 a       193     0    10     1    13
  1.3249072617730340E-01 a       194     0    10     1    14
  1.3565500363639030E-01 a       195     0    10     1    15
  2.0226103219902765E-02 a       196     0    10     1    16
 -6.3257110529316235E-02 a       197     0    10     1    17
 -1.1832166874369092E-01 a       198     0    10     1    18
  3.0422287433228645E-01 a       199     0    10     1    19
  8.8796225110149410E-02 a       200     0    10     1    20
  7.7424346620021414E-02 a       201     0    11     1     1
  2.9757941094045881E-01 a       202     0    11     1     2
 -1.0306202082494140E-01 a       203     0    11     1     3
  3.4123763176003637E-02 a       204     0    11     1     4
  2.1372886188348880E-01 a       205     0    11     1     5
 -2.6646508888291959E-01 a       206     0    11     1     6
 -1.0031854380978582E-01 a       207     0    11     1     7
 -3.4353670577862351E-02 a       208     0    11     1     8
  6.7473572808550500E-02 a       209     0    11     1     9
  4.3160327185255476E-02 a       210     0    11     1    10
 -1.0222245527210044E-01 a       211     0    11     1    11
 -1.3634960924602865E-01 a       212     0    11     1    12
  1.6632388500741610E-01 a       213     0    11     1    13
 -1.4636908252374131E-01 a       214     0    11     1    14
  1.4133837592000195E-01 a       215     0    11     1    15
 -1.7095659101499300E-01 a       216     0    11     1    16
  1.0792073729342423E-01 a       217     0    11     1    17
 -7.3186756343630990E-02 a       218     0    11     1    18
  5.5338796095362620E-03 a       219     0    11     1    19
 -1.0613732347953374E-01 a       220     0    11     1    20
 -1.8135734749401511E-01 a       221     0    12     1     1
 -1.0176520988651622E-01 a       222     0    12     1     2
 -8.4994315751799027E-02 a       223     0    12     1     3
  1.7326028295614374E-01 a       224     0    12     1     4
 -6.3970039271402240E-02 a       225     0    12     1     5
 -1.9029065689393931E-01 a       226     0    12     1     6
  7.5471674507514713E-02 a       227     0    12     1     7
 -1.5766858456900315E-01 a       228     0    12     1     8
 -1.8989652252126379E-01 a       229     0    12     1     9
  2.2952334509936670E-01 a       230     0    12     1    10
 -1.0929390668134871E-01 a       231     0    12     1    11
 -3.5662705395875613E-02 a       232     0    12     1    12
  9.0532027903339779E-02 a       233     0    12     1    13
  1.9416053652794132E-01 a       234     0    12     1    14
 -4.1135583645740340E-02 a       235     0    12     1    15
 -8.2697427086120795E-02 a       236     0    12     1    16
  1.2487924026843500E-01 a       237     0    12     1    17
  2.7494134221729288E-01 a       238     0    12     1    18
  2.9989207395976471E-02 a       239     0    12     1    19
 -2.4825136964995959E-01 a       240     0    12     1    20
  6.4464371784982988E-02 a       241     0    13     1     1
  1.8261391508297156E-01 a       242     0    13     1     2
 -4.4512807731599108E-01 a       243     0    13     1     3
 -8.4788080536347510E-02 a       244     0    13     1     4
  2.7021497912473225E-01 a       245     0    13     1     5
  1.4332941436398969E-01 a       246     0    13     1     6
  2.8990418248348099E-01 a       247     0    13     1     7
 -2.6055816234476242E-01 a       248     0    13     1     8
  1.8278191953773559E-01 a       249     0    13     1     9
 -1.1665629652571391E-02 a       250     0    13     1    10
  6.1872682891073137E-02 a       251     0    13     1    11
  1.8897581731847770E-02 a       252     0    13     1    12
 -5.9774738278889079E-02 a       253     0    13     1    13
 -9.5463513628020857E-02 a       254     0    13     1    14
 -3.1078858388090735E-01 a       255     0    13     1    15
 -3.2074461153494899E-01 a       256     0    13     1    16
 -2.4428159302953184E-01 a       257     0    13     1    17
  8.2532669202279557E-02 a       258     0    13     1    18
 -3.6238651664982102E-01 a       259     0    13     1    19
  6.0691482777031576E-02 a       260     0    13     1    20
 -2.0334656507595522E-01 a       261     0    14     1     1
 -4.8089355140888856E-02 a       262     0    14     1     2
  2.6924208204684058E-01 a       263     0    14     1     3
  2.2763293657699527E-01 a       264     0    14     1     4
 -2.9799916465467619E-01 a       265     0    14     1     5
  7.1559260251756171E-02 a       266     0    14     1     6
  3.2352370174196517E-02 a       267     0    14     1     7
  3.0666186026942549E-01 a       268     0    14     1     8
  1.8756762139183164E-01 a       269     0    14     1     9
 -1.5293817930354633E-01 a       270     0    14     1    10
  2.2090351246037032E-01 a       271     0    14     1    11
  2.0036440133695468E-01 a       272     0    14     1    12
  7.0877368129633675E-02 a       273     0    14     1    13
  6.6671049493314677E-02 a       274     0    14     1    14
 -7.5821477352601710E-02 a       275     0    14     1    15
  1.0616439450049665E-01 a       276     0    14     1    16
  7.8412752612218556E-02 a       277     0    14     1    17
 -2.3159365033759891E-01 a       278     0    14     1    18
 -2.1573812268489875E-01 a       279     0    14     1    19
 -2.2790632239858433E-02 a       280     0    14     1    20
  9.3597235947591770E-02 a       281     0    15     1     1
 -2.0688654700784720E-01 a       282     0    15     1     2
  1.6261796783658902E-01 a       283     0    15     1     3
  8.7638639986891073E-02 a       284     0    15     1     4
 -6.5070427520291810E-02 a       285     0    15     1     5
  4.6250368673927018E-02 a       286     0    15     1     6
  3.0062737579122076E-02 a       287     0    15     1     7
 -1.3660796254410423E-01 a       288     0    15     1     8
 -3.2569285235683976E-02 a       289     0    15     1     9
  1.5451196339873977E-01 a       290     0    15     1    10
  1.3834572665247707E-01 a       291     0    15     1    11
  2.9734897307722252E-01 a       292     0    15     1    12
 -1.3910572660475490E-01 a       293     0    15     1    13
  2.2972417570937483E-02 a       294     0    15     1    14
  5.8736860261717717E-03 a       295     0    15     1    15
  4.0838094924835873E-02 a       296     0    15     1    16
  1.2546878522168606E-01 a       297     0    15     1    17
 -2.6519578520163577E-02 a       298     0    15     1    18
  8.3335304437110846E-02 a       299     0    15     1    19
  1.1028802862530529E-01 a       300     0    15     1    20
 -1.7685403566855951E-01 a       301     0    16     1     1
  6.5050276644362205E-03 a       302     0    16     1     2
 -1.0468759979276920E-01 a       303     0    16     1     3
  3.4996740736071785E-02 a       304     0    16     1     4
  1.7943804948739639E-01 a       305     0    16     1     5
  1.5959392312896975E-01 a       306     0    16     1     6
  5.0258417775993339E-02 a       307     0    16     1     7
 -1.1050861507999978E-01 a       308     0    16     1     8
  1.5431453333299894E-01 a       309     0    16     1     9
  2.1527808641204171E-01 a       310     0    16     1    10
  7.7521695814369893E-02 a       311     0    16     1    11
  1.5505386000764651E-01 a       312     0    16     1    12
 -1.3324969251906041E-01 a       313     0    16     1    13
 -1.5569749510629252E-01 a       314     0    16     1    14
 -1.8704692683708918E-01 a       315     0    16     1    15
  1.0169770394057961E-01 a       316     0    16     1    16
 -1.8101804778076364E-01 a       317     0    16     1    17
  2.3184464851974956E-01 a       318     0    16     1    18
 -1.9467112120356361E-01 a       319     0    16     1    19
  7.5963890994048738E-02 a       320     0    16     1    20
 -2.4184224457718428E-01 a       321     0    17     1     1
 -3.2889610292608473E-01 a       322     0    17     1     2
  1.6351442144086631E-01 a       323     0    17     1     3
  1.1229427828744652E-01 a       324     0    17     1     4
 -3.7620688747344810E-01 a       325     0    17     1     5
  5.5188219149136060E-03 a       326     0    17     1     6
  6.1701578360403242E-02 a       327     0    17     1     7
 -9.9144770902917762E-02 a       328     0    17     1     8
 -2.9906579942444683E-01 a       329     0    17     1     9
  3.8372787277451761E-02 a       330     0    17     1    10
 -2.6946268768067161E-01 a       331     0    17     1    11
 -8.3275706875902855E-02 a       332     0    17     1    12
 -2.2683455817436665E-02 a       333     0    17     1    13
 -6.8306430460295192E-02 a       334     0    17     1    14
 -1.0700732779223195E-01 a       335     0    17     1    15
 -3.5620883121279545E-01 a       336     0    17     1    16
  2.2560586877715783E-01 a       337     0    17     1    17
  2.9029324960477720E-01 a       338     0    17     1    18
  4.4612211809505081E-01 a       339     0    17     1    19
  8.2382934511841033E-02 a       340     0    17     1    20
  5.7181387833426113E-02 a       341     0    18     1     1
 -9.0963355524550066E-02 a       342     0    18     1     2
 -1.2053049550666786E-01 a       343     0    18     1     3
 -1.7701691796169244E-01 a       344     0    18     1     4
  5.7034478695807550E-02 a       345     0    18     1     5
 -1.1675783669072350E-01 a       346     0    18     1     6
 -1.8461203389315473E-01 a       347     0    18     1     7
 -7.1398139706356653E-02 a       348     0    18     1     8
  1.6167162674686586E-01 a       349     0    18     1     9
  1.5076010297239389E-01 a       350     0    18     1    10
 -3.4473747456045381E-02 a       351     0    18     1    11
  6.6746018999082821E-02 a       352     0    18     1    12
 -4.2929701078429049E-02 a       353     0    18     1    13
  2.0935878065096275E-01 a       354     0    18     1    14
  6.7960410201656357E-02 a       355     0    18     1    15
 -1.7703657987000045E-02 a       356     0    18     1    16
  7.4722748069001060E-02 a       357     0    18     1    17
  1.4920624242994271E-01 a       358     0    18     1    18
 -5.2613171574763085E-02 a       359     0    18     1    19
 -2.1950300220169203E-01 a       360     0    18     1    20
 -1.7946594537226165E-01 a       361     0    19     1     1
  1.2869188960703765E-01 a       362     0    19     1     2
 -1.7324713840984490E-01 a       363     0    19     1     3
  9.4604771792072898E-02 a       364     0    19     1     4
  4.8185763303137258E-02 a       365     0    19     1     5
  1.6068052564977561E-01 a       366     0    19     1     6
 -2.2467250340288594E-02 a       367     0    19     1     7
  8.8240431275207837E-02 a       368     0    19     1     8
  4.3916977992743612E-02 a       369     0    19     1     9
  1.1476865432419177E-01 a       370     0    19     1    10
 -8.6951319229250104E-02 a       371     0    19     1    11
 -9.6573147317973201E-02 a       372     0    19     1    12
  1.9923699840744541E-01 a       373     0    19     1    13
 -1.5094942350491483E-01 a       374     0    19     1    14
 -4.2848914645296958E-03 a       375     0    19     1    15
 -5.0980370562872822E-02 a       376     0    19     1    16
  1.3055764485609669E-01 a       377     0    19     1    17
 -8.5096250429778864E-02 a       378     0    19     1    18
 -6.2597705347063895E-02 a       379     0    19     1    19
 -2.0659275699546403E-01 a       380     0    19     1    20
  1.3300921039496150E-01 a       381     0    20     1     1
 -7.1135090615556840E-02 a       382     0    20     1     2
  2.7647326188762405E-02 a       383     0    20     1     3
  2.8410360307611071E-01 a       384     0    20     1     4
 -3.5728514365065800E-02 a       385     0    20     1     5
 -1.5328141021534539E-01 a       386     0    20     1     6
 -1.2323585518412239E-01 a       387     0    20     1     7
  2.6911352448985087E-01 a       388     0    20     1     8
 -7.2605100582123799E-02 a       389     0    20     1     9
  1.3334183671567446E-01 a       390     0    20     1    10
 -2.4875858614986271E-01 a       391     0    20     1    11
 -1.1321813979564058E-01 a       392     0    20     1    12
 -7.8016442572001868E-02 a       393     0    20     1    13
  8.9285643630130918E-02 a       394     0    20     1    14
 -2.5591374861163873E-02 a       395     0    20     1    15
  2.0228472206730949E-01 a       396     0    20     1    16
 -1.2706178184208852E-01 a       397     0    20     1    17
  2.4785869761161683E-01 a       398     0    20     1    18
  1.5632296347666494E-01 a       399     0    20     1    19
  1.2220646603798999E-01 a       400     0    20     1    20
  2.1876121120664996E-01 a       401     0    21     1     1
  1.6595345658109784E-01 a       402     0    21     1     2
 -1.2649570783502231E-01 a       403     0    21     1     3
 -1.2626274808158519E-01 a       404     0    21     1     4
  1.0917934956440950E-01 a       405     0    21     1     5
  9.7783641792650380E-02 a       406     0    21     1     6
 -8.8257032278250422E-02 a       407     0    21     1     7
  3.0579024886442405E-02 a       408     0    21     1     8
  3.9760675117478064E-02 a       409     0    21     1     9
 -1.2610047467082976E-02 a       410     0    21     1    10
  1.2815623363707943E-01 a       411     0    21     1    11
  8.5332548878316844E-02 a       412     0    21     1    12
 -5.7171665542035024E-02 a       413     0    21     1    13
 -2.0606118076786353E-01 a       414     0    21     1    14
  1.2055064161848503E-01 a       415     0    21     1    15
  1.5178203825005554E-01 a       416     0    21     1    16
 -2.1656868134114213E-01 a       417     0    21     1    17
 -9.2445403663843836E-02 a       418     0    21     1    18
 -1.5261921600294334E-01 a       419     0    21     1    19
  1.6862185358476775E-01 a       420     0    21     1    20
  8.0179179418292446E-02 a       421     0    22     1     1
  8.3891888383061650E-02 a       422     0    22     1     2
  9.9293452642755908E-02 a       423     0    22     1     3
  1.1794490971327572E-01 a       424     0    22     1     4
  6.1598816086094597E-02 a       425     0    22     1     5
  8.8561481374653417E-02 a       426     0    22     1     6
  4.8231078244065952E-02 a       427     0    22     1     7
  6.2517444215506229E-02 a       428     0    22     1     8
 -2.1380862685042842E-02 a       429     0    22     1     9
 -9.0048046531966755E-02 a       430     0    22     1    10
  1.0659035437994806E-01 a       431     0    22     1    11
  2.7334236254061998E-02 a       432     0    22     1    12
  1.0393416517018327E-01 a       433     0    22     1    13
  2.1213952557891236E-01 a       434     0    22     1    14
 -1.7002524933054181E-02 a       435     0    22     1    15
  6.9678561074300677E-02 a       436     0    22     1    16
  1.1969168949378316E-01 a       437     0    22     1    17
 -2.1120761216433037E-01 a       438     0    22     1    18
  2.6712975394144520E-05 a       439     0    22     1    19
  2.3991431729556496E-02 a       440     0    22     1    20
 -5.4640465816695226E-04 a       441     0    23     1     1
 -4.5234750170729567E-02 a       442     0    23     1     2
  4.5677013749616732E-02 a       443     0    23     1     3
  9.8190427461531893E-02 a       444     0    23     1     4
  2.5227403537249688E-02 a       445     0    23     1     5
  1.2627825775457052E-01 a       446     0    23     1     6
  2.9866629065544791E-02 a       447     0    23     1     7
 -2.4820311516806179E-02 a       448     0    23     1     8
  1.5033473628998107E-02 a       449     0    23     1     9
 -1.6546087253444097E-01 a       450     0    23     1    10
  1.9765227170901182E-02 a       451     0    23     1    11
  8.6819734185821951E-02 a       452     0    23     1    12
 -1.0755321827374743E-01 a       453     0    23     1    13
 -1.9821976446650991E-01 a       454     0    23     1    14
 -1.0664020015262692E-01 a       455     0    23     1    15
  8.5516859372778115E-02 a       456     0    23     1    16
  5.7965344205357067E-02 a       457     0    23     1    17
  5.0716987247176057E-03 a       458     0    23     1    18
  6.9502089608689990E-02 a       459     0    23     1    19
  4.6440029488436535E-02 a       460     0    23     1    20
 -1.6328819774069186E-01 a       461     0    24     1     1
  2.3414617203058269E-01 a       462     0    24     1     2
  1.5115232489843786E-01 a       463     0    24     1     3
 -8.8021397431059620E-02 a       464     0    24     1     4
  3.0911248323430080E-02 a       465     0    24     1     5
 -1.6035436869110889E-01 a       466     0    24     1     6
 -1.5905689686625274E-01 a       467     0    24     1     7
 -2.1595402097473249E-01 a       468     0    24     1     8
  8.1544633930098462E-02 a       469     0    24     1     9
 -2.3092429569795048E-01 a       470     0    24     1    10
  5.0410102256164713E-02 a       471     0    24     1    11
 -2.5913633039463372E-02 a       472     0    24     1    12
 -3.7965009307283089E-02 a       473     0    24     1    13
  1.6082691237333113E-01 a       474     0    24     1    14
 -1.3369615415200600E-01 a       475     0    24     1    15
  3.0572536083016567E-02 a       476     0    24     1    16
 -9.0472953436827513E-02 a       477     0    24     1    17
  1.0579719673824600E-01 a       478     0    24     1    18
 -2.5455555165895483E-01 a       479     0    24     1    19
 -2.5574686169506644E-02 a       480     0    24     1    20
 -1.7465217365418717E-01 a       481     0    25     1     1
 -1.1801025887378835E-01 a       482     0    25     1     2
  4.4273040659018666E-02 a       483     0    25     1     3
  5.2242372669504260E-02 a       484     0    25     1     4
 -1.5066011458765699E-01 a       485     0    25     1     5
 -6.4289862770222556E-02 a       486     0    25     1     6
  1.4488304351313039E-01 a       487     0    25     1     7
 -3.9900262718418109E-02 a       488     0    25     1     8
 -3.4851941940715572E-02 a       489     0    25     1     9
  9.4217102798028321E-02 a       490     0    25     1    10
 -1.3072014425213899E-01 a       491     0    25     1    11
  1.4003438611105477E-02 a       492     0    25     1    12
 -4.3162017668421614E-02 a       493     0    25     1    13
  3.2623802836602038E-02 a       494     0    25     1    14
 -1.4022627972150351E-01 a       495     0    25     1    15
 -1.5423227756295269E-01 a       496     0    25     1    16
  2.2823650623796812E-01 a       497     0    25     1    17
  5.3736630448870788E-02 a       498     0    25     1    18
  1.1110199710840518E-01 a       499     0    25     1    19
  2.0727902466254625E-02 a       500     0    25     1    20
  1.0158187872601325E-01 a       501     0    26     1     1
 -2.7354066445615492E-02 a       502     0    26     1     2
 -6.7341668665754195E-02 a       503     0    26     1     3
 -4.8260595304210951E-02 a       504     0    26     1     4
 -1.8592097491851249E-02 a       505     0    26     1     5
 -3.1669785906886953E-02 a       506     0    26     1     6
  2.2750160263836495E-03 a       507     0    26     1     7
  3.0398113869629706E-02 a       508     0    26     1     8
  5.4681100668382325E-02 a       509     0    26     1     9
  4.6840671279340948E-03 a       510     0    26     1    10
 -2.0861111288321283E-04 a       511     0    26     1    11
 -6.6023932537225367E-03 a       512     0    26     1    12
  5.1032143187375374E-02 a       513     0    26     1    13
  4.2600771777366139E-02 a       514     0    26     1    14
  1.0345579444413223E-01 a       515     0    26     1    15
  3.9015157821006792E-02 a       516     0    26     1    16
  1.2238858285335562E-02 a       517     0    26     1    17
 -4.8144211465064292E-02 a       518     0    26     1    18
 -7.1843140214579382E-02 a       519     0    26     1    19
 -1.1525503603870654E-01 a       520     0    26     1    20
  3.9045382622179048E-02 a       521     0    27     1     1
 -1.4978124506951233E-02 a       522     0    27     1     2
 -5.6111839026851754E-02 a       523     0    27     1     3
 -6.2893500144858130E-02 a       524     0    27     1     4
  2.4878240225274423E-02 a       525     0    27     1     5
 -4.7076397405871183E-02 a       526     0    27     1     6
  5.0187228459231306E-02 a       527     0    27     1     7
 -1.0668383042068812E-02 a       528     0    27     1     8
 -3.2326660252943264E-02 a       529     0    27     1     9
  3.9951833483433612E-02 a       530     0    27     1    10
 -1.8255736936913153E-02 a       531     0    27     1    11
 -9.2858867040703841E-02 a       532     0    27     1    12
  2.8304084989095705E-02 a       533     0    27     1    13
  1.2038225737637552E-01 a       534     0    27     1    14
 -1.7721900361350879E-02 a       535     0    27     1    15
 -1.2029626917891882E-02 a       536     0    27     1    16
  7.5065509800323837E-02 a       537     0    27     1    17
  2.1341283750481364E-02 a       538     0    27     1    18
  5.5972137006393231E-02 a       539     0    27     1    19
  5.6144575154824662E-02 a       540     0    27     1    20
  1.2295302154647229E-01 a       541     0    28     1     1
 -6.9433287903952173E-02 a       542     0    28     1     2
 -8.4617494368869811E-02 a       543     0    28     1     3
  6.3594103928554496E-02 a       544     0    28     1     4
  3.7519110135517196E-02 a       545     0    28     1     5
 -1.0102016117522389E-01 a       546     0    28     1     6
 -5.6122138769155637E-02 a       547     0    28     1     7
  5.2628656927434653E-02 a       548     0    28     1     8
 -1.0776752482523599E-01 a       549     0    28     1     9
  6.6041477854923161E-02 a       550     0    28     1    10
 -5.5502936503543258E-02 a       551     0    28     1    11
 -7.2509107425967542E-02 a       552     0    28     1    12
 -4.7527007017564064E-02 a       553     0    28     1    13
  1.6964546126361368E-01 a       554     0    28     1    14
  9.7789078226420259E-02 a       555     0    28     1    15
 -1.6306571888186208E-01 a       556     0    28     1    16
 -3.6647511135702020E-02 a       557     0    28     1    17
  8.5209619484573978E-02 a       558     0    28     1    18
 -2.9614738792670844E-02 a       559     0    28     1    19
  5.2255530471627891E-02 a       560     0    28     1    20
  2.6346401076174721E-02 a       561     0    29     1     1
  1.2492438752628293E-02 a       562     0    29     1     2
 -6.3722381432697359E-02 a       563     0    29     1     3
  5.2416257908731938E-02 a       564     0    29     1     4
  3.5803686404668564E-02 a       565     0    29     1     5
 -3.4360256833736113E-03 a       566     0    29     1     6
  6.9094539441065222E-02 a       567     0    29     1     7
  2.4265398139111168E-02 a       568     0    29     1     8
  2.3990271065679112E-02 a       569     0    29     1     9
 -3.3959170029718509E-02 a       570     0    29     1    10
  3.1537009609505185E-03 a       571     0    29     1    11
 -6.5194152982815251E-02 a       572     0    29     1    12
  6.5883930497714238E-02 a       573     0    29     1    13
  7.6285876272658065E-02 a       574     0    29     1    14
  1.3770632081265747E-02 a       575     0    29     1    15
  1.1286478440727046E-01 a       576     0    29     1    16
 -3.1748945668141815E-01 a       577     0    29     1    17
  3.0467128409779522E-02 a       578     0    29     1    18
 -1.4597032897792428E-03 a       579     0    29     1    19
  7.2921980489446384E-02 a       580     0    29     1    20
  1.5183974543945339E-01 a       581     0    30     1     1
  7.3102509209805114E-02 a       582     0    30     1     2
  5.5781112408567229E-02 a       583     0    30     1     3
 -1.2180168564652137E-02 a       584     0    30     1     4
  3.8104466151056317E-02 a       585     0    30     1     5
  8.0203810032487291E-02 a       586     0    30     1     6
 -1.8563102026546682E-01 a       587     0    30     1     7
  6.6460238519568480E-03 a       588     0    30     1     8
 -4.5590098133851273E-02 a       589     0    30     1     9
  5.9927495249330602E-02 a       590     0    30     1    10
  4.1803555803279706E-02 a       591     0    30     1    11
  6.1787987949599256E-02 a       592     0    30     1    12
 -3.4087951752032532E-02 a       593     0    30     1    13
  1.1747455108963735E-01 a       594     0    30     1    14
 -1.0394303883579595E-02 a       595     0    30     1    15
 -8.0226787118879289E-02 a       596     0    30     1    16
  8.8658632102043000E-02 a       597     0    30     1    17
  3.3438235853891086E-02 a       598     0    30     1    18
 -7.9331943579652488E-03 a       599     0    30     1    19
 -5.1764005783191125E-03 a       600     0    30     1    20
  1.3307390837488753E-01 a       601     0    31     1     1
  2.5856204371575185E-02 a       602     0    31     1     2
  2.4822909602005026E-02 a       603     0    31     1     3
  6.6972446125814683E-02 a       604     0    31     1     4
 -2.7885840178190496E-02 a       605     0    31     1     5
  1.4818534346911888E-01 a       606     0    31     1     6
 -8.0803784438243528E-02 a       607     0    31     1     7
  4.7922888750195229E-02 a       608     0    31     1     8
  1.0253706056041862E-02 a       609     0    31     1     9
 -5.7764172254707681E-02 a       610     0    31     1    10
  6.8351604465028771E-03 a       611     0    31     1    11
  2.1981543937432780E-02 a       612     0    31     1    12
 -4.2731301419941040E-02 a       613     0    31     1    13
 -1.0428289111020389E-01 a       614     0    31     1    14
  4.8360602610172228E-02 a       615     0    31     1    15
 -3.5658411191403215E-03 a       616     0    31     1    16
 -9.8771887771371553E-02 a       617     0    31     1    17
 -6.2474390336612437E-02 a       618     0    31     1    18
 -6.8829734234767376E-02 a       619     0    31     1    19
 -9.1928418245195084E-03 a       620     0    31     1    20
 -1.9167361191615942E-01 a       621     0    32     1     1
 -2.1926604331074018E-02 a       622     0    32     1     2
  1.6968809890316441E-01 a       623     0    32     1     3
 -1.3621553116990329E-01 a       624     0    32     1     4
  3.6842292505170848E-02 a       625     0    32     1     5
 -2.5430081362206432E-02 a       626     0    32     1     6
 -1.1668697534195492E-01 a       627     0    32     1     7
 -1.0487523170579095E-01 a       628     0    32     1     8
  9.8899109630421131E-02 a       629     0    32     1     9
  6.1703005025653235E-02 a       630     0    32     1    10
  7.7769511857648257E-02 a       631     0    32     1    11
  1.1446682183170465E-01 a       632     0    32     1    12
 -1.2391763541544797E-02 a       633     0    32     1    13
 -8.7193655169880938E-02 a       634     0    32     1    14
 -7.6224454538409469E-03 a       635     0    32     1    15
  1.3555226545571600E-01 a       636     0    32     1    16
  7.2234307414348470E-02 a       637     0    32     1    17
  1.4820311305975481E-01 a       638     0    32     1    18
  4.3908873177376545E-02 a       639     0    32     1    19
 -3.6430354668924254E-02 a       640     0    32     1    20
 -1.1287821810259233E-01 a       641     0    33     1     1
  2.0121397518289352E-02 a       642     0    33     1     2
  6.0470065512835527E-02 a       643     0    33     1     3
 -4.0221610581978783E-02 a       644     0    33     1     4
 -6.5634566951033174E-02 a       645     0    33     1     5
  3.0708950799985171E-03 a       646     0    33     1     6
 -5.1416591153520555E-02 a       647     0    33     1     7
  4.1918514824546344E-05 a       648     0    33     1     8
 -8.6345098604666739E-03 a       649     0    33     1     9
  8.6176273425777522E-02 a       650     0    33     1    10
  1.1962883406501919E-04 a       651     0    33     1    11
  5.7466648707812179E-02 a       652     0    33     1    12
 -6.9047897678456677E-02 a       653     0    33     1    13
 -8.4449112445822497E-02 a       654     0    33     1    14
  3.2812265519715111E-02 a       655     0    33     1    15
 -7.3094526908243390E-02 a       656     0    33     1    16
  1.6674447268602902E-01 a       657     0    33     1    17
 -4.2599803129775959E-02 a       658     0    33     1    18
 -3.0596593611564367E-02 a       659     0    33     1    19
 -1.4726037808045284E-02 a       660     0    33     1    20
 -1.4417930425625228E-01 a       661     0    34     1     1
 -6.0447521012182884E-02 a       662     0    34     1     2
 -1.0546026596360001E-02 a       663     0    34     1     3
  3.1050205846085210E-02 a       664     0    34     1     4
  8.2148782201573473E-03 a       665     0    34     1     5
  6.1846471509423864E-02 a       666     0    34     1     6
  3.5829714207519868E-02 a       667     0    34     1     7
  7.9809857265422564E-03 a       668     0    34     1     8
  5.2998628718604265E-02 a       669     0    34     1     9
 -6.9850471025115768E-02 a       670     0    34     1    10
 -2.0676597357542782E-02 a       671     0    34     1    11
 -4.9626649779138304E-02 a       672     0    34     1    12
  6.8634123618873055E-02 a       673     0    34     1    13
 -8.4028317861505539E-02 a       674     0    34     1    14
  5.6748404690284311E-02 a       675     0    34     1    15
  3.6681247409043979E-02 a       676     0    34     1    16
 -1.1710391069886963E-01 a       677     0    34     1    17
 -1.1252177051036955E-01 a       678     0    34     1    18
 -8.5400812720055230E-02 a       679     0    34     1    19
 -7.5951621140971204E-02 a       680     0    34     1    20
 -9.7914514460315558E-02 a       681     0    35     1     1
 -3.8846694318316083E-02 a       682     0    35     1     2
 -3.2069817853358669E-02 a       683     0    35     1     3
  3.1214981076881126E-02 a       684     0    35     1     4
 -2.7730590650416234E-02 a       685     0    35     1     5
 -8.5608322307535067E-02 a       686     0    35     1     6
  2.3882604359208492E-01 a       687     0    35     1     7
 -6.6927844210124904E-02 a       688     0    35     1     8
 -2.7423251406163869E-02 a       689     0    35     1     9
 -7.1540655730319341E-02 a       690     0    35     1    10
 -6.5202828970322398E-03 a       691     0    35     1    11
 -8.1342494165486154E-02 a       692     0    35     1    12
 -4.4834889971556192E-02 a       693     0    35     1    13
 -2.2005217393020228E-02 a       694     0    35     1    14
 -9.3029236097754486E-02 a       695     0    35     1    15
  6.6499414150292716E-02 a       696     0    35     1    16
  3.8936058739998176E-02 a       697     0    35     1    17
  2.0950375173451624E-01 a       698     0    35     1    18
  1.4046350403031801E-01 a       699     0    35     1    19
  1.2307807716166223E-01 a       700     0    35     1    20
 -7.8861125886495312E-02 a       701     0    36     1     1
 -3.4260576329338488E-02 a       702     0    36     1     2
 -1.9285668386435691E-03 a       703     0    36     1     3
 -9.9471175807731892E-04 a       704     0    36     1     4
 -2.1253474240486020E-01 a       705     0    36     1     5
 -8.7745763725097861E-02 a       706     0    36     1     6
  1.0632906444111492E-01 a       707     0    36     1     7
  4.5084255021051095E-02 a       708     0    36     1     8
  1.3870086309911133E-02 a       709     0    36     1     9
 -7.7217424999390480E-02 a       710     0    36     1    10
 -2.1529599157796885E-03 a       711     0    36     1    11
 -5.3343077903814609E-02 a       712     0    36     1    12
  3.6134053239788057E-02 a       713     0    36     1    13
  1.4728418451895567E-01 a       714     0    36     1    14
  3.2569669777537939E-02 a       715     0    36     1    15
 -9.0951660616990171E-02 a       716     0    36     1    16
 -2.1743480583574445E-01 a       717     0    36     1    17
 -4.7270593952621329E-02 a       718     0    36     1    18
 -1.0130459683390014E-01 a       719     0    36     1    19
  1.0673334978146425E-01 a       720     0    36     1    20
 -6.2093631281418425E-03 a       721     0    37     1     1
 -2.9639379074003824E-02 a       722     0    37     1     2
 -2.5842912741395933E-02 a       723     0    37     1     3
  4.6368703733027643E-02 a       724     0    37     1     4
  5.6159395262618664E-02 a       725     0    37     1     5
 -2.9289316236037748E-02 a       726     0    37     1     6
  3.4096548552073086E-02 a       727     0    37     1     7
 -9.2402068487779845E-03 a       728     0    37     1     8
  3.8233498399587708E-02 a       729     0    37     1     9
 -4.6635634716443865E-02 a       730     0    37     1    10
 -1.5685458727234213E-02 a       731     0    37     1    11
 -8.2020556834444008E-02 a       732     0    37     1    12
  5.5250755688541119E-02 a       733     0    37     1    13
 -2.1252880436362063E-02 a       734     0    37     1    14
 -5.4914454260950228E-02 a       735     0    37     1    15
  5.4301665502024907E-02 a       736     0    37     1    16
 -1.3425663575462651E-01 a       737     0    37     1    17
  8.2457019328552303E-02 a       738     0    37     1    18
  3.1653786247554751E-02 a       739     0    37     1    19
 -2.3746406834136344E-02 a       740     0    37     1    20
 -3.2673528483663908E-02 a       741     0    38     1     1
  5.5826035103445408E-02 a       742     0    38     1     2
  1.4875435146532491E-03 a       743     0    38     1     3
 -2.6799949033687858E-02 a       744     0    38     1     4
 -2.1339832930017039E-02 a       745     0    38     1     5
  3.6609685104960203E-02 a       746     0    38     1     6
 -1.8812337024034332E-02 a       747     0    38     1     7
  2.1636754078470837E-03 a       748     0    38     1     8
 -2.4380117641598580E-02 a       749     0    38     1     9
  5.3961374852079490E-02 a       750     0    38     1    10
  4.8114032335937973E-02 a       751     0    38     1    11
  5.8923091175272425E-02 a       752     0    38     1    12
 -6.6017255936091118E-02 a       753     0    38     1    13
 -7.1439871585418868E-02 a       754     0    38     1    14
 -3.2723528132699110E-02 a       755     0    38     1    15
 -3.0587189228716453E-02 a       756     0    38     1    16
  1.3806211931336021E-01 a       757     0    38     1    17
 -3.9231732965848323E-04 a       758     0    38     1    18
  6.0621043006663274E-02 a       759     0    38     1    19
  2.3506963036814189E-02 a       760     0    38     1    20
  2.3709020048006863E-02 a       761     0    39     1     1
  5.0020062174228087E-02 a       762     0    39     1     2
  2.3135907440004450E-02 a       763     0    39     1     3
 -6.2749683741295526E-02 a       764     0    39     1     4
  3.4305087250221029E-02 a       765     0    39     1     5
  7.5078767301023530E-02 a       766     0    39     1     6
 -2.0254575507103503E-01 a       767     0    39     1     7
  5.2184122609256957E-02 a       768     0    39     1     8
  1.1364295625329198E-02 a       769     0    39     1     9
  6.5591951187173897E-02 a       770     0    39     1    10
  1.6566993515506612E-02 a       771     0    39     1    11
  9.2038875531722797E-02 a       772     0    39     1    12
 -8.9943311492443664E-03 a       773     0    39     1    13
 -9.5955470485572070E-02 a       774     0    39     1    14
  6.5630470450309966E-02 a       775     0    39     1    15
 -4.7391626507829979E-02 a       776     0    39     1    16
  5.0591175369357970E-02 a       777     0    39     1    17
 -1.5767570118263485E-01 a       778     0    39     1    18
 -7.0060207290437312E-02 a       779     0    39     1    19
 -7.6748686152708689E-02 a       780     0    39     1    20
  8.4451565715338017E-02 a       781     0    40     1     1
 -4.3285296780164247E-02 a       782     0    40     1     2
 -1.7133746579761664E-02 a       783     0    40     1     3
  5.0408054076916661E-02 a       784     0    40     1     4
  1.2631231806540763E-01 a       785     0    40     1     5
  3.3428570481324128E-03 a       786     0    40     1     6
  6.8519965574287533E-03 a       787     0    40     1     7
 -4.1496325053457669E-02 a       788     0    40     1     8
 -1.0544851134728750E-02 a       789     0    40     1     9
 -6.1065920882738389E-03 a       790     0    40     1    10
 -5.3397406626188399E-03 a       791     0    40     1    11
 -1.8913360359568154E-02 a       792     0    40     1    12
  2.0048818020954151E-02 a       793     0    40     1    13
  6.0755101638605265E-02 a       794     0    40     1    14
  1.7315089040484777E-03 a       795     0    40     1    15
  3.1289457102025728E-02 a       796     0    40     1    16
 -3.6489328690009412E-03 a       797     0    40     1    17
  5.0531941025832604E-02 a       798     0    40     1    18
  5.0180243516395245E-02 a       799     0    40     1    19
 -4.8581311563787137E-02 a       800     0    40     1    20
 -9.8644038111650456E-02 a       801     0    41     1     1
 -2.8683673088377923E-02 a       802     0    41     1     2
  1.8175610948328663E-01 a       803     0    41     1     3
 -1.1715089626500828E-01 a       804     0    41     1     4
  6.4042455393556838E-02 a       805     0    41     1     5
  2.1630850617121203E-01 a       806     0    41     1     6
  4.0893045463221908E-02 a       807     0    41     1     7
 -5.1571598907166338E-02 a       808     0    41     1     8
 -2.0446668516818445E-01 a       809     0    41     1     9
 -1.1382074136622437E-01 a       810     0    41     1    10
 -5.3709124428538965E-02 a       811     0    41     1    11
  1.7398463330864397E-01 a       812     0    41     1    12
 -1.6992290509926106E-01 a       813     0    41     1    13
  1.5637044344066906E-02 a       814     0    41     1    14
 -2.8673118837234185E-01 a       815     0    41     1    15
  1.1473723634257946E-01 a       816     0    41     1    16
 -1.0212941121176103E-01 a       817     0    41     1    17
  1.0658169497135499E-01 a       818     0    41     1    18
 -4.3639252845355830E-01 a       819     0    41     1    19
 -2.0984893580484160E-01 a       820     0    41     1    20
  1.1057353163986858E-01 a       821     0    42     1     1
 -4.2493833628018735E-01 a       822     0    42     1     2
 -1.1705637992607539E-01 a       823     0    42     1     3
 -1.2336925709777299E-01 a       824     0    42     1     4
 -1.2515326868252308E-01 a       825     0    42     1     5
 -2.6324810712784807E-01 a       826     0    42     1     6
 -4.1530244250015941E-01 a       827     0    42     1     7
  1.1155754264528096E-01 a       828     0    42     1     8
  8.1347566330469981E-02 a       829     0    42     1     9
 -2.4917654868372763E-02 a       830     0    42     1    10
  4.2651477206888616E-01 a       831     0    42     1    11
 -3.2380100924333199E-01 a       832     0    42     1    12
 -1.8339640239296856E-01 a       833     0    42     1    13
  2.8749234831335468E-01 a       834     0    42     1    14
  2.1773895051890776E-01 a       835     0    42     1    15
 -2.2314984785933503E-01 a       836     0    42     1    16
  8.5457850190902490E-02 a       837     0    42     1    17
 -1.8500297149678338E-01 a       838     0    42     1    18
  6.0020572733842825E-01 a       839     0    42     1    19
  9.0850943252185137E-02 a       840     0    42     1    20
 -1.3619441486960407E-01 a       841     0    43     1     1
  2.8325013906884099E-02 a       842     0    43     1     2
 -1.2674879241987997E-02 a       843     0    43     1     3
 -5.3749628781971440E-03 a       844     0    43     1     4
 -7.2741625179810934E-02 a       845     0    43     1     5
  2.1981845633231145E-01 a       846     0    43     1     6
 -9.5959578022526804E-02 a       847     0    43     1     7
  8.5700106392953071E-02 a       848     0    43     1     8
 -9.9397129403260662E-02 a       849     0    43     1     9
 -4.3517311195660789E-02 a       850     0    43     1    10
  5.3986153330808966E-02 a       851     0    43     1    11
  8.8801232581157963E-02 a       852     0    43     1    12
 -1.4056727779465727E-01 a       853     0    43     1    13
  5.9018826187870042E-02 a       854     0    43     1    14
  5.2509291431262345E-02 a       855     0    43     1    15
 -1.6571281197321708E-02 a       856     0    43     1    16
 -1.7397472923571550E-01 a       857     0    43     1    17
  4.1473861180352692E-02 a       858     0    43     1    18
 -3.4861736163319793E-02 a       859     0    43     1    19
  2.6095328635447227E-02 a       860     0    43     1    20
 -3.4936105228934249E-02 a       861     0    44     1     1
  3.3729226305235879E-02 a       862     0    44     1     2
  1.7792598276939804E-04 a       863     0    44     1     3
 -1.4088510098194093E-01 a       864     0    44     1     4
 -2.3615435468208659E-01 a       865     0    44     1     5
  1.0346579049262015E-01 a       866     0    44     1     6
 -1.2416603536750542E-01 a       867     0    44     1     7
  1.1793623425500478E-01 a       868     0    44     1     8
 -2.0943462198266274E-02 a       869     0    44     1     9
 -8.3887865155081703E-02 a       870     0    44     1    10
 -4.6225072946097651E-02 a       871     0    44     1    11
  1.2484211397276658E-02 a       872     0    44     1    12
  1.4393825115361197E-02 a       873     0    44     1    13
  2.1489307386584480E-01 a       874     0    44     1    14
 -7.3429368684518548E-02 a       875     0    44     1    15
  3.5376084731203974E-02 a       876     0    44     1    16
 -1.6225530613724506E-01 a       877     0    44     1    17
 -4.5636424125038218E-02 a       878     0    44     1    18
 -1.2508104981132920E-01 a       879     0    44     1    19
  6.0135794392347355E-02 a       880     0    44     1    20
  9.3766558922681986E-02 a       881     0    45     1     1
  1.6925344260589564E-01 a       882     0    45     1     2
  7.1996965870957455E-02 a       883     0    45     1     3
 -2.3315758435399123E-01 a       884     0    45     1     4
  2.4977822223482526E-01 a       885     0    45     1     5
  8.8992469666315757E-02 a       886     0    45     1     6
  3.1444408930206813E-01 a       887     0    45     1     7
 -2.5705866041944075E-01 a       888     0    45     1     8
 -2.9952978687095100E-01 a       889     0    45     1     9
 -2.3234467820087975E-02 a       890     0    45     1    10
 -3.4691805996392361E-01 a       891     0    45     1    11
 -3.5048952461769561E-02 a       892     0    45     1    12
  2.4516447426685578E-01 a       893     0    45     1    13
  7.9651585983729900E-02 a       894     0    45     1    14
  2.6389661567794771E-02 a       895     0    45     1    15
  2.6811641410594542E-02 a       896     0    45     1    16
  1.2049997325449067E-01 a       897     0    45     1    17
  7.9646221250660898E-02 a       898     0    45     1    18
 -4.4329171297153869E-01 a       899     0    45     1    19
 -5.6409804783659565E-03 a       900     0    45     1    20
  2.1594264766940757E-01 a       901     0    46     1     1
 -2.1775957627299841E-01 a       902     0    46     1     2
 -1.5745920475478892E-01 a       903     0    46     1     3
  1.6471902537492528E-01 a       904     0    46     1     4
  3.3997338577362500E-02 a       905     0    46     1     5
 -7.3977791434631110E-02 a       906     0    46     1     6
  1.5639144430934598E-01 a       907     0    46     1     7
  6.9337057177512929E-02 a       908     0    46     1     8
 -3.9704228306998324E-02 a       909     0    46     1     9
 -4.2036295823038063E-02 a       910     0    46     1    10
 -1.2925327502157180E-01 a       911     0    46     1    11
 -5.4887447123940898E-02 a       912     0    46     1    12
 -4.3738913264881329E-02 a       913     0    46     1    13
 -1.0179258049122421E-01 a       914     0    46     1    14
  1.5914135541512508E-02 a       915     0    46     1    15
 -2.7827593392923067E-02 a       916     0    46     1    16
 -3.2677313500865984E-01 a       917     0    46     1    17
 -1.3841444441341871E-01 a       918     0    46     1    18
  4.2916604983809496E-02 a       919     0    46     1    19
 -2.5671292562426645E-02 a       920     0    46     1    20
 -2.1369175163732562E-01 a       921     0    47     1     1
  1.1458320257732854E-01 a       922     0    47     1     2
  9.2021567886193686E-02 a       923     0    47     1     3
 -3.6629933169834705E-02 a       924     0    47     1     4
 -1.6081182366755518E-02 a       925     0    47     1     5
 -1.6756098752649051E-01 a       926     0    47     1     6
  8.8463326669764600E-02 a       927     0    47     1     7
 -9.8899368459324594E-02 a       928     0    47     1     8
  1.8103270859903067E-02 a       929     0    47     1     9
 -1.3370057087371687E-01 a       930     0    47     1    10
 -3.2401843619611609E-04 a       931     0    47     1    11
  2.4485240307914335E-02 a       932     0    47     1    12
  2.8779612323426084E-02 a       933     0    47     1    13
  2.3235817863642888E-01 a       934     0    47     1    14
  4.3582184228563331E-02 a       935     0    47     1    15
 -1.0704030149661234E-01 a       936     0    47     1    16
 -1.6795784339532077E-01 a       937     0    47     1    17
 -1.0501479304471933E-01 a       938     0    47     1    18
 -6.9559236288266962E-02 a       939     0    47     1    19
  9.4751498541210663E-02 a       940     0    47     1    20
 -1.1364698687369362E-01 a       941     0    48     1     1
 -1.9861828547812566E-01 a       942     0    48     1     2
 -1.1370564513545864E-01 a       943     0    48     1     3
 -8.1852486418473591E-02 a       944     0    48     1     4
  2.9584226919936024E-01 a       945     0    48     1     5
  8.1614422490747490E-02 a       946     0    48     1     6
 -2.0687955313077536E-01 a       947     0    48     1     7
 -1.0710115972216152E-03 a       948     0    48     1     8
  3.1742824482437371E-02 a       949     0    48     1     9
 -2.6297430948121286E-01 a       950     0    48     1    10
 -1.5965786009342252E-02 a       951     0    48     1    11
  2.4424837181375170E-02 a       952     0    48     1    12
 -3.8832225772560042E-02 a       953     0    48     1    13
 -6.3742252862203877E-02 a       954     0    48     1    14
 -1.0604165245007939E-01 a       955     0    48     1    15
  6.0505447781443164E-02 a       956     0    48     1    16
 -1.2586997130359612E-01 a       957     0    48     1    17
  8.5983207828460265E-02 a       958     0    48     1    18
  6.4453061477633911E-02 a       959     0    48     1    19
 -6.3996745097073579E-02 a       960     0    48     1    20
 -2.6841888080721499E-01 a       961     0    49     1     1
  3.2453938011375805E-01 a       962     0    49     1     2
  1.1949403922930299E-01 a       963     0    49     1     3
 -9.0240909671880046E-02 a       964     0    49     1     4
 -2.8895228242787496E-01 a       965     0    49     1     5
 -1.2867078444258412E-01 a       966     0    49     1     6
  1.5057962812738862E-01 a       967     0    49     1     7
  6.7404623317703763E-02 a       968     0    49     1     8
  1.6409170087633970E-01 a       969     0    49     1     9
  1.4991370071763016E-01 a       970     0    49     1    10
  2.1522609168047876E-01 a       971     0    49     1    11
 -9.0896194161474396E-03 a       972     0    49     1    12
  1.0330877885086168E-01 a       973     0    49     1    13
 -2.3356310512179645E-01 a       974     0    49     1    14
  2.8728625584724721E-01 a       975     0    49     1    15
 -8.9546934133652764E-02 a       976     0    49     1    16
  1.5534372931890285E-02 a       977     0    49     1    17
 -5.6659454955807771E-02 a       978     0    49     1    18
 -1.2790824036001926E-02 a       979     0    49     1    19
 -6.3465881597842069E-02 a       980     0    49     1    20
  4.9357939306179946E-02 a       981     0    50     1     1
 -3.1209834873315943E-02 a       982     0    50     1     2
 -1.1706578213637307E-01 a       983     0    50     1     3
 -1.7883398502882078E-01 a       984     0    50     1     4
  6.2267437567611723E-02 a       985     0    50     1     5
 -1.8289995178979193E-01 a       986     0    50     1     6
 -1.4583247360145907E-01 a       987     0    50     1     7
  2.7792179867683414E-01 a       988     0    50     1     8
  9.1077140738394069E-02 a       989     0    50     1     9
  1.2836773474028708E-02 a       990     0    50     1    10
 -7.2423471494621264E-02 a       991     0    50     1    11
 -1.1795999630283616E-01 a       992     0    50     1    12
 -1.1706875822165733E-02 a       993     0    50     1    13
 -1.3552130896167244E-01 a       994     0    50     1    14
 -5.4902826548534622E-02 a       995     0    50     1    15
  1.0534299630827239E-01 a       996     0    50     1    16
 -9.5691207938802311E-03 a       997     0    50     1    17
 -1.5483071692498129E-01 a       998     0    50     1    18
 -1.5838438278451369E-01 a       999     0    50     1    19
  1.2406907674422959E-01 a      1000     0    50     1    20
  2.3296992739325447E-02 a      1001     0    51     1     1
  2.9794490660344686E-01 a      1002     0    51     1     2
  8.5110212907043570E-02 a      1003     0    51     1     3
 -1.9779384374670337E-02 a      1004     0    51     1     4
 -1.5459077684795833E-01 a      1005     0    51     1     5
 -3.0762623389493097E-02 a      1006     0    51     1     6
 -2.6612691943330297E-01 a      1007     0    51     1     7
  1.9599740380366257E-01 a      1008     0    51     1     8
  5.6750328153704829E-02 a      1009     0    51     1     9
 -9.5004502445234923E-02 a      1010     0    51     1    10
 -3.5725549994288521E-03 a      1011     0    51     1    11
 -3.0835029703868044E-01 a      1012     0    51     1    12
  5.8434669987917728E-02 a      1013     0    51     1    13
 -5.1258983862917475E-02 a      1014     0    51     1    14
  2.0782870719271695E-04 a      1015     0    51     1    15
  2.8459923095703510E-01 a      1016     0    51     1    16
 -1.5903257084642022E-01 a      1017     0    51     1    17
  1.8257444603003986E-01 a      1018     0    51     1    18
  2.6966853640279859E-01 a      1019     0    51     1    19
  3.7448825343448988E-01 a      1020     0    51     1    20
  5.4486227048373956E-02 a      1021     0    52     1     1
  2.1754068022025058E-01 a      1022     0    52     1     2
  1.1454981037841026E-01 a      1023     0    52     1     3
  8.2316934786041143E-02 a      1024     0    52     1     4
  3.6919562992521160E-01 a      1025     0    52     1     5
  8.2853662725378793E-02 a      1026     0    52     1     6
  4.2822482387484173E-01 a      1027     0    52     1     7
  7.0877762531111929E-02 a      1028     0    52     1     8
  3.6045312246480998E-01 a      1029     0    52     1     9
 -3.2823954557816776E-01 a      1030     0    52     1    10
 -1.7854665814001033E-01 a      1031     0    52     1    11
  2.4696568020730711E-01 a      1032     0    52     1    12
 -5.0042569293099692E-01 a      1033     0    52     1    13
  1.2678026701875664E-01 a      1034     0    52     1    14
 -4.4337060432315854E-02 a      1035     0    52     1    15
 -2.3207517138495859E-01 a      1036     0    52     1    16
 -2.5654143295484816E-01 a      1037     0    52     1    17
  9.0970436230179853E-03 a      1038     0    52     1    18
 -6.0478486267509690E-01 a      1039     0    52     1    19
 -4.9626160356432203E-01 a      1040     0    52     1    20
 -3.7041200733338555E-03 a      1041     0    53     1     1
  4.5343972133924076E-02 a      1042     0    53     1     2
  8.6268383363739723E-02 a      1043     0    53     1     3
  1.9724269418167899E-02 a      1044     0    53     1     4
  6.2555765831686622E-02 a      1045     0    53     1     5
 -1.1125470337863048E-01 a      1046     0    53     1     6
 -6.4936426827267565E-02 a      1047     0    53     1     7
 -9.4293729742205165E-02 a      1048     0    53     1     8
  8.5596747837932627E-02 a      1049     0    53     1     9
  7.9678034701370026E-02 a      1050     0    53     1    10
  6.1325935941551569E-03 a      1051     0    53     1    11
 -1.0154946453403181E-01 a      1052     0    53     1    12
  8.3048417597658464E-02 a      1053     0    53     1    13
  1.8738424717836741E-01 a      1054     0    53     1    14
 -6.8284383720588537E-02 a      1055     0    53     1    15
  1.6173076547054209E-03 a      1056     0    53     1    16
 -5.9257469002382934E-02 a      1057     0    53     1    17
  2.0840404330652931E-01 a      1058     0    53     1    18
 -4.3578850030183316E-02 a      1059     0    53     1    19
  1.4205984627422907E-02 a      1060     0    53     1    20
  2.1108978493918382E-01 a      1061     0    54     1     1
  2.9251625354474110E-02 a      1062     0    54     1     2
  2.7228188127202568E-02 a      1063     0    54     1     3
  1.4508616969288055E-01 a      1064     0    54     1     4
  1.4537073509901047E-01 a      1065     0    54     1     5
  1.3270896792739686E-01 a      1066     0    54     1     6
 -1.7360684094267265E-02 a      1067     0    54     1     7
 -1.8984969940504307E-02 a      1068     0    54     1     8
 -5.9257834889757327E-03 a      1069     0    54     1     9
 -8.4536213818621461E-02 a      1070     0    54     1    10
 -5.5321758896941839E-02 a      1071     0    54     1    11
 -9.5069019565564614E-02 a      1072     0    54     1    12
 -1.1381010586103847E-01 a      1073     0    54     1    13
 -2.6190353566256280E-01 a      1074     0    54     1    14
  4.5544017646623067E-02 a      1075     0    54     1    15
  2.6291312698618202E-02 a      1076     0    54     1    16
  7.8523621889962258E-02 a      1077     0    54     1    17
  1.5486339432829058E-01 a      1078     0    54     1    18
  7.2105522729417173E-03 a      1079     0    54     1    19
 -4.1805443699818687E-02 a      1080     0    54     1    20
 -1.1481143310250637E-01 a      1081     0    55     1     1
 -1.6804625812144017E-01 a      1082     0    55     1     2
 -8.4075362075055712E-02 a      1083     0    55     1     3
  1.5653207920026932E-01 a      1084     0    55     1     4
 -5.1256094649814336E-02 a      1085     0    55     1     5
  7.5784233599773890E-02 a      1086     0    55     1     6
 -1.7216508533240427E-01 a      1087     0    55     1     7
 -7.5258303393771459E-02 a      1088     0    55     1     8
 -3.9836683988099905E-02 a      1089     0    55     1     9
  8.2584261672186410E-02 a      1090     0    55     1    10
 -2.1727563804896141E-02 a      1091     0    55     1    11
  6.8577036891619619E-02 a      1092     0    55     1    12
  1.6213449403363143E-02 a      1093     0    55     1    13
 -2.5372554801791486E-01 a      1094     0    55     1    14
 -6.1695112501387907E-02 a      1095     0    55     1    15
  2.9861895339000277E-03 a      1096     0    55     1    16
 -7.4715792332749512E-02 a      1097     0    55     1    17
  1.3561027319043295E-01 a      1098     0    55     1    18
  3.1364492053741738E-01 a      1099     0    55     1    19
  2.4717982409703032E-01 a      1100     0    55     1    20
  5.9301391586149714E-02 a      1101     0    56     1     1
  1.0349687103947042E-01 a      1102     0    56     1     2
 -2.3221216769572412E-02 a      1103     0    56     1     3
 -5.8882745434379706E-02 a      1104     0    56     1     4
 -8.5886810817628646E-03 a      1105     0    56     1     5
 -1.3168969983485494E-02 a      1106     0    56     1     6
 -3.6844692926198706E-02 a      1107     0    56     1     7
 -1.3633791425789040E-02 a      1108     0    56     1     8
  2.8072779953932543E-03 a      1109     0    56     1     9
 -6.0783335752752778E-02 a      1110     0    56     1    10
  5.3340422014429019E-02 a      1111     0    56     1    11
  7.2985156203419846E-02 a      1112     0    56     1    12
  7.4261099786716439E-02 a      1113     0    56     1    13
  4.6178446324205681E-02 a      1114     0    56     1    14
  1.1665867449223967E-02 a      1115     0    56     1    15
  2.2707004363838552E-02 a      1116     0    56     1    16
  1.4573145113873934E-01 a      1117     0    56     1    17
  1.4542138101332178E-01 a      1118     0    56     1    18
  9.5726024766842277E-02 a      1119     0    56     1    19
  2.5669578370892898E-02 a      1120     0    56     1    20
  2.2166495851334045E-01 a      1121     0    57     1     1
 -1.4619109671015337E-01 a      1122     0    57     1     2
 -4.6498016888094372E-02 a      1123     0    57     1     3
  1.3570853109719402E-01 a      1124     0    57     1     4
 -3.6490656736424716E-02 a      1125     0    57     1     5
  1.1398132495169550E-01 a      1126     0    57     1     6
  2.2688842784615545E-01 a      1127     0    57     1     7
 -1.3292666453324855E-02 a      1128     0    57     1     8
 -2.4420697447371680E-02 a      1129     0    57     1     9
  5.7935786487920284E-02 a      1130     0    57     1    10
 -8.9360410849224515E-03 a      1131     0    57     1    11
  3.6708773870272715E-02 a      1132     0    57     1    12
  6.2647934868654762E-02 a      1133     0    57     1    13
  9.6063453963802128E-02 a      1134     0    57     1    14
  1.9247600517027032E-02 a      1135     0    57     1    15
  5.7962950113280697E-02 a      1136     0    57     1    16
  3.8070361456025020E-02 a      1137     0    57     1    17
 -6.3627103292889248E-03 a      1138     0    57     1    18
  1.3150931066943473E-02 a      1139     0    57     1    19
 -4.3510255773418693E-03 a      1140     0    57     1    20
 -1.3878084706561641E-01 a      1141     0    58     1     1
  2.2988749957744470E-02 a      1142     0    58     1     2
  2.3819124686989265E-01 a      1143     0    58     1     3
 -1.1280525742463757E-01 a      1144     0    58     1     4
 -1.9321769592766780E-01 a      1145     0    58     1     5
 -1.1019967527324514E-02 a      1146     0    58     1     6
  1.0670381544576681E-01 a      1147     0    58     1     7
 -1.3957249852898818E-01 a      1148     0    58     1     8
 -1.8908259939158137E-01 a      1149     0    58     1     9
  1.6942337975423005E-01 a      1150     0    58     1    10
  1.2250480693660491E-02 a      1151     0    58     1    11
 -2.9725794931652349E-02 a      1152     0    58     1    12
 -9.2011090731507011E-02 a      1153     0    58     1    13
  5.3238545681069505E-02 a      1154     0    58     1    14
  4.2812828114711259E-02 a      1155     0    58     1    15
 -2.7774327629819656E-01 a      1156     0    58     1    16
  1.1063945613242013E-01 a      1157     0    58     1    17
 -2.8673288793416618E-01 a      1158     0    58     1    18
 -1.0020899130829229E-01 a      1159     0    58     1    19
 -1.5180394954462484E-03 a      1160     0    58     1    20
  4.6982296607393136E-02 a      1161     0    59     1     1
 -1.4571398322457313E-01 a      1162     0    59     1     2
 -1.2366964494225775E-01 a      1163     0    59     1     3
  8.9206082688546989E-02 a      1164     0    59     1     4
 -2.5437905363399543E-01 a      1165     0    59     1     5
  2.2987623087769352E-01 a      1166     0    59     1     6
  2.2723772702157394E-01 a      1167     0    59     1     7
 -2.0587948748359668E-02 a      1168     0    59     1     8
 -2.0411119834422534E-01 a      1169     0    59     1     9
 -3.6863444457799113E-02 a      1170     0    59     1    10
  1.4292318417684899E-02 a      1171     0    59     1    11
 -1.2631585880727192E-01 a      1172     0    59     1    12
 -9.9195432942658077E-02 a      1173     0    59     1    13
 -7.3377413247701043E-02 a      1174     0    59     1    14
 -2.0482830695124968E-01 a      1175     0    59     1    15
 -6.7650101879181218E-02 a      1176     0    59     1    16
  8.9143675963905003E-02 a      1177     0    59     1    17
 -6.3361867719660597E-02 a      1178     0    59     1    18
  2.0570359135848310E-01 a      1179     0    59     1    19
 -5.2648958977026608E-02 a      1180     0    59     1    20
  1.8745369643004901E-02 a      1181     0    60     1     1
 -4.5686089888644608E-02 a      1182     0    60     1     2
  1.2519664269068209E-01 a      1183     0    60     1     3
  1.7034846935624118E-01 a      1184     0    60     1     4
  2.9347463615487061E-02 a      1185     0    60     1     5
 -2.2926887969630416E-01 a      1186     0    60     1     6
  2.6455869377631036E-01 a      1187     0    60     1     7
 -3.1590279892796891E-01 a      1188     0    60     1     8
  2.3463029011005923E-01 a      1189     0    60     1     9
 -1.1008464911402757E-01 a      1190     0    60     1    10
  1.9653061568673361E-01 a      1191     0    60     1    11
 -9.5143685031943676E-02 a      1192     0    60     1    12
 -1.6371125476427287E-02 a      1193     0    60     1    13
  2.1962975723984626E-01 a      1194     0    60     1    14
  9.5809665662401622E-02 a      1195     0    60     1    15
  8.3002636275929742E-02 a      1196     0    60     1    16
 -1.6579520236968906E-01 a      1197     0    60     1    17
 -4.4668230990083470E-02 a      1198     0    60     1    18
  8.0447524246447522E-02 a      1199     0    60     1    19
 -1.7370753375156239E-01 a      1200     0    60     1    20
 -1.1756642734407348E-01 a      1201     0    61     1     1
 -2.6881013259906758E-02 a      1202     0    61     1     2
  1.0193473538414552E-02 a      1203     0    61     1     3
  1.0389111068335570E-01 a      1204     0    61     1     4
 -7.0965568636961060E-02 a      1205     0    61     1     5
  1.2136528803522108E-01 a      1206     0    61     1     6
 -2.2410204409035076E-02 a      1207     0    61     1     7
  4.6793340745201702E-02 a      1208     0    61     1     8
  4.4724540545760076E-02 a      1209     0    61     1     9
 -8.1304357830872490E-02 a      1210     0    61     1    10
 -1.6557501651242503E-02 a      1211     0    61     1    11
  3.4580419979488249E-02 a      1212     0    61     1    12
  4.8907133801298880E-02 a      1213     0    61     1    13
  1.1701642653335545E-01 a      1214     0    61     1    14
 -1.0583976726849041E-01 a      1215     0    61     1    15
 -1.1383560829873286E-02 a      1216     0    61     1    16
 -2.4732574935342622E-01 a      1217     0    61     1    17
 -1.3535937925720450E-02 a      1218     0    61     1    18
 -2.5408342005365847E-02 a      1219     0    61     1    19
 -1.3217440892922296E-02 a      1220     0    61     1    20
 -2.7551535505630238E-02 a      1221     0    62     1     1
  4.8461725785269624E-02 a      1222     0    62     1     2
 -1.6499175132881252E-02 a      1223     0    62     1     3
  3.7540562100405857E-02 a      1224     0    62     1     4
  4.9480922155698694E-02 a      1225     0    62     1     5
  1.3579621949558174E-01 a      1226     0    62     1     6
 -1.7909986133146918E-01 a      1227     0    62     1     7
  8.9825117368207003E-02 a      1228     0    62     1     8
  2.6845049347229720E-02 a      1229     0    62     1     9
 -2.3043747066817702E-01 a      1230     0    62     1    10
  1.9012636362233283E-04 a      1231     0    62     1    11
  1.9227153223469540E-01 a      1232     0    62     1    12
 -1.0432639144645386E-01 a      1233     0    62     1    13
 -2.0369677860616645E-01 a      1234     0    62     1    14
 -6.0977290655968922E-02 a      1235     0    62     1    15
 -1.0556636181961854E-01 a      1236     0    62     1    16
 -3.7646458235864030E-02 a      1237     0    62     1    17
 -2.2481682443388024E-01 a      1238     0    62     1    18
 -4.8332298986166707E-02 a      1239     0    62     1    19
 -1.0910264138919955E-01 a      1240     0    62     1    20
 -3.3257854531207887E-02 a      1241     0    63     1     1
 -9.7704440355538519E-02 a      1242     0    63     1     2
  2.1674136120239624E-02 a      1243     0    63     1     3
 -1.9424709300790619E-01 a      1244     0    63     1     4
  1.0945559807827462E-01 a      1245     0    63     1     5
 -8.9331127217158399E-02 a      1246     0    63     1     6
 -5.2413852119513112E-02 a      1247     0    63     1     7
 -6.8974882682002261E-02 a      1248     0    63     1     8
  1.1011813414827508E-01 a      1249     0    63     1     9
 -1.9433255799083790E-01 a      1250     0    63     1    10
  5.6556070003446861E-02 a      1251     0    63     1    11
 -2.3371899445403858E-02 a      1252     0    63     1    12
  1.0827430670443419E-01 a      1253     0    63     1    13
  2.1157823389844552E-01 a      1254     0    63     1    14
 -1.7041147695947692E-01 a      1255     0    63     1    15
 -3.8817742014284264E-02 a      1256     0    63     1    16
  1.8573395765328671E-01 a      1257     0    63     1    17
  6.1410438641956826E-02 a      1258     0    63     1    18
 -7.7838867398131409E-02 a      1259     0    63     1    19
 -1.9576868729557279E-01 a      1260     0    63     1    20
 -1.9624609334269114E-01 a      1261     0    64     1     1
 -3.1909816221894670E-02 a      1262     0    64     1     2
 -5.3604765219895573E-02 a      1263     0    64     1     3
  1.7741708848005580E-01 a      1264     0    64     1     4
 -2.7489047926655791E-01 a      1265     0    64     1     5
 -4.8734991942753499E-02 a      1266     0    64     1     6
 -8.1396666345084911E-02 a      1267     0    64     1     7
  2.2686030213299560E-01 a      1268     0    64     1     8
  2.1197693495046552E-01 a      1269     0    64     1     9
  1.5946859908814895E-01 a      1270     0    64     1    10
 -1.0507199862230387E-01 a      1271     0    64     1    11
  2.8932372100129133E-01 a      1272     0    64     1    12
  2.5634932906950936E-01 a      1273     0    64     1    13
  1.1383371744321280E-01 a      1274     0    64     1    14
 -7.8041334970569670E-02 a      1275     0    64     1    15
  9.8095606663254425E-02 a      1276     0    64     1    16
 -7.7516507135252646E-03 a      1277     0    64     1    17
  1.6753550014275725E-01 a      1278     0    64     1    18
 -1.0072530147255841E-01 a      1279     0    64     1    19
 -1.8913566349845085E-01 a      1280     0    64     1    20
  8.4276814035817733E-03 a      1281     0    65     1     1
 -1.4361954105564709E-02 a      1282     0    65     1     2
  1.0310710010284853E-01 a      1283     0    65     1     3
  5.5276126341673545E-02 a      1284     0    65     1     4
  2.6130638107220286E-02 a      1285     0    65     1     5
  3.0500553527568811E-02 a      1286     0    65     1     6
 -1.2112213220456616E-01 a      1287     0    65     1     7
 -1.1296279664881131E-01 a      1288     0    65     1     8
  7.1722320489679787E-03 a      1289     0    65     1     9
  1.3839658382332604E-01 a      1290     0    65     1    10
 -1.0918797560037920E-01 a      1291     0    65     1    11
  4.2061667231970218E-02 a      1292     0    65     1    12
 -1.5994402133801947E-01 a      1293     0    65     1    13
  7.8198213779675313E-02 a      1294     0    65     1    14
  5.2502383462014968E-02 a      1295     0    65     1    15
 -1.5636015962935380E-02 a      1296     0    65     1    16
 -2.3641754144568777E-01 a      1297     0    65     1    17
  7.3359387765987646E-02 a      1298     0    65     1    18
  2.2793790011347983E-02 a      1299     0    65     1    19
  1.5752594033770401E-01 a      1300     0    65     1    20
  2.1925313061829613E-02 a      1301     0    66     1     1
  1.9206952882994718E-01 a      1302     0    66     1     2
  9.3493636400550084E-02 a      1303     0    66     1     3
 -2.2707908702201612E-01 a      1304     0    66     1     4
  1.2414495528323520E-01 a      1305     0    66     1     5
 -3.0708365041354257E-01 a      1306     0    66     1     6
 -1.9644181125062490E-01 a      1307     0    66     1     7
 -1.4682459886400706E-01 a      1308     0    66     1     8
 -1.7169605169619850E-02 a      1309     0    66     1     9
  1.9851768765322278E-01 a      1310     0    66     1    10
  7.9692339438452615E-03 a      1311     0    66     1    11
  1.4643014648606939E-01 a      1312     0    66     1    12
  1.6405878478279439E-02 a      1313     0    66     1    13
  1.1357005102286634E-01 a      1314     0    66     1    14
  1.9220981444187969E-02 a      1315     0    66     1    15
 -7.5710248323601279E-02 a      1316     0    66     1    16
  2.5366925940141549E-01 a      1317     0    66     1    17
 -2.5349194453868101E-01 a      1318     0    66     1    18
  1.3838823887256906E-03 a      1319     0    66     1    19
 -1.1451563594272124E-01 a      1320     0    66     1    20
  8.7926043684309771E-02 a      1321     0    67     1     1
 -1.2003721392533852E-01 a      1322     0    67     1     2
 -3.6463001416651354E-02 a      1323     0    67     1     3
 -1.8006596726473055E-02 a      1324     0    67     1     4
  1.8673407871581445E-02 a      1325     0    67     1     5
  1.9346555908775911E-01 a      1326     0    67     1     6
  6.9000137894469682E-02 a      1327     0    67     1     7
  1.6378765054552026E-02 a      1328     0    67     1     8
 -1.0131082123099756E-01 a      1329     0    67     1     9
 -8.8716997857424040E-02 a      1330     0    67     1    10
  3.2271485691647832E-02 a      1331     0    67     1    11
  1.1837224834494997E-01 a      1332     0    67     1    12
 -2.8101655273906029E-02 a      1333     0    67     1    13
  1.7861613568141138E-01 a      1334     0    67     1    14
  5.2179785859482776E-02 a      1335     0    67     1    15
 -4.0063817579315077E-02 a      1336     0    67     1    16
  1.7621697521752233E-01 a      1337     0    67     1    17
  9.7069295838422082E-02 a      1338     0    67     1    18
  1.1145600198007329E-01 a      1339     0    67     1    19
  4.5959657220084153E-02 a      1340     0    67     1    20
 -8.8130737620921024E-02 a      1341     0    68     1     1
  1.1015137595279753E-01 a      1342     0    68     1     2
 -1.0866192367586247E-01 a      1343     0    68     1     3
  5.8488682114712441E-02 a      1344     0    68     1     4
  1.6657190413039463E-02 a      1345     0    68     1     5
 -4.8423621255183937E-02 a      1346     0    68     1     6
 -4.8977723717169340E-03 a      1347     0    68     1     7
  1.0582272104931002E-01 a      1348     0    68     1     8
 -3.4686317543728001E-02 a      1349     0    68     1     9
  1.0656330486156260E-01 a      1350     0    68     1    10
 -7.8232420984175547E-03 a      1351     0    68     1    11
  1.3576694075341550E-03 a      1352     0    68     1    12
  1.1233484936049670E-02 a      1353     0    68     1    13
 -1.9688935973433044E-01 a      1354     0    68     1    14
 -1.0479801373368827E-01 a      1355     0    68     1    15
  1.7557405728220243E-01 a      1356     0    68     1    16
  5.3455102586308714E-02 a      1357     0    68     1    17
  2.2406685440652972E-02 a      1358     0    68     1    18
  1.2159409997910474E-01 a      1359     0    68     1    19
  3.2312185614076297E-02 a      1360     0    68     1    20
  1.8476587576511910E-01 a      1361     0    69     1     1
  6.0254875648609055E-02 a      1362     0    69     1     2
  1.0191754497741820E-01 a      1363     0    69     1     3
 -8.8893718688433876E-02 a      1364     0    69     1     4
 -1.9013377530855444E-04 a      1365     0    69     1     5
 -1.3837260637732571E-03 a      1366     0    69     1     6
 -1.1431205501499257E-01 a      1367     0    69     1     7
 -7.6515080981508554E-02 a      1368     0    69     1     8
  9.0772494697251488E-02 a      1369     0    69     1     9
  1.3101787380637175E-01 a      1370     0    69     1    10
 -3.6687565632275619E-02 a      1371     0    69     1    11
  2.6403197549475708E-02 a      1372     0    69     1    12
  8.1041095853808448E-02 a      1373     0    69     1    13
 -1.3624775453576074E-01 a      1374     0    69     1    14
 -1.0275731652739876E-01 a      1375     0    69     1    15
 -1.7786664466988214E-01 a      1376     0    69     1    16
  1.4479188071650648E-01 a      1377     0    69     1    17
  1.4129236483171449E-02 a      1378     0    69     1    18
 -6.0502765072635932E-02 a      1379     0    69     1    19
 -1.3446892418857101E-01 a      1380     0    69     1    20
 -1.2633221713718079E-01 a      1381     0    70     1     1
 -1.8742808038488812E-01 a      1382     0    70     1     2
  8.3421614685913036E-03 a      1383     0    70     1     3
  6.9663466916099939E-02 a      1384     0    70     1     4
 -6.7532422323822699E-02 a      1385     0    70     1     5
  2.1523234736888144E-01 a      1386     0    70     1     6
 -1.9389057958228102E-02 a      1387     0    70     1     7
  9.8179196464919950E-03 a      1388     0    70     1     8
 -1.0130231550764016E-01 a      1389     0    70     1     9
  1.4412751315077818E-01 a      1390     0    70     1    10
  1.4147709137303354E-02 a      1391     0    70     1    11
  1.2023920920547328E-01 a      1392     0    70     1    12
 -1.1874329094951318E-01 a      1393     0    70     1    13
  8.7452194357752283E-02 a      1394     0    70     1    14
  1.7891947792331891E-01 a      1395     0    70     1    15
  2.9510040724016650E-02 a      1396     0    70     1    16
 -1.5235006311575494E-01 a      1397     0    70     1    17
  6.8556536227772233E-02 a      1398     0    70     1    18
  4.5819474950648878E-02 a      1399     0    70     1    19
  5.0087242031642380E-02 a      1400     0    70     1    20
 -6.2248429394987891E-02 a      1401     0    71     1     1
 -8.9302380581622001E-02 a      1402     0    71     1     2
 -8.0498562519739733E-02 a      1403     0    71     1     3
 -6.9947193916184466E-02 a      1404     0    71     1     4
  1.8992956153016663E-01 a      1405     0    71     1     5
 -1.6372220017629321E-01 a      1406     0    71     1     6
  6.0476272644513974E-02 a      1407     0    71     1     7
 -5.6127799955147772E-02 a      1408     0    71     1     8
  1.1226224685254869E-01 a      1409     0    71     1     9
  2.6823343814398104E-01 a      1410     0    71     1    10
  9.8317045476602707E-02 a      1411     0    71     1    11
  1.0318472433099488E-01 a      1412     0    71     1    12
  1.1164558951819432E-02 a      1413     0    71     1    13
 -7.7834788697243454E-03 a      1414     0    71     1    14
  6.5292208380704209E-03 a      1415     0    71     1    15
 -1.1623612057003323E-01 a      1416     0    71     1    16
  7.9131765085365069E-02 a      1417     0    71     1    17
 -8.1228434428447668E-02 a      1418     0    71     1    18
 -4.4130511938486931E-02 a      1419     0    71     1    19
 -1.7966689406472378E-01 a      1420     0    71     1    20
  2.2506931416397133E-01 a      1421     0    72     1     1
  7.8722611659172007E-02 a      1422     0    72     1     2
  2.5905945256949996E-02 a      1423     0    72     1     3
  2.6630783340653946E-01 a      1424     0    72     1     4
 -2.2555815925547784E-01 a      1425     0    72     1     5
 -2.1558456858683117E-01 a      1426     0    72     1     6
 -2.0137989917177987E-01 a      1427     0    72     1     7
 -7.1302380490955311E-03 a      1428     0    72     1     8
 -2.4970620897688600E-01 a      1429     0    72     1     9
 -3.9443868892057109E-02 a      1430     0    72     1    10
 -1.4564691510495142E-01 a      1431     0    72     1    11
 -3.2673239266272974E-01 a      1432     0    72     1    12
  7.1137580859714145E-01 a      1433     0    72     1    13
 -2.9855660031191267E-01 a      1434     0    72     1    14
  1.7975343981417660E-01 a      1435     0    72     1    15
  5.0844826938972132E-01 a      1436     0    72     1    16
 -1.3895048813972122E-01 a      1437     0    72     1    17
 -8.9363698873706501E-02 a      1438     0    72     1    18
  3.5229535476645859E-04 a      1439     0    72     1    19
 -1.1402440660349528E-02 a      1440     0    72     1    20
  4.1152329088442331E-02 a      1441     0    73     1     1
 -8.4574764966809823E-02 a      1442     0    73     1     2
 -4.6871771349274581E-02 a      1443     0    73     1     3
  2.6895505175003491E-02 a      1444     0    73     1     4
 -1.3405899953008890E-01 a      1445     0    73     1     5
  3.1769536449879988E-02 a      1446     0    73     1     6
  4.9232242940293068E-02 a      1447     0    73     1     7
  8.4526168634976639E-02 a      1448     0    73     1     8
 -1.2016641156985846E-02 a      1449     0    73     1     9
  2.8996634990427230E-02 a      1450     0    73     1    10
  7.9872036816829670E-03 a      1451     0    73     1    11
  1.8338580847168454E-01 a      1452     0    73     1    12
  3.4052074636484790E-02 a      1453     0    73     1    13
 -4.6563049181458885E-02 a      1454     0    73     1    14
  1.1687309871115865E-01 a      1455     0    73     1    15
  7.8152938376104056E-03 a      1456     0    73     1    16
 -7.4389014455373451E-02 a      1457     0    73     1    17
 -4.7282951584959591E-02 a      1458     0    73     1    18
 -3.0864536042267229E-02 a      1459     0    73     1    19
 -6.2047803856377828E-02 a      1460     0    73     1    20
 -1.0533559976407107E-01 a      1461     0    74     1     1
 -1.0314486927633076E-02 a      1462     0    74     1     2
 -5.8422312713175467E-02 a      1463     0    74     1     3
 -4.2834906938761859E-02 a      1464     0    74     1     4
  7.5608097354685225E-02 a      1465     0    74     1     5
 -1.1732334241753220E-01 a      1466     0    74     1     6
  1.0597079727398122E-01 a      1467     0    74     1     7
  9.0454862113923690E-03 a      1468     0    74     1     8
 -3.1248345576932899E-03 a      1469     0    74     1     9
 -1.5427106120885123E-01 a      1470     0    74     1    10
  3.5757574999165223E-02 a      1471     0    74     1    11
 -1.3551863718130069E-01 a      1472     0    74     1    12
 -2.0209595444186872E-02 a      1473     0    74     1    13
 -1.9913150327426826E-01 a      1474     0    74     1    14
 -1.2293592699716818E-01 a      1475     0    74     1    15
  9.7455458838869510E-02 a      1476     0    74     1    16
 -3.5761359919182438E-02 a      1477     0    74     1    17
 -1.1710966686287570E-01 a      1478     0    74     1    18
  1.1958749322133409E-01 a      1479     0    74     1    19
 -7.3565804111031001E-03 a      1480     0    74     1    20
 -2.2463302794195708E-01 a      1481     0    75     1     1
  2.6175441779138907E-02 a      1482     0    75     1     2
  5.0102756708261142E-02 a      1483     0    75     1     3
 -1.4254895435631759E-01 a      1484     0    75     1     4
  6.4476594714381996E-02 a      1485     0    75     1     5
  6.8618803682003973E-02 a      1486     0    75     1     6
  3.3080458009827583E-02 a      1487     0    75     1     7
 -1.9797037080950035E-02 a      1488     0    75     1     8
 -7.3806649582951050E-03 a      1489     0    75     1     9
 -1.2529486679879057E-01 a      1490     0    75     1    10
  1.2756692680935547E-01 a      1491     0    75     1    11
 -3.5902661384394303E-02 a      1492     0    75     1    12
 -1.0037623608149372E-01 a      1493     0    75     1    13
 -5.1437716112290679E-04 a      1494     0    75     1    14
 -8.3421759902463193E-05 a      1495     0    75     1    15
 -1.3320186255796196E-01 a      1496     0    75     1    16
 -1.9660800172029067E-02 a      1497     0    75     1    17
 -1.7363255525415988E-01 a      1498     0    75     1    18
 -5.0053813214448219E-02 a      1499     0    75     1    19
 -1.4342932031735364E-01 a      1500     0    75     1    20
 -1.2175877955785801E-01 a      1501     0    76     1     1
 -4.1103495634670188E-02 a      1502     0    76     1     2
  6.4491149625034758E-02 a      1503     0    76     1     3
 -1.2305419210749281E-02 a      1504     0    76     1     4
 -5.6947077925228205E-02 a      1505     0    76     1     5
  6.6505261464401277E-02 a      1506     0    76     1     6
  1.4189267582715961E-02 a      1507     0    76     1     7
 -5.2778832500577313E-02 a      1508     0    76     1     8
 -3.1552826409826408E-02 a      1509     0    76     1     9
 -2.6243294498459975E-02 a      1510     0    76     1    10
 -1.4475252473962551E-02 a      1511     0    76     1    11
 -1.6505450246198239E-01 a      1512     0    76     1    12
 -1.4594036581886452E-01 a      1513     0    76     1    13
 -6.2653900413317490E-02 a      1514     0    76     1    14
 -2.5884472135430756E-02 a      1515     0    76     1    15
 -8.4491704168559598E-02 a      1516     0    76     1    16
 -1.4335968170309799E-01 a      1517     0    76     1    17
 -6.2597379722544352E-02 a      1518     0    76     1    18
 -5.9749708833093752E-02 a      1519     0    76     1    19
  1.4502395160667378E-01 a      1520     0    76     1    20
  1.9402414290062350E-01 a      1521     0    77     1     1
  2.0112279581765868E-02 a      1522     0    77     1     2
 -5.6276984782162198E-02 a      1523     0    77     1     3
 -9.1358245488761813E-02 a      1524     0    77     1     4
  9.3147357312810014E-02 a      1525     0    77     1     5
 -2.2134574464395299E-01 a      1526     0    77     1     6
  1.0866658661894406E-01 a      1527     0    77     1     7
 -1.5632100469217505E-02 a      1528     0    77     1     8
 -3.4401032251413943E-02 a      1529     0    77     1     9
  1.0289857263188776E-01 a      1530     0    77     1    10
 -1.3736305079884301E-02 a      1531     0    77     1    11
  1.5309507982753001E-01 a      1532     0    77     1    12
  3.9750228276024376E-02 a      1533     0    77     1    13
  8.3714042313031256E-02 a      1534     0    77     1    14
  3.6558656960946942E-02 a      1535     0    77     1    15
 -3.0164136801169941E-02 a      1536     0    77     1    16
  2.4911520673694959E-01 a      1537     0    77     1    17
 -2.5905410023033765E-01 a      1538     0    77     1    18
  6.9988202036388905E-02 a      1539     0    77     1    19
 -1.4267102302271578E-02 a      1540     0    77     1    20
 -4.1582100532376681E-02 a      1541     0    78     1     1
  1.1036341496380797E-01 a      1542     0    78     1     2
 -4.6498119650615906E-02 a      1543     0    78     1     3
  5.7580982433245179E-02 a      1544     0    78     1     4
 -6.4989674701085451E-02 a      1545     0    78     1     5
  1.4863056867632346E-02 a      1546     0    78     1     6
 -1.2978086285003856E-01 a      1547     0    78     1     7
  1.8313460831808720E-01 a      1548     0    78     1     8
  1.0110482557656321E-01 a      1549     0    78     1     9
  1.4711548661505400E-01 a      1550     0    78     1    10
 -4.8925771884526348E-02 a      1551     0    78     1    11
  1.2906933158521897E-01 a      1552     0    78     1    12
 -6.8311205187513269E-02 a      1553     0    78     1    13
 -1.5231056809288315E-01 a      1554     0    78     1    14
  1.0140832995354689E-01 a      1555     0    78     1    15
  1.3557233890968742E-01 a      1556     0    78     1    16
 -1.0518920371431628E-01 a      1557     0    78     1    17
  7.6024361802949539E-02 a      1558     0    78     1    18
 -5.2443336228246366E-02 a      1559     0    78     1    19
  1.4274810210633848E-02 a      1560     0    78     1    20
  3.7638289984834601E-02 a      1561     0    79     1     1
 -6.0339722145647562E-02 a      1562     0    79     1     2
 -1.0717630300592050E-01 a      1563     0    79     1     3
 -1.6876674683102666E-01 a      1564     0    79     1     4
  1.7071503262582399E-01 a      1565     0    79     1     5
 -9.0683838447481596E-02 a      1566     0    79     1     6
  5.7929611198459435E-02 a      1567     0    79     1     7
  6.5217130937827029E-04 a      1568     0    79     1     8
  1.2437649906980434E-01 a      1569     0    79     1     9
 -2.7823874576503243E-02 a      1570     0    79     1    10
  9.7780263908198606E-02 a      1571     0    79     1    11
 -2.3508200341070047E-02 a      1572     0    79     1    12
  2.8263215117779911E-01 a      1573     0    79     1    13
  2.4388561616605764E-01 a      1574     0    79     1    14
 -1.2311170853153400E-03 a      1575     0    79     1    15
  5.7525217148451269E-02 a      1576     0    79     1    16
 -1.4264083941053407E-01 a      1577     0    79     1    17
  5.8700260874016100E-02 a      1578     0    79     1    18
  2.0840064720737644E-01 a      1579     0    79     1    19
  2.4060173609138619E-01 a      1580     0    79     1    20
  3.9429683017034624E-02 a      1581     0    80     1     1
 -6.5662103835329860E-02 a      1582     0    80     1     2
 -5.5550454728631939E-02 a      1583     0    80     1     3
 -6.6147176146538575E-02 a      1584     0    80     1     4
  1.0931687932849552E-02 a      1585     0    80     1     5
  1.4744157318076703E-01 a      1586     0    80     1     6
  2.7833732505835657E-01 a      1587     0    80     1     7
 -1.1124055442466686E-01 a      1588     0    80     1     8
 -2.8567757895271551E-01 a      1589     0    80     1     9
 -1.8036405728271310E-01 a      1590     0    80     1    10
  3.6748751318756503E-02 a      1591     0    80     1    11
  1.0828424138552268E-02 a      1592     0    80     1    12
  1.9452992762561355E-01 a      1593     0    80     1    13
  2.0175962805205799E-01 a      1594     0    80     1    14
  5.5762412874261168E-02 a      1595     0    80     1    15
 -1.7782950814411508E-01 a      1596     0    80     1    16
  2.7020609382409233E-01 a      1597     0    80     1    17
 -1.7964135669081979E-01 a      1598     0    80     1    18
 -9.9608244447605531E-03 a      1599     0    80     1    19
  4.0368917948486245E-02 a      1600     0    80     1    20
  1.3981998913903246E+00 b      1601     1     1
  1.1557028261164775E+00 b      1602     1     2
  8.4048423997006361E-01 b      1603     1     3
  3.4545542126026935E-01 b      1604     1     4
  2.9169814578031195E-01 b      1605     1     5
 -9.6443071707827777E-01 b      1606     1     6
 -5.0248809408393408E-02 b      1607     1     7
 -1.9584023495644587E-01 b      1608     1     8
 -1.2625917174265551E+00 b      1609     1     9
  1.5265474430329584E+00 b      1610     1    10
 -7.0738911484749312E-01 b      1611     1    11
  8.7282306034219181E-01 b      1612     1    12
 -2.8718915723382876E-01 b      1613     1    13
  9.8576602779797884E-01 b      1614     1    14
 -1.0309299887323657E+00 b      1615     1    15
 -5.8374192607946662E-01 b      1616     1    16
 -9.2385283073158131E-01 b      1617     1    17
 -1.1982978626577900E+00 b      1618     1    18
 -1.7467484660192548E-02 b      1619     1    19
  3.8208211526032543E-01 b      1620     1    20
 -5.0020962262060997E-01 a      1621     1     1     2     1
 -1.8104639023554972E-01 a      1622     1     1     2     2
  4.0453865570730518E-01 a      1623     1     1     2     3
  1.5193537128941642E-02 a      1624     1     1     2     4
 -1.8251767625497028E-01 a      1625     1     1     2     5
  6.6327318261302926E-01 a      1626     1     1     2     6
  1.5255982181898251E-01 a      1627     1     1     2     7
