################################################################################
# Neural network connection values (weights and biases).
################################################################################
# Col  Name       Description
################################################################################
# 1    connection Neural network connection value.
# 2    t          Connection type (a = weight, b = bias).
# 3    index      Index enumerating weights.
# 4    l_s        Starting point layer (end point layer for biases).
# 5    n_s        Starting point neuron in starting layer (end point neuron for biases).
# 6    l_e        End point layer.
# 7    n_e        End point neuron in end layer.
################################################################################
#                      1 2         3     4     5     6     7
#             connection t     index   l_s   n_s   l_e   n_e
############################################################
 -7.4895035014561906E-02 a         1     0     1     1     1
 -3.5037796469680538E-01 a         2     0     1     1     2
 -4.3988701354223975E-02 a         3     0     1     1     3
  1.4023095507660049E-01 a         4     0     1     1     4
  4.5008364503506169E-02 a         5     0     1     1     5
 -2.9823344242743954E-01 a         6     0     1     1     6
  3.7919121462419003E-01 a         7     0     1     1     7
 -1.3111149362748653E-01 a         8     0     1     1     8
  3.4943844716927291E-01 a         9     0     1     1     9
 -2.1317096256740886E-02 a        10     0     1     1    10
 -3.9110919369472703E-02 a        11     0     1     1    11
  2.5937273597845919E-02 a        12     0     1     1    12
 -1.4114359632784138E-01 a        13     0     1     1    13
 -3.0365151515899724E-01 a        14     0     1     1    14
 -2.4622316880378864E-01 a        15     0     1     1    15
  4.9517864166865161E-01 a        16     0     1     1    16
 -3.0968133082202992E-01 a        17     0     1     1    17
 -1.2347062759034153E-01 a        18     0     1     1    18
 -4.8375081759274957E-01 a        19     0     1     1    19
  9.0657144596543573E-02 a        20     0     1     1    20
  2.4800045816746977E-01 a        21     0     2     1     1
 -1.2298768978214308E-01 a        22     0     2     1     2
  1.4263049345559364E-01 a        23     0     2     1     3
 -7.2366096918906664E-02 a        24     0     2     1     4
  2.2801509762635644E-01 a        25     0     2     1     5
 -2.1266839112785985E-01 a        26     0     2     1     6
  1.0719325461959127E-01 a        27     0     2     1     7
 -3.2655926680213644E-02 a        28     0     2     1     8
 -1.6201117918819979E-01 a        29     0     2     1     9
 -2.8322764790462096E-01 a        30     0     2     1    10
  8.1237243971673950E-02 a        31     0     2     1    11
  7.5633815697108572E-02 a        32     0     2     1    12
  1.1148287645233763E-01 a        33     0     2     1    13
  1.1805972991983417E-01 a        34     0     2     1    14
 -1.0597936645366220E-01 a        35     0     2     1    15
 -2.1343398646130970E-01 a        36     0     2     1    16
  7.9529875271149839E-02 a        37     0     2     1    17
 -5.0150134626835700E-02 a        38     0     2     1    18
 -3.3904873989916283E-02 a        39     0     2     1    19
  1.9303906497999221E-01 a        40     0     2     1    20
 -2.3641108860676874E-01 a        41     0     3     1     1
 -4.7662995243274220E-02 a        42     0     3     1     2
 -1.0305094109971637E-02 a        43     0     3     1     3
  4.0908760294049218E-01 a        44     0     3     1     4
  4.6984959067427827E-02 a        45     0     3     1     5
  1.5992189218715758E-01 a        46     0     3     1     6
 -3.4802047850311679E-01 a        47     0     3     1     7
  1.2003005519610858E-01 a        48     0     3     1     8
 -8.0238733579168040E-02 a        49     0     3     1     9
  2.7998850728546570E-01 a        50     0     3     1    10
 -3.1302099987792126E-01 a        51     0     3     1    11
  1.8296694420316065E-01 a        52     0     3     1    12
 -2.1380726530756913E-02 a        53     0     3     1    13
 -2.0274066339547737E-02 a        54     0     3     1    14
  7.9289289270465066E-02 a        55     0     3     1    15
  2.1899753659865506E-01 a        56     0     3     1    16
 -1.6407208972682588E-01 a        57     0     3     1    17
 -2.4614047322753291E-01 a        58     0     3     1    18
  1.5693531214943640E-01 a        59     0     3     1    19
 -2.6769646721732054E-01 a        60     0     3     1    20
 -3.4073486623526017E-01 a        61     0     4     1     1
  5.9656014510512323E-01 a        62     0     4     1     2
 -3.8924047153900160E-01 a        63     0     4     1     3
 -9.1449055168428064E-02 a        64     0     4     1     4
 -2.3776567032947729E-01 a        65     0     4     1     5
  1.2140652148034297E+00 a        66     0     4     1     6
 -4.5869685092584134E-01 a        67     0     4     1     7
  6.4762224390706813E-01 a        68     0     4     1     8
  2.3051074263911921E-02 a        69     0     4     1     9
  1.3991748676146842E-01 a        70     0     4     1    10
  3.3419195900604864E-01 a        71     0     4     1    11
  3.6928998356217563E-01 a        72     0     4     1    12
  1.2064962359778497E-01 a        73     0     4     1    13
  3.2017748851397847E-02 a        74     0     4     1    14
  6.8438855738280069E-01 a        75     0     4     1    15
  5.6098786791639565E-01 a        76     0     4     1    16
  4.3901264505611765E-01 a        77     0     4     1    17
  1.8794403687942138E-02 a        78     0     4     1    18
  5.8916574905543584E-01 a        79     0     4     1    19
  4.7857700041035750E-01 a        80     0     4     1    20
 -5.8876764530427450E-01 a        81     0     5     1     1
  4.4217454371539322E-01 a        82     0     5     1     2
 -3.3736821326082844E-01 a        83     0     5     1     3
  3.8278976989146833E-02 a        84     0     5     1     4
 -3.5200363032301657E-01 a        85     0     5     1     5
  6.0288796626296071E-01 a        86     0     5     1     6
 -2.8925901438698814E-01 a        87     0     5     1     7
 -2.6824138465533570E-01 a        88     0     5     1     8
  2.9833596223641823E-01 a        89     0     5     1     9
  7.4376721762322928E-01 a        90     0     5     1    10
 -2.7602476309351315E-01 a        91     0     5     1    11
 -2.8990468140712426E-02 a        92     0     5     1    12
 -2.3002283987453070E-01 a        93     0     5     1    13
 -4.7015078543047989E-01 a        94     0     5     1    14
  1.6598121053622125E-01 a        95     0     5     1    15
  2.1053001151929354E-01 a        96     0     5     1    16
 -2.4654205883659772E-01 a        97     0     5     1    17
  1.2320549755359482E-01 a        98     0     5     1    18
  6.7322957743589401E-02 a        99     0     5     1    19
 -3.4202931396656083E-01 a       100     0     5     1    20
  5.5284722764463246E-01 a       101     0     6     1     1
  1.1868130289291805E-01 a       102     0     6     1     2
 -2.5114054622535419E-02 a       103     0     6     1     3
 -9.2287962877027085E-01 a       104     0     6     1     4
  8.4189310651407764E-02 a       105     0     6     1     5
  2.5713234405757829E-01 a       106     0     6     1     6
  6.2094559149357031E-01 a       107     0     6     1     7
  2.0202510559400813E-01 a       108     0     6     1     8
  5.2283738281537118E-01 a       109     0     6     1     9
 -4.7353390666833517E-01 a       110     0     6     1    10
  3.8790000307550254E-01 a       111     0     6     1    11
  4.2159691725009130E-01 a       112     0     6     1    12
 -7.6253042649408409E-01 a       113     0     6     1    13
 -6.2705271448519306E-01 a       114     0     6     1    14
  3.3982410265937341E-01 a       115     0     6     1    15
  1.2506480433104708E-01 a       116     0     6     1    16
  2.2229872716702276E-03 a       117     0     6     1    17
  4.9657151223833601E-01 a       118     0     6     1    18
  6.2307029412861118E-03 a       119     0     6     1    19
 -8.0223775807573797E-02 a       120     0     6     1    20
  3.0996653193584295E-01 a       121     0     7     1     1
 -5.4105146600099874E-01 a       122     0     7     1     2
  2.4720726433514131E-01 a       123     0     7     1     3
 -4.6681994650066655E-01 a       124     0     7     1     4
  4.0856483627187840E-01 a       125     0     7     1     5
 -2.3099618686848050E-01 a       126     0     7     1     6
  7.6482079598321553E-02 a       127     0     7     1     7
 -1.0021161545742877E-01 a       128     0     7     1     8
  3.4454217510228374E-01 a       129     0     7     1     9
 -1.9190736058748077E-03 a       130     0     7     1    10
  1.8048634948401079E-01 a       131     0     7     1    11
  1.8149814358521166E-01 a       132     0     7     1    12
 -4.0890149348790544E-01 a       133     0     7     1    13
 -3.0510410200685358E-03 a       134     0     7     1    14
 -5.5919424414758812E-01 a       135     0     7     1    15
  4.5035011063692487E-01 a       136     0     7     1    16
 -3.0820240712192642E-01 a       137     0     7     1    17
 -4.8403266811901402E-01 a       138     0     7     1    18
 -4.9965003699068457E-02 a       139     0     7     1    19
  3.6543436391267425E-01 a       140     0     7     1    20
 -4.4477687751470113E-01 a       141     0     8     1     1
  1.7141100192079078E-01 a       142     0     8     1     2
 -6.0849643081385285E-01 a       143     0     8     1     3
  4.2908884064064351E-03 a       144     0     8     1     4
  1.2553383953311964E-01 a       145     0     8     1     5
  4.6320497203782736E-02 a       146     0     8     1     6
 -2.8676822049322714E-01 a       147     0     8     1     7
  3.0008756104077516E-01 a       148     0     8     1     8
  3.0445203783556229E-01 a       149     0     8     1     9
 -3.6677940339199988E-01 a       150     0     8     1    10
 -4.2637925090371853E-01 a       151     0     8     1    11
  9.8247506595318695E-02 a       152     0     8     1    12
 -4.3662742877296890E-01 a       153     0     8     1    13
  5.2229942528410501E-03 a       154     0     8     1    14
 -5.6299361415711624E-02 a       155     0     8     1    15
 -8.4539576985509679E-02 a       156     0     8     1    16
 -1.2154796784748301E-01 a       157     0     8     1    17
  2.6933025798084154E-01 a       158     0     8     1    18
  2.9547080205204045E-02 a       159     0     8     1    19
 -4.6983062650884359E-02 a       160     0     8     1    20
 -1.2394778525851770E-01 a       161     0     9     1     1
 -1.5797362563028328E-01 a       162     0     9     1     2
 -3.8677019394324380E-01 a       163     0     9     1     3
 -3.5170761250455040E-01 a       164     0     9     1     4
  2.3022290028066744E-01 a       165     0     9     1     5
  1.3251591744163041E-01 a       166     0     9     1     6
  2.4771674336795166E-01 a       167     0     9     1     7
  3.4643385929077486E-01 a       168     0     9     1     8
  2.8393938318634243E-01 a       169     0     9     1     9
  3.8654595622657340E-01 a       170     0     9     1    10
  3.1805159648541320E-01 a       171     0     9     1    11
  1.3041853236550119E-01 a       172     0     9     1    12
 -3.8804761420376283E-01 a       173     0     9     1    13
  1.3145460786599597E-01 a       174     0     9     1    14
  3.1157816718637682E-01 a       175     0     9     1    15
 -2.6010893389126370E-02 a       176     0     9     1    16
  2.2794932216470251E-01 a       177     0     9     1    17
 -4.0539400301857709E-01 a       178     0     9     1    18
  3.6184131869140662E-01 a       179     0     9     1    19
 -2.5173869583126324E-01 a       180     0     9     1    20
  5.2032089718771941E-02 a       181     0    10     1     1
  8.6884923454405807E-02 a       182     0    10     1     2
 -1.4992464122428481E-01 a       183     0    10     1     3
 -1.8341400998615259E-01 a       184     0    10     1     4
  8.4105301562975424E-02 a       185     0    10     1     5
  3.9839362808584117E-01 a       186     0    10     1     6
 -2.0012550374107924E-01 a       187     0    10     1     7
  1.6537111363482251E-01 a       188     0    10     1     8
  3.7900159286951500E-02 a       189     0    10     1     9
 -1.2954758085844675E-01 a       190     0    10     1    10
  1.2224538499364908E-01 a       191     0    10     1    11
  6.4990569085074196E-02 a       192     0    10     1    12
 -7.3937095000287736E-02 a       193     0    10     1    13
  1.0695971035259082E-01 a       194     0    10     1    14
  3.0491208402960740E-01 a       195     0    10     1    15
  1.0321161057323085E-01 a       196     0    10     1    16
  4.3483202321014458E-01 a       197     0    10     1    17
  4.5627075896690239E-02 a       198     0    10     1    18
 -1.9398104134394554E-02 a       199     0    10     1    19
  4.0994921223212449E-01 a       200     0    10     1    20
 -2.3769332673354437E-01 a       201     0    11     1     1
  3.1505520603130127E-01 a       202     0    11     1     2
  2.6569048875590690E-01 a       203     0    11     1     3
 -8.0948278084378344E-01 a       204     0    11     1     4
  9.9497309950586713E-02 a       205     0    11     1     5
 -5.0013797908043722E-01 a       206     0    11     1     6
  9.3968917522041631E-02 a       207     0    11     1     7
 -3.0198986756827945E-01 a       208     0    11     1     8
 -3.7266820107863147E-01 a       209     0    11     1     9
 -6.9206543830306921E-01 a       210     0    11     1    10
  3.0300915774538906E-01 a       211     0    11     1    11
  3.1792947020965724E-02 a       212     0    11     1    12
  4.2837414010150859E-01 a       213     0    11     1    13
  1.5343700539488114E-01 a       214     0    11     1    14
 -3.4557011582414865E-01 a       215     0    11     1    15
 -4.2780804080931717E-01 a       216     0    11     1    16
 -1.6155349373977884E-01 a       217     0    11     1    17
  2.9493003937481846E-02 a       218     0    11     1    18
 -4.7563162901511435E-01 a       219     0    11     1    19
  1.8759123155230609E-01 a       220     0    11     1    20
  2.4803344831913807E-01 a       221     0    12     1     1
 -2.2450355190245908E-02 a       222     0    12     1     2
  1.0437685419516826E-01 a       223     0    12     1     3
  5.0203066681577657E-01 a       224     0    12     1     4
  2.3678943262957283E-01 a       225     0    12     1     5
  4.5881499496422740E-01 a       226     0    12     1     6
  6.5839399545180921E-02 a       227     0    12     1     7
  7.8246551067345060E-01 a       228     0    12     1     8
  3.5478979368751173E-01 a       229     0    12     1     9
  2.2695675566410750E-01 a       230     0    12     1    10
  4.6651304170186141E-03 a       231     0    12     1    11
  6.6968804918717695E-01 a       232     0    12     1    12
  2.9337908291319509E-01 a       233     0    12     1    13
  3.2656409143493959E-01 a       234     0    12     1    14
  3.4227224102941173E-01 a       235     0    12     1    15
  2.0124840901646232E-01 a       236     0    12     1    16
  8.1910832325647581E-02 a       237     0    12     1    17
  5.3104412587163830E-01 a       238     0    12     1    18
  5.2237930581416092E-01 a       239     0    12     1    19
 -7.2535597381068828E-01 a       240     0    12     1    20
  5.5922166430219251E-02 a       241     0    13     1     1
 -2.3785926465334912E-02 a       242     0    13     1     2
  1.1932997034258555E-01 a       243     0    13     1     3
 -3.4502017667417517E-01 a       244     0    13     1     4
  1.6290178324160876E-01 a       245     0    13     1     5
 -3.1272830957408598E-01 a       246     0    13     1     6
 -1.8992830750595038E-01 a       247     0    13     1     7
 -2.7084993753488618E-01 a       248     0    13     1     8
  2.7721830255629193E-01 a       249     0    13     1     9
 -8.0227015666726437E-02 a       250     0    13     1    10
 -2.4554812646662245E-03 a       251     0    13     1    11
  2.1079028944233934E-02 a       252     0    13     1    12
 -3.1990522682115519E-01 a       253     0    13     1    13
  4.9872728011153944E-01 a       254     0    13     1    14
 -2.0099212364444891E-01 a       255     0    13     1    15
  2.5007539216497970E-01 a       256     0    13     1    16
 -3.1137224561316790E-02 a       257     0    13     1    17
 -2.4551148211751797E-01 a       258     0    13     1    18
 -1.5559588352797676E-01 a       259     0    13     1    19
  4.6534301509932707E-01 a       260     0    13     1    20
  2.6834440009306654E-01 a       261     0    14     1     1
  4.1760692661991028E-01 a       262     0    14     1     2
 -5.8516177160916216E-01 a       263     0    14     1     3
 -2.0481812012354955E-01 a       264     0    14     1     4
 -6.3941816504244864E-01 a       265     0    14     1     5
  3.6750428297916821E-01 a       266     0    14     1     6
  4.3354817095208298E-01 a       267     0    14     1     7
 -2.5562524456848634E-01 a       268     0    14     1     8
  6.8747293537067211E-02 a       269     0    14     1     9
  5.0001368710132732E-01 a       270     0    14     1    10
 -6.5921923119141401E-01 a       271     0    14     1    11
 -1.7840704217096784E-01 a       272     0    14     1    12
 -8.1575905451060915E-01 a       273     0    14     1    13
 -4.1169142793849611E-01 a       274     0    14     1    14
 -1.2301716796238313E-01 a       275     0    14     1    15
 -2.4687433055039617E-02 a       276     0    14     1    16
  1.1316094245721584E-01 a       277     0    14     1    17
  3.7625586439951231E-01 a       278     0    14     1    18
 -6.3887095619401379E-01 a       279     0    14     1    19
  7.4307751859885718E-01 a       280     0    14     1    20
  1.4687200954008492E-01 a       281     0    15     1     1
  2.2631992379428115E-01 a       282     0    15     1     2
 -9.9944823921217202E-02 a       283     0    15     1     3
 -3.2119733073944423E-01 a       284     0    15     1     4
  6.0316758943766602E-01 a       285     0    15     1     5
  5.3582641172489315E-02 a       286     0    15     1     6
 -7.8383817669422637E-02 a       287     0    15     1     7
 -3.2433269137149462E-01 a       288     0    15     1     8
  1.0106321459004200E-01 a       289     0    15     1     9
  3.9936703419240258E-02 a       290     0    15     1    10
  4.5116409616081837E-01 a       291     0    15     1    11
  4.2427716947547622E-01 a       292     0    15     1    12
 -4.6120514739878321E-01 a       293     0    15     1    13
 -5.4945837196942782E-01 a       294     0    15     1    14
  4.6307372592903451E-01 a       295     0    15     1    15
  2.2500661842658501E-01 a       296     0    15     1    16
  5.0081016580237869E-01 a       297     0    15     1    17
  2.6816542704349222E-01 a       298     0    15     1    18
  5.8489983978600901E-01 a       299     0    15     1    19
  1.3032667029361694E-01 a       300     0    15     1    20
  2.1792020873021103E-01 a       301     0    16     1     1
  2.0150791150300856E-03 a       302     0    16     1     2
 -5.4196717645057818E-02 a       303     0    16     1     3
  3.8865929181055231E-01 a       304     0    16     1     4
  8.2426603295847098E-02 a       305     0    16     1     5
  4.9135087116627130E-01 a       306     0    16     1     6
 -2.3798609762699410E-01 a       307     0    16     1     7
  9.7423930466267752E-02 a       308     0    16     1     8
  6.1061664290637405E-02 a       309     0    16     1     9
 -2.2331529681111120E-01 a       310     0    16     1    10
  6.1659124080360138E-02 a       311     0    16     1    11
  5.7983290267514476E-02 a       312     0    16     1    12
  4.9280624576344516E-02 a       313     0    16     1    13
 -4.3370781301386929E-01 a       314     0    16     1    14
  1.1532816118521576E-01 a       315     0    16     1    15
 -3.1884507866767983E-02 a       316     0    16     1    16
  3.5289109848454348E-01 a       317     0    16     1    17
  2.2042111071570597E-01 a       318     0    16     1    18
 -2.0704367196819701E-01 a       319     0    16     1    19
  2.4711384752569429E-01 a       320     0    16     1    20
 -7.8266762270384416E-01 a       321     0    17     1     1
  1.7776267040409244E-01 a       322     0    17     1     2
  6.3214587184784232E-02 a       323     0    17     1     3
 -1.7374801792343225E-01 a       324     0    17     1     4
  3.9644491399448131E-02 a       325     0    17     1     5
 -1.4111993653898292E-01 a       326     0    17     1     6
 -1.2902632956621052E-01 a       327     0    17     1     7
  7.0807594210438063E-01 a       328     0    17     1     8
 -3.1187034799403646E-02 a       329     0    17     1     9
 -2.7499761008372897E-01 a       330     0    17     1    10
  2.5500130434478624E-01 a       331     0    17     1    11
 -8.3148150317090205E-02 a       332     0    17     1    12
  3.7655266399030418E-01 a       333     0    17     1    13
 -4.4305735760050940E-01 a       334     0    17     1    14
 -6.8613062911306921E-01 a       335     0    17     1    15
  2.5528826170328339E-01 a       336     0    17     1    16
 -4.4861349346826673E-01 a       337     0    17     1    17
 -1.1643626520194762E-01 a       338     0    17     1    18
  3.7235722844078595E-01 a       339     0    17     1    19
  5.0719045996981615E-01 a       340     0    17     1    20
  2.9949496186665164E-01 a       341     0    18     1     1
 -1.0231852468782512E-01 a       342     0    18     1     2
  1.3657413038918390E-01 a       343     0    18     1     3
 -2.6178772366950948E-01 a       344     0    18     1     4
  4.2045059324002138E-01 a       345     0    18     1     5
  9.9118693679021222E-02 a       346     0    18     1     6
  2.0481795458713242E-01 a       347     0    18     1     7
  2.6467922795411586E-01 a       348     0    18     1     8
  1.6558368411021232E-01 a       349     0    18     1     9
 -1.4387468396726807E-01 a       350     0    18     1    10
 -3.0924471252026164E-01 a       351     0    18     1    11
 -2.3324208514923106E-01 a       352     0    18     1    12
  7.0964421460336088E-02 a       353     0    18     1    13
 -6.2678550183245016E-02 a       354     0    18     1    14
 -3.0606040161441628E-01 a       355     0    18     1    15
  6.8136400343125986E-02 a       356     0    18     1    16
  9.6048778355457429E-02 a       357     0    18     1    17
  3.0915054172554368E-01 a       358     0    18     1    18
 -4.4855316852664273E-01 a       359     0    18     1    19
 -1.6030566872988569E-01 a       360     0    18     1    20
 -7.2327751861969089E-02 a       361     0    19     1     1
  7.4550436395818806E-02 a       362     0    19     1     2
 -8.0823923521400314E-03 a       363     0    19     1     3
 -2.3154389804849582E-01 a       364     0    19     1     4
  2.0477707482916788E-01 a       365     0    19     1     5
 -1.2131690788641425E-01 a       366     0    19     1     6
 -1.4800479644279080E-01 a       367     0    19     1     7
 -3.4762547575127206E-01 a       368     0    19     1     8
  1.0502193299977799E-01 a       369     0    19     1     9
  9.6105139271013707E-03 a       370     0    19     1    10
  7.2092745906052205E-02 a       371     0    19     1    11
 -1.5577767771827514E-01 a       372     0    19     1    12
 -1.3133527026619685E-01 a       373     0    19     1    13
  9.4042613128165475E-02 a       374     0    19     1    14
 -2.4221593778726402E-02 a       375     0    19     1    15
  3.1084910615483385E-01 a       376     0    19     1    16
  1.1056292232667879E-01 a       377     0    19     1    17
 -6.2920154441462747E-02 a       378     0    19     1    18
 -3.5286188336756180E-03 a       379     0    19     1    19
 -9.8846980191047470E-02 a       380     0    19     1    20
  8.7197423074356317E-01 a       381     0    20     1     1
  2.8398423073981394E-01 a       382     0    20     1     2
  3.7942807071082890E-01 a       383     0    20     1     3
 -6.8553842250921637E-01 a       384     0    20     1     4
  4.8022869429521241E-02 a       385     0    20     1     5
 -4.6358243527602333E-01 a       386     0    20     1     6
  2.2816699800392193E-01 a       387     0    20     1     7
  2.8038489841090719E-01 a       388     0    20     1     8
 -2.8768499763414951E-01 a       389     0    20     1     9
 -7.9256748287787043E-03 a       390     0    20     1    10
 -2.4830800173493831E-01 a       391     0    20     1    11
 -1.5663108543176307E-01 a       392     0    20     1    12
 -5.3118127530395305E-02 a       393     0    20     1    13
  7.4193554348187718E-01 a       394     0    20     1    14
 -1.0742417969236535E-01 a       395     0    20     1    15
 -1.9797856826229915E-01 a       396     0    20     1    16
  2.5604801314461811E-01 a       397     0    20     1    17
 -9.1986577245669401E-02 a       398     0    20     1    18
 -3.9702921168752381E-01 a       399     0    20     1    19
 -1.5521706072066660E-01 a       400     0    20     1    20
  1.5362477717165668E-01 a       401     0    21     1     1
  3.3327673575407568E-01 a       402     0    21     1     2
  1.3136438717500887E-01 a       403     0    21     1     3
  1.0349625648685972E+00 a       404     0    21     1     4
 -2.3786093750666776E-01 a       405     0    21     1     5
  5.1042080188267273E-02 a       406     0    21     1     6
 -1.7426228502901789E-01 a       407     0    21     1     7
 -2.0716916100308644E-01 a       408     0    21     1     8
 -3.1589621969425208E-01 a       409     0    21     1     9
  6.0100416597685998E-03 a       410     0    21     1    10
  3.6629050704721389E-01 a       411     0    21     1    11
  2.3900924054122599E-01 a       412     0    21     1    12
  9.6206557187765343E-02 a       413     0    21     1    13
 -4.3243703432165020E-01 a       414     0    21     1    14
  1.3827909968968313E-02 a       415     0    21     1    15
 -7.1717594663965600E-02 a       416     0    21     1    16
  1.6009974530901386E-01 a       417     0    21     1    17
  3.7193861381628124E-01 a       418     0    21     1    18
  1.9304334351174449E-01 a       419     0    21     1    19
  2.6394717570123477E-01 a       420     0    21     1    20
 -5.8783819182902436E-03 a       421     0    22     1     1
  1.9752730152281167E-01 a       422     0    22     1     2
  8.3258110643473313E-02 a       423     0    22     1     3
  3.9156459617541794E-01 a       424     0    22     1     4
 -3.9471859869906666E-02 a       425     0    22     1     5
  2.1358400639066086E-01 a       426     0    22     1     6
 -1.6132219413141111E-01 a       427     0    22     1     7
  1.3225589444261593E-01 a       428     0    22     1     8
  1.1875149502122073E-01 a       429     0    22     1     9
 -2.2076398993551588E-01 a       430     0    22     1    10
 -7.8145102376898673E-02 a       431     0    22     1    11
  7.7579815401222829E-02 a       432     0    22     1    12
  3.6963733158684516E-02 a       433     0    22     1    13
 -2.6178036417876002E-03 a       434     0    22     1    14
 -2.8660023982515586E-02 a       435     0    22     1    15
 -9.3694106910413841E-02 a       436     0    22     1    16
 -1.0760971763863744E-01 a       437     0    22     1    17
  2.7448112272576652E-01 a       438     0    22     1    18
 -2.5386785925938549E-01 a       439     0    22     1    19
  3.4777482770958205E-02 a       440     0    22     1    20
 -6.6855282228406920E-01 a       441     0    23     1     1
 -1.9217972403612651E-01 a       442     0    23     1     2
 -1.3302067525721706E-01 a       443     0    23     1     3
  4.3209805411284119E-01 a       444     0    23     1     4
 -3.1580217802724403E-01 a       445     0    23     1     5
  6.7731268179613766E-02 a       446     0    23     1     6
  2.1476808912689258E-01 a       447     0    23     1     7
  9.4132827272030567E-02 a       448     0    23     1     8
 -7.5416403873032625E-02 a       449     0    23     1     9
  2.1965589998035795E-01 a       450     0    23     1    10
 -3.6140805381162329E-02 a       451     0    23     1    11
  1.5562544159756714E-01 a       452     0    23     1    12
  1.4305205271058105E-01 a       453     0    23     1    13
 -3.2148583888299179E-02 a       454     0    23     1    14
 -5.3260195367849185E-02 a       455     0    23     1    15
  4.5205548129178159E-02 a       456     0    23     1    16
 -4.7975689941796962E-01 a       457     0    23     1    17
 -2.4092357608854065E-01 a       458     0    23     1    18
  2.9103396267238268E-01 a       459     0    23     1    19
  8.9974678000542685E-01 a       460     0    23     1    20
 -8.5805294128014561E-02 a       461     0    24     1     1
 -5.0970378664640670E-01 a       462     0    24     1     2
 -9.4616098740059260E-02 a       463     0    24     1     3
 -1.7365879442652317E-03 a       464     0    24     1     4
  2.6752514142684347E-01 a       465     0    24     1     5
  4.8364968371409933E-01 a       466     0    24     1     6
 -4.4820253225705448E-01 a       467     0    24     1     7
 -6.0482686980501010E-01 a       468     0    24     1     8
  8.1781342926690337E-01 a       469     0    24     1     9
 -3.5426194393228405E-01 a       470     0    24     1    10
  1.5433072097101105E-01 a       471     0    24     1    11
 -4.5023530779318272E-01 a       472     0    24     1    12
 -1.1161176855481021E-01 a       473     0    24     1    13
  4.5027915393463530E-01 a       474     0    24     1    14
  7.0891097289861371E-02 a       475     0    24     1    15
 -6.5719599531720591E-03 a       476     0    24     1    16
 -2.9516448913113256E-05 a       477     0    24     1    17
  4.1816229646888481E-01 a       478     0    24     1    18
 -5.4010910389752431E-01 a       479     0    24     1    19
  2.5605896362735758E-01 a       480     0    24     1    20
  4.1316376372513099E-02 a       481     0    25     1     1
 -1.1159024767011337E-01 a       482     0    25     1     2
 -6.7411158021197112E-02 a       483     0    25     1     3
 -2.1639334439086652E-01 a       484     0    25     1     4
  8.9783022230310094E-02 a       485     0    25     1     5
 -8.5692360607073137E-02 a       486     0    25     1     6
  9.2377247418851227E-02 a       487     0    25     1     7
 -1.5577228807783394E-01 a       488     0    25     1     8
 -2.4566428530365579E-02 a       489     0    25     1     9
 -2.0072765068362378E-02 a       490     0    25     1    10
  7.3718417877933776E-02 a       491     0    25     1    11
 -7.4472390455477044E-02 a       492     0    25     1    12
 -6.8574885770201419E-02 a       493     0    25     1    13
 -2.2582544981463282E-01 a       494     0    25     1    14
  9.2002499194690154E-04 a       495     0    25     1    15
  3.0046929028361728E-03 a       496     0    25     1    16
  1.4715503063932217E-01 a       497     0    25     1    17
 -4.7804142294434471E-02 a       498     0    25     1    18
  5.2247473176796674E-03 a       499     0    25     1    19
 -6.4866470139670991E-03 a       500     0    25     1    20
  6.2677068240993450E-01 a       501     0    26     1     1
 -2.5829475708301627E-02 a       502     0    26     1     2
  2.4724564943550958E-01 a       503     0    26     1     3
 -4.3301792099258579E-01 a       504     0    26     1     4
  4.2661190102596896E-01 a       505     0    26     1     5
 -8.5921685411940910E-02 a       506     0    26     1     6
 -3.1279469179383546E-01 a       507     0    26     1     7
  2.1898277054985546E-01 a       508     0    26     1     8
  4.3987034823965406E-03 a       509     0    26     1     9
 -7.7206436799633529E-02 a       510     0    26     1    10
 -5.9830035629556709E-02 a       511     0    26     1    11
 -1.1731592645444237E-01 a       512     0    26     1    12
 -1.3635700341097384E-02 a       513     0    26     1    13
  7.8408067383004709E-02 a       514     0    26     1    14
 -1.7294512508916440E-01 a       515     0    26     1    15
  1.0994945446552529E-01 a       516     0    26     1    16
  2.4150175421767062E-01 a       517     0    26     1    17
  1.2006557144874769E-01 a       518     0    26     1    18
 -2.5805298148443730E-02 a       519     0    26     1    19
 -7.2139984241555444E-01 a       520     0    26     1    20
  8.1476461356651778E-02 a       521     0    27     1     1
  1.1039035064043179E-01 a       522     0    27     1     2
 -9.6936204491858913E-02 a       523     0    27     1     3
 -8.7769294791030836E-02 a       524     0    27     1     4
  1.9709265546303055E-02 a       525     0    27     1     5
 -9.0581640589476473E-02 a       526     0    27     1     6
 -1.4701336397300380E-01 a       527     0    27     1     7
  8.6247629012137644E-02 a       528     0    27     1     8
 -2.2113761252676620E-01 a       529     0    27     1     9
  1.6055578834091130E-01 a       530     0    27     1    10
 -6.9189531619061440E-02 a       531     0    27     1    11
  2.5477256636831974E-01 a       532     0    27     1    12
  2.6958595813207913E-02 a       533     0    27     1    13
 -3.0315231704459117E-01 a       534     0    27     1    14
  4.7768031493097877E-02 a       535     0    27     1    15
 -3.4632206916006603E-02 a       536     0    27     1    16
  9.1894073483917191E-02 a       537     0    27     1    17
 -6.3178017308118742E-02 a       538     0    27     1    18
  3.0184321461411379E-01 a       539     0    27     1    19
 -4.0329809658077853E-01 a       540     0    27     1    20
 -9.2489858459490717E-02 a       541     0    28     1     1
  9.4224344302095420E-02 a       542     0    28     1     2
  6.0347791962706773E-02 a       543     0    28     1     3
  1.8342624658485771E-01 a       544     0    28     1     4
  1.4556687983357508E-01 a       545     0    28     1     5
  7.9242060738847125E-02 a       546     0    28     1     6
 -2.0534258218640500E-01 a       547     0    28     1     7
  4.2386441802440361E-02 a       548     0    28     1     8
  9.6573890045313873E-02 a       549     0    28     1     9
 -1.1186886089879536E-02 a       550     0    28     1    10
 -4.8225538190127058E-02 a       551     0    28     1    11
  6.0970648150023787E-02 a       552     0    28     1    12
  8.0345333268005276E-02 a       553     0    28     1    13
  2.1059366280192304E-01 a       554     0    28     1    14
  2.1911088799809604E-04 a       555     0    28     1    15
 -3.5828888565258343E-02 a       556     0    28     1    16
 -1.4931164140709169E-01 a       557     0    28     1    17
  1.4525491168647506E-01 a       558     0    28     1    18
 -4.4400819397146150E-02 a       559     0    28     1    19
 -4.5427877286081803E-02 a       560     0    28     1    20
 -2.4069270918535385E-01 a       561     0    29     1     1
 -3.5999909934961216E-02 a       562     0    29     1     2
  9.0053731207698440E-02 a       563     0    29     1     3
  3.0195090183633705E-01 a       564     0    29     1     4
 -2.3357315801864056E-01 a       565     0    29     1     5
 -1.2393149117896976E-01 a       566     0    29     1     6
  3.6959024716387434E-01 a       567     0    29     1     7
  2.5971746469436513E-01 a       568     0    29     1     8
 -2.5764526816492694E-01 a       569     0    29     1     9
  2.7883618914893776E-01 a       570     0    29     1    10
 -2.6164323492565141E-02 a       571     0    29     1    11
  9.5441120332262930E-02 a       572     0    29     1    12
  2.5408908875963060E-01 a       573     0    29     1    13
  4.0711424698796828E-01 a       574     0    29     1    14
  1.8144191142417829E-01 a       575     0    29     1    15
  9.3652234542183924E-02 a       576     0    29     1    16
 -2.3180215259987841E-01 a       577     0    29     1    17
 -1.9217003449293660E-01 a       578     0    29     1    18
  2.8188024018556168E-01 a       579     0    29     1    19
  4.2764524606808052E-01 a       580     0    29     1    20
 -5.9003680894339064E-02 a       581     0    30     1     1
 -1.3411207858685359E-01 a       582     0    30     1     2
  1.6977708494959451E-01 a       583     0    30     1     3
  2.4889952943923468E-01 a       584     0    30     1     4
 -8.5602853756218261E-02 a       585     0    30     1     5
 -1.5478072350874103E-01 a       586     0    30     1     6
  7.2567769730142687E-02 a       587     0    30     1     7
  8.5319900728976217E-02 a       588     0    30     1     8
  3.0545664444153280E-02 a       589     0    30     1     9
 -4.0156120540999324E-01 a       590     0    30     1    10
 -1.6311335005399011E-01 a       591     0    30     1    11
 -2.9093950347082509E-01 a       592     0    30     1    12
  6.3321240048391389E-02 a       593     0    30     1    13
 -1.3269592759671467E-02 a       594     0    30     1    14
  2.9537016182131264E-02 a       595     0    30     1    15
 -1.2538604353538074E-01 a       596     0    30     1    16
  8.7597700129182790E-02 a       597     0    30     1    17
  3.1677203876256145E-02 a       598     0    30     1    18
 -3.9502642651661674E-01 a       599     0    30     1    19
  4.9953999358271223E-01 a       600     0    30     1    20
 -4.1514382764442019E-02 a       601     0    31     1     1
  1.7921350233445710E-01 a       602     0    31     1     2
 -2.7533396534773147E-01 a       603     0    31     1     3
  1.0442736416485259E+00 a       604     0    31     1     4
 -8.9833755498056680E-02 a       605     0    31     1     5
  5.6431204427485712E-02 a       606     0    31     1     6
 -5.5367752773719214E-01 a       607     0    31     1     7
 -2.9666834294353528E-01 a       608     0    31     1     8
 -9.7910603290050843E-02 a       609     0    31     1     9
  3.6432921456320239E-02 a       610     0    31     1    10
 -3.6770307426712801E-01 a       611     0    31     1    11
 -5.5103302253530762E-01 a       612     0    31     1    12
  7.6977815328583998E-01 a       613     0    31     1    13
 -3.2222742614233518E-01 a       614     0    31     1    14
 -1.8553679289100053E-02 a       615     0    31     1    15
  1.3348411642564509E-01 a       616     0    31     1    16
  4.8669432802960183E-01 a       617     0    31     1    17
  3.8159061977788108E-02 a       618     0    31     1    18
 -3.3567656877132496E-01 a       619     0    31     1    19
 -2.2890652229105393E-01 a       620     0    31     1    20
  2.0725802740432411E-01 a       621     0    32     1     1
  1.8199618797299041E-01 a       622     0    32     1     2
  2.3252789084511186E-01 a       623     0    32     1     3
 -1.0376670453489816E+00 a       624     0    32     1     4
 -4.3544705381336542E-02 a       625     0    32     1     5
 -4.0839270978815657E-02 a       626     0    32     1     6
  4.5748590565125496E-01 a       627     0    32     1     7
 -9.8569965074781808E-03 a       628     0    32     1     8
 -8.9616857616822448E-02 a       629     0    32     1     9
  3.0795975629736694E-01 a       630     0    32     1    10
  1.5730006291814091E-01 a       631     0    32     1    11
  4.9020405505835346E-01 a       632     0    32     1    12
 -5.8702299509642064E-01 a       633     0    32     1    13
  1.2972673965784620E-01 a       634     0    32     1    14
  7.1809413960801954E-02 a       635     0    32     1    15
 -4.4571781452340009E-01 a       636     0    32     1    16
 -3.5255937184409247E-01 a       637     0    32     1    17
 -2.0339696416887745E-01 a       638     0    32     1    18
  1.2385552312249457E-01 a       639     0    32     1    19
 -5.2695226797236161E-01 a       640     0    32     1    20
 -2.5585016924135490E-01 a       641     0    33     1     1
  2.1674090297744231E-01 a       642     0    33     1     2
 -8.3511393826501065E-02 a       643     0    33     1     3
  3.8279511104573638E-01 a       644     0    33     1     4
  9.9225918268236929E-02 a       645     0    33     1     5
  1.9145496806562017E-02 a       646     0    33     1     6
 -1.7468027413580903E-02 a       647     0    33     1     7
 -1.9327668713046861E-01 a       648     0    33     1     8
 -2.8717734020331864E-01 a       649     0    33     1     9
 -3.8242881060126965E-02 a       650     0    33     1    10
 -7.3694454250667660E-02 a       651     0    33     1    11
 -1.7825859229921362E-01 a       652     0    33     1    12
  2.9459160256796157E-01 a       653     0    33     1    13
  1.8209422670406369E-01 a       654     0    33     1    14
 -5.6383315394922626E-02 a       655     0    33     1    15
 -4.6072255472510859E-01 a       656     0    33     1    16
  6.1597658285479795E-01 a       657     0    33     1    17
  3.6736190149124531E-01 a       658     0    33     1    18
 -2.3919691533881055E-03 a       659     0    33     1    19
 -1.1632688043874311E-02 a       660     0    33     1    20
 -3.0183780146165423E-01 a       661     0    34     1     1
 -4.7079007446293175E-01 a       662     0    34     1     2
 -7.8474966437737631E-02 a       663     0    34     1     3
  4.9148630807695776E-01 a       664     0    34     1     4
  2.2501177648473039E-01 a       665     0    34     1     5
 -2.1158743820352680E-01 a       666     0    34     1     6
  4.1383464633815469E-03 a       667     0    34     1     7
  5.8844100776023944E-01 a       668     0    34     1     8
  4.5177687916398912E-01 a       669     0    34     1     9
 -2.7714219745716118E-01 a       670     0    34     1    10
  9.1384592630338116E-03 a       671     0    34     1    11
  7.2955084818601468E-02 a       672     0    34     1    12
  7.2924111057100705E-01 a       673     0    34     1    13
 -8.3198062296422504E-01 a       674     0    34     1    14
 -4.1464618712505946E-01 a       675     0    34     1    15
  3.3952020014223466E-01 a       676     0    34     1    16
 -2.0279302145771524E-01 a       677     0    34     1    17
 -1.6530886357277946E-01 a       678     0    34     1    18
  2.0180290959824360E-01 a       679     0    34     1    19
  5.2384120502804021E-01 a       680     0    34     1    20
  6.1454650643910358E-01 a       681     0    35     1     1
 -2.8593524566610806E-01 a       682     0    35     1     2
  3.1388075657962455E-01 a       683     0    35     1     3
 -9.5750386670881082E-01 a       684     0    35     1     4
  1.8508142569616523E-01 a       685     0    35     1     5
 -3.6060061913147406E-01 a       686     0    35     1     6
  2.9972573529987434E-01 a       687     0    35     1     7
  4.3952429661663101E-01 a       688     0    35     1     8
 -2.5807442886337484E-01 a       689     0    35     1     9
 -4.9123101721782397E-01 a       690     0    35     1    10
 -9.6876309926138774E-03 a       691     0    35     1    11
 -1.3121207047109251E-01 a       692     0    35     1    12
  5.3565103591733587E-01 a       693     0    35     1    13
 -7.2131136541628338E-01 a       694     0    35     1    14
  5.9922770509908588E-02 a       695     0    35     1    15
 -1.1284766695786734E-02 a       696     0    35     1    16
 -2.1019398926157748E-01 a       697     0    35     1    17
  2.9447837059978124E-02 a       698     0    35     1    18
 -3.2758829904318892E-01 a       699     0    35     1    19
 -4.4517082346159287E-01 a       700     0    35     1    20
 -4.6554235792994969E-01 a       701     0    36     1     1
  4.1490046718212581E-01 a       702     0    36     1     2
 -7.0418120800972106E-01 a       703     0    36     1     3
 -2.8311994112341948E-01 a       704     0    36     1     4
 -6.0267501348427710E-01 a       705     0    36     1     5
 -7.0916167094874383E-01 a       706     0    36     1     6
  3.3625764082461866E-02 a       707     0    36     1     7
 -2.1039560460641110E-01 a       708     0    36     1     8
  4.5357844168028605E-01 a       709     0    36     1     9
  6.8057122609656717E-01 a       710     0    36     1    10
  5.4949947555463929E-01 a       711     0    36     1    11
 -6.2535334816085875E-01 a       712     0    36     1    12
 -4.7445179195554091E-02 a       713     0    36     1    13
  3.0699429052200594E-01 a       714     0    36     1    14
 -1.5256125647864832E-01 a       715     0    36     1    15
 -1.9682635587015489E-02 a       716     0    36     1    16
  1.4785975819431496E+00 a       717     0    36     1    17
  1.9782801851845308E-01 a       718     0    36     1    18
  1.0053679116427134E+00 a       719     0    36     1    19
  7.6520232821096923E-01 a       720     0    36     1    20
  1.9755876491479524E-01 a       721     0    37     1     1
  1.1412930490860615E-01 a       722     0    37     1     2
  1.5819610478489946E-01 a       723     0    37     1     3
  5.0576413946162546E-01 a       724     0    37     1     4
  1.0441779260953337E-02 a       725     0    37     1     5
  2.3283792695718164E-01 a       726     0    37     1     6
 -4.7632163456727550E-01 a       727     0    37     1     7
  2.8926288358774183E-01 a       728     0    37     1     8
 -1.6193798580971294E-01 a       729     0    37     1     9
  4.9604097015472234E-02 a       730     0    37     1    10
  1.5513595054930690E-01 a       731     0    37     1    11
  7.8620956759082461E-01 a       732     0    37     1    12
 -7.0124491672259398E-02 a       733     0    37     1    13
 -1.7652946618589663E-01 a       734     0    37     1    14
  3.5248375551614625E-01 a       735     0    37     1    15
 -3.2488476904895042E-01 a       736     0    37     1    16
 -2.5757447678491030E-01 a       737     0    37     1    17
  2.3282033131229776E-01 a       738     0    37     1    18
  3.4277218700181317E-01 a       739     0    37     1    19
 -6.4890889636839066E-01 a       740     0    37     1    20
  4.2090054965210628E-02 a       741     0    38     1     1
 -1.9811579835997511E-01 a       742     0    38     1     2
 -1.7764507030386284E-01 a       743     0    38     1     3
  1.9094387395675191E-01 a       744     0    38     1     4
  3.4865152576733721E-01 a       745     0    38     1     5
 -5.6168418587698173E-02 a       746     0    38     1     6
  6.6891573421210726E-01 a       747     0    38     1     7
 -2.0185567972176424E-01 a       748     0    38     1     8
  4.8117495438864843E-01 a       749     0    38     1     9
 -1.0612578459768836E-01 a       750     0    38     1    10
 -3.5487531432863560E-02 a       751     0    38     1    11
 -1.1196914088399901E+00 a       752     0    38     1    12
  2.8566061441534313E-01 a       753     0    38     1    13
  1.8046206089914130E-01 a       754     0    38     1    14
 -4.1429673283545645E-02 a       755     0    38     1    15
 -8.1322763406924597E-02 a       756     0    38     1    16
 -2.7082666911680649E-02 a       757     0    38     1    17
  2.6150759692702708E-01 a       758     0    38     1    18
 -2.4647517790463361E-01 a       759     0    38     1    19
  2.2048354087046992E-01 a       760     0    38     1    20
 -1.1624275749644004E-01 a       761     0    39     1     1
  7.3726961336808797E-02 a       762     0    39     1     2
 -2.3224340500448082E-02 a       763     0    39     1     3
  2.5830112689339782E-02 a       764     0    39     1     4
 -7.3335583700841964E-02 a       765     0    39     1     5
 -2.0444873961402257E-01 a       766     0    39     1     6
 -3.6882113074303208E-01 a       767     0    39     1     7
  2.1662052546002941E-01 a       768     0    39     1     8
  7.2899922804002454E-02 a       769     0    39     1     9
 -2.2406161611466019E-01 a       770     0    39     1    10
 -8.9307272838357585E-02 a       771     0    39     1    11
 -9.4486014525765341E-02 a       772     0    39     1    12
 -1.2555073822126631E-01 a       773     0    39     1    13
 -3.6944324462262079E-01 a       774     0    39     1    14
 -1.0997354224273555E-01 a       775     0    39     1    15
  6.4033329514126869E-01 a       776     0    39     1    16
  1.0596736488994313E-01 a       777     0    39     1    17
  1.7907755127653807E-01 a       778     0    39     1    18
 -3.2696264425950988E-01 a       779     0    39     1    19
 -2.8904633166225058E-01 a       780     0    39     1    20
 -1.8352537602220123E-01 a       781     0    40     1     1
 -3.6206519169837074E-02 a       782     0    40     1     2
  5.0431248095813874E-01 a       783     0    40     1     3
  6.3816548833785713E-01 a       784     0    40     1     4
 -4.8192028935666331E-01 a       785     0    40     1     5
  8.5449972376350436E-01 a       786     0    40     1     6
 -4.2347048623474226E-01 a       787     0    40     1     7
 -7.9741811947880448E-01 a       788     0    40     1     8
 -9.7617356466286687E-01 a       789     0    40     1     9
  3.4508512000121333E-01 a       790     0    40     1    10
 -4.3622786862206392E-01 a       791     0    40     1    11
  2.9086152776331503E-01 a       792     0    40     1    12
 -8.0697141998847199E-01 a       793     0    40     1    13
  7.2806025337986602E-01 a       794     0    40     1    14
  4.5958965860834949E-01 a       795     0    40     1    15
  2.6024858110274424E-01 a       796     0    40     1    16
 -1.0808061699885525E-01 a       797     0    40     1    17
 -1.0150594999518774E-01 a       798     0    40     1    18
  3.4654835977073743E-02 a       799     0    40     1    19
 -3.9976119604770716E-01 a       800     0    40     1    20
 -4.9674605388790705E-01 a       801     0    41     1     1
 -9.4387047573007248E-03 a       802     0    41     1     2
  1.1400599008526047E+00 a       803     0    41     1     3
  5.4984533198262509E-01 a       804     0    41     1     4
  1.1668429903790105E+00 a       805     0    41     1     5
 -6.0581581573322045E-02 a       806     0    41     1     6
 -2.2738152345916407E-01 a       807     0    41     1     7
 -3.9286314205111794E-01 a       808     0    41     1     8
  4.1807404547580551E-01 a       809     0    41     1     9
  3.7862075215680624E-01 a       810     0    41     1    10
  1.2136227883742919E-01 a       811     0    41     1    11
 -8.1233691473642577E-01 a       812     0    41     1    12
 -5.2139283160082572E-01 a       813     0    41     1    13
  1.5128970570825977E+00 a       814     0    41     1    14
 -5.9716900413283724E-01 a       815     0    41     1    15
 -8.5953535041339402E-01 a       816     0    41     1    16
 -2.4402077211418441E-01 a       817     0    41     1    17
 -1.1084846393016594E+00 a       818     0    41     1    18
  1.2657599258036081E-01 a       819     0    41     1    19
 -2.1903855351093585E-01 a       820     0    41     1    20
 -5.0269398830801046E-02 a       821     0    42     1     1
 -1.0393265319137902E-01 a       822     0    42     1     2
  2.3593387945216460E-01 a       823     0    42     1     3
  1.1724825726625481E+00 a       824     0    42     1     4
 -3.5755891111941701E-01 a       825     0    42     1     5
  4.4304268697255328E-01 a       826     0    42     1     6
 -5.5019915357237525E-01 a       827     0    42     1     7
  2.9981009691280586E-01 a       828     0    42     1     8
 -7.1484567416562950E-01 a       829     0    42     1     9
 -4.8300804113885309E-01 a       830     0    42     1    10
 -3.8477398986839834E-01 a       831     0    42     1    11
  3.5620611277239894E-01 a       832     0    42     1    12
 -6.3719174392216265E-03 a       833     0    42     1    13
 -2.7795381553258813E-01 a       834     0    42     1    14
  4.0766354836588725E-01 a       835     0    42     1    15
 -2.4173097822196088E-01 a       836     0    42     1    16
 -6.1751829800764135E-01 a       837     0    42     1    17
 -1.9792651473247616E-01 a       838     0    42     1    18
 -2.2280823413519829E-01 a       839     0    42     1    19
 -5.1395964362331314E-01 a       840     0    42     1    20
 -6.2158771694297892E-02 a       841     0    43     1     1
 -2.0169119127169688E-01 a       842     0    43     1     2
 -6.1276163441470077E-02 a       843     0    43     1     3
 -5.5679064595366673E-02 a       844     0    43     1     4
 -3.8747144479352530E-01 a       845     0    43     1     5
 -1.4731823308108859E-02 a       846     0    43     1     6
  1.5079788701620253E-01 a       847     0    43     1     7
 -1.2970625896475371E-01 a       848     0    43     1     8
 -2.5728764774073282E-01 a       849     0    43     1     9
 -1.9540323975005991E-02 a       850     0    43     1    10
 -1.7052206009425663E-01 a       851     0    43     1    11
  5.6467985971121605E-02 a       852     0    43     1    12
  8.9772226647140296E-02 a       853     0    43     1    13
 -3.5442937661707541E-01 a       854     0    43     1    14
  5.1870352647683894E-02 a       855     0    43     1    15
  9.9529956646169718E-02 a       856     0    43     1    16
  8.2090584023022453E-02 a       857     0    43     1    17
  4.6181567605941366E-02 a       858     0    43     1    18
  1.8669076551192756E-01 a       859     0    43     1    19
  6.4258148374038964E-03 a       860     0    43     1    20
  2.3548681170918795E-01 a       861     0    44     1     1
  2.2570247185394232E-01 a       862     0    44     1     2
  1.1101925205034092E-01 a       863     0    44     1     3
  9.6805936704115650E-02 a       864     0    44     1     4
  3.4396372997570879E-01 a       865     0    44     1     5
  3.9330171872744651E-02 a       866     0    44     1     6
  1.4613721965569942E-01 a       867     0    44     1     7
 -3.0212548705879198E-02 a       868     0    44     1     8
  1.0523077016020141E-01 a       869     0    44     1     9
  1.8864352077540497E-01 a       870     0    44     1    10
  1.1531186611512459E-01 a       871     0    44     1    11
 -7.5320157659174922E-02 a       872     0    44     1    12
 -3.0761853300177795E-02 a       873     0    44     1    13
 -9.3416658553204773E-02 a       874     0    44     1    14
  1.5340413641807077E-01 a       875     0    44     1    15
  9.0803266615311032E-02 a       876     0    44     1    16
 -9.5363582222555685E-02 a       877     0    44     1    17
 -4.3022589000648392E-01 a       878     0    44     1    18
  4.3316337661317697E-03 a       879     0    44     1    19
 -1.2839274169644036E-02 a       880     0    44     1    20
 -2.3331658523275794E-01 a       881     0    45     1     1
 -1.0891507349875930E-01 a       882     0    45     1     2
 -3.0491301804580082E-02 a       883     0    45     1     3
  1.2855782892191611E-01 a       884     0    45     1     4
 -3.2443760817475376E-01 a       885     0    45     1     5
 -9.8908352374355121E-02 a       886     0    45     1     6
 -5.5887541125827091E-02 a       887     0    45     1     7
 -1.5552657078256946E-01 a       888     0    45     1     8
  3.8201284898819292E-02 a       889     0    45     1     9
 -1.7682724702996830E-01 a       890     0    45     1    10
 -2.8718111201135699E-01 a       891     0    45     1    11
 -1.0850840621458430E-01 a       892     0    45     1    12
  2.3478279879927493E-02 a       893     0    45     1    13
  2.9357060244634220E-02 a       894     0    45     1    14
 -1.7736718482085420E-01 a       895     0    45     1    15
  1.4491541332025981E-01 a       896     0    45     1    16
 -2.1383320442101766E-01 a       897     0    45     1    17
  2.7751968160251628E-01 a       898     0    45     1    18
 -3.2335019799217751E-01 a       899     0    45     1    19
  2.9528704599871758E-01 a       900     0    45     1    20
  1.6101442152088669E-01 a       901     0    46     1     1
 -4.4002337352883097E-01 a       902     0    46     1     2
  2.0304776600846126E-02 a       903     0    46     1     3
  5.9677737551809048E-03 a       904     0    46     1     4
  1.4615431531970152E-01 a       905     0    46     1     5
  9.4338343484101514E-02 a       906     0    46     1     6
 -3.9394666764494946E-01 a       907     0    46     1     7
 -6.4387492164328416E-02 a       908     0    46     1     8
 -6.7007626614855209E-02 a       909     0    46     1     9
 -7.0917178860888871E-02 a       910     0    46     1    10
  1.4118743932403655E-01 a       911     0    46     1    11
  4.4483240150226963E-02 a       912     0    46     1    12
  7.8340478600266786E-03 a       913     0    46     1    13
  7.2766166652671660E-02 a       914     0    46     1    14
  7.0229701267794098E-03 a       915     0    46     1    15
 -2.2312078239978902E-01 a       916     0    46     1    16
  3.8838223678136641E-01 a       917     0    46     1    17
  2.7576010292453174E-01 a       918     0    46     1    18
  2.6186851524566390E-01 a       919     0    46     1    19
 -4.5323680254795945E-01 a       920     0    46     1    20
  2.1325603026438017E-01 a       921     0    47     1     1
  2.9523233779563927E-02 a       922     0    47     1     2
  2.2405896712047216E-01 a       923     0    47     1     3
  1.1023374467088250E-01 a       924     0    47     1     4
  2.3001190119140624E-01 a       925     0    47     1     5
 -2.9563707990589888E-01 a       926     0    47     1     6
  5.0910043496596102E-01 a       927     0    47     1     7
 -5.4281228958590677E-01 a       928     0    47     1     8
 -3.5870327424696047E-01 a       929     0    47     1     9
 -2.1787509130745644E-01 a       930     0    47     1    10
  5.0243230844872377E-01 a       931     0    47     1    11
 -1.1558432534383802E-01 a       932     0    47     1    12
 -6.0339424083066762E-01 a       933     0    47     1    13
  9.2869918381143035E-01 a       934     0    47     1    14
  1.8927474705818217E-01 a       935     0    47     1    15
 -1.8543638726348408E-01 a       936     0    47     1    16
 -1.7984284614945778E-02 a       937     0    47     1    17
  9.9834528773597941E-02 a       938     0    47     1    18
 -6.4700265444427418E-01 a       939     0    47     1    19
  1.4383951710078466E-01 a       940     0    47     1    20
  6.2379977299346495E-02 a       941     0    48     1     1
  9.7407775994641177E-02 a       942     0    48     1     2
  1.7516338297028927E-01 a       943     0    48     1     3
 -1.3917203309259832E-01 a       944     0    48     1     4
  1.0795805629248192E-01 a       945     0    48     1     5
  2.7217586435003926E-01 a       946     0    48     1     6
 -1.1803168068830672E-01 a       947     0    48     1     7
  2.9010342172725717E-01 a       948     0    48     1     8
 -2.2490504108185619E-01 a       949     0    48     1     9
  2.1741071180232299E-02 a       950     0    48     1    10
 -3.7927209663472566E-01 a       951     0    48     1    11
  7.6719337404314539E-02 a       952     0    48     1    12
 -1.6030362003264350E-02 a       953     0    48     1    13
 -7.8681401813541135E-02 a       954     0    48     1    14
 -5.4592413204438106E-01 a       955     0    48     1    15
 -4.2708946416544341E-01 a       956     0    48     1    16
 -3.2298567520116878E-01 a       957     0    48     1    17
  6.8711671515193570E-02 a       958     0    48     1    18
  1.7299035385714551E-01 a       959     0    48     1    19
  8.4026962563841845E-02 a       960     0    48     1    20
 -7.0552136160441384E-02 a       961     0    49     1     1
 -2.4721686062388815E-01 a       962     0    49     1     2
 -4.4641095392305534E-03 a       963     0    49     1     3
  1.1582706738708799E-01 a       964     0    49     1     4
 -2.0443208603532950E-01 a       965     0    49     1     5
  1.5573474794859444E-02 a       966     0    49     1     6
  5.4809570636125482E-01 a       967     0    49     1     7
  2.6902878729173091E-01 a       968     0    49     1     8
 -5.7529877846448349E-02 a       969     0    49     1     9
  1.9100388682406549E-01 a       970     0    49     1    10
  7.6619727916666852E-02 a       971     0    49     1    11
  1.5494339598270832E-01 a       972     0    49     1    12
  3.0815351781775574E-01 a       973     0    49     1    13
 -2.9909006290599640E-02 a       974     0    49     1    14
  1.0801033185035921E-01 a       975     0    49     1    15
 -1.8992574852435429E-01 a       976     0    49     1    16
 -1.7079401176233905E-01 a       977     0    49     1    17
 -2.3793813625132865E-01 a       978     0    49     1    18
  1.3199584074643253E-01 a       979     0    49     1    19
 -2.8011631638991136E-01 a       980     0    49     1    20
  2.5917668553185857E-01 a       981     0    50     1     1
 -2.5673396088667094E-01 a       982     0    50     1     2
  2.9328969328153737E-01 a       983     0    50     1     3
  3.1583857558650313E-02 a       984     0    50     1     4
 -1.4559463380037721E-01 a       985     0    50     1     5
 -7.6732666607022193E-01 a       986     0    50     1     6
 -4.3095556153376496E-01 a       987     0    50     1     7
 -6.1581518639129607E-01 a       988     0    50     1     8
 -6.3524119286130043E-01 a       989     0    50     1     9
 -2.6147228118849863E-01 a       990     0    50     1    10
 -1.6616947764692558E-01 a       991     0    50     1    11
 -4.3235025307286823E-01 a       992     0    50     1    12
  1.7170720859985159E-01 a       993     0    50     1    13
  1.1685884892259592E-01 a       994     0    50     1    14
 -3.1049804024869249E-01 a       995     0    50     1    15
  5.8309382847923717E-02 a       996     0    50     1    16
  6.1190435210926086E-01 a       997     0    50     1    17
  2.1876991444604532E-01 a       998     0    50     1    18
  1.7273452758161025E-02 a       999     0    50     1    19
  3.2041212228035920E-01 a      1000     0    50     1    20
  1.7611234372055962E-02 a      1001     0    51     1     1
  4.0755782771598810E-02 a      1002     0    51     1     2
  4.5817816283271341E-02 a      1003     0    51     1     3
  1.0970019352429271E-01 a      1004     0    51     1     4
 -1.7737953455023789E-01 a      1005     0    51     1     5
  5.9516268889264326E-02 a      1006     0    51     1     6
  1.6354746618914429E-01 a      1007     0    51     1     7
  5.0555957322347148E-02 a      1008     0    51     1     8
 -2.4165499565330952E-02 a      1009     0    51     1     9
  2.4177600565683868E-02 a      1010     0    51     1    10
 -2.0454422377642414E-02 a      1011     0    51     1    11
  4.1909622053145489E-02 a      1012     0    51     1    12
  1.3837171010107294E-01 a      1013     0    51     1    13
  8.8620567857219210E-02 a      1014     0    51     1    14
  3.1460211254570720E-02 a      1015     0    51     1    15
 -1.2703830877525468E-01 a      1016     0    51     1    16
 -9.1753628928874245E-02 a      1017     0    51     1    17
 -1.8455236290610033E-01 a      1018     0    51     1    18
 -1.3132648359117448E-02 a      1019     0    51     1    19
  5.1161184505650381E-02 a      1020     0    51     1    20
 -7.4553353276853654E-02 a      1021     0    52     1     1
  4.4997424828278454E-01 a      1022     0    52     1     2
 -5.0822730776678826E-01 a      1023     0    52     1     3
 -2.4463022264705178E-01 a      1024     0    52     1     4
  1.9713297827551646E-01 a      1025     0    52     1     5
 -2.0088158143897542E-01 a      1026     0    52     1     6
  3.6017487216504863E-02 a      1027     0    52     1     7
  4.6859345026704746E-01 a      1028     0    52     1     8
  7.3723493864852319E-01 a      1029     0    52     1     9
  9.2422188205640386E-03 a      1030     0    52     1    10
  1.9164628879671566E-01 a      1031     0    52     1    11
  3.7803168126559128E-01 a      1032     0    52     1    12
  1.3346617264417396E-01 a      1033     0    52     1    13
 -1.5086534216887352E-02 a      1034     0    52     1    14
  2.9674655467128919E-01 a      1035     0    52     1    15
 -1.5255400099067731E-01 a      1036     0    52     1    16
 -1.6976138208600269E-01 a      1037     0    52     1    17
  8.4980541518323103E-03 a      1038     0    52     1    18
  2.1205895718336573E-01 a      1039     0    52     1    19
 -3.1993915242268256E-01 a      1040     0    52     1    20
  1.1348237749461373E-01 a      1041     0    53     1     1
 -3.2699369868747991E-01 a      1042     0    53     1     2
 -7.0553950047574832E-01 a      1043     0    53     1     3
 -8.5375852790707418E-01 a      1044     0    53     1     4
 -4.0647835648314229E-01 a      1045     0    53     1     5
 -5.6826632090374585E-01 a      1046     0    53     1     6
 -7.0039856896056496E-01 a      1047     0    53     1     7
 -1.0158450567637261E+00 a      1048     0    53     1     8
 -5.3084145507861702E-01 a      1049     0    53     1     9
 -1.1595429906702681E-01 a      1050     0    53     1    10
  2.3915346451341163E-01 a      1051     0    53     1    11
  3.3359342526613961E-04 a      1052     0    53     1    12
  5.6099703722053296E-01 a      1053     0    53     1    13
  9.4448714876699236E-01 a      1054     0    53     1    14
  2.3241355204871880E-01 a      1055     0    53     1    15
  4.7736037636987200E-01 a      1056     0    53     1    16
 -1.2435914080357713E-01 a      1057     0    53     1    17
  6.0620476821401237E-01 a      1058     0    53     1    18
 -2.4589209890583186E-01 a      1059     0    53     1    19
  6.7977062046498649E-01 a      1060     0    53     1    20
 -9.6908325268515935E-03 a      1061     0    54     1     1
  4.2747133245246327E-01 a      1062     0    54     1     2
 -1.6676532681484527E-01 a      1063     0    54     1     3
 -1.5446060835821471E-01 a      1064     0    54     1     4
  2.9582981579746376E-01 a      1065     0    54     1     5
  4.7443798631107086E-02 a      1066     0    54     1     6
  2.3149656050340073E-01 a      1067     0    54     1     7
 -2.3136023711146907E-02 a      1068     0    54     1     8
  3.5191319175821922E-01 a      1069     0    54     1     9
  3.3687464018694202E-01 a      1070     0    54     1    10
  2.8245513429061098E-01 a      1071     0    54     1    11
 -1.1205327856335859E-01 a      1072     0    54     1    12
  1.0374472060118101E-01 a      1073     0    54     1    13
 -1.8283009508169518E-01 a      1074     0    54     1    14
 -3.0671524387291921E-01 a      1075     0    54     1    15
  6.3653950701918288E-02 a      1076     0    54     1    16
  4.5140925771251178E-01 a      1077     0    54     1    17
  3.8428640105832657E-01 a      1078     0    54     1    18
 -9.6417741673110569E-02 a      1079     0    54     1    19
 -3.5442143413631105E-01 a      1080     0    54     1    20
 -2.4796405556590153E-02 b      1081     1     1
 -1.5398864683115372E+00 b      1082     1     2
 -5.7205640273508995E-01 b      1083     1     3
  8.2277126919444554E-01 b      1084     1     4
  1.8411368816583160E-01 b      1085     1     5
  1.1390377265809168E-03 b      1086     1     6
 -8.2778701831736534E-01 b      1087     1     7
  1.7356346980171009E-01 b      1088     1     8
  1.1290012127120750E+00 b      1089     1     9
 -3.9978634089259524E-01 b      1090     1    10
 -6.5423804605773428E-01 b      1091     1    11
  9.3383677943133703E-01 b      1092     1    12
  1.0400325167620256E-02 b      1093     1    13
  9.1295020792357989E-02 b      1094     1    14
 -6.1705026418555486E-01 b      1095     1    15
 -3.0844380388220427E-01 b      1096     1    16
  7.0215405362146954E-01 b      1097     1    17
 -3.8283126438018988E-01 b      1098     1    18
  7.0897342828679474E-02 b      1099     1    19
  1.4892210864465518E+00 b      1100     1    20
 -2.6441560686977494E-01 a      1101     1     1     2     1
  1.3179545172640969E-01 a      1102     1     1     2     2
  4.1689074373405477E-01 a      1103     1     1     2     3
  3.0126948153375056E-02 a      1104     1     1     2     4
 -4.6852730311426094E-01 a      1105     1     1     2     5
 -6.5155231248106205E-01 a      1106     1     1     2     6
 -5.6683773518916547E-01 a      1107     1     1     2     7
  3.1299735689875913E-01 a      1108     1     1     2     8
 -1.9529112981138561E-01 a      1109     1     1     2     9
 -5.1301669616809065E-01 a      1110     1     1     2    10
 -1.1416573692297534E+00 a      1111     1     1     2    11
 -2.1070247256880412E-01 a      1112     1     1     2    12
  3.2560917907074777E-01 a      1113     1     1     2    13
  2.1124193141363562E-01 a      1114     1     1     2    14
 -4.9493160514895640E-01 a      1115     1     1     2    15
  2.7235614386289304E-02 a      1116     1     1     2    16
  4.6892533220878257E-01 a      1117     1     1     2    17
  3.0813529085526181E-01 a      1118     1     1     2    18
 -4.4382337786328041E-01 a      1119     1     1     2    19
  6.7365564180534754E-01 a      1120     1     1     2    20
  3.4690397458603334E-01 a      1121     1     2     2     1
 -4.2242803605822538E-01 a      1122     1     2     2     2
  6.4190019743009674E-01 a      1123     1     2     2     3
 -4.6576076126968385E-01 a      1124     1     2     2     4
  1.6587080981842434E-01 a      1125     1     2     2     5
  2.1507093533968150E-01 a      1126     1     2     2     6
  1.0111563860817595E-01 a      1127     1     2     2     7
  2.1017930854619206E-02 a      1128     1     2     2     8
  9.7844078927624631E-02 a      1129     1     2     2     9
  3.1672929476314632E-01 a      1130     1     2     2    10
  7.9240327437466485E-01 a      1131     1     2     2    11
  2.3933906244235001E-01 a      1132     1     2     2    12
  4.1443691475818456E-01 a      1133     1     2     2    13
 -1.4015853101742928E-01 a      1134     1     2     2    14
 -5.3460784820061413E-01 a      1135     1     2     2    15
  1.4545451210321991E-01 a      1136     1     2     2    16
 -1.0808042512554829E-01 a      1137     1     2     2    17
  1.7762711490375599E-01 a      1138     1     2     2    18
  2.5831246857694595E-01 a      1139     1     2     2    19
  6.3460050848861116E-01 a      1140     1     2     2    20
  2.1313417705040583E-01 a      1141     1     3     2     1
 -6.5623577168053049E-01 a      1142     1     3     2     2
 -4.5149297265322208E-01 a      1143     1     3     2     3
  7.6070085991493641E-01 a      1144     1     3     2     4
  7.2930434144872081E-01 a      1145     1     3     2     5
  9.8625654249448402E-01 a      1146     1     3     2     6
  3.6991591664507900E-01 a      1147     1     3     2     7
 -5.5409274185800972E-01 a      1148     1     3     2     8
  3.3305925977281398E-01 a      1149     1     3     2     9
 -5.9952068515872547E-01 a      1150     1     3     2    10
  7.0191738519401614E-01 a      1151     1     3     2    11
  3.3109179994851207E-01 a      1152     1     3     2    12
  2.3803724540318996E-01 a      1153     1     3     2    13
 -3.1849190464389837E-01 a      1154     1     3     2    14
  4.9626121674541035E-01 a      1155     1     3     2    15
  6.0097890090766870E-01 a      1156     1     3     2    16
 -3.8943805612157306E-01 a      1157     1     3     2    17
  1.9314458683141902E-01 a      1158     1     3     2    18
  5.4241272972354437E-01 a      1159     1     3     2    19
  3.8537714114734334E-01 a      1160     1     3     2    20
 -6.1460504511053071E-01 a      1161     1     4     2     1
  3.4716010531177849E-01 a      1162     1     4     2     2
 -2.3301394297390712E-01 a      1163     1     4     2     3
 -5.5651939571854592E-01 a      1164     1     4     2     4
 -5.2495359747419068E-01 a      1165     1     4     2     5
 -6.2238781616513483E-01 a      1166     1     4     2     6
 -3.5520614689560426E-01 a      1167     1     4     2     7
  4.0550927187911090E-01 a      1168     1     4     2     8
  1.4902004513909714E-01 a      1169     1     4     2     9
  4.4006818595712438E-01 a      1170     1     4     2    10
  1.0992898035690979E-01 a      1171     1     4     2    11
 -2.3687216716293236E-01 a      1172     1     4     2    12
 -1.0759964273695662E-01 a      1173     1     4     2    13
 -5.1753080071482715E-01 a      1174     1     4     2    14
 -5.7462761714477983E-01 a      1175     1     4     2    15
  8.2776233391380349E-01 a      1176     1     4     2    16
  2.0846347023849832E-01 a      1177     1     4     2    17
 -8.4133568726202401E-01 a      1178     1     4     2    18
 -2.1942055142260045E-01 a      1179     1     4     2    19
  1.6528766918896895E-01 a      1180     1     4     2    20
 -3.9843292573233108E-01 a      1181     1     5     2     1
  3.5325885388559169E-01 a      1182     1     5     2     2
  1.1653834734701743E-01 a      1183     1     5     2     3
 -2.4035350165685082E-01 a      1184     1     5     2     4
 -4.7089835043604594E-01 a      1185     1     5     2     5
 -4.9031115877212333E-01 a      1186     1     5     2     6
  4.0927055671732837E-01 a      1187     1     5     2     7
  3.5911137154134617E-02 a      1188     1     5     2     8
 -9.0427820525411073E-01 a      1189     1     5     2     9
  4.4805080243675482E-01 a      1190     1     5     2    10
  1.2482172850564051E-01 a      1191     1     5     2    11
  1.9618154773404831E-01 a      1192     1     5     2    12
 -1.8648275462231445E-01 a      1193     1     5     2    13
 -8.3227136930289089E-02 a      1194     1     5     2    14
 -9.4117807741323958E-02 a      1195     1     5     2    15
 -1.6210859090445007E-01 a      1196     1     5     2    16
 -1.0894318123664994E-01 a      1197     1     5     2    17
 -1.0271403579882805E-01 a      1198     1     5     2    18
  3.7987614823644611E-01 a      1199     1     5     2    19
  6.0340483981418669E-01 a      1200     1     5     2    20
  8.9056005650394976E-01 a      1201     1     6     2     1
 -3.3597710985464468E-01 a      1202     1     6     2     2
  2.9459352288503909E-01 a      1203     1     6     2     3
  3.0559420459713338E-01 a      1204     1     6     2     4
  4.8315079519884518E-01 a      1205     1     6     2     5
 -5.7833207246053431E-01 a      1206     1     6     2     6
  1.3260416831849398E-01 a      1207     1     6     2     7
 -5.1050770170410306E-02 a      1208     1     6     2     8
 -5.5490686890415153E-01 a      1209     1     6     2     9
  2.0417725443101084E-01 a      1210     1     6     2    10
  3.4451378837258634E-01 a      1211     1     6     2    11
  5.8004421351411328E-01 a      1212     1     6     2    12
  8.2123654806510321E-02 a      1213     1     6     2    13
 -4.5911422283476006E-01 a      1214     1     6     2    14
 -2.1271811755644734E-01 a      1215     1     6     2    15
 -7.0179884038654577E-02 a      1216     1     6     2    16
  2.7857111106266097E-01 a      1217     1     6     2    17
  6.0754226943980394E-01 a      1218     1     6     2    18
  1.8494840513780274E-02 a      1219     1     6     2    19
  4.2540567725574868E-01 a      1220     1     6     2    20
 -1.9043085768860474E-01 a      1221     1     7     2     1
  5.3312025045849887E-01 a      1222     1     7     2     2
  4.4267692896977212E-01 a      1223     1     7     2     3
 -3.6193638882666079E-01 a      1224     1     7     2     4
 -5.4685690192206073E-02 a      1225     1     7     2     5
 -7.9395556578743776E-01 a      1226     1     7     2     6
 -3.3732449675474435E-01 a      1227     1     7     2     7
 -4.1396956548034686E-01 a      1228     1     7     2     8
  6.1405792495932021E-01 a      1229     1     7     2     9
 -2.9544893527344268E-01 a      1230     1     7     2    10
 -1.1491354992263958E-01 a      1231     1     7     2    11
 -2.8549326127476630E-02 a      1232     1     7     2    12
  3.0965020400076831E-01 a      1233     1     7     2    13
 -3.7454127152700639E-01 a      1234     1     7     2    14
  2.8762036837606197E-01 a      1235     1     7     2    15
  3.5914363463013627E-01 a      1236     1     7     2    16
  4.2784329430006535E-01 a      1237     1     7     2    17
  4.0323243308436596E-01 a      1238     1     7     2    18
 -7.3823287005813809E-02 a      1239     1     7     2    19
  3.4521877420654234E-01 a      1240     1     7     2    20
 -1.7974334977793302E-01 a      1241     1     8     2     1
 -1.2921822393280274E-01 a      1242     1     8     2     2
  1.8046240019350578E-02 a      1243     1     8     2     3
 -2.8056062099111140E-01 a      1244     1     8     2     4
 -1.1835252338202372E-01 a      1245     1     8     2     5
 -3.0115851086853362E-01 a      1246     1     8     2     6
  3.5618714139060825E-01 a      1247     1     8     2     7
  8.0166297068101244E-02 a      1248     1     8     2     8
 -2.0493467108902183E-01 a      1249     1     8     2     9
  7.9814800984719803E-01 a      1250     1     8     2    10
  1.5344326669336172E-01 a      1251     1     8     2    11
  3.1651268625297868E-01 a      1252     1     8     2    12
 -2.6750658108884673E-01 a      1253     1     8     2    13
 -2.8841010267999501E-01 a      1254     1     8     2    14
 -5.7091317346518444E-01 a      1255     1     8     2    15
  6.3846589825633501E-02 a      1256     1     8     2    16
  9.6504424566298805E-02 a      1257     1     8     2    17
 -1.7385839511748985E-01 a      1258     1     8     2    18
 -6.6322765801785288E-01 a      1259     1     8     2    19
 -4.7948640311460833E-01 a      1260     1     8     2    20
 -6.3202399624971672E-01 a      1261     1     9     2     1
  1.6007142233515681E-02 a      1262     1     9     2     2
  5.5811797418758791E-01 a      1263     1     9     2     3
 -4.7819057508603097E-01 a      1264     1     9     2     4
  2.5249614338893800E-01 a      1265     1     9     2     5
  5.0828732192332871E-01 a      1266     1     9     2     6
  2.6047371334250894E-02 a      1267     1     9     2     7
  2.9576421036766587E-01 a      1268     1     9     2     8
 -1.5985661648189739E-01 a      1269     1     9     2     9
 -8.1169806023402924E-01 a      1270     1     9     2    10
 -5.9028031350726859E-02 a      1271     1     9     2    11
  1.0500387901348368E-01 a      1272     1     9     2    12
  7.2291527479576123E-01 a      1273     1     9     2    13
 -6.5041134101611853E-01 a      1274     1     9     2    14
 -6.1394343505397605E-03 a      1275     1     9     2    15
  6.5189359775456601E-01 a      1276     1     9     2    16
  2.8022325045756735E-01 a      1277     1     9     2    17
  4.6537416242725821E-01 a      1278     1     9     2    18
  6.3479070795070802E-01 a      1279     1     9     2    19
  6.4289975204051830E-02 a      1280     1     9     2    20
 -5.6698864287645834E-01 a      1281     1    10     2     1
 -2.2997353993221281E-01 a      1282     1    10     2     2
 -6.3991263917810093E-01 a      1283     1    10     2     3
  3.8150512598582526E-01 a      1284     1    10     2     4
  4.2055741966353677E-01 a      1285     1    10     2     5
 -3.9150080520145439E-03 a      1286     1    10     2     6
 -4.8412075150130718E-01 a      1287     1    10     2     7
  3.0881208433114282E-01 a      1288     1    10     2     8
  3.9924311395948292E-01 a      1289     1    10     2     9
  4.2006742655524909E-01 a      1290     1    10     2    10
  3.2777957559602743E-02 a      1291     1    10     2    11
 -5.9488356859256040E-02 a      1292     1    10     2    12
 -8.0743670849088944E-01 a      1293     1    10     2    13
 -6.0806598543572354E-01 a      1294     1    10     2    14
  2.7298338541628525E-01 a      1295     1    10     2    15
 -2.0189296999388631E-01 a      1296     1    10     2    16
  4.5283490196041926E-01 a      1297     1    10     2    17
 -5.2799128552780472E-01 a      1298     1    10     2    18
 -4.7133401318777170E-02 a      1299     1    10     2    19
 -7.8693198244174423E-01 a      1300     1    10     2    20
 -7.1168583267109120E-01 a      1301     1    11     2     1
 -2.3978854711251343E-01 a      1302     1    11     2     2
 -9.2704139251380935E-02 a      1303     1    11     2     3
 -9.2300765610305435E-01 a      1304     1    11     2     4
 -8.1086423181785094E-01 a      1305     1    11     2     5
 -3.4997465395077143E-01 a      1306     1    11     2     6
  3.6686516783202544E-01 a      1307     1    11     2     7
  3.6741872757728271E-02 a      1308     1    11     2     8
  9.2206304255859040E-01 a      1309     1    11     2     9
  7.1535721631577243E-01 a      1310     1    11     2    10
  1.4517189234253317E-01 a      1311     1    11     2    11
  5.5350833213605379E-02 a      1312     1    11     2    12
  6.2626545408093717E-02 a      1313     1    11     2    13
  1.2118255477400579E+00 a      1314     1    11     2    14
  6.7125557305967989E-02 a      1315     1    11     2    15
 -3.9068628847647874E-01 a      1316     1    11     2    16
 -2.1789690372254730E-01 a      1317     1    11     2    17
  9.8720351729621703E-01 a      1318     1    11     2    18
  2.4798330515005898E-01 a      1319     1    11     2    19
 -6.9425193873595881E-01 a      1320     1    11     2    20
  1.9973190386037384E-01 a      1321     1    12     2     1
  8.3946286900657807E-02 a      1322     1    12     2     2
 -3.6937550313498718E-01 a      1323     1    12     2     3
 -4.5411611713543282E-01 a      1324     1    12     2     4
 -7.0356078020126334E-02 a      1325     1    12     2     5
  6.2014883864795589E-01 a      1326     1    12     2     6
 -4.8600861830199044E-02 a      1327     1    12     2     7
 -2.6425523734728389E-02 a      1328     1    12     2     8
 -2.3822066870681644E-01 a      1329     1    12     2     9
  2.2330578415313695E-01 a      1330     1    12     2    10
 -1.0818785366190002E+00 a      1331     1    12     2    11
  4.9152620867028296E-01 a      1332     1    12     2    12
  2.1833079298790584E-01 a      1333     1    12     2    13
  6.0131580155073161E-01 a      1334     1    12     2    14
  1.1152145780542597E-01 a      1335     1    12     2    15
  7.5280740967179183E-01 a      1336     1    12     2    16
  6.0602319766039703E-01 a      1337     1    12     2    17
  9.0315338703984449E-02 a      1338     1    12     2    18
 -2.8911873765806728E-01 a      1339     1    12     2    19
 -6.6499484823105881E-01 a      1340     1    12     2    20
  1.1796358528274954E-01 a      1341     1    13     2     1
 -4.1176824869560069E-01 a      1342     1    13     2     2
 -8.5854840117041892E-02 a      1343     1    13     2     3
 -4.0778399449232255E-02 a      1344     1    13     2     4
 -4.6351471729354804E-02 a      1345     1    13     2     5
 -2.7404755814047460E-01 a      1346     1    13     2     6
  1.3321453615564567E+00 a      1347     1    13     2     7
  3.6343772617681702E-01 a      1348     1    13     2     8
  2.6738687345435797E-01 a      1349     1    13     2     9
  3.9530312790782263E-01 a      1350     1    13     2    10
  4.1519399669095552E-01 a      1351     1    13     2    11
  2.9798165128694948E-01 a      1352     1    13     2    12
  1.6197972815881745E-01 a      1353     1    13     2    13
  3.8141481140061739E-01 a      1354     1    13     2    14
 -8.4301985437885349E-02 a      1355     1    13     2    15
 -3.8617847732190574E-01 a      1356     1    13     2    16
 -4.4848011019719453E-01 a      1357     1    13     2    17
 -1.9693480518999107E-01 a      1358     1    13     2    18
  3.0571609875015789E-02 a      1359     1    13     2    19
 -8.3768462113968212E-02 a      1360     1    13     2    20
  5.7905479785458314E-01 a      1361     1    14     2     1
  1.7438418738978401E-01 a      1362     1    14     2     2
  1.7383054539028187E-01 a      1363     1    14     2     3
 -4.7625677043989378E-01 a      1364     1    14     2     4
  4.7899216666157690E-01 a      1365     1    14     2     5
 -6.6358275448324555E-01 a      1366     1    14     2     6
 -4.4098646186531076E-01 a      1367     1    14     2     7
 -2.3226640772256513E-01 a      1368     1    14     2     8
  3.0061855674454657E-01 a      1369     1    14     2     9
  9.9843813741440329E-02 a      1370     1    14     2    10
  1.1669871996070792E-01 a      1371     1    14     2    11
  3.1198898286325510E-01 a      1372     1    14     2    12
 -2.6944185720878744E-01 a      1373     1    14     2    13
 -5.2657891245271888E-03 a      1374     1    14     2    14
  2.6855372000405714E-01 a      1375     1    14     2    15
 -2.7192080787938100E-01 a      1376     1    14     2    16
  1.3033353186560240E-01 a      1377     1    14     2    17
  3.2871078229994866E-01 a      1378     1    14     2    18
  4.9851355894744015E-01 a      1379     1    14     2    19
 -5.8838142593396377E-02 a      1380     1    14     2    20
  1.0237753142314246E-01 a      1381     1    15     2     1
 -9.3712849743220272E-01 a      1382     1    15     2     2
  4.5202825988265455E-01 a      1383     1    15     2     3
 -5.4372597598070858E-02 a      1384     1    15     2     4
  2.8992688884407430E-01 a      1385     1    15     2     5
 -4.7779615077791393E-01 a      1386     1    15     2     6
 -2.0779132282470700E-01 a      1387     1    15     2     7
 -2.7045349247565226E-01 a      1388     1    15     2     8
 -1.5784365722735755E-01 a      1389     1    15     2     9
 -1.6136814527999957E-01 a      1390     1    15     2    10
 -8.7014881006054134E-01 a      1391     1    15     2    11
 -4.7973972263126170E-02 a      1392     1    15     2    12
 -5.0082132001542580E-02 a      1393     1    15     2    13
 -5.7761611320824813E-01 a      1394     1    15     2    14
 -1.6584714466840875E-01 a      1395     1    15     2    15
  9.2287425528701075E-02 a      1396     1    15     2    16
  3.7544148978508257E-01 a      1397     1    15     2    17
  5.8706484501536471E-01 a      1398     1    15     2    18
  5.8416193449463372E-01 a      1399     1    15     2    19
 -2.7833665690948597E-02 a      1400     1    15     2    20
  2.4231818043789091E-01 a      1401     1    16     2     1
 -1.3229408895281886E-01 a      1402     1    16     2     2
  2.9851627817494863E-01 a      1403     1    16     2     3
 -3.1817653920762157E-01 a      1404     1    16     2     4
  2.4402023753359584E-01 a      1405     1    16     2     5
 -3.1492371355698551E-01 a      1406     1    16     2     6
 -1.6829061451661342E-01 a      1407     1    16     2     7
 -6.1767312113609507E-01 a      1408     1    16     2     8
  7.2794490646079080E-01 a      1409     1    16     2     9
 -7.2495607918652782E-01 a      1410     1    16     2    10
 -2.9359824121834360E-01 a      1411     1    16     2    11
 -6.6782406021396498E-02 a      1412     1    16     2    12
  1.0101944822937131E-01 a      1413     1    16     2    13
  2.2232458154224863E-01 a      1414     1    16     2    14
  5.4046608801469198E-01 a      1415     1    16     2    15
  2.0340693767254581E-01 a      1416     1    16     2    16
  2.4163145700825464E-01 a      1417     1    16     2    17
  7.4859327315180568E-01 a      1418     1    16     2    18
 -4.8029025821690913E-01 a      1419     1    16     2    19
  8.0086863250751672E-01 a      1420     1    16     2    20
  8.7323066688985290E-02 a      1421     1    17     2     1
 -1.4666662541699418E-01 a      1422     1    17     2     2
  1.1081677614862463E-01 a      1423     1    17     2     3
  5.1926176506058763E-01 a      1424     1    17     2     4
  4.3416249859702188E-02 a      1425     1    17     2     5
  5.1387289805282088E-01 a      1426     1    17     2     6
 -5.8775630061968653E-01 a      1427     1    17     2     7
 -6.4740534349526466E-02 a      1428     1    17     2     8
 -4.3257379271904411E-01 a      1429     1    17     2     9
 -6.5213009650865794E-02 a      1430     1    17     2    10
  6.4572692465104353E-01 a      1431     1    17     2    11
  7.2478643519315722E-01 a      1432     1    17     2    12
 -2.0824335806174812E-01 a      1433     1    17     2    13
 -5.1476950210162697E-01 a      1434     1    17     2    14
 -1.9481693336437839E-01 a      1435     1    17     2    15
 -4.3478071532223916E-01 a      1436     1    17     2    16
  5.4874411397484457E-01 a      1437     1    17     2    17
  3.6072915383682669E-01 a      1438     1    17     2    18
  2.8163989696920577E-01 a      1439     1    17     2    19
 -1.3975836653152238E-01 a      1440     1    17     2    20
  5.2593057027346957E-01 a      1441     1    18     2     1
 -3.9737312247674350E-01 a      1442     1    18     2     2
  4.2359057261561672E-01 a      1443     1    18     2     3
 -1.1556202223718783E-01 a      1444     1    18     2     4
  6.6651470428739668E-01 a      1445     1    18     2     5
  1.1081170254120803E-01 a      1446     1    18     2     6
  1.9726761456672594E-02 a      1447     1    18     2     7
  1.7087450589328304E-01 a      1448     1    18     2     8
 -1.2319036402765772E-02 a      1449     1    18     2     9
 -8.5207955967416160E-01 a      1450     1    18     2    10
 -7.3193621207102300E-01 a      1451     1    18     2    11
 -2.5934385217063977E-01 a      1452     1    18     2    12
  2.8710271185960279E-01 a      1453     1    18     2    13
 -1.5344166777829651E-01 a      1454     1    18     2    14
  2.1365879742778085E-01 a      1455     1    18     2    15
  6.5791370005607608E-01 a      1456     1    18     2    16
  8.0157070559145047E-02 a      1457     1    18     2    17
  2.6583641478510583E-01 a      1458     1    18     2    18
  6.7462034132587623E-01 a      1459     1    18     2    19
 -8.1145635636895294E-02 a      1460     1    18     2    20
  7.2711300569568538E-01 a      1461     1    19     2     1
  4.9852438282685746E-01 a      1462     1    19     2     2
  1.0269683040653739E-01 a      1463     1    19     2     3
 -3.7611951491501405E-01 a      1464     1    19     2     4
  5.5288435962865179E-01 a      1465     1    19     2     5
  1.9701886096538199E-01 a      1466     1    19     2     6
  4.2321947199242377E-01 a      1467     1    19     2     7
 -2.9405620445327757E-01 a      1468     1    19     2     8
  4.6283205711271203E-01 a      1469     1    19     2     9
 -4.9288503244627868E-01 a      1470     1    19     2    10
 -6.5573908165034209E-02 a      1471     1    19     2    11
 -2.7448363663110303E-01 a      1472     1    19     2    12
  4.0616155417024191E-01 a      1473     1    19     2    13
  2.7676452561499195E-02 a      1474     1    19     2    14
  4.5974520961475340E-01 a      1475     1    19     2    15
 -7.9859341523796507E-02 a      1476     1    19     2    16
 -2.5034373636877366E-01 a      1477     1    19     2    17
 -1.3323360951269941E-01 a      1478     1    19     2    18
 -1.3944555294607897E-01 a      1479     1    19     2    19
 -6.4310323129373714E-01 a      1480     1    19     2    20
  2.7162599297904814E-02 a      1481     1    20     2     1
 -6.5861875884954313E-01 a      1482     1    20     2     2
  5.8132658913228677E-02 a      1483     1    20     2     3
 -3.2791507113812973E-01 a      1484     1    20     2     4
 -7.0991370998112077E-02 a      1485     1    20     2     5
 -1.2944221735038883E-01 a      1486     1    20     2     6
 -9.5646457418610664E-01 a      1487     1    20     2     7
  2.7105572978051956E-01 a      1488     1    20     2     8
 -4.7859435532921202E-01 a      1489     1    20     2     9
 -8.3346633705789497E-01 a      1490     1    20     2    10
  2.2542235179362380E-01 a      1491     1    20     2    11
  4.0032239667038338E-01 a      1492     1    20     2    12
 -9.1879053850302543E-04 a      1493     1    20     2    13
  3.9128882776697259E-02 a      1494     1    20     2    14
  7.4075692582116437E-01 a      1495     1    20     2    15
  4.7024970514055819E-01 a      1496     1    20     2    16
 -2.1731250428026361E-01 a      1497     1    20     2    17
  7.6760982368481701E-01 a      1498     1    20     2    18
  1.5733128795999293E-01 a      1499     1    20     2    19
  2.7627518840573162E-01 a      1500     1    20     2    20
  4.3311970274917994E-01 b      1501     2     1
  5.2255648182335745E-01 b      1502     2     2
 -5.6604453328264104E-01 b      1503     2     3
  1.2461087856890722E+00 b      1504     2     4
  5.6621500354900045E-01 b      1505     2     5
  1.4351848257429727E+00 b      1506     2     6
 -1.6401378618555291E+00 b      1507     2     7
  1.7227395328048918E+00 b      1508     2     8
 -1.4381663707997563E+00 b      1509     2     9
  4.0672969170758760E-01 b      1510     2    10
  4.2000494009241435E-01 b      1511     2    11
  1.6572743632252784E+00 b      1512     2    12
  1.5576965432750545E+00 b      1513     2    13
 -1.1854741783853775E+00 b      1514     2    14
 -1.3968004757797026E+00 b      1515     2    15
  5.7653553989955597E-01 b      1516     2    16
 -7.9683451879916856E-01 b      1517     2    17
  6.2634380266586553E-01 b      1518     2    18
 -1.1522440757667807E+00 b      1519     2    19
 -1.1100779090831354E+00 b      1520     2    20
  5.0911739674068324E-01 a      1521     2     1     3     1
 -9.2199291961521923E-01 a      1522     2     2     3     1
  1.3366184360719040E+00 a      1523     2     3     3     1
 -2.1892133473540168E-01 a      1524     2     4     3     1
 -6.4334785777408143E-01 a      1525     2     5     3     1
 -1.2652489167785064E+00 a      1526     2     6     3     1
  3.1843209972858886E+00 a      1527     2     7     3     1
 -2.2220145355364398E+00 a      1528     2     8     3     1
  1.7820070693078685E+00 a      1529     2     9     3     1
 -2.2733824790660004E-01 a      1530     2    10     3     1
  2.7358499164906380E-01 a      1531     2    11     3     1
 -2.9508575348972239E+00 a      1532     2    12     3     1
 -1.5785963245964931E+00 a      1533     2    13     3     1
  1.3240601656899871E+00 a      1534     2    14     3     1
  6.4536897626517975E-01 a      1535     2    15     3     1
 -5.9554371234407111E-01 a      1536     2    16     3     1
  5.6002934109115066E-01 a      1537     2    17     3     1
 -5.9886381641289699E-01 a      1538     2    18     3     1
  2.1674480717909141E-03 a      1539     2    19     3     1
  6.5332875012999336E-02 a      1540     2    20     3     1
 -2.3852199424392881E+00 b      1541     3     1
