################################################################################
# Neural network connection values (weights and biases).
################################################################################
# Col  Name       Description
################################################################################
# 1    connection Neural network connection value.
# 2    t          Connection type (a = weight, b = bias).
# 3    index      Index enumerating weights.
# 4    l_s        Starting point layer (end point layer for biases).
# 5    n_s        Starting point neuron in starting layer (end point neuron for biases).
# 6    l_e        End point layer.
# 7    n_e        End point neuron in end layer.
################################################################################
#                      1 2         3     4     5     6     7
#             connection t     index   l_s   n_s   l_e   n_e
############################################################
  2.7299580216253533E-02 a         1     0     1     1     1
  6.8391628094391685E-02 a         2     0     1     1     2
 -2.5039415872748638E-01 a         3     0     1     1     3
 -1.4132148621474125E+00 a         4     0     1     1     4
  1.0819147244071350E-01 a         5     0     1     1     5
 -2.0356635719487218E-01 a         6     0     1     1     6
  7.8582100220944875E-02 a         7     0     1     1     7
 -2.4340196022731267E-01 a         8     0     1     1     8
 -1.3016384711475606E-01 a         9     0     1     1     9
 -9.3615619860449889E-02 a        10     0     1     1    10
 -2.4124299714258568E-01 a        11     0     1     1    11
  5.8706074186531765E-01 a        12     0     1     1    12
 -2.8887933585793590E-01 a        13     0     1     1    13
 -1.9089702520500737E-01 a        14     0     1     1    14
 -2.0852264192778727E-01 a        15     0     1     1    15
  5.4629304022589420E-01 a        16     0     1     1    16
  9.8580174285761255E-02 a        17     0     1     1    17
 -3.0277403798537239E-01 a        18     0     1     1    18
  3.2046445345794139E-01 a        19     0     1     1    19
  4.9026726384748087E-02 a        20     0     1     1    20
 -7.8372986744556186E-02 a        21     0     2     1     1
  2.6639454707019750E-01 a        22     0     2     1     2
 -3.6674002858262483E-01 a        23     0     2     1     3
 -1.2759647634085096E-02 a        24     0     2     1     4
 -1.2466107809456833E-01 a        25     0     2     1     5
  1.3839113127455871E-01 a        26     0     2     1     6
 -5.0420494918523344E-02 a        27     0     2     1     7
 -1.0383690949723083E-01 a        28     0     2     1     8
  3.9937135053273776E-01 a        29     0     2     1     9
 -2.6092598832732333E-01 a        30     0     2     1    10
  2.8650764206480950E-01 a        31     0     2     1    11
 -1.4292026636397112E-01 a        32     0     2     1    12
  4.4837132728324969E-01 a        33     0     2     1    13
  2.4184193985292049E-01 a        34     0     2     1    14
 -3.2428268964249890E-01 a        35     0     2     1    15
  2.4075257708561327E-02 a        36     0     2     1    16
  9.9630929550323183E-02 a        37     0     2     1    17
  2.0470348101904526E-01 a        38     0     2     1    18
 -4.2907616877971833E-01 a        39     0     2     1    19
 -4.0655637240491099E-01 a        40     0     2     1    20
 -3.5381576386469238E-01 a        41     0     3     1     1
 -1.2842067459078696E-01 a        42     0     3     1     2
  2.5936088086183997E-02 a        43     0     3     1     3
 -3.8534949356707332E-01 a        44     0     3     1     4
 -5.5858408167009176E-02 a        45     0     3     1     5
 -3.6361199207152785E-02 a        46     0     3     1     6
  1.4713787295007957E-01 a        47     0     3     1     7
  2.5517234738740940E-01 a        48     0     3     1     8
  2.6864210170632241E-01 a        49     0     3     1     9
  2.2531907828236247E-01 a        50     0     3     1    10
 -1.9966435748387665E-01 a        51     0     3     1    11
 -7.5424738936922794E-02 a        52     0     3     1    12
 -3.8643105298607178E-02 a        53     0     3     1    13
  9.6666229774976797E-02 a        54     0     3     1    14
 -2.1826305286710698E-01 a        55     0     3     1    15
  1.4463143378717291E-01 a        56     0     3     1    16
  1.3646317997529975E-01 a        57     0     3     1    17
 -1.3472370465440195E-01 a        58     0     3     1    18
 -1.3351557957270155E-03 a        59     0     3     1    19
  4.9825595279476095E-02 a        60     0     3     1    20
 -8.9741617141772409E-02 a        61     0     4     1     1
  1.2159397795413145E-01 a        62     0     4     1     2
  1.6729512171548674E-01 a        63     0     4     1     3
  2.6555316445683980E-01 a        64     0     4     1     4
  6.7547958900037772E-02 a        65     0     4     1     5
 -7.2441516240348766E-02 a        66     0     4     1     6
 -6.7394859113900238E-02 a        67     0     4     1     7
  1.1960360554193099E-01 a        68     0     4     1     8
  4.7949524623892631E-01 a        69     0     4     1     9
  1.6705409438928082E-01 a        70     0     4     1    10
  2.3107757468766121E-01 a        71     0     4     1    11
  1.1989529263897440E-01 a        72     0     4     1    12
  2.4345350166259935E-01 a        73     0     4     1    13
  4.4286095915483897E-01 a        74     0     4     1    14
  8.0020496281992468E-02 a        75     0     4     1    15
 -5.6892961635277972E-01 a        76     0     4     1    16
  2.8798721132019367E-02 a        77     0     4     1    17
  7.4665605833919402E-01 a        78     0     4     1    18
  2.2549651817683748E-02 a        79     0     4     1    19
  1.4318429008846509E-02 a        80     0     4     1    20
 -2.7940467009395981E-01 a        81     0     5     1     1
 -7.0004706249487592E-01 a        82     0     5     1     2
 -1.2493519581317514E-01 a        83     0     5     1     3
 -4.0200120699395747E-01 a        84     0     5     1     4
 -1.2403810818083648E-01 a        85     0     5     1     5
 -4.8437280522419003E-02 a        86     0     5     1     6
 -3.8194582677887412E-01 a        87     0     5     1     7
 -1.6254886726324069E-01 a        88     0     5     1     8
 -1.1682656541102311E-01 a        89     0     5     1     9
  6.1724592348742291E-01 a        90     0     5     1    10
 -3.7994132445690099E-01 a        91     0     5     1    11
  6.2414220417266646E-03 a        92     0     5     1    12
 -3.2696875500855804E-01 a        93     0     5     1    13
 -5.0592729228598898E-01 a        94     0     5     1    14
  1.5056373866559694E-01 a        95     0     5     1    15
 -2.1943660285605981E-01 a        96     0     5     1    16
 -6.9186706526195207E-01 a        97     0     5     1    17
 -5.6846511046393300E-01 a        98     0     5     1    18
  4.4993641251590266E-01 a        99     0     5     1    19
 -7.1952970854703799E-02 a       100     0     5     1    20
 -4.1276277083144443E-02 a       101     0     6     1     1
  1.5550133632437407E-01 a       102     0     6     1     2
  9.7323718688661881E-02 a       103     0     6     1     3
 -2.8347561639591584E-01 a       104     0     6     1     4
 -6.2519560030388707E-02 a       105     0     6     1     5
 -5.6302848948901051E-02 a       106     0     6     1     6
 -9.5126179172029274E-03 a       107     0     6     1     7
  3.6366523339594101E-02 a       108     0     6     1     8
  5.6785907174872259E-02 a       109     0     6     1     9
 -1.0275061771441635E-01 a       110     0     6     1    10
 -3.9908647429649259E-02 a       111     0     6     1    11
  1.4764892629119086E-01 a       112     0     6     1    12
 -4.4313358712842373E-02 a       113     0     6     1    13
  3.8965018651260896E-01 a       114     0     6     1    14
  1.7980241169178243E-01 a       115     0     6     1    15
 -2.9027221995893038E-01 a       116     0     6     1    16
  1.5414467504053653E-01 a       117     0     6     1    17
 -5.7404222401869147E-02 a       118     0     6     1    18
  2.6529296198880159E-01 a       119     0     6     1    19
 -8.7924077822386343E-02 a       120     0     6     1    20
 -9.2415257494781846E-05 a       121     0     7     1     1
  2.0639585892701467E-01 a       122     0     7     1     2
  1.5963583996877864E-01 a       123     0     7     1     3
  3.4843435390746447E-01 a       124     0     7     1     4
 -1.9649639002138497E-01 a       125     0     7     1     5
  2.5495179228039233E-01 a       126     0     7     1     6
  5.5824758988174281E-02 a       127     0     7     1     7
  4.9157326154235410E-02 a       128     0     7     1     8
 -1.4516740742892684E-01 a       129     0     7     1     9
 -3.5602118874903227E-01 a       130     0     7     1    10
 -1.4487929541158201E-01 a       131     0     7     1    11
 -5.1076315766491276E-01 a       132     0     7     1    12
 -1.9400562503888336E-01 a       133     0     7     1    13
  3.5254594700807951E-01 a       134     0     7     1    14
 -3.1632854438129430E-02 a       135     0     7     1    15
 -3.1186487447587008E-01 a       136     0     7     1    16
  1.2757572328237668E-01 a       137     0     7     1    17
 -3.9895509547463864E-01 a       138     0     7     1    18
 -3.2864608641018500E-01 a       139     0     7     1    19
  9.7125451260490478E-02 a       140     0     7     1    20
  4.0149465616660546E-01 a       141     0     8     1     1
  5.8537276678527726E-02 a       142     0     8     1     2
  2.3187612316801866E-02 a       143     0     8     1     3
  4.1276305662581260E-02 a       144     0     8     1     4
  3.4052898996565389E-01 a       145     0     8     1     5
  1.1770873437891909E-01 a       146     0     8     1     6
 -8.3005008104437089E-02 a       147     0     8     1     7
  3.0082420169756617E-02 a       148     0     8     1     8
  2.0616319396767960E-01 a       149     0     8     1     9
 -4.3964492145818818E-01 a       150     0     8     1    10
  3.8536337748462157E-01 a       151     0     8     1    11
 -7.9246047416547172E-02 a       152     0     8     1    12
  3.4598378385579320E-01 a       153     0     8     1    13
 -1.7898116073325646E-01 a       154     0     8     1    14
  7.1449842131746294E-02 a       155     0     8     1    15
  2.6791595796408174E-01 a       156     0     8     1    16
  1.2144746763659052E-02 a       157     0     8     1    17
  2.4856181356382062E-01 a       158     0     8     1    18
 -1.4937310996156239E-01 a       159     0     8     1    19
 -2.1460771245195581E-01 a       160     0     8     1    20
 -2.3588658617202965E-01 a       161     0     9     1     1
 -1.7422003725631774E-01 a       162     0     9     1     2
 -2.4872061343649898E-01 a       163     0     9     1     3
 -3.2571953549403877E-02 a       164     0     9     1     4
  4.3759026453349997E-01 a       165     0     9     1     5
  1.1568991739712766E-02 a       166     0     9     1     6
 -8.1631958019869083E-02 a       167     0     9     1     7
 -1.2216261667685760E-01 a       168     0     9     1     8
  5.4712418120626730E-02 a       169     0     9     1     9
  3.9867707831592976E-03 a       170     0     9     1    10
 -8.7117269625703250E-02 a       171     0     9     1    11
  1.1623918179493628E-01 a       172     0     9     1    12
 -1.2335205421234372E-02 a       173     0     9     1    13
 -5.1842249547929577E-02 a       174     0     9     1    14
 -1.0708708228559452E-01 a       175     0     9     1    15
  9.5863482586572055E-02 a       176     0     9     1    16
  8.9194282825350038E-02 a       177     0     9     1    17
  1.8719170143826841E-01 a       178     0     9     1    18
 -1.0676454942430262E-02 a       179     0     9     1    19
 -5.7012848415455619E-02 a       180     0     9     1    20
  1.6301397310613439E-01 a       181     0    10     1     1
 -2.7741054483253450E-03 a       182     0    10     1     2
  1.6410680032897196E-01 a       183     0    10     1     3
 -4.7211932184548661E-01 a       184     0    10     1     4
  2.2841406052894223E-01 a       185     0    10     1     5
  1.2818960145923011E-01 a       186     0    10     1     6
  1.6200364744286147E-01 a       187     0    10     1     7
 -1.9875422859977679E-01 a       188     0    10     1     8
 -2.2181336997400807E-02 a       189     0    10     1     9
  3.6324658766026041E-01 a       190     0    10     1    10
  1.2612234181619893E-02 a       191     0    10     1    11
  4.8533847917191369E-01 a       192     0    10     1    12
  1.0287776688283255E-01 a       193     0    10     1    13
 -3.6252727739317474E-02 a       194     0    10     1    14
 -1.7493138556076987E-01 a       195     0    10     1    15
 -1.0254605068900133E-01 a       196     0    10     1    16
 -2.5605433768814717E-01 a       197     0    10     1    17
  1.5572755640395003E-01 a       198     0    10     1    18
 -1.3930339017977386E-01 a       199     0    10     1    19
  1.3472132570097492E-01 a       200     0    10     1    20
  1.4568410909362045E-01 a       201     0    11     1     1
 -3.0428508125020259E-01 a       202     0    11     1     2
  1.8878812935779855E-02 a       203     0    11     1     3
 -2.3057959632244007E-01 a       204     0    11     1     4
  3.9694011594039569E-02 a       205     0    11     1     5
  2.7132457835690349E-02 a       206     0    11     1     6
 -8.5215820417430546E-02 a       207     0    11     1     7
 -1.6819648289789255E-01 a       208     0    11     1     8
  2.3769481348324240E-01 a       209     0    11     1     9
  2.5379375512138835E-01 a       210     0    11     1    10
 -4.7445332700927584E-01 a       211     0    11     1    11
 -7.9260690153352326E-02 a       212     0    11     1    12
 -9.3120747349332150E-02 a       213     0    11     1    13
 -1.0498673374183216E-01 a       214     0    11     1    14
  1.0238115343434358E-01 a       215     0    11     1    15
 -5.9623142514880670E-02 a       216     0    11     1    16
  6.9884100724632942E-02 a       217     0    11     1    17
 -1.4994782758080015E-02 a       218     0    11     1    18
 -1.4965956284401349E-01 a       219     0    11     1    19
 -1.4062296941203159E-01 a       220     0    11     1    20
  1.3894112909873224E-01 a       221     0    12     1     1
 -8.2343160578425612E-02 a       222     0    12     1     2
 -1.6033230523943579E-01 a       223     0    12     1     3
 -3.0275519917221527E-01 a       224     0    12     1     4
 -1.8491774627208354E-01 a       225     0    12     1     5
  3.8510640833603310E-02 a       226     0    12     1     6
  1.4981626716363303E-01 a       227     0    12     1     7
  3.0924889159415125E-01 a       228     0    12     1     8
  1.0647374422416299E-02 a       229     0    12     1     9
  5.7998469632907723E-02 a       230     0    12     1    10
  4.6210810527744011E-03 a       231     0    12     1    11
 -2.8652267505491147E-01 a       232     0    12     1    12
 -1.7629519496543872E-02 a       233     0    12     1    13
 -1.6218482444933874E-01 a       234     0    12     1    14
 -1.7300748397064178E-02 a       235     0    12     1    15
  9.9307455583915502E-02 a       236     0    12     1    16
  4.4104630776092522E-02 a       237     0    12     1    17
 -1.2517579987713997E-02 a       238     0    12     1    18
 -1.0118015499443916E-02 a       239     0    12     1    19
  1.1268286121955330E-01 a       240     0    12     1    20
 -2.4536977328380108E-01 a       241     0    13     1     1
  2.3369103741114403E-01 a       242     0    13     1     2
 -6.4367829613632521E-02 a       243     0    13     1     3
  1.5986887340920192E-01 a       244     0    13     1     4
 -2.5095733796048675E-01 a       245     0    13     1     5
 -3.7119815865711184E-02 a       246     0    13     1     6
 -1.5741406530036411E-01 a       247     0    13     1     7
  1.1356173961470889E-01 a       248     0    13     1     8
  1.5186002910019281E-01 a       249     0    13     1     9
 -3.1102815653323046E-01 a       250     0    13     1    10
  1.4618675050986085E-01 a       251     0    13     1    11
 -2.5026252501945995E-01 a       252     0    13     1    12
 -1.2805410450834948E-01 a       253     0    13     1    13
  1.0172926890047207E-01 a       254     0    13     1    14
  4.3704411113504121E-02 a       255     0    13     1    15
 -9.5487165038915228E-03 a       256     0    13     1    16
  9.7029336116659787E-02 a       257     0    13     1    17
  1.5330390413845926E-01 a       258     0    13     1    18
 -2.0944050199563252E-01 a       259     0    13     1    19
  1.5394024090223434E-02 a       260     0    13     1    20
 -2.4291615818157372E-01 a       261     0    14     1     1
 -8.7566034025267775E-02 a       262     0    14     1     2
 -3.7949191618454320E-01 a       263     0    14     1     3
 -1.1835115245468321E-01 a       264     0    14     1     4
 -1.1046142371657663E-01 a       265     0    14     1     5
  1.0874062237621542E-01 a       266     0    14     1     6
 -8.0350517225041634E-02 a       267     0    14     1     7
 -6.1436815881605072E-02 a       268     0    14     1     8
 -5.8065783205780694E-02 a       269     0    14     1     9
  1.5684807105249745E-02 a       270     0    14     1    10
  1.3281443887080799E-01 a       271     0    14     1    11
 -1.3857921880741600E-01 a       272     0    14     1    12
  2.4452742949139192E-01 a       273     0    14     1    13
 -1.6599236628071279E-01 a       274     0    14     1    14
  7.7408392216460634E-02 a       275     0    14     1    15
  9.4329338999877388E-02 a       276     0    14     1    16
 -2.5613563740031159E-01 a       277     0    14     1    17
  1.3367677494901867E-01 a       278     0    14     1    18
  1.2379547070802392E-01 a       279     0    14     1    19
 -1.4064301617659022E-01 a       280     0    14     1    20
 -2.2928792803445022E-02 a       281     0    15     1     1
  7.3431366307858750E-02 a       282     0    15     1     2
  7.0518908696877117E-02 a       283     0    15     1     3
  7.2219086722865658E-02 a       284     0    15     1     4
  1.2016222361408994E-01 a       285     0    15     1     5
  8.1897503709456823E-02 a       286     0    15     1     6
 -1.2707871583151897E-02 a       287     0    15     1     7
 -1.0959047744290998E-01 a       288     0    15     1     8
  1.7919841926434718E-01 a       289     0    15     1     9
 -2.3949354979686737E-02 a       290     0    15     1    10
 -1.0815433826445613E-01 a       291     0    15     1    11
  8.7184287994497248E-02 a       292     0    15     1    12
  4.5859955882144830E-02 a       293     0    15     1    13
 -1.1361304363593183E-01 a       294     0    15     1    14
  3.7484633931451156E-02 a       295     0    15     1    15
 -1.7285971896639635E-01 a       296     0    15     1    16
  2.4142772961437790E-02 a       297     0    15     1    17
  1.3488096034020364E-01 a       298     0    15     1    18
 -7.8655969100134795E-02 a       299     0    15     1    19
 -4.5924770563638154E-02 a       300     0    15     1    20
  7.4261351122130892E-02 a       301     0    16     1     1
 -3.2363673278162738E-02 a       302     0    16     1     2
 -9.0360596181427486E-02 a       303     0    16     1     3
 -1.8641337196708635E-01 a       304     0    16     1     4
 -7.4898543454025926E-02 a       305     0    16     1     5
 -8.0950548840991204E-02 a       306     0    16     1     6
  5.1833448022282333E-02 a       307     0    16     1     7
 -2.6578081532627362E-01 a       308     0    16     1     8
 -3.6314426389907777E-02 a       309     0    16     1     9
  1.1588090358253171E-01 a       310     0    16     1    10
 -3.5743926619229683E-03 a       311     0    16     1    11
  2.9026017810932558E-01 a       312     0    16     1    12
  8.7682185499591322E-02 a       313     0    16     1    13
 -1.4974045906279139E-02 a       314     0    16     1    14
 -2.3437978596106239E-02 a       315     0    16     1    15
 -8.3331377481160006E-03 a       316     0    16     1    16
 -2.3295891735891375E-02 a       317     0    16     1    17
 -1.2403565266599180E-01 a       318     0    16     1    18
 -4.1898129571308541E-02 a       319     0    16     1    19
  2.4166021576328113E-02 a       320     0    16     1    20
  2.0863934069777509E-01 a       321     0    17     1     1
 -8.1899246801607969E-02 a       322     0    17     1     2
  5.1564474254618159E-02 a       323     0    17     1     3
  7.3889751091548814E-02 a       324     0    17     1     4
  3.9859717735269629E-01 a       325     0    17     1     5
  1.1520197115904833E-01 a       326     0    17     1     6
  1.1495188827209088E-01 a       327     0    17     1     7
  1.2038410877897740E-01 a       328     0    17     1     8
  6.8415556018980139E-02 a       329     0    17     1     9
  2.2226095346305565E-02 a       330     0    17     1    10
 -2.0078172212305689E-01 a       331     0    17     1    11
 -1.5660465887235228E-01 a       332     0    17     1    12
 -9.5390557069688964E-02 a       333     0    17     1    13
  5.6051390552728841E-02 a       334     0    17     1    14
 -2.1225225629683604E-02 a       335     0    17     1    15
  1.5163436781541639E-01 a       336     0    17     1    16
  2.1796166033730208E-01 a       337     0    17     1    17
  2.6164382773939693E-03 a       338     0    17     1    18
  5.5672961618933613E-02 a       339     0    17     1    19
  2.3275238022763788E-03 a       340     0    17     1    20
 -3.7176095518878613E-02 a       341     0    18     1     1
 -8.5055930853759941E-04 a       342     0    18     1     2
  5.2404417025625788E-02 a       343     0    18     1     3
 -8.5711650749071736E-02 a       344     0    18     1     4
 -1.3558172540781202E-01 a       345     0    18     1     5
 -9.5381709434176287E-02 a       346     0    18     1     6
  5.0817940400987908E-02 a       347     0    18     1     7
  8.2824578933267431E-02 a       348     0    18     1     8
 -3.4192973151496470E-02 a       349     0    18     1     9
 -1.5588717103434246E-02 a       350     0    18     1    10
 -4.4997672856436017E-03 a       351     0    18     1    11
  6.8387300295252853E-03 a       352     0    18     1    12
 -4.1943295188761297E-02 a       353     0    18     1    13
  2.2100800720889607E-01 a       354     0    18     1    14
 -2.4547190562576877E-02 a       355     0    18     1    15
 -3.0531011647587630E-02 a       356     0    18     1    16
 -3.2458978156380075E-02 a       357     0    18     1    17
  1.1573143410098859E-01 a       358     0    18     1    18
  2.2946764237582153E-02 a       359     0    18     1    19
 -2.7322972591069640E-03 a       360     0    18     1    20
 -1.5422458672339776E-01 a       361     0    19     1     1
  1.0173609036598863E-01 a       362     0    19     1     2
  5.5749241246601869E-02 a       363     0    19     1     3
 -3.9005406771970626E-02 a       364     0    19     1     4
 -1.7191508665114855E-01 a       365     0    19     1     5
 -1.0475633678880675E-01 a       366     0    19     1     6
 -1.3169554916642909E-01 a       367     0    19     1     7
  8.4361935223409110E-02 a       368     0    19     1     8
  8.6956468787559082E-02 a       369     0    19     1     9
 -1.5949045187830513E-01 a       370     0    19     1    10
  1.5905401121826512E-01 a       371     0    19     1    11
 -2.6593267754875947E-02 a       372     0    19     1    12
 -7.8070738800177966E-02 a       373     0    19     1    13
 -9.7283817492952895E-02 a       374     0    19     1    14
  3.3618416355312659E-02 a       375     0    19     1    15
 -1.3983907484260302E-01 a       376     0    19     1    16
  3.8616242307062384E-02 a       377     0    19     1    17
  1.0785005655782054E-01 a       378     0    19     1    18
 -2.7632838196883180E-02 a       379     0    19     1    19
  2.6276700646190340E-03 a       380     0    19     1    20
 -1.5306114882705399E-01 a       381     0    20     1     1
 -2.3242225822975970E-02 a       382     0    20     1     2
 -1.0037858398405147E-01 a       383     0    20     1     3
  3.3764413174320232E-02 a       384     0    20     1     4
 -3.3623081196162211E-02 a       385     0    20     1     5
  6.7091633996864949E-02 a       386     0    20     1     6
 -1.8365822711039953E-02 a       387     0    20     1     7
  3.8261368692661245E-02 a       388     0    20     1     8
 -1.3130182996544951E-01 a       389     0    20     1     9
  1.3688348278847529E-01 a       390     0    20     1    10
 -2.1557933071614788E-02 a       391     0    20     1    11
 -9.4933369636681451E-03 a       392     0    20     1    12
  6.3925634440817933E-02 a       393     0    20     1    13
 -4.1757421763859916E-02 a       394     0    20     1    14
 -1.3130242502773420E-02 a       395     0    20     1    15
 -1.6752551097512086E-02 a       396     0    20     1    16
 -1.8242010349316928E-01 a       397     0    20     1    17
 -8.3433541227828201E-02 a       398     0    20     1    18
  8.9529893430296562E-02 a       399     0    20     1    19
 -1.4210869886202624E-02 a       400     0    20     1    20
 -1.5091282445624430E-03 a       401     0    21     1     1
 -1.3193951959724096E-02 a       402     0    21     1     2
 -3.2527683513657639E-02 a       403     0    21     1     3
  8.0764591531848992E-02 a       404     0    21     1     4
  1.5941703201542870E-01 a       405     0    21     1     5
  8.9860452356385886E-02 a       406     0    21     1     6
 -5.3374987800101165E-02 a       407     0    21     1     7
 -8.2710972904116151E-02 a       408     0    21     1     8
 -1.5099370438464862E-02 a       409     0    21     1     9
  6.2633503747762179E-02 a       410     0    21     1    10
 -2.2418669720830273E-02 a       411     0    21     1    11
 -9.2608058592878698E-02 a       412     0    21     1    12
  5.3259866621129810E-02 a       413     0    21     1    13
 -2.2042134234915342E-01 a       414     0    21     1    14
  3.6513660093494577E-02 a       415     0    21     1    15
 -1.1826717266714265E-01 a       416     0    21     1    16
  5.4139983933591061E-02 a       417     0    21     1    17
 -1.2056010028911042E-01 a       418     0    21     1    18
 -9.2884921181467066E-03 a       419     0    21     1    19
 -8.6107425193382436E-03 a       420     0    21     1    20
  1.0720611210264139E-02 a       421     0    22     1     1
 -1.5919603979827383E-02 a       422     0    22     1     2
 -1.4682506316296653E-01 a       423     0    22     1     3
 -6.2786923752852289E-03 a       424     0    22     1     4
  4.1665332434842146E-03 a       425     0    22     1     5
 -4.3726243540441974E-02 a       426     0    22     1     6
  3.3828753325386977E-02 a       427     0    22     1     7
 -9.0931386864436289E-02 a       428     0    22     1     8
 -8.4609155743783068E-02 a       429     0    22     1     9
  1.1930952997074376E-02 a       430     0    22     1    10
  3.8802177897964397E-02 a       431     0    22     1    11
  1.3846648162057193E-01 a       432     0    22     1    12
  2.4780353962006771E-02 a       433     0    22     1    13
  1.0759207636949113E-01 a       434     0    22     1    14
 -2.1544334583917916E-02 a       435     0    22     1    15
  1.8051088680676508E-01 a       436     0    22     1    16
 -2.9430823040622490E-02 a       437     0    22     1    17
 -1.5164187032037910E-01 a       438     0    22     1    18
  3.7186762542734730E-02 a       439     0    22     1    19
  1.5986639952377396E-02 a       440     0    22     1    20
  1.4005409845491429E-01 a       441     0    23     1     1
 -4.4457617209610334E-02 a       442     0    23     1     2
 -1.3598087004390461E-01 a       443     0    23     1     3
  8.4017705143768426E-02 a       444     0    23     1     4
  3.1110244350664046E-01 a       445     0    23     1     5
 -8.1470231780120153E-02 a       446     0    23     1     6
  1.0988756501683392E-01 a       447     0    23     1     7
  7.9237349174802463E-02 a       448     0    23     1     8
  5.2596787403844873E-02 a       449     0    23     1     9
 -3.1192951798926581E-02 a       450     0    23     1    10
 -9.1908237880584845E-02 a       451     0    23     1    11
  3.3709823866881150E-02 a       452     0    23     1    12
 -5.8973933798622209E-02 a       453     0    23     1    13
  9.6163999689546469E-03 a       454     0    23     1    14
 -3.2549432899384341E-02 a       455     0    23     1    15
  1.5503325219210809E-01 a       456     0    23     1    16
  1.4435349117732310E-01 a       457     0    23     1    17
 -3.8229348403190339E-02 a       458     0    23     1    18
  2.6406022711564192E-01 a       459     0    23     1    19
  1.5321534144278235E-02 a       460     0    23     1    20
  1.4712638040337886E-01 a       461     0    24     1     1
 -1.4673745239795307E-02 a       462     0    24     1     2
  4.0484516879152520E-02 a       463     0    24     1     3
 -2.4417493912675895E-03 a       464     0    24     1     4
 -1.2645453766519638E-01 a       465     0    24     1     5
 -1.0440985193383184E-01 a       466     0    24     1     6
 -1.3354141237291903E-02 a       467     0    24     1     7
  6.1615245277638474E-02 a       468     0    24     1     8
 -6.8721644375860674E-02 a       469     0    24     1     9
 -1.0450550503833419E-02 a       470     0    24     1    10
 -1.4906690753991500E-02 a       471     0    24     1    11
  6.6562467277009846E-02 a       472     0    24     1    12
 -5.1562343855561271E-02 a       473     0    24     1    13
  1.8970604736211000E-01 a       474     0    24     1    14
 -2.7636331286083199E-02 a       475     0    24     1    15
  1.5413054127541451E-01 a       476     0    24     1    16
  6.0459247552058719E-02 a       477     0    24     1    17
  1.1559405390604188E-01 a       478     0    24     1    18
 -6.8039305649296574E-03 a       479     0    24     1    19
 -4.2683723687470844E-02 a       480     0    24     1    20
 -1.2183156058120749E-01 a       481     0    25     1     1
  2.8490120835731485E-02 a       482     0    25     1     2
  3.6016685992955556E-03 a       483     0    25     1     3
 -2.3338796215774994E-02 a       484     0    25     1     4
 -4.8845852719041336E-02 a       485     0    25     1     5
  2.0308652802467526E-02 a       486     0    25     1     6
 -6.8781028339404235E-02 a       487     0    25     1     7
  6.4106117273412394E-02 a       488     0    25     1     8
  1.3569128516950676E-02 a       489     0    25     1     9
 -1.7290625930923200E-02 a       490     0    25     1    10
  3.9133123457252603E-02 a       491     0    25     1    11
 -7.6820173350449147E-02 a       492     0    25     1    12
 -2.3245567827536340E-02 a       493     0    25     1    13
 -9.7393458652910297E-02 a       494     0    25     1    14
  1.8532026500499617E-02 a       495     0    25     1    15
 -6.1319229753801642E-02 a       496     0    25     1    16
  1.3686710727900734E-02 a       497     0    25     1    17
  6.3817095253953265E-02 a       498     0    25     1    18
 -3.2117938893053831E-02 a       499     0    25     1    19
 -1.0803412910919151E-02 a       500     0    25     1    20
 -3.8527610412344100E-02 a       501     0    26     1     1
  2.8006663398820984E-02 a       502     0    26     1     2
  1.1982072407632131E-01 a       503     0    26     1     3
 -6.7559882646485783E-02 a       504     0    26     1     4
 -1.0351207962472346E-01 a       505     0    26     1     5
  6.7984446949039268E-02 a       506     0    26     1     6
 -5.1088322166597845E-02 a       507     0    26     1     7
 -2.0934537042594077E-02 a       508     0    26     1     8
  1.1407894203398852E-02 a       509     0    26     1     9
  4.8691370511955247E-02 a       510     0    26     1    10
 -9.2551877318579161E-03 a       511     0    26     1    11
 -3.2225987177352769E-02 a       512     0    26     1    12
  3.1603938837933346E-02 a       513     0    26     1    13
  9.2067250290719146E-02 a       514     0    26     1    14
  1.5945095076750609E-02 a       515     0    26     1    15
 -9.3905790033388739E-02 a       516     0    26     1    16
 -8.1628005419557059E-02 a       517     0    26     1    17
  1.6371649374094244E-02 a       518     0    26     1    18
 -1.1406128384577302E-01 a       519     0    26     1    19
 -1.6742603612459685E-02 a       520     0    26     1    20
 -9.2550386105844998E-02 a       521     0    27     1     1
  3.4321048553520847E-02 a       522     0    27     1     2
  1.5077487047498625E-01 a       523     0    27     1     3
  9.5213076808268841E-03 a       524     0    27     1     4
  7.7805185275394081E-02 a       525     0    27     1     5
  1.6675803557434607E-01 a       526     0    27     1     6
  1.9789448823633551E-02 a       527     0    27     1     7
 -2.2479771369961217E-02 a       528     0    27     1     8
  5.6695033712890183E-02 a       529     0    27     1     9
  1.9288190656617063E-02 a       530     0    27     1    10
 -5.0928203707542551E-02 a       531     0    27     1    11
 -9.3851752801689795E-02 a       532     0    27     1    12
  4.5891009927631198E-02 a       533     0    27     1    13
 -3.2459964624496676E-05 a       534     0    27     1    14
  2.8238451555211579E-02 a       535     0    27     1    15
 -1.3283015398615530E-01 a       536     0    27     1    16
 -4.2468206130854426E-02 a       537     0    27     1    17
  4.0461604231510927E-02 a       538     0    27     1    18
 -1.4105535447425743E-01 a       539     0    27     1    19
 -7.5561869948223403E-03 a       540     0    27     1    20
  3.1836962986603538E-02 a       541     0    28     1     1
  2.3065424082403075E-02 a       542     0    28     1     2
 -4.3767499217517063E-03 a       543     0    28     1     3
 -4.6078227088038909E-02 a       544     0    28     1     4
 -6.7998993490867618E-02 a       545     0    28     1     5
 -4.6431706003809171E-02 a       546     0    28     1     6
 -1.1958818013350848E-02 a       547     0    28     1     7
 -4.5803435229634509E-02 a       548     0    28     1     8
  4.2934318196618700E-02 a       549     0    28     1     9
 -2.6953267944990811E-02 a       550     0    28     1    10
  2.5329846108245218E-02 a       551     0    28     1    11
  7.3431089674479491E-02 a       552     0    28     1    12
  4.3544457714834355E-03 a       553     0    28     1    13
  5.9248831337161488E-02 a       554     0    28     1    14
  1.1263686988175510E-02 a       555     0    28     1    15
 -5.2232728730982900E-03 a       556     0    28     1    16
  3.9698788462551888E-03 a       557     0    28     1    17
 -2.5242726004590363E-02 a       558     0    28     1    18
  1.5019205371896280E-02 a       559     0    28     1    19
  2.1910949968133942E-03 a       560     0    28     1    20
  7.6018855613508934E-02 a       561     0    29     1     1
 -2.6279517831050501E-02 a       562     0    29     1     2
 -4.0077036539616168E-02 a       563     0    29     1     3
  5.3709783228716924E-02 a       564     0    29     1     4
  1.2605287638362819E-01 a       565     0    29     1     5
 -8.0297592859100334E-02 a       566     0    29     1     6
  5.7920272726788388E-02 a       567     0    29     1     7
  2.5196208502182276E-02 a       568     0    29     1     8
  1.8351893068669002E-02 a       569     0    29     1     9
  9.6745129233857918E-05 a       570     0    29     1    10
 -5.8149170865710073E-02 a       571     0    29     1    11
  6.4533855693935258E-02 a       572     0    29     1    12
 -1.6789961568521819E-02 a       573     0    29     1    13
 -4.3406370870079695E-02 a       574     0    29     1    14
 -1.8914626912221354E-02 a       575     0    29     1    15
 -7.2880615739361748E-03 a       576     0    29     1    16
  6.0556815962831315E-02 a       577     0    29     1    17
 -2.4304416012079957E-02 a       578     0    29     1    18
  1.6651852718457755E-01 a       579     0    29     1    19
  1.0552014901462296E-02 a       580     0    29     1    20
  8.7354453881059949E-03 a       581     0    30     1     1
 -3.8649233368485809E-02 a       582     0    30     1     2
 -8.8690236678295786E-02 a       583     0    30     1     3
  9.6420069249659544E-03 a       584     0    30     1     4
 -5.1553739077462420E-02 a       585     0    30     1     5
 -4.4909063630157980E-02 a       586     0    30     1     6
 -7.8726633157014479E-03 a       587     0    30     1     7
 -8.4817973877761698E-03 a       588     0    30     1     8
 -8.9236072111915102E-02 a       589     0    30     1     9
  3.5089622350940611E-02 a       590     0    30     1    10
  3.8664957099172710E-03 a       591     0    30     1    11
 -5.4325189202824177E-02 a       592     0    30     1    12
 -1.0680740468980932E-02 a       593     0    30     1    13
 -2.8825002314278397E-02 a       594     0    30     1    14
 -1.1701174041861353E-02 a       595     0    30     1    15
  1.9096501630413609E-02 a       596     0    30     1    16
  6.3137417814834854E-02 a       597     0    30     1    17
  1.9387295343700078E-02 a       598     0    30     1    18
  8.9747017500437214E-03 a       599     0    30     1    19
 -4.0553174812087778E-03 a       600     0    30     1    20
 -1.4621557360028706E-01 a       601     0    31     1     1
  6.0528524472392965E-02 a       602     0    31     1     2
  6.7706950047370554E-02 a       603     0    31     1     3
  1.2240980106770387E-01 a       604     0    31     1     4
  2.0431461525888453E-01 a       605     0    31     1     5
 -3.0601189947062631E-02 a       606     0    31     1     6
  8.6371775393869851E-02 a       607     0    31     1     7
 -6.2746443798733884E-02 a       608     0    31     1     8
 -2.8939250512561376E-01 a       609     0    31     1     9
 -1.0354499898232704E-01 a       610     0    31     1    10
  1.9249720374915658E-01 a       611     0    31     1    11
 -3.6297313902663764E-01 a       612     0    31     1    12
  2.9198717470989944E-02 a       613     0    31     1    13
 -2.8233121648565146E-01 a       614     0    31     1    14
  1.4617145813715218E-01 a       615     0    31     1    15
  3.2182707919861456E-02 a       616     0    31     1    16
  6.6301609164929401E-02 a       617     0    31     1    17
 -3.6236816184954151E-01 a       618     0    31     1    18
 -4.3390582042704025E-02 a       619     0    31     1    19
 -8.2926322963009350E-02 a       620     0    31     1    20
 -3.2771990498425813E-01 a       621     0    32     1     1
 -9.0292654227693392E-01 a       622     0    32     1     2
  1.7355190018286174E-02 a       623     0    32     1     3
  2.3368117855378964E-01 a       624     0    32     1     4
 -9.2361471762188049E-02 a       625     0    32     1     5
 -2.8580360636804331E-01 a       626     0    32     1     6
 -2.7688226152768397E-01 a       627     0    32     1     7
 -1.6843928225835324E-02 a       628     0    32     1     8
 -1.2122840510093398E-01 a       629     0    32     1     9
  1.1979111955103541E-01 a       630     0    32     1    10
  1.3167556201332966E-02 a       631     0    32     1    11
 -1.1250247214851504E-01 a       632     0    32     1    12
  1.4426089146300919E-01 a       633     0    32     1    13
  7.4781856034218622E-02 a       634     0    32     1    14
 -1.4355958160588800E-01 a       635     0    32     1    15
  2.2808279839956375E-01 a       636     0    32     1    16
 -6.5423053151678456E-01 a       637     0    32     1    17
  1.6603317965104566E-01 a       638     0    32     1    18
  1.6396572883721650E-01 a       639     0    32     1    19
 -1.2170086401619047E-01 a       640     0    32     1    20
  1.1511913809782021E-01 a       641     0    33     1     1
 -1.6728472653188095E-01 a       642     0    33     1     2
 -1.5761313028865947E-02 a       643     0    33     1     3
 -1.8998455614297238E-01 a       644     0    33     1     4
 -2.9330298121288206E-01 a       645     0    33     1     5
  1.4267049245476256E-02 a       646     0    33     1     6
 -2.9329927543539269E-01 a       647     0    33     1     7
  1.9625303931988672E-01 a       648     0    33     1     8
 -1.7074159385764698E-01 a       649     0    33     1     9
  1.7656921016411345E-01 a       650     0    33     1    10
  6.6736253391254233E-02 a       651     0    33     1    11
  1.5011636413452850E-02 a       652     0    33     1    12
  5.7253721642617876E-02 a       653     0    33     1    13
 -1.5995455946412065E-02 a       654     0    33     1    14
  1.0793138482538669E-01 a       655     0    33     1    15
 -8.9252140771028235E-02 a       656     0    33     1    16
 -7.0837248228699176E-02 a       657     0    33     1    17
 -3.1595431862068035E-01 a       658     0    33     1    18
  5.5172278994642762E-02 a       659     0    33     1    19
 -8.5886789864399571E-02 a       660     0    33     1    20
 -3.2887857852899771E-01 a       661     0    34     1     1
  8.1773762755674995E-01 a       662     0    34     1     2
 -2.3458724187496260E-01 a       663     0    34     1     3
  1.2644552668370915E-01 a       664     0    34     1     4
 -1.2220966251495113E-01 a       665     0    34     1     5
  2.5591757213282706E-01 a       666     0    34     1     6
  3.2475841151392232E-01 a       667     0    34     1     7
  1.0245170777332355E-01 a       668     0    34     1     8
 -2.4046085456537605E-01 a       669     0    34     1     9
  1.7087741617177750E-02 a       670     0    34     1    10
  1.7372306501143911E-01 a       671     0    34     1    11
 -5.9365211478647560E-02 a       672     0    34     1    12
 -1.7511089139586425E-01 a       673     0    34     1    13
 -8.5414058147443905E-02 a       674     0    34     1    14
 -4.8309866705442328E-03 a       675     0    34     1    15
 -1.0739773186468097E-02 a       676     0    34     1    16
  3.5294379934895331E-01 a       677     0    34     1    17
 -3.3788121220240236E-01 a       678     0    34     1    18
  1.1620152191122292E-02 a       679     0    34     1    19
  4.2796691021127853E-01 a       680     0    34     1    20
  1.6369488342277963E-01 a       681     0    35     1     1
  2.3438517856672966E-01 a       682     0    35     1     2
 -1.8397695594045807E-01 a       683     0    35     1     3
  4.7202889637880874E-01 a       684     0    35     1     4
 -2.0935765615099752E-01 a       685     0    35     1     5
 -3.5588505067760151E-02 a       686     0    35     1     6
  2.1864873853598912E-01 a       687     0    35     1     7
 -3.0155732387906425E-01 a       688     0    35     1     8
  2.6944086873252501E-02 a       689     0    35     1     9
 -1.9602812982278142E-01 a       690     0    35     1    10
  3.0414620059810193E-01 a       691     0    35     1    11
 -1.2248352936096188E-01 a       692     0    35     1    12
 -4.4312367435941934E-02 a       693     0    35     1    13
  2.4407147611583130E-01 a       694     0    35     1    14
 -2.8346626249479517E-02 a       695     0    35     1    15
  1.2242584370582389E-01 a       696     0    35     1    16
 -3.2536756561374608E-01 a       697     0    35     1    17
 -9.8480535627097035E-02 a       698     0    35     1    18
  1.1490956362743461E-01 a       699     0    35     1    19
  2.9814719264410922E-01 a       700     0    35     1    20
  2.3129240259555967E-01 a       701     0    36     1     1
  1.8614842543342999E-01 a       702     0    36     1     2
  2.5991298721523692E-01 a       703     0    36     1     3
 -1.1290942068718456E-01 a       704     0    36     1     4
  1.0419199260107466E-01 a       705     0    36     1     5
  1.0156989692847507E-01 a       706     0    36     1     6
 -1.0582066143666806E-01 a       707     0    36     1     7
  1.7725810680166576E-01 a       708     0    36     1     8
  3.7279915814965719E-01 a       709     0    36     1     9
 -5.7635535470980234E-03 a       710     0    36     1    10
 -7.0997208217151733E-02 a       711     0    36     1    11
  2.0639090138024019E-01 a       712     0    36     1    12
 -2.5308084667396952E-01 a       713     0    36     1    13
  1.1280432551016559E-01 a       714     0    36     1    14
 -1.5976590111470607E-01 a       715     0    36     1    15
 -1.1358737320217864E-01 a       716     0    36     1    16
  7.3815149520334938E-02 a       717     0    36     1    17
  3.3450573531854066E-01 a       718     0    36     1    18
 -2.3231595978041048E-02 a       719     0    36     1    19
  9.7748996725424309E-02 a       720     0    36     1    20
  1.1632248391490353E-01 a       721     0    37     1     1
  6.4823717354525481E-02 a       722     0    37     1     2
  5.5958633451081041E-01 a       723     0    37     1     3
 -5.2663096411911103E-01 a       724     0    37     1     4
  2.2210476021922907E-03 a       725     0    37     1     5
  1.4059497756317307E-01 a       726     0    37     1     6
  4.4728715015834175E-01 a       727     0    37     1     7
  2.0271682999163210E-02 a       728     0    37     1     8
 -4.4992542274208652E-01 a       729     0    37     1     9
 -1.7784997175228814E-01 a       730     0    37     1    10
 -2.0450634713853773E-02 a       731     0    37     1    11
  5.6168024244574927E-02 a       732     0    37     1    12
  6.0144291688353380E-01 a       733     0    37     1    13
 -3.9446211791271824E-01 a       734     0    37     1    14
  5.3015155110983303E-01 a       735     0    37     1    15
 -2.7221762050615278E-01 a       736     0    37     1    16
  4.6975083990202471E-01 a       737     0    37     1    17
 -2.2186152573620049E-01 a       738     0    37     1    18
  2.9516211317846724E-01 a       739     0    37     1    19
 -1.5088027636212611E-01 a       740     0    37     1    20
  4.9253271186196997E-02 a       741     0    38     1     1
 -5.6848931648318026E-03 a       742     0    38     1     2
  1.0226015242318431E-01 a       743     0    38     1     3
  2.9766552015812314E-01 a       744     0    38     1     4
 -5.3961010825533257E-02 a       745     0    38     1     5
 -1.6872287924511739E-01 a       746     0    38     1     6
  3.1203388163355528E-01 a       747     0    38     1     7
  1.2799832469655101E-01 a       748     0    38     1     8
 -2.4494582595242473E-01 a       749     0    38     1     9
  1.7289633519456921E-02 a       750     0    38     1    10
 -1.1975975383141546E-02 a       751     0    38     1    11
  2.3730824035956363E-01 a       752     0    38     1    12
 -1.0175181964131089E-01 a       753     0    38     1    13
 -3.1885030427334649E-01 a       754     0    38     1    14
 -1.3991359271381110E-01 a       755     0    38     1    15
  2.4042792902534740E-01 a       756     0    38     1    16
 -3.4058451859542302E-02 a       757     0    38     1    17
 -1.8709380302344827E-01 a       758     0    38     1    18
 -2.2253052119528178E-02 a       759     0    38     1    19
  4.1456898970969373E-02 a       760     0    38     1    20
  1.1853448682641381E-01 a       761     0    39     1     1
 -9.6175670086818696E-02 a       762     0    39     1     2
 -1.4142906639568095E-01 a       763     0    39     1     3
  2.0609455785163983E-01 a       764     0    39     1     4
 -9.3473769573374998E-02 a       765     0    39     1     5
 -2.8831593962288571E-01 a       766     0    39     1     6
 -3.6037190343380605E-02 a       767     0    39     1     7
  8.2948832590025487E-02 a       768     0    39     1     8
  2.0853470859173995E-01 a       769     0    39     1     9
  1.2359322414853761E-01 a       770     0    39     1    10
 -1.4622037058045342E-01 a       771     0    39     1    11
  1.9309978867273231E-01 a       772     0    39     1    12
 -2.2518852739194678E-01 a       773     0    39     1    13
  4.8874474572181703E-01 a       774     0    39     1    14
 -2.9412485381292602E-01 a       775     0    39     1    15
  2.8840151712535282E-02 a       776     0    39     1    16
 -2.8763060538759755E-01 a       777     0    39     1    17
  6.9163166715216939E-02 a       778     0    39     1    18
  1.4279105864827984E-01 a       779     0    39     1    19
  1.1619138918716816E-01 a       780     0    39     1    20
 -2.3133174327515862E-01 a       781     0    40     1     1
  1.2433869309754383E-01 a       782     0    40     1     2
  1.0828647024237445E-01 a       783     0    40     1     3
  2.8751157378537794E-02 a       784     0    40     1     4
  8.8317384044386230E-02 a       785     0    40     1     5
 -9.9644633933914276E-02 a       786     0    40     1     6
  1.4115078364083039E-02 a       787     0    40     1     7
  1.7680421714538874E-01 a       788     0    40     1     8
  2.6270781651527997E-01 a       789     0    40     1     9
 -1.1668341359321335E-02 a       790     0    40     1    10
 -1.6280104963831230E-01 a       791     0    40     1    11
  3.1012026578536922E-01 a       792     0    40     1    12
  3.6352582991663031E-02 a       793     0    40     1    13
  1.0597859958491093E-01 a       794     0    40     1    14
  5.6569570107526605E-02 a       795     0    40     1    15
 -2.6216559516188609E-01 a       796     0    40     1    16
 -6.9426258651765327E-02 a       797     0    40     1    17
 -6.3245177685079118E-02 a       798     0    40     1    18
  1.3614913294481568E-01 a       799     0    40     1    19
 -3.4626772810222563E-02 a       800     0    40     1    20
 -1.5633919976892258E-01 a       801     0    41     1     1
  5.6439279728830666E-03 a       802     0    41     1     2
 -3.3178946745081761E-02 a       803     0    41     1     3
  8.3524120005755390E-02 a       804     0    41     1     4
  5.6473381834527082E-02 a       805     0    41     1     5
 -2.8396948320951597E-02 a       806     0    41     1     6
  4.2342971158881533E-02 a       807     0    41     1     7
  2.2728498311099302E-02 a       808     0    41     1     8
 -5.0188129425369807E-02 a       809     0    41     1     9
 -1.6924786510768997E-02 a       810     0    41     1    10
  3.3414093563674092E-02 a       811     0    41     1    11
  8.4734891756502506E-02 a       812     0    41     1    12
 -3.2027148493460604E-02 a       813     0    41     1    13
  2.2656977020823438E-01 a       814     0    41     1    14
 -3.9528563762241425E-02 a       815     0    41     1    15
  9.2414076707180867E-02 a       816     0    41     1    16
 -7.9254932440016232E-02 a       817     0    41     1    17
 -6.1650728926213448E-02 a       818     0    41     1    18
  1.3410598009268543E-01 a       819     0    41     1    19
  4.1751280908596290E-02 a       820     0    41     1    20
  2.1633994693322731E-01 a       821     0    42     1     1
 -2.5743919243164617E-02 a       822     0    42     1     2
  1.1809324206205961E-01 a       823     0    42     1     3
 -3.5879325820341111E-02 a       824     0    42     1     4
  6.0103549959100527E-02 a       825     0    42     1     5
 -6.6928788640645198E-03 a       826     0    42     1     6
 -1.1287911819095355E-02 a       827     0    42     1     7
 -6.7663276616167240E-03 a       828     0    42     1     8
 -5.4999453973226406E-02 a       829     0    42     1     9
  2.5808376474657221E-02 a       830     0    42     1    10
 -3.2503363431077029E-02 a       831     0    42     1    11
  4.7413569066750760E-02 a       832     0    42     1    12
  4.8833269479351529E-02 a       833     0    42     1    13
 -1.5239389434375941E-01 a       834     0    42     1    14
  4.1587584646665079E-02 a       835     0    42     1    15
 -2.6622782998025124E-01 a       836     0    42     1    16
  1.6100423752214637E-02 a       837     0    42     1    17
 -5.9208031816255842E-02 a       838     0    42     1    18
 -2.0838491341004194E-02 a       839     0    42     1    19
 -4.2185019324942750E-02 a       840     0    42     1    20
  6.1246897384521000E-02 a       841     0    43     1     1
  1.3483045144320099E-01 a       842     0    43     1     2
 -8.1100827967666378E-02 a       843     0    43     1     3
  4.3592565165580549E-02 a       844     0    43     1     4
 -2.8666146260741038E-01 a       845     0    43     1     5
 -1.5067467612403412E-01 a       846     0    43     1     6
  1.5511025305889253E-01 a       847     0    43     1     7
  2.3084129917220853E-01 a       848     0    43     1     8
  7.8444657638013657E-02 a       849     0    43     1     9
 -2.3461242662880129E-02 a       850     0    43     1    10
 -2.4260662462476042E-02 a       851     0    43     1    11
  2.5522812354392593E-01 a       852     0    43     1    12
  3.2389420990771661E-02 a       853     0    43     1    13
 -1.8877188740148082E-01 a       854     0    43     1    14
  5.4594005894595406E-02 a       855     0    43     1    15
 -4.8203960722340893E-02 a       856     0    43     1    16
 -4.4767510342890990E-02 a       857     0    43     1    17
 -5.6696128030559900E-02 a       858     0    43     1    18
 -8.1877663362474762E-02 a       859     0    43     1    19
  4.1937777135029795E-02 a       860     0    43     1    20
  1.7271964423922308E-02 a       861     0    44     1     1
 -7.8547302031764257E-02 a       862     0    44     1     2
 -1.6280068021853294E-01 a       863     0    44     1     3
  7.8398819121062183E-02 a       864     0    44     1     4
 -6.9307862177353952E-01 a       865     0    44     1     5
 -1.0905990731737811E-01 a       866     0    44     1     6
  2.0998848937911849E-01 a       867     0    44     1     7
 -8.7069153146512299E-02 a       868     0    44     1     8
  6.0642772568413245E-02 a       869     0    44     1     9
  9.4275305347664880E-03 a       870     0    44     1    10
 -3.0817215790912532E-02 a       871     0    44     1    11
 -1.3269516407873580E-01 a       872     0    44     1    12
  4.7371146208231900E-02 a       873     0    44     1    13
  4.0659421732013701E-01 a       874     0    44     1    14
 -1.9575450102978866E-02 a       875     0    44     1    15
  2.8609510685760653E-01 a       876     0    44     1    16
 -9.1255447554075882E-03 a       877     0    44     1    17
  1.8529107032179140E-01 a       878     0    44     1    18
  9.8032935514760985E-02 a       879     0    44     1    19
  5.3191841772687071E-02 a       880     0    44     1    20
 -1.3680938004182322E-01 a       881     0    45     1     1
 -2.3825451454440477E-01 a       882     0    45     1     2
  2.8104398400569941E-01 a       883     0    45     1     3
 -2.6812247554402119E-02 a       884     0    45     1     4
 -1.8795533409115889E-01 a       885     0    45     1     5
  3.5888345624146484E-01 a       886     0    45     1     6
  1.3870891495530613E-01 a       887     0    45     1     7
  3.9691089773405436E-02 a       888     0    45     1     8
 -4.9083516284770978E-02 a       889     0    45     1     9
  4.8717706437775371E-02 a       890     0    45     1    10
  4.3200818172505926E-03 a       891     0    45     1    11
 -4.0669144940456203E-01 a       892     0    45     1    12
  1.2212098479800611E-01 a       893     0    45     1    13
 -3.2549304054376997E-02 a       894     0    45     1    14
  1.1351604785385376E-02 a       895     0    45     1    15
 -3.8090118395267275E-01 a       896     0    45     1    16
 -2.3660840417581919E-01 a       897     0    45     1    17
  1.9979228133485552E-01 a       898     0    45     1    18
 -2.6397396459888528E-01 a       899     0    45     1    19
 -4.9697351811888455E-03 a       900     0    45     1    20
  1.8304121979706647E-01 a       901     0    46     1     1
 -1.4304660800449276E-01 a       902     0    46     1     2
  2.4222903339442919E-01 a       903     0    46     1     3
  1.2890370963944520E-01 a       904     0    46     1     4
 -1.8004215583629996E-01 a       905     0    46     1     5
  1.5042877924930187E-01 a       906     0    46     1     6
  3.9589159360415835E-02 a       907     0    46     1     7
 -2.3525113793593341E-01 a       908     0    46     1     8
 -7.0704481331791398E-04 a       909     0    46     1     9
 -1.3130444272141472E-02 a       910     0    46     1    10
 -7.5046679762945004E-02 a       911     0    46     1    11
 -6.9924583053910652E-02 a       912     0    46     1    12
  2.1544636891184185E-01 a       913     0    46     1    13
  2.3580425157822654E-01 a       914     0    46     1    14
  7.7096935210573286E-02 a       915     0    46     1    15
  4.9474442861749048E-02 a       916     0    46     1    16
 -2.5709034730009511E-01 a       917     0    46     1    17
 -8.4729976207101584E-02 a       918     0    46     1    18
 -3.2517055148225293E-01 a       919     0    46     1    19
 -5.9803792040377626E-02 a       920     0    46     1    20
  3.4810522248990405E-01 a       921     0    47     1     1
  9.0789653466613773E-02 a       922     0    47     1     2
 -3.5336878057434362E-01 a       923     0    47     1     3
  5.2725392289522643E-01 a       924     0    47     1     4
  2.1212574668392742E-01 a       925     0    47     1     5
 -1.2911940356296295E-01 a       926     0    47     1     6
 -1.5735776422918080E-01 a       927     0    47     1     7
  5.6160825726013752E-01 a       928     0    47     1     8
  5.3487393426392513E-02 a       929     0    47     1     9
  1.6563617379663745E-01 a       930     0    47     1    10
 -1.0412651212879506E-02 a       931     0    47     1    11
 -1.1722201869107146E-01 a       932     0    47     1    12
 -7.3935633664279543E-01 a       933     0    47     1    13
 -9.0288492732954917E-01 a       934     0    47     1    14
 -3.4829263466290017E-01 a       935     0    47     1    15
 -1.9595116730785056E-01 a       936     0    47     1    16
  6.2668336168803829E-01 a       937     0    47     1    17
  1.3857452344903351E-01 a       938     0    47     1    18
 -5.2086786981201352E-02 a       939     0    47     1    19
  3.7913605059979094E-02 a       940     0    47     1    20
 -7.0074209772451101E-02 a       941     0    48     1     1
  1.0613894926495497E-01 a       942     0    48     1     2
 -2.6271153977340162E-02 a       943     0    48     1     3
 -5.3886664498127651E-02 a       944     0    48     1     4
  1.0633215917228522E-01 a       945     0    48     1     5
  1.8113027976067483E-01 a       946     0    48     1     6
 -1.8583331202435083E-01 a       947     0    48     1     7
 -1.6541175642000092E-01 a       948     0    48     1     8
  1.6890610559326669E-01 a       949     0    48     1     9
  1.8729127355573419E-01 a       950     0    48     1    10
 -7.3669105743747063E-02 a       951     0    48     1    11
 -1.5975083617941596E-01 a       952     0    48     1    12
  1.8645630296549205E-02 a       953     0    48     1    13
 -2.7061654245316358E-01 a       954     0    48     1    14
  8.3443803279898934E-02 a       955     0    48     1    15
 -4.1266012565139121E-02 a       956     0    48     1    16
 -7.6072210217962316E-02 a       957     0    48     1    17
 -2.4902114009536980E-01 a       958     0    48     1    18
 -9.7168037299056043E-02 a       959     0    48     1    19
  1.0597567139803915E-02 a       960     0    48     1    20
 -1.0718834343457004E-01 a       961     0    49     1     1
 -8.7660222035832302E-03 a       962     0    49     1     2
  3.5330495927804267E-01 a       963     0    49     1     3
 -3.6539533327104037E-02 a       964     0    49     1     4
 -8.1302633856190649E-03 a       965     0    49     1     5
  1.2114512865047065E-01 a       966     0    49     1     6
  1.2643140121314785E-02 a       967     0    49     1     7
 -2.0243839736802854E-01 a       968     0    49     1     8
 -6.7873214658668121E-02 a       969     0    49     1     9
 -4.2274278457186378E-02 a       970     0    49     1    10
  2.4683770561244947E-02 a       971     0    49     1    11
 -3.4514818396776205E-02 a       972     0    49     1    12
  2.2701321468099236E-01 a       973     0    49     1    13
  1.5534141838536158E-01 a       974     0    49     1    14
  1.3978305531025428E-01 a       975     0    49     1    15
  5.2432580705199044E-02 a       976     0    49     1    16
 -1.8886877756555318E-01 a       977     0    49     1    17
 -9.1327128520228631E-02 a       978     0    49     1    18
 -9.3602514355185087E-02 a       979     0    49     1    19
 -1.7667614076382648E-02 a       980     0    49     1    20
  7.7454129032904745E-02 a       981     0    50     1     1
 -1.2357634841425404E-01 a       982     0    50     1     2
 -7.9538335887204242E-02 a       983     0    50     1     3
 -7.7738857061166691E-02 a       984     0    50     1     4
 -3.4834447067374433E-03 a       985     0    50     1     5
  8.8871074231714600E-02 a       986     0    50     1     6
  5.2344013495713076E-02 a       987     0    50     1     7
 -8.2420508009158882E-03 a       988     0    50     1     8
 -1.0509860852396871E-01 a       989     0    50     1     9
 -1.2384623219113300E-01 a       990     0    50     1    10
  1.6891435305829050E-01 a       991     0    50     1    11
 -1.0896842085533048E-01 a       992     0    50     1    12
  1.4605510366838549E-02 a       993     0    50     1    13
  1.8230317737986981E-01 a       994     0    50     1    14
 -3.7991491552360937E-02 a       995     0    50     1    15
  2.5481673523475984E-01 a       996     0    50     1    16
 -3.9534720393689479E-02 a       997     0    50     1    17
  6.4920353194867553E-02 a       998     0    50     1    18
  1.3837638893473673E-02 a       999     0    50     1    19
  3.3083525643470842E-02 a      1000     0    50     1    20
 -9.1928345184543003E-01 b      1001     1     1
  5.3066532756376250E-01 b      1002     1     2
 -3.0100790079748453E-02 b      1003     1     3
 -1.1673353696345585E+00 b      1004     1     4
 -1.1880257203110425E+00 b      1005     1     5
 -6.0045817963542969E-01 b      1006     1     6
  3.0632392476886729E-02 b      1007     1     7
  7.7931743984143897E-01 b      1008     1     8
  2.4964377915040584E-01 b      1009     1     9
  9.9079874257109934E-01 b      1010     1    10
  1.7034766513962224E-01 b      1011     1    11
  5.5468832654483535E-01 b      1012     1    12
 -7.1338493924290425E-01 b      1013     1    13
  1.1134788231301893E+00 b      1014     1    14
  1.0230801585642071E+00 b      1015     1    15
  1.0653020028944715E+00 b      1016     1    16
  1.1140386355803660E+00 b      1017     1    17
 -1.4136290850457722E+00 b      1018     1    18
 -6.6341878378446906E-01 b      1019     1    19
 -4.7209897779631166E-01 b      1020     1    20
 -2.7324251854096065E-01 a      1021     1     1     2     1
  5.2259610817869437E-02 a      1022     1     1     2     2
  4.6445179111137819E-01 a      1023     1     1     2     3
 -2.5418719895709269E-01 a      1024     1     1     2     4
  3.9535856977654632E-01 a      1025     1     1     2     5
 -1.6117135846027167E-01 a      1026     1     1     2     6
 -5.5328859286971976E-01 a      1027     1     1     2     7
  1.0111464683409362E-01 a      1028     1     1     2     8
 -3.7570354739888628E-01 a      1029     1     1     2     9
 -1.5835191184884539E-01 a      1030     1     1     2    10
  7.5381418825378099E-01 a      1031     1     1     2    11
  1.6325053503274176E-01 a      1032     1     1     2    12
 -1.1321950903961200E-02 a      1033     1     1     2    13
  8.0864082708747620E-01 a      1034     1     1     2    14
 -5.2282497339028421E-02 a      1035     1     1     2    15
 -1.2633894263288606E-01 a      1036     1     1     2    16
 -3.2598190026418755E-01 a      1037     1     1     2    17
 -4.9891564194145765E-01 a      1038     1     1     2    18
 -1.8163154611592322E-01 a      1039     1     1     2    19
 -2.1754510346796002E-01 a      1040     1     1     2    20
 -3.4242555073537917E-01 a      1041     1     2     2     1
 -2.5485046427966412E-01 a      1042     1     2     2     2
  6.1572403111765783E-01 a      1043     1     2     2     3
 -1.1614533157369227E-02 a      1044     1     2     2     4
 -4.1207560850287062E-01 a      1045     1     2     2     5
  1.3021594302412065E-01 a      1046     1     2     2     6
  5.1112501349965068E-02 a      1047     1     2     2     7
  4.7384955283940683E-01 a      1048     1     2     2     8
  9.9609795015464658E-02 a      1049     1     2     2     9
  5.4907164275418618E-01 a      1050     1     2     2    10
 -5.3400440873529020E-01 a      1051     1     2     2    11
  3.3538317740622764E-01 a      1052     1     2     2    12
  8.6714868424184299E-01 a      1053     1     2     2    13
 -5.9120823138113221E-01 a      1054     1     2     2    14
 -1.3497974055954612E-01 a      1055     1     2     2    15
  4.5136364276304858E-01 a      1056     1     2     2    16
 -2.7944735149616023E-01 a      1057     1     2     2    17
 -2.1231696253606960E-01 a      1058     1     2     2    18
  2.6454367827282271E-01 a      1059     1     2     2    19
 -2.6566362507749242E-02 a      1060     1     2     2    20
  4.4211238805644471E-01 a      1061     1     3     2     1
 -5.6229182492556706E-01 a      1062     1     3     2     2
 -3.4709307907390879E-01 a      1063     1     3     2     3
  1.9399532902286132E-01 a      1064     1     3     2     4
  4.6352779209885717E-02 a      1065     1     3     2     5
  4.1513219805227923E-02 a      1066     1     3     2     6
 -1.6192981081570468E-01 a      1067     1     3     2     7
  1.8678392628543355E-01 a      1068     1     3     2     8
  1.7136492515093603E-02 a      1069     1     3     2     9
 -5.3066289338026795E-01 a      1070     1     3     2    10
 -1.7451884761729294E-01 a      1071     1     3     2    11
 -5.1691321266149511E-02 a      1072     1     3     2    12
 -6.3109338362672004E-02 a      1073     1     3     2    13
 -5.0026668327221957E-01 a      1074     1     3     2    14
  2.7264775813096503E-01 a      1075     1     3     2    15
 -1.8535717747763863E-01 a      1076     1     3     2    16
 -3.1611147371635388E-02 a      1077     1     3     2    17
  6.5772394455716865E-02 a      1078     1     3     2    18
 -2.2173947989100623E-01 a      1079     1     3     2    19
  5.7647207587805623E-02 a      1080     1     3     2    20
 -2.8182755230646578E-01 a      1081     1     4     2     1
  7.0841000526629250E-01 a      1082     1     4     2     2
 -4.9667402148869155E-01 a      1083     1     4     2     3
 -4.2602827575100083E-01 a      1084     1     4     2     4
 -3.8447561375531691E-01 a      1085     1     4     2     5
  2.5574963063316186E-01 a      1086     1     4     2     6
  6.8247046543057099E-01 a      1087     1     4     2     7
 -1.9626051887418067E-01 a      1088     1     4     2     8
  1.3989853843405742E-01 a      1089     1     4     2     9
 -7.2406752598567825E-01 a      1090     1     4     2    10
 -3.1115928905111490E-01 a      1091     1     4     2    11
 -7.2550967924695453E-01 a      1092     1     4     2    12
  4.7855872629645807E-01 a      1093     1     4     2    13
  6.1456694657235011E-01 a      1094     1     4     2    14
 -1.2893648567700999E+00 a      1095     1     4     2    15
  1.7638847098708102E-01 a      1096     1     4     2    16
 -4.9742213855392331E-01 a      1097     1     4     2    17
  3.6459167290688316E-01 a      1098     1     4     2    18
  6.5750059620970247E-01 a      1099     1     4     2    19
 -6.0956290270615543E-01 a      1100     1     4     2    20
  8.5123192013954449E-02 a      1101     1     5     2     1
 -1.7807734986059356E-01 a      1102     1     5     2     2
 -1.0107929069607080E-01 a      1103     1     5     2     3
 -5.6813548512120737E-01 a      1104     1     5     2     4
  6.2404603531922420E-01 a      1105     1     5     2     5
 -2.3220274280734349E-01 a      1106     1     5     2     6
  6.5776420253604584E-01 a      1107     1     5     2     7
 -1.8739744246765441E-01 a      1108     1     5     2     8
 -5.8115844459120503E-01 a      1109     1     5     2     9
 -1.8117053138361738E-01 a      1110     1     5     2    10
  1.8989913259867880E-03 a      1111     1     5     2    11
 -1.5688541975489942E-01 a      1112     1     5     2    12
 -4.0861503210790096E-01 a      1113     1     5     2    13
 -1.2666107751722089E-01 a      1114     1     5     2    14
 -1.2739180668808120E-01 a      1115     1     5     2    15
 -5.7964785956932907E-01 a      1116     1     5     2    16
 -7.0000426753720912E-01 a      1117     1     5     2    17
 -8.5769839817827695E-02 a      1118     1     5     2    18
  2.2328066434522328E-02 a      1119     1     5     2    19
  2.6855434376487536E-01 a      1120     1     5     2    20
 -4.5660150309972530E-01 a      1121     1     6     2     1
 -2.5248525479612184E-02 a      1122     1     6     2     2
  2.6313190765069028E-01 a      1123     1     6     2     3
 -7.0811804005494672E-01 a      1124     1     6     2     4
  9.6126826761931572E-02 a      1125     1     6     2     5
  2.0829593955518783E-01 a      1126     1     6     2     6
 -3.1038919987642027E-01 a      1127     1     6     2     7
  2.9700289126236240E-01 a      1128     1     6     2     8
  5.9422664904606837E-01 a      1129     1     6     2     9
  1.6541372689174164E-01 a      1130     1     6     2    10
 -2.1155734280823624E-01 a      1131     1     6     2    11
  1.6000504532838516E-01 a      1132     1     6     2    12
  5.6145800629014142E-02 a      1133     1     6     2    13
  4.2538407409055767E-01 a      1134     1     6     2    14
 -6.1184377509566637E-02 a      1135     1     6     2    15
 -6.9529787984802072E-01 a      1136     1     6     2    16
 -2.4007686064993566E-02 a      1137     1     6     2    17
  3.4129527732753456E-01 a      1138     1     6     2    18
  1.1163069193654007E-02 a      1139     1     6     2    19
  5.6243246066848362E-01 a      1140     1     6     2    20
  4.7420675677431762E-01 a      1141     1     7     2     1
  5.2505610471318431E-01 a      1142     1     7     2     2
 -1.2353600508869569E-01 a      1143     1     7     2     3
  3.7251412503654802E-01 a      1144     1     7     2     4
 -6.3647462214554407E-01 a      1145     1     7     2     5
 -3.5059321533031207E-01 a      1146     1     7     2     6
 -4.2291276765600666E-01 a      1147     1     7     2     7
 -6.4245840171019275E-01 a      1148     1     7     2     8
  2.5001691883963995E-01 a      1149     1     7     2     9
  9.7976839840653607E-01 a      1150     1     7     2    10
  7.0772144192818798E-01 a      1151     1     7     2    11
  1.8122611258793528E-01 a      1152     1     7     2    12
  5.2532342274509525E-01 a      1153     1     7     2    13
  2.4987333340877438E-01 a      1154     1     7     2    14
  2.0352564167271489E-01 a      1155     1     7     2    15
  3.0830627072357814E-01 a      1156     1     7     2    16
 -3.5465447617741735E-01 a      1157     1     7     2    17
 -5.3602391761588342E-01 a      1158     1     7     2    18
  4.1601617839945854E-01 a      1159     1     7     2    19
  4.7781714179093454E-01 a      1160     1     7     2    20
  1.0060242797966848E-01 a      1161     1     8     2     1
 -1.0541345786646268E-01 a      1162     1     8     2     2
  2.2924634568522798E-02 a      1163     1     8     2     3
 -7.3323450724028616E-01 a      1164     1     8     2     4
  2.4938575538636770E-01 a      1165     1     8     2     5
  1.9412437747165753E-01 a      1166     1     8     2     6
  4.1718389395687311E-01 a      1167     1     8     2     7
 -4.8554897022712218E-01 a      1168     1     8     2     8
 -9.2212609191086148E-01 a      1169     1     8     2     9
  6.6165347013698556E-02 a      1170     1     8     2    10
 -3.1031535801462357E-01 a      1171     1     8     2    11
 -2.1312536292243628E-01 a      1172     1     8     2    12
 -4.2205512298823356E-01 a      1173     1     8     2    13
  2.5014123059104226E-01 a      1174     1     8     2    14
 -3.0824787052882563E-01 a      1175     1     8     2    15
 -4.4558636719940653E-01 a      1176     1     8     2    16
 -5.8847036548380381E-02 a      1177     1     8     2    17
  9.9065343950158716E-02 a      1178     1     8     2    18
  7.5021972590729691E-01 a      1179     1     8     2    19
 -5.1642429144248392E-01 a      1180     1     8     2    20
  2.0110076288241024E-01 a      1181     1     9     2     1
 -7.4569416151990264E-01 a      1182     1     9     2     2
 -4.8661453180318537E-01 a      1183     1     9     2     3
 -4.3071254604151010E-02 a      1184     1     9     2     4
 -6.0452394440151092E-01 a      1185     1     9     2     5
  2.3495987815908759E-01 a      1186     1     9     2     6
  3.2363550787442269E-01 a      1187     1     9     2     7
 -3.4258454811436545E-01 a      1188     1     9     2     8
  1.8952189896160468E-01 a      1189     1     9     2     9
 -5.3724492842880300E-01 a      1190     1     9     2    10
 -5.3519313439870486E-01 a      1191     1     9     2    11
 -5.5098410785183671E-01 a      1192     1     9     2    12
  3.3146329812198583E-01 a      1193     1     9     2    13
  5.7866543995186104E-01 a      1194     1     9     2    14
 -7.5060425767087080E-01 a      1195     1     9     2    15
 -3.2201647873005679E-01 a      1196     1     9     2    16
  1.5664563316426991E-01 a      1197     1     9     2    17
  4.4677363943065440E-01 a      1198     1     9     2    18
 -2.3525640865385630E-01 a      1199     1     9     2    19
 -2.9343816038177051E-01 a      1200     1     9     2    20
  5.0467165361714061E-01 a      1201     1    10     2     1
  2.1725526937537504E-01 a      1202     1    10     2     2
  3.3943474537106899E-01 a      1203     1    10     2     3
 -2.0888496753116154E-01 a      1204     1    10     2     4
  3.7276760844488943E-01 a      1205     1    10     2     5
  1.1300537427871080E-01 a      1206     1    10     2     6
 -2.0981690303330636E-01 a      1207     1    10     2     7
 -1.0231465657223515E+00 a      1208     1    10     2     8
 -1.6678473718728207E-01 a      1209     1    10     2     9
  2.4303575054455198E-02 a      1210     1    10     2    10
  3.5694528077724053E-01 a      1211     1    10     2    11
 -2.6757368957993222E-01 a      1212     1    10     2    12
  9.7246962466690690E-01 a      1213     1    10     2    13
 -4.0014946169725486E-02 a      1214     1    10     2    14
  1.3863372905053475E-02 a      1215     1    10     2    15
 -7.9308076046899778E-01 a      1216     1    10     2    16
  6.6913893560303223E-02 a      1217     1    10     2    17
 -5.3759633128691409E-01 a      1218     1    10     2    18
  6.2730045939279178E-01 a      1219     1    10     2    19
 -5.7956973057193883E-01 a      1220     1    10     2    20
  1.4149997384965313E-01 a      1221     1    11     2     1
  5.1370880405740282E-01 a      1222     1    11     2     2
 -8.5986792937419454E-01 a      1223     1    11     2     3
  8.4023318904042313E-02 a      1224     1    11     2     4
  1.8423534713219888E-01 a      1225     1    11     2     5
  4.5094428298779526E-01 a      1226     1    11     2     6
 -7.0970946529597079E-01 a      1227     1    11     2     7
 -3.5396544291851395E-01 a      1228     1    11     2     8
  4.7935554778549055E-01 a      1229     1    11     2     9
 -1.1626063945332843E-01 a      1230     1    11     2    10
  6.5101162045556105E-01 a      1231     1    11     2    11
 -4.9603880321708294E-01 a      1232     1    11     2    12
  4.4516338406441230E-01 a      1233     1    11     2    13
 -8.1071400311485609E-01 a      1234     1    11     2    14
 -4.2910113531527699E-01 a      1235     1    11     2    15
 -5.8762241722113506E-01 a      1236     1    11     2    16
 -3.0307516214995045E-01 a      1237     1    11     2    17
  6.8577616361054805E-01 a      1238     1    11     2    18
 -2.5022635128583015E-01 a      1239     1    11     2    19
 -2.5985151347416913E-01 a      1240     1    11     2    20
 -2.0260822327692579E-01 a      1241     1    12     2     1
 -2.8596886250544830E-03 a      1242     1    12     2     2
 -4.6735094282300951E-02 a      1243     1    12     2     3
 -1.6073073098589477E-02 a      1244     1    12     2     4
  6.0040140977684586E-01 a      1245     1    12     2     5
  1.7742456219126537E-01 a      1246     1    12     2     6
 -3.3171068275890475E-01 a      1247     1    12     2     7
  8.6761219566137637E-02 a      1248     1    12     2     8
 -1.1051625801185834E-01 a      1249     1    12     2     9
  8.9983975631259405E-01 a      1250     1    12     2    10
 -3.2142853846467667E-01 a      1251     1    12     2    11
  2.7427136072006780E-01 a      1252     1    12     2    12
 -3.7401008178573991E-01 a      1253     1    12     2    13
 -2.1118353903904435E-01 a      1254     1    12     2    14
  5.8653790386121163E-01 a      1255     1    12     2    15
  4.2823175184748008E-01 a      1256     1    12     2    16
  1.2693969316568945E-01 a      1257     1    12     2    17
  3.8550791285171238E-01 a      1258     1    12     2    18
 -1.1166972015937841E-01 a      1259     1    12     2    19
 -4.3700206306421441E-01 a      1260     1    12     2    20
 -2.7541004711417671E-01 a      1261     1    13     2     1
 -4.4730124470447608E-01 a      1262     1    13     2     2
  2.0945788883317940E-01 a      1263     1    13     2     3
  2.2940739458157278E-01 a      1264     1    13     2     4
  5.1597107220499328E-01 a      1265     1    13     2     5
  4.1392465303053333E-01 a      1266     1    13     2     6
  2.2903097786283078E-01 a      1267     1    13     2     7
  5.3363669588022640E-02 a      1268     1    13     2     8
 -5.6513419621403516E-01 a      1269     1    13     2     9
 -4.5586773386907997E-01 a      1270     1    13     2    10
  1.9268857784143312E-01 a      1271     1    13     2    11
  3.7373277332917848E-01 a      1272     1    13     2    12
 -4.9482984300737198E-01 a      1273     1    13     2    13
  2.8130820719749924E-02 a      1274     1    13     2    14
  7.5111603349531453E-01 a      1275     1    13     2    15
  3.5919619874159819E-01 a      1276     1    13     2    16
 -1.0208537598039276E+00 a      1277     1    13     2    17
  4.3984459248072144E-01 a      1278     1    13     2    18
 -4.7630780418315638E-01 a      1279     1    13     2    19
 -2.3062213823180722E-01 a      1280     1    13     2    20
  1.2191850701113202E-01 a      1281     1    14     2     1
 -5.3497589839941007E-01 a      1282     1    14     2     2
  2.6331512682606813E-03 a      1283     1    14     2     3
 -7.2607477161827083E-01 a      1284     1    14     2     4
  3.3915113286978066E-01 a      1285     1    14     2     5
  1.0916884905851057E-01 a      1286     1    14     2     6
 -2.8875145499784943E-01 a      1287     1    14     2     7
 -1.7502464387914321E-01 a      1288     1    14     2     8
  2.8780675557891650E-01 a      1289     1    14     2     9
  1.4937545750862727E-01 a      1290     1    14     2    10
  7.3715862435646054E-02 a      1291     1    14     2    11
 -2.6953850690505426E-01 a      1292     1    14     2    12
 -1.4282150787418951E-01 a      1293     1    14     2    13
  3.4923369991047903E-01 a      1294     1    14     2    14
 -6.2914517570078421E-01 a      1295     1    14     2    15
  8.2903748145738398E-01 a      1296     1    14     2    16
 -3.9235432879950016E-01 a      1297     1    14     2    17
 -1.7427309308796879E-02 a      1298     1    14     2    18
  5.7025239403323780E-01 a      1299     1    14     2    19
 -2.5577936352883524E-01 a      1300     1    14     2    20
 -1.1825635751711656E-01 a      1301     1    15     2     1
 -2.1784452932556073E-01 a      1302     1    15     2     2
  2.6651484290145222E-01 a      1303     1    15     2     3
 -5.9244102646318908E-01 a      1304     1    15     2     4
 -1.7565760883478576E-01 a      1305     1    15     2     5
 -7.7951264473829784E-01 a      1306     1    15     2     6
 -3.9485051713275898E-01 a      1307     1    15     2     7
 -2.3225338881874757E-01 a      1308     1    15     2     8
 -4.1761205020709730E-01 a      1309     1    15     2     9
 -1.0264687690380607E-01 a      1310     1    15     2    10
 -1.3026289087646414E-01 a      1311     1    15     2    11
 -1.8049562989454565E-01 a      1312     1    15     2    12
 -9.8647938357671563E-02 a      1313     1    15     2    13
 -7.4839176232924971E-03 a      1314     1    15     2    14
 -2.9796636680942584E-01 a      1315     1    15     2    15
 -5.1941370003370686E-02 a      1316     1    15     2    16
 -2.4509368222606323E-01 a      1317     1    15     2    17
  1.3273719030834805E-01 a      1318     1    15     2    18
  7.4191590031067389E-01 a      1319     1    15     2    19
  4.2718017175574674E-01 a      1320     1    15     2    20
  6.1541220064156394E-03 a      1321     1    16     2     1
  6.7410379804391973E-01 a      1322     1    16     2     2
 -1.3632912714085332E-01 a      1323     1    16     2     3
 -1.1145831834267687E-01 a      1324     1    16     2     4
  2.5857524606664045E-01 a      1325     1    16     2     5
 -1.2036328822634315E-02 a      1326     1    16     2     6
 -2.0860155968233240E-01 a      1327     1    16     2     7
 -2.8679371894277078E-01 a      1328     1    16     2     8
  2.4264434564478948E-01 a      1329     1    16     2     9
 -1.2379496620475336E-02 a      1330     1    16     2    10
  5.9148910220481007E-02 a      1331     1    16     2    11
 -1.7916679777099261E-02 a      1332     1    16     2    12
 -2.4768255825380928E-01 a      1333     1    16     2    13
 -2.4759873024618084E-01 a      1334     1    16     2    14
  7.8454129070964135E-02 a      1335     1    16     2    15
  3.7648924255555682E-01 a      1336     1    16     2    16
 -4.0865071656449281E-01 a      1337     1    16     2    17
  1.1996433852574333E-01 a      1338     1    16     2    18
  2.0482085284275611E-02 a      1339     1    16     2    19
  4.5018632808838593E-01 a      1340     1    16     2    20
 -7.1496299669614224E-02 a      1341     1    17     2     1
  8.6676869650287956E-03 a      1342     1    17     2     2
 -2.5495372417641049E-01 a      1343     1    17     2     3
 -3.1648433538149234E-01 a      1344     1    17     2     4
 -6.4959327330903216E-01 a      1345     1    17     2     5
  4.8097054089433494E-01 a      1346     1    17     2     6
 -4.1631807239997626E-01 a      1347     1    17     2     7
 -5.5248770566926730E-01 a      1348     1    17     2     8
  5.7029998636932588E-01 a      1349     1    17     2     9
 -4.9460923205296969E-01 a      1350     1    17     2    10
  2.1078678644249291E-01 a      1351     1    17     2    11
 -1.7521266411393183E-01 a      1352     1    17     2    12
  4.6181243911927722E-01 a      1353     1    17     2    13
  5.9915704870921793E-01 a      1354     1    17     2    14
 -1.0716229915306481E-01 a      1355     1    17     2    15
  6.1737175769260841E-02 a      1356     1    17     2    16
 -1.7637557310175944E-01 a      1357     1    17     2    17
  7.8516773202035195E-01 a      1358     1    17     2    18
 -1.6892755672314641E-01 a      1359     1    17     2    19
 -1.7692777124080675E-01 a      1360     1    17     2    20
 -3.6366675222411582E-01 a      1361     1    18     2     1
 -3.7817252811801944E-01 a      1362     1    18     2     2
  1.6918293828865683E-01 a      1363     1    18     2     3
  3.7971794058922093E-01 a      1364     1    18     2     4
  5.4610642690209987E-01 a      1365     1    18     2     5
 -2.0260729010185038E-01 a      1366     1    18     2     6
  4.1885867532215454E-01 a      1367     1    18     2     7
  1.7933522516879005E-01 a      1368     1    18     2     8
 -2.7317336199422038E-01 a      1369     1    18     2     9
  5.5701558418357744E-01 a      1370     1    18     2    10
 -4.9288946393548488E-01 a      1371     1    18     2    11
 -2.4162154588163573E-01 a      1372     1    18     2    12
  3.7424171301056179E-02 a      1373     1    18     2    13
  1.2827152474962217E-01 a      1374     1    18     2    14
  2.6506956904612449E-02 a      1375     1    18     2    15
  6.6047110807625584E-02 a      1376     1    18     2    16
 -3.0618977487131638E-01 a      1377     1    18     2    17
 -4.3818534614431942E-02 a      1378     1    18     2    18
 -3.9249030967777904E-02 a      1379     1    18     2    19
  1.7900068762343921E-01 a      1380     1    18     2    20
  4.7746789595409089E-01 a      1381     1    19     2     1
 -4.6627373473359768E-01 a      1382     1    19     2     2
  2.5536812001989179E-01 a      1383     1    19     2     3
 -3.1196245985437160E-01 a      1384     1    19     2     4
  5.7333610160784927E-02 a      1385     1    19     2     5
 -2.0107110455709323E-01 a      1386     1    19     2     6
  2.9958116542310165E-01 a      1387     1    19     2     7
  1.7289806706662733E-01 a      1388     1    19     2     8
 -8.4774358312061426E-02 a      1389     1    19     2     9
 -6.5982594934674577E-01 a      1390     1    19     2    10
  3.5284652636945374E-01 a      1391     1    19     2    11
  1.1266112573077887E-01 a      1392     1    19     2    12
 -5.6948577330827643E-02 a      1393     1    19     2    13
  4.7048318684831653E-01 a      1394     1    19     2    14
  4.5935317560449510E-02 a      1395     1    19     2    15
  1.8386171283566152E-01 a      1396     1    19     2    16
  2.3450848498476057E-01 a      1397     1    19     2    17
 -5.6119018298079826E-01 a      1398     1    19     2    18
  1.3152031085272153E-01 a      1399     1    19     2    19
  4.0317092643681013E-01 a      1400     1    19     2    20
 -8.2978002849344001E-01 a      1401     1    20     2     1
  2.9594312404988576E-01 a      1402     1    20     2     2
 -5.6586521961229119E-01 a      1403     1    20     2     3
  4.6661727450862261E-01 a      1404     1    20     2     4
  1.2844169994831905E-01 a      1405     1    20     2     5
  4.3131348273964443E-01 a      1406     1    20     2     6
 -4.1276690439256558E-01 a      1407     1    20     2     7
  2.6579231576306867E-01 a      1408     1    20     2     8
 -7.7079412171087125E-01 a      1409     1    20     2     9
  3.6785423614809593E-01 a      1410     1    20     2    10
  1.8746660371748242E-01 a      1411     1    20     2    11
 -1.2810670712911018E-01 a      1412     1    20     2    12
 -4.9267933367568552E-02 a      1413     1    20     2    13
 -3.6812045951793582E-01 a      1414     1    20     2    14
 -9.8157811244340101E-02 a      1415     1    20     2    15
  3.7736125499227791E-01 a      1416     1    20     2    16
  1.1055199123798624E-02 a      1417     1    20     2    17
  3.0373103774048407E-02 a      1418     1    20     2    18
 -1.1947978693906938E-01 a      1419     1    20     2    19
  6.9739636215970968E-01 a      1420     1    20     2    20
  1.8663894934961350E-01 b      1421     2     1
  8.0801718484324248E-01 b      1422     2     2
  7.7680444144180727E-01 b      1423     2     3
 -1.0795860583610049E+00 b      1424     2     4
  8.3869239111534288E-01 b      1425     2     5
 -7.7968948635000757E-01 b      1426     2     6
 -1.9872134555298057E-01 b      1427     2     7
  1.0710275133239311E+00 b      1428     2     8
  1.4476705848361269E+00 b      1429     2     9
 -3.4084684520179098E-01 b      1430     2    10
 -1.3277219270222154E+00 b      1431     2    11
  1.3077198707614535E+00 b      1432     2    12
 -6.9256391842196074E-01 b      1433     2    13
 -3.4949258143289386E-01 b      1434     2    14
  6.8957940995063727E-01 b      1435     2    15
 -1.2793165775294120E+00 b      1436     2    16
 -6.6409574588845899E-01 b      1437     2    17
 -1.4000588877238604E+00 b      1438     2    18
  9.3906406939520992E-01 b      1439     2    19
  6.8912701838494006E-01 b      1440     2    20
 -5.8780642826788898E-01 a      1441     2     1     3     1
  2.9065593690590853E-02 a      1442     2     2     3     1
  2.8225369606441830E-01 a      1443     2     3     3     1
  7.9848315446402951E-01 a      1444     2     4     3     1
 -2.3702781398401188E-01 a      1445     2     5     3     1
  8.1255644050617104E-01 a      1446     2     6     3     1
  1.0512772734939306E+00 a      1447     2     7     3     1
  4.9201215734340048E-01 a      1448     2     8     3     1
 -1.5485476202462511E+00 a      1449     2     9     3     1
  7.2728606598573414E-02 a      1450     2    10     3     1
  7.4419213546161309E-02 a      1451     2    11     3     1
 -1.3877428161231717E+00 a      1452     2    12     3     1
 -4.3348823527123043E-01 a      1453     2    13     3     1
  2.4171498399927396E-01 a      1454     2    14     3     1
  3.2392055074984571E-01 a      1455     2    15     3     1
  5.7910555831705290E-02 a      1456     2    16     3     1
 -1.3009588656798862E-01 a      1457     2    17     3     1
 -2.9272080851270366E-01 a      1458     2    18     3     1
 -1.2760859792466941E+00 a      1459     2    19     3     1
  2.2668548055037995E-02 a      1460     2    20     3     1
  6.6376127644357519E-02 b      1461     3     1
