################################################################################
# Neural network connection values (weights and biases).
################################################################################
# Col  Name       Description
################################################################################
# 1    connection Neural network connection value.
# 2    t          Connection type (a = weight, b = bias).
# 3    index      Index enumerating weights.
# 4    l_s        Starting point layer (end point layer for biases).
# 5    n_s        Starting point neuron in starting layer (end point neuron for biases).
# 6    l_e        End point layer.
# 7    n_e        End point neuron in end layer.
################################################################################
#                      1 2         3     4     5     6     7
#             connection t     index   l_s   n_s   l_e   n_e
############################################################
 -2.8821206664875351E-02 a         1     0     1     1     1
 -1.8756600706561546E-01 a         2     0     1     1     2
  9.5337262813501786E-02 a         3     0     1     1     3
 -2.4753395712429821E-01 a         4     0     1     1     4
  2.3775482161653448E-02 a         5     0     1     1     5
  7.2820710934902977E-01 a         6     0     1     1     6
 -4.0217229836428131E-01 a         7     0     1     1     7
 -2.6695494282818039E-01 a         8     0     1     1     8
 -7.2991737700087198E-02 a         9     0     1     1     9
  3.7921916155684610E-01 a        10     0     1     1    10
 -5.9505756315681890E-01 a        11     0     1     1    11
  5.2052098863871014E-02 a        12     0     1     1    12
  5.0183526588806271E-01 a        13     0     1     1    13
  4.7010182268791868E-02 a        14     0     1     1    14
  3.4439630143192884E-01 a        15     0     1     1    15
  5.4914208528447646E-02 a        16     0     1     1    16
 -5.8755224726370049E-02 a        17     0     1     1    17
  2.3862060179314715E-01 a        18     0     1     1    18
 -5.6575284575560625E-01 a        19     0     1     1    19
 -1.1410429788785545E-01 a        20     0     1     1    20
  5.3295446949310925E-02 a        21     0     2     1     1
  6.9470489519250170E-03 a        22     0     2     1     2
 -8.6659946357959504E-03 a        23     0     2     1     3
 -2.8416174313088093E-02 a        24     0     2     1     4
 -1.6544833263889978E-02 a        25     0     2     1     5
 -1.1926199871391449E-01 a        26     0     2     1     6
 -4.5209957644726184E-02 a        27     0     2     1     7
  1.2076193679445707E-01 a        28     0     2     1     8
 -3.5805065531842265E-03 a        29     0     2     1     9
 -1.6243048642642189E-02 a        30     0     2     1    10
  1.0550149397396635E-01 a        31     0     2     1    11
 -1.5310824225649608E-01 a        32     0     2     1    12
 -3.9715284213106460E-02 a        33     0     2     1    13
 -7.1547904902896559E-02 a        34     0     2     1    14
 -2.0447626966707932E-02 a        35     0     2     1    15
 -6.9951484459953445E-02 a        36     0     2     1    16
 -2.1622940990045114E-01 a        37     0     2     1    17
  5.7284041074270625E-02 a        38     0     2     1    18
 -1.9936583877629466E-01 a        39     0     2     1    19
  9.8845393603075801E-02 a        40     0     2     1    20
  1.6372478207355853E-01 a        41     0     3     1     1
 -2.1309228402849267E-02 a        42     0     3     1     2
 -1.5111400322838162E-01 a        43     0     3     1     3
 -3.5039703769067060E-01 a        44     0     3     1     4
  2.9822348250739472E-01 a        45     0     3     1     5
  2.3927275049892943E-01 a        46     0     3     1     6
 -2.9757028976007804E-01 a        47     0     3     1     7
  3.6321743535478045E-03 a        48     0     3     1     8
 -3.3408303009274209E-01 a        49     0     3     1     9
 -5.5551776661901218E-03 a        50     0     3     1    10
 -2.3111436958516474E-01 a        51     0     3     1    11
  3.7708552282041868E-01 a        52     0     3     1    12
  5.9672197365509334E-02 a        53     0     3     1    13
 -6.1365715066473669E-01 a        54     0     3     1    14
 -3.1051203666437811E-02 a        55     0     3     1    15
  2.0113229180753429E-02 a        56     0     3     1    16
  3.0403064730118595E-01 a        57     0     3     1    17
  2.1444060921731176E-01 a        58     0     3     1    18
 -2.3559943645513171E-01 a        59     0     3     1    19
 -3.9091031775810657E-02 a        60     0     3     1    20
  2.9904807295467184E-01 a        61     0     4     1     1
 -1.5898833153222214E-02 a        62     0     4     1     2
  2.2151276520405447E-01 a        63     0     4     1     3
  2.5590313987708202E-01 a        64     0     4     1     4
  9.1150440346793274E-02 a        65     0     4     1     5
 -6.9973262222407595E-01 a        66     0     4     1     6
  1.1754120103260575E+00 a        67     0     4     1     7
  1.3499696732214148E-01 a        68     0     4     1     8
 -7.1137298627547030E-02 a        69     0     4     1     9
 -2.2459133444134213E-01 a        70     0     4     1    10
  3.7798105605622362E-01 a        71     0     4     1    11
  9.2164830734867098E-01 a        72     0     4     1    12
 -1.6454775329139856E-01 a        73     0     4     1    13
 -1.1739986555537738E+00 a        74     0     4     1    14
  1.2443602619540614E-01 a        75     0     4     1    15
  6.1349696340470064E-02 a        76     0     4     1    16
 -2.3264234521819688E-01 a        77     0     4     1    17
 -6.5741749580777609E-01 a        78     0     4     1    18
 -6.0192574128031551E-01 a        79     0     4     1    19
 -4.7132622655481582E-01 a        80     0     4     1    20
  4.5172127614342222E-02 a        81     0     5     1     1
 -2.6020943511353388E-02 a        82     0     5     1     2
 -1.4611383932390787E-01 a        83     0     5     1     3
 -1.3562927085540516E-01 a        84     0     5     1     4
 -8.6617695069700212E-02 a        85     0     5     1     5
 -2.5603738452750746E-01 a        86     0     5     1     6
  6.7811688804502598E-02 a        87     0     5     1     7
  5.4118947384168567E-03 a        88     0     5     1     8
 -8.9510977322937210E-02 a        89     0     5     1     9
  1.3493540159711881E-01 a        90     0     5     1    10
  2.6775561683329885E-01 a        91     0     5     1    11
  1.9343921245307760E-01 a        92     0     5     1    12
  1.4969484492752921E-01 a        93     0     5     1    13
  3.2803687375902935E-01 a        94     0     5     1    14
 -8.0290279269304377E-02 a        95     0     5     1    15
 -4.6171791392599713E-02 a        96     0     5     1    16
  1.6863318946159814E-01 a        97     0     5     1    17
 -2.0016011702392886E-01 a        98     0     5     1    18
  3.3048053766502794E-01 a        99     0     5     1    19
  1.7286046048268144E-01 a       100     0     5     1    20
  4.8986101632907059E-01 a       101     0     6     1     1
  1.4084281594702935E-01 a       102     0     6     1     2
  8.5133951319583789E-02 a       103     0     6     1     3
  3.8496813112572315E-01 a       104     0     6     1     4
 -1.5561610995369060E-01 a       105     0     6     1     5
  1.7164341364346750E-01 a       106     0     6     1     6
  1.2298550995200408E-01 a       107     0     6     1     7
 -1.9259311057454134E-01 a       108     0     6     1     8
 -1.2379613722331394E-01 a       109     0     6     1     9
 -7.1428801585387308E-02 a       110     0     6     1    10
  1.1873525087895147E-01 a       111     0     6     1    11
 -8.1401915356397486E-02 a       112     0     6     1    12
 -1.1394438875605137E-01 a       113     0     6     1    13
 -3.4487533026270378E-01 a       114     0     6     1    14
  2.8360670177154174E-01 a       115     0     6     1    15
 -5.3670852625374421E-01 a       116     0     6     1    16
  4.6651040050170495E-01 a       117     0     6     1    17
  6.0944490399786472E-02 a       118     0     6     1    18
 -1.8097777775112389E-01 a       119     0     6     1    19
  5.0156077162576126E-02 a       120     0     6     1    20
  1.4712678744814769E-01 a       121     0     7     1     1
  6.4508682722108179E-01 a       122     0     7     1     2
  1.4316627939469147E-02 a       123     0     7     1     3
  1.8032844361660513E-01 a       124     0     7     1     4
  2.6295777768268486E-01 a       125     0     7     1     5
  3.9430254725883884E-01 a       126     0     7     1     6
 -2.2897874308884423E-03 a       127     0     7     1     7
  7.1129477560220880E-02 a       128     0     7     1     8
  7.7103389296595534E-02 a       129     0     7     1     9
  2.2677907851544019E-01 a       130     0     7     1    10
 -5.1330284006406945E-01 a       131     0     7     1    11
 -2.5026290427114423E-01 a       132     0     7     1    12
  4.0202048628542861E-02 a       133     0     7     1    13
 -1.3532599889404612E-01 a       134     0     7     1    14
 -1.1328630363467991E-01 a       135     0     7     1    15
 -3.3547664965979457E-01 a       136     0     7     1    16
 -1.8077234708077605E-01 a       137     0     7     1    17
 -1.1469076547514528E-01 a       138     0     7     1    18
 -4.4112052663218569E-02 a       139     0     7     1    19
 -1.9294930811790717E-01 a       140     0     7     1    20
  3.5003563513810776E-01 a       141     0     8     1     1
  2.4133977205970082E-02 a       142     0     8     1     2
  2.9598152675791769E-02 a       143     0     8     1     3
 -2.0140319850116570E-01 a       144     0     8     1     4
  4.3389871957938780E-02 a       145     0     8     1     5
  5.1771255632604582E-02 a       146     0     8     1     6
 -1.1817494019604805E-01 a       147     0     8     1     7
 -1.4941745152031652E-01 a       148     0     8     1     8
  2.3155498518121879E-02 a       149     0     8     1     9
  1.8159049479783734E-01 a       150     0     8     1    10
 -2.2286678616111144E-01 a       151     0     8     1    11
 -3.9565110835029277E-01 a       152     0     8     1    12
 -3.1692376141708528E-01 a       153     0     8     1    13
  1.3733554486206961E-01 a       154     0     8     1    14
  2.1327083699277652E-01 a       155     0     8     1    15
 -6.4447150375463377E-03 a       156     0     8     1    16
 -1.2153825064225357E-01 a       157     0     8     1    17
  2.3064214772275099E-01 a       158     0     8     1    18
  1.6201933044369496E-01 a       159     0     8     1    19
 -1.2213594039687801E-01 a       160     0     8     1    20
  2.5066050901946174E-01 a       161     0     9     1     1
 -1.8062946990344766E-01 a       162     0     9     1     2
 -1.1455617908492181E-01 a       163     0     9     1     3
 -2.8425253442545867E-01 a       164     0     9     1     4
  2.6051088045547949E-01 a       165     0     9     1     5
  4.4764140825830007E-01 a       166     0     9     1     6
  2.2890811780516279E-01 a       167     0     9     1     7
 -2.1593690664331342E-02 a       168     0     9     1     8
 -3.0192359679815195E-01 a       169     0     9     1     9
  1.1882738602115615E-01 a       170     0     9     1    10
 -3.7252854405778679E-01 a       171     0     9     1    11
  6.1017222722999902E-03 a       172     0     9     1    12
  1.1310476478576210E-01 a       173     0     9     1    13
 -6.1147030141849423E-01 a       174     0     9     1    14
  2.7807943212296710E-01 a       175     0     9     1    15
  1.5700749268094871E-01 a       176     0     9     1    16
  4.1734548550915845E-01 a       177     0     9     1    17
 -6.1070035225428233E-02 a       178     0     9     1    18
 -3.7291706546993253E-01 a       179     0     9     1    19
 -4.1742167552033294E-01 a       180     0     9     1    20
  6.1219128955770391E-02 a       181     0    10     1     1
  7.5237623349158469E-02 a       182     0    10     1     2
 -3.8316539196583455E-02 a       183     0    10     1     3
 -5.1969478833596830E-02 a       184     0    10     1     4
  1.3851686124612192E-01 a       185     0    10     1     5
 -2.6505305765888021E-01 a       186     0    10     1     6
  2.6528505399493968E-01 a       187     0    10     1     7
 -2.3876823916311272E-02 a       188     0    10     1     8
 -2.7001927497410622E-01 a       189     0    10     1     9
 -1.7961503312614624E-01 a       190     0    10     1    10
 -1.5059854753928498E-01 a       191     0    10     1    11
  2.8515389792301671E-01 a       192     0    10     1    12
  6.5429667796653670E-02 a       193     0    10     1    13
 -4.9979916339409819E-01 a       194     0    10     1    14
  2.9021265565607673E-01 a       195     0    10     1    15
 -7.3844245233344749E-02 a       196     0    10     1    16
 -1.1387420021934744E-01 a       197     0    10     1    17
 -1.8894348650989742E-01 a       198     0    10     1    18
  2.1703806626255515E-02 a       199     0    10     1    19
  3.2639183869669713E-02 a       200     0    10     1    20
 -8.7009689739704320E-03 a       201     0    11     1     1
 -1.5478691440983852E-01 a       202     0    11     1     2
  2.6039583643266240E-01 a       203     0    11     1     3
 -1.2828916653158717E-01 a       204     0    11     1     4
 -4.2341824486535901E-01 a       205     0    11     1     5
 -1.1320321759995079E-02 a       206     0    11     1     6
 -7.8549180694914025E-02 a       207     0    11     1     7
  6.6337177499308425E-02 a       208     0    11     1     8
  1.2572491069690719E-01 a       209     0    11     1     9
 -3.3349995965566537E-01 a       210     0    11     1    10
  2.1775390760400276E-01 a       211     0    11     1    11
 -1.1250494130345295E-01 a       212     0    11     1    12
 -3.1724003840907795E-02 a       213     0    11     1    13
 -6.4349895483592837E-02 a       214     0    11     1    14
  1.5787404931572466E-01 a       215     0    11     1    15
  2.5499941626754341E-01 a       216     0    11     1    16
 -7.1255787331879386E-02 a       217     0    11     1    17
  1.4073246543520687E-01 a       218     0    11     1    18
 -4.1528528367645667E-01 a       219     0    11     1    19
  2.7704924081340920E-01 a       220     0    11     1    20
 -8.3112834795590715E-02 a       221     0    12     1     1
 -9.5936528590055081E-02 a       222     0    12     1     2
  4.2465859400395922E-01 a       223     0    12     1     3
 -9.0289431761539474E-02 a       224     0    12     1     4
 -2.6104545457459670E-03 a       225     0    12     1     5
  1.7534098678111651E-01 a       226     0    12     1     6
  3.9104251431722020E-01 a       227     0    12     1     7
 -9.8803029929411826E-02 a       228     0    12     1     8
  3.6468960660807209E-01 a       229     0    12     1     9
  1.0300093339827862E-01 a       230     0    12     1    10
  2.4484989454939737E-01 a       231     0    12     1    11
  2.5867549110013566E-01 a       232     0    12     1    12
 -1.4165083515855079E-01 a       233     0    12     1    13
 -2.8832269900907342E-01 a       234     0    12     1    14
 -6.4743529570438175E-03 a       235     0    12     1    15
  4.8250639346595053E-01 a       236     0    12     1    16
  2.8716891987055165E-01 a       237     0    12     1    17
  9.7400861416290244E-02 a       238     0    12     1    18
 -4.4145505313009048E-01 a       239     0    12     1    19
  1.8124458355569914E-01 a       240     0    12     1    20
  3.2933521050717111E-02 a       241     0    13     1     1
  1.3467763617144216E-01 a       242     0    13     1     2
 -7.0429985252952604E-02 a       243     0    13     1     3
  1.3790193328729700E-01 a       244     0    13     1     4
 -2.8623409525196323E-02 a       245     0    13     1     5
  1.4593442143314286E-01 a       246     0    13     1     6
  3.1756129954959120E-02 a       247     0    13     1     7
  1.0169884422692153E-01 a       248     0    13     1     8
  2.8932115069539832E-01 a       249     0    13     1     9
  1.8093243948311702E-01 a       250     0    13     1    10
  1.2167442605194308E-01 a       251     0    13     1    11
  3.8261074103984126E-02 a       252     0    13     1    12
  8.2034704438287819E-03 a       253     0    13     1    13
 -8.9467440803796219E-02 a       254     0    13     1    14
  1.4968849093099154E-01 a       255     0    13     1    15
 -1.1045256005165298E-01 a       256     0    13     1    16
 -1.2470084128396872E-01 a       257     0    13     1    17
 -8.6034673922665367E-02 a       258     0    13     1    18
 -4.9659230619187422E-02 a       259     0    13     1    19
 -1.0842138988674130E-01 a       260     0    13     1    20
  6.9699777981181585E-02 a       261     0    14     1     1
 -3.2676235832821432E-01 a       262     0    14     1     2
  1.7896174133414616E-01 a       263     0    14     1     3
 -1.4970980057664898E-01 a       264     0    14     1     4
  8.6801539165645952E-02 a       265     0    14     1     5
 -2.3609548403101760E-01 a       266     0    14     1     6
 -7.8823355053086533E-02 a       267     0    14     1     7
 -6.5220792362028268E-02 a       268     0    14     1     8
  4.8018494420271750E-02 a       269     0    14     1     9
  2.0102629139034012E-01 a       270     0    14     1    10
  1.3790104014799587E-01 a       271     0    14     1    11
 -1.9863206185889897E-03 a       272     0    14     1    12
  8.2188060492186896E-02 a       273     0    14     1    13
  2.8271818496482010E-01 a       274     0    14     1    14
 -5.9460023891006498E-02 a       275     0    14     1    15
  1.7202503829150273E-01 a       276     0    14     1    16
  2.1410140510300263E-01 a       277     0    14     1    17
  2.0391186977813558E-02 a       278     0    14     1    18
  1.4445345092262496E-01 a       279     0    14     1    19
 -8.5172575381190122E-02 a       280     0    14     1    20
  5.5325890364920659E-02 a       281     0    15     1     1
  1.3187536368877209E-01 a       282     0    15     1     2
 -1.5282546281952636E-01 a       283     0    15     1     3
 -7.1135221357269279E-04 a       284     0    15     1     4
  2.9239043965144607E-01 a       285     0    15     1     5
  1.0433393180105917E-01 a       286     0    15     1     6
 -1.3137177684127629E-01 a       287     0    15     1     7
  8.4357709149132688E-03 a       288     0    15     1     8
 -1.6864046876347161E-01 a       289     0    15     1     9
  1.4274159277483914E-01 a       290     0    15     1    10
  8.5688092918702996E-02 a       291     0    15     1    11
  1.5914439109186576E-01 a       292     0    15     1    12
  1.1882471253147195E-01 a       293     0    15     1    13
 -2.2541927855411217E-01 a       294     0    15     1    14
  3.3221394559138834E-01 a       295     0    15     1    15
  7.5694434844148895E-02 a       296     0    15     1    16
  2.1840437961825412E-01 a       297     0    15     1    17
  5.9583386611852952E-02 a       298     0    15     1    18
 -8.1686502037223024E-02 a       299     0    15     1    19
  1.9219729537154229E-02 a       300     0    15     1    20
  5.5661053726198853E-02 a       301     0    16     1     1
  4.1762139929204370E-02 a       302     0    16     1     2
 -1.4478372077785595E-01 a       303     0    16     1     3
 -5.1284315679621557E-03 a       304     0    16     1     4
 -2.5968659699194378E-02 a       305     0    16     1     5
 -1.2866856396361648E-01 a       306     0    16     1     6
  1.4680446863370833E-01 a       307     0    16     1     7
  1.2278328852375996E-01 a       308     0    16     1     8
 -2.4314167373730544E-01 a       309     0    16     1     9
 -3.5358135038139997E-02 a       310     0    16     1    10
 -1.1676943594233753E-01 a       311     0    16     1    11
  1.2212486652870955E-01 a       312     0    16     1    12
  6.1404038679914737E-02 a       313     0    16     1    13
 -2.2335837355073027E-01 a       314     0    16     1    14
  1.0152559832374317E-01 a       315     0    16     1    15
  1.9876081928766349E-02 a       316     0    16     1    16
 -7.6049889684392108E-02 a       317     0    16     1    17
 -1.7415930718019942E-01 a       318     0    16     1    18
  5.8361000491752177E-02 a       319     0    16     1    19
  1.4967420446947033E-01 a       320     0    16     1    20
  2.1138913995163554E-02 a       321     0    17     1     1
  3.0390514165138348E-02 a       322     0    17     1     2
  7.2190452378543490E-02 a       323     0    17     1     3
 -2.0030582986347821E-02 a       324     0    17     1     4
 -2.0398374071391107E-01 a       325     0    17     1     5
  1.1113260579220925E-02 a       326     0    17     1     6
 -1.6682865465430327E-01 a       327     0    17     1     7
  1.7886215995008743E-02 a       328     0    17     1     8
  1.4442466724468048E-03 a       329     0    17     1     9
 -1.4614587347319238E-01 a       330     0    17     1    10
 -3.9303604150303491E-02 a       331     0    17     1    11
 -1.8928534871071301E-01 a       332     0    17     1    12
 -7.3647309704351835E-02 a       333     0    17     1    13
  1.3303155202844777E-01 a       334     0    17     1    14
 -2.0521824146063541E-01 a       335     0    17     1    15
 -1.8467986545645743E-02 a       336     0    17     1    16
 -9.3576799046365691E-02 a       337     0    17     1    17
  1.9929747471547651E-01 a       338     0    17     1    18
 -1.5438785927140224E-03 a       339     0    17     1    19
  6.1687380833705736E-02 a       340     0    17     1    20
  1.2033457273989759E-01 a       341     0    18     1     1
  1.1186098229738974E-01 a       342     0    18     1     2
 -2.3188614566774393E-01 a       343     0    18     1     3
  3.5305581040999505E-02 a       344     0    18     1     4
 -1.1727238608347414E-01 a       345     0    18     1     5
  6.3066314462667750E-02 a       346     0    18     1     6
  8.3489181588858832E-02 a       347     0    18     1     7
 -1.6224067472124312E-01 a       348     0    18     1     8
 -1.3015185220695799E-01 a       349     0    18     1     9
 -2.5868688590333067E-01 a       350     0    18     1    10
  1.8231860176789263E-02 a       351     0    18     1    11
 -2.4668792817220131E-01 a       352     0    18     1    12
 -1.8747815720814051E-01 a       353     0    18     1    13
 -6.4489363046343173E-02 a       354     0    18     1    14
  2.4488742610797776E-01 a       355     0    18     1    15
  1.0492176479883113E-01 a       356     0    18     1    16
 -1.5610710400027211E-01 a       357     0    18     1    17
 -1.4182248273342636E-02 a       358     0    18     1    18
 -7.8874277672625309E-02 a       359     0    18     1    19
  1.7068286670898606E-02 a       360     0    18     1    20
 -5.4531078194685660E-02 a       361     0    19     1     1
  9.7012884346038011E-02 a       362     0    19     1     2
 -5.8543084902515544E-02 a       363     0    19     1     3
  1.4241412271701689E-01 a       364     0    19     1     4
 -1.0194100428227076E-01 a       365     0    19     1     5
  6.5585120535717453E-02 a       366     0    19     1     6
  5.6399582852829963E-02 a       367     0    19     1     7
  8.1233143279256459E-02 a       368     0    19     1     8
  5.0456031640268599E-03 a       369     0    19     1     9
  9.1206858915044792E-02 a       370     0    19     1    10
  9.5215671434733987E-02 a       371     0    19     1    11
  7.9569291387188087E-02 a       372     0    19     1    12
 -6.1102829123529184E-02 a       373     0    19     1    13
  6.1452413420945698E-03 a       374     0    19     1    14
  5.4945443610886394E-02 a       375     0    19     1    15
  7.7616929953721714E-02 a       376     0    19     1    16
 -7.3795959411927320E-02 a       377     0    19     1    17
 -9.8401863368907105E-02 a       378     0    19     1    18
 -4.8240764248168588E-02 a       379     0    19     1    19
 -4.6140102983170658E-02 a       380     0    19     1    20
 -3.7550198237256638E-02 a       381     0    20     1     1
 -1.7410483139109914E-01 a       382     0    20     1     2
  1.7548735813108632E-01 a       383     0    20     1     3
 -1.3170122821096933E-01 a       384     0    20     1     4
  2.3590740674238836E-01 a       385     0    20     1     5
  2.0445466401350296E-02 a       386     0    20     1     6
 -4.3974220542189170E-02 a       387     0    20     1     7
 -1.6237406865418663E-01 a       388     0    20     1     8
  9.4230497853595718E-02 a       389     0    20     1     9
  5.9351197153510754E-02 a       390     0    20     1    10
 -1.8121038940534678E-03 a       391     0    20     1    11
  9.8252319006528477E-03 a       392     0    20     1    12
  3.0453254274525211E-02 a       393     0    20     1    13
 -1.2898636192237719E-02 a       394     0    20     1    14
  1.7170000663816302E-02 a       395     0    20     1    15
 -4.6786437378388418E-02 a       396     0    20     1    16
  2.1211558068224731E-01 a       397     0    20     1    17
  7.1567541656334761E-03 a       398     0    20     1    18
  3.3339568354515204E-03 a       399     0    20     1    19
 -1.2439162934666075E-01 a       400     0    20     1    20
 -1.4803929126199319E-01 a       401     0    21     1     1
 -1.0405348129914317E-01 a       402     0    21     1     2
  2.5088162422312249E-01 a       403     0    21     1     3
 -3.9747149872140654E-02 a       404     0    21     1     4
 -2.3229836719904592E-03 a       405     0    21     1     5
 -3.6973735324125186E-02 a       406     0    21     1     6
  3.1751071139983537E-02 a       407     0    21     1     7
  1.9379118223870673E-01 a       408     0    21     1     8
  2.7388826844761449E-01 a       409     0    21     1     9
  1.4267444988745057E-01 a       410     0    21     1    10
  2.0872218615000333E-02 a       411     0    21     1    11
  1.3501592227990306E-01 a       412     0    21     1    12
  1.5445862187099427E-01 a       413     0    21     1    13
  7.3276202350019026E-02 a       414     0    21     1    14
 -2.0575177273039874E-01 a       415     0    21     1    15
 -7.0086949507681295E-02 a       416     0    21     1    16
  1.1118043826670029E-01 a       417     0    21     1    17
 -1.9645921664055255E-01 a       418     0    21     1    18
 -6.2022864759257810E-03 a       419     0    21     1    19
  7.7399043795945690E-04 a       420     0    21     1    20
  6.8840197026083169E-02 a       421     0    22     1     1
  6.4264257231053104E-03 a       422     0    22     1     2
 -1.2515888619135343E-01 a       423     0    22     1     3
 -2.3140722973018123E-02 a       424     0    22     1     4
  6.6602282398965373E-02 a       425     0    22     1     5
 -6.4307219006482050E-02 a       426     0    22     1     6
  9.8699169043854354E-02 a       427     0    22     1     7
  5.5641304610055155E-02 a       428     0    22     1     8
  3.8459962229074350E-02 a       429     0    22     1     9
 -2.7195056799965790E-02 a       430     0    22     1    10
  3.3381647007979930E-02 a       431     0    22     1    11
  1.6798498167305154E-02 a       432     0    22     1    12
  3.9845036374005154E-02 a       433     0    22     1    13
 -7.1185712256378181E-02 a       434     0    22     1    14
  8.0135809969062305E-02 a       435     0    22     1    15
 -2.8334777254216514E-02 a       436     0    22     1    16
 -8.6511766415371812E-04 a       437     0    22     1    17
 -2.9186441186039469E-02 a       438     0    22     1    18
  6.1492561287104272E-02 a       439     0    22     1    19
  1.2940920475601297E-01 a       440     0    22     1    20
  2.6524345024464459E-02 a       441     0    23     1     1
  7.5083136660097347E-02 a       442     0    23     1     2
  2.9747123209005907E-02 a       443     0    23     1     3
  4.1870646020659312E-02 a       444     0    23     1     4
 -2.1133968947018170E-01 a       445     0    23     1     5
  5.6662512057272085E-03 a       446     0    23     1     6
 -8.8667101854949762E-02 a       447     0    23     1     7
  3.8875821372534786E-02 a       448     0    23     1     8
  7.5823411185601694E-02 a       449     0    23     1     9
 -2.3594531189272613E-01 a       450     0    23     1    10
 -2.1293833619973550E-02 a       451     0    23     1    11
 -1.8882360129247702E-01 a       452     0    23     1    12
  1.9049448413776756E-02 a       453     0    23     1    13
  1.0278791991529924E-01 a       454     0    23     1    14
 -6.0987530564194641E-02 a       455     0    23     1    15
  4.6024467570150315E-02 a       456     0    23     1    16
 -6.9953697211947524E-02 a       457     0    23     1    17
  1.5323665069163381E-01 a       458     0    23     1    18
  3.6973874659873708E-02 a       459     0    23     1    19
  2.1048841006537710E-02 a       460     0    23     1    20
  4.6129303680751257E-02 a       461     0    24     1     1
  3.8561466825317185E-02 a       462     0    24     1     2
 -1.9923201701064747E-01 a       463     0    24     1     3
  6.7417029603963188E-02 a       464     0    24     1     4
  1.1449793647803833E-01 a       465     0    24     1     5
  7.5422678202197793E-02 a       466     0    24     1     6
  6.1036723351309573E-02 a       467     0    24     1     7
 -7.7347057960070367E-02 a       468     0    24     1     8
 -1.0633872715426781E-01 a       469     0    24     1     9
  2.7573219094958766E-02 a       470     0    24     1    10
  1.4914816990694615E-01 a       471     0    24     1    11
  1.7613790468411394E-02 a       472     0    24     1    12
 -1.2267004426466210E-01 a       473     0    24     1    13
 -7.1828129446551439E-02 a       474     0    24     1    14
  4.3693648320102377E-02 a       475     0    24     1    15
 -4.9873635943336950E-02 a       476     0    24     1    16
 -5.1615427487565334E-02 a       477     0    24     1    17
  7.3722295944732855E-02 a       478     0    24     1    18
  7.9786287809234233E-02 a       479     0    24     1    19
 -1.3499962230103604E-02 a       480     0    24     1    20
 -5.1165717961536447E-02 a       481     0    25     1     1
 -5.9978621742298864E-02 a       482     0    25     1     2
  8.2940786152708182E-02 a       483     0    25     1     3
  1.9056291149169485E-02 a       484     0    25     1     4
  1.1380685192352420E-02 a       485     0    25     1     5
  1.2872653516554314E-01 a       486     0    25     1     6
 -1.5224375116825158E-03 a       487     0    25     1     7
 -9.9198663874903326E-03 a       488     0    25     1     8
 -4.4521533820276807E-02 a       489     0    25     1     9
  8.5111812127213637E-02 a       490     0    25     1    10
 -4.2942844331524316E-02 a       491     0    25     1    11
  1.1367460790258558E-02 a       492     0    25     1    12
 -4.1772802643004946E-02 a       493     0    25     1    13
 -6.0846376273679011E-02 a       494     0    25     1    14
 -7.1201674449855298E-02 a       495     0    25     1    15
 -9.8763333810437080E-03 a       496     0    25     1    16
 -8.1542317162330638E-03 a       497     0    25     1    17
 -8.8661732605815863E-02 a       498     0    25     1    18
  1.7226797628083868E-02 a       499     0    25     1    19
 -7.0679439862497223E-02 a       500     0    25     1    20
 -2.4389695792775397E-02 a       501     0    26     1     1
 -1.8787986143476798E-01 a       502     0    26     1     2
  1.0939651277354348E-01 a       503     0    26     1     3
 -8.2096051843513596E-02 a       504     0    26     1     4
  1.7231505853493569E-02 a       505     0    26     1     5
  7.6952420599658053E-02 a       506     0    26     1     6
  2.9042099291362335E-02 a       507     0    26     1     7
 -7.0736565423813541E-02 a       508     0    26     1     8
 -8.8176512397262638E-02 a       509     0    26     1     9
  1.4686827117139026E-01 a       510     0    26     1    10
 -3.5731213875869909E-02 a       511     0    26     1    11
  1.4357155734598051E-01 a       512     0    26     1    12
 -2.4044899587232847E-02 a       513     0    26     1    13
 -9.7821527856346430E-02 a       514     0    26     1    14
 -8.6333794252245508E-02 a       515     0    26     1    15
 -1.3680863987047637E-01 a       516     0    26     1    16
  9.4835132372678380E-03 a       517     0    26     1    17
  7.0880389309205802E-02 a       518     0    26     1    18
  1.1804047853407312E-01 a       519     0    26     1    19
 -7.9457782204406135E-02 a       520     0    26     1    20
  1.0193547617912978E-01 a       521     0    27     1     1
  9.0129634270290443E-02 a       522     0    27     1     2
  4.7785155857248990E-02 a       523     0    27     1     3
 -4.2592117731671847E-02 a       524     0    27     1     4
  2.5301448173045818E-02 a       525     0    27     1     5
 -6.7870131264569297E-02 a       526     0    27     1     6
 -4.0711591570706557E-02 a       527     0    27     1     7
  5.6976676326188337E-02 a       528     0    27     1     8
 -1.0052043536081474E-01 a       529     0    27     1     9
 -7.2486156055831794E-02 a       530     0    27     1    10
 -2.8223164930655348E-01 a       531     0    27     1    11
 -1.0721664873301621E-01 a       532     0    27     1    12
  5.1369765186243352E-02 a       533     0    27     1    13
  9.3878834650985565E-03 a       534     0    27     1    14
 -6.4712312750995538E-02 a       535     0    27     1    15
  1.6772867624348844E-01 a       536     0    27     1    16
  6.1503707468214056E-02 a       537     0    27     1    17
 -1.5477599429939580E-03 a       538     0    27     1    18
 -5.1761720033686662E-02 a       539     0    27     1    19
  9.1674010362376698E-02 a       540     0    27     1    20
  2.3172251595478664E-02 a       541     0    28     1     1
  1.2926742099628064E-03 a       542     0    28     1     2
 -8.9683858295333485E-02 a       543     0    28     1     3
 -3.4749965334817931E-02 a       544     0    28     1     4
  1.0296305187958230E-01 a       545     0    28     1     5
 -1.3000995375561408E-01 a       546     0    28     1     6
 -1.4781877444348980E-02 a       547     0    28     1     7
  6.7083105877313613E-03 a       548     0    28     1     8
  5.6197897082891440E-02 a       549     0    28     1     9
  8.2794642721260928E-02 a       550     0    28     1    10
  9.2094220667231635E-02 a       551     0    28     1    11
  4.0454769984239781E-02 a       552     0    28     1    12
  2.2514147248079350E-02 a       553     0    28     1    13
  7.2263872716370040E-02 a       554     0    28     1    14
  7.5005216631726809E-02 a       555     0    28     1    15
  2.1230317201875463E-02 a       556     0    28     1    16
  3.3206542374800439E-02 a       557     0    28     1    17
 -4.4799913114716643E-02 a       558     0    28     1    18
 -7.7726019457653436E-02 a       559     0    28     1    19
  7.5140166424890104E-02 a       560     0    28     1    20
  8.1377880906452274E-03 a       561     0    29     1     1
  1.3756184498001084E-01 a       562     0    29     1     2
 -5.3302535893888073E-02 a       563     0    29     1     3
  6.5168371816452408E-02 a       564     0    29     1     4
 -5.9228690730557865E-02 a       565     0    29     1     5
 -6.2401943761122063E-02 a       566     0    29     1     6
 -8.2310723838381381E-02 a       567     0    29     1     7
  3.9159744321541672E-02 a       568     0    29     1     8
  5.3293959045722171E-02 a       569     0    29     1     9
 -1.3873628210954836E-01 a       570     0    29     1    10
 -1.7904800937519887E-02 a       571     0    29     1    11
 -9.5320594075573556E-02 a       572     0    29     1    12
  2.2980316310344372E-02 a       573     0    29     1    13
  7.2672372867966809E-02 a       574     0    29     1    14
  6.0882059766853805E-02 a       575     0    29     1    15
  1.1035812531101913E-01 a       576     0    29     1    16
  5.0352925447776972E-03 a       577     0    29     1    17
  8.2828714632692479E-04 a       578     0    29     1    18
 -8.4494855132801999E-02 a       579     0    29     1    19
  2.0728391716161310E-02 a       580     0    29     1    20
  3.9920212624246713E-02 a       581     0    30     1     1
  1.2178655839970300E-02 a       582     0    30     1     2
 -9.9024365937625966E-02 a       583     0    30     1     3
  2.4240913557011397E-03 a       584     0    30     1     4
 -9.7157027730907924E-02 a       585     0    30     1     5
  1.2833245817377368E-04 a       586     0    30     1     6
  4.9627355983379674E-02 a       587     0    30     1     7
 -4.1541656432289131E-02 a       588     0    30     1     8
 -1.0045658987620290E-02 a       589     0    30     1     9
 -8.6084295822311502E-02 a       590     0    30     1    10
  1.3940352463901909E-01 a       591     0    30     1    11
  2.1178981772235338E-02 a       592     0    30     1    12
 -1.4832669494711051E-02 a       593     0    30     1    13
  2.5934611718389396E-02 a       594     0    30     1    14
  1.8487824459114952E-01 a       595     0    30     1    15
 -4.3688150747721095E-02 a       596     0    30     1    16
 -8.2215249478842664E-02 a       597     0    30     1    17
  1.3175376717783038E-01 a       598     0    30     1    18
  5.7131140578987542E-02 a       599     0    30     1    19
  1.5774331803086565E-02 a       600     0    30     1    20
 -1.3928796827560128E-01 a       601     0    31     1     1
 -1.4356474958287105E-01 a       602     0    31     1     2
 -1.9052171584858041E-01 a       603     0    31     1     3
 -3.5221408912147278E-01 a       604     0    31     1     4
 -5.1600531603032740E-01 a       605     0    31     1     5
  2.8617729722450008E-01 a       606     0    31     1     6
 -7.8831900711939476E-02 a       607     0    31     1     7
  4.1307431416285223E-01 a       608     0    31     1     8
  1.0106461743391117E-01 a       609     0    31     1     9
  2.3793407766533609E-01 a       610     0    31     1    10
  5.3410588351872332E-02 a       611     0    31     1    11
 -1.7049847706536417E-01 a       612     0    31     1    12
 -2.0167051500611322E-01 a       613     0    31     1    13
  4.4869335264132021E-01 a       614     0    31     1    14
  3.2507514766008105E-01 a       615     0    31     1    15
  2.6228418985826268E-01 a       616     0    31     1    16
  9.8181633821209202E-02 a       617     0    31     1    17
 -3.2252306887673471E-01 a       618     0    31     1    18
 -2.1430892629937937E-01 a       619     0    31     1    19
  3.4232189890153913E-01 a       620     0    31     1    20
 -2.0000008030950417E-01 a       621     0    32     1     1
 -3.6157410962001292E-02 a       622     0    32     1     2
  3.3243103520431738E-01 a       623     0    32     1     3
  2.5080791092531329E-01 a       624     0    32     1     4
  1.1183442702919456E-01 a       625     0    32     1     5
 -3.5954788434401141E-01 a       626     0    32     1     6
  2.5669069191059679E-01 a       627     0    32     1     7
 -3.7346020103597560E-01 a       628     0    32     1     8
  2.1405697043436001E-01 a       629     0    32     1     9
 -3.8013681743145497E-02 a       630     0    32     1    10
  1.6758956178672021E-01 a       631     0    32     1    11
  3.6810523066852556E-02 a       632     0    32     1    12
  1.8885435706098289E-01 a       633     0    32     1    13
 -2.6451402526085827E-01 a       634     0    32     1    14
 -2.6776021458520499E-01 a       635     0    32     1    15
  7.6374177539168850E-02 a       636     0    32     1    16
  1.2322461527777234E-01 a       637     0    32     1    17
  2.5481112162643338E-01 a       638     0    32     1    18
  5.3496177111627097E-01 a       639     0    32     1    19
 -2.2843927537560335E-01 a       640     0    32     1    20
 -2.4332689978705604E-01 a       641     0    33     1     1
  1.9000090739720946E-01 a       642     0    33     1     2
 -1.3209890511485037E-01 a       643     0    33     1     3
 -1.8516315241053757E-01 a       644     0    33     1     4
  1.1732445839170445E-01 a       645     0    33     1     5
  1.4719268330174359E-01 a       646     0    33     1     6
 -5.1685072765355500E-01 a       647     0    33     1     7
  3.2007136047562335E-01 a       648     0    33     1     8
 -1.2310432876200117E-01 a       649     0    33     1     9
  2.6430271554955204E-01 a       650     0    33     1    10
 -1.8914720968411411E-01 a       651     0    33     1    11
 -1.7920985163133141E-01 a       652     0    33     1    12
 -1.3662805597748823E-01 a       653     0    33     1    13
 -7.1849877899810025E-02 a       654     0    33     1    14
 -2.2769446534319940E-01 a       655     0    33     1    15
 -8.3222702897722656E-02 a       656     0    33     1    16
  8.8024113067557613E-02 a       657     0    33     1    17
 -1.0144887454238413E-01 a       658     0    33     1    18
  3.5001009039259873E-01 a       659     0    33     1    19
  1.5701047812321819E-01 a       660     0    33     1    20
  1.5123055812531822E-01 a       661     0    34     1     1
 -1.8269506229407129E-01 a       662     0    34     1     2
 -1.2616630989114605E-01 a       663     0    34     1     3
 -3.7693807935119887E-02 a       664     0    34     1     4
 -1.6564366706640421E-01 a       665     0    34     1     5
  3.0155292633801756E-01 a       666     0    34     1     6
 -1.0698787687319745E-01 a       667     0    34     1     7
  2.0892326139515580E-01 a       668     0    34     1     8
 -1.4027427920666141E-01 a       669     0    34     1     9
  1.4480057767818399E-01 a       670     0    34     1    10
 -2.9421173933920153E-01 a       671     0    34     1    11
 -1.9912257745322104E-01 a       672     0    34     1    12
 -1.2889601830522668E-01 a       673     0    34     1    13
  9.5475966640882010E-02 a       674     0    34     1    14
  1.1649448456537477E-01 a       675     0    34     1    15
 -7.1757146679102254E-02 a       676     0    34     1    16
  1.6474153524767518E-01 a       677     0    34     1    17
  5.9968433324809646E-02 a       678     0    34     1    18
  3.1258134392720027E-01 a       679     0    34     1    19
  1.3898306188193030E-01 a       680     0    34     1    20
 -3.6414070165566345E-02 a       681     0    35     1     1
  3.1766073488523305E-01 a       682     0    35     1     2
  4.4219133459075181E-02 a       683     0    35     1     3
  3.1208888395766277E-01 a       684     0    35     1     4
 -1.6294270348408199E-01 a       685     0    35     1     5
 -1.2037104181608860E-01 a       686     0    35     1     6
 -2.5792199095760249E-01 a       687     0    35     1     7
  2.6711801118445588E-01 a       688     0    35     1     8
  5.5254122757708919E-02 a       689     0    35     1     9
 -1.5348477923054504E-02 a       690     0    35     1    10
 -1.4050068747137351E-01 a       691     0    35     1    11
  1.5350063736868483E-01 a       692     0    35     1    12
 -1.3889291244823321E-01 a       693     0    35     1    13
 -1.5435765351732747E-01 a       694     0    35     1    14
 -2.5671846250750349E-02 a       695     0    35     1    15
  2.4268323953130919E-01 a       696     0    35     1    16
 -1.5355297446143992E-01 a       697     0    35     1    17
  7.7723891416667801E-02 a       698     0    35     1    18
 -8.8262386067493856E-02 a       699     0    35     1    19
 -1.8209564185876940E-02 a       700     0    35     1    20
 -2.4987118704853778E-01 a       701     0    36     1     1
  3.7250641820273961E-01 a       702     0    36     1     2
 -1.8982427619927023E-01 a       703     0    36     1     3
  2.8905736697639867E-01 a       704     0    36     1     4
  1.4107861098124433E-01 a       705     0    36     1     5
 -4.0064871323831214E-01 a       706     0    36     1     6
 -1.6554669117924620E-01 a       707     0    36     1     7
 -1.3098373051414802E-01 a       708     0    36     1     8
  4.7168568090784790E-01 a       709     0    36     1     9
 -3.5235238307915134E-01 a       710     0    36     1    10
  2.0565308398217536E-01 a       711     0    36     1    11
  3.8744338489723834E-01 a       712     0    36     1    12
  5.1469802452440663E-02 a       713     0    36     1    13
 -1.6205726432710199E-01 a       714     0    36     1    14
  3.7782749527078152E-01 a       715     0    36     1    15
  1.3623321892974719E-01 a       716     0    36     1    16
  3.4168865037464226E-02 a       717     0    36     1    17
  1.4208730927827204E-01 a       718     0    36     1    18
  9.7156672265331506E-02 a       719     0    36     1    19
 -8.7936027100817035E-02 a       720     0    36     1    20
 -2.3880542161477902E-01 a       721     0    37     1     1
 -3.5752818706254319E-01 a       722     0    37     1     2
  1.2024763535440444E-03 a       723     0    37     1     3
 -1.4797936051800806E-01 a       724     0    37     1     4
  1.2443666578178122E-01 a       725     0    37     1     5
  7.1217232744844383E-01 a       726     0    37     1     6
 -7.7624517239648347E-02 a       727     0    37     1     7
  1.6345548546932864E-01 a       728     0    37     1     8
 -3.2461571051277072E-01 a       729     0    37     1     9
  3.0785658792787857E-02 a       730     0    37     1    10
 -7.5374905642180259E-02 a       731     0    37     1    11
  7.1030926863578189E-02 a       732     0    37     1    12
  1.8294619693599243E-01 a       733     0    37     1    13
  5.3899733667458116E-01 a       734     0    37     1    14
  1.3110569672003888E-01 a       735     0    37     1    15
 -1.5532046269450481E-01 a       736     0    37     1    16
  4.6609135105346283E-02 a       737     0    37     1    17
 -1.8836659325950825E-01 a       738     0    37     1    18
 -3.1219809192623871E-01 a       739     0    37     1    19
  2.7471080096204653E-01 a       740     0    37     1    20
  5.0480908989361764E-02 a       741     0    38     1     1
 -4.9423958813647001E-02 a       742     0    38     1     2
  1.3797071487065252E-01 a       743     0    38     1     3
  1.8321895806655705E-02 a       744     0    38     1     4
  2.1632480894723485E-02 a       745     0    38     1     5
  2.3585610295094134E-01 a       746     0    38     1     6
  9.7743109754252669E-02 a       747     0    38     1     7
  6.7304381425501939E-03 a       748     0    38     1     8
 -1.6086845190178597E-01 a       749     0    38     1     9
 -3.2198478372484032E-02 a       750     0    38     1    10
 -2.9392988473958265E-01 a       751     0    38     1    11
 -6.8325199497883737E-02 a       752     0    38     1    12
 -2.3553782380785671E-01 a       753     0    38     1    13
 -1.5682735595448261E-01 a       754     0    38     1    14
 -1.0800552196602980E-01 a       755     0    38     1    15
  1.3887574083672624E-01 a       756     0    38     1    16
  2.1282763234620325E-01 a       757     0    38     1    17
 -1.3146291479126826E-01 a       758     0    38     1    18
  8.7503187395480853E-02 a       759     0    38     1    19
  8.5823700634971203E-02 a       760     0    38     1    20
  9.7151825951228551E-02 a       761     0    39     1     1
  2.7537000892192554E-01 a       762     0    39     1     2
  6.1814118836369961E-02 a       763     0    39     1     3
 -1.2666371886525191E-01 a       764     0    39     1     4
  6.4975837993571289E-02 a       765     0    39     1     5
 -2.1861842908612245E-01 a       766     0    39     1     6
  2.4534162187525618E-01 a       767     0    39     1     7
 -2.9493812241400477E-02 a       768     0    39     1     8
  2.2987624084846831E-01 a       769     0    39     1     9
 -1.8782591328185194E-01 a       770     0    39     1    10
 -8.3099404082771888E-02 a       771     0    39     1    11
  3.3858315867459093E-01 a       772     0    39     1    12
 -1.6686802038280049E-01 a       773     0    39     1    13
 -4.0751195497268117E-01 a       774     0    39     1    14
 -1.2044307108834210E-01 a       775     0    39     1    15
  7.9729383389163619E-02 a       776     0    39     1    16
 -5.0911358406998719E-01 a       777     0    39     1    17
 -4.4804049770167678E-02 a       778     0    39     1    18
  2.3936663393530091E-02 a       779     0    39     1    19
  8.1768104165997765E-02 a       780     0    39     1    20
 -3.5055013609393176E-01 a       781     0    40     1     1
  3.8497038848525095E-01 a       782     0    40     1     2
 -1.0115677863448624E-01 a       783     0    40     1     3
 -1.1784214675807503E-01 a       784     0    40     1     4
 -1.2751786147378200E-01 a       785     0    40     1     5
  3.7580708800394130E-01 a       786     0    40     1     6
  1.9126314192446114E-01 a       787     0    40     1     7
 -3.6061006930018036E-01 a       788     0    40     1     8
  3.8703795462927842E-01 a       789     0    40     1     9
  3.3928899635641246E-01 a       790     0    40     1    10
 -4.2063397914312078E-01 a       791     0    40     1    11
 -1.2519007058422793E-01 a       792     0    40     1    12
  1.0384422503791841E-02 a       793     0    40     1    13
  7.2726640693958999E-01 a       794     0    40     1    14
 -8.4282174675557972E-02 a       795     0    40     1    15
  6.2133527296343950E-02 a       796     0    40     1    16
  5.5777832601091301E-02 a       797     0    40     1    17
  1.2724474687266304E-01 a       798     0    40     1    18
  2.9223158500429031E-01 a       799     0    40     1    19
 -7.4727025224327101E-02 a       800     0    40     1    20
  1.6427483923739408E-01 a       801     0    41     1     1
  2.7782216169044610E-01 a       802     0    41     1     2
  8.2214860108965560E-02 a       803     0    41     1     3
 -1.3093587516289412E-01 a       804     0    41     1     4
 -2.7497619260893380E-01 a       805     0    41     1     5
  1.1521385254972812E-01 a       806     0    41     1     6
  1.0234630153502745E-01 a       807     0    41     1     7
  1.9670367374215292E-02 a       808     0    41     1     8
  8.4236459662105898E-02 a       809     0    41     1     9
 -3.8472531557412037E-02 a       810     0    41     1    10
 -5.8612903059269535E-02 a       811     0    41     1    11
  6.1164847355656797E-02 a       812     0    41     1    12
 -3.3695871796252441E-01 a       813     0    41     1    13
  9.5533937003907440E-03 a       814     0    41     1    14
 -1.7806325349536803E-01 a       815     0    41     1    15
 -1.5725349836034097E-01 a       816     0    41     1    16
 -1.2456366923985335E-01 a       817     0    41     1    17
  1.7403853457362620E-01 a       818     0    41     1    18
 -1.5780040376531013E-01 a       819     0    41     1    19
 -1.3482025000784539E-01 a       820     0    41     1    20
 -2.3275443146948185E-01 a       821     0    42     1     1
 -1.2800750995676630E-01 a       822     0    42     1     2
 -1.7637676839678679E-01 a       823     0    42     1     3
  3.5920368387103724E-01 a       824     0    42     1     4
  1.6650896577793370E-01 a       825     0    42     1     5
  4.1202061556015031E-02 a       826     0    42     1     6
  7.4566171014543436E-02 a       827     0    42     1     7
  8.8670113581192561E-02 a       828     0    42     1     8
 -3.4127137026945559E-01 a       829     0    42     1     9
 -2.1724424462289832E-01 a       830     0    42     1    10
  2.0629772843937197E-01 a       831     0    42     1    11
 -6.3095963304659372E-02 a       832     0    42     1    12
  3.6780735476639126E-01 a       833     0    42     1    13
 -4.1727154034007022E-02 a       834     0    42     1    14
  7.0125692448468030E-02 a       835     0    42     1    15
  2.0809294332154499E-01 a       836     0    42     1    16
  8.4362524695071661E-02 a       837     0    42     1    17
 -6.3354794404651957E-02 a       838     0    42     1    18
  5.2786271790248274E-01 a       839     0    42     1    19
  1.6748622699324744E-01 a       840     0    42     1    20
  2.9878204913878426E-01 a       841     0    43     1     1
 -1.9055360146375619E-01 a       842     0    43     1     2
 -3.2721952788672931E-02 a       843     0    43     1     3
 -7.0176015326309543E-02 a       844     0    43     1     4
  4.0631527060806139E-01 a       845     0    43     1     5
 -1.8900847020635522E-01 a       846     0    43     1     6
  8.2447096840391282E-02 a       847     0    43     1     7
  1.2987475724223201E-02 a       848     0    43     1     8
  1.2922831546186092E-01 a       849     0    43     1     9
  1.1300671635367303E-01 a       850     0    43     1    10
 -2.6885409838302321E-01 a       851     0    43     1    11
  2.0295154399612142E-01 a       852     0    43     1    12
 -5.1359363979982042E-01 a       853     0    43     1    13
  4.2035318601490990E-01 a       854     0    43     1    14
 -9.8437166764834577E-02 a       855     0    43     1    15
 -1.5336730799916826E-01 a       856     0    43     1    16
  4.3465782335925773E-01 a       857     0    43     1    17
  1.5288583028353547E-01 a       858     0    43     1    18
 -9.4902164438432732E-02 a       859     0    43     1    19
  8.5417792120218272E-02 a       860     0    43     1    20
  2.4280871735399387E-01 a       861     0    44     1     1
  1.4545791683207437E-02 a       862     0    44     1     2
  6.7515346613895341E-02 a       863     0    44     1     3
 -2.9262086784885810E-01 a       864     0    44     1     4
  1.9046605219577961E-01 a       865     0    44     1     5
 -2.0698379547881363E-01 a       866     0    44     1     6
 -1.7067236960007554E-01 a       867     0    44     1     7
 -7.1782359023954828E-02 a       868     0    44     1     8
  1.0085849973477920E-01 a       869     0    44     1     9
  4.9741298580488563E-02 a       870     0    44     1    10
 -2.4756288219277639E-01 a       871     0    44     1    11
  1.0391654699312977E-01 a       872     0    44     1    12
 -2.1590426626125625E-01 a       873     0    44     1    13
  9.4534993214142021E-02 a       874     0    44     1    14
 -1.3499110437292577E-02 a       875     0    44     1    15
 -1.7864762860709721E-01 a       876     0    44     1    16
 -4.1678293276837669E-02 a       877     0    44     1    17
  6.6970784728423105E-02 a       878     0    44     1    18
 -2.7553385542899833E-01 a       879     0    44     1    19
  7.6176248827314699E-04 a       880     0    44     1    20
 -3.2381796760467346E-01 a       881     0    45     1     1
  2.1381803564731103E-01 a       882     0    45     1     2
  4.5417754248361260E-02 a       883     0    45     1     3
  8.3678264538735281E-02 a       884     0    45     1     4
 -3.9486692012329558E-02 a       885     0    45     1     5
  9.5339147634517923E-02 a       886     0    45     1     6
  1.3013652190076333E-01 a       887     0    45     1     7
 -2.0735171066030458E-01 a       888     0    45     1     8
 -1.2225759383186660E-01 a       889     0    45     1     9
  1.2782632796721202E-01 a       890     0    45     1    10
  1.3436837068467028E-01 a       891     0    45     1    11
 -7.3510978633716917E-02 a       892     0    45     1    12
  1.1917923488695405E-01 a       893     0    45     1    13
 -2.9453531296031521E-01 a       894     0    45     1    14
  2.8409363636072577E-02 a       895     0    45     1    15
  2.0276893882092917E-01 a       896     0    45     1    16
  2.3682157684541141E-01 a       897     0    45     1    17
  1.0578797290801652E-01 a       898     0    45     1    18
  1.2680586078988804E-01 a       899     0    45     1    19
 -7.2378523105700254E-02 a       900     0    45     1    20
  2.3362121459581059E-01 a       901     0    46     1     1
  1.0734964041040616E-01 a       902     0    46     1     2
  1.0527744208328019E-01 a       903     0    46     1     3
  6.5463996982454975E-02 a       904     0    46     1     4
 -3.6476920202640850E-01 a       905     0    46     1     5
 -7.5556428384187121E-02 a       906     0    46     1     6
  2.1977980202053982E-01 a       907     0    46     1     7
  1.2736333130651067E-01 a       908     0    46     1     8
 -4.3990483051833429E-01 a       909     0    46     1     9
 -2.5233692678659142E-01 a       910     0    46     1    10
 -9.4568221943172687E-02 a       911     0    46     1    11
 -3.0092585538059752E-01 a       912     0    46     1    12
  1.5136920165168016E-02 a       913     0    46     1    13
  1.6276954196538621E-01 a       914     0    46     1    14
 -3.1923338595234602E-01 a       915     0    46     1    15
  6.1270059537023185E-02 a       916     0    46     1    16
 -1.0463409452939346E-01 a       917     0    46     1    17
 -4.3144401461592138E-02 a       918     0    46     1    18
 -7.6327119223290302E-02 a       919     0    46     1    19
 -3.0585984128643291E-02 a       920     0    46     1    20
  2.5443891593583429E-02 a       921     0    47     1     1
  2.0735368827073195E-01 a       922     0    47     1     2
 -4.3608685343382214E-01 a       923     0    47     1     3
 -1.4794224327385622E-01 a       924     0    47     1     4
  3.9917922265329403E-01 a       925     0    47     1     5
  6.3035700822215746E-01 a       926     0    47     1     6
 -3.7236024379933436E-01 a       927     0    47     1     7
 -2.8349870493498491E-01 a       928     0    47     1     8
  2.1724653075728767E-01 a       929     0    47     1     9
  2.6878952960991714E-01 a       930     0    47     1    10
 -1.9399736885827140E-01 a       931     0    47     1    11
 -2.3508577736742645E-01 a       932     0    47     1    12
 -4.2924981943618296E-01 a       933     0    47     1    13
 -2.6113808797797256E-01 a       934     0    47     1    14
 -2.8955277044609018E-01 a       935     0    47     1    15
 -1.9346638780253675E-01 a       936     0    47     1    16
  2.1270219788823552E-01 a       937     0    47     1    17
  5.4309364197492671E-01 a       938     0    47     1    18
 -1.5179006842245285E-01 a       939     0    47     1    19
  1.0673546694744407E-03 a       940     0    47     1    20
 -1.0023356669776952E-01 a       941     0    48     1     1
  1.7594178386392481E-01 a       942     0    48     1     2
 -7.9444046829848056E-02 a       943     0    48     1     3
  3.6682982788002735E-02 a       944     0    48     1     4
 -6.3133392775917008E-03 a       945     0    48     1     5
 -1.6060731608633294E-01 a       946     0    48     1     6
 -1.8272786455769968E-01 a       947     0    48     1     7
  8.1744617086562887E-02 a       948     0    48     1     8
 -3.0967978260074097E-03 a       949     0    48     1     9
  3.7830302554382662E-03 a       950     0    48     1    10
 -1.5852644433829255E-01 a       951     0    48     1    11
  5.2066399236801522E-02 a       952     0    48     1    12
  8.8530846581862610E-02 a       953     0    48     1    13
 -2.2610638867571722E-02 a       954     0    48     1    14
 -1.7434561459513748E-02 a       955     0    48     1    15
 -3.6838403999444366E-02 a       956     0    48     1    16
 -1.4325962382939542E-01 a       957     0    48     1    17
 -8.4707113047476967E-02 a       958     0    48     1    18
  4.9349750706593587E-02 a       959     0    48     1    19
  4.2036457712066398E-02 a       960     0    48     1    20
  1.2760580643818234E-01 a       961     0    49     1     1
 -3.0581570091265475E-01 a       962     0    49     1     2
  1.5132423641835219E-01 a       963     0    49     1     3
  1.2172694834886260E-02 a       964     0    49     1     4
 -2.0131201843103480E-01 a       965     0    49     1     5
 -2.8722203427653326E-01 a       966     0    49     1     6
 -9.2035080369516714E-02 a       967     0    49     1     7
  2.5699918425513755E-02 a       968     0    49     1     8
 -2.4809940312834947E-01 a       969     0    49     1     9
  3.0758944408335964E-01 a       970     0    49     1    10
  5.8857932300729540E-02 a       971     0    49     1    11
 -5.9953516551037200E-02 a       972     0    49     1    12
  1.6697022544105711E-01 a       973     0    49     1    13
  1.9870697086102157E-01 a       974     0    49     1    14
 -4.6294690395701228E-02 a       975     0    49     1    15
 -1.1634882495718374E-01 a       976     0    49     1    16
  1.5505149733798465E-01 a       977     0    49     1    17
  3.8294335604436722E-02 a       978     0    49     1    18
 -1.3682370377415143E-01 a       979     0    49     1    19
 -1.9400582876097380E-01 a       980     0    49     1    20
 -3.5075384470439802E-01 a       981     0    50     1     1
 -2.9986380794510253E-01 a       982     0    50     1     2
  6.0578126188817298E-02 a       983     0    50     1     3
  4.3214339768426535E-01 a       984     0    50     1     4
  1.3836291871061604E-01 a       985     0    50     1     5
  5.5440934890468321E-02 a       986     0    50     1     6
 -2.8437444903764712E-02 a       987     0    50     1     7
  3.7880087858484862E-01 a       988     0    50     1     8
  2.9512465962291051E-01 a       989     0    50     1     9
 -4.0448276130229904E-01 a       990     0    50     1    10
 -1.1766952559071751E-01 a       991     0    50     1    11
  1.3957555929491056E-01 a       992     0    50     1    12
  2.4203003382866439E-01 a       993     0    50     1    13
 -6.2866154396102630E-02 a       994     0    50     1    14
 -3.0747740875468227E-01 a       995     0    50     1    15
 -1.2706163845736920E-01 a       996     0    50     1    16
 -4.2877321953994928E-02 a       997     0    50     1    17
 -7.7409295888612784E-02 a       998     0    50     1    18
 -3.4922387586888132E-01 a       999     0    50     1    19
 -1.1234633269541122E-01 a      1000     0    50     1    20
 -3.0022910612208176E-01 b      1001     1     1
 -5.3213964854521123E-01 b      1002     1     2
 -5.6094755535315510E-01 b      1003     1     3
 -1.5834950824449770E-01 b      1004     1     4
  8.3320366333675266E-01 b      1005     1     5
  1.1368444668649667E+00 b      1006     1     6
 -7.3170433186449657E-01 b      1007     1     7
  1.2881357272575222E-01 b      1008     1     8
  1.1086963325369599E+00 b      1009     1     9
 -2.7445897966670862E-01 b      1010     1    10
 -1.0325580511766972E+00 b      1011     1    11
  1.0207426357839358E+00 b      1012     1    12
  7.7077941434564934E-01 b      1013     1    13
 -1.0149207186861999E+00 b      1014     1    14
  9.7636423482235812E-01 b      1015     1    15
  7.5859544668945533E-01 b      1016     1    16
  4.4798647715274809E-01 b      1017     1    17
 -3.0698045709552629E-01 b      1018     1    18
  5.7364194839078519E-01 b      1019     1    19
  3.6081739898300796E-01 b      1020     1    20
 -7.4214211804644187E-04 a      1021     1     1     2     1
  1.6952823614334464E-01 a      1022     1     1     2     2
  3.2136909449329287E-02 a      1023     1     1     2     3
  5.0696679634342379E-01 a      1024     1     1     2     4
 -9.7542075209996731E-03 a      1025     1     1     2     5
 -9.7484483797699584E-02 a      1026     1     1     2     6
 -5.0359407743208084E-01 a      1027     1     1     2     7
 -3.1301759500553722E-02 a      1028     1     1     2     8
  2.0218041679906795E-01 a      1029     1     1     2     9
  6.3457220803788780E-02 a      1030     1     1     2    10
 -3.1047953280938900E-01 a      1031     1     1     2    11
  5.1336540483780013E-01 a      1032     1     1     2    12
  2.0395671070111870E-01 a      1033     1     1     2    13
 -2.9317625217662391E-01 a      1034     1     1     2    14
  4.2311541617595444E-01 a      1035     1     1     2    15
 -5.8085230955521905E-01 a      1036     1     1     2    16
  1.5956927501574852E-01 a      1037     1     1     2    17
  3.4712650414752810E-01 a      1038     1     1     2    18
  6.3430660482143553E-01 a      1039     1     1     2    19
 -4.4059648088641434E-01 a      1040     1     1     2    20
  3.6457387917632322E-01 a      1041     1     2     2     1
 -2.5795413825787245E-01 a      1042     1     2     2     2
  9.6986605289094752E-02 a      1043     1     2     2     3
  5.6677850588330081E-01 a      1044     1     2     2     4
  3.1032934574542603E-01 a      1045     1     2     2     5
 -3.2534544306547047E-01 a      1046     1     2     2     6
  6.3617509714798903E-01 a      1047     1     2     2     7
 -3.0468473884065983E-01 a      1048     1     2     2     8
 -3.6842449408718264E-01 a      1049     1     2     2     9
 -5.0761858690683392E-01 a      1050     1     2     2    10
 -3.8233357902137066E-01 a      1051     1     2     2    11
 -5.0565228480974200E-01 a      1052     1     2     2    12
 -4.4408420968499390E-01 a      1053     1     2     2    13
  3.1347084750898585E-01 a      1054     1     2     2    14
 -3.2285079038666747E-01 a      1055     1     2     2    15
 -1.9531185044459490E-01 a      1056     1     2     2    16
 -4.2651206846415030E-01 a      1057     1     2     2    17
  7.2052232384459167E-02 a      1058     1     2     2    18
 -5.1351777730786652E-01 a      1059     1     2     2    19
  1.1411663221830870E-01 a      1060     1     2     2    20
  4.3316237386817347E-01 a      1061     1     3     2     1
 -5.7626208962272642E-02 a      1062     1     3     2     2
 -3.2506578378349399E-01 a      1063     1     3     2     3
 -2.9630858192120374E-01 a      1064     1     3     2     4
 -2.2180169234296579E-01 a      1065     1     3     2     5
 -3.8816257276302463E-01 a      1066     1     3     2     6
  2.1025915194257793E-03 a      1067     1     3     2     7
  3.4137798539315853E-02 a      1068     1     3     2     8
 -9.1769360619662246E-02 a      1069     1     3     2     9
  1.2802763446288276E-01 a      1070     1     3     2    10
  2.8700623753740034E-01 a      1071     1     3     2    11
 -3.8557385180649034E-01 a      1072     1     3     2    12
 -5.8872024587628535E-01 a      1073     1     3     2    13
  9.6687917949711016E-02 a      1074     1     3     2    14
  4.4831689392784152E-01 a      1075     1     3     2    15
 -6.1828309658386628E-02 a      1076     1     3     2    16
  4.9286030840960254E-01 a      1077     1     3     2    17
 -3.7850318460529864E-01 a      1078     1     3     2    18
  1.3545429310382151E-01 a      1079     1     3     2    19
  3.9760759206988572E-01 a      1080     1     3     2    20
  1.7103626684664788E-01 a      1081     1     4     2     1
 -5.9205357835909078E-01 a      1082     1     4     2     2
 -2.1457500696764112E-01 a      1083     1     4     2     3
  9.4712333644423358E-02 a      1084     1     4     2     4
  6.7545547128119457E-02 a      1085     1     4     2     5
  4.1569687493179580E-01 a      1086     1     4     2     6
  2.3554206399957189E-01 a      1087     1     4     2     7
  1.5003024784096847E-02 a      1088     1     4     2     8
 -4.7805860590103044E-01 a      1089     1     4     2     9
  5.6893485386664252E-03 a      1090     1     4     2    10
 -5.1358080558130792E-01 a      1091     1     4     2    11
  3.9189036682527378E-01 a      1092     1     4     2    12
  8.5789041257072618E-01 a      1093     1     4     2    13
  6.9005812211486384E-01 a      1094     1     4     2    14
 -5.6132153976391275E-01 a      1095     1     4     2    15
  3.5050760845212198E-01 a      1096     1     4     2    16
  6.0973964856558716E-01 a      1097     1     4     2    17
 -2.9204442973627620E-01 a      1098     1     4     2    18
  8.3503548851766551E-01 a      1099     1     4     2    19
  5.7937781260784005E-01 a      1100     1     4     2    20
 -5.6504116406709208E-02 a      1101     1     5     2     1
  4.9036893147098692E-01 a      1102     1     5     2     2
  2.3862104050542585E-01 a      1103     1     5     2     3
  6.1593142419865521E-01 a      1104     1     5     2     4
  1.0186688129751628E-01 a      1105     1     5     2     5
  4.3037261334306426E-01 a      1106     1     5     2     6
 -2.6138405801503006E-01 a      1107     1     5     2     7
  3.5505484783145946E-01 a      1108     1     5     2     8
 -1.6567863441456795E-01 a      1109     1     5     2     9
 -2.3773810815582080E-02 a      1110     1     5     2    10
  5.3814487314253612E-01 a      1111     1     5     2    11
 -1.7247420765561022E-01 a      1112     1     5     2    12
 -2.5385714011004057E-01 a      1113     1     5     2    13
  6.2288439786431959E-01 a      1114     1     5     2    14
  3.5345689079931275E-01 a      1115     1     5     2    15
 -6.9522282729351834E-02 a      1116     1     5     2    16
  2.0450348610010730E-01 a      1117     1     5     2    17
 -3.9582333925782986E-01 a      1118     1     5     2    18
 -1.0126197634642811E-01 a      1119     1     5     2    19
  3.4236267288947264E-01 a      1120     1     5     2    20
 -4.1847523906007672E-01 a      1121     1     6     2     1
 -2.9754912304733977E-01 a      1122     1     6     2     2
 -8.6037914393208548E-01 a      1123     1     6     2     3
 -1.0907942082937440E-01 a      1124     1     6     2     4
 -1.7742406446701359E-01 a      1125     1     6     2     5
  3.8111490338315152E-02 a      1126     1     6     2     6
 -2.5908274046538760E-01 a      1127     1     6     2     7
  2.2493774997008963E-02 a      1128     1     6     2     8
  2.6220538996349413E-01 a      1129     1     6     2     9
 -4.2317887246348995E-01 a      1130     1     6     2    10
 -6.0284681072426638E-01 a      1131     1     6     2    11
 -5.0756731700775815E-01 a      1132     1     6     2    12
 -3.4750588378616293E-01 a      1133     1     6     2    13
 -6.5714284101688092E-01 a      1134     1     6     2    14
 -3.5690377835046605E-01 a      1135     1     6     2    15
 -1.7452149671537118E-01 a      1136     1     6     2    16
  3.7843461233300035E-01 a      1137     1     6     2    17
 -2.4244116682703856E-01 a      1138     1     6     2    18
  6.7446543586167040E-01 a      1139     1     6     2    19
  5.5821643939037913E-01 a      1140     1     6     2    20
 -6.7668491356767857E-01 a      1141     1     7     2     1
 -4.1861832685822511E-02 a      1142     1     7     2     2
  2.8506354395922945E-01 a      1143     1     7     2     3
  3.1514021389410746E-01 a      1144     1     7     2     4
 -4.0316192382466642E-01 a      1145     1     7     2     5
 -3.3904586119985897E-01 a      1146     1     7     2     6
 -8.4052467246890458E-02 a      1147     1     7     2     7
 -2.4711426613019064E-01 a      1148     1     7     2     8
  2.3815130455173689E-01 a      1149     1     7     2     9
  4.1328500265011825E-01 a      1150     1     7     2    10
  2.9396110709071926E-01 a      1151     1     7     2    11
  4.6377608500754414E-01 a      1152     1     7     2    12
 -4.3777165714178118E-01 a      1153     1     7     2    13
  7.8775779431913306E-01 a      1154     1     7     2    14
 -6.5549929660559447E-01 a      1155     1     7     2    15
 -6.4491731867596414E-01 a      1156     1     7     2    16
  3.3922776901162455E-01 a      1157     1     7     2    17
 -3.0748895191722601E-02 a      1158     1     7     2    18
 -1.1642190332974543E-01 a      1159     1     7     2    19
  4.1170120191312876E-01 a      1160     1     7     2    20
 -4.6569884040210591E-01 a      1161     1     8     2     1
  1.1107923863457786E-01 a      1162     1     8     2     2
  8.1254270972356449E-02 a      1163     1     8     2     3
  5.0264889512513600E-01 a      1164     1     8     2     4
 -2.8934071086247748E-01 a      1165     1     8     2     5
  2.9266180792419688E-01 a      1166     1     8     2     6
 -4.3892500685598590E-01 a      1167     1     8     2     7
  2.4668216599990686E-01 a      1168     1     8     2     8
 -2.6536631103801656E-01 a      1169     1     8     2     9
  3.9553964208872899E-01 a      1170     1     8     2    10
  7.1228489991295152E-01 a      1171     1     8     2    11
  1.5907979996147341E-02 a      1172     1     8     2    12
 -3.7380620459646907E-01 a      1173     1     8     2    13
  4.4003267161966381E-01 a      1174     1     8     2    14
 -4.7183818940128081E-01 a      1175     1     8     2    15
 -3.1528044918222520E-01 a      1176     1     8     2    16
 -4.8874765369705592E-01 a      1177     1     8     2    17
 -5.4490645311230324E-01 a      1178     1     8     2    18
 -6.7090533649849271E-01 a      1179     1     8     2    19
  3.0962563289002926E-01 a      1180     1     8     2    20
  2.8450859284075997E-01 a      1181     1     9     2     1
  2.8509485766834752E-01 a      1182     1     9     2     2
  3.2809613952011832E-02 a      1183     1     9     2     3
 -4.9763822102622024E-01 a      1184     1     9     2     4
  6.7683026653644063E-01 a      1185     1     9     2     5
  4.2713112811393485E-02 a      1186     1     9     2     6
  1.5084559420463786E-01 a      1187     1     9     2     7
 -3.3890419995015830E-01 a      1188     1     9     2     8
  1.2105135290102499E-01 a      1189     1     9     2     9
 -3.1896443377926975E-01 a      1190     1     9     2    10
 -2.3442411736569832E-01 a      1191     1     9     2    11
 -2.8580415510434437E-01 a      1192     1     9     2    12
 -9.0153082202207691E-02 a      1193     1     9     2    13
  2.5275008395312865E-01 a      1194     1     9     2    14
 -2.5026182878110309E-01 a      1195     1     9     2    15
  3.9355255362828362E-01 a      1196     1     9     2    16
  1.0180312259068773E-01 a      1197     1     9     2    17
 -3.9127161594960540E-02 a      1198     1     9     2    18
  1.3905881453550140E-01 a      1199     1     9     2    19
 -3.4464047960388283E-01 a      1200     1     9     2    20
 -6.6779669127201224E-01 a      1201     1    10     2     1
 -7.4226031420703520E-01 a      1202     1    10     2     2
 -3.2218370185283346E-01 a      1203     1    10     2     3
  4.4433029018053444E-01 a      1204     1    10     2     4
  1.4098762578444890E-01 a      1205     1    10     2     5
 -2.3054959436834260E-01 a      1206     1    10     2     6
  2.5269151499817805E-01 a      1207     1    10     2     7
 -6.1867935939731478E-01 a      1208     1    10     2     8
 -4.2397277382753285E-01 a      1209     1    10     2     9
  3.3298169356971080E-01 a      1210     1    10     2    10
 -4.0072290892198570E-01 a      1211     1    10     2    11
 -2.4930099067488490E-01 a      1212     1    10     2    12
 -2.5263092240004975E-01 a      1213     1    10     2    13
  4.9517290345744897E-01 a      1214     1    10     2    14
  4.9504691653290583E-01 a      1215     1    10     2    15
 -2.7612197623273271E-01 a      1216     1    10     2    16
  3.7650863791387401E-01 a      1217     1    10     2    17
  9.0926671558576866E-02 a      1218     1    10     2    18
  1.6076379328833934E-01 a      1219     1    10     2    19
 -9.1281375814277116E-02 a      1220     1    10     2    20
 -6.5645250269361533E-01 a      1221     1    11     2     1
 -7.3117693811639101E-02 a      1222     1    11     2     2
  1.7363824198970723E-01 a      1223     1    11     2     3
  3.9549865028553904E-01 a      1224     1    11     2     4
  3.5842192944758305E-01 a      1225     1    11     2     5
  3.4657568929602806E-01 a      1226     1    11     2     6
 -1.4538420997006987E-01 a      1227     1    11     2     7
 -6.3323267666258176E-02 a      1228     1    11     2     8
 -4.3289183199867304E-01 a      1229     1    11     2     9
  4.5854653470536771E-01 a      1230     1    11     2    10
 -2.4664879982628785E-01 a      1231     1    11     2    11
 -2.6804638907372119E-01 a      1232     1    11     2    12
  2.3995629001511240E-01 a      1233     1    11     2    13
 -3.2127640006239577E-01 a      1234     1    11     2    14
  1.3440989343138318E-01 a      1235     1    11     2    15
 -3.6267202785674590E-01 a      1236     1    11     2    16
  8.6723648666472402E-03 a      1237     1    11     2    17
  5.3868525872297057E-01 a      1238     1    11     2    18
 -1.0553855728267442E-01 a      1239     1    11     2    19
  1.7119137656035829E-01 a      1240     1    11     2    20
  2.6488309572776547E-01 a      1241     1    12     2     1
 -5.5974282144205179E-01 a      1242     1    12     2     2
  6.1237127210114550E-01 a      1243     1    12     2     3
  1.5035398254173382E-01 a      1244     1    12     2     4
 -7.2875367116888690E-01 a      1245     1    12     2     5
 -5.1828777061670361E-01 a      1246     1    12     2     6
  1.2488560199253215E-01 a      1247     1    12     2     7
  1.2100212755594194E-02 a      1248     1    12     2     8
  8.6145502481623268E-02 a      1249     1    12     2     9
  2.5980949175672979E-01 a      1250     1    12     2    10
  9.5790086624943413E-02 a      1251     1    12     2    11
 -1.6245190847598837E-01 a      1252     1    12     2    12
 -3.3977979325629674E-02 a      1253     1    12     2    13
 -2.5755337492617991E-01 a      1254     1    12     2    14
  7.1733117883783482E-01 a      1255     1    12     2    15
  2.2885768712816223E-01 a      1256     1    12     2    16
 -5.4194811885681560E-01 a      1257     1    12     2    17
  2.2571238611068736E-01 a      1258     1    12     2    18
 -2.4577589480390741E-01 a      1259     1    12     2    19
 -4.5474452201257809E-01 a      1260     1    12     2    20
 -5.2835774840765481E-01 a      1261     1    13     2     1
 -3.4061687506839922E-01 a      1262     1    13     2     2
  2.5805957124848622E-01 a      1263     1    13     2     3
  5.1324528031475058E-01 a      1264     1    13     2     4
  7.8972066238915423E-02 a      1265     1    13     2     5
 -2.5608585022025460E-01 a      1266     1    13     2     6
  2.3032210144888315E-01 a      1267     1    13     2     7
  4.8388051175422903E-01 a      1268     1    13     2     8
 -8.4701906595548559E-03 a      1269     1    13     2     9
 -3.9490889163950232E-01 a      1270     1    13     2    10
 -8.7510395501778943E-02 a      1271     1    13     2    11
  6.3200123083773235E-02 a      1272     1    13     2    12
 -2.8718686744667143E-01 a      1273     1    13     2    13
  1.7756622058117957E-01 a      1274     1    13     2    14
 -1.7128638572808363E-01 a      1275     1    13     2    15
 -3.8130441928430531E-01 a      1276     1    13     2    16
  1.8849986643368466E-01 a      1277     1    13     2    17
 -1.7948883231499813E-01 a      1278     1    13     2    18
 -1.4701063765928890E-01 a      1279     1    13     2    19
 -2.7807974896870113E-01 a      1280     1    13     2    20
  7.8712840700238297E-03 a      1281     1    14     2     1
 -5.0208069228703001E-01 a      1282     1    14     2     2
 -9.3350773720403213E-01 a      1283     1    14     2     3
 -3.7384908286503066E-01 a      1284     1    14     2     4
 -2.5024678157420582E-01 a      1285     1    14     2     5
  6.3912085847890127E-02 a      1286     1    14     2     6
  1.7500969184826906E-01 a      1287     1    14     2     7
  8.5730063253598249E-02 a      1288     1    14     2     8
 -3.4464898959609719E-01 a      1289     1    14     2     9
  5.6240337270340368E-01 a      1290     1    14     2    10
 -2.4994628445980543E-01 a      1291     1    14     2    11
 -3.7755105472439748E-01 a      1292     1    14     2    12
 -2.4493598589784890E-01 a      1293     1    14     2    13
 -2.7007518759325927E-01 a      1294     1    14     2    14
 -4.8159617468247296E-01 a      1295     1    14     2    15
  3.6078347146925255E-01 a      1296     1    14     2    16
 -5.8155421525633999E-01 a      1297     1    14     2    17
  4.0688524424772582E-01 a      1298     1    14     2    18
  1.0352007484580440E-01 a      1299     1    14     2    19
  5.4406874340350120E-01 a      1300     1    14     2    20
 -2.2190639907870399E-01 a      1301     1    15     2     1
  1.1351066215725757E-01 a      1302     1    15     2     2
 -2.3336735809738449E-01 a      1303     1    15     2     3
  4.6317242040153356E-01 a      1304     1    15     2     4
 -3.7701907287841130E-01 a      1305     1    15     2     5
 -4.2159323788965697E-01 a      1306     1    15     2     6
  4.8178953972577782E-01 a      1307     1    15     2     7
 -1.1509755227938517E-01 a      1308     1    15     2     8
 -3.2036259379618359E-01 a      1309     1    15     2     9
 -2.2860859810667922E-01 a      1310     1    15     2    10
 -2.2714612193455280E-01 a      1311     1    15     2    11
 -2.8545430161061969E-01 a      1312     1    15     2    12
 -6.6964156666066621E-01 a      1313     1    15     2    13
  5.1237288740889753E-01 a      1314     1    15     2    14
  5.4837927454256774E-01 a      1315     1    15     2    15
 -2.9966561040187530E-02 a      1316     1    15     2    16
 -2.9106548007716337E-01 a      1317     1    15     2    17
 -6.1421604917490402E-01 a      1318     1    15     2    18
 -3.0294012651021296E-01 a      1319     1    15     2    19
  4.3396715685685766E-01 a      1320     1    15     2    20
  2.9480042644523885E-01 a      1321     1    16     2     1
 -4.6049924177564577E-01 a      1322     1    16     2     2
  1.3789287832451022E-01 a      1323     1    16     2     3
  2.4230158882316674E-01 a      1324     1    16     2     4
 -4.5714515927672844E-01 a      1325     1    16     2     5
  4.5863883672972267E-01 a      1326     1    16     2     6
 -7.9727739720906035E-02 a      1327     1    16     2     7
 -4.0575250129265972E-01 a      1328     1    16     2     8
 -6.2297017377782427E-01 a      1329     1    16     2     9
 -5.7571094378023391E-01 a      1330     1    16     2    10
 -3.4286592689339501E-01 a      1331     1    16     2    11
 -4.0277450092910416E-01 a      1332     1    16     2    12
 -9.1140510499074762E-02 a      1333     1    16     2    13
  2.9514062466152530E-01 a      1334     1    16     2    14
 -6.8984051757673470E-01 a      1335     1    16     2    15
  1.1137610879299539E-01 a      1336     1    16     2    16
 -5.5390974813993776E-01 a      1337     1    16     2    17
  2.7846702665948281E-01 a      1338     1    16     2    18
  5.0957979628162398E-01 a      1339     1    16     2    19
 -2.5243712059153428E-01 a      1340     1    16     2    20
  5.0176525156757301E-01 a      1341     1    17     2     1
 -1.4491143753292220E-02 a      1342     1    17     2     2
 -3.9832701970494999E-01 a      1343     1    17     2     3
  7.3457061258791156E-01 a      1344     1    17     2     4
 -4.2562456563266243E-01 a      1345     1    17     2     5
 -6.8832221060729004E-01 a      1346     1    17     2     6
  6.0529123701623222E-01 a      1347     1    17     2     7
 -7.1157987343285956E-01 a      1348     1    17     2     8
 -3.0242478642434373E-01 a      1349     1    17     2     9
  1.6931634527353073E-01 a      1350     1    17     2    10
 -4.2079953453853725E-01 a      1351     1    17     2    11
 -2.2257637477338924E-01 a      1352     1    17     2    12
  4.0196260563243941E-01 a      1353     1    17     2    13
  1.3019788967568977E-01 a      1354     1    17     2    14
 -1.2740470211296484E-01 a      1355     1    17     2    15
 -5.8410277346819373E-01 a      1356     1    17     2    16
 -4.4701871070441745E-01 a      1357     1    17     2    17
 -6.2656437963688771E-01 a      1358     1    17     2    18
 -3.4612359876771082E-01 a      1359     1    17     2    19
 -3.5670997566778267E-01 a      1360     1    17     2    20
  2.5070570501405887E-01 a      1361     1    18     2     1
 -4.3710403161096822E-01 a      1362     1    18     2     2
 -9.5640077412644853E-02 a      1363     1    18     2     3
  4.9895842338842100E-01 a      1364     1    18     2     4
  2.5894597193181801E-01 a      1365     1    18     2     5
 -7.7556568633926598E-02 a      1366     1    18     2     6
  6.1915175530076894E-01 a      1367     1    18     2     7
 -4.5124877294588878E-01 a      1368     1    18     2     8
 -5.4699821764046019E-01 a      1369     1    18     2     9
  1.2790711264612549E-02 a      1370     1    18     2    10
 -9.6951717598473652E-02 a      1371     1    18     2    11
 -5.0391483997334829E-01 a      1372     1    18     2    12
 -9.2314585432808002E-02 a      1373     1    18     2    13
 -4.4425310196913714E-01 a      1374     1    18     2    14
  2.5483295079638663E-01 a      1375     1    18     2    15
 -4.3042628432646968E-01 a      1376     1    18     2    16
  2.1007032114235566E-01 a      1377     1    18     2    17
 -6.0101381703872192E-01 a      1378     1    18     2    18
 -4.4467027678860821E-01 a      1379     1    18     2    19
  3.8086240848332914E-01 a      1380     1    18     2    20
 -7.4422919598005766E-01 a      1381     1    19     2     1
  7.5784756834838130E-01 a      1382     1    19     2     2
 -3.4670491307048995E-01 a      1383     1    19     2     3
 -1.4380265745029844E-01 a      1384     1    19     2     4
 -5.1886261964859536E-02 a      1385     1    19     2     5
 -2.1325898626310855E-01 a      1386     1    19     2     6
 -1.0871941674221818E-01 a      1387     1    19     2     7
 -4.3363147698840854E-01 a      1388     1    19     2     8
  2.1734961480097650E-01 a      1389     1    19     2     9
 -2.8122181431380962E-02 a      1390     1    19     2    10
  1.7504141173100334E-02 a      1391     1    19     2    11
 -3.7990205516078446E-01 a      1392     1    19     2    12
 -4.5549107753714529E-01 a      1393     1    19     2    13
  5.4411407546516377E-01 a      1394     1    19     2    14
 -4.6409460066511804E-01 a      1395     1    19     2    15
  1.8579934540558005E-01 a      1396     1    19     2    16
 -6.5180824701681117E-01 a      1397     1    19     2    17
 -1.7930302820076477E-01 a      1398     1    19     2    18
  1.8543452113654599E-01 a      1399     1    19     2    19
 -6.0139648610245296E-02 a      1400     1    19     2    20
 -3.6519845548071700E-01 a      1401     1    20     2     1
  1.2365522179442001E-01 a      1402     1    20     2     2
  2.4231389268724779E-01 a      1403     1    20     2     3
  3.5849184987177907E-01 a      1404     1    20     2     4
  8.8071376130343743E-02 a      1405     1    20     2     5
 -2.2687544948227009E-01 a      1406     1    20     2     6
  6.8414448712032150E-01 a      1407     1    20     2     7
  3.0997068697671432E-01 a      1408     1    20     2     8
  3.8000020195060608E-01 a      1409     1    20     2     9
  2.2175463821333991E-01 a      1410     1    20     2    10
 -4.4743407052546691E-01 a      1411     1    20     2    11
 -1.0064384688352884E-01 a      1412     1    20     2    12
  8.5255428208130396E-03 a      1413     1    20     2    13
 -1.0355292062028382E-01 a      1414     1    20     2    14
 -3.8147462483914096E-01 a      1415     1    20     2    15
 -2.8732468102455916E-01 a      1416     1    20     2    16
  2.3945140846613996E-01 a      1417     1    20     2    17
 -3.5127476954889231E-01 a      1418     1    20     2    18
  1.7184442269805167E-01 a      1419     1    20     2    19
  4.0956519962546151E-01 a      1420     1    20     2    20
 -3.7484901085606298E-01 b      1421     2     1
  4.6281605955684768E-01 b      1422     2     2
  7.2855730584367595E-01 b      1423     2     3
 -2.9378263847601332E-01 b      1424     2     4
  1.2674733061687147E+00 b      1425     2     5
  2.2026635459626570E-01 b      1426     2     6
  8.8528066822595064E-01 b      1427     2     7
 -4.5195595167621483E-01 b      1428     2     8
 -9.4109860600048578E-01 b      1429     2     9
  9.9211507210160324E-02 b      1430     2    10
  1.0521274152584168E+00 b      1431     2    11
 -9.6020251635174836E-01 b      1432     2    12
  4.1933413449975337E-01 b      1433     2    13
 -9.3777509219863131E-01 b      1434     2    14
 -4.3960429199929686E-02 b      1435     2    15
  1.3990817379774036E+00 b      1436     2    16
  1.6747661491371063E-01 b      1437     2    17
 -7.9611275527923142E-01 b      1438     2    18
 -3.3223963133310735E-01 b      1439     2    19
  1.2033641271049953E+00 b      1440     2    20
  4.4248466772364187E-02 a      1441     2     1     3     1
  1.6046183066083131E-01 a      1442     2     2     3     1
 -9.7608602261392918E-01 a      1443     2     3     3     1
  2.6328972869929614E-02 a      1444     2     4     3     1
 -7.7721690377941577E-01 a      1445     2     5     3     1
  1.2738003467727033E+00 a      1446     2     6     3     1
  3.9883714311490615E-01 a      1447     2     7     3     1
 -5.2708097104560570E-01 a      1448     2     8     3     1
  6.8679959337340080E-01 a      1449     2     9     3     1
  3.2326081837132747E-01 a      1450     2    10     3     1
 -5.3302629530060841E-01 a      1451     2    11     3     1
  4.3393303768860331E-01 a      1452     2    12     3     1
 -3.1672979930122419E-01 a      1453     2    13     3     1
 -1.9736626253272271E-02 a      1454     2    14     3     1
  2.8576882818665297E-02 a      1455     2    15     3     1
 -2.8491686363820845E-01 a      1456     2    16     3     1
  2.3368911815069460E-01 a      1457     2    17     3     1
  1.1810660041500662E+00 a      1458     2    18     3     1
 -7.2965488692948188E-01 a      1459     2    19     3     1
 -2.4957227673294502E-01 a      1460     2    20     3     1
  1.4003827760569765E-01 b      1461     3     1
