################################################################################
# Neural network connection values (weights and biases).
################################################################################
# Col  Name       Description
################################################################################
# 1    connection Neural network connection value.
# 2    t          Connection type (a = weight, b = bias).
# 3    index      Index enumerating weights.
# 4    l_s        Starting point layer (end point layer for biases).
# 5    n_s        Starting point neuron in starting layer (end point neuron for biases).
# 6    l_e        End point layer.
# 7    n_e        End point neuron in end layer.
################################################################################
#                      1 2         3     4     5     6     7
#             connection t     index   l_s   n_s   l_e   n_e
############################################################
  2.0821813659765702E-02 a         1     0     1     1     1
  9.7256276580934581E-02 a         2     0     1     1     2
  5.7937248316745613E-02 a         3     0     1     1     3
 -9.5466371420719898E-03 a         4     0     1     1     4
 -1.0335250176859512E-01 a         5     0     1     1     5
  6.4815076203047162E-02 a         6     0     1     1     6
  1.3439145967220498E-01 a         7     0     1     1     7
  1.4743436239398777E-01 a         8     0     1     1     8
 -1.5574038775818974E-01 a         9     0     1     1     9
 -1.5728693655497175E-01 a        10     0     1     1    10
 -1.5792744609711767E-01 a        11     0     1     1    11
 -1.1777754277059120E-01 a        12     0     1     1    12
  6.2343279015308839E-02 a        13     0     1     1    13
  1.9128031476292492E-01 a        14     0     1     1    14
 -1.3863497437745467E-01 a        15     0     1     1    15
  1.6086522241544218E-01 a        16     0     1     1    16
 -4.2575988199623344E-01 a        17     0     1     1    17
 -1.7029032225988150E-01 a        18     0     1     1    18
 -2.6021334279365603E-03 a        19     0     1     1    19
 -4.1410461421215039E-01 a        20     0     1     1    20
  1.1363381055335599E-01 a        21     0     2     1     1
  3.8764892010804231E-01 a        22     0     2     1     2
 -2.3010165467662949E-01 a        23     0     2     1     3
  9.8828050603299907E-03 a        24     0     2     1     4
  3.8937475941165051E-01 a        25     0     2     1     5
 -1.2661130089554076E-01 a        26     0     2     1     6
  3.4573899172592437E-01 a        27     0     2     1     7
 -6.3120598643903500E-02 a        28     0     2     1     8
  1.3098573747873116E-01 a        29     0     2     1     9
 -1.7104503379158054E-01 a        30     0     2     1    10
 -2.7567194196614475E-01 a        31     0     2     1    11
 -3.7519090683810929E-01 a        32     0     2     1    12
 -1.6613582153822076E-01 a        33     0     2     1    13
  3.1614425100218263E-01 a        34     0     2     1    14
 -1.9750679669955101E-01 a        35     0     2     1    15
  4.0504807579212759E-01 a        36     0     2     1    16
  8.3635334393587710E-02 a        37     0     2     1    17
  2.3597623459567327E-01 a        38     0     2     1    18
 -2.6118753728688188E-01 a        39     0     2     1    19
  6.6175907198420092E-02 a        40     0     2     1    20
 -1.3039893407258177E-01 a        41     0     3     1     1
 -1.4701376743563249E-01 a        42     0     3     1     2
 -1.8384421740660167E-01 a        43     0     3     1     3
 -1.4063314746743377E-01 a        44     0     3     1     4
  5.2149473435240934E-01 a        45     0     3     1     5
 -9.0593100650472116E-02 a        46     0     3     1     6
  2.9122633681777066E-01 a        47     0     3     1     7
  9.9593757611447509E-02 a        48     0     3     1     8
  9.2883664232396648E-02 a        49     0     3     1     9
  2.4483404638623540E-01 a        50     0     3     1    10
 -3.2582227871670927E-01 a        51     0     3     1    11
 -2.1994560710857672E-01 a        52     0     3     1    12
  1.1396365982239366E-01 a        53     0     3     1    13
  4.3062911655710995E-02 a        54     0     3     1    14
  1.7791620970179806E-01 a        55     0     3     1    15
 -1.2115355500636087E-01 a        56     0     3     1    16
 -1.7215990023682109E-02 a        57     0     3     1    17
 -1.6961912207861568E-01 a        58     0     3     1    18
 -1.7219703594509882E-02 a        59     0     3     1    19
  2.4578161348966285E-01 a        60     0     3     1    20
 -1.0114690686922795E-01 a        61     0     4     1     1
  4.3014718262740859E-01 a        62     0     4     1     2
  4.2209482856995806E-01 a        63     0     4     1     3
  2.7313402254387215E-01 a        64     0     4     1     4
 -2.0402541632274190E-01 a        65     0     4     1     5
 -3.5294824018296805E-01 a        66     0     4     1     6
 -1.3583189788608269E-01 a        67     0     4     1     7
  5.9441638431065522E-02 a        68     0     4     1     8
  3.2684517474578745E-01 a        69     0     4     1     9
  4.5702971750640853E-01 a        70     0     4     1    10
 -1.2583883670315738E-01 a        71     0     4     1    11
  8.3816779962144872E-02 a        72     0     4     1    12
  2.3654934329186644E-01 a        73     0     4     1    13
  1.0078832259990342E-01 a        74     0     4     1    14
 -3.1910827372260386E-01 a        75     0     4     1    15
 -2.1188237939364393E-01 a        76     0     4     1    16
  3.7035082727811902E-01 a        77     0     4     1    17
  1.9961458229246190E-01 a        78     0     4     1    18
 -9.1626624237389598E-02 a        79     0     4     1    19
  3.4695765339901330E-01 a        80     0     4     1    20
 -3.6614996601139288E-01 a        81     0     5     1     1
  2.1547325123382515E-02 a        82     0     5     1     2
  3.4544764917257342E-01 a        83     0     5     1     3
  2.2638468377958174E-01 a        84     0     5     1     4
 -3.5825494203194852E-01 a        85     0     5     1     5
  3.1711598705173261E-01 a        86     0     5     1     6
  1.8011847442524426E-01 a        87     0     5     1     7
 -3.4812283358865076E-02 a        88     0     5     1     8
 -2.6141803070400170E-02 a        89     0     5     1     9
  1.8035146626118277E-02 a        90     0     5     1    10
  2.2607240565860193E-01 a        91     0     5     1    11
 -1.8717213653225717E-01 a        92     0     5     1    12
 -1.8900786913688730E-01 a        93     0     5     1    13
  1.1203180372395942E-01 a        94     0     5     1    14
 -1.3577352922121833E-01 a        95     0     5     1    15
  1.1933643119835176E-01 a        96     0     5     1    16
  2.1376879063321527E-01 a        97     0     5     1    17
  2.6968906997701497E-01 a        98     0     5     1    18
 -2.2604315315778098E-01 a        99     0     5     1    19
 -6.4204142834192360E-02 a       100     0     5     1    20
  3.9343847419465067E-01 a       101     0     6     1     1
 -2.8995346393004055E-02 a       102     0     6     1     2
 -7.6804325756494318E-02 a       103     0     6     1     3
 -2.3236665668069267E-02 a       104     0     6     1     4
 -4.3960433006294174E-02 a       105     0     6     1     5
 -1.7183559011565624E-01 a       106     0     6     1     6
 -3.6309586886987544E-02 a       107     0     6     1     7
  3.8406402530880102E-01 a       108     0     6     1     8
  8.9599929543778378E-02 a       109     0     6     1     9
 -1.9552263518076898E-02 a       110     0     6     1    10
  4.3946738451078264E-02 a       111     0     6     1    11
  1.5530068210286144E-01 a       112     0     6     1    12
 -4.0897750362666407E-01 a       113     0     6     1    13
  1.0894368686076875E-01 a       114     0     6     1    14
  5.7001137732140890E-02 a       115     0     6     1    15
  2.0655561333047992E-01 a       116     0     6     1    16
  1.8330107853722008E-01 a       117     0     6     1    17
  1.4956385559699115E-01 a       118     0     6     1    18
 -2.1828667272588975E-02 a       119     0     6     1    19
  2.3930018714564752E-01 a       120     0     6     1    20
 -3.3683699025751801E-01 a       121     0     7     1     1
  4.6180378390122251E-01 a       122     0     7     1     2
 -1.5506123114740275E-01 a       123     0     7     1     3
  1.5416183141497466E-01 a       124     0     7     1     4
 -1.5302777790991043E-01 a       125     0     7     1     5
 -1.4492817991949566E-01 a       126     0     7     1     6
 -2.2125105581121029E-02 a       127     0     7     1     7
  2.7985368114468590E-01 a       128     0     7     1     8
 -6.9544541169616392E-02 a       129     0     7     1     9
 -2.4864170399849272E-01 a       130     0     7     1    10
 -1.3677213194311094E-01 a       131     0     7     1    11
  2.6968990889337491E-01 a       132     0     7     1    12
 -5.8690712233698775E-02 a       133     0     7     1    13
  8.2588443192213423E-02 a       134     0     7     1    14
 -1.3231997049787816E-01 a       135     0     7     1    15
  1.9253043619615946E-02 a       136     0     7     1    16
  1.1542900639440835E-01 a       137     0     7     1    17
 -2.0394605724842821E-01 a       138     0     7     1    18
  6.8059388862654849E-02 a       139     0     7     1    19
 -1.7911575552457853E-01 a       140     0     7     1    20
 -3.8012034559687591E-01 a       141     0     8     1     1
  4.1184771208367404E-01 a       142     0     8     1     2
  4.5158847754483498E-02 a       143     0     8     1     3
  1.7241505068063190E-01 a       144     0     8     1     4
  2.2167451941830157E-01 a       145     0     8     1     5
 -7.3618682681704697E-02 a       146     0     8     1     6
  2.9768025050379304E-01 a       147     0     8     1     7
 -5.8014747237751955E-02 a       148     0     8     1     8
 -2.1615347379131074E-02 a       149     0     8     1     9
  3.5438345872442177E-02 a       150     0     8     1    10
 -2.3894053042261917E-01 a       151     0     8     1    11
 -2.2975237128826531E-01 a       152     0     8     1    12
  2.4716302956051747E-01 a       153     0     8     1    13
  3.0616807834746990E-02 a       154     0     8     1    14
  1.3668494292144515E-01 a       155     0     8     1    15
  3.8895449237340701E-01 a       156     0     8     1    16
  1.3783039270162384E-01 a       157     0     8     1    17
 -1.5477275321221787E-01 a       158     0     8     1    18
 -2.9908618589515867E-01 a       159     0     8     1    19
 -3.8489830501173949E-01 a       160     0     8     1    20
 -8.8263374168385575E-02 a       161     0     9     1     1
  2.7610967620306442E-01 a       162     0     9     1     2
  3.2963913571217274E-01 a       163     0     9     1     3
 -1.2176002608328605E-01 a       164     0     9     1     4
 -2.0002848169722121E-01 a       165     0     9     1     5
  1.1588340691688244E-01 a       166     0     9     1     6
  1.6622125591156761E-01 a       167     0     9     1     7
 -1.5720375848321347E-01 a       168     0     9     1     8
 -2.4573377838498348E-02 a       169     0     9     1     9
  4.8737830361639761E-01 a       170     0     9     1    10
 -2.0860808800435060E-01 a       171     0     9     1    11
 -3.1881111724217504E-01 a       172     0     9     1    12
  1.6274921585844690E-02 a       173     0     9     1    13
  2.2873906279702846E-01 a       174     0     9     1    14
 -1.0085194746983718E-01 a       175     0     9     1    15
 -4.7495438242268961E-01 a       176     0     9     1    16
  5.9956920419550155E-02 a       177     0     9     1    17
 -9.9593854281782898E-02 a       178     0     9     1    18
  1.5360815293137641E-02 a       179     0     9     1    19
  1.1370863731619292E-01 a       180     0     9     1    20
  1.4473576035844057E-01 a       181     0    10     1     1
 -1.3816002823105994E-01 a       182     0    10     1     2
  8.9691613254733168E-02 a       183     0    10     1     3
 -5.4821605643667393E-02 a       184     0    10     1     4
 -3.2018713111161334E-01 a       185     0    10     1     5
 -1.0261331091831086E-01 a       186     0    10     1     6
  1.5061697513779906E-01 a       187     0    10     1     7
 -4.2172723784324545E-02 a       188     0    10     1     8
 -7.0535458707948584E-02 a       189     0    10     1     9
 -3.0842234999391344E-01 a       190     0    10     1    10
 -3.0852676549172085E-02 a       191     0    10     1    11
 -4.4582444029862653E-02 a       192     0    10     1    12
  2.4548836396870344E-01 a       193     0    10     1    13
  4.2658537492817533E-01 a       194     0    10     1    14
  8.8174769302880429E-02 a       195     0    10     1    15
  1.5461907957996818E-02 a       196     0    10     1    16
 -3.3396509049366108E-01 a       197     0    10     1    17
  3.3888552663191857E-01 a       198     0    10     1    18
  1.9370503418206511E-01 a       199     0    10     1    19
 -1.1486958943018465E-01 a       200     0    10     1    20
  3.7143350352438091E-02 a       201     0    11     1     1
  1.1572506860408568E-01 a       202     0    11     1     2
  1.8507242652361944E-01 a       203     0    11     1     3
  8.5198397576169954E-02 a       204     0    11     1     4
 -1.7488991443426394E-01 a       205     0    11     1     5
  1.7797952665349284E-01 a       206     0    11     1     6
  2.0833905059259969E-01 a       207     0    11     1     7
  1.7199505297382384E-01 a       208     0    11     1     8
  1.8351475794844835E-01 a       209     0    11     1     9
 -1.1500366311377661E-01 a       210     0    11     1    10
  2.1798833236663331E-01 a       211     0    11     1    11
  9.1392219117684984E-02 a       212     0    11     1    12
 -8.7860134266489989E-02 a       213     0    11     1    13
  1.1377674139283536E-01 a       214     0    11     1    14
  2.4216134126811579E-03 a       215     0    11     1    15
  8.0191486462135808E-02 a       216     0    11     1    16
  2.1710798152794097E-01 a       217     0    11     1    17
 -1.5342596569087291E-01 a       218     0    11     1    18
 -1.3597797804848313E-01 a       219     0    11     1    19
 -1.5432603063839836E-01 a       220     0    11     1    20
 -2.2556539071317322E-01 a       221     0    12     1     1
  2.2213721092025435E-01 a       222     0    12     1     2
 -1.0374980106202326E-01 a       223     0    12     1     3
 -4.1844504299821415E-02 a       224     0    12     1     4
  2.9404098459591749E-01 a       225     0    12     1     5
  7.1746490485788919E-02 a       226     0    12     1     6
 -2.1683937033184289E-01 a       227     0    12     1     7
  1.3680691051268151E-01 a       228     0    12     1     8
  1.4502949698635179E-01 a       229     0    12     1     9
 -9.9160907741589727E-02 a       230     0    12     1    10
 -3.7882353979229011E-01 a       231     0    12     1    11
  1.2434017442897524E-01 a       232     0    12     1    12
  1.8111777800224529E-01 a       233     0    12     1    13
 -5.3883376218788748E-01 a       234     0    12     1    14
  2.0127347456174677E-01 a       235     0    12     1    15
 -8.5867472832609537E-02 a       236     0    12     1    16
 -1.5099480613211241E-01 a       237     0    12     1    17
  2.2843726278846171E-01 a       238     0    12     1    18
 -9.3187678753688163E-02 a       239     0    12     1    19
  2.3032671056184403E-01 a       240     0    12     1    20
 -2.6139434093583314E-01 a       241     0    13     1     1
  2.3698454169686581E-01 a       242     0    13     1     2
 -2.8382704178703971E-01 a       243     0    13     1     3
 -1.1565067424286958E-01 a       244     0    13     1     4
  3.8679559711720690E-01 a       245     0    13     1     5
 -1.7512276625421674E-01 a       246     0    13     1     6
  5.9200962161711959E-02 a       247     0    13     1     7
  1.3185501576618883E-02 a       248     0    13     1     8
 -2.1719658624087274E-01 a       249     0    13     1     9
 -1.4615350837793001E-01 a       250     0    13     1    10
 -4.1865287374034504E-01 a       251     0    13     1    11
 -2.0888503527740981E-01 a       252     0    13     1    12
 -1.7601918467184255E-01 a       253     0    13     1    13
  1.1616887807823620E-01 a       254     0    13     1    14
  2.0082603270616944E-01 a       255     0    13     1    15
  1.7395530064482814E-01 a       256     0    13     1    16
 -2.2372991743491769E-01 a       257     0    13     1    17
 -3.1878594521557202E-01 a       258     0    13     1    18
  8.3115003466654527E-02 a       259     0    13     1    19
 -6.4582704427630861E-04 a       260     0    13     1    20
 -2.2218710071614811E-01 a       261     0    14     1     1
 -1.9065913339226825E-01 a       262     0    14     1     2
  5.5292122724864765E-02 a       263     0    14     1     3
  2.5767542986489278E-01 a       264     0    14     1     4
 -2.1628946389889964E-02 a       265     0    14     1     5
  1.5546950329830744E-01 a       266     0    14     1     6
  2.9862938457804555E-01 a       267     0    14     1     7
 -3.4096085704928403E-01 a       268     0    14     1     8
 -2.8464003858819720E-01 a       269     0    14     1     9
 -2.6832693627791010E-01 a       270     0    14     1    10
 -4.5026181831338006E-03 a       271     0    14     1    11
 -1.5985826758304672E-01 a       272     0    14     1    12
 -2.2198435498618491E-01 a       273     0    14     1    13
  2.9996687970963382E-01 a       274     0    14     1    14
  8.8193102040181534E-02 a       275     0    14     1    15
  4.4085966451211583E-01 a       276     0    14     1    16
  1.8952513578965730E-01 a       277     0    14     1    17
 -2.5207252524177687E-02 a       278     0    14     1    18
  1.2931576460734578E-01 a       279     0    14     1    19
 -5.2497647012920978E-01 a       280     0    14     1    20
  7.7398544398665572E-02 a       281     0    15     1     1
 -1.2454741973774369E-01 a       282     0    15     1     2
 -1.3791749046652441E-01 a       283     0    15     1     3
 -1.2713070370773352E-01 a       284     0    15     1     4
  2.1046585342564053E-02 a       285     0    15     1     5
 -2.4307200029145756E-01 a       286     0    15     1     6
 -2.7600891172783432E-02 a       287     0    15     1     7
 -2.3349071975759331E-01 a       288     0    15     1     8
  6.2207644950460730E-02 a       289     0    15     1     9
  5.0217374927400238E-01 a       290     0    15     1    10
  1.6484276614723983E-01 a       291     0    15     1    11
  9.8759882660573423E-02 a       292     0    15     1    12
 -6.2246624259161644E-02 a       293     0    15     1    13
 -1.4729527826941932E-01 a       294     0    15     1    14
 -1.0557561120928904E-01 a       295     0    15     1    15
 -9.8246785072425083E-02 a       296     0    15     1    16
 -2.1353821570186815E-01 a       297     0    15     1    17
  9.1382098628899525E-02 a       298     0    15     1    18
  4.7837142856082572E-02 a       299     0    15     1    19
  1.5544612335925570E-01 a       300     0    15     1    20
  9.4747613119146132E-02 a       301     0    16     1     1
 -1.3641790037225032E-01 a       302     0    16     1     2
  1.0304811202110785E-01 a       303     0    16     1     3
  1.2340955394312811E-01 a       304     0    16     1     4
  2.3709290518012241E-01 a       305     0    16     1     5
  1.6113524016983016E-01 a       306     0    16     1     6
 -1.4224029557869394E-01 a       307     0    16     1     7
  1.2638954865713400E-01 a       308     0    16     1     8
  9.8798396707705433E-02 a       309     0    16     1     9
 -2.9908263618738606E-01 a       310     0    16     1    10
 -6.7626859171952356E-03 a       311     0    16     1    11
 -1.0540224987622706E-03 a       312     0    16     1    12
 -7.1287441269287544E-02 a       313     0    16     1    13
  8.0537229314250780E-02 a       314     0    16     1    14
 -3.1417162907719737E-01 a       315     0    16     1    15
 -4.3997776824778206E-01 a       316     0    16     1    16
 -8.9751742229043280E-02 a       317     0    16     1    17
  3.4975200945945412E-01 a       318     0    16     1    18
 -1.1453128128901921E-01 a       319     0    16     1    19
  1.9900207086751745E-01 a       320     0    16     1    20
 -1.1188501574541364E-01 a       321     0    17     1     1
  5.4749464601398290E-02 a       322     0    17     1     2
 -2.6280845245637469E-01 a       323     0    17     1     3
  1.7303067977354367E-01 a       324     0    17     1     4
  2.7558251222612745E-01 a       325     0    17     1     5
  2.5322536874243757E-02 a       326     0    17     1     6
 -1.0600362703867855E-01 a       327     0    17     1     7
 -1.4181659185368761E-01 a       328     0    17     1     8
 -1.7063510050337688E-01 a       329     0    17     1     9
 -4.5802875541027788E-01 a       330     0    17     1    10
 -1.0232928969871970E-01 a       331     0    17     1    11
 -9.1077871654990112E-03 a       332     0    17     1    12
 -3.6826865596989961E-01 a       333     0    17     1    13
  1.4032835646757671E-01 a       334     0    17     1    14
  1.7571386416634704E-02 a       335     0    17     1    15
 -1.0441510416763970E-01 a       336     0    17     1    16
 -3.2477213653561893E-01 a       337     0    17     1    17
 -3.8582921969025968E-01 a       338     0    17     1    18
  1.6389330886591885E-01 a       339     0    17     1    19
 -7.5754132549602740E-02 a       340     0    17     1    20
  2.0607381157909024E-01 a       341     0    18     1     1
 -8.0273450487947914E-02 a       342     0    18     1     2
  3.1779819345255686E-02 a       343     0    18     1     3
 -2.3231744039331623E-01 a       344     0    18     1     4
 -2.7175591828919543E-01 a       345     0    18     1     5
 -3.1421143683765598E-02 a       346     0    18     1     6
 -7.7334613511152631E-02 a       347     0    18     1     7
  3.1838797964096965E-01 a       348     0    18     1     8
  1.0556166425361962E-01 a       349     0    18     1     9
  2.1274214192241226E-02 a       350     0    18     1    10
 -6.7068814150995984E-02 a       351     0    18     1    11
  1.0294075137697425E-01 a       352     0    18     1    12
  1.1213695960548550E-01 a       353     0    18     1    13
 -2.5718969335208308E-01 a       354     0    18     1    14
  2.4160171710529471E-01 a       355     0    18     1    15
  1.7047084368929952E-01 a       356     0    18     1    16
 -1.6312606096203990E-02 a       357     0    18     1    17
  1.9888311009431267E-01 a       358     0    18     1    18
  1.4608520448538204E-01 a       359     0    18     1    19
  2.1786459456133977E-01 a       360     0    18     1    20
 -1.3828244201869133E-01 a       361     0    19     1     1
  5.3605487791464963E-02 a       362     0    19     1     2
  1.0184482721455430E-01 a       363     0    19     1     3
  8.7182895345724348E-02 a       364     0    19     1     4
  1.9123579225086515E-01 a       365     0    19     1     5
  8.5652487892989695E-02 a       366     0    19     1     6
  1.8688594677232881E-01 a       367     0    19     1     7
 -4.5179612233975902E-02 a       368     0    19     1     8
 -5.0313866998727745E-02 a       369     0    19     1     9
 -2.4985245400630768E-01 a       370     0    19     1    10
  5.8710983586003837E-02 a       371     0    19     1    11
 -2.4953816453299241E-01 a       372     0    19     1    12
  7.9355020518704175E-02 a       373     0    19     1    13
  2.6792360395614356E-01 a       374     0    19     1    14
 -1.5813253134132899E-02 a       375     0    19     1    15
  1.5984832820005687E-03 a       376     0    19     1    16
  2.8692547857198808E-01 a       377     0    19     1    17
  8.3159002402784961E-03 a       378     0    19     1    18
 -1.3017127343645399E-01 a       379     0    19     1    19
 -2.6154815862511099E-01 a       380     0    19     1    20
  1.7517096547388292E-01 a       381     0    20     1     1
 -1.7468485637345321E-01 a       382     0    20     1     2
  1.7688244330030009E-02 a       383     0    20     1     3
  9.0979084096816223E-02 a       384     0    20     1     4
 -2.7657028118414017E-04 a       385     0    20     1     5
  2.9536128628712310E-02 a       386     0    20     1     6
  1.1043869157864808E-01 a       387     0    20     1     7
  1.9391917443746493E-01 a       388     0    20     1     8
 -9.8142788060825506E-02 a       389     0    20     1     9
 -8.3422934554812783E-03 a       390     0    20     1    10
  1.1357850472570791E-01 a       391     0    20     1    11
 -2.6388628092515139E-02 a       392     0    20     1    12
 -1.0029929228656345E-01 a       393     0    20     1    13
  1.0945907037897215E-01 a       394     0    20     1    14
 -7.1871470703211066E-02 a       395     0    20     1    15
  1.1019876104129601E-01 a       396     0    20     1    16
  1.0621285687262597E-01 a       397     0    20     1    17
 -1.1972621351974061E-01 a       398     0    20     1    18
 -8.7162332477287621E-02 a       399     0    20     1    19
 -2.9488701891068214E-01 a       400     0    20     1    20
  1.8647521957244360E-02 a       401     0    21     1     1
 -1.7118997568185537E-01 a       402     0    21     1     2
 -1.7599869328620232E-01 a       403     0    21     1     3
  3.0671876336146070E-01 a       404     0    21     1     4
  1.5613656086938252E-01 a       405     0    21     1     5
 -3.1351664640453658E-01 a       406     0    21     1     6
 -1.5310285085896960E-01 a       407     0    21     1     7
 -3.2704607245370948E-01 a       408     0    21     1     8
 -7.5806414294435992E-02 a       409     0    21     1     9
 -2.2501576984420985E-01 a       410     0    21     1    10
  2.7869229879412271E-02 a       411     0    21     1    11
 -5.8366177542698273E-02 a       412     0    21     1    12
 -1.0268302364630766E-01 a       413     0    21     1    13
 -7.9427176639731891E-03 a       414     0    21     1    14
 -2.1058363284128140E-01 a       415     0    21     1    15
 -3.0530983579829116E-02 a       416     0    21     1    16
  2.6600270746709509E-01 a       417     0    21     1    17
 -3.5790661955520782E-02 a       418     0    21     1    18
  1.8310007793800116E-02 a       419     0    21     1    19
  2.5701495572111516E-01 a       420     0    21     1    20
  3.3975726040693810E-01 a       421     0    22     1     1
 -6.3136037696724573E-02 a       422     0    22     1     2
 -1.6046042857107978E-01 a       423     0    22     1     3
 -4.6360081356572930E-01 a       424     0    22     1     4
  1.3591363850646854E-01 a       425     0    22     1     5
 -2.7832060701460043E-01 a       426     0    22     1     6
  1.1908211080721293E-01 a       427     0    22     1     7
 -2.1707351284713261E-01 a       428     0    22     1     8
  9.8554246857076130E-02 a       429     0    22     1     9
 -9.5444649315886212E-02 a       430     0    22     1    10
  5.1734213420672381E-01 a       431     0    22     1    11
  3.5548258065085117E-02 a       432     0    22     1    12
  2.2587505654297499E-01 a       433     0    22     1    13
  2.3775356843593043E-01 a       434     0    22     1    14
  2.3726039472920427E-01 a       435     0    22     1    15
 -1.9476990927740281E-01 a       436     0    22     1    16
 -1.6973110501830591E-01 a       437     0    22     1    17
 -2.7691888586002805E-01 a       438     0    22     1    18
  4.7793966874979291E-02 a       439     0    22     1    19
  2.9557690568598349E-01 a       440     0    22     1    20
 -2.2916803266207986E-01 a       441     0    23     1     1
 -2.1812687619383797E-01 a       442     0    23     1     2
  3.3515828908717754E-01 a       443     0    23     1     3
 -3.3022360075273977E-01 a       444     0    23     1     4
 -6.7312944508644681E-02 a       445     0    23     1     5
 -5.4354036721463730E-02 a       446     0    23     1     6
 -8.4172529096784840E-02 a       447     0    23     1     7
 -7.6608490888761755E-03 a       448     0    23     1     8
  1.3119939533111197E-01 a       449     0    23     1     9
 -3.1629821085413834E-01 a       450     0    23     1    10
  2.4814624952735589E-01 a       451     0    23     1    11
  4.5991606740531057E-02 a       452     0    23     1    12
  4.3314679151432001E-01 a       453     0    23     1    13
 -3.6479248500110439E-01 a       454     0    23     1    14
 -1.6434630905366440E-01 a       455     0    23     1    15
 -3.7925959768031520E-01 a       456     0    23     1    16
  3.7072683737102041E-01 a       457     0    23     1    17
 -7.5887272773187495E-03 a       458     0    23     1    18
 -2.7133563511177961E-01 a       459     0    23     1    19
  7.6724448805847265E-02 a       460     0    23     1    20
  1.3310084468903238E-01 a       461     0    24     1     1
 -1.1349838218017215E-01 a       462     0    24     1     2
  1.4331128485848724E-01 a       463     0    24     1     3
  1.7045561369879608E-01 a       464     0    24     1     4
  3.2830794086660425E-01 a       465     0    24     1     5
 -6.0128773061204011E-02 a       466     0    24     1     6
 -3.7350077403449394E-01 a       467     0    24     1     7
  3.3669893909272913E-01 a       468     0    24     1     8
  6.8638137080196809E-03 a       469     0    24     1     9
  1.2437746399504980E-01 a       470     0    24     1    10
  3.1125949025305322E-01 a       471     0    24     1    11
 -4.2107351624599249E-02 a       472     0    24     1    12
  1.7108234649626096E-02 a       473     0    24     1    13
  1.9296744880173300E-01 a       474     0    24     1    14
 -3.1558155253211712E-01 a       475     0    24     1    15
  3.9137713740196090E-01 a       476     0    24     1    16
 -1.0731593032160548E-02 a       477     0    24     1    17
  4.0781282759969278E-01 a       478     0    24     1    18
 -9.6071704905977447E-03 a       479     0    24     1    19
 -2.5339424073229533E-01 a       480     0    24     1    20
  8.1911268630352238E-02 a       481     0    25     1     1
 -1.5256329316036268E-01 a       482     0    25     1     2
 -3.7823956333625064E-01 a       483     0    25     1     3
  2.5299751578898605E-01 a       484     0    25     1     4
  2.3391169190308989E-01 a       485     0    25     1     5
  3.1272033033315527E-01 a       486     0    25     1     6
 -6.5922722117884205E-02 a       487     0    25     1     7
 -4.0364163167988476E-01 a       488     0    25     1     8
  3.3504395513036722E-01 a       489     0    25     1     9
  2.9397656439356201E-01 a       490     0    25     1    10
 -2.3893731941304255E-01 a       491     0    25     1    11
  4.2778180336950861E-01 a       492     0    25     1    12
  6.4138916781250749E-02 a       493     0    25     1    13
 -2.4991294802934869E-01 a       494     0    25     1    14
 -5.3106752657031402E-02 a       495     0    25     1    15
  1.2868587672033771E-01 a       496     0    25     1    16
  4.0354374747875393E-01 a       497     0    25     1    17
 -1.6165576329976722E-01 a       498     0    25     1    18
 -2.9186678381173914E-01 a       499     0    25     1    19
  1.9454876774034308E-01 a       500     0    25     1    20
 -1.8660396687058187E-01 a       501     0    26     1     1
 -2.4412389077104507E-01 a       502     0    26     1     2
 -3.4231203534593614E-02 a       503     0    26     1     3
  1.2566698297954559E-01 a       504     0    26     1     4
 -1.3703373248302989E-01 a       505     0    26     1     5
  1.0404744679263650E-01 a       506     0    26     1     6
 -7.6136683095002100E-02 a       507     0    26     1     7
 -3.1267789798419099E-02 a       508     0    26     1     8
  2.0900958998324726E-02 a       509     0    26     1     9
  2.7597590036514874E-01 a       510     0    26     1    10
  3.9382453244910171E-01 a       511     0    26     1    11
  6.6913534187994311E-02 a       512     0    26     1    12
 -3.8078992259985034E-01 a       513     0    26     1    13
  2.5837334996627378E-02 a       514     0    26     1    14
 -3.6788041305369568E-01 a       515     0    26     1    15
 -7.0320109077969914E-02 a       516     0    26     1    16
  1.3185296356576742E-01 a       517     0    26     1    17
  3.3767791821678478E-01 a       518     0    26     1    18
 -1.6401257675399142E-02 a       519     0    26     1    19
  3.6664848594793514E-01 a       520     0    26     1    20
  2.1506292694994195E-01 a       521     0    27     1     1
 -4.8778532974996472E-02 a       522     0    27     1     2
  2.1461528444735858E-01 a       523     0    27     1     3
 -1.0949382730679723E-01 a       524     0    27     1     4
 -1.8670113097278135E-01 a       525     0    27     1     5
  2.6577322689779365E-01 a       526     0    27     1     6
  1.4954883449387177E-01 a       527     0    27     1     7
 -1.4476471584866177E-01 a       528     0    27     1     8
  5.8811519516758913E-02 a       529     0    27     1     9
 -2.2484274946460764E-01 a       530     0    27     1    10
 -1.9494215391251749E-02 a       531     0    27     1    11
  1.6239137513544637E-03 a       532     0    27     1    12
 -3.8212253770307963E-01 a       533     0    27     1    13
 -5.0393572799182151E-01 a       534     0    27     1    14
  2.2635648160503943E-01 a       535     0    27     1    15
 -1.0426177967146569E-01 a       536     0    27     1    16
  1.1452607276691239E-01 a       537     0    27     1    17
  7.6297878231409239E-02 a       538     0    27     1    18
 -5.0252444468249648E-02 a       539     0    27     1    19
  1.9134623157880268E-01 a       540     0    27     1    20
  6.1175562506499512E-02 a       541     0    28     1     1
  1.6271871313802999E-01 a       542     0    28     1     2
  4.5640189091093145E-02 a       543     0    28     1     3
 -2.2127866135070029E-01 a       544     0    28     1     4
  2.3211587525449739E-01 a       545     0    28     1     5
  2.5692157420897546E-02 a       546     0    28     1     6
  6.9903433111310559E-02 a       547     0    28     1     7
 -1.4559738899156793E-01 a       548     0    28     1     8
 -1.1557839865741190E-01 a       549     0    28     1     9
 -2.3365222535703195E-01 a       550     0    28     1    10
 -2.6420806890612286E-01 a       551     0    28     1    11
 -2.6139562058950772E-01 a       552     0    28     1    12
  2.4063079048957353E-01 a       553     0    28     1    13
  3.0560192976870482E-01 a       554     0    28     1    14
  1.4556849033944244E-01 a       555     0    28     1    15
  1.1507830406954506E-01 a       556     0    28     1    16
  2.2091309373998133E-01 a       557     0    28     1    17
  8.0540236974059570E-02 a       558     0    28     1    18
 -8.3715605412476440E-03 a       559     0    28     1    19
 -3.0070108233967285E-01 a       560     0    28     1    20
 -3.7184448986784990E-01 a       561     0    29     1     1
 -3.4332776403095056E-01 a       562     0    29     1     2
 -1.6531747721451825E-01 a       563     0    29     1     3
 -2.1790570659885104E-02 a       564     0    29     1     4
  3.3831538095299185E-01 a       565     0    29     1     5
 -1.8819847791166314E-02 a       566     0    29     1     6
 -9.3794056190228070E-02 a       567     0    29     1     7
 -2.5799137174900866E-01 a       568     0    29     1     8
 -1.0164371573204431E-01 a       569     0    29     1     9
 -9.2321014221948161E-02 a       570     0    29     1    10
 -2.1301051585138517E-01 a       571     0    29     1    11
 -8.5421360584648956E-02 a       572     0    29     1    12
  4.9333101555537218E-02 a       573     0    29     1    13
 -2.7354106100204617E-01 a       574     0    29     1    14
 -2.6262343895583357E-01 a       575     0    29     1    15
 -1.7173377559818170E-01 a       576     0    29     1    16
 -1.2702668844041884E-01 a       577     0    29     1    17
  3.5593415528102773E-01 a       578     0    29     1    18
  1.5792711251485797E-01 a       579     0    29     1    19
  2.1628047815043083E-01 a       580     0    29     1    20
 -1.1361270285264023E-01 a       581     0    30     1     1
  1.0617033408383533E-01 a       582     0    30     1     2
 -2.7924118204422510E-01 a       583     0    30     1     3
 -2.2049300041122963E-01 a       584     0    30     1     4
 -1.7974353511538887E-01 a       585     0    30     1     5
 -2.8676213207584828E-01 a       586     0    30     1     6
  2.8797881703541744E-01 a       587     0    30     1     7
 -2.3783512631874992E-01 a       588     0    30     1     8
 -1.4734436819262528E-01 a       589     0    30     1     9
 -2.1545705782452546E-01 a       590     0    30     1    10
 -1.7037362038344595E-01 a       591     0    30     1    11
 -2.1608152278725992E-02 a       592     0    30     1    12
  2.1444591902698323E-01 a       593     0    30     1    13
 -1.7661702990621775E-01 a       594     0    30     1    14
  1.5079919795284322E-01 a       595     0    30     1    15
 -2.2983644600959188E-01 a       596     0    30     1    16
 -3.0142250535823667E-01 a       597     0    30     1    17
 -3.6064914275335341E-01 a       598     0    30     1    18
 -1.0493922109705482E-01 a       599     0    30     1    19
 -2.4682754848411670E-03 a       600     0    30     1    20
 -1.8376486819905838E-01 a       601     0    31     1     1
 -9.3896130380748850E-03 a       602     0    31     1     2
 -3.5159923266533905E-01 a       603     0    31     1     3
 -3.1927170524627213E-01 a       604     0    31     1     4
  3.2682729218496964E-01 a       605     0    31     1     5
 -8.7437816848304956E-02 a       606     0    31     1     6
  1.5323712891860367E-01 a       607     0    31     1     7
 -1.3338195443030246E-01 a       608     0    31     1     8
 -2.6940874053275782E-01 a       609     0    31     1     9
  2.1820624105647302E-01 a       610     0    31     1    10
 -9.9617814596711877E-03 a       611     0    31     1    11
 -4.3719108106749394E-01 a       612     0    31     1    12
 -4.2380982644331877E-01 a       613     0    31     1    13
  3.2062808040780000E-01 a       614     0    31     1    14
  1.0517580682494461E-01 a       615     0    31     1    15
  2.7867798240254010E-01 a       616     0    31     1    16
 -2.7356581049773276E-01 a       617     0    31     1    17
 -2.1107790278056313E-01 a       618     0    31     1    18
  2.8210171925439836E-01 a       619     0    31     1    19
 -1.1384062164920766E-01 a       620     0    31     1    20
  4.1398513507945200E-01 a       621     0    32     1     1
  3.6979034504599481E-02 a       622     0    32     1     2
  2.6637030186907867E-01 a       623     0    32     1     3
  1.4712336053507008E-01 a       624     0    32     1     4
 -2.1599805623871837E-01 a       625     0    32     1     5
 -1.8907488180580168E-01 a       626     0    32     1     6
 -1.8847437117088025E-02 a       627     0    32     1     7
 -8.2932986829021546E-02 a       628     0    32     1     8
  4.9391452142004147E-02 a       629     0    32     1     9
  4.3608481286521589E-01 a       630     0    32     1    10
  7.7813256524289304E-02 a       631     0    32     1    11
  1.6332194654742055E-01 a       632     0    32     1    12
 -1.0280136068357532E-02 a       633     0    32     1    13
  8.7625231797547137E-02 a       634     0    32     1    14
 -1.2223726912604038E-01 a       635     0    32     1    15
 -4.8505814895299197E-02 a       636     0    32     1    16
  3.1562728577736948E-01 a       637     0    32     1    17
 -1.5336259953375309E-01 a       638     0    32     1    18
 -1.0672831563779457E-01 a       639     0    32     1    19
  1.8665202491260083E-02 a       640     0    32     1    20
 -1.2690816128588247E+00 b       641     1     1
  8.2191878200503776E-01 b       642     1     2
 -5.5794765636712806E-01 b       643     1     3
  3.3657125616343714E-01 b       644     1     4
  7.1517425551056268E-01 b       645     1     5
  1.3881375965682263E-01 b       646     1     6
 -1.3165388400330594E-01 b       647     1     7
 -7.2626651896873529E-01 b       648     1     8
 -1.5184674640065410E-01 b       649     1     9
  1.3037682314775922E+00 b       650     1    10
 -1.7149914216240617E-01 b       651     1    11
 -2.8989805540659996E-01 b       652     1    12
 -8.2256358265570551E-01 b       653     1    13
 -9.7569172984258945E-01 b       654     1    14
  6.2680836159746001E-01 b       655     1    15
 -1.0080823575937676E+00 b       656     1    16
  1.3580506404609778E+00 b       657     1    17
  9.9208519523180594E-01 b       658     1    18
 -6.7709164445379111E-01 b       659     1    19
  1.4848767398702780E+00 b       660     1    20
  1.2390911293989305E-01 a       661     1     1     2     1
  2.0370482891432787E-02 a       662     1     1     2     2
 -2.9873290386716156E-01 a       663     1     1     2     3
  4.7100599744782068E-01 a       664     1     1     2     4
  6.2079804117819637E-01 a       665     1     1     2     5
  1.3578403619414162E-01 a       666     1     1     2     6
 -3.5521936312625468E-01 a       667     1     1     2     7
  5.8068678328076473E-01 a       668     1     1     2     8
  9.9679406880286269E-03 a       669     1     1     2     9
  1.4998057069670889E-01 a       670     1     1     2    10
  4.3732247564391430E-01 a       671     1     1     2    11
  5.4294750600974184E-01 a       672     1     1     2    12
  1.7828285402369498E-01 a       673     1     1     2    13
  2.0563436622711068E-01 a       674     1     1     2    14
  1.9858815081239950E-01 a       675     1     1     2    15
 -2.0070052128427859E-01 a       676     1     1     2    16
 -5.5107088341945991E-02 a       677     1     1     2    17
 -4.1297896361600561E-01 a       678     1     1     2    18
 -4.5223583834645426E-01 a       679     1     1     2    19
  2.3015375688387354E-01 a       680     1     1     2    20
  3.3685150892271321E-01 a       681     1     2     2     1
 -1.1908719721249092E-01 a       682     1     2     2     2
  3.9578701370332664E-01 a       683     1     2     2     3
  1.6023570831747949E-01 a       684     1     2     2     4
  3.3007628517889892E-01 a       685     1     2     2     5
 -3.9194190568259185E-01 a       686     1     2     2     6
 -1.8037907825248425E-01 a       687     1     2     2     7
  6.1896527229070408E-01 a       688     1     2     2     8
  5.1931151928279198E-02 a       689     1     2     2     9
  2.1426992713461099E-01 a       690     1     2     2    10
  1.0404279587313302E-01 a       691     1     2     2    11
  5.6835887191157419E-01 a       692     1     2     2    12
  6.7407156937802651E-02 a       693     1     2     2    13
 -3.1758935773400748E-01 a       694     1     2     2    14
  4.5768051622081080E-01 a       695     1     2     2    15
 -2.4531407927126325E-01 a       696     1     2     2    16
 -4.0531383415951083E-01 a       697     1     2     2    17
 -4.9153393367899373E-01 a       698     1     2     2    18
  1.6961142446392094E-01 a       699     1     2     2    19
 -5.7690203881506030E-01 a       700     1     2     2    20
 -4.0331026953335014E-01 a       701     1     3     2     1
 -3.8303743406485780E-01 a       702     1     3     2     2
 -4.5061879259430337E-01 a       703     1     3     2     3
  4.4952654667366271E-01 a       704     1     3     2     4
 -4.3479121362085621E-01 a       705     1     3     2     5
  2.0018016968621100E-01 a       706     1     3     2     6
  7.4470067984046273E-01 a       707     1     3     2     7
 -3.0251003966318174E-01 a       708     1     3     2     8
 -4.0596675422039274E-01 a       709     1     3     2     9
  5.5447539918997835E-01 a       710     1     3     2    10
  2.6277584349993677E-01 a       711     1     3     2    11
 -4.3334699312861491E-01 a       712     1     3     2    12
 -1.2492074077713293E-01 a       713     1     3     2    13
 -6.8826572678368592E-01 a       714     1     3     2    14
  1.9347898932130395E-01 a       715     1     3     2    15
 -3.4204229596349961E-01 a       716     1     3     2    16
 -2.8913700801286707E-01 a       717     1     3     2    17
  3.6906659865575292E-01 a       718     1     3     2    18
 -4.3904173852060341E-01 a       719     1     3     2    19
 -2.6033218930611096E-01 a       720     1     3     2    20
 -3.7832209720225801E-01 a       721     1     4     2     1
  3.6852157165285382E-01 a       722     1     4     2     2
 -3.6434963033283096E-01 a       723     1     4     2     3
 -6.0505780985301227E-01 a       724     1     4     2     4
  2.6319888103156019E-01 a       725     1     4     2     5
  2.0746912442783425E-01 a       726     1     4     2     6
  1.2816704257258647E-03 a       727     1     4     2     7
  4.7970454612803115E-01 a       728     1     4     2     8
 -1.3337229255552646E-01 a       729     1     4     2     9
 -7.5892804872548880E-01 a       730     1     4     2    10
  1.6486018584614368E-01 a       731     1     4     2    11
 -5.2562478215953057E-01 a       732     1     4     2    12
  6.8321546303906841E-02 a       733     1     4     2    13
  4.3907601226927778E-01 a       734     1     4     2    14
  2.8717087465528396E-01 a       735     1     4     2    15
 -5.3790947475423456E-01 a       736     1     4     2    16
  5.6037334953264895E-01 a       737     1     4     2    17
 -1.0347937311453087E-01 a       738     1     4     2    18
  4.3401329943594624E-01 a       739     1     4     2    19
 -3.8089829712419393E-01 a       740     1     4     2    20
 -5.2078564249634018E-01 a       741     1     5     2     1
  1.6703213874537221E-01 a       742     1     5     2     2
 -1.7432005074283736E-02 a       743     1     5     2     3
  2.5721909938372550E-01 a       744     1     5     2     4
 -2.4443724268806960E-01 a       745     1     5     2     5
 -2.6821980929485278E-01 a       746     1     5     2     6
  3.4711595712546112E-01 a       747     1     5     2     7
  3.6483005042574262E-01 a       748     1     5     2     8
 -5.4523643120220955E-01 a       749     1     5     2     9
 -7.6143050006888022E-02 a       750     1     5     2    10
  5.3801526189806670E-01 a       751     1     5     2    11
 -1.8856105818516677E-01 a       752     1     5     2    12
 -4.3134939038870973E-01 a       753     1     5     2    13
 -3.5303263709000254E-01 a       754     1     5     2    14
 -3.1584883186950896E-01 a       755     1     5     2    15
 -9.7784098121454707E-02 a       756     1     5     2    16
 -2.6262018780247992E-01 a       757     1     5     2    17
 -1.2006360618574341E-01 a       758     1     5     2    18
  2.2576272557247017E-02 a       759     1     5     2    19
 -3.1540134741999859E-01 a       760     1     5     2    20
  5.3369561259281317E-01 a       761     1     6     2     1
  4.2184757069201501E-01 a       762     1     6     2     2
 -2.8275130054493575E-01 a       763     1     6     2     3
 -5.2284977976505465E-01 a       764     1     6     2     4
 -2.0664367969546327E-01 a       765     1     6     2     5
 -4.8688964089800085E-01 a       766     1     6     2     6
  1.7784957218179062E-01 a       767     1     6     2     7
 -4.4824855303927108E-01 a       768     1     6     2     8
 -1.4969477454519123E-01 a       769     1     6     2     9
 -3.6037232602875952E-01 a       770     1     6     2    10
  3.5895970192988907E-01 a       771     1     6     2    11
  4.5457473239963031E-01 a       772     1     6     2    12
  2.6206426394288301E-02 a       773     1     6     2    13
  2.4026445152122908E-01 a       774     1     6     2    14
  4.2275273348754733E-01 a       775     1     6     2    15
  2.7885954544114849E-01 a       776     1     6     2    16
 -3.2764593198536229E-01 a       777     1     6     2    17
 -3.3601525974019125E-01 a       778     1     6     2    18
 -5.4508119245885578E-01 a       779     1     6     2    19
  5.6475398805038757E-01 a       780     1     6     2    20
 -4.2640314853176303E-01 a       781     1     7     2     1
  5.1815335809433338E-01 a       782     1     7     2     2
 -7.2786528258892230E-02 a       783     1     7     2     3
  4.6247342554156723E-01 a       784     1     7     2     4
  7.8592256753016412E-02 a       785     1     7     2     5
 -4.7333443480230236E-01 a       786     1     7     2     6
  1.4254312385218570E-02 a       787     1     7     2     7
  3.3953347783166121E-01 a       788     1     7     2     8
  5.3897071141590736E-01 a       789     1     7     2     9
 -1.8550059505388641E-01 a       790     1     7     2    10
  2.6594859243243524E-01 a       791     1     7     2    11
 -8.2063301502374966E-02 a       792     1     7     2    12
  4.0717411891820127E-01 a       793     1     7     2    13
  2.6625538203193483E-01 a       794     1     7     2    14
  3.5647044120082166E-01 a       795     1     7     2    15
 -5.3708104585399463E-01 a       796     1     7     2    16
  4.0941136816643448E-01 a       797     1     7     2    17
 -2.1269693133582371E-01 a       798     1     7     2    18
  4.4346073358092500E-02 a       799     1     7     2    19
  1.4706984773150839E-01 a       800     1     7     2    20
  4.4875359753429500E-01 a       801     1     8     2     1
  5.3817782859647278E-01 a       802     1     8     2     2
 -1.8238319808390357E-01 a       803     1     8     2     3
 -5.2100760051395578E-01 a       804     1     8     2     4
 -6.1941794325330535E-02 a       805     1     8     2     5
 -1.1443326588366917E-01 a       806     1     8     2     6
  2.3868137174758347E-01 a       807     1     8     2     7
  1.9318555689897227E-02 a       808     1     8     2     8
 -2.6415201512965814E-01 a       809     1     8     2     9
 -9.3842387746717895E-02 a       810     1     8     2    10
 -4.6273219692005613E-01 a       811     1     8     2    11
 -3.9898792607216083E-01 a       812     1     8     2    12
  5.9751060519070742E-01 a       813     1     8     2    13
 -3.2270775143658545E-02 a       814     1     8     2    14
  5.9288700324800658E-01 a       815     1     8     2    15
 -3.6164107844981092E-01 a       816     1     8     2    16
 -1.4750151832941857E-01 a       817     1     8     2    17
 -3.3894348937689389E-01 a       818     1     8     2    18
 -1.7524442786774178E-01 a       819     1     8     2    19
 -1.8620414026488949E-01 a       820     1     8     2    20
  3.2503957665865246E-01 a       821     1     9     2     1
 -9.8963313528606638E-03 a       822     1     9     2     2
  5.9248174430310341E-01 a       823     1     9     2     3
  2.3225496308625349E-01 a       824     1     9     2     4
 -4.3454345159894725E-01 a       825     1     9     2     5
  2.6141998312254922E-01 a       826     1     9     2     6
  1.5641715524035538E-01 a       827     1     9     2     7
 -4.6278768035862986E-03 a       828     1     9     2     8
  4.1602104394255307E-01 a       829     1     9     2     9
  6.8863513366421236E-01 a       830     1     9     2    10
 -5.2994933946873983E-02 a       831     1     9     2    11
  2.2768427423977725E-01 a       832     1     9     2    12
  5.8855922422339213E-01 a       833     1     9     2    13
  4.1142069160151146E-02 a       834     1     9     2    14
 -4.7782700718020987E-02 a       835     1     9     2    15
  1.6658569403838197E-01 a       836     1     9     2    16
  5.5228354635913790E-01 a       837     1     9     2    17
  6.9959387758086397E-03 a       838     1     9     2    18
  2.9237561511516302E-01 a       839     1     9     2    19
  5.3281200719226721E-02 a       840     1     9     2    20
  4.9769511312855785E-01 a       841     1    10     2     1
  5.9158796816237857E-01 a       842     1    10     2     2
  1.2685381742964041E-01 a       843     1    10     2     3
 -4.5749507445730164E-01 a       844     1    10     2     4
 -5.6399519280530175E-01 a       845     1    10     2     5
 -2.6963783023834675E-01 a       846     1    10     2     6
  5.8507403403930081E-01 a       847     1    10     2     7
  4.1034281197881001E-01 a       848     1    10     2     8
 -5.1215495221246965E-01 a       849     1    10     2     9
 -5.3913813047929460E-01 a       850     1    10     2    10
  2.5132898312390983E-01 a       851     1    10     2    11
 -2.9491112983703077E-01 a       852     1    10     2    12
  6.1062167011866697E-01 a       853     1    10     2    13
  2.9695140749772930E-01 a       854     1    10     2    14
 -3.2517719175404558E-01 a       855     1    10     2    15
  2.6149506797732003E-01 a       856     1    10     2    16
 -8.4373358923859609E-02 a       857     1    10     2    17
 -4.3516141259526231E-01 a       858     1    10     2    18
 -1.9664903458527266E-01 a       859     1    10     2    19
 -1.3063269439426747E-01 a       860     1    10     2    20
 -5.8166876728199746E-01 a       861     1    11     2     1
 -3.7674230719394064E-01 a       862     1    11     2     2
  5.4721571828639459E-01 a       863     1    11     2     3
  9.1974877300988966E-02 a       864     1    11     2     4
 -3.7157380490939879E-01 a       865     1    11     2     5
 -3.6203329641308968E-01 a       866     1    11     2     6
  3.9771307394036039E-02 a       867     1    11     2     7
  2.3511618118654767E-01 a       868     1    11     2     8
  1.9351352549376710E-01 a       869     1    11     2     9
  4.5731405865766309E-02 a       870     1    11     2    10
 -5.6380675359772529E-02 a       871     1    11     2    11
  3.2656917839079352E-01 a       872     1    11     2    12
  2.2880622248845875E-01 a       873     1    11     2    13
 -3.4162026892094538E-01 a       874     1    11     2    14
 -4.9643844165918721E-01 a       875     1    11     2    15
 -3.8083733928687125E-01 a       876     1    11     2    16
  5.0960845220530859E-01 a       877     1    11     2    17
  2.3578770824737617E-02 a       878     1    11     2    18
 -2.3916014035634386E-01 a       879     1    11     2    19
  5.6420518381728013E-01 a       880     1    11     2    20
 -4.7602136388500083E-01 a       881     1    12     2     1
  7.7220597485687725E-01 a       882     1    12     2     2
 -3.6423765427529659E-01 a       883     1    12     2     3
  1.8758043875169322E-01 a       884     1    12     2     4
  6.6134332056961498E-01 a       885     1    12     2     5
 -4.6087146091105768E-01 a       886     1    12     2     6
 -5.0198104997855575E-01 a       887     1    12     2     7
 -9.3604859928701906E-02 a       888     1    12     2     8
  3.8302826210593999E-01 a       889     1    12     2     9
 -3.4539381525381982E-02 a       890     1    12     2    10
 -8.0932894271906239E-02 a       891     1    12     2    11
 -3.2896859674099926E-01 a       892     1    12     2    12
  4.1996768251935379E-01 a       893     1    12     2    13
  1.2150137666735379E-01 a       894     1    12     2    14
 -3.9537988753173808E-01 a       895     1    12     2    15
  5.6387172379936601E-01 a       896     1    12     2    16
 -4.4230006062366850E-02 a       897     1    12     2    17
 -2.6556397378510227E-01 a       898     1    12     2    18
 -3.6695433402817346E-01 a       899     1    12     2    19
  4.2969530329877759E-01 a       900     1    12     2    20
 -4.8386359370912978E-03 a       901     1    13     2     1
  3.3003568575927217E-01 a       902     1    13     2     2
 -4.4805868868116744E-01 a       903     1    13     2     3
  2.6279340384871958E-01 a       904     1    13     2     4
 -1.5752848487368998E-01 a       905     1    13     2     5
  1.8505430461891341E-02 a       906     1    13     2     6
  1.7269907649016117E-01 a       907     1    13     2     7
 -3.2131335341883799E-01 a       908     1    13     2     8
  3.1387746763499258E-01 a       909     1    13     2     9
  4.2654567558371143E-01 a       910     1    13     2    10
 -4.4356659368190321E-01 a       911     1    13     2    11
 -1.5374422968019005E-01 a       912     1    13     2    12
 -5.5482174178109889E-01 a       913     1    13     2    13
  4.4010218006139545E-01 a       914     1    13     2    14
  6.4026215952307441E-01 a       915     1    13     2    15
 -3.7274061723785612E-01 a       916     1    13     2    16
  5.3516967451717201E-01 a       917     1    13     2    17
  1.4953777334554766E-01 a       918     1    13     2    18
 -8.5196004432745900E-02 a       919     1    13     2    19
  7.7774842497544780E-02 a       920     1    13     2    20
 -3.3782304661489393E-01 a       921     1    14     2     1
  5.2091005379397415E-01 a       922     1    14     2     2
  3.3475083431482389E-01 a       923     1    14     2     3
  6.7623156229137305E-01 a       924     1    14     2     4
 -1.2422810749410712E-01 a       925     1    14     2     5
 -3.8977451202077656E-02 a       926     1    14     2     6
 -4.8755546229167135E-01 a       927     1    14     2     7
 -5.1715438365534760E-01 a       928     1    14     2     8
 -3.1238488524343511E-01 a       929     1    14     2     9
 -1.7223538771971073E-01 a       930     1    14     2    10
  3.1995202181099752E-01 a       931     1    14     2    11
 -1.4393835796306112E-01 a       932     1    14     2    12
  2.1650832750519347E-01 a       933     1    14     2    13
  3.8852201705976197E-01 a       934     1    14     2    14
 -4.0113275385449415E-01 a       935     1    14     2    15
  3.4479455623626654E-01 a       936     1    14     2    16
  4.2407384179589946E-01 a       937     1    14     2    17
 -2.6823444377850048E-01 a       938     1    14     2    18
  5.1846654646737422E-01 a       939     1    14     2    19
  5.0542267094414983E-01 a       940     1    14     2    20
 -1.0190185913096426E-02 a       941     1    15     2     1
 -5.5680376414816890E-01 a       942     1    15     2     2
  6.3460992947280181E-01 a       943     1    15     2     3
  1.5774173401950048E-01 a       944     1    15     2     4
  3.4057862624255325E-01 a       945     1    15     2     5
  4.5834598136775218E-01 a       946     1    15     2     6
 -2.9143612057034946E-01 a       947     1    15     2     7
  4.7783637279597974E-01 a       948     1    15     2     8
  2.3270324767691034E-01 a       949     1    15     2     9
  2.2524014210417881E-01 a       950     1    15     2    10
 -2.5347005470864264E-01 a       951     1    15     2    11
 -4.3697126159267996E-01 a       952     1    15     2    12
  2.2825882585287879E-01 a       953     1    15     2    13
  7.0529316532874572E-02 a       954     1    15     2    14
 -4.9426563326668871E-01 a       955     1    15     2    15
  1.6805720814425887E-01 a       956     1    15     2    16
 -1.9859974176765272E-01 a       957     1    15     2    17
  1.3710968128203979E-01 a       958     1    15     2    18
  5.0735448642528835E-01 a       959     1    15     2    19
  6.1769502319146560E-02 a       960     1    15     2    20
 -2.1597799377490245E-01 a       961     1    16     2     1
 -2.1038891654160513E-01 a       962     1    16     2     2
  2.2676066113770282E-01 a       963     1    16     2     3
  4.1127089965621599E-01 a       964     1    16     2     4
 -2.6419876685050893E-02 a       965     1    16     2     5
 -6.6763630734051638E-01 a       966     1    16     2     6
 -5.4938679980456051E-01 a       967     1    16     2     7
 -4.5777510391095216E-01 a       968     1    16     2     8
 -1.5034606759991764E-01 a       969     1    16     2     9
 -5.7646213235235111E-01 a       970     1    16     2    10
  7.9889261831671055E-01 a       971     1    16     2    11
  5.1807787817808548E-01 a       972     1    16     2    12
 -4.7023822726346798E-01 a       973     1    16     2    13
 -3.4570615537654870E-01 a       974     1    16     2    14
  1.1330964554651526E-01 a       975     1    16     2    15
 -2.4130763951085846E-01 a       976     1    16     2    16
 -2.8615814452708876E-01 a       977     1    16     2    17
  5.5289242941303751E-01 a       978     1    16     2    18
  5.7382575470577478E-02 a       979     1    16     2    19
  4.1518113197642398E-01 a       980     1    16     2    20
  4.2806299342992077E-01 a       981     1    17     2     1
  2.2792572906217659E-01 a       982     1    17     2     2
 -1.3187523298314913E-01 a       983     1    17     2     3
  2.7468562501012156E-01 a       984     1    17     2     4
 -2.4902463652759615E-01 a       985     1    17     2     5
  7.8950893045434609E-02 a       986     1    17     2     6
 -1.8936460407104217E-02 a       987     1    17     2     7
 -2.3820200927385035E-01 a       988     1    17     2     8
  3.5583866052709329E-01 a       989     1    17     2     9
  4.3340877799880734E-01 a       990     1    17     2    10
 -4.1310210918620993E-01 a       991     1    17     2    11
  1.7892374353895266E-02 a       992     1    17     2    12
 -4.6183835791007977E-01 a       993     1    17     2    13
  3.9737340000509831E-02 a       994     1    17     2    14
 -4.5747912431170090E-01 a       995     1    17     2    15
 -6.5511851445263236E-01 a       996     1    17     2    16
  6.1337236947963147E-01 a       997     1    17     2    17
 -5.1605888859510091E-02 a       998     1    17     2    18
  2.9760570053644597E-01 a       999     1    17     2    19
  2.1421925816204829E-01 a      1000     1    17     2    20
 -6.9671554737183850E-01 a      1001     1    18     2     1
 -4.7595700858164036E-01 a      1002     1    18     2     2
  5.2933054270896451E-01 a      1003     1    18     2     3
  4.0434276096654159E-01 a      1004     1    18     2     4
  2.0918094539991330E-01 a      1005     1    18     2     5
  4.2446488871649152E-01 a      1006     1    18     2     6
 -2.4907623362121695E-01 a      1007     1    18     2     7
  2.3411502077236454E-01 a      1008     1    18     2     8
  8.9805693968036143E-02 a      1009     1    18     2     9
 -4.9128675503014302E-01 a      1010     1    18     2    10
  4.3848877189864804E-01 a      1011     1    18     2    11
  1.1134015067964696E-01 a      1012     1    18     2    12
  2.2583184748320734E-02 a      1013     1    18     2    13
 -1.7106790265803823E-01 a      1014     1    18     2    14
 -9.0322368855731514E-02 a      1015     1    18     2    15
  2.5554260984103466E-01 a      1016     1    18     2    16
  4.3971516538342120E-01 a      1017     1    18     2    17
 -5.0202163065771266E-01 a      1018     1    18     2    18
 -4.0275957649349786E-01 a      1019     1    18     2    19
 -3.7168947786334650E-01 a      1020     1    18     2    20
 -6.8075546183556990E-02 a      1021     1    19     2     1
 -2.7227499581403564E-01 a      1022     1    19     2     2
  7.8966249737128835E-01 a      1023     1    19     2     3
 -6.7671248070290768E-01 a      1024     1    19     2     4
 -2.4773163754682417E-01 a      1025     1    19     2     5
 -3.5857943450465679E-01 a      1026     1    19     2     6
 -2.6800315834891331E-01 a      1027     1    19     2     7
  1.4778699752889113E-01 a      1028     1    19     2     8
  5.1685728056814073E-01 a      1029     1    19     2     9
  3.7965102777413118E-01 a      1030     1    19     2    10
  3.8834973136702568E-02 a      1031     1    19     2    11
  5.0695615871079358E-01 a      1032     1    19     2    12
 -1.7458761924505445E-01 a      1033     1    19     2    13
 -4.3917945110761780E-01 a      1034     1    19     2    14
  4.6372708747481789E-01 a      1035     1    19     2    15
  2.7128328600195278E-01 a      1036     1    19     2    16
  5.3796042747301187E-01 a      1037     1    19     2    17
 -5.0800657877243938E-01 a      1038     1    19     2    18
  4.0380239758864978E-01 a      1039     1    19     2    19
 -4.6030916309002740E-01 a      1040     1    19     2    20
 -2.5149580086533779E-01 a      1041     1    20     2     1
  3.2675046549168646E-01 a      1042     1    20     2     2
 -3.5230599956905850E-01 a      1043     1    20     2     3
  2.6439171319404209E-01 a      1044     1    20     2     4
  4.4816528419518720E-01 a      1045     1    20     2     5
 -6.2660278576471673E-01 a      1046     1    20     2     6
 -4.8781603599869705E-01 a      1047     1    20     2     7
  3.4389006067284411E-01 a      1048     1    20     2     8
 -6.7561059545907765E-01 a      1049     1    20     2     9
  5.9495602664116276E-01 a      1050     1    20     2    10
 -7.1388792307815488E-02 a      1051     1    20     2    11
  3.3667626744433810E-01 a      1052     1    20     2    12
 -5.0393691619414767E-02 a      1053     1    20     2    13
 -1.5353154901930771E-01 a      1054     1    20     2    14
 -7.5856987138086340E-01 a      1055     1    20     2    15
 -1.9166766832492543E-01 a      1056     1    20     2    16
  8.5795415864108299E-02 a      1057     1    20     2    17
  5.1017195863556530E-01 a      1058     1    20     2    18
  9.5379876710136952E-02 a      1059     1    20     2    19
 -4.5839995801782230E-01 a      1060     1    20     2    20
  9.9950468885220567E-01 b      1061     2     1
  4.7191185694856204E-02 b      1062     2     2
 -2.4314474778748463E-01 b      1063     2     3
 -7.2744529467456231E-01 b      1064     2     4
  1.3727987172721925E-01 b      1065     2     5
 -3.4420294724742374E-02 b      1066     2     6
 -8.7356394109591617E-01 b      1067     2     7
 -6.7043419749487410E-01 b      1068     2     8
 -9.2318942535043258E-01 b      1069     2     9
  2.5064601267601178E-01 b      1070     2    10
 -7.6861372790490456E-01 b      1071     2    11
  4.8341398654124013E-01 b      1072     2    12
  7.8857909998485387E-01 b      1073     2    13
  1.4710170429008671E+00 b      1074     2    14
 -4.3851000432693177E-01 b      1075     2    15
  1.1974311549813252E+00 b      1076     2    16
 -1.6092483345473743E+00 b      1077     2    17
  1.6059749856793792E-01 b      1078     2    18
 -1.5295391593391376E+00 b      1079     2    19
 -1.5472338846356952E+00 b      1080     2    20
 -2.5603593095145416E-01 a      1081     2     1     3     1
 -1.1525539209779432E+00 a      1082     2     2     3     1
 -9.8000809031921532E-01 a      1083     2     3     3     1
 -1.1131456705088323E-01 a      1084     2     4     3     1
 -9.2838779996171672E-01 a      1085     2     5     3     1
 -8.2588752781483887E-01 a      1086     2     6     3     1
 -9.5936620732560118E-01 a      1087     2     7     3     1
  9.9728207653258749E-01 a      1088     2     8     3     1
  8.8616453510089588E-01 a      1089     2     9     3     1
  1.2202890919961908E-01 a      1090     2    10     3     1
 -1.0794305469443952E-01 a      1091     2    11     3     1
 -7.2470504089135557E-01 a      1092     2    12     3     1
 -4.3592769782694945E-03 a      1093     2    13     3     1
  7.5750109755762052E-01 a      1094     2    14     3     1
  9.8021845507406158E-01 a      1095     2    15     3     1
  1.5246657387192997E-01 a      1096     2    16     3     1
 -4.2447169469393992E-01 a      1097     2    17     3     1
 -8.4421991361210547E-01 a      1098     2    18     3     1
  2.2274491784735287E-01 a      1099     2    19     3     1
 -2.2717249990905308E-01 a      1100     2    20     3     1
 -6.4299133825671351E-01 b      1101     3     1
